{"type":"sb3_ppo_actor_tanh","policy_layers":[{"weight":[[0.12232422828674316,0.1360781043767929,0.08930700272321701,-0.15388323366641998,-0.03394998237490654,-0.10641723871231079,-0.06657683104276657,-0.04491598159074783,-0.06600777059793472,0.03404479846358299,0.2647377848625183,0.46598613262176514,-0.13168412446975708,0.14559757709503174,0.16237224638462067,0.16043297946453094,-0.00017393456073477864,0.14286725223064423,-0.1918952614068985,-0.05182519927620888,-0.18321000039577484,-0.18756432831287384,0.07658673077821732,0.06435932219028473,0.13880766928195953,0.07071051746606827,-0.1827511340379715,-0.09281161427497864,0.08509314805269241,-0.16922782361507416,-0.30495357513427734,0.11388019472360611,-0.29430344700813293,-0.10703322291374207,-0.02610086090862751,-0.28518420457839966,-0.26477986574172974,0.2869151830673218,-0.0023407230619341135,0.24646225571632385,-0.2235976755619049,-0.10001607984304428,0.18645645678043365,-0.07955135405063629,0.09846387058496475,-0.1530422568321228,0.1007336899638176,-0.29602012038230896,-0.026784708723425865,0.18163059651851654,-0.2497403621673584,-0.12541480362415314,-0.24686957895755768,-0.13957586884498596,0.32178932428359985,0.0883391797542572,-0.0033274211455136538,-0.03851776570081711,-0.3265088200569153,-0.23945781588554382,-0.17916075885295868,0.242752343416214,-0.1312112659215927,0.03039673902094364,0.2101527452468872],[-0.2853088974952698,0.13110920786857605,-0.03680811822414398,-0.04154020920395851,0.19268499314785004,0.022241903468966484,0.08553503453731537,-0.1808120161294937,-0.12848103046417236,-0.2509276270866394,0.1239851862192154,0.5521427392959595,0.023719513788819313,0.06916733086109161,-0.24452024698257446,0.11029135435819626,-0.06169717013835907,-0.0847567543387413,-0.2428400218486786,-0.16604655981063843,0.07839307188987732,0.26056602597236633,0.171915203332901,-0.04618328809738159,0.28763246536254883,0.3614712953567505,-0.1453264057636261,0.16135214269161224,0.03364546224474907,0.09563300013542175,-0.11155404895544052,-0.42569518089294434,0.10613303631544113,0.11141286045312881,-0.22851833701133728,-0.08942078799009323,0.24957242608070374,0.14478415250778198,-0.31407153606414795,-0.03512655943632126,-0.1085914894938469,0.1985047459602356,-0.2587921917438507,0.015401506796479225,0.10282033681869507,0.11026734113693237,-0.11042105406522751,-0.05585241690278053,-0.22608104348182678,0.09100252389907837,-0.14688798785209656,-0.0991726890206337,-0.011509775184094906,0.10244874656200409,-0.16391898691654205,-0.011023438535630703,-0.14460842311382294,0.24946025013923645,-0.09094783663749695,-0.1966741532087326,-0.03294461965560913,-0.3673153221607208,-0.030797718092799187,-0.21192602813243866,-0.18215970695018768],[-0.128937765955925,0.15734337270259857,0.2058197408914566,0.18892166018486023,0.23924338817596436,0.03232545405626297,0.29210999608039856,-0.21155142784118652,-0.2745245099067688,-0.18933920562267303,-0.013091225177049637,-0.03607131913304329,0.10951581597328186,0.1761186271905899,0.014273818582296371,-0.09532422572374344,0.16056804358959198,0.10001533478498459,0.11442794650793076,-0.17823565006256104,-0.13729926943778992,-0.17068560421466827,0.2900049090385437,-0.055582888424396515,-0.0715443566441536,-0.19924966990947723,-0.11233597248792648,-0.23239940404891968,-0.23008474707603455,-0.20574232935905457,-0.02447993867099285,0.14518426358699799,0.23427754640579224,0.36337000131607056,-0.05208558961749077,0.3552135229110718,0.27811524271965027,0.37352249026298523,-0.026438243687152863,0.011762014590203762,-0.08210331946611404,-0.22159147262573242,0.05372535437345505,-0.011105259880423546,-0.12308740615844727,-0.10736878961324692,0.058306168764829636,-0.02765021100640297,-0.1671518236398697,-0.17160698771476746,-0.5560886859893799,-0.12473950535058975,-0.18828488886356354,0.02294367365539074,-0.17485931515693665,-0.05867238715291023,0.28996536135673523,0.08275258541107178,-0.18119966983795166,-0.09221754968166351,-0.228069007396698,-0.21688197553157806,-0.032031524926424026,0.24463005363941193,0.009154019877314568],[-0.2732721269130707,0.2122572362422943,-0.05535552278161049,0.48948144912719727,0.09694969654083252,-0.03225323185324669,-0.2426730990409851,-0.0422283373773098,-0.5068814158439636,-0.15980753302574158,-0.1310792714357376,0.387225866317749,0.16112959384918213,-0.010540934279561043,0.21694202721118927,0.15132609009742737,0.017313679680228233,0.015176584012806416,-0.0962645635008812,-0.25261005759239197,-0.285302996635437,-0.16120502352714539,0.18975849449634552,-0.1446067988872528,0.10550987720489502,0.26328760385513306,0.3126497268676758,0.09788552671670914,0.46583330631256104,-0.3038187026977539,0.11508344113826752,-0.13361500203609467,-0.08998341858386993,0.030781295150518417,-0.042054302990436554,0.1379368007183075,0.21466675400733948,-0.21177414059638977,0.014391385018825531,-0.030222157016396523,-0.026233764365315437,-0.0008189348736777902,0.0007310234359465539,0.0022160226944833994,0.011663652956485748,0.027712156996130943,0.2886503040790558,-0.041891902685165405,0.06612039357423782,-0.05699875205755234,0.11148056387901306,-0.14665409922599792,-0.1725398600101471,0.08146673440933228,-0.04615173488855362,0.21925050020217896,0.3284347653388977,-0.07754292339086533,-0.22955982387065887,0.15692229568958282,-0.09881573170423508,0.0018806981388479471,0.25277093052864075,-0.009819463826715946,0.2668021023273468],[-0.3001404404640198,0.07964951545000076,-0.43076080083847046,0.016480041667819023,-0.06279369443655014,-0.026179859414696693,0.0022449465468525887,0.30502793192863464,-0.3138766884803772,0.1968224197626114,0.1262204349040985,0.47525206208229065,-0.3940245807170868,-0.10267826914787292,-0.05872008949518204,0.10800203680992126,0.06968434900045395,0.03968595340847969,0.27321991324424744,-0.19281020760536194,-0.21437101066112518,-0.31285879015922546,-0.17054833471775055,-0.10684070736169815,-0.07053321599960327,0.14403235912322998,-0.08751626312732697,0.01890869438648224,0.014933004975318909,-0.016243578866124153,0.1129339411854744,-0.20782147347927094,0.2694249153137207,0.050241004675626755,0.25020739436149597,0.07731527835130692,0.0917176604270935,0.47912222146987915,-0.20051421225070953,0.03242180496454239,0.03983476012945175,-0.04732814058661461,0.1788647472858429,0.2662632167339325,0.060164276510477066,-0.030649544671177864,-0.0018054231768473983,0.23674848675727844,0.031863514333963394,-0.18150021135807037,0.07303333282470703,0.1004628911614418,-0.2531605064868927,-0.19363559782505035,-0.1532277762889862,0.03302792087197304,-0.11313523352146149,0.012192534282803535,-0.09239725023508072,0.055592458695173264,-0.17633117735385895,-0.2885870933532715,-0.26567861437797546,0.173381045460701,0.28712138533592224],[-0.2956245243549347,0.02385331690311432,-0.022586917504668236,0.34350547194480896,0.1869732141494751,-0.043775711208581924,-0.06204468756914139,-0.2853679656982422,-0.5845612287521362,0.07615415006875992,0.18379101157188416,0.2201625406742096,-0.036532893776893616,0.10973365604877472,0.19392457604408264,-0.22183941304683685,-0.3021063208580017,0.06378567218780518,0.07129135727882385,0.03444957733154297,-0.28267988562583923,-0.09609079360961914,-0.07485123723745346,-0.1502644419670105,0.19681377708911896,0.09420455247163773,-0.08768433332443237,-0.23674927651882172,-0.3320092260837555,0.40420860052108765,0.04410720244050026,-0.06469693779945374,0.17326602339744568,-0.03841853514313698,-0.06864293664693832,0.08648544549942017,0.002093574497848749,0.08110135048627853,0.13206560909748077,0.3239613473415375,-0.23246528208255768,0.2279680371284485,-0.03341381251811981,0.2459997832775116,-0.03689276799559593,-0.043726738542318344,0.10804444551467896,0.1520182490348816,0.04277494549751282,0.3147965669631958,-0.07659440487623215,-0.18861058354377747,-0.041213929653167725,0.16252294182777405,0.19971489906311035,0.3342396020889282,-0.210633784532547,0.20012840628623962,0.03616949915885925,0.2464846819639206,0.10330577939748764,0.07272285968065262,0.09411895275115967,0.2006743997335434,0.06456691026687622],[-0.07558312267065048,-0.304368793964386,-0.10623514652252197,-0.04652510583400726,-0.4290509819984436,-0.2270049899816513,0.29944276809692383,-0.12278752774000168,-0.2901441752910614,-0.02636411041021347,0.49407389760017395,0.28105854988098145,0.21721675992012024,0.11604708433151245,-0.07835723459720612,0.1293567419052124,0.1910061240196228,0.07783110439777374,-0.05296965315937996,-0.0012468222994357347,-0.24690723419189453,0.10107964277267456,0.1882891058921814,-0.16050757467746735,0.2328464835882187,0.06363698840141296,0.021580658853054047,-0.0024284932296723127,0.01962500624358654,0.02174415998160839,-0.021680669859051704,-0.15564458072185516,-0.03166899085044861,0.2621571123600006,0.10986490547657013,0.48283952474594116,-0.3164632320404053,-0.06805011630058289,0.13092108070850372,0.001977546839043498,0.3839978575706482,-0.054294463247060776,-0.0038432504516094923,0.01659415289759636,-0.02801479771733284,0.012130667455494404,-0.024231038987636566,-0.03187481313943863,0.06769312173128128,-0.08262914419174194,0.0909479483962059,-0.05889938771724701,-0.26328781247138977,0.06584527343511581,0.17299452424049377,-0.18416643142700195,0.1576942503452301,0.022048788145184517,0.16891570389270782,-0.06973516941070557,0.24924887716770172,-0.13736020028591156,0.05995487794280052,-0.03974645957350731,0.15856333076953888],[0.09892996400594711,-0.22887654602527618,0.07247079163789749,-0.059321772307157516,-0.1918855458498001,0.18575890362262726,0.20170491933822632,0.023094696924090385,0.25090640783309937,-0.17138364911079407,0.031563498079776764,-0.2604646384716034,-0.044690344482660294,0.14550532400608063,0.2486719936132431,0.07149098068475723,-0.010526335798203945,-0.20347774028778076,0.26080259680747986,-0.07594480365514755,-0.01903894916176796,0.006871332880109549,-0.05887287110090256,0.12044381350278854,-0.10935737192630768,0.05347024276852608,0.005681714043021202,0.3643561601638794,-0.3563615679740906,-0.24652470648288727,0.23113347589969635,-0.22606444358825684,-0.12163450568914413,-0.19857105612754822,-0.46602025628089905,-0.08402734249830246,-0.14741836488246918,0.03107481263577938,0.0757901519536972,0.34946852922439575,-0.08611408621072769,0.19001352787017822,-0.011034890078008175,-0.25091680884361267,-0.10723583400249481,0.09509734809398651,-0.18070316314697266,0.20402050018310547,0.046121589839458466,-0.006728952284902334,0.2627031207084656,-0.3661666512489319,-0.02174362540245056,0.2701839804649353,-0.10262086242437363,-0.12984099984169006,0.055386655032634735,-0.03147176653146744,-0.043171271681785583,0.06482851505279541,-0.3284342586994171,-0.017291048541665077,0.017900817096233368,0.1431886851787567,0.027022425085306168],[-0.10479260236024857,0.17303304374217987,-0.14636465907096863,-0.17354023456573486,0.1365860551595688,0.17108337581157684,-0.4276278018951416,0.058430153876543045,-0.007906027138233185,-0.11072852462530136,-0.11435505002737045,-0.19963178038597107,-0.2132769227027893,0.4650703966617584,-0.037046972662210464,0.06638523191213608,0.06007443368434906,-0.09308541566133499,-0.15440374612808228,0.04690106585621834,-0.35316145420074463,0.1820799857378006,-0.15706904232501984,-0.23972229659557343,-0.06831914931535721,-0.1297554224729538,0.019084805622696877,-0.0068763261660933495,0.06713397800922394,0.4408337473869324,0.15485116839408875,-0.10999397933483124,-0.007643864490091801,0.2969150245189667,-0.04953068122267723,0.0794176533818245,-0.2608296871185303,-0.004466191399842501,-0.1893475502729416,-0.2100801318883896,0.05112991854548454,-0.10033119469881058,0.059728145599365234,-0.03154024854302406,0.03656243532896042,-0.01891407184302807,-0.03556797280907631,0.052913013845682144,0.25306135416030884,0.19082385301589966,-0.17414788901805878,-0.30769556760787964,-0.21992288529872894,0.01572692021727562,-0.3114872872829437,-0.20553463697433472,-0.025598742067813873,-0.0536598265171051,0.01622241735458374,-0.09242083877325058,-0.07851772755384445,0.16377244889736176,0.11585625261068344,0.02036171592772007,0.10622601956129074],[-0.09717480838298798,0.11012110859155655,-0.24478590488433838,0.09452187269926071,-0.09851446002721786,0.23791863024234772,-0.013782302848994732,0.1415720283985138,-0.4815331697463989,-0.06778635084629059,-0.31367313861846924,0.19158393144607544,0.23675160109996796,-0.0891016349196434,0.09700722992420197,0.39348194003105164,-0.24685437977313995,-0.34967783093452454,-0.19437673687934875,-0.015530739910900593,-0.11527898907661438,-0.3717576861381531,0.07813692837953568,-0.15702106058597565,0.10366325080394745,-0.40306687355041504,0.12300130724906921,0.01784859411418438,-0.17562498152256012,-0.0973997414112091,0.02383299730718136,-0.009251182898879051,0.0907394215464592,-0.029549486935138702,0.07233184576034546,0.2672143280506134,-0.1815434694290161,0.21116231381893158,-0.06331796944141388,-0.06435512751340866,-0.14226621389389038,0.404336154460907,-0.06916514039039612,-0.062181152403354645,-0.037523843348026276,0.02159995399415493,-0.21315474808216095,-0.1357116848230362,0.02777969092130661,0.05436170846223831,-0.2899909019470215,0.11236285418272018,-0.05007948353886604,0.0057196537964046,0.3426644206047058,-0.10869241505861282,-0.031451266258955,-0.16586312651634216,0.0882403701543808,-0.003570605767890811,0.020675044506788254,-0.11177735030651093,-0.12227701395750046,-0.13989987969398499,-0.22707447409629822],[0.27448078989982605,-0.27074190974235535,0.10512479394674301,-0.07600288093090057,0.32222920656204224,0.0730544924736023,-0.1408023238182068,0.16640599071979523,0.2921847999095917,0.20697878301143646,-0.002080705249682069,0.03823567554354668,-0.2763857841491699,0.03188672661781311,-0.016241708770394325,-0.0525776632130146,-0.21263951063156128,-0.06117253378033638,0.14633676409721375,-0.10991912335157394,-0.0019473863067105412,-0.1822664439678192,-0.33672553300857544,0.16557151079177856,0.06540945172309875,-0.09653103351593018,0.025930460542440414,-0.036211565136909485,0.09832367300987244,-0.4436115622520447,0.025110343471169472,-0.06454262882471085,0.2152099609375,0.13348129391670227,-0.35887211561203003,0.08703505992889404,-0.15725922584533691,-0.11448809504508972,0.18730293214321136,-0.07630720734596252,0.0326269194483757,-0.029643036425113678,0.30093297362327576,0.06918159127235413,-0.25834622979164124,-0.27337926626205444,-0.0013492945581674576,-0.2716507315635681,-0.1298820674419403,0.26276347041130066,0.26832419633865356,0.07981564104557037,0.036999594420194626,0.2051147222518921,-0.27877601981163025,-0.08744946122169495,0.10011570900678635,0.18488900363445282,0.3716937005519867,-0.13380955159664154,0.06589249521493912,0.1094256043434143,0.18808315694332123,-0.16447214782238007,-0.3516285717487335],[0.12330590933561325,0.04215854033827782,-0.24761995673179626,-0.00523041095584631,-0.06812704354524612,-0.24760955572128296,-0.1778559535741806,0.025463087484240532,0.29986870288848877,-0.199377179145813,0.19727961719036102,-0.2844826877117157,-0.13704556226730347,-0.2894955575466156,0.05506277456879616,-0.03211979195475578,-0.2600647807121277,0.06872978806495667,0.3672774136066437,0.02031208947300911,0.2509894371032715,0.14266012609004974,-0.08362842351198196,0.13179980218410492,0.3691236972808838,-0.0948629081249237,0.13881000876426697,-0.1765216886997223,0.013620540499687195,-0.30007126927375793,0.2206420749425888,-0.028727464377880096,-0.42889538407325745,-0.015780489891767502,-0.006925071589648724,0.19882796704769135,0.0196749996393919,0.19781768321990967,-0.3344433009624481,0.1461026668548584,0.17106857895851135,-0.0548149012029171,0.043531905859708786,-0.10877010971307755,0.36456385254859924,0.006592101883143187,0.2015063464641571,-0.009609520435333252,0.10779856890439987,0.11956936120986938,-0.2876448333263397,-0.10417018830776215,0.2786385715007782,0.10969244688749313,-0.0881851390004158,-0.08429408073425293,-0.058362752199172974,0.003077091183513403,0.33204054832458496,0.03514533117413521,0.020683642476797104,0.09406530857086182,0.0561780221760273,-0.14525651931762695,-0.04152611270546913],[-0.16538052260875702,0.5127950310707092,-0.22116424143314362,-0.1295647919178009,-0.22328124940395355,-0.06535647809505463,0.2150188833475113,-0.14867419004440308,-0.2549009919166565,-0.04224878177046776,-0.08459971845149994,0.042486295104026794,-0.06352557986974716,-0.18210148811340332,-0.041883546859025955,-0.19989317655563354,-0.0844307616353035,-0.02077375166118145,0.05342357978224754,0.2922855615615845,-0.3677847385406494,0.2039179652929306,0.2823653221130371,-0.010242144577205181,0.07521439343690872,-0.05212905630469322,-0.060902342200279236,0.22553633153438568,0.07667067646980286,-0.24236661195755005,-0.22434483468532562,-0.008305955678224564,0.3292529284954071,0.36825358867645264,-0.2638155519962311,-0.10157740861177444,0.02553589455783367,0.0616520456969738,0.20411185920238495,0.08050236850976944,-0.06095108762383461,0.012004833668470383,-0.07598483562469482,0.2029070407152176,-0.015212977305054665,-0.16592355072498322,0.09628987312316895,0.13174991309642792,-0.12530720233917236,0.0941009595990181,0.04611809551715851,-0.003885098034515977,0.010857549495995045,-0.1558983474969864,0.14179719984531403,-0.17532356083393097,0.011744424700737,0.033991534262895584,0.1764918863773346,0.24767136573791504,-0.1925864815711975,0.17627564072608948,-0.1012633740901947,-0.32698318362236023,0.3100875914096832],[0.07004670053720474,0.07157644629478455,0.07415054738521576,0.344009667634964,0.21356965601444244,0.08657015115022659,-0.030704695731401443,-0.17002306878566742,-0.4547571837902069,-0.2882104218006134,0.05769393593072891,0.4190663993358612,0.09853066504001617,-0.04660695418715477,0.11164413392543793,-0.05277759209275246,-0.18695609271526337,0.10400763899087906,-0.10080919414758682,-0.06302156299352646,-0.30270275473594666,0.35071703791618347,0.11658398061990738,0.01575307920575142,-0.004848729353398085,0.11879511177539825,-0.012810636311769485,-0.06034192070364952,-0.1862495243549347,0.038634687662124634,-0.1697647124528885,0.1327807456254959,0.08325230330228806,-0.08378036320209503,0.44434797763824463,-0.20686307549476624,-0.08092765510082245,0.33323678374290466,-0.1699821949005127,-0.013687788508832455,0.16057166457176208,-0.1564396619796753,0.2743692696094513,-0.06796447187662125,-0.11658358573913574,0.013318455778062344,-0.12531375885009766,0.17910227179527283,0.11482954770326614,-0.29010605812072754,0.22597862780094147,-0.026670392602682114,-0.20256514847278595,0.1684017777442932,-0.029150592163205147,-0.24135859310626984,0.062258344143629074,-0.14599038660526276,0.1623530089855194,0.14782118797302246,-0.22385072708129883,0.1088888868689537,-0.1162894144654274,-0.24008296430110931,-0.2639830708503723],[0.07679740339517593,-0.24487186968326569,-0.25918373465538025,-0.32705047726631165,0.31863734126091003,-0.09761769324541092,-0.26746678352355957,-0.17651787400245667,-0.4059694707393646,-0.06485328078269958,-0.19425253570079803,-0.1328982263803482,0.19006262719631195,0.0286235474050045,-0.2382790595293045,-0.06210356578230858,0.171721950173378,-0.2865503430366516,-0.013695156201720238,-0.12746652960777283,-0.11319747567176819,-0.06677524745464325,0.1524522751569748,-0.11219494789838791,0.0752377063035965,-0.12139318138360977,-0.1783294975757599,-0.2479146271944046,-0.1663333922624588,-0.22228743135929108,-0.055634111166000366,-0.19645844399929047,-0.2437773197889328,0.12781117856502533,0.18377192318439484,-0.1726822704076767,0.01990993320941925,0.10160156339406967,0.16223150491714478,0.01471562311053276,-0.05393943935632706,-0.03955870494246483,-0.03427661210298538,-0.038414351642131805,-0.012547360733151436,-0.09016255289316177,0.24205665290355682,0.08341259509325027,0.08563293516635895,-0.3294850289821625,0.24767254292964935,-0.15602320432662964,0.1602533608675003,0.019404733553528786,0.04916796088218689,0.17085938155651093,-0.12999993562698364,0.37902167439460754,0.013829783536493778,-0.09064650535583496,-0.024746038019657135,-0.03910595923662186,-0.1791643351316452,-0.10984659940004349,0.19221574068069458],[-0.09280170500278473,0.04578547924757004,0.03297382965683937,-0.009851783514022827,-0.09319630265235901,-0.23351195454597473,-0.05748464912176132,-0.06990312039852142,-0.12866894900798798,-0.2359492927789688,-0.1832335740327835,0.16089937090873718,-0.08991096913814545,0.13757739961147308,0.11089951545000076,0.033268120139837265,-0.1932753324508667,-0.023609131574630737,0.2441496104001999,0.02916376106441021,-0.22627544403076172,0.18353110551834106,0.12533392012119293,-0.24100153148174286,0.05339747667312622,0.42163655161857605,-0.024885116145014763,0.1671823114156723,-0.24324089288711548,-0.17507430911064148,0.3924905061721802,0.06997115910053253,-0.022961270064115524,-0.15144018828868866,0.21292904019355774,0.03586340695619583,0.22005611658096313,0.059831827878952026,0.3513844907283783,-0.3146635591983795,0.04414863511919975,-0.009539270773530006,-0.014744501560926437,-0.06306418031454086,-0.17024348676204681,-0.1826261281967163,-0.2281530797481537,0.009762540459632874,0.055051688104867935,0.14956656098365784,-0.13795341551303864,0.22501996159553528,-0.06369255483150482,-0.20908355712890625,0.10579371452331543,0.19461502134799957,-0.17559117078781128,-0.05528281629085541,0.14283162355422974,-0.43352779746055603,-0.20960988104343414,-0.03870757296681404,0.16427452862262726,0.22745460271835327,-0.003112961770966649],[-0.33085888624191284,0.09083399176597595,0.2359837144613266,-0.007412887644022703,-0.09247912466526031,-0.1786387413740158,-0.21236565709114075,-0.1215578243136406,-0.08420657366514206,-0.011106466874480247,0.006485017016530037,0.12444473057985306,-0.03417231887578964,0.13392749428749084,-0.01536798570305109,-0.14050082862377167,0.14087554812431335,-0.11719579249620438,0.12675949931144714,-0.29245898127555847,-0.17650452256202698,-0.24342916905879974,0.02133537456393242,0.1814417690038681,0.16124680638313293,-0.06859052181243896,0.15599338710308075,0.023770499974489212,-0.10234329849481583,0.1296207308769226,-0.11103396862745285,-0.0321655236184597,0.08527643978595734,0.06860015541315079,0.08682267367839813,0.1435321867465973,-0.10141348838806152,0.10065121948719025,-0.3091292977333069,-0.06338461488485336,0.08402657508850098,0.07821643352508545,-0.24117513000965118,0.1180102527141571,-0.09717198461294174,0.5083979964256287,0.017488041892647743,0.018972449004650116,-0.450742244720459,-0.04274235665798187,0.22044961154460907,0.06911171227693558,0.14849717915058136,-0.10468191653490067,0.14313530921936035,0.05338277295231819,0.2637994885444641,0.005134244449436665,0.21089166402816772,-0.1317436248064041,-0.2889697551727295,0.44301730394363403,-0.17105038464069366,0.23831085860729218,-0.026746349409222603],[0.10137500613927841,0.08964447677135468,0.08207070827484131,0.09458780288696289,0.2104576677083969,0.04139252007007599,0.03807094693183899,-0.09879913181066513,-0.34508711099624634,0.17426535487174988,-0.22936885058879852,0.14984126389026642,-0.07679717242717743,-0.43298929929733276,0.14718517661094666,0.24026881158351898,0.09336873888969421,0.26956886053085327,-0.008313478901982307,-0.21814437210559845,-0.24755635857582092,0.3502236604690552,0.20307067036628723,0.052548039704561234,0.16334344446659088,-0.05277905985713005,0.007484807167202234,-0.1803688257932663,0.06468266993761063,0.030636539682745934,0.24240079522132874,-0.009838349185883999,0.06204766035079956,0.3495478630065918,-0.23690201342105865,-0.010718739591538906,-0.12609125673770905,-0.013304450549185276,-0.2993752658367157,0.314627468585968,0.08584162592887878,-0.03332951292395592,-0.28992804884910583,0.1366296261548996,-0.26595214009284973,-0.033623140305280685,-0.2334929257631302,-0.1041487455368042,0.15776854753494263,-0.046637192368507385,0.16811612248420715,-0.0678594708442688,-0.032277170568704605,-0.1479712277650833,0.08282534778118134,0.12015076726675034,-0.1566305160522461,-0.2956531047821045,-0.03503051772713661,-0.32966750860214233,0.16595035791397095,-0.12918178737163544,-0.16822458803653717,0.2991330921649933,0.07155905663967133],[0.06846360862255096,-0.17504477500915527,0.13260233402252197,0.0034072846174240112,-0.15803347527980804,-0.04618994891643524,-0.1864946186542511,0.299932062625885,0.10313425958156586,-0.40071284770965576,-0.19412116706371307,-0.0668889507651329,0.01977960206568241,0.025972288101911545,-0.16132277250289917,-0.22884532809257507,0.0731935128569603,0.016801461577415466,0.09665828198194504,-0.027549002319574356,0.2078414261341095,0.15221837162971497,-0.29603445529937744,0.13650572299957275,0.09146566689014435,0.263409823179245,0.09825703501701355,-0.16801507771015167,-0.39541396498680115,0.0492129772901535,0.03527941554784775,-0.2120078057050705,-0.03286260366439819,0.18452128767967224,-0.04518447816371918,-0.022821767255663872,-0.19346129894256592,-0.029008060693740845,-0.05911480635404587,-0.05668529123067856,-0.12245361506938934,0.17174357175827026,0.057923298329114914,0.19696858525276184,-0.26516062021255493,-0.27158454060554504,0.17833368480205536,-0.41346535086631775,-0.046798672527074814,0.0100853955373168,0.009982606396079063,0.2547217011451721,0.08922504633665085,-0.027407173067331314,0.09750980138778687,-0.2733185589313507,0.0232799481600523,-0.27293527126312256,-0.2508351504802704,0.3356773555278778,-0.0609310120344162,-0.04831526055932045,0.08180542290210724,0.04268134385347366,0.10076231509447098],[0.42448559403419495,0.07107336074113846,0.23075006902217865,-0.07676742225885391,-0.01764855347573757,0.17293116450309753,-0.008071412332355976,0.12097922712564468,0.1102958470582962,0.22465266287326813,0.2512509524822235,-0.1387365162372589,-0.02954960986971855,0.11429048329591751,-0.004651213064789772,0.1730443686246872,0.03073585033416748,-0.1594499796628952,0.011534572578966618,-0.16089586913585663,0.10634104162454605,0.26271456480026245,0.1648939549922943,-0.48067694902420044,-0.15850596129894257,0.07953733950853348,0.3363102674484253,0.16732197999954224,-0.26741665601730347,-0.1884385347366333,-0.20633921027183533,0.062411434948444366,-0.09898792207241058,0.14067193865776062,0.19893532991409302,-0.07820374518632889,-0.11338460445404053,-0.03095225989818573,-0.30660587549209595,-0.054544296115636826,-0.344609797000885,-0.08643776178359985,0.026586998254060745,-0.017817890271544456,0.10445727407932281,-0.10645226389169693,0.1293955296278,0.10403028875589371,-0.35354822874069214,0.18550819158554077,0.05528537556529045,0.07960781455039978,0.08628906309604645,-0.08508479595184326,-0.03280513733625412,0.16810539364814758,0.05445808917284012,-0.0055069574154913425,0.37592455744743347,0.0947803407907486,0.29307880997657776,-0.08110767602920532,0.12559446692466736,0.10750770568847656,0.16241002082824707],[0.030032208189368248,-0.08233896642923355,0.06158211827278137,0.2476370483636856,-0.01683897338807583,-0.05011014640331268,-0.07205165177583694,-0.0642046183347702,-0.08692245185375214,0.025770410895347595,-0.175606369972229,0.38125118613243103,0.06866901367902756,-0.11454601585865021,-0.22393947839736938,-0.26677051186561584,0.06871455162763596,-0.15845447778701782,0.25036272406578064,-0.00458567077293992,-0.39383506774902344,0.31625109910964966,-0.03475606068968773,0.20973077416419983,-0.1210642009973526,-0.2512567639350891,-0.19462046027183533,0.045111384242773056,-0.006364108063280582,-0.1519826054573059,-0.19440828263759613,-0.04466192051768303,0.19802804291248322,0.08356305956840515,0.06119967997074127,0.24197296798229218,0.06815022230148315,0.19640347361564636,-0.26001960039138794,-0.3398272395133972,-0.012133165262639523,0.10652828961610794,0.010963733308017254,-0.3283022940158844,0.2758477032184601,0.031031329184770584,-0.1727631539106369,0.15797890722751617,0.11793486028909683,0.29528191685676575,0.06379768252372742,-0.06785566359758377,-0.19070963561534882,0.13404497504234314,0.35134387016296387,0.36279845237731934,0.10807661712169647,0.049332521855831146,-0.36205634474754333,-0.04575178399682045,0.2128612995147705,-0.055303968489170074,-0.001062878523953259,0.009116670116782188,0.20752565562725067],[0.08824959397315979,0.3767051696777344,0.14913417398929596,-0.1658494472503662,0.17831851541996002,0.13085854053497314,0.21808570623397827,0.13543318212032318,-0.2418753057718277,-0.28960999846458435,0.18056856095790863,0.21180282533168793,0.18163013458251953,-0.24516525864601135,0.22599942982196808,-0.11212414503097534,0.016278764232993126,-0.10083498060703278,0.2016715407371521,0.17374946177005768,-0.41651949286460876,-0.30343496799468994,-0.1137583926320076,-0.08990420401096344,-0.1987779587507248,0.1100219339132309,-0.051662877202034,-0.07804751396179199,0.07691332697868347,0.06595494598150253,0.042285144329071045,0.03512010723352432,-0.12954764068126678,0.06906803697347641,0.05336730554699898,-0.115757517516613,0.11127308756113052,0.14742259681224823,-0.2496020644903183,0.0008100573322735727,0.1879974603652954,0.3133391737937927,-0.20915469527244568,-0.0014480079989880323,0.020682645961642265,-0.01769138127565384,-0.0492405891418457,-0.033174723386764526,0.05639319494366646,-0.13969752192497253,0.13665318489074707,0.06584358215332031,-0.030236955732107162,-0.1065908893942833,0.040896207094192505,-0.2690853178501129,0.031288135796785355,0.41386109590530396,-0.11706547439098358,-0.07296957075595856,0.2786117494106293,0.04135195538401604,0.4618934988975525,0.24518243968486786,-0.005632821470499039],[-0.2651379704475403,0.254952996969223,0.020680096000432968,0.019448172301054,0.018378494307398796,0.3867519199848175,-0.20086240768432617,-0.12079432606697083,-0.09526568651199341,-0.24269086122512817,0.0185049157589674,0.1712283492088318,-0.2771892249584198,0.3519898056983948,0.040977880358695984,-0.16565746068954468,0.07981604337692261,-0.22489020228385925,0.1520526111125946,0.00952509231865406,0.02538205496966839,-0.08467432111501694,0.3332825303077698,0.04064544662833214,0.3319881856441498,-0.20648345351219177,-0.28225260972976685,0.12279623001813889,0.2342778891324997,-0.18383604288101196,0.14806672930717468,0.03385104238986969,0.03597033768892288,0.07359551638364792,0.2867698073387146,-0.2127775400876999,-0.07830646634101868,-0.009164921008050442,-0.0198997613042593,0.12634912133216858,0.051265228539705276,-0.1560804545879364,-0.301122784614563,0.14455744624137878,0.00590308103710413,-0.10943020135164261,0.07966833561658859,0.10106086730957031,-0.0334969200193882,-0.09176753461360931,0.061202522367239,0.23714573681354523,-0.3344305157661438,0.29101458191871643,0.2955748438835144,0.004563119728118181,-0.033825937658548355,-0.13429638743400574,-0.08585354685783386,0.09371941536664963,0.29326683282852173,-0.1720908135175705,-0.05446701496839523,0.30011916160583496,-0.09980666637420654],[0.2429884523153305,-0.19437389075756073,-0.03814791142940521,-0.13288746774196625,0.08342719823122025,-0.13465137779712677,-0.228523850440979,-0.107825867831707,0.11348767578601837,-0.2186652272939682,-0.16890494525432587,0.14451594650745392,-0.19303707778453827,-0.13933701813220978,-0.11328531056642532,0.20912162959575653,-0.01579633355140686,0.018078306689858437,-0.06526508182287216,0.450794517993927,0.3102148175239563,-0.2727058529853821,0.16143882274627686,-0.12813790142536163,0.1643475443124771,-0.01782887801527977,-0.17736853659152985,0.07073453068733215,-0.2894059419631958,0.06894214451313019,0.025120766833424568,0.28117087483406067,-0.08849724382162094,-0.14760036766529083,-0.1635090708732605,0.22383300960063934,-0.013524379581212997,-0.37479889392852783,-0.3228057026863098,0.15532608330249786,-0.048711635172367096,-0.12163624167442322,0.06259110569953918,0.024333134293556213,-0.01697373017668724,-0.12936778366565704,-0.39510369300842285,0.183868870139122,-0.08350429683923721,-0.049892667680978775,0.0852692574262619,0.14635761082172394,-0.12543675303459167,0.02064378187060356,-0.2112780511379242,-0.029127616435289383,0.291219562292099,0.24662157893180847,-0.012253055348992348,0.12180355191230774,0.024942614138126373,0.18513907492160797,-0.03981500491499901,-0.10128578543663025,0.23782223463058472],[-0.24755126237869263,-0.018651945516467094,-0.19791921973228455,-0.02513105608522892,0.31243234872817993,0.030328575521707535,0.1799352914094925,0.2532661557197571,0.3509228229522705,-0.1835978925228119,0.19837598502635956,-0.11176082491874695,-0.09463997185230255,-0.1567281037569046,0.22129173576831818,0.21623411774635315,0.13219983875751495,-0.06621073931455612,-0.3454444110393524,0.181446373462677,-0.19178272783756256,0.09208656847476959,0.10082557797431946,0.34152331948280334,0.03395342081785202,0.037408653646707535,-0.03501259535551071,-0.2698806822299957,-0.12281667441129684,-0.07586602121591568,0.06823597103357315,0.210930734872818,-0.005300203338265419,0.14584429562091827,0.18071934580802917,-0.015786176547408104,0.19363488256931305,-0.1098129004240036,0.15672563016414642,-0.23995985090732574,-0.033100761473178864,0.21778899431228638,-0.042678773403167725,-0.15092457830905914,0.23856587707996368,-0.021655743941664696,0.01973121613264084,-0.24198859930038452,-0.18990758061408997,0.0288395956158638,0.26018109917640686,-0.021203486248850822,0.06675557047128677,0.26065483689308167,-0.16245514154434204,0.11885862797498703,-0.045565009117126465,-0.21916484832763672,0.22863733768463135,0.08522510528564453,-0.06855347752571106,0.054264526814222336,-0.13955597579479218,0.12105845659971237,0.35699528455734253],[-0.016628703102469444,-0.2543867230415344,-0.1565871685743332,0.06751024723052979,-0.13502269983291626,-0.04883148521184921,0.13144004344940186,0.12967932224273682,-0.11923160403966904,0.059288036078214645,0.009443139657378197,-0.13999274373054504,-0.2031911313533783,0.041501160711050034,0.08339536190032959,0.2928307354450226,-0.07055378705263138,-0.3891562223434448,0.28211820125579834,-0.11517077684402466,0.2613475024700165,0.14880593121051788,-0.006705676671117544,0.12938982248306274,0.17461532354354858,0.09081559628248215,-0.34345144033432007,-0.22447027266025543,0.08956120908260345,0.14065241813659668,-0.22551701962947845,0.5266463160514832,0.010836640372872353,0.11808929592370987,-0.13858264684677124,-0.06370368599891663,-0.26384299993515015,-0.12389723211526871,0.0875808522105217,-0.09586931765079498,-0.1825498640537262,-0.12599582970142365,0.010822654701769352,-0.27529895305633545,0.01839291863143444,0.11012544482946396,0.1681201010942459,0.16670025885105133,-0.11930708587169647,0.10301634669303894,0.1684955358505249,0.1399838775396347,0.3689296543598175,-0.0692230686545372,-0.18552808463573456,-0.2672223746776581,-0.02897563762962818,-0.06664217263460159,-0.17999163269996643,-0.11055444180965424,-0.04286201298236847,-0.042157597839832306,0.3920757472515106,-0.03802622854709625,-0.023572631180286407],[-0.31380558013916016,-0.038022998720407486,-0.09125596284866333,0.052723392844200134,-0.11906584352254868,0.2632431387901306,-0.378823459148407,0.2931290864944458,-0.24579830467700958,0.025155507028102875,-0.08186371624469757,0.26686540246009827,-0.07528069615364075,-0.012919259257614613,0.3234245181083679,-0.2668015956878662,0.00862782821059227,0.46302634477615356,-0.0821005180478096,0.03767362982034683,0.10296554118394852,0.1470261514186859,0.39649492502212524,-0.08609834313392639,-0.31234264373779297,-0.06986212730407715,-0.28755494952201843,-0.043283116072416306,-0.1549493968486786,-0.0991874411702156,-0.15698078274726868,-0.27727845311164856,-0.18034301698207855,0.22539442777633667,-0.1922086626291275,0.09802674502134323,-0.03854406625032425,0.16911469399929047,0.15442359447479248,0.15584754943847656,0.10417249798774719,0.22146573662757874,0.12312917411327362,-0.2170163244009018,-0.0029131320770829916,0.20492582023143768,-0.028884248808026314,0.09391207993030548,-0.045835018157958984,-0.16383884847164154,-0.06877649575471878,0.33269238471984863,0.06428764760494232,-0.034885112196207047,-0.03701701760292053,0.15433010458946228,0.12158790230751038,0.007905292324721813,0.047832779586315155,-0.027897721156477928,0.034239303320646286,0.03949795663356781,0.22023695707321167,0.05374069884419441,-0.014079643413424492],[0.34345701336860657,-0.020446741953492165,0.1285289078950882,-0.2360977828502655,0.09120557457208633,0.130147784948349,-0.042317409068346024,0.369452565908432,-0.1388929933309555,0.10842598229646683,0.11128165572881699,-0.37703758478164673,0.26726463437080383,0.11616339534521103,0.049596335738897324,0.1920752376317978,0.042089395225048065,0.09105615317821503,0.03579575940966606,-0.05066698417067528,-0.01849897764623165,-0.11383156478404999,-0.38661354780197144,0.1814558357000351,0.18927279114723206,0.17910932004451752,-0.20248283445835114,0.21338880062103271,-0.11291997134685516,-0.20844924449920654,-0.11292058974504471,0.0005884600104764104,-0.05798836424946785,0.11124064773321152,-0.10123422741889954,-0.028847558423876762,0.17185181379318237,-0.3128550350666046,-0.004637536592781544,-0.007131677120923996,0.13019374012947083,-0.4877811372280121,-0.05955766886472702,-0.15871687233448029,0.10103254020214081,0.3783188462257385,-0.254349946975708,-0.10533365607261658,0.08942745625972748,0.22240743041038513,-0.12069159746170044,0.35172227025032043,0.20150746405124664,0.19850283861160278,-0.0797891765832901,0.03254410997033119,-0.296284556388855,0.019151682034134865,0.045108191668987274,0.3328150808811188,-0.0080862520262599,0.10410989075899124,-0.14598284661769867,-0.102688729763031,0.06149750575423241],[0.24105705320835114,-0.09194867312908173,-0.05663932487368584,-0.036412857472896576,-0.23732946813106537,-0.2231016308069229,-0.14159105718135834,0.007830986753106117,-0.0798850730061531,0.1905345767736435,0.2314692735671997,-0.34930524230003357,0.008181668817996979,0.09369868040084839,-0.05509836971759796,0.10670719295740128,0.10550814121961594,0.13475753366947174,-0.15494512021541595,-0.06922734528779984,-0.14637957513332367,-0.04785989597439766,0.1518617570400238,0.05042072758078575,-0.009599440731108189,0.03380725905299187,-0.2970753014087677,0.22048048675060272,0.0316058024764061,0.09890483319759369,0.23116275668144226,0.14392268657684326,0.08772429823875427,0.0683216080069542,-0.03039715439081192,0.07643089443445206,0.18535001575946808,0.19491934776306152,-0.23243562877178192,0.031715281307697296,0.1157228946685791,0.2138388603925705,-0.23445193469524384,-0.27983465790748596,-0.07391685992479324,-0.43085822463035583,0.17948998510837555,-0.08829616010189056,-0.08508776128292084,-0.008501599542796612,0.2615906298160553,0.15365736186504364,-0.07905620336532593,-0.022976551204919815,-0.16230197250843048,0.23710264265537262,-0.07725178450345993,-0.03526386246085167,-0.09181442856788635,0.2330099493265152,-0.14981301128864288,0.15938936173915863,0.09734004735946655,-0.09097099304199219,-0.4757535755634308],[-0.07565213739871979,0.18987517058849335,0.12129315733909607,-0.012326675467193127,0.0964241772890091,0.2436637431383133,-0.06672777980566025,-0.26495933532714844,-0.30339646339416504,-0.03209022060036659,0.10508611798286438,-0.11992225050926208,0.06756291538476944,-0.15011055767536163,0.03318776562809944,0.03587133809924126,0.16950511932373047,0.0866134911775589,-0.22681820392608643,-0.2142559140920639,-0.3001537322998047,0.035584527999162674,0.1393025666475296,0.4152028262615204,0.35061949491500854,-0.06514131277799606,-0.042112115770578384,0.1849486529827118,-0.08831029385328293,0.2064036875963211,0.21036475896835327,-0.08837267011404037,-0.15573932230472565,-0.30055922269821167,-0.14962197840213776,0.0979878231883049,-0.13762535154819489,0.38158783316612244,0.19371160864830017,-0.25610673427581787,-0.0006491674575954676,0.006718144752085209,0.3080311715602875,0.29172223806381226,0.21800386905670166,-0.09774525463581085,-0.09181994944810867,0.20852765440940857,-0.05793352052569389,0.07906404137611389,0.07881507277488708,0.2699928283691406,0.03469197452068329,-0.22991915047168732,-0.05266961827874184,0.02055036835372448,0.3467550277709961,0.04799691215157509,-0.08342700451612473,0.04327581450343132,0.1513957381248474,-0.288289874792099,0.10250748693943024,0.0052924552001059055,0.10864701867103577],[0.048595644533634186,-0.035708602517843246,0.030215082690119743,0.04648831486701965,0.10619227588176727,-0.21157827973365784,0.044286780059337616,-0.023139026015996933,0.23600777983665466,0.27373185753822327,0.04797903448343277,-0.07251732796430588,0.046133991330862045,-0.030369285494089127,0.08870955556631088,0.2924422025680542,0.29299983382225037,-0.153825044631958,0.16506615281105042,0.12890669703483582,0.14087654650211334,0.13564488291740417,-0.2376745492219925,0.01851225271821022,0.09206695109605789,-0.23277173936367035,-0.030170610174536705,-0.3501003384590149,-0.1404445469379425,-0.1519845873117447,0.08583932369947433,-0.5719413757324219,0.02571689523756504,-0.048339590430259705,0.1590029001235962,-0.37201187014579773,-0.08254045248031616,-0.29741182923316956,0.16160601377487183,0.11344631761312485,-0.011609319597482681,-0.09569958597421646,-0.13480119407176971,-0.14504894614219666,0.15856808423995972,-0.15431468188762665,-0.3058210015296936,0.16775177419185638,-0.12259529531002045,0.023913612589240074,-0.18145912885665894,0.06290034204721451,0.01915941759943962,-0.2657829523086548,-0.06559436768293381,-0.054676271975040436,0.2222307026386261,-0.047966696321964264,0.0164151880890131,0.2783575654029846,-0.19776833057403564,0.1889156848192215,0.2776497006416321,-0.0007637779926881194,-0.2739713191986084],[0.387635737657547,-0.014524820260703564,0.13198767602443695,-0.14850851893424988,-0.44385865330696106,0.34379830956459045,-0.06543899327516556,-0.07418018579483032,0.400333970785141,0.2718850374221802,-0.08817138522863388,-0.2598797082901001,0.008387211710214615,-0.1250244677066803,0.08153148740530014,0.06252555549144745,-0.2241370528936386,0.042437486350536346,-0.17373137176036835,0.0036602786276489496,0.20188507437705994,-0.0069640930742025375,-0.1966528445482254,0.3269815444946289,0.1400768905878067,0.26725661754608154,-0.25521013140678406,-0.25859004259109497,0.04731069877743721,-0.03654182329773903,0.3652530610561371,-0.07193616032600403,0.18329240381717682,0.16483823955059052,0.4034581482410431,0.18645252287387848,0.16194652020931244,-0.17844818532466888,-0.044333215802907944,0.03451050817966461,-0.43546488881111145,-0.054181743413209915,0.04255225881934166,-0.18349589407444,-0.08415592461824417,0.20129594206809998,0.045159850269556046,0.048420730978250504,-0.09681828320026398,-0.1410275101661682,0.020407861098647118,-0.1651437133550644,0.001539804507046938,-0.03072330169379711,0.04560505971312523,-0.11750198155641556,0.023774797096848488,0.17899471521377563,0.14012373983860016,-0.05470261350274086,-0.012768382206559181,0.12333820760250092,0.20710183680057526,-0.3016519248485565,0.15138883888721466],[-0.014174854382872581,0.2783540189266205,-0.2306942492723465,0.16787676513195038,-0.16975954174995422,-0.017656810581684113,-0.024572189897298813,0.142353355884552,0.04049694165587425,0.015410592779517174,0.022398725152015686,0.3051472008228302,0.1366920918226242,0.08072061091661453,-0.2660731077194214,0.09210703521966934,-0.11197958141565323,-0.24332955479621887,0.016837209463119507,-0.03135833516716957,-0.42243051528930664,-0.001669888268224895,0.2951467037200928,0.046907082200050354,-0.2671726644039154,0.0286195520311594,-0.06795479357242584,-0.3216875493526459,-0.08353931456804276,0.19686369597911835,0.2097078412771225,0.11890925467014313,-0.04088519513607025,-0.13066217303276062,-0.29613643884658813,-0.2239619940519333,-0.0976099893450737,0.2029915601015091,-0.10321307927370071,0.09339573979377747,0.18021272122859955,-0.29317447543144226,-0.14903825521469116,0.3017342686653137,-0.18077559769153595,0.16235950589179993,0.018634965643286705,-0.1474674642086029,0.03507464751601219,-0.1274368166923523,-0.08708949387073517,0.08891254663467407,-0.027238013222813606,0.2120211124420166,0.17572110891342163,0.4799574613571167,0.2598310708999634,0.10376952588558197,0.12240593880414963,0.06469131261110306,-0.15934741497039795,-0.3045881986618042,0.20615939795970917,-0.16931942105293274,0.012738549150526524],[0.10366330295801163,0.21783827245235443,0.1693037450313568,-0.03948584571480751,0.12603852152824402,-0.23115800321102142,0.21404697000980377,-0.025201547890901566,-0.09749267250299454,-0.03207865729928017,-0.18583795428276062,0.3904012441635132,0.08381640166044235,-0.04037833213806152,-0.3349495828151703,-0.06356943398714066,-0.2030925154685974,-0.10194307565689087,-0.10328345000743866,-0.1402026116847992,-0.09338061511516571,-0.3659965693950653,0.3078354597091675,-0.024371543899178505,-0.06516436487436295,-0.06729716807603836,-0.2135608047246933,0.19699008762836456,-0.21953782439231873,0.195594921708107,0.2014072835445404,-0.28497567772865295,0.0622587725520134,0.2274053990840912,0.026691999286413193,-0.020416203886270523,0.022504586726427078,0.07971441000699997,0.05483363941311836,0.15461871027946472,-0.099667988717556,-0.09294939041137695,0.13006116449832916,-0.07330935448408127,0.31269943714141846,0.157187357544899,0.34301456809043884,0.057806532829999924,0.3116154670715332,0.01545280683785677,0.17411541938781738,-0.0025022237095981836,0.07068251073360443,0.047841303050518036,-0.17271660268306732,-0.02913479320704937,0.05627485364675522,-0.5410037636756897,0.04305903986096382,-0.053175877779722214,0.08877173066139221,0.043927084654569626,0.13000889122486115,0.17828266322612762,0.025259176269173622],[-0.13412916660308838,0.5486416220664978,-0.06709249317646027,-0.12266983091831207,0.02718501351773739,0.14357486367225647,0.0959591418504715,-0.2751789391040802,-0.24211786687374115,-0.09517645090818405,0.22491081058979034,0.0671725943684578,-0.07567743957042694,0.0905531495809555,-0.3223581910133362,0.17429061233997345,-0.21243426203727722,0.32044661045074463,0.0739671066403389,-0.013611147180199623,0.02237379550933838,-0.00017464152188040316,-0.31692880392074585,-0.1446400135755539,-0.07056211680173874,-0.22011594474315643,0.08877982944250107,-0.13190047442913055,-0.19073310494422913,-0.09299615770578384,0.09494543820619583,0.031247738748788834,0.03216959536075592,0.006680280901491642,0.14433731138706207,0.044736381620168686,-0.0845121219754219,-0.13760524988174438,0.030020983889698982,0.1306009292602539,0.34073367714881897,0.24246267974376678,0.10750127583742142,-0.2324235588312149,-0.19333428144454956,-0.0026418333873152733,0.06636906415224075,0.11376137286424637,-0.3337491750717163,0.024519987404346466,0.18978272378444672,0.11850278824567795,0.04332541301846504,0.15370330214500427,-0.020718958228826523,0.2817283570766449,0.1259738802909851,-0.22822366654872894,-0.4119897782802582,-0.13640224933624268,0.006936812773346901,-0.13028867542743683,0.027736622840166092,-0.18670493364334106,0.0943971797823906],[0.1516420990228653,0.05917227640748024,-0.14183756709098816,-0.2045726180076599,-0.10145143419504166,-0.19454900920391083,-0.05305658280849457,0.01786482147872448,0.4359856843948364,0.31940096616744995,-0.17960026860237122,0.03933526948094368,3.270153683843091e-05,-0.1588159054517746,0.19945602118968964,0.2064044028520584,-0.1136155053973198,0.19319890439510345,-0.037542399019002914,-0.18922485411167145,0.1290206015110016,0.1332520842552185,0.06401674449443817,-0.1362684816122055,0.06492862850427628,-0.2771007716655731,0.14369741082191467,-0.00038311484968289733,-0.1753275990486145,0.1787594109773636,0.030189944431185722,-0.00845649465918541,-0.2406635731458664,0.1283879578113556,-0.007811844348907471,-0.10545914620161057,0.3143187165260315,-0.06290257722139359,0.1702614724636078,-0.273751825094223,0.03593926131725311,-0.1270287036895752,0.12086138874292374,0.06415770202875137,-0.13660967350006104,0.10950512439012527,0.14238135516643524,0.13805513083934784,-0.12200839817523956,0.27379998564720154,0.13018178939819336,0.09010162949562073,-0.08283241093158722,0.43235382437705994,0.09403103590011597,-0.43956196308135986,-0.055195409804582596,0.312714546918869,-0.2070436179637909,0.12973397970199585,-0.0805133655667305,0.0505182258784771,0.02448580414056778,0.26019486784935,-0.11301112920045853],[0.08710455894470215,-0.21028289198875427,-0.060667332261800766,-0.0032626164611428976,0.17913582921028137,-0.0826202854514122,-0.1976810246706009,0.21197505295276642,0.08290950953960419,-0.12435372173786163,0.1049656793475151,0.04533584415912628,0.22232960164546967,-0.11770541965961456,0.00786602683365345,0.06577090173959732,-0.04655935615301132,0.0006547877565026283,0.2214333415031433,-0.1834706813097,-0.36877748370170593,0.1415637731552124,-0.018649080768227577,0.27360987663269043,-0.09417535364627838,-0.15868201851844788,0.04219569265842438,0.25112608075141907,0.10999177396297455,0.29108795523643494,-0.09225236624479294,0.1066947877407074,-0.027071252465248108,-0.012150701135396957,0.12481274455785751,0.008985140360891819,0.12671788036823273,-0.469709187746048,0.0018935736734420061,0.4280827045440674,-0.12450747936964035,0.21677424013614655,0.06473416090011597,0.031052693724632263,0.044471047818660736,-0.07318048924207687,0.2890608608722687,0.29323482513427734,-0.2568977475166321,-0.071507029235363,-0.29376471042633057,0.14121684432029724,-0.28136929869651794,-0.04987851157784462,-0.05713850259780884,-0.05582989379763603,-0.01969761773943901,-0.010007379576563835,0.12374549359083176,-0.08127787709236145,-0.15107461810112,-0.27630582451820374,-0.06280799210071564,-0.12879003584384918,0.03128638491034508],[-0.16852784156799316,-0.20190243422985077,-0.03721121326088905,-0.14540697634220123,0.08209443092346191,0.3410870432853699,-0.112801194190979,-0.13446596264839172,-0.034258175641298294,-0.32405367493629456,0.10075890272855759,0.3017454445362091,0.07517855614423752,-0.1557639241218567,-0.13428646326065063,0.16347907483577728,0.10855060070753098,0.34799161553382874,0.14279213547706604,0.017925776541233063,-0.19311697781085968,-0.006489478051662445,0.2618197202682495,-0.09046486765146255,-0.04795600101351738,-0.2011415809392929,0.1138421818614006,-0.1606985181570053,-0.20733880996704102,-0.11450975388288498,0.009430190548300743,0.011671272106468678,0.42186039686203003,-0.41411054134368896,-0.03915190324187279,0.1513858139514923,-0.11925388872623444,0.12485001236200333,0.07674335688352585,-0.11333729326725006,-0.08213263750076294,-0.2683906853199005,-0.40066197514533997,0.048633892089128494,0.05293639376759529,0.21549098193645477,0.39515313506126404,-0.06669256091117859,0.09407071024179459,0.15129362046718597,0.043052516877651215,-0.005155247636139393,-0.24112151563167572,-0.20671921968460083,-0.1281861662864685,-0.027959244325757027,-0.3208404779434204,-0.030514422804117203,-0.09216586500406265,0.08928720653057098,0.006059408187866211,0.10117758065462112,0.18611325323581696,-0.02214757911860943,0.028472475707530975],[-0.07044121623039246,0.26702573895454407,0.10141351073980331,0.1503317803144455,-0.0740913599729538,-0.26863381266593933,-0.3314861059188843,-0.18865817785263062,-0.0683961883187294,-0.24678771197795868,0.20628726482391357,-0.0847487673163414,0.07427188754081726,-0.19207006692886353,0.22781993448734283,0.16344477236270905,0.21733547747135162,-0.09618326276540756,-0.04909230023622513,0.44053226709365845,0.024879220873117447,-0.155833438038826,-0.20428414642810822,-0.015432842075824738,-0.2505849301815033,0.016264593228697777,-0.11030247807502747,-0.0042523350566625595,-0.05779772251844406,0.00747056445106864,-0.12664969265460968,-0.22478745877742767,0.0476580411195755,0.14786507189273834,-0.16204313933849335,0.14892394840717316,-0.20973384380340576,0.04453485831618309,-0.04535214602947235,-0.166109099984169,-0.3322836458683014,-0.2729458808898926,0.2037847340106964,0.07317767292261124,-0.02819260023534298,0.05880620330572128,0.041053272783756256,0.08728629350662231,-0.04101639613509178,-0.13177070021629333,0.2192009687423706,0.007864194922149181,-0.14142313599586487,0.14356006681919098,0.09178368747234344,0.18763390183448792,-0.26868391036987305,-0.06729863584041595,0.05865785852074623,-0.19393663108348846,0.008956262841820717,-0.32941505312919617,-0.0759987086057663,0.17058423161506653,-0.2954285442829132],[-0.22155319154262543,0.06624366343021393,0.12284812331199646,0.1472083330154419,0.14763855934143066,0.09239169210195541,0.1442313939332962,-0.13659468293190002,-0.013803420588374138,0.07272020727396011,-0.21449823677539825,0.27966246008872986,0.2984626591205597,0.22870966792106628,0.21655678749084473,0.1768992692232132,0.022457033395767212,0.03503252938389778,0.2750435769557953,0.1408863514661789,-0.13636907935142517,0.14051397144794464,0.018352897837758064,-0.10441630333662033,0.04236006364226341,-0.2510346472263336,0.05377136170864105,0.27208682894706726,0.09942836314439774,0.14478494226932526,0.1971101462841034,-0.023833997547626495,-0.16007179021835327,0.1687449961900711,0.07558630406856537,0.17373883724212646,-0.22323434054851532,0.34954938292503357,-0.037433844059705734,0.027076613157987595,-0.2851303517818451,0.00772381667047739,-0.1465235948562622,0.11910926550626755,0.1860884726047516,-0.026821205392479897,0.10763271898031235,-0.1279056817293167,0.028678905218839645,-0.29483750462532043,0.24107757210731506,0.27548933029174805,-0.01212952472269535,-0.016541745513677597,-0.08549078553915024,0.1658569723367691,-0.17386025190353394,0.1881314516067505,-0.18972668051719666,-0.15146268904209137,-0.14072924852371216,0.04324464127421379,-0.11541286110877991,-0.38313472270965576,0.20883147418498993],[0.2036304920911789,-0.04489695280790329,-0.055329613387584686,0.17048324644565582,-0.09868519753217697,-0.014187430962920189,-0.25854501128196716,0.14808429777622223,0.21044859290122986,-0.02668544463813305,0.05047915130853653,-0.28992176055908203,-0.25121262669563293,0.15653468668460846,-0.17871759831905365,0.06324764341115952,-0.15679936110973358,0.12831106781959534,-0.10201618075370789,0.1038103997707367,-0.26888296008110046,0.01467796228826046,-0.1022626981139183,-0.1166561022400856,0.2605964243412018,-0.07949146628379822,0.2948383688926697,-0.05414629727602005,-0.10200919955968857,0.07368867099285126,-0.3483618497848511,-0.09233234822750092,0.22173082828521729,-0.03519216179847717,-0.06045316904783249,0.011581990867853165,0.3582514226436615,0.058573219925165176,0.25769123435020447,0.27452027797698975,-0.19836077094078064,-0.08469435572624207,-0.12877114117145538,-0.19844269752502441,0.28374841809272766,0.04328404366970062,-0.1636004000902176,-0.21478646993637085,0.19441351294517517,-0.25589025020599365,0.2657722532749176,0.1667214334011078,0.23680874705314636,-0.008054929785430431,0.1271086186170578,-0.22406986355781555,0.21514461934566498,0.0901416763663292,-0.02064782753586769,-0.21970802545547485,-0.0055572292767465115,-0.15616461634635925,0.06202525272965431,0.07786150276660919,-0.0847879946231842],[0.2027510404586792,-0.2755040228366852,-0.33304834365844727,0.10971302539110184,0.017289355397224426,0.15173959732055664,-0.07131186127662659,-0.524263322353363,0.33950570225715637,0.181931272149086,0.09218117594718933,0.05197925493121147,-0.021549483761191368,0.019758785143494606,-0.11887010186910629,-0.1148698553442955,0.1088176891207695,-0.23032577335834503,-0.37017205357551575,0.06201603263616562,0.09563601762056351,0.07986222207546234,-0.35454660654067993,0.2035898119211197,-0.19871431589126587,-0.020401939749717712,0.17721179127693176,0.23182135820388794,-0.0854085236787796,-0.29186639189720154,0.0836174488067627,0.25698819756507874,-0.13038255274295807,0.22405023872852325,0.05645892396569252,0.08326255530118942,0.04938136041164398,-0.13224411010742188,-0.0421149916946888,0.25027450919151306,0.047602005302906036,0.00096739741275087,0.03904113546013832,0.10870524495840073,0.10332229733467102,0.10179458558559418,-0.04767029732465744,-0.12258931994438171,0.07524138689041138,-0.03447704389691353,-0.09585216641426086,0.2972555160522461,0.29651936888694763,-0.00663997745141387,-0.09715088456869125,-0.17814584076404572,-0.2620610296726227,0.03405342996120453,0.0001605042052688077,0.15598581731319427,-0.2547355592250824,0.033440299332141876,0.31230199337005615,0.3571704626083374,-0.03268319368362427],[0.12773561477661133,0.09414974600076675,0.0724433958530426,-0.12410605698823929,-0.290152907371521,-0.09163189679384232,0.018750105053186417,0.031590212136507034,-0.4448626935482025,-0.34258079528808594,-0.17284971475601196,0.3064507842063904,-0.004849996417760849,0.13624854385852814,0.12315910309553146,-0.20947372913360596,0.10157397389411926,0.08362393081188202,0.0165717713534832,-0.2329062819480896,-0.01752629317343235,0.014762423932552338,0.11881127208471298,0.0577840581536293,-0.08543027192354202,-0.3703048527240753,0.1357162594795227,-0.18610720336437225,0.14184772968292236,0.06609895080327988,0.04283813014626503,0.1698523908853531,-0.03850123658776283,0.07393869012594223,0.1721648871898651,-0.011399955488741398,0.16848275065422058,0.11095988005399704,0.1718076914548874,0.18333874642848969,-0.046155013144016266,0.08559691905975342,0.01078788097947836,0.370385080575943,0.39903324842453003,0.11548560857772827,-0.41636934876441956,-0.22466720640659332,-0.21728311479091644,0.13397662341594696,0.21155603229999542,-0.2817451059818268,-0.19462287425994873,0.014157760888338089,-0.30086055397987366,0.1945686638355255,-0.22547708451747894,-0.005855653900653124,0.032925475388765335,0.041954826563596725,-0.0840793326497078,-0.2578566372394562,0.16310682892799377,-0.12976649403572083,0.06235288456082344],[0.10163044929504395,-0.4953267276287079,-0.004440187010914087,-0.14769166707992554,0.04007602110505104,0.017745567485690117,-0.03755908086895943,0.09086727350950241,0.2328283190727234,0.20358110964298248,0.049655839800834656,-0.18918003141880035,-0.17497564852237701,-0.09637095779180527,-0.044326286762952805,0.09263739734888077,-0.022229790687561035,0.022070184350013733,0.10310834646224976,0.4855842590332031,-0.13467970490455627,0.09081386774778366,-0.1454397290945053,-0.26671668887138367,0.07850237935781479,-0.051942747086286545,-0.26346293091773987,0.22612255811691284,0.04102982208132744,-0.13566182553768158,0.22089330852031708,0.11525309085845947,-0.2614271342754364,-0.0020579237025231123,0.09530170261859894,-0.0352313369512558,0.22051657736301422,-0.1342824101448059,-0.0026018847711384296,-0.07320521771907806,-0.1570095717906952,-0.14223426580429077,0.21019108593463898,0.1886151134967804,-0.05193525180220604,0.26350459456443787,-0.01920231617987156,-0.22133868932724,-0.4514050781726837,-0.043941572308540344,-0.04333643242716789,-0.3677854537963867,0.46580934524536133,-0.08330262452363968,0.06862152367830276,-0.15716899931430817,0.16979031264781952,-0.27809032797813416,-0.192652627825737,0.2632271945476532,0.16370463371276855,0.009306497871875763,0.012750972993671894,-0.10517272353172302,-0.3011029064655304],[0.27850934863090515,0.009288436733186245,-0.1561272144317627,0.1581740826368332,-0.031678538769483566,0.09277597814798355,0.054595593363046646,0.10249028354883194,0.18426311016082764,0.10977350920438766,0.27216091752052307,-0.1115378811955452,-0.02745603211224079,0.00773510430008173,-0.05514928326010704,-0.40512725710868835,0.1585869938135147,-0.31131115555763245,-0.018160497769713402,0.12226908653974533,-0.04067515954375267,-0.06273943930864334,0.11262495815753937,-0.032866403460502625,0.28404438495635986,-0.016253577545285225,0.3917014002799988,-0.20860624313354492,-0.10881583392620087,-0.0044416869059205055,0.2892988622188568,0.050142958760261536,-0.20641009509563446,0.16376110911369324,-0.27438339591026306,-0.12712644040584564,0.12137975543737411,-0.22232002019882202,0.050260718911886215,-0.08106280863285065,-0.14364729821681976,-0.023467056453227997,0.2887360155582428,-0.3419269323348999,-0.13181942701339722,0.3615381121635437,-0.06012517958879471,0.027707289904356003,-0.14283765852451324,-0.025368308648467064,0.011177049949765205,0.19847941398620605,-0.2511783540248871,-0.28397178649902344,-0.17557409405708313,-0.06272529810667038,-0.30442407727241516,-0.017481030896306038,-0.20533782243728638,-0.044401951134204865,0.18015122413635254,0.15466326475143433,-0.218333899974823,-0.22078074514865875,-0.1915932595729828],[-0.06619709730148315,0.20277631282806396,-0.19778481125831604,-0.24140900373458862,0.13379038870334625,0.09287511557340622,-0.09451540559530258,0.2492186427116394,-0.18445882201194763,0.2626735270023346,0.09628593921661377,-0.0591067411005497,0.22152850031852722,-0.07834641635417938,-0.1995110958814621,-0.3171498477458954,-0.20166009664535522,-0.015965789556503296,0.08995230495929718,0.0689871683716774,0.11096271127462387,0.1374836564064026,0.2514086365699768,0.12411368638277054,0.0014101909473538399,-0.01278807781636715,0.07632995396852493,0.06238289922475815,-0.0014863887336105108,-0.03150792047381401,0.13850967586040497,-0.1045687198638916,0.08736071735620499,-0.29146677255630493,0.020138531923294067,0.1962473839521408,-0.2503109872341156,-0.34049636125564575,-0.06588400155305862,-0.04257242754101753,-0.16028079390525818,-0.2168816179037094,0.16551195085048676,-0.09816327691078186,0.07463201880455017,-0.22245270013809204,-0.053180400282144547,-0.22590845823287964,-0.11868508905172348,-0.07833965122699738,0.15887026488780975,-0.16524407267570496,0.05119303613901138,-0.07242145389318466,0.16034230589866638,-0.1918644905090332,-0.03147851303219795,0.11164919286966324,-0.09306908398866653,-0.08853151649236679,-0.40120729804039,-0.09023957699537277,0.014257765375077724,0.5185218453407288,-0.1333322674036026],[-0.12552185356616974,-0.31927382946014404,-0.051093634217977524,-0.4850419759750366,0.1326397955417633,0.08442721515893936,0.06769484281539917,-0.15245795249938965,-0.015046210959553719,-0.05236096680164337,0.2060113102197647,-0.21993593871593475,-0.07271654903888702,-0.2006688416004181,0.15980954468250275,-0.15218938887119293,-0.09540936350822449,0.009314542636275291,0.18145592510700226,-0.0892169401049614,0.16757908463478088,-0.11832345277070999,0.006259340327233076,-0.15321017801761627,-0.021357065066695213,0.09595667570829391,0.26766374707221985,-0.026850782334804535,-0.007382857147604227,0.034146860241889954,0.02627132646739483,0.03050900809466839,0.16440683603286743,0.27623462677001953,-0.07306855171918869,-0.19801680743694305,0.13400474190711975,-0.13124994933605194,-0.1232232078909874,-0.11229446530342102,-0.1600547730922699,0.040465567260980606,0.14174984395503998,0.2596054971218109,0.14472854137420654,0.0247355867177248,-0.08536256104707718,0.045345600694417953,0.4032531678676605,0.0336470752954483,0.019183527678251266,0.2335086464881897,-0.16163580119609833,0.15804234147071838,0.300354540348053,0.2213878482580185,0.2862270474433899,-0.2036629170179367,-0.08117968589067459,-0.13914309442043304,-0.3583029806613922,0.06317368149757385,0.21443189680576324,-0.21672937273979187,-0.23124010860919952],[-0.14073310792446136,-0.01869623176753521,0.10704550892114639,0.056646544486284256,0.09179425239562988,0.06503891944885254,-0.07828982919454575,-0.09631871432065964,-0.5229303240776062,-0.03361990675330162,-0.18026717007160187,0.18017438054084778,-0.08733552694320679,0.01599074900150299,0.22555792331695557,0.011631607078015804,0.07731188833713531,-0.278441846370697,-0.06330814957618713,0.18963101506233215,-0.14961428940296173,-0.08823885023593903,0.2765902876853943,0.16841362416744232,-0.38551756739616394,0.20122049748897552,0.26866576075553894,-0.10116098821163177,-0.054557643830776215,0.20954816043376923,0.12573640048503876,-0.2929622232913971,0.13597702980041504,-0.029646001756191254,0.05901922285556793,0.1438342183828354,0.17019803822040558,0.3123617172241211,-0.053888268768787384,0.3274521231651306,0.4671924412250519,-0.28829601407051086,-0.0572897344827652,0.05589912459254265,0.17540757358074188,-0.1712448000907898,0.20705972611904144,0.040496181696653366,-0.34511321783065796,0.34058091044425964,0.044469624757766724,0.08378081768751144,-0.11873479932546616,0.08411350101232529,0.26104891300201416,-0.12218979001045227,-0.054705120623111725,-0.08998129516839981,-0.194051593542099,-0.391703724861145,0.06963234394788742,-0.05937876179814339,-0.037513311952352524,-0.2432575821876526,0.10363824665546417],[-0.033601753413677216,0.20693062245845795,-0.22559547424316406,-0.12275740504264832,0.3125922679901123,-0.024457350373268127,-0.05805743858218193,-0.24672098457813263,-0.09703096747398376,0.02429235354065895,-0.4563072919845581,0.14880108833312988,0.3156266212463379,0.18639113008975983,0.1005803570151329,-0.0668126717209816,0.07248864322900772,0.09358767420053482,0.026263006031513214,0.026807792484760284,-0.14217859506607056,-0.061128124594688416,-0.07050459086894989,-0.1663798689842224,0.2491046041250229,0.21059541404247284,-0.12373776733875275,-0.08974584192037582,0.04646385461091995,0.041623443365097046,-0.23014521598815918,0.06518598645925522,0.05991269275546074,-0.04103614389896393,-0.17776881158351898,0.1303180307149887,0.009563903324306011,0.39850232005119324,-0.022491447627544403,0.11071433871984482,0.3193616271018982,0.1489189863204956,0.009354566223919392,-0.03674298897385597,0.09068652987480164,0.2472957968711853,0.12168600410223007,0.08336343616247177,-0.22439803183078766,-0.027812834829092026,0.1668807417154312,-0.10360564291477203,-0.6006043553352356,-0.2769812047481537,0.3085058331489563,0.10714106261730194,-0.025978349149227142,-0.2783985435962677,0.19028425216674805,0.044150810688734055,-0.11257557570934296,-0.37624120712280273,0.23879708349704742,0.04873720556497574,0.1226465255022049],[-0.04203103855252266,0.14326509833335876,0.2799425423145294,0.24167127907276154,-0.16081738471984863,0.2258746325969696,-0.25814566016197205,-0.17135974764823914,-0.41549938917160034,0.20509669184684753,-0.03248371556401253,0.39475587010383606,0.07733083516359329,-0.13809597492218018,-0.07052384316921234,-0.16804945468902588,0.48087602853775024,0.174510657787323,0.24983343482017517,0.24904294312000275,-0.17809633910655975,-0.27819615602493286,0.15758129954338074,-0.12458464503288269,0.2443486899137497,-0.1178210973739624,-0.014316866174340248,0.0624404139816761,-0.08108259737491608,0.1351265013217926,0.009111317805945873,0.09464381635189056,0.10709908604621887,-0.021702248603105545,0.034345343708992004,-0.34826645255088806,0.023258715867996216,0.09051335602998734,-0.03118043579161167,-0.1697518527507782,0.22461408376693726,0.3086572587490082,-0.08312418311834335,-0.07571887969970703,-0.012740581296384335,-0.03522735834121704,0.17182736098766327,-0.06738858669996262,0.13366049528121948,0.11226854473352432,-0.13371668756008148,-0.11067112535238266,0.04371870309114456,0.21622613072395325,-0.10011251270771027,-0.06730903685092926,0.011004135943949223,-0.10354383289813995,0.21401537954807281,-0.2656214237213135,-0.3038480281829834,-0.4094513952732086,-0.01733493246138096,-0.09444999694824219,0.27925142645835876],[-0.37718355655670166,0.08417042344808578,0.11440014094114304,-0.09708402305841446,-0.029463494196534157,-0.22882826626300812,-0.05033443868160248,-0.035618364810943604,-0.4336062967777252,0.07113539427518845,0.1783437430858612,0.15476487576961517,0.12491326779127121,0.05119211971759796,0.10495146363973618,0.0316462442278862,-0.23482359945774078,-0.2691638469696045,-0.06874614953994751,0.2127026617527008,0.04314525052905083,0.29914072155952454,-0.01880059204995632,0.11021408438682556,0.07870995253324509,-0.49733978509902954,-0.12138813734054565,0.19981221854686737,-0.05157889798283577,-0.00779290497303009,-0.12535591423511505,-0.07531733810901642,0.04504610225558281,-0.19897106289863586,0.11606790125370026,-0.13103514909744263,0.3734162747859955,0.24422739446163177,-0.23609016835689545,0.10632643103599548,0.05624104291200638,-0.08875802904367447,0.015646491199731827,0.027650712057948112,-0.4657008945941925,0.19449734687805176,0.17400793731212616,-0.26609745621681213,0.1653367429971695,-0.010907377116382122,0.009274626150727272,0.01673496700823307,-0.36603155732154846,-0.18617916107177734,-0.18961335718631744,0.07424519211053848,0.13923129439353943,-0.09545768797397614,0.04595149680972099,-0.18669764697551727,0.17068888247013092,-0.08513797074556351,0.12825755774974823,0.05291737616062164,0.39379239082336426],[0.05449534207582474,0.14297892153263092,-0.10621189326047897,-0.11473322659730911,-0.16541625559329987,0.1248050257563591,-0.2590614855289459,-0.22359934449195862,-0.4294068217277527,-0.20901340246200562,-0.041908103972673416,0.4373527765274048,0.31515464186668396,-0.14971283078193665,0.007335845846682787,0.1986277550458908,-0.07231897860765457,-0.11577999591827393,0.1850409209728241,0.10449203848838806,-0.026540381833910942,0.1986437439918518,-0.061445970088243484,0.010248733684420586,-0.017834138125181198,0.14914382994174957,0.08610866963863373,0.05332144349813461,0.14915621280670166,0.21618372201919556,0.1592566967010498,0.05518168956041336,0.39634501934051514,0.2002612203359604,-0.11566223204135895,-0.21204407513141632,-0.033462077379226685,0.3541578948497772,0.34365415573120117,0.04146638140082359,0.14608938992023468,0.0862976610660553,0.0026192974764853716,-0.05333733558654785,0.27258825302124023,0.06232313811779022,0.15352855622768402,-0.12883085012435913,-0.16080141067504883,-0.14721471071243286,-0.1595359891653061,0.008058648556470871,-0.23750492930412292,0.04126570373773575,-0.21021169424057007,0.27111250162124634,0.3493220806121826,0.06473100930452347,-0.026181677356362343,-0.05305725336074829,0.24230989813804626,0.13183651864528656,-0.3560384213924408,0.40749692916870117,0.0020405021496117115],[-0.5018057227134705,0.24408569931983948,0.03726396709680557,-0.0756484717130661,-0.13643798232078552,-0.04143310338258743,0.06250398606061935,-0.0520295687019825,-0.23756052553653717,0.1708306223154068,-0.3499760031700134,0.2683105766773224,-0.16386540234088898,0.11964412778615952,0.22157086431980133,0.011976402252912521,0.12953951954841614,0.026993511244654655,-0.010324683971703053,-0.04801461100578308,-0.24524597823619843,0.027291567996144295,-0.06174226850271225,0.16746202111244202,0.06707227230072021,0.12215624749660492,0.10020999610424042,0.09659025073051453,-0.6573779582977295,-0.11623368412256241,-0.0660320445895195,0.24339108169078827,0.054945558309555054,0.021288711577653885,0.006776759866625071,-0.023114481940865517,-0.017029576003551483,-0.23945218324661255,-0.1511629968881607,0.03851943090558052,0.1404278427362442,-0.038781508803367615,0.05804191902279854,0.025407351553440094,0.3828055262565613,-0.07326874136924744,0.3015756607055664,-0.20339521765708923,0.2027980089187622,-0.27483007311820984,-0.027167342603206635,-0.19139815866947174,-0.2302287071943283,-0.08540982753038406,-0.011108601465821266,0.13382859528064728,0.06979409605264664,0.19835135340690613,-0.02941017597913742,-0.08311304450035095,0.2369396984577179,-0.17575395107269287,-0.06920779496431351,-0.12034938484430313,-0.26246151328086853],[-0.16912586987018585,-0.08102279901504517,-0.2926013767719269,0.026247547939419746,-0.08578576147556305,0.14174754917621613,0.12204375118017197,0.2071089893579483,0.2863704562187195,-0.24927955865859985,-0.062352970242500305,-0.12429133802652359,0.24413824081420898,-0.029135309159755707,-0.1287802904844284,0.024197306483983994,0.2683197855949402,0.18262682855129242,0.017030177637934685,0.06944217532873154,0.1581440269947052,-0.13789717853069305,-0.07302890717983246,0.064288429915905,0.07471203058958054,0.0327654667198658,0.06923744082450867,0.18537352979183197,0.018724506720900536,0.11324334889650345,0.03737504407763481,0.08342217653989792,-0.06019667908549309,0.2506079375743866,0.2579151391983032,-0.13931261003017426,0.016981132328510284,0.02804546058177948,-0.018461015075445175,0.3131221532821655,-0.11443296074867249,-0.2659839689731598,0.27025023102760315,-0.23719382286071777,-0.29569199681282043,-0.10469432175159454,-0.04376206547021866,0.029581476002931595,0.15354442596435547,0.6633278131484985,0.24314986169338226,-0.08233276754617691,0.2717241942882538,-0.20360998809337616,0.0440484881401062,0.12718169391155243,0.17435269057750702,0.18130095303058624,0.13796666264533997,-0.07857973873615265,0.05966738238930702,0.031100712716579437,0.01926049217581749,0.1100410595536232,-0.3253061771392822],[0.20153948664665222,-0.22195671498775482,-0.04333091527223587,0.051719874143600464,0.09575524926185608,-0.11334516853094101,0.24476352334022522,0.028694666922092438,-0.16876503825187683,0.08418801426887512,-0.17228540778160095,-0.40464532375335693,-0.41291531920433044,-0.0095663545653224,-0.3506598472595215,0.03648466616868973,-0.08368489146232605,0.2078501135110855,-0.09477415680885315,0.3173428773880005,0.033151451498270035,0.039884939789772034,-0.1179240494966507,0.20886752009391785,-0.21717919409275055,0.12810738384723663,0.09986424446105957,0.011938315816223621,0.04989006742835045,-0.18473471701145172,0.09401775151491165,-0.08342591673135757,-0.35872992873191833,0.047064684331417084,0.17706173658370972,-0.13310515880584717,-0.2768862843513489,-0.10609840601682663,0.05763830244541168,-0.06242405250668526,-0.282835990190506,0.17485910654067993,-0.258465975522995,-0.05215279757976532,0.018086779862642288,0.4308600425720215,0.0992894396185875,-0.11022855341434479,-0.006219631060957909,0.2418968677520752,-0.048184074461460114,0.17700880765914917,-0.2798619568347931,0.06578487902879715,-0.09444870799779892,-0.14228470623493195,0.2407861053943634,0.258461594581604,0.10625417530536652,0.03529002144932747,-0.17009477317333221,-0.07062652707099915,-0.07102463394403458,0.05766928568482399,-0.15236885845661163],[-0.10205809026956558,0.1380445510149002,0.010241478681564331,0.19153642654418945,0.1427074670791626,-0.1495669186115265,0.05970454216003418,0.09472068399190903,-0.3661593198776245,-0.2638856768608093,-0.1578511744737625,0.14839787781238556,-0.143619567155838,-0.09808677434921265,-0.11320663243532181,0.13615991175174713,0.11103440821170807,0.13164635002613068,-0.09525902569293976,-0.06953150779008865,-0.12509559094905853,-0.07994336634874344,0.2735573649406433,0.14050151407718658,0.1755099594593048,-0.14048823714256287,0.16211993992328644,0.4180662930011749,-0.035733889788389206,0.08062266558408737,0.04465891793370247,-0.09953028708696365,0.4702295660972595,0.09251121431589127,0.0913957953453064,-0.2498410940170288,-0.2538054585456848,0.28263211250305176,0.0013970135478302836,0.005986860953271389,0.2862420380115509,0.04932205379009247,0.2701921761035919,0.08410503715276718,-0.06981784105300903,0.16100487112998962,0.05287766456604004,0.05653342604637146,-0.20139187574386597,-0.37732335925102234,-0.27893999218940735,-0.2089899331331253,-0.14763671159744263,0.10013629496097565,0.2954767942428589,0.32740938663482666,-0.3565533757209778,0.18749290704727173,-0.0977325290441513,-0.19403930008411407,0.11170923709869385,0.11649315804243088,0.4632032513618469,0.013060156255960464,0.21268557012081146],[-0.5941846370697021,-0.23223930597305298,0.32147732377052307,0.05577903240919113,-0.025063030421733856,-0.15551826357841492,-0.10004738718271255,-0.17085638642311096,-0.19728226959705353,-0.04185379296541214,-0.05400829389691353,0.18895140290260315,0.28495270013809204,0.15662997961044312,-0.09442656487226486,0.045845869928598404,-0.47992104291915894,0.2770962417125702,-0.07269695401191711,0.007052009459584951,-0.2730163335800171,-0.2290850281715393,0.08090146631002426,0.009121598675847054,-0.06962458044290543,-0.09384281188249588,0.13230419158935547,-0.15131141245365143,0.11733795702457428,-0.05032358691096306,0.2628624439239502,0.10201767832040787,0.08969470858573914,0.22588182985782623,-0.18087662756443024,-0.41302773356437683,-0.11811155825853348,0.19316017627716064,-0.21373094618320465,-0.06989873945713043,0.06589026749134064,-0.12559378147125244,0.05321090295910835,-0.25556236505508423,0.21198983490467072,-0.16149212419986725,-0.09032100439071655,0.10695181787014008,-0.18324190378189087,-0.09272486716508865,0.03775389492511749,0.043403469026088715,-0.13235856592655182,-0.10011471807956696,0.14704862236976624,-0.08630674332380295,-0.1655116230249405,0.08096382021903992,0.08088083565235138,0.1060216948390007,0.08364175260066986,-0.33485203981399536,-0.054601624608039856,0.10637607425451279,0.25303831696510315],[0.11248217523097992,-0.09807788580656052,0.3789224624633789,-0.01921011134982109,0.12125708162784576,0.04681571200489998,-0.005150957498699427,0.15954327583312988,0.42376646399497986,0.02259298413991928,0.1375550478696823,-0.2082320749759674,-0.3214823603630066,-0.4723529815673828,0.13018283247947693,-0.1354295164346695,-0.21489930152893066,-0.32174769043922424,-0.17416130006313324,-0.02343445084989071,0.24360190331935883,0.020970825105905533,-0.14874228835105896,-0.24984446167945862,0.16746455430984497,-0.04794318228960037,-0.008181896060705185,0.1439954787492752,0.002911688992753625,0.18120238184928894,0.033889565616846085,0.06431516259908676,-0.08349775522947311,0.21331404149532318,0.17609748244285583,0.18924647569656372,-0.20805807411670685,-0.13530313968658447,0.3255001902580261,0.07296565920114517,0.25928932428359985,-0.1385604292154312,-0.12309962511062622,-0.2741605043411255,0.000736599788069725,0.06703930348157883,0.023498840630054474,-0.2677260637283325,0.06730718910694122,0.11354545503854752,0.010973802767693996,-0.0055411020293831825,0.03168528899550438,-0.2090323567390442,-0.012320411391556263,0.12370868772268295,0.02024485357105732,0.2776387631893158,-0.06765281409025192,0.3780170977115631,-0.3803672194480896,-0.22553540766239166,-0.08655207604169846,-0.08167815953493118,-0.07110267877578735],[-0.338538259267807,0.24689826369285583,0.27067437767982483,-0.15302589535713196,0.03277058154344559,-0.0029976647347211838,-0.08153878897428513,-0.3568251430988312,-0.12166264653205872,0.09921538084745407,-0.1222405657172203,0.12178796529769897,-0.029913581907749176,0.012705158442258835,-0.20353727042675018,0.3381715416908264,0.07241277396678925,-0.1124558225274086,0.43264731764793396,0.017664430662989616,-0.29947906732559204,0.030101897194981575,0.5697073340415955,0.13747131824493408,-0.07349857687950134,0.2539187967777252,0.13705940544605255,-0.16285015642642975,0.23301780223846436,0.11014247685670853,-0.2109125256538391,-0.05271383374929428,0.04885018616914749,-0.015823807567358017,0.19757406413555145,0.18779823184013367,0.0659695416688919,0.17814943194389343,0.010984840802848339,0.2577788829803467,0.09254821389913559,0.2914038598537445,0.45759761333465576,-0.08478441089391708,-0.10815262049436569,0.15126226842403412,-0.16634654998779297,-0.30176201462745667,0.16477574408054352,-0.0057946364395320415,-0.05567266419529915,0.1134178563952446,-0.09639864414930344,0.06637418270111084,-0.10609127581119537,0.08194629102945328,-0.2180313616991043,0.03404388576745987,0.007910857908427715,0.28375986218452454,0.13803236186504364,-0.07410355657339096,0.03875725343823433,0.03272506222128868,0.06109311059117317],[0.05006592720746994,0.09444086253643036,-0.36712154746055603,-0.13412217795848846,0.1951560229063034,-0.24347233772277832,0.08634454756975174,-0.3267829418182373,-0.1909555196762085,0.0027994182892143726,0.0017367509426549077,0.18963544070720673,-0.15774065256118774,-0.001172178192064166,0.33311107754707336,-0.18349985778331757,0.25817036628723145,0.1097857654094696,0.13009701669216156,-0.2286306917667389,0.010474221780896187,-0.03363773226737976,-0.003934641368687153,0.0105797303840518,-0.19107376039028168,-0.059497587382793427,0.04984041675925255,0.19186079502105713,0.12683869898319244,0.2854134738445282,0.15115326642990112,0.007521454244852066,0.1651490032672882,-0.17573222517967224,0.025194598361849785,-0.06197841465473175,-0.07168518006801605,0.09996455907821655,-0.08079466223716736,-0.016305550932884216,-0.26527056097984314,-0.16589653491973877,-0.110720694065094,-0.5671711564064026,-0.0065232845954597,0.06272846460342407,-0.11919811367988586,-0.4168466031551361,-0.12982147932052612,-0.10074266046285629,-0.12247258424758911,0.03846767544746399,0.08589408546686172,0.14356963336467743,0.13580965995788574,-0.11781199276447296,0.14640451967716217,-0.06473565846681595,0.22686108946800232,0.1824011653661728,0.290195494890213,-0.17671172320842743,0.017616335302591324,-0.2884044051170349,0.25673070549964905],[-0.13265888392925262,-0.004261814057826996,0.28093385696411133,-0.4242280125617981,0.00731569342315197,0.04511825367808342,-0.018083425238728523,0.20691269636154175,-0.1735665202140808,0.05847820267081261,-0.012181954458355904,0.28089776635169983,-0.23392975330352783,-0.10535193979740143,-0.3180401921272278,0.05710830166935921,0.18792329728603363,-0.05723663046956062,-0.1072215735912323,0.12459888309240341,0.03966909274458885,0.1435869038105011,-0.32564622163772583,0.15314306318759918,0.0376732312142849,0.00423289043828845,0.30487358570098877,-0.017062770202755928,0.10103848576545715,0.06609649211168289,0.0066390433348715305,0.2250271737575531,-0.41211146116256714,-0.01751856319606304,-0.19594518840312958,0.26529398560523987,0.17200221121311188,0.2160676270723343,0.18025708198547363,0.036229148507118225,-0.3015456795692444,-0.10531718283891678,-0.19200986623764038,-0.2859002649784088,-0.19603940844535828,-0.1827397346496582,-0.010856564156711102,0.4171006977558136,-0.022497165948152542,-0.27495265007019043,-0.06057913973927498,-0.07700622826814651,0.0337815023958683,0.16354700922966003,0.16742931306362152,0.024563901126384735,-0.032660145312547684,-0.17611226439476013,0.13077764213085175,0.20924383401870728,-0.030305827036499977,0.09001763164997101,0.1625193953514099,-0.06347977370023727,-0.11087585240602493],[0.009184780530631542,-0.08516476303339005,-0.2196185439825058,0.16877271234989166,-0.12850506603717804,0.39651036262512207,0.21612663567066193,-0.24714450538158417,-0.20823875069618225,-0.06971368938684464,-0.1594744473695755,0.1232682317495346,-0.08901941031217575,-0.03413870930671692,0.06439520418643951,0.023781321942806244,-0.3271265923976898,0.09930011630058289,0.28019148111343384,0.10918828845024109,-0.16598327457904816,-0.29082489013671875,0.09752674400806427,0.22754423320293427,0.09135415405035019,-0.035207632929086685,0.15383756160736084,0.08714362233877182,-0.08403506129980087,0.34638431668281555,-0.4771120548248291,-0.36143046617507935,-0.2980389893054962,0.14176827669143677,-0.03126231208443642,-0.06042246147990227,0.0851510614156723,-0.0030164115596562624,-0.1018325462937355,-0.34584134817123413,0.1539759784936905,-0.17971718311309814,-0.0986081063747406,-0.036404430866241455,-0.037055399268865585,-0.3034417927265167,-0.008843675255775452,-0.1645960956811905,-0.15842017531394958,-0.1845472753047943,-0.0047738333232700825,-0.10995964705944061,-0.2067389190196991,-0.023980483412742615,-0.1201290413737297,0.30112501978874207,-0.11059434711933136,-0.18643204867839813,0.0043702926486730576,-0.047012411057949066,-0.09433338046073914,0.02150791883468628,0.10428553819656372,0.24241934716701508,0.006680453661829233],[-0.05241001769900322,-0.0013512151781469584,-0.1399572342634201,-0.0017061729449778795,0.11106011271476746,-0.09224889427423477,-0.3503541648387909,0.1046881154179573,0.3893623352050781,0.3403297960758209,0.17059741914272308,-0.28142279386520386,0.2191605120897293,-0.2659822404384613,-0.08390089869499207,-0.14508987963199615,-0.15556327998638153,-0.00396265322342515,0.08310495316982269,-0.03730154037475586,0.10827337950468063,-0.16378432512283325,0.02898089960217476,0.14785759150981903,-0.009277276694774628,0.29581767320632935,0.13394001126289368,0.2105950266122818,-0.2143268883228302,-0.12103863805532455,-0.12966428697109222,0.22213129699230194,-0.13091038167476654,0.19326697289943695,0.24633730947971344,-0.032233335077762604,-0.23095105588436127,0.1394835114479065,0.3034944534301758,0.090614452958107,-0.12101896852254868,-0.07298018038272858,-0.427316814661026,0.05229969695210457,-0.10263943672180176,-0.009456383064389229,-0.39263156056404114,0.07909303903579712,-0.06448765844106674,0.08405855298042297,-0.05523394048213959,-0.1983863264322281,-0.04917648434638977,0.14082321524620056,-0.3532899022102356,-0.15343081951141357,0.05284562706947327,-0.19324848055839539,-0.2423354834318161,-0.0570908784866333,0.21223558485507965,0.04942500591278076,0.16447937488555908,-0.22597983479499817,-0.05457552149891853],[-0.25498393177986145,0.2112358808517456,0.019332364201545715,0.44763290882110596,0.16300295293331146,0.2364058941602707,-0.17885445058345795,-0.13612248003482819,-0.3300808370113373,-0.12355484068393707,0.19246642291545868,0.1265639364719391,-0.013597258366644382,-0.06975171715021133,-0.35015755891799927,0.27210307121276855,0.09107090532779694,0.03149057924747467,0.2852921485900879,-0.3228774666786194,0.1332942247390747,-0.028411950916051865,0.044800031930208206,-0.0012570118997246027,-0.30277982354164124,-0.055481817573308945,-0.2629067003726959,0.1274733990430832,-0.19178494811058044,0.18754610419273376,0.11956422030925751,0.054767727851867676,-0.1446171998977661,0.16931356489658356,-0.19142600893974304,-0.028131933882832527,0.29512688517570496,0.07519446313381195,0.2026665210723877,-0.06420926749706268,0.10951893031597137,0.07531701773405075,0.0266993697732687,0.08583654463291168,0.208452507853508,-0.03486264497041702,-0.09699436277151108,-0.28801873326301575,-0.012566076591610909,-0.08209049701690674,0.11670184880495071,-0.1669507473707199,-0.41830918192863464,-0.16115115582942963,0.49777576327323914,-0.15840454399585724,-0.06994620710611343,0.002639100654050708,0.2296004742383957,-0.09232427924871445,0.026363691315054893,0.15240329504013062,-0.0023126027081161737,-0.11013144999742508,0.16840730607509613]],"bias":[-0.007948879152536392,0.026262668892741203,-0.0033780282828956842,0.04856901988387108,0.02195369079709053,-0.011934117414057255,0.003974813036620617,-0.024169813841581345,-0.0014737092424184084,0.01426151767373085,-0.021975986659526825,-0.01661219634115696,0.03688007593154907,0.014541423879563808,0.012440450489521027,0.009046760387718678,0.004782906733453274,0.02851376123726368,-0.029947377741336823,0.010574674233794212,0.02616312727332115,0.022594818845391273,-3.80841302103363e-05,-0.034180231392383575,-0.021956639364361763,-0.0067834677174687386,0.006807299796491861,-0.02860182709991932,0.014510790817439556,0.03646998852491379,-0.02922900766134262,0.007275174837559462,0.019799718633294106,0.0037067586090415716,0.025034530088305473,-0.01422229502350092,0.008138686418533325,0.028965996578335762,0.0007447123643942177,-0.04110598936676979,-0.026949070394039154,-0.0003959856112487614,0.03951722010970116,-0.03682438284158707,-0.004685593768954277,-0.04562662914395332,-0.027197102084755898,0.02523220144212246,-0.00578087754547596,0.005708792712539434,0.016446977853775024,0.027649831026792526,0.016001572832465172,0.011346090584993362,-0.044995877891778946,0.004620994441211224,0.031106796115636826,0.002422168618068099,0.05550470948219299,0.02353140152990818,-0.02394210360944271,0.013815321959555149,0.01758403331041336,0.02848813124001026]},{"weight":[[-0.14298313856124878,-0.2960290014743805,-0.08345289528369904,-0.19180311262607574,0.08355192095041275,-0.4259592294692993,-0.3960070013999939,0.19217588007450104,0.2505286931991577,-0.44513174891471863,0.07038102298974991,0.01237503718584776,0.12465084344148636,-0.13170075416564941,0.19521275162696838,-0.0871739536523819,0.012842074036598206,0.2910977602005005,-0.2736714482307434,0.3761040270328522,0.22455114126205444,-0.08392854034900665,-0.14177003502845764,-0.04282395914196968,-0.07595712691545486,-0.034526534378528595,0.2731289565563202,-0.057395756244659424,-0.2984892725944519,-0.023973241448402405,0.02429940737783909,0.12838663160800934,0.17713196575641632,-0.17702963948249817,0.14665135741233826,-0.09680983424186707,0.07285083830356598,-0.2667687237262726,0.12534107267856598,0.06940491497516632,0.09533608704805374,-0.04188183322548866,0.37140944600105286,0.2513701617717743,0.19896063208580017,0.18130038678646088,-0.024663830175995827,-0.06836885958909988,0.07559474557638168,-0.0675986185669899,-0.1812772899866104,-0.04991289600729942,-0.19639289379119873,-0.06812530010938644,0.24767352640628815,0.04777481034398079,-0.24999885261058807,0.07214438915252686,-0.04472212493419647,0.0037855044938623905,-0.02348661608994007,-0.20216500759124756,0.03150535747408867,-0.13229231536388397],[0.15828768908977509,-0.06360571831464767,0.13314814865589142,0.24313223361968994,-0.16701804101467133,0.10065902024507523,0.05678626149892807,0.08506650477647781,0.14365200698375702,0.13464555144309998,0.17299595475196838,-0.10453641414642334,0.10395242273807526,0.04972963035106659,0.24068312346935272,0.009358607232570648,0.06328436732292175,0.4012461304664612,0.15530432760715485,-0.14827774465084076,0.28631681203842163,-0.06704060733318329,-0.14716948568820953,-0.29956042766571045,-0.02195093035697937,0.4285638928413391,-0.1665276139974594,-0.06786909699440002,0.0770028755068779,-0.08764844387769699,-0.05289200693368912,-0.2132233828306198,-0.2760778069496155,-0.16624422371387482,-0.1549963653087616,-0.057923316955566406,0.3846820294857025,-0.1621953397989273,0.06020071357488632,-0.1524806171655655,0.08840113133192062,-0.12652425467967987,0.04016518220305443,-0.2128869593143463,-0.048067089170217514,0.16784481704235077,-0.026155808940529823,-0.32304584980010986,-0.06784714013338089,0.06146303191781044,-0.035949841141700745,-0.010077562183141708,0.1750403642654419,-0.457451730966568,-0.27822694182395935,0.012163444422185421,0.24484919011592865,0.1997968554496765,0.0991499274969101,0.05056385695934296,0.2068064957857132,0.11084215342998505,-0.17288653552532196,-0.05834154412150383],[-0.19735087454319,-0.2972869575023651,0.07734903693199158,-0.0225401408970356,-0.09560838341712952,-0.07013467699289322,0.01836846023797989,-0.013544479385018349,-0.15118196606636047,-0.10369384288787842,-0.08418696373701096,0.19423097372055054,-0.08989261090755463,-0.01289212703704834,0.11530841886997223,-0.037520941346883774,0.26467612385749817,0.08947840332984924,0.14611472189426422,0.05764340981841087,-0.10084009170532227,-0.15525318682193756,-0.03752720728516579,0.20789676904678345,-0.12441069632768631,0.0975513607263565,-0.08975622057914734,0.37574517726898193,-0.2246812880039215,0.03733837977051735,0.007956906221807003,-0.2221248894929886,-0.04329676181077957,-0.2847692668437958,-0.0539696142077446,0.08228235691785812,-0.013521895743906498,-0.1402159333229065,0.333381325006485,0.19754044711589813,-0.22474980354309082,0.1899135708808899,-0.23865514993667603,0.04716378450393677,0.02318873628973961,0.11490417271852493,0.22384698688983917,0.019399605691432953,-0.18041673302650452,-0.2754177153110504,-0.16986899077892303,-0.3700469732284546,-0.5471526384353638,-0.07652956247329712,-0.4130479693412781,-0.2161225527524948,-0.5282534956932068,-0.08165615051984787,-0.1768721044063568,0.19141127169132233,-0.2651594281196594,0.018487725406885147,0.14094935357570648,-0.12856921553611755],[0.02100672386586666,0.24879154562950134,0.29210200905799866,0.25458258390426636,0.1572740226984024,0.10306109488010406,-0.000954275659751147,0.03674408420920372,-0.03853942081332207,0.26938673853874207,-0.06944050639867783,0.041236475110054016,0.18127809464931488,0.18597286939620972,0.2822509706020355,0.07901201397180557,-0.06234707683324814,0.19306354224681854,-0.2193361222743988,-0.11167629063129425,0.02555704489350319,-0.04929018020629883,0.13026699423789978,0.04127024486660957,-0.33634769916534424,-0.17051592469215393,-0.33315417170524597,-0.2841631770133972,-0.12423538416624069,-0.1920958161354065,-0.024448055773973465,-0.35423481464385986,0.08896935731172562,0.18623816967010498,0.34331947565078735,-0.14429955184459686,0.16521699726581573,0.27713218331336975,-0.012232273817062378,0.3054186999797821,0.07677610963582993,-0.05529985576868057,-0.046897221356630325,-0.39830848574638367,-0.1047157347202301,-0.2899115979671478,-0.2171657681465149,0.06262010335922241,0.26687780022621155,0.11680004000663757,0.01396756898611784,0.31120699644088745,0.39041435718536377,-0.23951397836208344,-0.06799034774303436,0.2072385996580124,-0.01792089268565178,-0.4269270896911621,0.10218467563390732,0.07964935898780823,0.11033611744642258,-0.4250423014163971,-0.10299916565418243,0.07279761880636215],[0.14441785216331482,0.2779521942138672,-0.14062944054603577,-0.27205756306648254,0.2698003351688385,0.5163888335227966,-0.11202868074178696,0.012197918258607388,-0.05868563428521156,0.292264461517334,-0.053041569888591766,-0.16091272234916687,0.08220681548118591,0.1297709345817566,0.07794235646724701,0.2870672643184662,0.22444899380207062,-0.008843953721225262,-0.08450854569673538,-0.20571215450763702,0.2782556712627411,-0.10223869234323502,-0.10030633211135864,0.21114474534988403,-0.17437246441841125,0.07455403357744217,0.22034038603305817,0.0201788991689682,0.05597401410341263,0.1431574672460556,0.15600422024726868,-0.18473368883132935,-0.02232818491756916,0.06594003736972809,0.029698792845010757,0.010686865076422691,-0.004366649314761162,0.02632797136902809,0.1767715960741043,0.10663877427577972,-0.01634610816836357,-0.06515780091285706,0.42012283205986023,0.06507569551467896,-0.12647469341754913,-0.1953853815793991,-0.13530007004737854,-0.022439077496528625,0.11151955276727676,-0.05147921293973923,-0.1260361522436142,0.13848276436328888,0.05190947651863098,0.08225980401039124,-0.14670518040657043,0.15877503156661987,0.48158806562423706,-0.16260026395320892,-0.20098350942134857,0.01694285310804844,-0.3836788833141327,-0.11392171680927277,-0.22097525000572205,0.31533053517341614],[0.13065573573112488,0.42299389839172363,-0.0926484540104866,0.1203894093632698,0.23866139352321625,-0.03183995187282562,0.3475543260574341,-0.22587630152702332,0.024775497615337372,0.22536355257034302,0.2134755551815033,-0.25141897797584534,0.05000879988074303,0.1966710388660431,0.16681404411792755,-0.021558990702033043,0.09765612334012985,-0.018962418660521507,-0.05302783474326134,-0.13911539316177368,0.23878470063209534,0.25628235936164856,-0.35831978917121887,0.17087960243225098,0.1721770316362381,-0.3271957039833069,0.08502393215894699,-0.11199387162923813,-0.14564412832260132,-0.06982032209634781,-0.014119751751422882,-0.34310367703437805,0.03861481696367264,-0.3765154480934143,0.25273236632347107,0.28900083899497986,0.06786846369504929,-0.26195862889289856,-0.26273518800735474,-0.0065033272840082645,0.20430168509483337,0.0674762949347496,-0.02728094346821308,0.06760838627815247,0.14937974512577057,-0.09877932816743851,-0.037166204303503036,0.41085880994796753,0.054122891277074814,0.18869580328464508,0.03244444355368614,0.2768639624118805,0.23126418888568878,-0.14461608231067657,-0.017448125407099724,0.1540222018957138,-0.024204064160585403,-0.12296183407306671,0.14246265590190887,0.3606429994106293,0.053183555603027344,0.24738885462284088,-0.06707647442817688,0.30190861225128174],[0.25550761818885803,0.0683525875210762,-0.14629480242729187,0.129885733127594,-0.14699093997478485,-0.21327559649944305,0.035971980541944504,0.019229836761951447,-0.2456159144639969,-0.12186947464942932,0.06843652576208115,0.23646952211856842,-0.03352053835988045,-0.16393917798995972,-0.169663205742836,-0.1355777382850647,-0.02968439646065235,-0.11234579980373383,0.08579076826572418,0.3237170875072479,0.16307471692562103,-0.44516411423683167,-0.28472578525543213,0.11912772059440613,0.024663196876645088,0.14685092866420746,0.33129873871803284,0.2628249228000641,0.050537627190351486,-0.23238764703273773,0.03905286639928818,0.1374770849943161,0.05195247754454613,0.19078850746154785,-0.3964274823665619,0.3063983619213104,0.22430233657360077,-0.15894734859466553,-0.23749269545078278,0.37422555685043335,0.06096164509654045,-0.09549468010663986,-0.23514480888843536,-0.19035561382770538,0.09510113298892975,0.03160853683948517,-0.04606929421424866,-0.3427756428718567,-0.06660746783018112,-0.2078327089548111,-0.14389485120773315,-0.14257490634918213,0.005863439291715622,-0.05978021398186684,-0.04207909107208252,-0.07504662871360779,0.06566126644611359,0.08771882206201553,-0.25420406460762024,0.03646458312869072,0.01089052576571703,-0.11770028620958328,0.3676793873310089,0.10731235891580582],[-0.03496103733778,0.011377454735338688,-0.2090500444173813,0.1427459567785263,0.003424987895414233,-0.21790261566638947,-0.1043524444103241,0.053013138473033905,0.17199046909809113,-0.07447199523448944,0.3583488166332245,-0.2564646005630493,-0.13204042613506317,-0.5600669384002686,-0.0023761733900755644,0.012895493768155575,-0.018170472234487534,0.02819284237921238,0.10001205652952194,0.3098328709602356,-0.25246453285217285,-0.03870600834488869,-0.14739494025707245,0.11407672613859177,0.19652056694030762,0.13088823854923248,-0.08662057667970657,0.30166706442832947,0.03607780858874321,-0.05707462504506111,-0.2008352279663086,0.135238915681839,-0.3940879702568054,0.07356882095336914,0.13508246839046478,-0.15655827522277832,0.10491029173135757,0.3981010913848877,0.0490538515150547,-0.013409033417701721,0.37045711278915405,0.18979449570178986,-0.14561641216278076,0.29174330830574036,0.03308027982711792,-0.13347193598747253,0.1343463659286499,0.04539921507239342,-0.16092778742313385,-0.46608901023864746,-0.42323651909828186,-0.31101810932159424,-0.09842301905155182,0.12792061269283295,-0.04612310603260994,0.09129725396633148,-0.21464987099170685,0.27066847681999207,-0.09468308091163635,-0.05151000991463661,-0.09960577636957169,-0.2477903515100479,0.17718416452407837,-0.1286124736070633],[0.00712565565481782,-0.10151401162147522,-0.03759688884019852,0.07881435006856918,0.15353816747665405,0.10404397547245026,0.30843058228492737,-0.34445688128471375,0.16587930917739868,0.3289250135421753,0.03826609626412392,-0.05671219900250435,0.21321693062782288,0.12265005707740784,-0.19495710730552673,0.3322511911392212,0.223088800907135,0.3174539804458618,0.04628966376185417,0.08676081150770187,0.3381896913051605,-0.017586583271622658,0.24435140192508698,-0.032328128814697266,0.0444161519408226,0.05253037065267563,0.1740104705095291,-0.09447687864303589,-0.23186129331588745,0.06996441632509232,-0.057966314256191254,-0.012477192096412182,0.1480650007724762,0.22365131974220276,0.503523051738739,-0.050313107669353485,-0.26801082491874695,0.054127831012010574,-0.07530301064252853,0.07149644941091537,-0.03539362549781799,0.22040750086307526,0.005698624532669783,-0.6681720018386841,-0.038132041692733765,0.1230752244591713,-0.1980191171169281,0.40282222628593445,0.1031813845038414,0.10431946814060211,-0.0014085095608606935,-0.07067599892616272,-0.0034192949533462524,-0.14831608533859253,0.06612949818372726,0.24216574430465698,0.24769048392772675,-0.027592845261096954,0.19759786128997803,-0.2693174183368683,0.10879146307706833,0.1578286588191986,-0.14671830832958221,0.3784596621990204],[0.36531540751457214,0.10949838161468506,0.2543533146381378,0.22772203385829926,0.3123365044593811,0.07760133594274521,-0.19503897428512573,-0.01904027909040451,-0.08506953716278076,0.2733934819698334,-0.18599623441696167,-0.10974720120429993,0.06983277946710587,-0.12756139039993286,-0.035601090639829636,-0.22784876823425293,0.2809324562549591,0.13201192021369934,0.38460054993629456,-0.3385305404663086,0.21853138506412506,-0.13625484704971313,0.07273870706558228,0.15959489345550537,0.15010210871696472,-0.03662490099668503,0.13077038526535034,-0.39702755212783813,0.02003299444913864,0.16377216577529907,-0.08471895754337311,-0.1482715606689453,0.2225709855556488,-0.030213864520192146,0.07598847895860672,-0.323906272649765,0.0443781279027462,-0.18840152025222778,-0.1875123530626297,-0.0005431497702375054,-0.009650654159486294,-0.05236843600869179,-0.25045326352119446,0.1318233460187912,-0.41992709040641785,-0.02336995117366314,-0.13829730451107025,0.10817703604698181,0.38450971245765686,0.3443051278591156,-0.07157975435256958,0.09826481342315674,-0.11214058101177216,-0.062468696385622025,0.1456788033246994,-0.12502077221870422,0.04507914558053017,0.07379841804504395,0.10868430882692337,-0.15639737248420715,-0.0436411127448082,-0.13683179020881653,0.24318528175354004,0.08037745207548141],[0.05338772386312485,0.02178463712334633,-0.26932162046432495,-0.019235951825976372,-0.17571400105953217,-0.0045735896565020084,0.15256734192371368,-0.05770120397210121,0.5999810099601746,-0.1565771996974945,-0.02686087228357792,0.10052457451820374,0.08474155515432358,0.22348998486995697,-0.18300080299377441,-0.41697898507118225,-0.012414587661623955,-0.05388418585062027,0.04520948603749275,-0.14273034036159515,0.11223305016756058,0.05477936938405037,0.14144130051136017,0.04834982007741928,