{
  "type": "logistic_flee_policy",
  "observation_size": 65,
  "weights": [
    -3.822657585144043,
    1.9536643028259277,
    -0.0074938274919986725,
    1.0735102891921997,
    0.037866126745939255,
    0.6638543009757996,
    -0.7277008891105652,
    -1.8934656381607056,
    -2.6652605533599854,
    -0.6294044852256775,
    0.3627393841743469,
    7.3484039306640625,
    -2.4023306369781494,
    0.343051940202713,
    -0.004019090905785561,
    -0.041585203260183334,
    0.022560006007552147,
    -0.5261480212211609,
    -0.3734740912914276,
    -0.5003113746643066,
    -2.005141258239746,
    0.2589503824710846,
    -0.20800897479057312,
    0.17915812134742737,
    0.21090003848075867,
    0.0579819418489933,
    -0.16581237316131592,
    -0.0007030892884358764,
    -0.17500218749046326,
    0.1441815197467804,
    -0.41387373208999634,
    0.2657943367958069,
    -0.1822555661201477,
    0.1776752471923828,
    0.22590000927448273,
    0.06854496151208878,
    -0.1396704763174057,
    -0.11726643145084381,
    -0.09920553863048553,
    -0.10574895143508911,
    -0.45942631363868713,
    -0.013010784052312374,
    0.010930817574262619,
    -0.14695054292678833,
    0.0931711345911026,
    -0.4501914978027344,
    0.18711183965206146,
    -0.21779286861419678,
    -0.10599804669618607,
    -0.10702254623174667,
    -0.34434589743614197,
    0.30847933888435364,
    0.09813418239355087,
    0.41255897283554077,
    0.08931431174278259,
    -0.04568685218691826,
    -0.11971358209848404,
    -0.04555436968803406,
    -0.14142288267612457,
    -0.04003091901540756,
    -0.039164911955595016,
    0.23603524267673492,
    0.013049397617578506,
    0.17737190425395966,
    0.009523400105535984
  ],
  "bias": -0.18472024996517694,
  "threshold": 0.5199999999999999,
  "samples": 20000,
  "positive_rate": 0.09489999711513519,
  "train_accuracy": 0.9073125,
  "valid_accuracy": 0.89625,
  "valid_balanced_accuracy": 0.9286322725811635
}