{"type":"sb3_ppo_actor_tanh","policy_layers":[{"weight":[[-0.19374342262744904,0.056634388864040375,0.07203102111816406,0.015064151026308537,-0.056155018508434296,0.16681373119354248,0.018519246950745583,-0.06533554196357727,-0.41224029660224915,0.00013507001858670264,0.10890322178602219,0.05430588871240616,0.0571710579097271,0.047491032630205154,-0.01154926884919405,-0.08303488045930862,-0.13241401314735413,-0.12462549656629562,0.010124506428837776,0.04640907794237137,-0.10905325412750244,-0.07323596626520157,0.0009309290908277035,-0.01665620505809784,0.00894552655518055,0.025226393714547157,-0.015800047665834427,0.12371613830327988,0.08397497236728668,0.07485415041446686,-0.02565130591392517,0.07412001490592957,0.052483659237623215,0.02345258928835392,0.0007483934168703854,-0.09142273664474487,-0.030903644859790802,0.0261324942111969,-0.05779317021369934,0.2126728743314743,-0.15832531452178955,0.035492897033691406,0.052098166197538376,-0.11217223852872849,-0.07533928751945496,-0.025313744321465492,-0.12455644458532333,-0.011319166980683804,-0.007953991182148457,-0.02263180911540985,0.20211438834667206,-0.0995989516377449,-0.006597752682864666,-0.005010422319173813,-0.06830321252346039,0.07835759967565536,0.052432749420404434,0.05534769594669342,-0.104622483253479,0.011694729328155518,0.01553051546216011,0.04231960326433182,-0.03140398859977722,0.0721149891614914,-0.09064555168151855],[-0.02045317180454731,0.3038046956062317,0.12524478137493134,-0.11048338562250137,0.05207785591483116,-0.01540938951075077,0.0003639711649157107,-0.0746629387140274,-0.28807854652404785,-0.063417449593544,0.20385438203811646,0.198281928896904,0.08833176642656326,0.09890758991241455,-0.026428451761603355,-0.006431166548281908,-0.1175316870212555,-0.03918421268463135,0.04627077654004097,-0.014652767218649387,-0.025078818202018738,-0.1267680525779724,-0.07854245603084564,-0.0786798968911171,0.12064634263515472,-0.04927128925919533,0.15746790170669556,0.011048967018723488,-0.043808288872241974,0.15776033699512482,-0.0076467799954116344,-0.0667804479598999,-0.02293165773153305,-0.04576168954372406,0.044986139982938766,-0.0863117054104805,0.07957468181848526,0.040800098329782486,-0.06301649659872055,-0.0425952672958374,-0.056906864047050476,0.023257514461874962,-0.05790349468588829,-0.05610476806759834,-0.05084589868783951,-0.07000143080949783,-0.2077268660068512,0.06009900942444801,0.02335132285952568,-0.12485096603631973,-0.06187950074672699,-0.033934641629457474,-0.17954309284687042,0.04741891473531723,-0.17057549953460693,0.016202963888645172,-0.06744234263896942,-0.01361555140465498,-0.09080089628696442,-0.11113976687192917,0.24787050485610962,0.04568556696176529,-0.06506498903036118,0.0914556011557579,0.06375885009765625],[-0.1259632408618927,0.11283078044652939,-0.10219430178403854,0.009974920190870762,0.012049157172441483,-0.030538979917764664,0.11218998581171036,-0.08589465171098709,-0.26826030015945435,-0.12328502535820007,-0.055658645927906036,0.2609863579273224,-0.00029052936588414013,0.00623357156291604,-0.11407791078090668,0.03555745631456375,-0.025711121037602425,-0.20616179704666138,-0.024093592539429665,0.08562765270471573,-0.032705157995224,0.061573006212711334,-0.20717407763004303,0.06411034613847733,-0.13354745507240295,-0.09119565784931183,0.1367819607257843,-0.14176999032497406,0.048025961965322495,0.09343459457159042,-0.03209323808550835,-0.17127524316310883,-0.09324236214160919,4.9031379603547975e-05,0.13673928380012512,0.12677517533302307,0.05914262682199478,0.005611446686089039,0.08112870901823044,0.0815114676952362,-0.13434450328350067,0.07813610136508942,0.11549454182386398,-0.008542790077626705,0.012717838399112225,-0.028630094602704048,0.1676565557718277,0.0836675837635994,-0.07610006630420685,0.07856832444667816,0.13202175498008728,-0.004874394275248051,-0.2509540319442749,0.009474926628172398,0.03451428562402725,-0.07863864302635193,0.07728873938322067,0.05644771829247475,-0.058627720922231674,-0.1301916092634201,0.16690593957901,0.04955904558300972,-0.029401587322354317,0.23873472213745117,0.007687198929488659],[0.045595936477184296,0.08572940528392792,0.08234353363513947,-0.00940913800150156,0.038803212344646454,-0.010535018518567085,-0.050826095044612885,0.11271508038043976,-0.5342017412185669,0.1311403214931488,0.17936906218528748,-0.15747147798538208,0.1137194037437439,0.15522915124893188,-0.13195806741714478,0.0033279627095907927,0.04146936163306236,-0.10833505541086197,0.050319623202085495,-0.07352194935083389,-0.1497458815574646,-0.06599454581737518,0.008014737628400326,-0.006698946934193373,0.07607171684503555,-0.15621528029441833,-0.03628760203719139,0.01563851907849312,-0.006935701239854097,-0.00013368402142077684,0.046834561973810196,0.08507136255502701,0.15903334319591522,0.10239563882350922,-0.17494843900203705,0.09355833381414413,0.006466766353696585,0.075514055788517,-0.023928966373205185,-0.013088024221360683,-0.16534581780433655,-0.03913896530866623,0.08136105537414551,0.023692257702350616,0.06697706878185272,0.013602887280285358,-0.016719035804271698,-0.06013235077261925,-0.05973390117287636,-0.04925312101840973,-0.07641688734292984,0.0409293957054615,0.05984394997358322,0.07650589942932129,0.04749380052089691,0.07784543931484222,0.04627377539873123,-0.18066614866256714,0.07359779626131058,-0.09378763288259506,-0.038112033158540726,0.014106196351349354,0.044785719364881516,-0.030306091532111168,-0.07489434629678726],[-0.10760766267776489,0.19515351951122284,-0.023499062284827232,-0.17558152973651886,-0.05680413544178009,0.06724464893341064,-0.03282368555665016,0.10448036342859268,-0.2783472537994385,-0.09742126613855362,0.011538917198777199,0.20311491191387177,-0.08139632642269135,-0.016702154651284218,0.0017567488830536604,0.08813562244176865,0.07187386602163315,-0.0031903788913041353,0.006099638994783163,0.030366040766239166,0.01897943578660488,0.08112145960330963,-0.08649203181266785,-0.09190358221530914,0.039911650121212006,0.02147623337805271,0.0503530390560627,0.027850987389683723,0.197225421667099,0.01254214160144329,-0.2151319980621338,-0.05258748307824135,0.11405699700117111,0.01638229936361313,0.02429858408868313,0.10449361801147461,-0.02112322859466076,0.0174045879393816,-0.19014683365821838,-0.009106991812586784,0.06922261416912079,-0.058626774698495865,-0.14906246960163116,-0.06374622136354446,0.0029616262763738632,-0.09573987126350403,0.11410250514745712,0.06620018929243088,-0.016003122553229332,-0.06520894914865494,0.04122282564640045,-0.03812599182128906,0.04523970186710358,-0.05151820927858353,0.17533577978610992,-0.06166955828666687,0.14019156992435455,-0.03877238929271698,0.08906030654907227,0.035122644156217575,0.028149735182523727,0.0006745407008565962,0.01645169034600258,-0.12826015055179596,0.07993333041667938],[0.07239925861358643,-0.266689658164978,-0.002077363897114992,0.02511282078921795,-0.12026946991682053,0.05038025975227356,-0.03738480061292648,0.0017601018771529198,0.21777065098285675,0.0015612483257427812,0.1193336695432663,-0.07462695986032486,-0.2858315110206604,-0.022988269105553627,-0.04014360159635544,-0.032282765954732895,0.06262800097465515,-0.060468610376119614,-0.11112332344055176,-0.05530409887433052,0.3304007053375244,0.15519914031028748,0.11449969559907913,0.06046396866440773,-0.09092686325311661,-0.05447101593017578,-0.015000337734818459,-0.08778109401464462,-0.21752943098545074,-0.018293950706720352,-0.08565588295459747,-0.009606725536286831,0.16106969118118286,-0.12660379707813263,0.10648909211158752,-0.07747053354978561,-0.18518422544002533,-0.17076590657234192,-0.04680285602807999,-0.2171361893415451,0.0492670014500618,0.05458684265613556,0.09825167804956436,0.05754183977842331,-0.05142233148217201,0.12569545209407806,0.007813679985702038,0.007765956688672304,0.0685516819357872,-0.06602586060762405,-0.03874874487519264,-0.03038080222904682,0.10220468044281006,-0.06145966053009033,0.20036199688911438,-0.013321161270141602,-0.08759018778800964,0.010032265447080135,-0.00544608011841774,0.08502023667097092,-0.08049222081899643,0.0693325400352478,0.09213817864656448,0.019766632467508316,-0.03288224712014198],[0.14556436240673065,-0.3009395897388458,0.1805792897939682,-0.04536595568060875,0.04578664153814316,-0.07834970206022263,-0.15599454939365387,0.05677749216556549,0.18907608091831207,0.10769996047019958,0.03361205756664276,-0.016156770288944244,-0.031559839844703674,0.006197970360517502,-0.01841236837208271,-0.0034113775473088026,-0.00896395929157734,0.21009662747383118,0.07772291451692581,-0.10188407450914383,0.11674470454454422,0.05268324166536331,-0.18385246396064758,0.05436218902468681,0.07608961313962936,-0.10951933264732361,0.0046663954854011536,-0.1610434651374817,-0.043789517134428024,-0.05909159034490585,0.07537814974784851,0.06324567645788193,0.03984794393181801,-0.035602860152721405,0.032283492386341095,0.0501575730741024,-0.09551180154085159,-0.14705806970596313,-0.06503258645534515,-0.0651606023311615,0.038316141813993454,0.04740571603178978,0.1112019270658493,0.0035080560483038425,0.037600189447402954,-0.043202679604291916,-0.10372377932071686,0.09540082514286041,-0.10653707385063171,0.10256312787532806,0.12138672173023224,-0.11240866780281067,0.12243687361478806,0.08368666470050812,0.1664087474346161,0.0021163925994187593,-0.03310488164424896,-0.07877729088068008,0.03298046812415123,0.20733287930488586,-0.06329207122325897,0.13246193528175354,-0.08138254284858704,-0.12261609733104706,-0.10136056691408157],[-0.230770543217659,0.09838123619556427,-0.09907654672861099,0.10382790863513947,0.028547516092658043,-0.10449397563934326,0.08924663811922073,-0.07660321891307831,0.19129210710525513,-0.024298222735524178,-0.04733956605195999,0.1396251767873764,0.050101619213819504,-0.1318279653787613,-0.08239441365003586,-0.03847642242908478,-0.09125205874443054,0.10992487519979477,-0.15089058876037598,-0.023958535864949226,0.07545018941164017,-0.016306161880493164,-0.20059999823570251,-0.09083531051874161,-0.06360508501529694,-0.1335705816745758,-0.0042917151004076,0.07112263143062592,-0.03950818255543709,-0.0557309128344059,-0.1624671220779419,-0.09067132323980331,-0.053881481289863586,-0.15130141377449036,-0.08200535923242569,-0.03581530973315239,-0.008066484704613686,0.0777178555727005,-0.12993253767490387,0.0030883343424648046,0.06667102128267288,-0.021992310881614685,-0.020441902801394463,-0.05139057710766792,0.010496670380234718,0.030690504238009453,-0.0077925254590809345,-0.03448304161429405,0.17470499873161316,0.040660563856363297,0.02613813616335392,-0.056112539023160934,0.049461159855127335,0.051334887742996216,-0.11496839672327042,-0.12063479423522949,0.09562378376722336,0.09516032040119171,-0.03541187196969986,0.10687442868947983,0.047991231083869934,0.03897185996174812,0.046963226050138474,-0.032829202711582184,-0.15127304196357727],[-0.32624271512031555,0.12653374671936035,-0.05496899411082268,-0.015523898415267467,0.1085904911160469,0.06636316329240799,-0.01922156848013401,0.06217033788561821,0.060183085501194,-0.0274411179125309,-0.05982174724340439,0.03759187459945679,-0.13978783786296844,-0.20304808020591736,0.029946641996502876,-0.0616665817797184,0.07901632785797119,0.0974295362830162,-0.11711844056844711,0.179281085729599,0.10197222232818604,-0.006991649512201548,-0.058960653841495514,0.08495904505252838,-0.014661971479654312,-0.10983316600322723,-0.2099708616733551,0.12007790058851242,0.17600499093532562,-0.039817359298467636,0.05816565081477165,-0.02443711832165718,0.02917524240911007,0.021159222349524498,0.025707783177495003,-0.17234569787979126,-0.026095902547240257,0.11718166619539261,-0.19176316261291504,-0.12444040179252625,-0.2155216783285141,0.13984793424606323,-0.17299368977546692,0.005459469277411699,-0.020256033167243004,0.05860903859138489,-0.019094862043857574,0.004567923955619335,0.06748432666063309,-0.04316133260726929,0.09970995783805847,-0.04168711230158806,0.010794216766953468,-0.061767578125,0.05447441339492798,-0.032257601618766785,-0.060974862426519394,-0.015216276980936527,-0.03521367162466049,0.13242267072200775,-0.08494510501623154,0.06344806402921677,0.025454096496105194,-0.024812331423163414,0.029428496956825256],[0.024203335866332054,-0.08643460273742676,0.07696982473134995,-0.19850796461105347,-0.034578751772642136,0.008172736503183842,0.08747527748346329,-0.18180198967456818,-0.4322030246257782,0.056769777089357376,0.1452796310186386,-0.05645057186484337,-0.29807066917419434,0.16668541729450226,0.026202091947197914,0.040765032172203064,-0.027433164417743683,0.013578245416283607,0.11162251979112625,0.040356338024139404,-0.05365755409002304,0.0010208896128460765,0.021160727366805077,0.13641679286956787,-0.029070788994431496,0.07572723180055618,-0.09797826409339905,-0.046863485127687454,-0.0008066801237873733,0.1199609637260437,0.10073543339967728,0.0528382733464241,-0.05772238224744797,0.021560389548540115,0.06540890038013458,0.025295618921518326,-0.14898887276649475,-0.10480228811502457,-0.10706385225057602,-0.18319503962993622,-0.3765186667442322,-0.11233961582183838,-0.0475715808570385,0.0521012619137764,-0.09921634197235107,0.006754851900041103,0.050342392176389694,0.013914997689425945,0.11942265182733536,-0.0469123050570488,0.06155123561620712,0.09264900535345078,0.10244922339916229,0.09204313158988953,0.08993110060691833,-0.006127581000328064,-0.00033967598574236035,-0.2143646776676178,0.10136399418115616,0.05593777075409889,-0.09026876837015152,-0.0903814509510994,0.11274536699056625,-0.027508120983839035,0.13039933145046234],[-0.1818571835756302,-0.1552010476589203,-0.052159059792757034,-0.20374517142772675,-0.021681614220142365,-0.02837183140218258,0.050567299127578735,-0.20196674764156342,-0.07521254569292068,0.02900531142950058,0.10297410935163498,-0.07590143382549286,-0.2823268473148346,0.167469784617424,-0.10430184751749039,0.07250053435564041,0.029453186318278313,0.1417904496192932,0.0028091694694012403,-0.009033423848450184,0.23457176983356476,0.07614899426698685,-0.12280261516571045,-0.06204422190785408,-0.08563089370727539,0.08430693298578262,-0.02766396291553974,-0.27123644948005676,-0.05601620301604271,-0.025342321023344994,0.02201649732887745,0.071579210460186,-0.1555817574262619,0.10689114779233932,-0.14773213863372803,-0.039590705186128616,-0.1432449221611023,-0.18281514942646027,-0.16343963146209717,-0.17319367825984955,-0.20295079052448273,-0.07509711384773254,0.07670511305332184,-0.0014030953170731664,0.00388659187592566,0.1185217946767807,-0.0745193213224411,-0.04648430272936821,-0.09434861689805984,-0.034247465431690216,0.08221206814050674,0.10268861055374146,0.017356950789690018,-0.008445792831480503,0.18994103372097015,-0.016899487003684044,0.0061884974129498005,-0.030701877549290657,-0.06774480640888214,0.0014296815497800708,-0.19915685057640076,-0.0963122546672821,0.03787805885076523,-0.10139179229736328,0.07488977909088135],[0.13860607147216797,-0.197261780500412,0.03088465705513954,0.08799298107624054,-0.10483420640230179,-0.020266911014914513,0.07166760414838791,0.2422676682472229,0.3450278341770172,-0.01774446666240692,-0.17723581194877625,-0.1854449361562729,0.17545175552368164,0.06055096164345741,-0.06697747856378555,-0.025817807763814926,0.013428744859993458,-0.05535547807812691,-0.13867603242397308,-0.1091303601861,0.05080213025212288,-0.05684155970811844,0.042915794998407364,0.00036565714981406927,0.03405783697962761,-0.07560165226459503,-0.09585914015769958,0.1779029369354248,-0.014550181105732918,-0.06916453689336777,0.13638900220394135,0.12587639689445496,-0.02607862278819084,-0.06774836033582687,0.19031457602977753,0.010764099657535553,-0.10933702439069748,0.11810008436441422,-0.16207876801490784,-0.01396520622074604,0.28433477878570557,0.021402176469564438,-0.029234014451503754,0.05512581020593643,-0.17553196847438812,0.04756910353899002,0.08000320196151733,-0.08922275900840759,0.011558160185813904,0.07024893164634705,-0.09688112139701843,-0.035618092864751816,-0.17638327181339264,0.07495410740375519,-0.015763841569423676,0.1432131677865982,0.06384266912937164,0.026440059766173363,0.10533595830202103,0.00019648669695015997,-0.030900167301297188,0.035462234169244766,0.023246396332979202,-0.06538303196430206,-0.09081799536943436],[0.20386146008968353,0.04447485879063606,-0.1295226514339447,0.02958136424422264,-0.09628572314977646,0.06356258690357208,0.06390038132667542,-0.041930414736270905,-0.02182510308921337,0.1421831250190735,-0.021995514631271362,-0.22453194856643677,0.22498157620429993,0.050598833709955215,0.0332062803208828,0.0334307998418808,-0.04957498237490654,0.04406733065843582,0.02555984817445278,-0.07749178260564804,-0.07224135100841522,0.08175482600927353,0.06493143737316132,0.08526723831892014,0.1605934500694275,0.014836150221526623,0.11378785222768784,0.010353436693549156,0.08246435970067978,-0.003834779839962721,0.21340368688106537,0.15209677815437317,-0.16331489384174347,0.034707069396972656,0.10001014173030853,0.012346729636192322,0.07030676305294037,0.12532559037208557,0.1434394121170044,-0.010286622680723667,0.011717515997588634,-0.09830440580844879,-0.15906809270381927,0.0042559863068163395,0.036450307816267014,0.055387772619724274,-0.1374722272157669,0.230495423078537,0.08192802965641022,0.17756438255310059,0.005469209980219603,-0.046432532370090485,0.014464151114225388,0.059971749782562256,0.08822176605463028,0.10155145823955536,0.17781133949756622,-0.15245778858661652,-0.006879406049847603,0.012472966685891151,-0.02696928009390831,-0.03866920620203018,-0.018319111317396164,0.06208290159702301,-0.23037847876548767],[-0.22727137804031372,0.25986334681510925,0.046546269208192825,0.023765813559293747,0.03614587336778641,0.07811948657035828,-0.03416290506720543,0.13129305839538574,-0.2254285365343094,0.012003697454929352,-0.09357801824808121,0.12335944920778275,-0.1220429465174675,-0.06774367392063141,-0.058165647089481354,-0.12367703020572662,-0.02567572519183159,-0.2172042280435562,0.08703447878360748,-0.006804140750318766,0.07847907394170761,0.014485851861536503,-0.12885837256908417,-0.12316170334815979,-0.0379246287047863,0.07501060515642166,-0.05381789803504944,0.05063721910119057,-0.05226372182369232,0.14838077127933502,-0.23299670219421387,-0.12463448196649551,-0.11390746384859085,0.1469777375459671,-0.12339339405298233,0.06259757280349731,0.07611390203237534,-0.04783397912979126,0.0004588738374877721,-0.016076723113656044,-0.25230222940444946,0.0930044949054718,-0.0636938139796257,-0.033365365117788315,-0.19249409437179565,-0.18544472754001617,-0.08474071323871613,0.11867837607860565,-0.034113168716430664,-0.0011164528550580144,-0.07530774921178818,-0.19860218465328217,0.06522700935602188,-0.09443291276693344,-0.11097422987222672,-0.04912291094660759,0.006925227586179972,-0.1275753527879715,-0.1645844727754593,-0.030971316620707512,-0.07257475703954697,-0.11237944662570953,-0.00016499010962434113,-0.10324858874082565,0.04690684750676155],[-0.42086201906204224,0.003651374951004982,0.09931480139493942,-0.15414820611476898,-0.14640606939792633,-0.07456199079751968,-0.038834404200315475,-0.08159679174423218,-0.11443623900413513,0.12317662686109543,0.2893611788749695,0.02102120779454708,-0.19512151181697845,-0.0442856140434742,0.013865469954907894,0.09274350851774216,-0.07656142860651016,-0.0426085889339447,-0.02449123188853264,0.16731487214565277,0.11935462057590485,0.0232625063508749,-0.0133207393810153,0.10531336069107056,0.012178588658571243,0.05556238442659378,-0.019858619198203087,-0.019174084067344666,-0.1053350567817688,-0.11594440788030624,-0.0602613240480423,-0.09923435002565384,-0.02753792144358158,0.1645260751247406,-0.02010798268020153,-0.06107800081372261,-0.08789200335741043,-0.14511427283287048,-0.03712763637304306,-0.10969002544879913,-0.22071343660354614,0.010929372161626816,-0.04143957793712616,-0.01261784229427576,0.012756331823766232,-0.13694077730178833,0.07289504259824753,0.040297504514455795,0.01964471861720085,0.053667984902858734,0.003278743475675583,-0.11344751715660095,0.03815571963787079,0.0959404781460762,-0.15952986478805542,-0.020357154309749603,-0.1102227196097374,-0.14964905381202698,-0.04213637486100197,0.0009758188971318305,-0.0977262333035469,0.0039187041111290455,-0.01794162578880787,-0.11407242715358734,-0.02594876103103161],[0.11588098853826523,-0.19027312099933624,0.01898069679737091,0.011478163301944733,-0.04134807363152504,0.2804158627986908,0.018558543175458908,-0.008632976561784744,0.19498774409294128,0.12703773379325867,-0.036709219217300415,-0.1259586215019226,0.12237214297056198,-0.14877724647521973,-0.02146293967962265,-0.06740616261959076,-0.0016706762835383415,-0.024871522560715675,0.2040289044380188,0.020112251862883568,0.15591196715831757,0.03040928952395916,0.0026095351204276085,-0.06037520989775658,-0.024881429970264435,0.01587934046983719,0.11679011583328247,0.02903706766664982,-0.006289116106927395,-0.04268492013216019,0.005183487664908171,-0.04420170560479164,0.005493223667144775,0.05506458878517151,0.00767231872305274,-0.07363948971033096,-0.023975955322384834,-0.065908282995224,0.013130147941410542,0.03510000929236412,0.041584450751543045,-0.06898307055234909,0.04769817367196083,-0.007426050957292318,0.028226064518094063,0.11794304102659225,0.07889099419116974,-0.038933683186769485,-0.07433449476957321,0.11516142636537552,-0.019247323274612427,0.11738934367895126,0.06346725672483444,-0.061403725296258926,0.025218911468982697,-0.00980954896658659,-0.022638721391558647,-0.05298001319169998,0.03153151646256447,0.11388897895812988,0.10814335942268372,0.04515376687049866,0.08268281072378159,-0.036367420107126236,0.10126801580190659],[0.015341305173933506,0.18043410778045654,-0.17657305300235748,0.1106332466006279,0.01737070456147194,0.05492682382464409,0.12558594346046448,0.031637247651815414,-0.263511598110199,-0.1504577100276947,-0.01367976050823927,-0.014743882231414318,0.14810822904109955,-0.023112475872039795,-0.15484043955802917,-0.030504528433084488,-0.05075661465525627,-0.029755035415291786,0.043721649795770645,0.08232322335243225,-0.25350359082221985,0.010139784775674343,0.22876782715320587,0.09180059283971786,0.1264289915561676,-0.007471236400306225,-0.017288507893681526,-0.08188050985336304,-0.067725270986557,0.2366483062505722,-0.1841329038143158,0.024320486932992935,0.05043601989746094,0.1229587122797966,-0.03906696289777756,0.11654388159513474,0.08136536180973053,0.04797482490539551,0.006815895903855562,0.03627598658204079,0.05262337625026703,-0.031116409227252007,0.04378911852836609,-0.02213122323155403,-0.1865028738975525,0.06655481457710266,0.17863744497299194,0.06782004982233047,-0.014871228486299515,0.05217503756284714,0.0598515123128891,0.012039247900247574,0.08240314573049545,0.018820563331246376,-0.15750302374362946,0.014070993289351463,-0.06470149010419846,0.04278034716844559,0.07078981399536133,0.08989051729440689,-0.024354882538318634,0.007966655306518078,-0.04988305643200874,0.09471460431814194,-0.10193546861410141],[0.08046211302280426,-0.2924422323703766,0.20980679988861084,0.12332785874605179,0.10939884185791016,-0.05505303293466568,-0.09807740151882172,0.06435113400220871,0.23607900738716125,0.07632186263799667,0.17871558666229248,-0.18467079102993011,0.07852267473936081,0.018807506188750267,-0.00780713465064764,-0.05203128233551979,-0.02926921844482422,0.029263844713568687,-0.010144395753741264,-0.08307628333568573,-0.027270935475826263,0.043945904821157455,-0.002900815801694989,-0.08630520105361938,0.0794232040643692,-0.1304520070552826,-0.06649772822856903,0.021478483453392982,0.1127701848745346,-0.10135400295257568,-0.002071540569886565,-0.03695683926343918,-0.06181865558028221,-0.04160808026790619,-0.03581783547997475,0.02541683427989483,-0.09203185141086578,-0.1504727452993393,0.07355303317308426,-0.05705878883600235,-0.030748145654797554,0.0835915356874466,-0.24025201797485352,0.15693926811218262,0.10272693634033203,0.06352639198303223,0.05751940608024597,0.00654052896425128,-0.027204150334000587,0.013233514502644539,0.0388396792113781,0.01707136258482933,-0.03869973123073578,-0.1012030616402626,-0.07821029424667358,0.08188892900943756,-0.03633488342165947,0.09063354879617691,0.17428426444530487,-0.01654389500617981,0.03930484876036644,-0.003931059036403894,0.08230104297399521,0.14251932501792908,0.030973821878433228],[-0.22222234308719635,0.259541392326355,-0.07678410410881042,0.02118234522640705,-0.04989539086818695,0.019245129078626633,0.18324071168899536,0.09630424529314041,-0.12252696603536606,-0.029531998559832573,0.07882179319858551,0.17501719295978546,0.04053657874464989,-0.11051790416240692,0.09289263933897018,0.03313647583127022,-0.15549688041210175,-0.1573370099067688,-0.07724002003669739,-0.05703160539269447,-0.0401463508605957,0.07653497159481049,-0.03571982681751251,0.033002015203237534,-0.014212725684046745,0.047157615423202515,0.08352474868297577,-0.07163306325674057,0.13991153240203857,0.11002817749977112,-0.03070860169827938,-0.15963342785835266,0.02717936411499977,0.029395174235105515,0.06523633003234863,-0.05865677446126938,-0.23805873095989227,-0.04704088717699051,0.07120261341333389,0.09451416879892349,-0.09286563098430634,-0.03221137449145317,-0.09227084368467331,-0.0575796477496624,-0.09643717855215073,-0.11259724944829941,-0.06895539909601212,-0.047515619546175,0.09582636505365372,-0.0797843262553215,-0.023684633895754814,0.055195197463035583,-0.05795316398143768,0.009423316456377506,0.08949132263660431,0.11227370798587799,-0.08642418682575226,-0.03254258632659912,-0.11065562069416046,-0.03991787135601044,0.07105876505374908,-0.08232730627059937,0.0868351012468338,-0.015882596373558044,0.005744155030697584],[-0.08920704573392868,0.24600036442279816,0.023990508168935776,0.11332294344902039,0.05639017000794411,0.05669797584414482,0.04952496290206909,0.012480012141168118,-0.20959950983524323,-0.1791369467973709,0.12598951160907745,0.061051782220602036,-0.046159449964761734,0.0402865894138813,-0.09962184727191925,-0.034507326781749725,0.10973312705755234,-0.11599075794219971,-0.1694699376821518,0.05219988897442818,0.11015025526285172,-0.08246088027954102,-0.1088055893778801,0.08777894079685211,-0.08614511042833328,-0.039855826646089554,-0.054089728742837906,0.12224753201007843,-0.01671910472214222,0.051515690982341766,-0.20466111600399017,-0.06779353320598602,-0.20285198092460632,0.048136934638023376,-0.11314801126718521,-0.24743777513504028,0.08674591779708862,-0.1641809642314911,-0.003913194872438908,-0.11411867290735245,-0.23195864260196686,-0.009452765807509422,-0.08070521056652069,0.018046271055936813,-0.053099628537893295,-0.16436727344989777,0.2200448364019394,0.12449842691421509,-0.06318844109773636,-0.07452307641506195,0.000902023515664041,-0.07152456790208817,-0.048391107469797134,-0.08159174025058746,0.014598281122744083,0.033965110778808594,-0.08882583677768707,0.02736145630478859,-0.037496168166399,-0.01596732623875141,-0.08013960719108582,0.03699759021401405,-0.07423297315835953,-0.07481002807617188,-0.13096079230308533],[0.1960892677307129,-0.12380116432905197,-0.016114987432956696,0.08644458651542664,-0.008650236763060093,0.054913390427827835,-0.07409216463565826,-0.14757885038852692,0.03953411057591438,0.0074768029153347015,-0.0824422687292099,-0.04412427544593811,0.17141932249069214,0.030198145657777786,0.012553523294627666,0.004508722107857466,0.00354103185236454,0.017597626894712448,-0.04399988800287247,0.03403748571872711,0.052323415875434875,0.09398447722196579,-0.11989813297986984,0.027999823912978172,0.014146384783089161,0.09867113083600998,0.02082831598818302,0.08410460501909256,-0.0050220005214214325,-0.20629845559597015,-0.03973342850804329,-0.05188152566552162,0.0626385435461998,0.009614837355911732,-0.008444888517260551,0.08911692351102829,0.16639478504657745,0.09768703579902649,0.11545828729867935,0.001844528829678893,0.0336531400680542,0.01922721043229103,-0.0030389477033168077,-0.01927298866212368,0.15625375509262085,0.10812865197658539,-0.08878602832555771,-0.03723420202732086,-0.07138199359178543,0.06529227644205093,0.031380344182252884,0.07184242457151413,-0.021578678861260414,0.11480829119682312,-0.033522192388772964,-0.010906577110290527,-0.027781344950199127,0.07058042287826538,0.07134171575307846,-0.036425311118364334,-0.011841364204883575,-0.13450740277767181,0.07039901614189148,0.1476673036813736,0.1277584284543991],[-0.21691016852855682,-0.038804635405540466,-0.03616935387253761,0.08801750838756561,-0.02734905481338501,-0.061490681022405624,0.020351815968751907,-0.03009607270359993,-0.39038506150245667,0.0010440385667607188,0.06874824315309525,0.20303067564964294,-0.20651455223560333,0.1342553049325943,-0.060807280242443085,0.012134595774114132,0.11487177759408951,-0.17784267663955688,0.029920736327767372,-0.08258912712335587,-0.11001517623662949,0.017224252223968506,0.2211197167634964,0.05660371482372284,-0.2337978631258011,0.022327791899442673,-0.04082288220524788,-0.010149342939257622,0.21291695535182953,-0.05013145133852959,-0.08103533089160919,-0.008467945270240307,-0.07546631991863251,0.005274336319416761,0.04692433029413223,-0.04448113217949867,-0.0021104782354086637,0.03903177008032799,0.06573168933391571,-0.057713788002729416,-0.13196809589862823,0.08377009630203247,-0.014370158314704895,-0.15992695093154907,-0.031482093036174774,0.027106110006570816,-0.019123800098896027,0.1467842012643814,0.09146428853273392,0.10175883024930954,-0.03611548990011215,-0.036801207810640335,-0.028295079246163368,0.15090052783489227,-0.1691310703754425,0.08342471718788147,0.09987744688987732,-0.03677145019173622,-0.037410933524370193,0.08537337183952332,0.10044627636671066,-0.003556619631126523,0.02289665676653385,-0.05019884929060936,-0.01723076030611992],[0.03418714553117752,-0.16860060393810272,-0.09350565820932388,-0.03263772279024124,0.146528422832489,-0.1223757341504097,0.09055361151695251,-0.02570265531539917,0.35258030891418457,-0.11102999001741409,0.002483089454472065,-0.006457523442804813,-0.12706194818019867,-0.23216083645820618,-0.007853363640606403,-0.027079975232481956,-0.07518051564693451,0.16362926363945007,-0.04362741857767105,0.009667936712503433,0.1367580145597458,-0.013227345421910286,-0.019078444689512253,-0.0002914892684202641,0.06970272213220596,-0.07832346856594086,-0.21204513311386108,-0.10175208002328873,0.05576205253601074,0.04141877591609955,-0.05458295717835426,0.14166989922523499,0.03427350893616676,0.09021450579166412,0.10564232617616653,0.017081154510378838,0.16674798727035522,-0.11710033565759659,0.21449090540409088,-0.1030275821685791,0.1417624056339264,0.0810268223285675,0.011167638003826141,0.10934297740459442,0.054770328104496,0.02739829756319523,-0.05212126299738884,0.12353436648845673,0.1863570362329483,0.03333832696080208,-0.05233142524957657,-0.03737858682870865,0.011806722730398178,-0.04917176812887192,0.12625806033611298,-0.017402678728103638,-0.021738288924098015,0.03452049568295479,0.09852082282304764,0.01663644053041935,-0.0999784991145134,0.05102149397134781,-0.03772035613656044,0.02559836022555828,-0.03183276578783989],[0.19525033235549927,-0.14027434587478638,-0.0308205746114254,-0.0015672376612201333,-0.09950436651706696,0.03109613060951233,-0.041042543947696686,-0.020430175587534904,0.2521023154258728,0.003256176831200719,-0.10686226934194565,-0.10638908296823502,0.1745055466890335,0.09777271747589111,-0.03600391373038292,-0.028357531875371933,-0.17422455549240112,0.2115151286125183,-0.07544133812189102,-0.0679522454738617,0.22275403141975403,0.13941165804862976,-0.01137471478432417,-0.14126861095428467,-0.03760138154029846,-0.0812147855758667,-0.03042558953166008,-0.015125341713428497,-0.05486986041069031,-0.15877489745616913,0.02672172524034977,0.08812606334686279,0.04086792841553688,0.053149398416280746,-0.04637337103486061,-0.025280630216002464,0.20475120842456818,0.0266115702688694,-0.1638108789920807,-0.06189635396003723,0.07168687880039215,0.029898233711719513,-0.031119290739297867,0.06086060777306557,-0.0713970810174942,-0.05360813066363335,-0.035112135112285614,-0.01704307086765766,-0.08058597892522812,0.003587923711165786,0.10251031816005707,-0.0714755579829216,-0.0222819484770298,0.032622698694467545,-0.024111425504088402,0.07129625976085663,-0.05679422989487648,-0.028955962508916855,0.030510200187563896,-0.037311386317014694,0.13443851470947266,-0.008593070320785046,0.004893786273896694,0.0838729739189148,0.054558105766773224],[0.18734519183635712,-0.20436598360538483,-0.03151121363043785,-0.05780941620469093,-0.04028540849685669,-0.04032469913363457,-0.09634152054786682,0.016712581738829613,-0.08677583187818527,0.05375463515520096,0.17851726710796356,-0.22434484958648682,0.13594454526901245,0.1433725655078888,0.06837332248687744,-0.008081397973001003,-0.020384127274155617,-0.11608514189720154,0.04445548355579376,-0.03103908896446228,-0.03672128915786743,0.06923661381006241,-0.05961509793996811,0.07769650965929031,-0.09169618785381317,0.0419272780418396,-0.019647769629955292,-0.09464660286903381,0.16235487163066864,0.12605375051498413,0.01346403919160366,0.1639605462551117,0.06416872888803482,0.06565795838832855,-0.05181039869785309,-0.002529235789552331,0.03394060581922531,0.23756800591945648,0.06846433877944946,0.027834834530949593,-0.013510062359273434,-0.03318745270371437,-0.01744595728814602,0.011191973462700844,0.10360735654830933,-0.034913159906864166,0.03622228279709816,-0.02395530417561531,0.016240792348980904,0.03966561704874039,-0.015237302519381046,-0.07650598138570786,-0.0037390440702438354,-0.021480295807123184,-0.02187049575150013,0.010291939601302147,-0.05461931973695755,-0.2543554902076721,0.03607790544629097,0.03420748561620712,-0.14182421565055847,0.025453884154558182,0.04441983252763748,-0.04140765592455864,-0.10174822062253952],[-0.3749358355998993,0.2554437518119812,0.09231733530759811,-0.22050973773002625,0.18539147078990936,-0.008123477920889854,-0.03750862926244736,-0.10530507564544678,-0.11230365186929703,0.1740710288286209,-0.1293262541294098,0.19468967616558075,-0.14910396933555603,-0.06790157407522202,-0.00877242162823677,-0.0458839014172554,-0.09585656225681305,-0.18688569962978363,-0.030711563304066658,-0.06777692586183548,0.06199795380234718,-0.09728242456912994,0.02870926447212696,0.06838669627904892,-0.1058083102107048,-0.09658141434192657,-0.007298449985682964,-0.11378338187932968,0.1322503238916397,-0.1489703208208084,-0.1595734804868698,0.056719474494457245,-0.02339973673224449,0.12981393933296204,0.23356235027313232,-0.06859438121318817,-0.1269347071647644,-0.07007256150245667,-0.1200021430850029,0.0405089296400547,-0.23993080854415894,-0.056150905787944794,-0.17963844537734985,0.0007632373017258942,-0.07927335053682327,-0.09519021958112717,0.19731202721595764,-0.09017553180456161,0.007203024346381426,0.039356082677841187,-0.06182752177119255,-0.058651071041822433,-0.031966451555490494,0.12295345216989517,-0.09138734638690948,-0.12092449516057968,-0.00017439649673178792,0.0018764500273391604,-0.08342477679252625,-0.08281710743904114,-0.11960379034280777,-0.1241726279258728,-0.04088288173079491,0.08983325958251953,-0.06482480466365814],[-0.1796187460422516,0.2217024266719818,0.14584477245807648,0.08561983704566956,-0.07997723668813705,-0.16058261692523956,0.14999017119407654,-0.11925315856933594,-0.28690680861473083,-0.05753815174102783,-0.10032961517572403,0.23136353492736816,0.00047381248441524804,-0.07667997479438782,0.14144496619701385,-0.09853926301002502,0.09047240763902664,-0.07863403111696243,-0.12808577716350555,0.03852871060371399,0.13626600801944733,0.02344636432826519,0.02609693445265293,-0.08713775873184204,0.11555459350347519,0.056496232748031616,-0.11495257914066315,0.0599716491997242,-0.03108837641775608,0.06826499104499817,0.01697336696088314,0.09859489649534225,-0.027016999199986458,-0.09603316336870193,0.04523725435137749,0.06171168014407158,-0.09007801860570908,-0.15289543569087982,0.007600272540003061,0.02587241865694523,-0.15439754724502563,-0.011546674184501171,-0.0020270405802875757,-0.022420460358262062,-0.08861345797777176,0.03755798935890198,0.0024239402264356613,-0.0006332132616080344,0.00017175343236885965,0.07281437516212463,-0.1451278179883957,0.08392751961946487,-0.08665480464696884,-0.025553863495588303,0.067442387342453,0.05996086820960045,-0.08722725510597229,-0.07934880256652832,-0.09226739406585693,-0.02618858963251114,-0.11818522959947586,-0.10780949890613556,0.17673073709011078,-0.04983682557940483,-0.07922177761793137],[0.05061452090740204,-0.09454164654016495,-0.0385931096971035,-0.09866546094417572,-0.04983820021152496,-0.07303556054830551,0.027002453804016113,-0.003911676350980997,0.3805500566959381,0.00012123445048928261,-0.20986399054527283,0.021114764735102654,0.23487398028373718,0.021719342097640038,-0.038584932684898376,0.017809825018048286,-0.025830917060375214,0.01326352171599865,-0.20157577097415924,0.0004506079130806029,0.08944595605134964,-0.15379847586154938,-0.059066664427518845,0.024724792689085007,0.03829454630613327,0.0067384871654212475,0.08123280107975006,0.06982602924108505,0.07402665913105011,0.058474745601415634,-0.015213963575661182,-0.008467827923595905,-0.011204867623746395,-0.20096798241138458,0.009170813485980034,-0.05646893009543419,-0.03207883611321449,0.10359993577003479,-0.12320966273546219,-0.014543898403644562,0.4058615267276764,-0.05652831494808197,-0.02889036014676094,-0.03950406238436699,-0.0005489520845003426,0.07619930058717728,0.021376170217990875,0.01074125338345766,-0.07883472740650177,-0.1691552698612213,-0.04773126170039177,-0.22566479444503784,0.01255830004811287,-0.03541436791419983,-0.05712278187274933,0.10778076201677322,-0.13088838756084442,0.12199119478464127,-0.03696060553193092,-0.16219307482242584,0.14407368004322052,-0.009916767477989197,-0.11631076037883759,0.04046838730573654,0.02389916032552719],[0.22236303985118866,-0.21285079419612885,0.20903563499450684,0.047584373503923416,0.06195899844169617,-0.03286192938685417,-0.044227853417396545,0.022322529926896095,0.3127475678920746,-0.0645880326628685,-0.06401403248310089,-0.11488023400306702,0.03065994195640087,-0.17898041009902954,0.13187740743160248,-0.14214417338371277,0.03914770856499672,-0.041121624410152435,0.04868021979928017,0.07694381475448608,0.2078561782836914,-0.09890458732843399,-0.03453034535050392,-0.10527577996253967,-0.14884960651397705,-0.04193074256181717,-0.02899375557899475,0.015098967589437962,0.09330249577760696,0.15678192675113678,0.06814427673816681,0.001849939115345478,-0.08421594649553299,-0.14257453382015228,0.06251290440559387,-0.0505174845457077,0.02923211082816124,-0.03134147822856903,0.07256074249744415,0.059850823134183884,0.34064623713493347,-0.14472152292728424,-0.011318126693367958,0.10292292386293411,-0.011793882586061954,0.017811689525842667,0.019260842353105545,-0.025048142299056053,0.04828710854053497,0.06880901008844376,0.014606802724301815,0.06412384659051895,0.04970112815499306,-0.03343990445137024,0.11181812733411789,-0.13752159476280212,-0.06383498013019562,0.019528035074472427,0.07864566892385483,-0.07208900153636932,-0.07464364916086197,0.04730905219912529,0.026058025658130646,0.10367703437805176,-0.00018026336329057813],[-0.09232034534215927,0.03758763149380684,0.009264527820050716,0.08783334493637085,0.0064160930924117565,0.04439607262611389,-0.04367353394627571,-0.04763423278927803,0.0010214050998911262,0.0765313133597374,0.03826431185007095,0.13356323540210724,-0.10412486642599106,-0.002020416781306267,-0.06356796622276306,-0.03461894020438194,0.030989807099103928,-0.015431650914251804,0.029734894633293152,-0.2168421447277069,-0.02187696285545826,0.04208310693502426,-0.030946806073188782,-0.03830859065055847,-0.049070730805397034,0.014970268122851849,0.13139551877975464,-0.05068667232990265,0.17685860395431519,0.09153219312429428,-0.12821625173091888,0.08356374502182007,-0.019560039043426514,-0.01720164343714714,-0.025866026058793068,0.10921002179384232,0.04572758451104164,-0.007436051499098539,0.22385768592357635,0.08710294961929321,0.03490040823817253,-0.0733477845788002,-0.0803837776184082,-0.012991788797080517,-0.17849858105182648,-0.11683576554059982,0.039504390209913254,0.0276264026761055,-0.01869657263159752,-0.02934057079255581,-0.014975205063819885,0.012161255814135075,0.06074642762541771,0.055102914571762085,-0.07644811272621155,-0.010354835540056229,0.022981351241469383,0.09413877129554749,0.1388297826051712,0.03860058635473251,0.09452787786722183,0.030681028962135315,0.07014727592468262,0.09928850084543228,0.06272353231906891],[-0.15471602976322174,0.24786525964736938,0.03770621493458748,0.04828581213951111,-0.16260182857513428,0.012359291315078735,0.12680630385875702,0.012499243021011353,-0.2713617980480194,-0.04240811988711357,0.0393952839076519,0.09419459104537964,-0.13524192571640015,0.02660973370075226,0.006482438184320927,0.1381743997335434,0.09537044912576675,-0.05176450312137604,0.03925955668091774,-0.017188195139169693,-0.16518914699554443,0.047354355454444885,-0.1688547432422638,-0.01984606683254242,0.1061670184135437,-0.005072729662060738,0.11518926173448563,0.22600097954273224,0.08086870610713959,0.09127409011125565,-0.02738778106868267,0.13009320199489594,0.03477748483419418,0.04706423729658127,-0.1686936467885971,-0.1557161509990692,0.15077145397663116,0.01623499020934105,0.02754547819495201,0.17288947105407715,-0.20628716051578522,-0.14224374294281006,-0.15287749469280243,-0.007665211334824562,-0.05206804722547531,-0.024998033419251442,-0.09176239371299744,0.125975102186203,-0.05755378305912018,0.07306084036827087,-0.03692279011011124,0.07234735041856766,0.1494724452495575,-0.03456015884876251,0.034848786890506744,0.22951991856098175,-0.01223735325038433,0.06938260793685913,0.0020125911105424166,0.010126608423888683,0.01136232540011406,-0.017556501552462578,0.055783435702323914,-0.0507461354136467,-0.07634266465902328],[-0.06944140791893005,0.06627311557531357,0.010260418057441711,-0.08247021585702896,0.039663903415203094,0.03544417396187782,0.006576129235327244,0.14236687123775482,-0.2808607816696167,0.09538034349679947,0.11872165650129318,-0.012355301529169083,-0.030987178906798363,0.1279958188533783,-0.12032477557659149,-0.04476841539144516,0.035133667290210724,-0.13147395849227905,-0.004710696171969175,-0.07623054832220078,-0.18984194099903107,0.0776427835226059,0.0635448694229126,0.050020888447761536,-0.06504956632852554,-0.01656465232372284,-0.07827883958816528,0.10154300928115845,-0.01344011165201664,0.01518829632550478,-0.08897757530212402,-0.049066029489040375,0.13388779759407043,-0.04058851674199104,0.017935454845428467,0.16746476292610168,-0.010623074136674404,-0.21262142062187195,-0.019599370658397675,0.14289803802967072,-0.35772842168807983,-0.057289525866508484,-0.07884756475687027,0.023252619430422783,-0.09844347834587097,0.12442759424448013,0.03290104120969772,-0.05960579216480255,-0.2854054272174835,0.11193471401929855,0.13029718399047852,-0.1300426423549652,0.07246747612953186,-0.07639130204916,0.03747767210006714,-0.060227103531360626,-0.07409881800413132,-0.040483176708221436,-0.013726967386901379,-0.16144411265850067,0.0800519660115242,-0.03604298084974289,0.02156345173716545,-0.05966648459434509,-0.05326174572110176],[-0.22908775508403778,0.2606995701789856,0.05401391535997391,-0.0513097420334816,0.03227083757519722,-0.021927975118160248,-0.040401119738817215,0.0737239271402359,-0.23707227408885956,-0.04280674830079079,0.04708462953567505,-0.02328420802950859,-0.09200022369623184,0.04820322245359421,-0.15906432271003723,0.06468519568443298,0.08156093209981918,-0.11954431980848312,0.033717889338731766,-0.0122036999091506,0.013887720182538033,0.04823027178645134,0.11458885669708252,0.08036009967327118,0.013231447897851467,-0.07302551716566086,-0.09028399735689163,-0.17070595920085907,-0.055862102657556534,0.15225398540496826,0.0691138431429863,-0.06366506963968277,-0.005922954995185137,0.14757366478443146,-0.00360454642213881,0.0695437639951706,-0.08730006217956543,-0.042480215430259705,-0.1574542373418808,0.05280246585607529,-0.28899556398391724,-0.031133484095335007,-0.08201459050178528,-0.04094385728240013,0.0525578074157238,0.017585787922143936,0.013472264632582664,0.02326718531548977,-0.05383923649787903,-0.17350876331329346,0.03478429466485977,0.0054444014094769955,-0.021193556487560272,-0.010117609985172749,0.08723911643028259,-0.0756455734372139,0.05968564376235008,0.11261382699012756,-0.08646213263273239,0.054217975586652756,-0.03196551650762558,-0.06342429667711258,-0.06213143467903137,-0.041242100298404694,-0.014953740872442722],[0.21754716336727142,-0.4132983386516571,0.0904540866613388,0.10568604618310928,-0.1729809045791626,-0.0873265489935875,-0.02197657898068428,0.06643740832805634,0.3962453007698059,0.07710637897253036,0.007483767345547676,-0.1144232526421547,0.1597989797592163,-0.027129780501127243,-0.020532693713903427,0.043511953204870224,-0.05031723156571388,0.19101651012897491,0.06559900939464569,-0.07468590140342712,-0.06462256610393524,0.01645416021347046,0.006936441175639629,-0.05717309191823006,-0.006638822145760059,0.13333815336227417,0.018003016710281372,-0.046052128076553345,0.09069165587425232,-0.04554741457104683,0.18718475103378296,0.008584748022258282,-0.02471279725432396,0.055342897772789,0.03608035668730736,0.1638239324092865,-0.0230005644261837,-0.14893269538879395,0.07268033176660538,-0.046841587871313095,-0.10050608962774277,0.021822694689035416,-0.07095347344875336,-0.08930417895317078,0.025038499385118484,0.028035921975970268,-0.09233830124139786,-0.0819815918803215,-0.09855958819389343,-0.008215664885938168,0.053074732422828674,-0.04807610437273979,-0.02194151282310486,0.10275191068649292,-0.07094866782426834,0.08595911413431168,-0.06413106620311737,0.026338161900639534,0.09010118246078491,0.05460945516824722,0.06524581462144852,0.041058383882045746,0.010259578935801983,-0.0911882296204567,0.09375762939453125],[-0.18931007385253906,0.18229858577251434,0.003409133292734623,0.12365347146987915,-0.11146768182516098,0.15129061043262482,-0.03055095113813877,-0.03064533695578575,-0.31344038248062134,-0.04778717830777168,0.17737682163715363,-0.0011126579483971,0.12415686994791031,0.04820166528224945,0.04321523755788803,-0.06109260022640228,-0.048160046339035034,-0.035692017525434494,-0.20090077817440033,0.059913694858551025,-0.05821339040994644,-0.013693234883248806,-0.104245625436306,-0.057548146694898605,0.038133472204208374,0.04544917494058609,-0.05689440295100212,-0.13420623540878296,-0.06645846366882324,0.12650713324546814,0.046848297119140625,0.17301008105278015,0.0808066725730896,-0.025318169966340065,0.11525417119264603,-0.01352271530777216,0.09082163870334625,0.045958902686834335,-0.03280195966362953,0.14297504723072052,-0.17635078728199005,-0.14858950674533844,-0.16517560184001923,0.08898524940013885,-0.019339174032211304,-0.19160085916519165,0.1277529001235962,-0.005042070057243109,-0.007204498164355755,0.0742521807551384,0.02864949218928814,0.10585356503725052,0.028790267184376717,-0.025066381320357323,-0.004335738252848387,0.027846019715070724,0.25802451372146606,0.1444547325372696,0.03189091011881828,-0.019336823374032974,0.07685103267431259,0.061719853430986404,-0.030488796532154083,0.13268738985061646,-0.010539080947637558],[-0.051417361944913864,0.10275749117136002,-0.02066185139119625,0.05086224898695946,0.05752238258719444,0.10560315102338791,-0.00992104783654213,0.060363613069057465,0.009596027433872223,-0.022429494187235832,0.016525909304618835,0.1269359290599823,-0.050267573446035385,-0.005108047276735306,0.0009492072858847678,0.07068680226802826,0.016906213015317917,-0.07311178743839264,-0.034792620688676834,-0.1885046809911728,-0.06094495207071304,-0.11697655916213989,-0.007730680983513594,-0.023288710042834282,0.1819118857383728,-0.18484655022621155,-0.03385830670595169,0.13743805885314941,-0.006602889392524958,0.27341794967651367,-0.0326693020761013,0.021868780255317688,-0.032960619777441025,0.2410283386707306,0.04581732675433159,0.1011914610862732,0.011631406843662262,0.14425070583820343,-0.004990953952074051,0.16577093303203583,-0.009128831326961517,-0.04179322347044945,0.10674838721752167,0.010321029461920261,-0.036815281957387924,-0.10408739000558853,-0.02287803776562214,0.01755409501492977,-0.043304335325956345,-0.06240237504243851,-0.06529683619737625,-0.068165622651577,-0.10211692750453949,-0.0026232763193547726,-0.1013886108994484,-0.007601884193718433,0.010314039885997772,-0.018570560961961746,0.07922656834125519,0.030638569965958595,-0.06568126380443573,-0.07610737532377243,-0.021802740171551704,-0.10180865973234177,0.023977020755410194],[0.00047152876504696906,-0.2464115470647812,-0.06849958747625351,0.043275557458400726,-0.016432790085673332,0.06967490911483765,0.048067618161439896,0.027581771835684776,0.23938214778900146,0.03730408102273941,0.0665891095995903,-0.10446054488420486,0.06841731071472168,-0.1709686815738678,-0.14443062245845795,0.07758686691522598,-0.10278017818927765,0.23142792284488678,0.06326684355735779,-0.07204382866621017,0.16515134274959564,-0.13135649263858795,-0.04465651512145996,-0.16831040382385254,0.05127536877989769,-0.09547655284404755,0.11241763830184937,0.09749437123537064,-0.010291087441146374,0.14623965322971344,0.01263545174151659,-0.0050900219939649105,0.045355748385190964,-0.2275034487247467,0.16878466308116913,-0.03164008632302284,0.08907120674848557,-0.1085074171423912,-0.0376134067773819,0.04351374879479408,0.046790365129709244,0.009331229142844677,0.016900667920708656,0.13129128515720367,0.10548224300146103,-0.008611171506345272,0.03578940033912659,0.1099955141544342,0.0329253152012825,-0.04991007596254349,-0.03781592845916748,-0.1284303069114685,0.16836859285831451,0.23554007709026337,0.1900719702243805,0.03988862782716751,0.04824524372816086,0.0256496649235487,-0.09060627222061157,0.03162937983870506,-0.036461442708969116,-0.04751389101147652,-0.09986861050128937,0.02525998465716839,0.013314434327185154],[-0.04868712276220322,0.15192948281764984,-0.008671501651406288,0.11650659143924713,0.03600454330444336,0.09380936622619629,-0.050906259566545486,-0.010035593993961811,-0.35359257459640503,-0.02388010360300541,-0.006984338164329529,0.08510918915271759,0.006592689547687769,0.05833737552165985,0.01798219233751297,0.029550300911068916,0.03468133881688118,-0.13425320386886597,-0.06339668482542038,0.05052647367119789,-0.10107319056987762,-0.14104712009429932,0.11481837928295135,-0.024933258071541786,-0.08836185187101364,-0.0358482263982296,-0.0182822123169899,-0.07047576457262039,0.05542340129613876,-0.1292872279882431,-0.15176737308502197,0.010727331973612309,0.06629379093647003,0.010379069484770298,-0.14145033061504364,0.012793446891009808,-0.11796896159648895,0.3108532130718231,0.09053009003400803,0.04165799543261528,0.008538392372429371,-0.10379679501056671,-0.02013535611331463,-0.03226003795862198,-0.02501026913523674,-0.047942422330379486,-0.07308744639158249,0.11398838460445404,0.028367701917886734,0.09622353315353394,0.025858132168650627,0.02599027007818222,0.08343467861413956,-0.16106244921684265,0.04835004732012749,-0.018980255350470543,0.09494273364543915,-0.09456686675548553,-0.08677735179662704,0.04840005561709404,-0.018245341256260872,0.04096830263733864,0.04891879856586456,0.025414111092686653,-0.07863588631153107],[0.12897495925426483,0.3632451891899109,-0.11007362604141235,0.11219248920679092,-0.005092883948236704,-0.027654726058244705,-0.04607810080051422,0.015404514968395233,-0.3785291612148285,-0.09537087380886078,0.026527389883995056,-0.10539089143276215,0.1339293271303177,0.07722295075654984,-0.03752106800675392,-0.007609532680362463,-0.04520140215754509,-0.26718032360076904,-0.07857680320739746,0.008686739951372147,-0.1777452826499939,0.0941900983452797,0.06270261108875275,0.21986764669418335,0.25449585914611816,-0.08604263514280319,-0.022698258981108665,-0.011156733147799969,0.10980777442455292,0.14407147467136383,-0.05742491036653519,-0.02688022144138813,0.09699275344610214,0.11512914299964905,0.3198178708553314,0.015457787550985813,0.25688421726226807,0.05848149582743645,-0.0707712396979332,0.19893895089626312,-0.1654605120420456,-0.0012233463348820806,0.15888874232769012,-0.04611526429653168,0.029508454725146294,0.0952560231089592,-0.030147261917591095,-0.06823257356882095,-0.11640337854623795,0.03200021758675575,-0.061712026596069336,0.21006670594215393,0.0386938601732254,-0.030914193019270897,-0.24958018958568573,0.018790794536471367,0.1401987075805664,0.10773514211177826,0.0038786910008639097,-0.05202215164899826,0.06979876756668091,0.01750197820365429,0.02038823626935482,-0.015789298340678215,0.03726516664028168],[0.09311700612306595,0.053204771131277084,0.021087326109409332,0.13934414088726044,-0.01743301935493946,-0.09301798045635223,0.05922535061836243,-0.025482166558504105,-0.14930441975593567,-0.0039244359359145164,0.15124236047267914,-0.06205666437745094,0.05824873223900795,0.10404383391141891,-0.05284789204597473,-0.08709529787302017,0.11172786355018616,-0.12820596992969513,-0.11159391701221466,-0.15245212614536285,-0.28012615442276,0.1216898187994957,0.004254675004631281,0.104423888027668,0.030440684407949448,0.19783776998519897,0.04315786808729172,0.03623947873711586,0.051191702485084534,0.12334635108709335,0.06996944546699524,-0.05076953396201134,0.022623246535658836,0.2650589942932129,0.19054891169071198,0.14748021960258484,0.1381167769432068,0.11024229973554611,-0.08928465098142624,0.06146620213985443,0.057088445872068405,0.022665776312351227,-0.14554807543754578,0.002886868314817548,-0.03360481560230255,0.028003526851534843,-0.022575538605451584,0.0646473616361618,0.054590750485658646,-0.009610233828425407,0.04337312653660774,0.01898977719247341,0.13623079657554626,-0.00692308135330677,-0.08728603273630142,0.033911220729351044,-0.02219160459935665,-0.11312206834554672,-0.0426306277513504,-0.014466090127825737,-0.06916383653879166,0.029427802190184593,0.045268770307302475,0.03293995559215546,0.05626952275633812],[0.088588647544384,-0.06839990615844727,-0.012549127452075481,0.0944553092122078,-0.021498996764421463,0.046544212847948074,0.02491297386586666,-0.11210082471370697,0.14365357160568237,0.1065005287528038,-0.13548630475997925,-0.20568892359733582,0.10109327733516693,-0.016946351155638695,-0.06518016010522842,-0.132892444729805,0.14432980120182037,0.09319638460874557,0.05731474608182907,0.012327486649155617,0.1389428973197937,0.1214904934167862,-0.06395013630390167,0.022934911772608757,-0.10136716812849045,0.002192175481468439,-0.02257710136473179,0.05965767800807953,0.02698623389005661,-0.11815428733825684,0.07100978493690491,-0.007253394927829504,-0.010587531141936779,-0.09770014137029648,0.03706219792366028,0.1692727953195572,0.023775771260261536,0.10489669442176819,0.07024284452199936,0.004622595850378275,0.04626605287194252,0.02778986655175686,-0.12810909748077393,-0.02791212871670723,0.09519896656274796,-0.019470667466521263,-0.05884522944688797,-0.104952372610569,-0.19274887442588806,-0.034118540585041046,-0.08625879883766174,0.04271352291107178,0.03333811089396477,0.02288377657532692,0.042299557477235794,-0.08176373690366745,-0.10902588814496994,-0.11251295357942581,0.08854489773511887,0.10846427083015442,-0.11149145662784576,0.11830318719148636,-0.139871284365654,-0.09165538847446442,0.16871599853038788],[-0.4219752550125122,-0.20602503418922424,-0.0998428612947464,-0.01828540675342083,0.028563611209392548,-0.12756797671318054,0.1211351677775383,-0.013586058281362057,0.016590500250458717,-0.13712041079998016,0.01299245748668909,0.187072291970253,-0.1766340285539627,0.011652559041976929,0.08925051242113113,-0.09324996918439865,0.03397651016712189,-0.07201704382896423,-0.1417795717716217,0.05094284936785698,0.07482237368822098,-0.05596949905157089,0.12013481557369232,0.003984170500189066,-0.2634158730506897,-0.06626419723033905,-0.07628145068883896,-0.002159327967092395,-0.10397876799106598,-0.024369526654481888,-0.173269122838974,0.06744574010372162,-0.1447540521621704,0.043045323342084885,-0.12561959028244019,0.08605954051017761,-0.008056390099227428,-0.112968809902668,-0.21508486568927765,-0.1454313099384308,-0.07735928893089294,-0.05283723771572113,-0.13543292880058289,-0.03089757449924946,0.10335256904363632,-0.07076117396354675,-0.11828962713479996,-0.127602219581604,-0.01897806115448475,-0.03747464716434479,0.11570131033658981,-0.06517906486988068,0.0330902524292469,0.12528298795223236,0.015229369513690472,-0.043545909225940704,0.036616094410419464,-0.05264974385499954,0.00893961638212204,0.01214458979666233,-0.04173790290951729,-0.08769833296537399,-0.022739741951227188,-0.09643135219812393,-0.1548832505941391],[-0.28520187735557556,0.012990633025765419,-0.05203081667423248,-0.08179953694343567,-0.0198433306068182,-0.009195840917527676,-0.0769093781709671,-0.040055304765701294,-0.208647683262825,0.06409735977649689,-0.02980472892522812,0.16454295814037323,-0.3238213062286377,-0.07903987914323807,0.015161103568971157,-0.02022780478000641,-0.03539319336414337,0.12088950723409653,0.01158365048468113,0.13213743269443512,0.029105640947818756,0.19781382381916046,-0.10097510367631912,0.0815197229385376,-0.14700272679328918,0.15157358348369598,0.13935218751430511,0.2609841525554657,-0.079865001142025,0.13510020077228546,-0.027948077768087387,-0.11097587645053864,-0.008277690969407558,0.12850327789783478,-0.1536705642938614,0.020039591938257217,0.003269442357122898,-0.07530853152275085,-0.17747023701667786,-0.061162300407886505,-0.2857714593410492,-0.1406538039445877,0.06733011454343796,0.0007668776670470834,0.0069470638409256935,0.01980717107653618,-0.058927953243255615,-0.054062239825725555,-0.11640051752328873,-0.1282036304473877,0.03767980635166168,0.08891977369785309,0.00024475279496982694,0.0014235361013561487,0.1312256008386612,-0.0027396613731980324,0.01808934099972248,0.09276794642210007,0.08906460553407669,0.062121059745550156,0.06678134948015213,-0.0791928842663765,0.01535317674279213,-0.030776746571063995,-0.039889607578516006],[-0.19642627239227295,0.1425873190164566,-0.0207444429397583,-0.08889041841030121,0.03386957198381424,0.05465865507721901,-0.13797175884246826,0.036763932555913925,-0.20903387665748596,-0.06933730840682983,-0.2515694200992584,0.12136638164520264,-0.06724165380001068,-0.010693657211959362,-0.040810178965330124,-0.05014843866229057,-0.015784382820129395,-0.0933639332652092,-0.004651822615414858,0.15176498889923096,-0.1149498000741005,0.1017003133893013,0.011731849052011967,0.1450956165790558,0.014609051868319511,0.1310255527496338,0.0432298444211483,-0.0028349317144602537,-0.06652442365884781,0.14491567015647888,-0.19020861387252808,0.10099206119775772,0.04355699568986893,0.0969376415014267,0.04132775962352753,0.07354569435119629,0.05716497823596001,0.051278989762067795,-0.04176905378699303,0.023757854476571083,-0.23562951385974884,0.027907265350222588,0.013193448074162006,0.10592543333768845,0.0341426357626915,-0.02909945882856846,0.12480463832616806,0.09440457075834274,0.154697984457016,0.052130308002233505,0.02800302952528,-0.06395421922206879,0.04512826353311539,-0.054987214505672455,0.0244968943297863,0.08802591264247894,0.017429141327738762,0.06340236961841583,-0.02677173912525177,0.008649958297610283,0.15243352949619293,-0.017886033281683922,0.17115667462348938,-0.14037811756134033,0.1481528878211975],[-0.2544473111629486,0.2347719520330429,0.0008486860315315425,-0.17964071035385132,-0.047077011317014694,0.05043748766183853,0.08654962480068207,-0.058797333389520645,-0.28203922510147095,-0.01156738679856062,-0.020695073530077934,0.21231773495674133,-0.22900442779064178,-0.030608249828219414,0.009386967867612839,0.03151474520564079,0.033531371504068375,-0.11600665748119354,-0.09950760751962662,-0.008518366143107414,-0.0012194645823910832,-0.02327800914645195,-0.09523569792509079,-0.031899429857730865,0.109178826212883,0.0062530990689992905,0.005920838564634323,0.07703085243701935,-0.114860400557518,-0.10234880447387695,-0.023217441514134407,0.05018439516425133,0.08602143079042435,0.04319130256772041,-0.018597494810819626,-0.07930592447519302,-0.1637585610151291,-0.0024998076260089874,-0.058509185910224915,0.00427051167935133,-0.306547075510025,0.041843611747026443,0.0038892284501343966,0.08547885715961456,0.007279848214238882,-0.10511953383684158,-0.16580715775489807,0.011967010796070099,-0.03218420222401619,-0.07982675731182098,0.007491449825465679,0.02646883763372898,0.10484369099140167,-0.1514655351638794,-0.06651420146226883,0.01769413612782955,0.006871690507978201,-0.15338878333568573,0.08911307901144028,0.014873642474412918,0.05208132788538933,-0.10961338132619858,-0.10733170807361603,0.08786966651678085,-0.07950153946876526],[-0.023807862773537636,0.1594342589378357,-0.007970071397721767,-0.13198232650756836,-0.009667412377893925,0.04701996594667435,-0.11791375279426575,-0.07655683904886246,-0.2317168265581131,0.1365046203136444,0.17245012521743774,0.257508784532547,-0.06273697316646576,0.13581997156143188,-0.07945950329303741,-0.00295814941637218,0.14314329624176025,-0.1490868180990219,-0.1849765032529831,0.07852404564619064,-0.07815756648778915,0.00226112874224782,0.014079554937779903,-0.022504139691591263,-0.07633321732282639,-0.1185995563864708,0.021694384515285492,-0.010652558878064156,-0.11198772490024567,0.1405460238456726,-0.11803291738033295,-0.1388961523771286,-0.006550862453877926,-0.017382502555847168,-0.23690259456634521,0.07529496401548386,-0.022885924205183983,0.17017768323421478,0.07622934132814407,7.832510891603306e-05,-0.18115723133087158,0.030013833194971085,0.027678251266479492,0.09168273210525513,-0.052744828164577484,0.02793087065219879,0.0013333152746781707,-0.09170063585042953,-0.0029598583932965994,0.08809936046600342,-0.01092612836509943,-0.16563600301742554,0.022686392068862915,-0.20738215744495392,0.050901222974061966,0.18133693933486938,0.06949079036712646,0.09181374311447144,-0.030293550342321396,-0.09151693433523178,-0.1250942200422287,-0.08783088624477386,-0.07045600563287735,-0.1378156542778015,-0.018618183210492134],[-0.24898600578308105,0.15384790301322937,0.1483209878206253,0.04329627379775047,0.007047831546515226,-0.04743260517716408,-0.06507591158151627,-0.02739589475095272,-0.1190011128783226,-0.053855475038290024,0.006622941233217716,0.14522947371006012,-0.060179684311151505,-0.05425193905830383,-0.1825256049633026,-0.008886095136404037,0.05765753239393234,0.04694153368473053,-0.05508757010102272,-0.05577567592263222,0.09369771927595139,0.06327848136425018,0.06416546553373337,0.13962991535663605,-0.08236778527498245,0.09556082636117935,0.06665797531604767,-0.1245199516415596,0.15534193813800812,0.12101414799690247,-0.011528322473168373,0.031096940860152245,0.05616217479109764,0.11262563616037369,-0.11206614226102829,0.06586886197328568,-0.0680108442902565,-0.06711945682764053,-0.00618625758215785,0.06410031765699387,-0.06423080712556839,-0.12127089500427246,0.1066834107041359,-0.0036027466412633657,-0.11864888668060303,-0.17693373560905457,0.11209917068481445,-0.022105064243078232,0.11932163685560226,0.06796522438526154,0.035227544605731964,-0.01957862637937069,-0.056424643844366074,-0.022573888301849365,-0.049222588539123535,-0.07992009818553925,-0.07933180779218674,0.09138508141040802,-0.07532381266355515,0.017357273027300835,-0.032076213508844376,0.0011786805698648095,-0.026224663481116295,-0.0764780342578888,0.043041862547397614],[-0.3626205027103424,0.05638907104730606,0.16983114182949066,0.016192391514778137,0.14012540876865387,-0.019161930307745934,0.08064059168100357,0.1459980458021164,-0.13869789242744446,-0.18347658216953278,0.018856631591916084,0.20773600041866302,0.04463111236691475,-0.07591012120246887,-0.022765835747122765,0.049004118889570236,0.04592137038707733,0.017817018553614616,-0.2638251781463623,-0.03621707484126091,0.23013454675674438,-0.11432934552431107,-0.05277572199702263,-0.025521716102957726,0.08124008774757385,-0.06383328884840012,-0.013499324209988117,-0.0021231400314718485,-0.24389155209064484,-0.3055416941642761,-0.11620814353227615,-0.12968318164348602,-0.05472157895565033,-0.09129177778959274,-0.02157854102551937,0.06814226508140564,0.006334826350212097,-0.08406049013137817,-0.17269784212112427,0.11209853738546371,0.2465970665216446,0.10606537759304047,-0.03255494311451912,-0.03666960820555687,-0.04943230748176575,-0.04008461907505989,-0.09382393211126328,-0.07625783979892731,-0.010132485069334507,-0.03925097733736038,-0.04151575267314911,0.048807691782712936,-0.09257633239030838,0.033447928726673126,-0.05612535774707794,-0.019119910895824432,0.0015217449981719255,0.07706711441278458,-0.17246313393115997,0.09587805718183517,0.07277872413396835,0.08296477794647217,0.00908737350255251,-0.15147553384304047,-0.05707555636763573],[-0.12455398589372635,0.21211400628089905,-0.08528836816549301,0.03312935307621956,-0.07578997313976288,0.0337572805583477,-0.007878770120441914,-0.13089051842689514,-0.3079783618450165,-0.07258427888154984,0.21823899447917938,0.12912172079086304,-0.10769636183977127,0.006413093768060207,-0.013205204159021378,0.09275253117084503,0.06353771686553955,-0.13420769572257996,-0.12769334018230438,0.08328059315681458,-0.04627513512969017,0.18519146740436554,-0.15107102692127228,0.01324099488556385,-0.04953384771943092,0.029488325119018555,0.14484569430351257,-0.2116440236568451,0.22980251908302307,0.06830118596553802,-0.14372685551643372,0.10225491225719452,0.14448797702789307,0.05253688991069794,0.07628355920314789,0.0350678376853466,0.17954328656196594,-0.07464072108268738,0.061649616807699203,-0.09340661019086838,-0.06502383202314377,-0.07972706109285355,-0.05232612416148186,-0.15632455050945282,-0.05086568370461464,0.009125495329499245,-0.03410256281495094,0.08282163739204407,0.02432136796414852,0.18248821794986725,-0.1448199450969696,-0.017651233822107315,-0.11797904223203659,-0.12936931848526,0.11267132312059402,0.0570882149040699,-0.0019318172708153725,0.032573774456977844,0.004900285508483648,-0.004255744628608227,0.0029563673306256533,-0.13049791753292084,0.04537846893072128,-0.06757238507270813,-0.0927296131849289],[-0.03477117419242859,0.27745214104652405,-0.04692743718624115,0.15823674201965332,0.044896915555000305,-0.06546637415885925,-0.059352900832891464,-0.06419192254543304,-0.27582409977912903,-0.11146556586027145,0.16060057282447815,0.1524689644575119,-0.05094025656580925,-0.010086066089570522,0.13678085803985596,0.044904548674821854,-0.01583765633404255,0.1111132949590683,0.00014387010014615953,-0.10763365775346756,-0.2695659399032593,0.03149278089404106,0.07970474660396576,-0.07127440720796585,-0.09998971968889236,0.18476399779319763,0.06104743480682373,0.0009219361818395555,-0.014927861280739307,0.014722935855388641,-0.048486173152923584,-0.058165907859802246,0.00731322355568409,0.10989762097597122,0.015999438241124153,0.013648880645632744,0.1107282042503357,-0.08904283493757248,-0.20311282575130463,-0.07682445645332336,-0.1242542639374733,0.062200117856264114,-0.028313014656305313,0.21441030502319336,-0.047953687608242035,0.02746446058154106,0.008228331804275513,-0.12391731142997742,-0.14092253148555756,0.1849006861448288,0.021596381440758705,-0.05501776933670044,0.02599724382162094,-0.0040259649977087975,-0.014461960643529892,0.02176445908844471,0.2187689244747162,-0.10407303273677826,0.11177884042263031,-0.04478662088513374,-0.021374262869358063,-0.05626961588859558,-0.046913765370845795,-0.013949457556009293,0.024739887565374374],[-0.2164122760295868,0.16483210027217865,0.04753487557172775,-0.04395052045583725,0.01643228717148304,-0.20716319978237152,-0.019678151234984398,0.05992019176483154,-0.2170770764350891,-0.21200765669345856,0.14172543585300446,0.19273163378238678,-0.1290811449289322,-0.04622551053762436,0.031736478209495544,0.031193019822239876,-0.03912653401494026,0.06219343841075897,0.04557075724005699,0.023444831371307373,0.06987626850605011,0.052908334881067276,0.08731735497713089,-0.17297889292240143,0.011998568661510944,0.03364216536283493,-0.21341213583946228,-0.0612148754298687,-0.09397131949663162,0.05774007365107536,0.14352408051490784,-0.05438467115163803,0.004034995101392269,0.0413750484585762,-0.17413270473480225,0.017081307247281075,-0.0009724493720568717,-0.04456520453095436,0.008088689297437668,0.0104082515463233,-0.1661694496870041,-0.0869477167725563,0.12549355626106262,-0.09820833802223206,-0.006665158551186323,-0.008181839250028133,-0.04140566661953926,-0.02281351387500763,-0.12765143811702728,0.01889035478234291,0.011006937362253666,-0.06594271212816238,0.09420762211084366,-0.0562865175306797,-0.11146499961614609,-0.009045170620083809,0.10288212448358536,0.053833894431591034,-0.09833364188671112,-0.09581106156110764,-0.07460374385118484,-0.18904684484004974,0.09466613829135895,-0.007863438688218594,-0.13555055856704712],[-0.2238905429840088,0.3096124827861786,0.13196396827697754,0.006204531993716955,-0.0867927297949791,-0.007006576284766197,0.16130752861499786,-0.00854284968227148,-0.10969696938991547,0.017608249559998512,0.0010296511463820934,0.12740224599838257,-0.20061074197292328,0.028908904641866684,0.05848848819732666,-0.014202646911144257,0.08530904352664948,-0.0869382992386818,0.01856665499508381,-0.06795310974121094,-0.0724729597568512,0.10408376902341843,-0.0029847780242562294,-0.01865498162806034,-0.07032739371061325,-0.16875512897968292,0.05505034327507019,-0.10639165341854095,0.11067675054073334,0.12931451201438904,0.048994239419698715,-0.12494911998510361,0.06924944370985031,0.029212182387709618,0.1050291582942009,0.012681161053478718,0.12954799830913544,-0.013182022608816624,0.02799159847199917,0.05687881261110306,-0.06638971716165543,-0.05652815103530884,0.145705446600914,0.09757109731435776,0.010619220323860645,-0.12919674813747406,-0.04981330782175064,-0.0155472531914711,-0.032247334718704224,-0.12315548956394196,0.06851116567850113,-0.1764918863773346,0.17609354853630066,-0.051224708557128906,-0.1844957172870636,0.017012828961014748,-0.012591280974447727,0.09722992777824402,0.1372017115354538,0.11443658173084259,0.04241159185767174,0.2413952350616455,0.11904364824295044,-0.014156520366668701,-0.17172236740589142],[0.01882443018257618,0.1010330393910408,0.008486570790410042,0.15278692543506622,-0.22766607999801636,-0.01578388176858425,-0.031810566782951355,0.08773532509803772,-0.033088911324739456,0.09475203603506088,-0.11896344274282455,0.1915132999420166,-0.29635465145111084,0.04550977423787117,0.17730484902858734,0.0307061355561018,-0.0342925600707531,-0.07412446290254593,-0.07454025000333786,0.02588845230638981,-0.03723268583416939,-0.15051116049289703,0.023582760244607925,-0.05619822070002556,0.040699977427721024,-0.02880970761179924,0.11654334515333176,-0.08518549799919128,0.14987842738628387,0.06217162683606148,-0.04817444086074829,-0.015143045224249363,-0.041308097541332245,0.02447122149169445,0.0786391943693161,-0.07178203761577606,0.07291871309280396,-0.18450437486171722,-0.0820019394159317,0.021788746118545532,-0.041105419397354126,0.16145159304141998,0.08931183815002441,0.03055012784898281,-0.01800346188247204,-0.20878812670707703,0.04957405477762222,0.013842769898474216,-0.11442060023546219,0.010307829827070236,0.15267828106880188,0.010759098455309868,0.029397552832961082,-0.1305154412984848,-0.15305808186531067,-0.016586055979132652,-0.026655586436390877,0.22796876728534698,-0.06556188315153122,-0.04715735837817192,-0.10606798529624939,-0.0966556966304779,-0.02068718709051609,-0.2738516628742218,-0.14965051412582397],[0.2747056484222412,-0.010900073684751987,0.0335540845990181,0.053667102009058,0.056219302117824554,-0.016628412529826164,-0.03831584379076958,0.08283045887947083,0.3981090188026428,-0.21769000589847565,-0.17972992360591888,0.0767902284860611,-0.022422024980187416,-0.16262488067150116,0.002857371000573039,0.11268586665391922,0.015975747257471085,0.046203870326280594,-0.07299048453569412,-0.038135141134262085,0.279588907957077,0.02783041074872017,0.13104583323001862,-0.01721126399934292,-0.0029412005096673965,-0.03500930964946747,0.10013856738805771,0.04070861265063286,0.0629909485578537,-0.14145994186401367,0.023143690079450607,0.04680175334215164,-0.12670670449733734,-0.0704386755824089,-0.09865020960569382,-0.02326573058962822,-0.0085157984867692,0.0632692500948906,0.1379731446504593,-0.1599033921957016,0.15931794047355652,0.004876308608800173,0.07603588700294495,0.0363415889441967,-0.01778077334165573,0.050783801823854446,-0.08839905261993408,-0.0589849017560482,-0.050630271434783936,-0.03136848658323288,0.07257982343435287,-0.01300487108528614,-0.11834349483251572,0.16421784460544586,-0.1255713850259781,-0.12917649745941162,0.05563229322433472,0.12180463969707489,-0.020942462608218193,0.03962203860282898,-0.2306865006685257,0.09273537993431091,-0.09004633873701096,0.11139310896396637,-0.0229121632874012],[-0.017994193360209465,-0.3353039026260376,-0.10881625860929489,-0.17121189832687378,0.13174685835838318,0.11947564780712128,-0.005761828739196062,0.02372658997774124,0.24840284883975983,0.08119568228721619,-0.015082735568284988,-0.08962209522724152,-0.09509865194559097,0.07577738910913467,0.06931382417678833,-0.06801323592662811,0.0027862712740898132,0.07681582123041153,-0.08556506782770157,0.06521480530500412,0.05014321580529213,-0.15125229954719543,0.014218934811651707,-0.13144779205322266,-0.01647077687084675,-0.1606370210647583,-0.0046503278426826,-0.10231255739927292,0.015843482688069344,-0.14982882142066956,0.13092458248138428,0.022514285519719124,-0.16246835887432098,-0.22203895449638367,-0.12049821019172668,0.0017387047410011292,0.047931917011737823,-0.19267773628234863,-0.0011620258446782827,-0.009200661443173885,-0.12314077466726303,-0.12303966283798218,0.019128086045384407,-0.019858764484524727,-0.09943871945142746,0.026877127587795258,-0.04319727048277855,-0.11524135619401932,0.21182020008563995,-0.03644368052482605,-0.04797300696372986,0.06495857983827591,-0.035294193774461746,0.01321404054760933,-0.04427248239517212,-0.0636054053902626,-0.11415660381317139,-0.14335063099861145,0.033602189272642136,-0.004349756985902786,0.031336914747953415,-0.040211718529462814,-0.02009916678071022,-0.11616222560405731,0.049620483070611954],[0.21043245494365692,0.08530891686677933,-0.08470745384693146,0.11478827893733978,-0.12041407823562622,-0.050461385399103165,0.004524907097220421,0.08562809973955154,0.14507341384887695,-0.09485094249248505,-0.07930637896060944,-0.19435670971870422,0.23536919057369232,-0.09781847894191742,-0.0198232252150774,-0.01643304154276848,-0.1455058604478836,-0.06903999298810959,-0.0776083916425705,0.1808784008026123,0.07889010012149811,-0.02317158505320549,0.01553540863096714,0.11333747953176498,0.06466987729072571,0.08302276581525803,0.08859669417142868,0.01303414162248373,-0.10430239886045456,0.02339479699730873,0.044235095381736755,-0.15555532276630402,-0.0130606759339571,0.0267177727073431,0.08549607545137405,0.002559749875217676,0.0760178193449974,0.043158214539289474,0.11175542324781418,-0.01598086953163147,0.2730463743209839,0.015198922716081142,-0.06444212794303894,-0.10997384041547775,0.08158208429813385,-0.0019117436604574323,-0.04352633282542229,-0.06200028210878372,0.022600572556257248,-0.03338967636227608,0.011208323761820793,-0.007156827487051487,-0.1003933697938919,0.14370805025100708,0.12765991687774658,-0.10499052703380585,0.002902284264564514,0.02551291324198246,-0.0010598567314445972,0.09121191501617432,0.029345281422138214,0.21365156769752502,0.02648039720952511,0.10877937078475952,0.07620362937450409],[0.28064894676208496,-0.022024007514119148,0.01899799145758152,0.17678284645080566,0.06457437574863434,-0.03504444658756256,0.11544166505336761,-0.011139385402202606,0.1806260198354721,0.00853759702295065,-0.06301045417785645,-0.0706901028752327,0.27493345737457275,-0.10346990823745728,-0.00606792327016592,-0.051899950951337814,0.0763632208108902,0.0821131020784378,-0.05849231779575348,-0.14567984640598297,0.0029129404574632645,0.12236001342535019,0.07587794959545135,-0.138663649559021,0.015003109350800514,0.07808919996023178,0.14555037021636963,-0.04516385495662689,0.07037679105997086,-0.25724393129348755,0.017036665230989456,-0.011171059682965279,0.022258328273892403,-0.04022309556603432,0.030492248013615608,-0.06577730178833008,-0.01610836572945118,0.23251986503601074,0.19937120378017426,0.16457946598529816,0.15425798296928406,0.08919935673475266,-0.10164305567741394,0.12897852063179016,-0.062266021966934204,0.08653473109006882,0.11891399323940277,-0.003731238655745983,0.11487482488155365,-0.14272600412368774,-0.024525584653019905,-0.01686847396194935,-0.029867036268115044,0.1481313556432724,0.1331290900707245,0.0005819108919240534,0.04932311549782753,0.040724776685237885,-0.011781344190239906,0.014864994212985039,0.03401350602507591,0.056368205696344376,-0.0725683942437172,-0.06255092471837997,-0.01812889240682125],[0.3129168748855591,-0.0028639528900384903,0.10163671523332596,0.07168672978878021,-0.01796955056488514,0.03001776523888111,-0.08932037651538849,0.013689213432371616,0.05452300235629082,0.06191112846136093,0.06449609249830246,-0.13524319231510162,0.15760114789009094,-0.006714719347655773,-0.10637915879487991,0.008439057506620884,-0.15441890060901642,-0.10767626762390137,-0.20839285850524902,-0.04531344771385193,-0.026506824418902397,-0.05881170183420181,0.12511110305786133,-0.09768076986074448,0.052458588033914566,-0.002631789306178689,-0.07547260075807571,-0.021102629601955414,0.20553749799728394,-0.013374054804444313,0.040457747876644135,-0.04273949936032295,0.07108990848064423,0.0337834358215332,-0.04938436672091484,0.020279299467802048,0.11080867797136307,0.2685702443122864,-0.08953921496868134,-0.058655995875597,0.06351657956838608,0.01847129873931408,-0.05676309019327164,-0.029701199382543564,0.07356154918670654,0.06867286562919617,0.05583445727825165,0.08154600113630295,-0.0985230803489685,0.050291337072849274,-0.10037234425544739,0.13884678483009338,0.08497125655412674,-0.03480949625372887,-0.09199478477239609,0.20641210675239563,-0.05236264690756798,0.0361771322786808,0.11900722235441208,0.02142060548067093,0.0025363662280142307,0.19245418906211853,0.036763936281204224,-0.0024997652508318424,0.06229637190699577],[0.2128339558839798,-0.2091115117073059,0.0473799854516983,-0.061508286744356155,0.0427093505859375,0.15042361617088318,0.02999630570411682,-0.021149901673197746,0.13750354945659637,-0.07076063007116318,-0.00996369868516922,-0.0795309841632843,0.09610973298549652,-0.11721981316804886,0.02494749426841736,0.009861370548605919,0.05928684398531914,0.15335755050182343,0.21139511466026306,-0.06764506548643112,0.09154496341943741,-0.12345422059297562,-0.06896259635686874,0.1631007343530655,0.02080037072300911,0.1599864661693573,0.21059371531009674,-0.07475098967552185,0.12449140101671219,-0.12298621982336044,0.035009074956178665,0.1399669349193573,0.0718146562576294,0.022081425413489342,-0.03864900395274162,-0.012997284531593323,0.10510619729757309,0.11899080872535706,-0.06403502076864243,0.0035513625480234623,0.16748028993606567,0.05033167079091072,-0.1011066809296608,0.08847316354513168,0.004832477308809757,0.08596319705247879,-0.10186976194381714,-0.055119358003139496,0.027456136420369148,0.002413329901173711,-0.11243076622486115,0.04940637946128845,0.06799346953630447,0.15286937355995178,-0.03392676264047623,0.007792144548147917,-0.08840890228748322,0.17174126207828522,-0.15023384988307953,0.07191886007785797,0.06485206633806229,-0.040749549865722656,0.06724221259355545,0.11831184476613998,0.10377369821071625],[-0.38573047518730164,0.07029342651367188,0.03772406652569771,-0.06802826374769211,0.06845017522573471,-0.0014240979216992855,-0.012279903516173363,-0.13410188257694244,-0.3818025588989258,-0.01653027907013893,0.032119009643793106,0.0877692922949791,-0.09037699550390244,-0.021947020664811134,-0.0878925621509552,0.03185991942882538,-0.04699767380952835,0.08732607215642929,0.01856083795428276,0.14499059319496155,0.10292565822601318,-0.051400862634181976,0.14364789426326752,0.16613461077213287,0.04623941704630852,-0.06283150613307953,-0.004594876430928707,-0.10058863461017609,-0.10456686466932297,-0.17925792932510376,-0.004805373959243298,0.06630918383598328,-0.24762333929538727,-0.06477067619562149,0.051656655967235565,-0.11368342489004135,-0.06380455195903778,-0.08575718104839325,-0.0703364685177803,-0.021380309015512466,-0.15801610052585602,-0.16212520003318787,0.054695554077625275,0.059533145278692245,-0.10215464979410172,0.03413871303200722,-0.12113777548074722,-0.036423034965991974,-0.052547041326761246,0.13752193748950958,0.09786800295114517,-0.0649268627166748,0.026319781318306923,0.048382483422756195,0.15382495522499084,-0.14348141849040985,0.03863907977938652,0.011361205019056797,-0.041635870933532715,-0.020429354161024094,-0.026086129248142242,-0.0015773564809933305,0.05333526432514191,-0.09730668365955353,-0.08468755334615707],[0.1422663778066635,-0.10383830964565277,0.1560974419116974,-0.0025377816054970026,0.15551376342773438,-0.00962398387491703,0.14181624352931976,-0.04341595992445946,0.31290701031684875,-0.055216118693351746,-0.06405428051948547,-0.29352042078971863,0.12777851521968842,0.0025307433679699898,0.04124004766345024,-0.003936878405511379,-0.08270223438739777,0.26171547174453735,0.0746196061372757,-0.0123604666441679,-0.03627922758460045,0.07236107438802719,-0.00981813296675682,0.007979290559887886,0.010285383090376854,0.025148609653115273,-0.05687350034713745,-0.06025660037994385,0.05468663200736046,0.22741083800792694,0.07409784942865372,-0.23752127587795258,-0.034734420478343964,-0.04687633365392685,-0.07023194432258606,-0.054785680025815964,-0.0061351400800049305,0.20012979209423065,0.09135410934686661,0.04970911517739296,0.25215575098991394,0.1066717877984047,0.017528945580124855,-0.0784916803240776,-0.11664656549692154,-0.08579357713460922,-0.12269042432308197,-0.07256145030260086,-0.1068490743637085,0.06580148637294769,0.000777023087721318,-0.12209361791610718,0.014221214689314365,0.026600347831845284,-0.04242203012108803,0.04526330903172493,0.029849056154489517,-0.05542347952723503,-0.0012263035168871284,-0.10398371517658234,0.11574255675077438,0.04864136502146721,0.021993421018123627,-0.04044666141271591,-0.07082588225603104],[0.07276618480682373,0.291240394115448,0.06492346525192261,0.11282186955213547,0.049562714993953705,-0.07015156745910645,0.18122658133506775,0.023620475083589554,-0.281121164560318,-0.061654821038246155,-0.03212137520313263,0.1361515074968338,0.009134148247539997,-0.015763353556394577,0.0636216551065445,0.060674943029880524,-0.05756231024861336,-0.11670087277889252,-0.09607425332069397,-0.16592450439929962,-0.0459783598780632,-0.17591698467731476,-0.07345147430896759,0.028760837391018867,-0.0019505091477185488,0.13069327175617218,-0.02011677250266075,-0.23716817796230316,0.06469641625881195,-0.05965837836265564,-0.13206014037132263,-0.032335493713617325,-0.07595887780189514,-0.03912308067083359,0.011131945997476578,-0.03417055308818817,0.028641261160373688,-0.14383018016815186,0.040407247841358185,-0.02233763039112091,0.0828811377286911,-0.05698768049478531,-0.029576903209090233,-0.04073311761021614,-0.06868616491556168,0.006798892747610807,0.03427072614431381,0.024462174624204636,0.07788706570863724,0.11671758443117142,-0.03330168500542641,-0.10876980423927307,-0.02219115011394024,-0.04590968042612076,-0.00608539255335927,0.17443545162677765,0.04217054322361946,0.018638765439391136,-0.002915688557550311,0.06682130694389343,0.07040710002183914,-0.12532910704612732,-0.15324848890304565,0.02237771451473236,0.04663597047328949],[0.15889841318130493,-0.14070554077625275,-0.05957421287894249,-0.010080475360155106,0.05921849608421326,-0.016756165772676468,0.1552809625864029,0.12331424653530121,0.2985149323940277,0.017648575827479362,-0.016888445243239403,-0.2807222902774811,0.14846143126487732,0.055772025138139725,-0.06110385060310364,0.024260515347123146,-0.0016259156400337815,0.034968867897987366,0.2853811979293823,-0.05419142544269562,-0.05353914946317673,0.11778320372104645,-0.04013390466570854,-0.05708468332886696,0.07688866555690765,0.08203722536563873,-0.0792430117726326,-0.08685767650604248,0.03782498091459274,-0.1672968566417694,-0.00010060804925160483,-0.024276111274957657,-0.014819581061601639,-0.006476679816842079,0.05204162746667862,-0.2037702202796936,0.21497422456741333,0.031551867723464966,-0.06920115649700165,-0.10001584887504578,0.2890637516975403,0.06418076902627945,-0.012352806515991688,0.10142724961042404,-0.05926747992634773,0.09602966159582138,-0.017245976254343987,0.09370102733373642,-0.13711310923099518,0.10411212593317032,-0.06878361105918884,-0.04964649677276611,-0.13959242403507233,-0.05916980654001236,0.01402059942483902,-0.15020038187503815,0.05586110055446625,0.04195091873407364,0.058162592351436615,-0.13474054634571075,0.001930547645315528,0.008383684791624546,0.04653972014784813,-0.02807425893843174,0.03091919608414173],[0.33371657133102417,0.018293390050530434,-0.034794602543115616,-0.05972081795334816,-0.06439711153507233,-0.1313823163509369,-0.0470096692442894,-0.07327646017074585,0.145624577999115,0.13860493898391724,-0.09781341254711151,-0.2475259006023407,0.24959242343902588,0.17198306322097778,0.051966648548841476,-0.023924782872200012,0.0833960473537445,0.2181674838066101,0.02289838343858719,0.0641433447599411,-0.09040477126836777,0.10198748856782913,0.22538770735263824,0.10467956960201263,0.10940717160701752,0.03836503624916077,-0.002255211817100644,-0.0038705267943441868,0.1282433569431305,-0.16142211854457855,0.15439538657665253,-0.07692742347717285,0.1345078945159912,-0.07334695756435394,-0.1310960203409195,-0.14803418517112732,0.07891388237476349,-0.03715856000781059,-0.0021594956051558256,-0.04941645264625549,0.13196992874145508,-0.022960849106311798,0.09092345833778381,-0.04454844444990158,-0.1070541962981224,-0.016921788454055786,0.10057913511991501,0.04940401017665863,0.07327597588300705,0.03055283986032009,0.06754861772060394,0.023958923295140266,0.046650759875774384,0.13848735392093658,0.04274628683924675,0.07056786119937897,-0.10557741671800613,0.06224662438035011,0.06906311213970184,0.12625931203365326,-0.16845549643039703,0.043910980224609375,0.1305590271949768,0.18502479791641235,0.023509861901402473],[-0.1076127290725708,0.47916075587272644,-0.0858883187174797,0.09206760674715042,-0.0930066853761673,0.04295777902007103,0.06003623083233833,-0.0599948987364769,0.07157746702432632,-0.12593135237693787,-0.12575876712799072,0.13011035323143005,0.2328902930021286,-0.18066667020320892,0.17140793800354004,-0.04180946573615074,-0.14371852576732635,-0.12129959464073181,0.04290011152625084,0.0048105656169354916,0.17003358900547028,-0.0736624151468277,0.00881628505885601,0.08455947041511536,0.14092861115932465,-0.027932027354836464,-0.009535474702715874,0.12570823729038239,0.13018879294395447,-0.022085409611463547,-0.03184139356017113,-0.10718782991170883,-0.019805926829576492,-0.031824756413698196,0.06635554879903793,0.08331992477178574,0.1836220920085907,0.23465199768543243,-0.04674578458070755,0.012318214401602745,0.26618045568466187,0.1338202953338623,0.005197676829993725,0.03368448466062546,-0.01651277206838131,-0.08677472174167633,-0.0003832262591458857,-0.0595398023724556,0.16136762499809265,-0.08973512798547745,0.055754438042640686,-0.011206386610865593,-0.059729818254709244,-0.05199136584997177,-0.10173342376947403,0.03313491493463516,0.0013988374266773462,0.3533644378185272,-0.1239791214466095,-0.003302991623058915,0.0664844661951065,-0.0760423094034195,-0.008970942348241806,-0.06425909698009491,-0.09023183584213257],[0.00234314170666039,0.13985152542591095,-0.14998601377010345,0.03240073099732399,-0.04233060032129288,0.08884318917989731,0.03600143641233444,-0.09406043589115143,-0.46991321444511414,-0.00022057542810216546,0.018115855753421783,0.07554394006729126,0.1402405947446823,0.00023617915576323867,0.09350001811981201,-0.13029715418815613,-0.0496237687766552,-0.09570054709911346,-0.06513757258653641,0.1127619743347168,-0.07043091207742691,-0.20051032304763794,0.08562508225440979,0.09479400515556335,-0.1308412104845047,-0.16430465877056122,0.047443266957998276,-0.035962607711553574,0.08070840686559677,0.03902498260140419,0.07787225395441055,-0.09015431255102158,-0.005963747855275869,0.14600114524364471,0.030937911942601204,0.1908504068851471,-0.02730398252606392,-0.10269860178232193,0.09926960617303848,-0.02423485927283764,-0.1471654623746872,-0.09554342180490494,0.03752228617668152,-0.04890364035964012,-0.17039267718791962,0.010984204709529877,0.10610578209161758,0.04381757229566574,-0.11904440075159073,0.02621738240122795,-0.13869799673557281,0.08270571380853653,0.03737575560808182,-0.07457901537418365,-0.07544983923435211,0.09560252726078033,-0.013346017338335514,0.07400276511907578,-0.09807054698467255,-0.03119618631899357,0.12874646484851837,-0.04166377708315849,-0.047439094632864,-0.0801810622215271,0.050146207213401794],[-0.03318575397133827,0.5032792091369629,0.04235425963997841,0.11443329602479935,-0.07540822774171829,-0.19821298122406006,0.08590148389339447,0.20160752534866333,0.1114271953701973,-0.15694092214107513,0.025533130392432213,0.13946524262428284,0.2309306412935257,-0.13094115257263184,0.15729162096977234,0.01184824202209711,-0.03467876464128494,-0.12504898011684418,-0.0652298703789711,0.028202693909406662,-0.24427251517772675,-0.15210016071796417,0.013130786828696728,0.002888403832912445,-0.013917997479438782,-0.07352441549301147,0.07347343116998672,0.09778029471635818,0.027264542877674103,0.12982527911663055,0.006499153561890125,0.09842900931835175,-0.00648504076525569,-0.1021856889128685,0.09321171045303345,-0.020978856831789017,0.11900155991315842,0.2714308798313141,0.08735092729330063,0.24901480972766876,0.13879911601543427,-0.03649464249610901,-0.09313220530748367,-0.0004243908042553812,-0.08454451709985733,-0.06054776906967163,-0.04811808466911316,0.00964444037526846,-0.017037048935890198,0.09846804291009903,0.07979883998632431,-0.04836440831422806,-0.10902014374732971,0.004699666053056717,-0.06528086215257645,-0.1155555248260498,-0.039042189717292786,0.054616138339042664,-0.2046309858560562,-0.09968262910842896,-0.005004534963518381,-0.0589030385017395,-0.04706680029630661,0.001561033888719976,0.04742954298853874],[-0.12174050509929657,0.16479811072349548,-0.023592744022607803,-0.12242426723241806,-0.08347558975219727,0.025395160540938377,0.0009259291691705585,0.03200360760092735,-0.34363865852355957,-0.10975582897663116,-0.005445483140647411,0.07544440031051636,-0.14764796197414398,0.026109078899025917,-0.03394338861107826,-0.02451304718852043,-0.028299398720264435,0.004713896661996841,-0.11043887585401535,0.10845311731100082,-0.04113383591175079,0.13096632063388824,-0.029826000332832336,-0.055350497364997864,-0.05546197295188904,0.021611586213111877,0.05532282963395119,0.18600285053253174,0.060539767146110535,0.09279709309339523,0.05255899205803871,-0.06078903749585152,0.1497405469417572,-0.09585028886795044,-0.024369826540350914,0.16666269302368164,0.009261034429073334,0.03284758701920509,-0.002866772236302495,0.0462588295340538,-0.12526604533195496,0.013569523580372334,0.09841930866241455,0.0990852490067482,-0.10600527375936508,-0.015275179408490658,0.1332848072052002,0.0273012425750494,0.08914215862751007,-0.1526186168193817,-0.09983427077531815,0.04975828528404236,0.0881437212228775,0.10556037724018097,0.006662249565124512,0.08547776192426682,0.020581914111971855,0.06276967376470566,-0.03726894408464432,0.00756673701107502,0.03451695665717125,0.088351771235466,-0.012192775495350361,-0.08833920210599899,0.053146593272686005],[0.06579876691102982,-0.19368523359298706,-0.048980168998241425,0.0634075179696083,-0.09787414222955704,-0.04218649864196777,-0.04328664764761925,0.08202490210533142,0.15585413575172424,0.032164569944143295,-0.07268881052732468,-0.28292518854141235,0.1582215130329132,0.14484578371047974,0.009051957167685032,-0.17394444346427917,-0.07895484566688538,0.181821808218956,-0.027002980932593346,0.06598921865224838,0.1537933051586151,0.15004433691501617,-0.027689050883054733,0.0742313340306282,-0.2477528601884842,-0.052848733961582184,0.014573657885193825,0.06611456722021103,-0.006275508552789688,-0.24335810542106628,0.11904853582382202,-0.026022665202617645,-0.1522492915391922,-0.08132331818342209,0.02946939878165722,-0.080034039914608,-0.12499020248651505,0.04967315495014191,0.13120821118354797,-0.10289795696735382,0.3068390488624573,0.05031877011060715,-0.01517154835164547,-0.1408148556947708,0.02419508807361126,0.08840801566839218,-0.0423765666782856,0.01965840719640255,-0.03388211131095886,-0.07788734138011932,0.0049178143963217735,-0.010716700926423073,-0.05123657360672951,-0.007769573014229536,0.10434424132108688,0.04425376281142235,0.028354031965136528,0.11798810213804245,-0.024867704138159752,-0.13746005296707153,-0.02045176364481449,0.12395500391721725,0.17704810202121735,-0.10510975867509842,-0.0017162006115540862],[-0.18360137939453125,0.3136233985424042,0.016139788553118706,-0.12854766845703125,-0.014411610551178455,0.06525324285030365,0.10788879543542862,0.0525113120675087,-0.17063374817371368,0.05406581610441208,-0.05479693040251732,0.21788620948791504,-0.01983315870165825,0.1718984991312027,0.07123783230781555,-0.03189797326922417,0.16118063032627106,0.08253481239080429,-8.874469494912773e-05,-0.06811607629060745,-0.0590558722615242,-0.21113210916519165,0.024784710258245468,0.06532849371433258,0.0554669164121151,0.04864378646016121,-0.11523450165987015,0.08639858663082123,0.004625972360372543,0.11460132151842117,-0.10807641595602036,0.025716625154018402,-0.04594836011528969,0.2586130201816559,-0.11550413072109222,0.012135504744946957,0.11508762836456299,-0.0822175070643425,-0.11757837235927582,-0.0036881431005895138,-0.1805068403482437,-0.056436099112033844,-0.0018744389526546001,-0.15319472551345825,-0.05838622525334358,-0.0222309622913599,0.09286388754844666,0.0005851308815181255,0.0894433781504631,-0.023429302498698235,-0.03621462732553482,-0.051089439541101456,-0.0716087594628334,-0.10071082413196564,0.09786300361156464,-0.024587413296103477,0.05240032449364662,-0.042099036276340485,-0.013524153269827366,-0.04918324202299118,-0.09106360375881195,0.04855705425143242,0.12120992690324783,0.11826245486736298,0.10220259428024292],[0.17459146678447723,-0.046374931931495667,0.02464231103658676,-0.08338009566068649,0.059470176696777344,-0.05789025500416756,-0.01878497190773487,0.06203319504857063,0.05263460427522659,-0.07112859189510345,-0.05937859043478966,-0.09967700392007828,0.1853269636631012,0.02512664534151554,-0.07556609064340591,0.10580721497535706,-0.04896368458867073,0.09698223322629929,0.12927469611167908,-0.11696135252714157,0.13785167038440704,-0.10856509953737259,-0.002596996957436204,-0.036755241453647614,-0.08422007411718369,0.18493804335594177,-0.07873790711164474,0.059355493634939194,0.1303604692220688,-0.01689646765589714,0.12577691674232483,-0.09713196009397507,0.046148210763931274,0.060557372868061066,0.06877022236585617,-0.0689937025308609,-0.03003806248307228,0.03407616913318634,-0.17740802466869354,-0.008396638557314873,0.10423634946346283,-0.018239710479974747,0.028620241209864616,0.11480739712715149,-0.12187401950359344,-0.11978520452976227,0.11412493139505386,-0.09523574262857437,0.08784846216440201,0.04479377716779709,-0.010449688881635666,0.20466549694538116,-0.07760844379663467,-0.10542312264442444,0.012417765334248543,0.03918430581688881,0.14550769329071045,0.0609392486512661,-0.03256553038954735,-0.12290317565202713,-0.08871618658304214,0.2354087084531784,-0.07341665774583817,0.024317922070622444,0.11078252643346786],[-0.17517907917499542,0.24110344052314758,-0.0620664544403553,0.05232413858175278,0.06164540722966194,0.014174341224133968,0.002527202246710658,-0.03870585560798645,0.011807086877524853,-0.1646401435136795,0.04016311094164848,0.07333942502737045,0.024224482476711273,-0.024922305718064308,0.19334116578102112,-0.014117557555437088,-0.043285440653562546,-0.14667439460754395,0.009773231111466885,0.1329011619091034,0.05536266416311264,-0.032098155468702316,0.10764852911233902,-0.03968620300292969,0.16881559789180756,0.06279903650283813,0.18053027987480164,0.04254572466015816,0.07042429596185684,-0.09485635906457901,-0.16404549777507782,-0.07698389887809753,0.012236375361680984,-0.1749211549758911,0.0018951866077259183,0.08316369354724884,0.07347602397203445,0.06018872559070587,-0.013397427275776863,0.10631109029054642,-0.09132888913154602,0.04909591004252434,0.09579341858625412,-0.11422916501760483,-0.05378853157162666,0.024851415306329727,0.10600876808166504,-0.1719343364238739,-0.06479458510875702,-0.23244301974773407,-0.09950681030750275,0.043892305344343185,0.00813174806535244,-0.08504007756710052,-0.044914234429597855,-0.060022465884685516,0.06800047308206558,0.002059133956208825,0.045334234833717346,0.10322314500808716,-0.06737768650054932,-0.22006383538246155,-0.06323246657848358,0.016285261139273643,-0.22833143174648285],[0.1618652194738388,-0.37148770689964294,-0.02660299837589264,-0.16608315706253052,0.09343376755714417,0.08089003711938858,-0.1376449018716812,0.14266656339168549,0.2791610062122345,0.03007437102496624,0.0020850927103310823,-0.13673700392246246,0.023902619257569313,0.07862601429224014,0.004620470106601715,-0.15296371281147003,-0.08800351619720459,0.03450476750731468,0.09930399060249329,-0.05877207592129707,0.05946436524391174,-0.16031445562839508,-0.03130105510354042,0.0060807750560343266,-0.14754176139831543,0.016203150153160095,-0.0023177610710263252,-0.11526574194431305,-0.12593887746334076,-0.05025426298379898,0.193162739276886,0.007690722122788429,0.12694288790225983,0.024936536327004433,-0.12188366055488586,-0.06486857682466507,-0.16491369903087616,-0.06993396580219269,0.06723067909479141,-0.07812085747718811,0.15297646820545197,0.0961470678448677,-0.13776813447475433,0.15106427669525146,0.0905388817191124,-0.03915909677743912,0.08323907107114792,-0.0865626186132431,-0.045491546392440796,0.04548196867108345,-0.08617442846298218,-0.08618026226758957,0.170586496591568,-0.03083849512040615,-0.0913286954164505,0.10129015147686005,-0.08347348123788834,0.16976945102214813,0.13014882802963257,-0.0230767372995615,0.03655850514769554,0.006094428710639477,0.0013342166785150766,0.019414255395531654,-0.13343380391597748],[-0.08221592009067535,0.20504775643348694,-0.09484570473432541,-0.1488618701696396,-0.08223849534988403,-0.17125719785690308,-0.06681843847036362,0.2091485559940338,-0.3722666800022125,-0.04047089442610741,0.0012288602301850915,0.15762779116630554,-0.14238977432250977,0.08375266194343567,-0.093682661652565,-0.11233789473772049,-0.0168966855853796,-0.05023326724767685,0.061333175748586655,-0.015325181186199188,-0.09472379088401794,-0.022920683026313782,-0.025032583624124527,0.0032934346236288548,-0.26319023966789246,0.013450589962303638,0.013398107141256332,-0.057593297213315964,0.08796605467796326,0.16208022832870483,0.02527989074587822,0.13171087205410004,-0.08210156857967377,0.04439914971590042,-0.12786446511745453,-0.018266940489411354,0.04487486556172371,-0.07480170577764511,0.01528344675898552,0.13422662019729614,-0.1705675572156906,0.04690605401992798,-0.0527896024286747,0.025236861780285835,-0.12381669133901596,-0.09752436727285385,-0.12775877118110657,-0.012552646920084953,-0.06745939701795578,0.03727744147181511,-0.016851253807544708,0.19318538904190063,-0.009300371631979942,0.037087101489305496,0.08965879678726196,-0.07515161484479904,0.004702800419181585,-0.04428437724709511,-0.0038804945070296526,-0.024806953966617584,0.12835684418678284,-0.17481189966201782,-0.014576178044080734,0.041834887117147446,-0.06717102229595184],[0.0784381702542305,-0.16721050441265106,-0.0715734213590622,-0.08209057152271271,-0.09730889648199081,0.03989588841795921,0.12972034513950348,-0.02835952304303646,-0.06401685625314713,0.16044388711452484,0.026051076129078865,-0.21583934128284454,0.19111672043800354,0.047934386879205704,0.05555801838636398,-0.08784278482198715,0.008930042386054993,0.0948733314871788,-0.1445099115371704,0.03998968005180359,-0.14984115958213806,