{"type":"sb3_ppo_actor_tanh","policy_layers":[{"weight":[[0.15546242892742157,0.10891014337539673,0.08930700272321701,-0.33352118730545044,-0.02286965399980545,-0.16302500665187836,-0.06632543355226517,0.09498228132724762,0.08250711858272552,0.0730171799659729,0.4079936146736145,0.24067755043506622,-0.33764299750328064,0.16295643150806427,0.16237224638462067,0.1286526471376419,-0.02037579007446766,-0.008648187853395939,-0.2958148121833801,0.005998005159199238,-0.05389854684472084,-0.21292531490325928,-0.03296774625778198,0.10082509368658066,0.15693411231040955,-0.015231920406222343,-0.19174432754516602,-0.09281161427497864,-0.05671042576432228,-0.18455398082733154,-0.35663485527038574,0.0955173596739769,-0.34283262491226196,-0.07024917751550674,0.004096642602235079,-0.33716726303100586,-0.255134642124176,0.06549685448408127,-0.12927381694316864,0.15403681993484497,-0.5915718674659729,-0.06621351838111877,0.18645645678043365,-0.09394828230142593,0.026533223688602448,-0.0641462653875351,0.07345560193061829,-0.27738073468208313,0.005284815561026335,0.12410447001457214,-0.26771053671836853,-0.1092669889330864,-0.12879756093025208,-0.16429179906845093,0.33916836977005005,-0.028054066002368927,-0.030236084014177322,-0.03610396757721901,-0.284183144569397,-0.2186814695596695,-0.19563554227352142,0.2684032618999481,-0.14653116464614868,-0.03278045728802681,0.08436352014541626],[-0.440004825592041,0.21087655425071716,-0.03680811822414398,-0.14958302676677704,0.16118671000003815,0.0960528776049614,0.035035982728004456,-0.16878055036067963,-0.14877155423164368,-0.3009392023086548,0.18299666047096252,0.5070387125015259,-0.3058219850063324,0.05003578960895538,-0.24452024698257446,0.06834987550973892,-0.07066531479358673,-0.19357216358184814,-0.2944718599319458,-0.17135189473628998,0.11980850994586945,0.229618638753891,0.03244718909263611,-0.05612180382013321,0.2814226448535919,0.336480975151062,-0.1885327398777008,0.16135214269161224,-0.04816773906350136,0.035218704491853714,-0.21251842379570007,-0.4476432204246521,-0.001023456105031073,0.10154005885124207,-0.22608177363872528,-0.08171690255403519,0.22440467774868011,-0.039611030369997025,-0.3890860080718994,-0.08041892945766449,-0.46711042523384094,0.1585756242275238,-0.2587921917438507,-0.0063247703947126865,0.06085564196109772,0.09902887046337128,-0.16137883067131042,-0.059634968638420105,-0.20102201402187347,0.09099286049604416,-0.16532117128372192,-0.1099955290555954,0.09311425685882568,0.06594054400920868,-0.18674896657466888,-0.09752591699361801,-0.1287158876657486,0.22042487561702728,-0.09998442977666855,-0.17522458732128143,-0.0956214964389801,-0.3220256567001343,-0.05703658238053322,-0.2640154957771301,-0.25636202096939087],[0.13915462791919708,0.4508061707019806,0.2058197408914566,0.29046106338500977,0.19852745532989502,0.06583883613348007,0.29156485199928284,-0.20658956468105316,-0.44748827815055847,-0.28636956214904785,-0.12196774780750275,-0.19253963232040405,0.4425494372844696,0.2247093915939331,0.014273818582296371,0.02848617173731327,0.08538173139095306,-0.11080464720726013,0.04369499534368515,-0.23136267066001892,-0.4099617004394531,0.018556635826826096,0.2717474102973938,-0.015390933491289616,-0.05968841165304184,-0.12180381268262863,-0.11202051490545273,-0.23239940404891968,-0.044104382395744324,-0.0627928152680397,-0.04890801012516022,0.3451635241508484,0.2091558277606964,0.4088565409183502,-0.04840056970715523,0.46946272253990173,0.2959372103214264,0.43474090099334717,0.11884326487779617,0.25651946663856506,-0.30776962637901306,-0.2628696858882904,0.05372535437345505,-0.17001870274543762,-0.18150244653224945,-0.13712167739868164,-0.09148773550987244,-0.032987967133522034,-0.20623716711997986,-0.17385783791542053,-0.49923571944236755,-0.1354435682296753,-0.06884665787220001,0.10773915797472,-0.2514284551143646,-0.0546468086540699,0.2961482107639313,-0.09524234384298325,-0.13582494854927063,-0.026119239628314972,-0.15653719007968903,-0.29718559980392456,-0.08847672492265701,0.1369670331478119,-0.006077075842767954],[-0.28666719794273376,0.40985220670700073,-0.05535552278161049,0.47767695784568787,0.10385283082723618,-0.03546672314405441,-0.22753728926181793,0.021966245025396347,-0.564651370048523,-0.1966242790222168,-0.07184062898159027,0.3282665014266968,0.04862494021654129,0.019084623083472252,0.21694202721118927,0.1560310423374176,0.03979432210326195,-0.09558039158582687,-0.126837357878685,-0.20727552473545074,-0.24371370673179626,-0.11007992923259735,0.09445082396268845,-0.12544310092926025,0.15814818441867828,0.29933077096939087,0.29620498418807983,0.09788552671670914,0.530824601650238,-0.2924734354019165,0.0996815413236618,-0.07392167299985886,-0.15002751350402832,0.052049364894628525,0.01220354251563549,0.2001969963312149,0.21474070847034454,-0.33082282543182373,0.020776376128196716,0.03802073746919632,-0.3068627715110779,-0.03232048079371452,0.0007310234359465539,-0.048378635197877884,-0.017133552581071854,0.04739801213145256,0.26963526010513306,-0.018129462376236916,0.038292545825242996,-0.050504181534051895,0.08741974830627441,-0.14366379380226135,-0.07213499397039413,0.08911888301372528,-0.06429977715015411,0.1346018761396408,0.3359609544277191,-0.10816527158021927,-0.20504337549209595,0.1779256910085678,-0.11015596985816956,0.07220534235239029,0.23084582388401031,-0.004092558287084103,0.2045801728963852],[-0.4051975607872009,0.17593879997730255,-0.43076080083847046,-0.052694614976644516,-0.04934147000312805,0.018933143466711044,-0.004586644936352968,0.3384893238544464,-0.297257661819458,0.15961413085460663,0.19763335585594177,0.4344326853752136,-0.673097550868988,-0.0915701612830162,-0.05872008949518204,0.07482948899269104,0.08135754615068436,-0.06564132869243622,0.22659409046173096,-0.17563137412071228,-0.18965879082679749,-0.305745393037796,-0.2796516418457031,-0.08095166087150574,-0.06780264526605606,0.12216439843177795,-0.13132242858409882,0.01890869438648224,-0.004698743112385273,-0.03340059518814087,0.06474588066339493,-0.19359800219535828,0.2011023759841919,0.07644500583410263,0.2595086693763733,0.08305378258228302,0.06501078605651855,0.3556702733039856,-0.24300949275493622,0.02815692126750946,-0.27187639474868774,-0.05856705084443092,0.1788647472858429,0.21073848009109497,0.0030037215910851955,-0.012591344304382801,-0.0396060086786747,0.2240428775548935,0.045771293342113495,-0.11533299833536148,0.04511302337050438,0.0909518301486969,-0.15593330562114716,-0.23467595875263214,-0.18207675218582153,-0.05543723702430725,-0.11413541436195374,-0.004712515044957399,-0.09701988101005554,0.09402225911617279,-0.1853514164686203,-0.23911930620670319,-0.25948047637939453,0.1128062754869461,0.20581482350826263],[-0.3027912974357605,0.1377326250076294,-0.022586917504668236,0.256385862827301,0.14430469274520874,0.04745054244995117,-0.10220983624458313,-0.23528452217578888,-0.6086912751197815,0.051133476197719574,0.24614985287189484,0.1609673649072647,-0.20051860809326172,0.10782283544540405,0.19392457604408264,-0.2159842997789383,-0.31148475408554077,-0.08409779518842697,0.0061181215569376945,0.03375597298145294,-0.2547016739845276,-0.07325636595487595,-0.19659113883972168,-0.1536620557308197,0.18410594761371613,0.0863833799958229,-0.1353389024734497,-0.23674927651882172,-0.38926470279693604,0.4095843434333801,-0.027249816805124283,-0.03292232006788254,0.09285484999418259,-0.04225848242640495,-0.07657871395349503,0.10907032340765,-0.026431383565068245,-0.08809559792280197,0.08241615444421768,0.2927010655403137,-0.5706431865692139,0.19478166103363037,-0.03341381251811981,0.19681188464164734,-0.05965328589081764,-0.05115664005279541,0.0490587092936039,0.13606730103492737,0.02944180741906166,0.310316801071167,-0.0880674198269844,-0.16787943243980408,0.06116436421871185,0.1722220927476883,0.14983044564723969,0.24404889345169067,-0.20503702759742737,0.17257492244243622,0.049236420542001724,0.2400699406862259,0.054016899317502975,0.11780760437250137,0.05761493742465973,0.1359724998474121,0.004964909981936216],[-0.14203783869743347,-0.14189855754375458,-0.10623514652252197,-0.04694686457514763,-0.4032883644104004,-0.2565183639526367,0.3049461543560028,-0.10862146317958832,-0.373298704624176,-0.05639740452170372,0.5572715401649475,0.3114317059516907,0.1554877609014511,0.16423287987709045,-0.07835723459720612,0.10119259357452393,0.14267422258853912,-0.01798456721007824,-0.0771012157201767,0.01618300750851631,-0.2659355103969574,0.1121252179145813,0.10595492273569107,-0.1343100368976593,0.2527112066745758,0.0865514948964119,0.014689638279378414,-0.0024284932296723127,-0.007921332493424416,0.10427487641572952,-0.025275180116295815,-0.13846126198768616,-0.07153768837451935,0.2900252640247345,0.1368521749973297,0.5358880758285522,-0.30897653102874756,-0.20133467018604279,0.16323454678058624,0.009268036112189293,0.2205445021390915,-0.06113292649388313,-0.0038432504516094923,0.007420489564538002,-0.0357142873108387,0.01214498933404684,-0.04812297970056534,-0.06676363199949265,0.061632853001356125,-0.02776368521153927,0.05823821201920509,-0.03934825211763382,-0.21933190524578094,0.12533916532993317,0.1325269341468811,-0.2038966715335846,0.1048702672123909,-0.001694653881713748,0.19702032208442688,-0.05685669183731079,0.17193979024887085,-0.09544587135314941,0.08197475969791412,-0.066696397960186,0.06588133424520493],[0.1842517852783203,-0.45815572142601013,0.07247079163789749,-0.08270097523927689,-0.1921040266752243,0.16059428453445435,0.23808789253234863,0.026696693152189255,0.4129560589790344,-0.0881962850689888,0.013871905393898487,-0.29441776871681213,0.05038696527481079,0.1325959414243698,0.2486719936132431,0.12485289573669434,0.024231677874922752,-0.10826800763607025,0.28209373354911804,-0.038957953453063965,0.04005860909819603,0.039158012717962265,0.02503826469182968,0.10085750371217728,-0.07075897604227066,0.014227903448045254,0.05959084630012512,0.3643561601638794,-0.30284079909324646,-0.2753545641899109,0.2898176610469818,-0.2028600424528122,-0.07123273611068726,-0.22048044204711914,-0.43499791622161865,-0.15626250207424164,-0.10987867414951324,0.14590118825435638,0.07739782333374023,0.3686664402484894,0.13798654079437256,0.16858169436454773,-0.011034890078008175,-0.24439384043216705,-0.09365557134151459,0.15188291668891907,-0.13124096393585205,0.1848107874393463,0.04040994867682457,-0.008164679631590843,0.2633398771286011,-0.4086126983165741,-0.08243697136640549,0.27477988600730896,-0.06887791305780411,-0.0755053460597992,0.07760462909936905,0.0059350947849452496,-0.08292648196220398,0.09458422660827637,-0.19699275493621826,-0.05707273259758949,-0.014907187782227993,0.16853295266628265,0.13770544528961182],[0.15676133334636688,-0.12438169866800308,-0.14636465907096863,-0.321490615606308,0.1389973908662796,0.2708354890346527,-0.40280821919441223,0.13124114274978638,0.13099481165409088,0.06829167902469635,0.05752560868859291,-0.4590851068496704,-0.12171462923288345,0.5337995290756226,-0.037046972662210464,0.07235690206289291,0.04999164491891861,-0.09391555190086365,-0.14530445635318756,0.10716048628091812,-0.31998252868652344,0.28240248560905457,-0.22637240588665009,-0.24638918042182922,0.07398422062397003,-0.15074166655540466,0.015049153938889503,-0.0068763261660933495,-0.011254783719778061,0.38406482338905334,0.259848952293396,-0.008744755759835243,-0.06542853266000748,0.2839590609073639,0.09331385046243668,0.07736988365650177,-0.26084885001182556,-0.13079845905303955,-0.18843990564346313,-0.3851079046726227,0.028620176017284393,-0.03876794874668121,0.059728145599365234,-0.009769842028617859,0.03386804461479187,-0.012249970808625221,-0.074669249355793,-0.015255862846970558,0.270266592502594,0.18724963068962097,-0.11893492937088013,-0.24290713667869568,-0.05712803080677986,-0.009468233212828636,-0.18002401292324066,-0.19593119621276855,0.0031738027464598417,0.0224987231194973,0.04377114772796631,-0.055425845086574554,-0.06541900336742401,0.22671668231487274,0.11474181711673737,0.006447312422096729,0.0823635682463646],[-0.13968682289123535,0.25533968210220337,-0.24478590488433838,0.040001459419727325,-0.08172083646059036,0.17005309462547302,-0.003334620501846075,0.21215759217739105,-0.4912008047103882,-0.06089947745203972,-0.19982540607452393,0.14221905171871185,0.040969885885715485,-0.028310352936387062,0.09700722992420197,0.37379583716392517,-0.26665231585502625,-0.467897891998291,-0.2394952028989792,0.036637578159570694,-0.06401115655899048,-0.32920125126838684,-0.006024182308465242,-0.10646098852157593,0.1298348754644394,-0.37657344341278076,0.12109792232513428,0.01784859411418438,-0.17557181417942047,-0.05403624102473259,-0.0018157354788854718,0.042776770889759064,0.03758933022618294,0.021967096254229546,0.1041346937417984,0.3269103467464447,-0.1660177856683731,0.11818219721317291,-0.08728308975696564,-0.052909255027770996,-0.4159707725048065,0.36569201946258545,-0.06916514039039612,-0.0886201411485672,-0.07875245809555054,0.03193560242652893,-0.19294659793376923,-0.11820951849222183,0.044323962181806564,0.08187086135149002,-0.31426000595092773,0.09026531130075455,0.05112772807478905,0.003617373527958989,0.2931886613368988,-0.14698995649814606,-0.01570736989378929,-0.16590864956378937,0.08024603873491287,0.03889375180006027,-0.012151608243584633,-0.04850947484374046,-0.15574830770492554,-0.14537464082241058,-0.2750372588634491],[-0.29519033432006836,-0.2420874834060669,0.10512479394674301,-0.14661869406700134,0.2932656407356262,0.08412455022335052,-0.22126753628253937,0.09993357956409454,0.09814601391553879,0.1606835573911667,0.04300021752715111,0.2912728488445282,-0.9397780895233154,-0.024171506986021996,-0.016241708770394325,-0.18156149983406067,-0.1819932758808136,-0.042912840843200684,0.1366005837917328,-0.11040816456079483,0.0722702294588089,-0.34126415848731995,-0.37502235174179077,0.15373541414737701,0.0521337129175663,-0.24474014341831207,0.022547805681824684,-0.036211565136909485,-0.12553246319293976,-0.5559360384941101,-0.12740567326545715,-0.2225249707698822,0.16952918469905853,0.12321251630783081,-0.3589128851890564,-0.05271333456039429,-0.15829630196094513,-0.20232418179512024,-0.07379745692014694,-0.3040826618671417,-0.20235058665275574,-0.03350483253598213,0.30093297362327576,0.1550867259502411,-0.1394748091697693,-0.17394284904003143,-0.010903002694249153,-0.20462380349636078,0.013332178816199303,0.16894248127937317,0.1552812159061432,-0.03505820035934448,-0.11902482807636261,0.06684307008981705,-0.18211182951927185,-0.15297210216522217,0.03267161175608635,0.25760143995285034,0.24851369857788086,-0.11066922545433044,-0.003919873386621475,0.09971952438354492,0.13772523403167725,-0.12628431618213654,-0.3159748613834381],[0.18594980239868164,-0.050120703876018524,-0.24761995673179626,0.0904102772474289,-0.06728006899356842,-0.2211073637008667,-0.15219935774803162,-0.010469218716025352,0.36951759457588196,-0.19815890491008759,0.09065939486026764,-0.23772922158241272,0.07732425630092621,-0.32255271077156067,0.05506277456879616,-0.03215372562408447,-0.22966617345809937,0.21840626001358032,0.44287312030792236,0.0042333523742854595,0.23684076964855194,0.12629130482673645,0.030836554244160652,0.11205074191093445,0.3538149297237396,-0.10623268038034439,0.18324074149131775,-0.1765216886997223,0.06565873324871063,-0.3015170693397522,0.2596191465854645,-0.05371546000242233,-0.36019033193588257,-0.03574442118406296,-0.029571188613772392,0.1488301008939743,0.045179422944784164,0.3704773485660553,-0.2978251278400421,0.2028004229068756,0.4916965961456299,-0.045733742415905,0.043531905859708786,-0.07611788809299469,0.35386669635772705,0.034458424896001816,0.26956456899642944,-0.00928276963531971,0.08679475635290146,0.11459922790527344,-0.27936461567878723,-0.08206919580698013,0.16848894953727722,0.1192253902554512,-0.04718908295035362,0.0073144505731761456,-0.05068793520331383,0.025200173258781433,0.2886253297328949,0.013349113054573536,0.08461842685937881,0.05574212968349457,0.06970233470201492,-0.0881735160946846,0.019059069454669952],[-0.13462908565998077,0.7236742973327637,-0.22116424143314362,-0.12329190969467163,-0.2103196680545807,-0.048556189984083176,0.2332068234682083,-0.08606193959712982,-0.3946051001548767,-0.06707316637039185,-0.003401963273063302,-0.034617844969034195,-0.10705403983592987,-0.11873770505189896,-0.041883546859025955,-0.18747274577617645,-0.09767341613769531,-0.15932239592075348,0.016106445342302322,0.32517486810684204,-0.3793404698371887,0.284249484539032,0.22055718302726746,0.037646081298589706,0.10323839634656906,-0.06234901025891304,-0.057991527020931244,0.22553633153438568,0.04524623602628708,-0.16344954073429108,-0.23455765843391418,0.08337999880313873,0.31092503666877747,0.41821473836898804,-0.23064178228378296,-0.07471757382154465,0.04902903363108635,-0.0591290220618248,0.20569603145122528,0.08024212718009949,-0.3708328604698181,-0.0356016606092453,-0.07598483562469482,0.17082493007183075,-0.029382186010479927,-0.1636972427368164,0.06453046947717667,0.09426001459360123,-0.10175670683383942,0.07742459326982498,0.04059663042426109,0.044616714119911194,0.08247236907482147,-0.1656007468700409,0.12427491694688797,-0.2264464944601059,0.017904674634337425,-0.001342909294180572,0.1656183898448944,0.2986997663974762,-0.1932053118944168,0.20290382206439972,-0.09719986468553543,-0.3198230564594269,0.24274468421936035],[0.09541650861501694,0.2548350691795349,0.07415054738521576,0.3258531093597412,0.21052302420139313,0.08329886198043823,-0.0214544665068388,-0.11022943258285522,-0.45558130741119385,-0.31416743993759155,0.1127418726682663,0.39517465233802795,-0.007049029227346182,-0.013175060041248798,0.11164413392543793,-0.061538878828287125,-0.20825625956058502,-0.03806351125240326,-0.16493229568004608,-0.02175562083721161,-0.2689955532550812,0.42344388365745544,0.04082319512963295,0.04215787723660469,0.0030756667256355286,0.1292252093553543,-0.062870554625988,-0.06034192070364952,-0.144257590174675,0.09389364719390869,-0.18701060116291046,0.2146683931350708,0.02395877055823803,-0.0569206178188324,0.4551442265510559,-0.16895638406276703,-0.11309126019477844,0.2771434187889099,-0.15620018541812897,0.056164246052503586,-0.027517171576619148,-0.21303802728652954,0.2743692696094513,-0.12341144680976868,-0.1425524652004242,0.0026394911110401154,-0.13996101915836334,0.21730484068393707,0.08369317650794983,-0.2819622755050659,0.1813783496618271,-0.03353462740778923,-0.12526433169841766,0.18188397586345673,-0.09086745232343674,-0.28649529814720154,0.0774918720126152,-0.20411166548728943,0.1896325647830963,0.180019348859787,-0.25124549865722656,0.16722533106803894,-0.14737772941589355,-0.24364972114562988,-0.3228888213634491],[0.255369633436203,-0.6574199795722961,-0.25918373465538025,-0.466031938791275,0.331572562456131,-0.13374577462673187,-0.21294741332530975,-0.1197713166475296,-0.07299832999706268,0.10978376120328903,-0.08706409484148026,-0.3749677538871765,0.3004530072212219,0.050022710114717484,-0.2382790595293045,-0.10767550766468048,0.14478297531604767,-0.20396459102630615,-0.01733865775167942,-0.08863547444343567,-0.0020613721571862698,-0.02081863023340702,0.08311890065670013,-0.06490353494882584,0.15090613067150116,-0.06693250685930252,-0.13488902151584625,-0.2479146271944046,-0.23329989612102509,-0.20357753336429596,0.056542981415987015,-0.15957297384738922,-0.3276035487651825,0.17155978083610535,0.2619114816188812,-0.1422460973262787,0.04832575097680092,0.0696120411157608,0.329267680644989,-0.058515675365924835,0.027798810973763466,-0.009240815415978432,-0.03427661210298538,-0.040850088000297546,-0.1566588431596756,-0.1232837438583374,0.2508584260940552,0.10792173445224762,0.07494885474443436,-0.2779732346534729,0.260635644197464,-0.1156873032450676,0.2379802167415619,0.038314297795295715,0.0926763266324997,0.15012073516845703,-0.08548013120889664,0.4335881769657135,0.042486511170864105,-0.12749083340168,0.03403409570455551,0.026951348409056664,-0.0925557091832161,-0.0888645201921463,0.12677261233329773],[0.07309537380933762,0.2491500973701477,0.03297382965683937,0.007107569836080074,-0.09134629368782043,-0.2844159007072449,-0.010840792208909988,-0.01847796142101288,-0.2381555587053299,-0.21771864593029022,-0.15334683656692505,0.16115319728851318,0.07665161788463593,0.22799228131771088,0.11089951545000076,0.0624251589179039,-0.2520894408226013,-0.1637437641620636,0.22055953741073608,0.0646628886461258,-0.27823811769485474,0.29186010360717773,0.07138348370790482,-0.2654731869697571,0.11658857762813568,0.584269106388092,-0.05272004008293152,0.1671823114156723,-0.15514738857746124,-0.08151612430810928,0.480392187833786,0.18683458864688873,-0.1005026325583458,-0.17304740846157074,0.2713746726512909,0.22122839093208313,0.2089795470237732,0.14541925489902496,0.5618783235549927,-0.2315712422132492,-0.00303611159324646,-0.08192864805459976,-0.014744501560926437,-0.12922976911067963,-0.16204111278057098,-0.15170811116695404,-0.1914660632610321,0.027807382866740227,-0.08980178833007812,0.08209601789712906,-0.08335141092538834,0.2888583838939667,0.02749606966972351,-0.10198721289634705,-0.08166608959436417,0.1769314855337143,-0.174131840467453,-0.16558587551116943,0.19856438040733337,-0.3356710970401764,-0.22939667105674744,-0.022021586075425148,0.050767682492733,0.09224044531583786,0.019393332302570343],[-0.34770944714546204,0.2173282355070114,0.2359837144613266,-0.0785980224609375,-0.035548135638237,-0.2884451448917389,-0.1690652221441269,0.0005061860429123044,-0.13996736705303192,0.05463910102844238,0.17613686621189117,0.11067047715187073,-0.16146555542945862,0.22006262838840485,-0.01536798570305109,-0.16172879934310913,0.1086307242512703,-0.24519287049770355,0.07953780144453049,-0.20144271850585938,-0.0516795851290226,-0.1552405059337616,-0.022937346249818802,0.21482864022254944,0.21531137824058533,-0.03774417191743851,0.1912025511264801,0.023770499974489212,-0.09937221556901932,0.1861625462770462,-0.10452861338853836,0.06579913198947906,0.08647886663675308,0.10351723432540894,0.1465100646018982,0.20828518271446228,-0.04705970734357834,-0.028560835868120193,-0.3128242492675781,-0.042144499719142914,-0.20222687721252441,0.056528832763433456,-0.24117513000965118,0.09514598548412323,-0.07502391189336777,0.4464586675167084,-0.001771603710949421,0.019626397639513016,-0.36862125992774963,-0.013103456236422062,0.1649833768606186,0.0477205291390419,0.2389700561761856,-0.11416790634393692,0.14522497355937958,-0.021776393055915833,0.22350311279296875,-0.015832005068659782,0.22304637730121613,-0.049017176032066345,-0.24923750758171082,0.46992266178131104,-0.15020309388637543,0.1619139164686203,-0.09335518628358841],[0.137845978140831,-0.07327346503734589,0.08207070827484131,0.12722444534301758,0.23450714349746704,0.039407242089509964,0.08841516822576523,-0.0827813521027565,-0.0895930826663971,0.26184752583503723,-0.22433318197727203,0.11927764862775803,-0.12800301611423492,-0.45024314522743225,0.14718517661094666,0.20051667094230652,0.07777778059244156,0.4167764186859131,0.03491251915693283,-0.17021974921226501,-0.15207576751708984,0.4270295798778534,0.14632461965084076,0.07645761221647263,0.20754246413707733,0.04511106386780739,0.041751131415367126,-0.1803688257932663,0.20588615536689758,0.0037714762147516012,0.33464205265045166,0.056324537843465805,0.005250612739473581,0.3701968491077423,-0.18798360228538513,0.05008929967880249,-0.10900627821683884,-0.00206832611002028,-0.11966929584741592,0.4906826913356781,0.28386610746383667,-0.05401160195469856,-0.28992804884910583,0.1025877296924591,-0.22835761308670044,-0.01562157180160284,-0.16770194470882416,-0.05670470744371414,0.1282293200492859,-0.049017284065485,0.19358669221401215,-0.08056413382291794,0.07133515924215317,-0.07550407201051712,-0.03430759161710739,0.07509065419435501,-0.0894768163561821,-0.2520531415939331,0.011816518381237984,-0.24161921441555023,0.11422553658485413,-0.027728300541639328,-0.1288619488477707,0.2972903251647949,0.03789147734642029],[0.24973617494106293,-0.2893880605697632,0.13260233402252197,0.06976065784692764,-0.13298718631267548,-0.04760569706559181,-0.13142505288124084,0.28412389755249023,0.21254876255989075,-0.35903412103652954,-0.2589277923107147,-0.10912471264600754,0.2978783845901489,0.03920481726527214,-0.16132277250289917,-0.16412685811519623,0.16402827203273773,0.1349242776632309,0.15662606060504913,-0.014758775942027569,0.20350101590156555,0.1996457427740097,-0.21832305192947388,0.1408659666776657,0.14228762686252594,0.2832028567790985,0.15980921685695648,-0.16801507771015167,-0.3091569244861603,0.03611237555742264,0.1287061870098114,-0.17467966675758362,0.019621731713414192,0.18720753490924835,0.00029854412423446774,-0.03084709495306015,-0.14601698517799377,0.110284723341465,-0.04263964295387268,-0.0074337199330329895,0.17146916687488556,0.22070035338401794,0.057923298329114914,0.16212797164916992,-0.24105191230773926,-0.23626220226287842,0.16472268104553223,-0.420149028301239,-0.10886318981647491,-0.0024957777932286263,0.05046065151691437,0.2439085990190506,0.051167309284210205,0.011609354987740517,0.10372354090213776,-0.18217623233795166,0.05403076484799385,-0.2174251228570938,-0.3119436204433441,0.33946818113327026,-0.009598649106919765,-0.10032694786787033,0.07024785131216049,0.04631028696894646,0.25215673446655273],[0.2822021543979645,-0.2398616373538971,0.23075006902217865,-0.22486208379268646,-0.04513927921652794,0.29746323823928833,-0.07661648839712143,0.031291816383600235,0.05272182449698448,0.3019882142543793,0.32195785641670227,-0.1495065838098526,-0.17740000784397125,0.08838542550802231,-0.004651213064789772,0.10889343172311783,0.034098684787750244,-0.07116524130105972,0.03382144123315811,-0.20241327583789825,0.11747884750366211,0.15041369199752808,0.17972619831562042,-0.5332278609275818,-0.1463359296321869,-0.0069148656912148,0.3532252013683319,0.16732197999954224,-0.4878792464733124,-0.267110139131546,-0.19194237887859344,-0.05500918626785278,-0.08516312390565872,0.08431798219680786,0.2171274870634079,-0.16300272941589355,-0.10334745794534683,-0.12632323801517487,-0.47045767307281494,-0.34524425864219666,-0.44303613901138306,-0.028208790346980095,0.026586998254060745,0.13409890234470367,0.12942568957805634,-0.11886762082576752,0.1771128922700882,0.017760375514626503,-0.16015535593032837,0.17711929976940155,0.08087672293186188,0.06949412822723389,-0.046739451587200165,-0.18613208830356598,0.13105227053165436,0.15771284699440002,0.0014984619338065386,0.12475419044494629,0.29514187574386597,0.11769376695156097,0.28722241520881653,-0.08235001564025879,0.17433778941631317,0.15805239975452423,0.1485123634338379],[0.07364316284656525,0.10514476895332336,0.06158211827278137,0.2479681819677353,-0.011630618013441563,-0.05030267313122749,-0.05580328777432442,-0.0240639541298151,-0.15436680614948273,-0.02303110435605049,-0.15403297543525696,0.35749542713165283,-0.002463759621605277,-0.08912007510662079,-0.22393947839736938,-0.2452712506055832,0.05712556093931198,-0.26658737659454346,0.20861929655075073,0.03618555888533592,-0.36646395921707153,0.35422584414482117,-0.10907278954982758,0.246430441737175,-0.11003423482179642,-0.169095978140831,-0.2506813108921051,0.045111384242773056,0.06616704165935516,-0.10407251119613647,-0.19903342425823212,0.0012057835701853037,0.15167532861232758,0.121882364153862,0.07109338045120239,0.34606844186782837,0.026490896940231323,0.1579389125108719,-0.2198818325996399,-0.24453531205654144,-0.16470447182655334,0.06884482502937317,0.010963733308017254,-0.335815966129303,0.23236067593097687,0.01282384991645813,-0.1746356338262558,0.1957266628742218,0.08019708842039108,0.2658178508281708,0.03494693711400032,-0.07500240951776505,-0.06820935755968094,0.19630064070224762,0.25244152545928955,0.3000635802745819,0.11369815468788147,-0.027346428483724594,-0.31580376625061035,0.026142193004488945,0.15561123192310333,0.032499559223651886,-0.015183130279183388,-0.02009831741452217,0.16004249453544617],[0.14785902202129364,0.6303819417953491,0.14913417398929596,-0.13599412143230438,0.17836789786815643,0.08682308346033096,0.2222127467393875,0.19571715593338013,-0.24893297255039215,-0.3470070958137512,0.20658020675182343,0.1696813702583313,0.1745658963918686,-0.20631453394889832,0.22599942982196808,-0.07791010290384293,0.0014145990135148168,-0.24114762246608734,0.1586923450231552,0.19350339472293854,-0.4580323100090027,-0.2353229969739914,-0.22016993165016174,-0.0653143972158432,-0.1735350638628006,0.1463889181613922,-0.10666605085134506,-0.07804751396179199,0.14360997080802917,0.09430842846632004,0.009406628087162971,0.11455462872982025,-0.21028867363929749,0.09568130970001221,0.07899228483438492,-0.044707052409648895,0.07548457384109497,0.058060694485902786,-0.2094881683588028,0.07865004986524582,0.037787530571222305,0.24522580206394196,-0.20915469527244568,-0.06435622274875641,0.009221901185810566,-0.014097385108470917,-0.10051029920578003,-0.011444279924035072,0.014202567748725414,-0.12418634444475174,0.13416697084903717,0.04181545227766037,0.10646460205316544,-0.0684657022356987,-0.00148937595076859,-0.30083638429641724,0.06541528552770615,0.3069029152393341,-0.08329767733812332,-0.03979410603642464,0.2154122143983841,0.05099152773618698,0.40915367007255554,0.19053266942501068,-0.035970840603113174],[-0.3287719786167145,0.37017205357551575,0.020680096000432968,-0.06752166897058487,0.005286417901515961,0.31641921401023865,-0.23653864860534668,-0.07351917028427124,-0.12284383177757263,-0.2719520032405853,0.08716709166765213,0.12398363649845123,-0.49492499232292175,0.37275591492652893,0.040977880358695984,-0.18565039336681366,0.08028594404459,-0.36541369557380676,0.08771941065788269,0.01778319850564003,0.051020633429288864,-0.09108853340148926,0.21626758575439453,0.05542852357029915,0.347711443901062,-0.23625490069389343,-0.3081985116004944,0.12279623001813889,0.21909388899803162,-0.21713601052761078,0.07223468273878098,0.03704611957073212,-0.03756561502814293,0.08872191607952118,0.31068429350852966,-0.20645444095134735,-0.08442302793264389,-0.18019770085811615,-0.033435504883527756,0.12128773331642151,-0.26970338821411133,-0.15672768652439117,-0.301122784614563,0.11789059638977051,0.04028777405619621,-0.1068178191781044,0.028910966590046883,0.09818068891763687,-0.01792016066610813,-0.07581446319818497,0.033651381731033325,0.23074476420879364,-0.23711474239826202,0.27756181359291077,0.23588985204696655,-0.06572651863098145,-0.04318617656826973,-0.1569407731294632,-0.053828027099370956,0.13836261630058289,0.2087763100862503,-0.17576774954795837,-0.0931270644068718,0.2179165780544281,-0.16428115963935852],[-0.19614993035793304,-0.11044833809137344,-0.03814791142940521,-0.2607620656490326,0.09468105435371399,-0.1694749891757965,-0.2795579731464386,-0.08211562037467957,-0.0014528626343235373,-0.25091901421546936,-0.10181765258312225,0.2591415345668793,-0.6864898800849915,-0.18127231299877167,-0.11328531056642532,0.07371454685926437,0.0023939500097185373,-0.04309936612844467,-0.12090586870908737,0.47138673067092896,0.43630847334861755,-0.4452419579029083,0.19819912314414978,-0.10381913185119629,0.11646739393472672,-0.16365863382816315,-0.1898115873336792,0.07073453068733215,-0.4245451092720032,-0.004586322233080864,-0.11251126229763031,0.11513496935367584,-0.04487017169594765,-0.11951083689928055,-0.2090928703546524,0.10055079311132431,-0.012529951520264149,-0.459919810295105,-0.6169969439506531,0.05841187760233879,-0.4434899389743805,-0.11064698547124863,0.06259110569953918,0.031668175011873245,-0.038099829107522964,-0.07222303003072739,-0.2847496569156647,0.13199716806411743,-0.011377089656889439,-0.04835742712020874,0.030978430062532425,0.061155542731285095,-0.15649737417697906,-0.09683685749769211,-0.0994991660118103,-0.05665085092186928,0.25031015276908875,0.2544221878051758,-0.08911795914173126,0.03359808027744293,-0.038815271109342575,0.1119944304227829,-0.052558526396751404,-0.06717152148485184,0.2075546532869339],[-0.4353860914707184,0.241736501455307,-0.19791921973228455,-0.008602495305240154,0.3014723062515259,0.050711240619421005,0.13636928796768188,0.22427110373973846,-0.04039713367819786,-0.21924255788326263,0.2628997564315796,0.04387545958161354,-0.20522592961788177,-0.11692008376121521,0.22129173576831818,0.21274368464946747,0.16798457503318787,-0.24321869015693665,-0.43633750081062317,0.18059931695461273,-0.258047491312027,0.04363490641117096,0.16942362487316132,0.34988394379615784,0.011292265728116035,-0.010187729261815548,-0.06686090677976608,-0.2698806822299957,-0.20487891137599945,-0.008353683166205883,-0.0036764226388186216,0.172089621424675,0.06400493532419205,0.15760818123817444,0.15515467524528503,-0.030499666929244995,0.17584122717380524,-0.055093150585889816,0.029122566804289818,-0.2978934049606323,-0.33409038186073303,0.2393139749765396,-0.042678773403167725,-0.14133720099925995,0.18893596529960632,-0.07693249732255936,-0.0286570992320776,-0.15286117792129517,-0.1799684464931488,0.0028690644539892673,0.22969458997249603,-0.09212023764848709,-0.0006195434252731502,0.24866127967834473,-0.12409893423318863,0.14630630612373352,-0.02051338367164135,-0.243244007229805,0.21757878363132477,0.02603285200893879,-0.026555297896265984,0.03138038516044617,-0.13780465722084045,0.09675636142492294,0.327118456363678],[-0.36757954955101013,-0.004601663444191217,-0.1565871685743332,0.05562891066074371,-0.15445780754089355,-0.0759037509560585,0.07195927947759628,0.06395413726568222,-0.5890799760818481,0.007280026096850634,0.0585293285548687,0.09264186024665833,-0.415743350982666,0.06461747735738754,0.08339536190032959,0.27072805166244507,-0.05147987976670265,-0.5505568981170654,0.1999998539686203,-0.1247868686914444,0.21423886716365814,0.09875363856554031,0.054457079619169235,0.12096649408340454,0.15062208473682404,0.02248384989798069,-0.31918570399284363,-0.22447027266025543,0.013414486311376095,0.16691088676452637,-0.32825154066085815,0.4871293306350708,0.062190763652324677,0.11353036016225815,-0.16128768026828766,-0.10218476504087448,-0.2264949083328247,-0.09022314846515656,-0.05756474286317825,-0.1575908362865448,-0.5018733143806458,-0.08482787013053894,0.010822654701769352,-0.21003638207912445,0.04077191278338432,0.09102397412061691,0.17740193009376526,0.14306586980819702,-0.09196360409259796,0.042714785784482956,0.14599330723285675,0.08418701589107513,0.20659351348876953,-0.08660676330327988,-0.12816299498081207,-0.23850996792316437,-0.038164202123880386,-0.07823801785707474,-0.18363477289676666,-0.16561424732208252,-0.06049951910972595,-0.09946991503238678,0.30484187602996826,-0.04750724881887436,0.01887515000998974],[-0.5061309933662415,0.003562253201380372,-0.09125596284866333,-0.084974505007267,-0.1428752839565277,0.22654549777507782,-0.424436092376709,0.3233583867549896,-0.23660647869110107,0.0027312857564538717,0.008855856955051422,0.24120396375656128,-0.44611307978630066,-0.026974201202392578,0.3234245181083679,-0.3351643979549408,0.023479606956243515,0.34178048372268677,-0.16450297832489014,0.050920866429805756,0.17591233551502228,0.106419637799263,0.28116095066070557,-0.07347903400659561,-0.31704187393188477,-0.14011722803115845,-0.32043328881263733,-0.043283116072416306,-0.2307860106229782,-0.14680972695350647,-0.24707666039466858,-0.30981898307800293,-0.26849764585494995,0.2385980188846588,-0.18654349446296692,0.05509662255644798,-0.05609270930290222,0.0075577921234071255,0.0361645445227623,0.08783673495054245,-0.26025840640068054,0.17400230467319489,0.12312917411327362,-0.2131144106388092,-0.0032005710527300835,0.2202433943748474,-0.060221508145332336,0.0944431722164154,-0.02486148104071617,-0.11700761318206787,-0.11128182709217072,0.27923476696014404,0.1506374180316925,-0.08800695836544037,-0.061698392033576965,0.077395960688591,0.10684727877378464,0.015819301828742027,0.04377185180783272,-0.01580754853785038,-0.028886323794722557,0.03901762142777443,0.17431367933750153,-0.002898699138313532,-0.0742926225066185],[0.5459069013595581,-0.05886048823595047,0.1285289078950882,-0.11047901213169098,0.08889231830835342,0.04925110191106796,-0.019388725981116295,0.3365217447280884,-0.18689072132110596,0.1332196593284607,0.026119383051991463,-0.3575282692909241,0.651119589805603,0.13322512805461884,0.049596335738897324,0.2679780423641205,0.01587185263633728,0.19415415823459625,0.10116833448410034,-0.07041943073272705,-0.09461385756731033,-0.09839211404323578,-0.2768334150314331,0.14573203027248383,0.18949449062347412,0.22325044870376587,-0.17084574699401855,0.21338880062103271,-0.048249080777168274,-0.1718238741159439,-0.03599536046385765,0.009191768243908882,0.017633887007832527,0.07528971880674362,-0.11391900479793549,-0.010157392360270023,0.18762780725955963,-0.1449599266052246,0.07609529793262482,0.027947619557380676,0.4980854094028473,-0.45977309346199036,-0.05955766886472702,-0.13928738236427307,0.1261977106332779,0.33681541681289673,-0.2154962420463562,-0.08871950209140778,0.0709722712635994,0.1472836136817932,-0.08437973260879517,0.3475356698036194,0.1092318668961525,0.2346915751695633,-0.05086939409375191,0.14242708683013916,-0.2780265510082245,0.007593004032969475,0.06547453999519348,0.3060550391674042,0.01143184956163168,0.07842879742383957,-0.12293805927038193,-0.057758625596761703,0.1416122168302536],[0.3735203742980957,-0.2723371684551239,-0.05663932487368584,-0.027856210246682167,-0.24523280560970306,-0.21684184670448303,-0.11079805344343185,-0.014629787765443325,0.015236246399581432,0.2726627588272095,0.2158871442079544,-0.4077373743057251,0.22405016422271729,0.0963117852807045,-0.05509836971759796,0.10702414065599442,0.13383840024471283,0.22175481915473938,-0.13650423288345337,-0.06385138630867004,-0.15446138381958008,-0.013121514581143856,0.28550252318382263,0.06943803280591965,0.024892911314964294,0.09035127609968185,-0.25176742672920227,0.22048048675060272,0.03774996101856232,0.10051114112138748,0.32298922538757324,0.17004558444023132,0.19247832894325256,0.0848391130566597,0.0024757555220276117,0.1050373837351799,0.21261295676231384,0.3175736963748932,-0.18799978494644165,-0.0022912612184882164,0.29722896218299866,0.2702668607234955,-0.23445193469524384,-0.2178473323583603,0.009710509330034256,-0.42282921075820923,0.1777261346578598,-0.1284673810005188,-0.09982876479625702,0.02563168667256832,0.2643720507621765,0.15562692284584045,-0.16091038286685944,-0.02874567359685898,-0.08701428771018982,0.2397882044315338,-0.10813510417938232,0.020673906430602074,-0.1224241778254509,0.23381906747817993,-0.12068406492471695,0.15957936644554138,0.1533120721578598,-0.04499507695436478,-0.45683255791664124],[0.21811458468437195,-0.10524780303239822,0.12129315733909607,-0.0505639985203743,0.11891148239374161,0.3073332905769348,-0.004912491422146559,-0.26989108324050903,-0.08690111339092255,0.12375239282846451,0.19278810918331146,-0.3334149122238159,0.08966373652219772,-0.08566451072692871,0.03318776562809944,0.014973652549088001,0.11285758018493652,0.1473560780286789,-0.21589747071266174,-0.17847755551338196,-0.30070760846138,0.1705101579427719,0.11845197528600693,0.4357813894748688,0.49100154638290405,-0.013599357567727566,0.008913852274417877,0.1849486529827118,-0.1503635048866272,0.1956975907087326,0.3637832999229431,0.038679271936416626,-0.16755418479442596,-0.28474509716033936,-0.009043059311807156,0.1369529366493225,-0.09684570878744125,0.35917872190475464,0.44056734442710876,-0.3871736228466034,0.036867741495370865,0.04278145730495453,0.3080311715602875,0.27875247597694397,0.17470233142375946,-0.08559016138315201,-0.03280823305249214,0.21060217916965485,0.044375400990247726,0.18495482206344604,0.17435091733932495,0.317857027053833,0.15037944912910461,-0.20963723957538605,-0.022568318992853165,-0.0046618664637207985,0.2752804756164551,0.13120245933532715,-0.021667608991265297,0.12333522737026215,0.1570226550102234,-0.23342406749725342,0.1647125631570816,0.07661499083042145,0.11617980152368546],[0.0941254198551178,-0.18093827366828918,0.030215082690119743,0.09262945502996445,0.07344987243413925,-0.1925358772277832,0.03053354099392891,-0.07896233350038528,0.31589439511299133,0.2892659902572632,-0.0590682253241539,-0.02420579083263874,0.22402481734752655,-0.08400797843933105,0.08870955556631088,0.2604595124721527,0.29737091064453125,-0.05656661093235016,0.18501092493534088,0.07907003909349442,0.11173298209905624,0.08806578814983368,-0.15030404925346375,0.0016211363254114985,0.04168920964002609,-0.3020181357860565,0.00177391292527318,-0.3501003384590149,-0.09925469011068344,-0.17797979712486267,0.1107882633805275,-0.6292063593864441,0.06354250013828278,-0.0654163733124733,0.10534621775150299,-0.4780474901199341,-0.06949692219495773,-0.17679297924041748,0.20138931274414062,0.15218527615070343,0.2600594460964203,-0.07010660320520401,-0.13480119407176971,-0.09621523320674896,0.20774248242378235,-0.16202299296855927,-0.2652352750301361,0.15374790132045746,-0.10736553370952606,0.029884839430451393,-0.1643984019756317,0.06277305632829666,-0.06510825455188751,-0.3083982765674591,-0.04238172248005867,-0.012325149960815907,0.16843490302562714,-0.03530387207865715,0.013028418645262718,0.19716189801692963,-0.13617020845413208,0.1501428484916687,0.27669182419776917,-0.013632665388286114,-0.19276145100593567],[0.387184739112854,-0.19765454530715942,0.13198767602443695,-0.12506575882434845,-0.44153478741645813,0.43376022577285767,-0.05952993407845497,-0.14605756103992462,0.3974325358867645,0.30604252219200134,-0.14468695223331451,-0.2577653229236603,0.1524355709552765,-0.15509210526943207,0.08153148740530014,0.06715311855077744,-0.22656182944774628,0.1492222100496292,-0.14980548620224,-0.02675885707139969,0.14938852190971375,-0.03358575701713562,-0.10122032463550568,0.33950430154800415,0.15847761929035187,0.2594681978225708,-0.2400742918252945,-0.25859004259109497,0.06916172057390213,-0.023809419944882393,0.46529603004455566,-0.10799361020326614,0.2733347713947296,0.17765533924102783,0.41561007499694824,0.14511382579803467,0.15875618159770966,-0.13040900230407715,-0.04427572712302208,0.008300084620714188,-0.34001365303993225,-0.048305805772542953,0.04255225881934166,-0.14020700752735138,-0.036211393773555756,0.18804457783699036,0.07488677650690079,0.036817558109760284,-0.13796506822109222,-0.15406650304794312,0.06047093868255615,-0.1525431126356125,-0.11565236002206802,-0.031047943979501724,0.0888914242386818,-0.031862903386354446,0.007067443802952766,0.20481418073177338,0.09155808389186859,-0.07222381234169006,0.006302901543676853,0.05366699770092964,0.23906902968883514,-0.20389704406261444,0.20895394682884216],[-0.021769655868411064,0.42988696694374084,-0.2306942492723465,0.12255289405584335,-0.20569325983524323,0.022809427231550217,-0.058851998299360275,0.1684226393699646,0.01144503429532051,-0.04622093588113785,0.06134582683444023,0.2266533523797989,-0.0035518095828592777,0.07900771498680115,-0.2660731077194214,0.06441272050142288,-0.13480886816978455,-0.39825761318206787,-0.05264655873179436,-0.03728597238659859,-0.43407967686653137,-0.00035028858110308647,0.162429079413414,0.030047308653593063,-0.2766937017440796,0.01292711403220892,-0.14038969576358795,-0.3216875493526459,-0.1335200071334839,0.21098275482654572,0.14588028192520142,0.12985676527023315,-0.13706673681735992,-0.14656682312488556,-0.2990230321884155,-0.21008266508579254,-0.15095768868923187,0.04989846795797348,-0.11785430461168289,0.06569389253854752,-0.07241665571928024,-0.3135332763195038,-0.14903825521469116,0.25452128052711487,-0.23897680640220642,0.16497446596622467,-0.04471447318792343,-0.1438387632369995,0.016593942418694496,-0.08379285037517548,-0.12306971102952957,0.08124072104692459,0.0571536086499691,0.20637962222099304,0.12283515185117722,0.3627510964870453,0.24331358075141907,0.06324618309736252,0.09455075114965439,0.09581982344388962,-0.17613710463047028,-0.23542611300945282,0.18261486291885376,-0.21084879338741302,-0.0644550696015358],[0.0748254805803299,0.43091070652008057,0.1693037450313568,-0.03070198744535446,0.1368098109960556,-0.3222975730895996,0.20215073227882385,0.00043968288809992373,-0.14503514766693115,-0.10163045674562454,-0.17168927192687988,0.4167514145374298,-0.01275192853063345,-0.02733292244374752,-0.3349495828151703,-0.10127156972885132,-0.2361644059419632,-0.18474210798740387,-0.10715825855731964,-0.14292319118976593,-0.09193359315395355,-0.36523815989494324,0.22701317071914673,-0.01965310610830784,-0.07622122764587402,-0.03224087879061699,-0.2633892893791199,0.19699008762836456,-0.1884123533964157,0.23150691390037537,0.16997386515140533,-0.2753097414970398,0.01241968758404255,0.23426903784275055,0.01929495297372341,0.04312575235962868,-0.012418635189533234,-0.018543926998972893,0.0417681485414505,0.20996713638305664,-0.3150025010108948,-0.07042495906352997,0.13006116449832916,-0.09589684009552002,0.3004685938358307,0.1609276533126831,0.2894551753997803,0.0673595517873764,0.26175656914711,0.0626714900135994,0.1407649666070938,0.002131764078512788,0.13665521144866943,0.058823347091674805,-0.21147511899471283,-0.0747857317328453,0.05998621881008148,-0.5618513226509094,0.08935508877038956,-0.014471886679530144,0.027707070112228394,0.07180535048246384,0.09278438985347748,0.09458184242248535,-0.05195302516222],[-0.23456332087516785,0.6956962943077087,-0.06709249317646027,-0.18189947307109833,0.008606582880020142,0.10333722829818726,0.06994247436523438,-0.2383975088596344,-0.30463162064552307,-0.1506931632757187,0.27305862307548523,0.05036332830786705,-0.28840216994285583,0.09953124076128006,-0.3223581910133362,0.15763047337532043,-0.21866494417190552,0.2053658664226532,0.024079041555523872,-0.004652912728488445,0.032051932066679,0.004201899748295546,-0.41438764333724976,-0.13201262056827545,-0.07650379836559296,-0.21818865835666656,0.055692970752716064,-0.13190047442913055,-0.20791460573673248,-0.08030284941196442,0.02362949773669243,0.04459044337272644,-0.04207821935415268,0.021236011758446693,0.1449722945690155,0.07685106247663498,-0.09905727952718735,-0.2751924395561218,0.01893332041800022,0.12594980001449585,0.08255119621753693,0.18846850097179413,0.10750127583742142,-0.27449357509613037,-0.16991525888442993,-0.024542832747101784,0.025067759677767754,0.14956673979759216,-0.30558592081069946,0.03744921088218689,0.1593441218137741,0.09119469672441483,0.12550239264965057,0.13599979877471924,-0.06338787823915482,0.22699591517448425,0.11906878650188446,-0.25737449526786804,-0.3965993821620941,-0.12783466279506683,-0.061162009835243225,-0.09516754746437073,-0.027318868786096573,-0.18611885607242584,0.037725284695625305],[0.17652325332164764,-0.1087835356593132,-0.14183756709098816,-0.14696598052978516,-0.08446546643972397,-0.19547784328460693,-0.04560061916708946,-0.050655316561460495,0.5014224052429199,0.3468691408634186,-0.25812360644340515,0.08468959480524063,0.15671585500240326,-0.19738949835300446,0.19945602118968964,0.23804521560668945,-0.05243751034140587,0.34900665283203125,0.024806082248687744,-0.20370079576969147,0.1292855441570282,0.1117219552397728,0.1338358223438263,-0.13353200256824493,0.10614181309938431,-0.3158271908760071,0.16657716035842896,-0.00038311484968289733,-0.18195253610610962,0.12031550705432892,0.08310049027204514,-0.04261153191328049,-0.20375443994998932,0.13055609166622162,0.02632974088191986,-0.1772138923406601,0.31727334856987,0.04426600784063339,0.1592845618724823,-0.30635663866996765,0.34789788722991943,-0.07075542956590652,0.12086138874292374,0.11843612045049667,-0.11923722177743912,0.1507691740989685,0.17253373563289642,0.09961684793233871,-0.10532587766647339,0.25899288058280945,0.11952390521764755,0.11750517040491104,-0.14351724088191986,0.4529176950454712,0.11202417314052582,-0.31908202171325684,-0.07295041531324387,0.3524749279022217,-0.23609894514083862,0.12649056315422058,-0.04078197851777077,0.008234512060880661,0.048309069126844406,0.2641856074333191,-0.05146888270974159],[0.4105675518512726,-0.44647228717803955,-0.060667332261800766,-0.007496959995478392,0.2051462084054947,-0.0976983830332756,-0.11297599971294403,0.3047794699668884,0.48644304275512695,-0.02280385233461857,0.09744394570589066,-0.19710662961006165,0.4102306663990021,-0.11900194734334946,0.00786602683365345,0.0680643692612648,-0.09294874966144562,0.14071324467658997,0.2820715308189392,-0.1222139522433281,-0.255513459444046,0.20147965848445892,0.0015337548684328794,0.32317399978637695,-0.04107987880706787,-0.08150038123130798,0.08210758119821548,0.25112608075141907,0.17456500232219696,0.27368399500846863,0.035766180604696274,0.15672260522842407,0.004523321520537138,0.033970050513744354,0.175133615732193,0.05816410854458809,0.15474024415016174,-0.5289759635925293,0.15663573145866394,0.4638420045375824,0.07683117687702179,0.17920897901058197,0.06473416090011597,0.018343916162848473,0.023873457685112953,-0.07467527687549591,0.2535385489463806,0.2626264691352844,-0.2692294418811798,-0.01281182374805212,-0.29344698786735535,0.23244710266590118,-0.12295490503311157,-0.026438254863023758,-0.04689589887857437,-0.06561363488435745,0.0300951786339283,0.0251839030534029,0.1475534439086914,-0.07757612317800522,-0.06780032813549042,-0.23299112915992737,-0.036140915006399155,-0.0716898962855339,-0.019082188606262207],[-0.6333526372909546,-0.5007731914520264,-0.03721121326088905,-0.4454807937145233,0.14257100224494934,0.38593870401382446,-0.120987169444561,-0.0361325778067112,0.20975106954574585,-0.1731126457452774,0.3694799840450287,0.3111293911933899,-0.688747763633728,-0.1529545783996582,-0.13428646326065063,0.013123901560902596,0.14745169878005981,0.3823622465133667,0.1275886595249176,0.11778948456048965,0.11675485223531723,-0.07449772953987122,0.1404908001422882,-0.05281008407473564,0.01120250578969717,-0.3005109429359436,0.20902980864048004,-0.1606985181570053,-0.4213043749332428,-0.26864466071128845,-0.03105803206562996,-0.055539485067129135,0.36890462040901184,-0.3788033723831177,0.04188753664493561,0.06743175536394119,-0.015468297526240349,-0.19089624285697937,-0.12347356230020523,-0.3407197594642639,-0.5780017375946045,-0.20088623464107513,-0.40066197514533997,0.1302860826253891,0.0004409571993164718,0.28181254863739014,0.3745950162410736,-0.05708902329206467,0.22944624722003937,0.27597007155418396,-0.03836482763290405,0.04689823463559151,-0.1622297316789627,-0.28895315527915955,-0.0784866213798523,-0.1250326931476593,-0.26111969351768494,0.08283092826604843,-0.13250967860221863,0.061720672994852066,-0.033436160534620285,0.21566376090049744,0.1271909773349762,-0.021706268191337585,-0.1058754175901413],[0.02480584755539894,0.06236260011792183,0.10141351073980331,0.10857336968183517,-0.03667839616537094,-0.18101096153259277,-0.29279986023902893,-0.13435125350952148,0.3841363787651062,-0.21290339529514313,0.18708781898021698,-0.27337732911109924,-0.06853264570236206,-0.2640250325202942,0.22781993448734283,0.0639009103178978,0.24810823798179626,0.06445632129907608,0.014678473584353924,0.4759708642959595,0.1886892020702362,-0.20332764089107513,-0.2558915317058563,0.06188133731484413,-0.2264309972524643,-0.0542699471116066,-0.08081425726413727,-0.0042523350566625595,-0.07533196359872818,-0.12285900861024857,-0.10290861874818802,-0.28080233931541443,0.01914341188967228,0.22260862588882446,-0.1331121325492859,0.05478764697909355,-0.18926113843917847,-0.06344318389892578,-0.03134044632315636,-0.19626401364803314,-0.3373636305332184,-0.2405034303665161,0.2037847340106964,0.15337157249450684,0.003245002357289195,0.21187803149223328,0.05220251902937889,0.054104242473840714,-0.05707092210650444,-0.09308235347270966,0.19419047236442566,-0.01814994215965271,-0.07088478654623032,0.1602608561515808,0.10278965532779694,0.0865926519036293,-0.2965434789657593,-0.0007341536693274975,-0.010409657843410969,-0.16297440230846405,-0.08558076620101929,-0.37309756875038147,0.011151492595672607,0.1569603830575943,-0.26310163736343384],[-0.31769701838493347,0.2520972788333893,0.12284812331199646,0.12097413837909698,0.12832051515579224,0.1273343563079834,0.10042867809534073,-0.09995957463979721,-0.06974425911903381,0.019762462005019188,-0.1728924661874771,0.39360010623931885,0.3043772578239441,0.2538529634475708,0.21655678749084473,0.16693326830863953,-0.007455689832568169,-0.07247959822416306,0.26058337092399597,0.12203916907310486,-0.15240363776683807,0.11775679141283035,-0.09631532430648804,-0.1307929903268814,-0.022455871105194092,-0.2045830488204956,-0.01909554935991764,0.27208682894706726,0.10442584753036499,0.1388320028781891,0.14178749918937683,-0.037561580538749695,-0.2838200330734253,0.14288055896759033,0.01395313162356615,0.25024735927581787,-0.2803804576396942,0.37198030948638916,-0.07206596434116364,0.055005498230457306,-0.5210550427436829,-0.04035882279276848,-0.1465235948562622,0.03739044442772865,0.11573261767625809,-0.14537784457206726,0.0911930501461029,-0.14723502099514008,-0.016333652660250664,-0.2585929334163666,0.23400822281837463,0.2875106930732727,0.05367720127105713,-0.013641191646456718,-0.14251914620399475,0.12656433880329132,-0.15178507566452026,0.08125495165586472,-0.15937338769435883,-0.1932717263698578,-0.1949906349182129,0.10790692269802094,-0.15689565241336823,-0.4193452000617981,0.16588228940963745],[0.44246020913124084,-0.1699932962656021,-0.055329613387584686,0.21671152114868164,-0.10527677088975906,-0.024037785828113556,-0.22347421944141388,0.15845927596092224,0.2874181568622589,0.055813226848840714,0.0344461128115654,-0.3450702428817749,0.050934337079524994,0.18009944260120392,-0.17871759831905365,0.14117324352264404,-0.14340946078300476,0.1888604611158371,-0.06803194433450699,0.12157068401575089,-0.28157874941825867,0.0894499346613884,-0.022330865263938904,-0.1387246996164322,0.3174816370010376,-0.04791567102074623,0.34912949800491333,-0.05414629727602005,-0.05123516172170639,0.09001874178647995,-0.283521831035614,-0.022274645045399666,0.27129602432250977,-0.05848052352666855,-0.0131666986271739,0.02511592209339142,0.39955228567123413,0.18781831860542297,0.32668936252593994,0.29647985100746155,0.04340296611189842,-0.06806021928787231,-0.12877114117145538,-0.1834976226091385,0.23710490763187408,0.03245893493294716,-0.14921465516090393,-0.1906680166721344,0.1558225303888321,-0.22847311198711395,0.28315648436546326,0.16932828724384308,0.19734324514865875,0.00176216010004282,0.16429457068443298,-0.14896108210086823,0.2291586846113205,0.09522596746683121,-0.026438329368829727,-0.20291228592395782,0.0941777303814888,-0.17871856689453125,0.09032775461673737,0.10958264023065567,0.023868532851338387],[-0.12266096472740173,-0.08966151624917984,-0.33304834365844727,0.1062357947230339,0.01727410778403282,0.12459322065114975,-0.10725607722997665,-0.5904865860939026,-0.07132862508296967,0.15113022923469543,0.137503981590271,0.2812008559703827,-0.25356557965278625,0.05515386164188385,-0.11887010186910629,-0.09382491558790207,0.14744123816490173,-0.32345372438430786,-0.41731542348861694,0.06597792357206345,0.06130422279238701,0.06479556858539581,-0.275433748960495,0.19727271795272827,-0.204225555062294,-0.07228827476501465,0.19231484830379486,0.23182135820388794,-0.11945388466119766,-0.2778918445110321,0.0021882483270019293,0.24980728328227997,-0.06063045561313629,0.21951310336589813,0.05106598883867264,0.05499226972460747,0.07235461473464966,-0.06926760077476501,-0.1595427542924881,0.23723170161247253,-0.17571507394313812,0.0162019282579422,0.03904113546013832,0.0971335843205452,0.10553406924009323,0.06279060244560242,-0.00939476303756237,-0.08438802510499954,0.08729381114244461,-0.03197822347283363,-0.09447930753231049,0.2040792554616928,0.23378309607505798,-0.056813862174749374,-0.06701363623142242,-0.14077672362327576,-0.234263613820076,0.026041069999337196,-0.012911178171634674,0.11732394993305206,-0.19827361404895782,0.003467204747721553,0.2413889467716217,0.2683663070201874,0.08682046085596085],[0.035071853548288345,0.23184305429458618,0.0724433958530426,-0.17312321066856384,-0.26973655819892883,-0.04398507997393608,0.028119539842009544,0.07888283580541611,-0.5236795544624329,-0.3672451972961426,-0.08604227751493454,0.26115837693214417,-0.20954984426498413,0.1768317073583603,0.12315910309553146,-0.24581722915172577,0.08593760430812836,-0.014298787340521812,-0.011431075632572174,-0.19471120834350586,0.028357263654470444,0.059374310076236725,0.032579027116298676,0.10301056504249573,-0.04392001032829285,-0.3709133267402649,0.10175848752260208,-0.18610720336437225,0.13097113370895386,0.07588081806898117,-0.0030869990587234497,0.2236984521150589,-0.08102001249790192,0.1199413388967514,0.21921688318252563,0.02291591838002205,0.15275119245052338,-0.047305889427661896,0.15787124633789062,0.20956435799598694,-0.3353351056575775,0.06167098507285118,0.01078788097947836,0.30757197737693787,0.356272429227829,0.13042500615119934,-0.436753511428833,-0.2185041308403015,-0.20805081725120544,0.15354354679584503,0.19146746397018433,-0.2513449490070343,-0.09311697632074356,-0.00872920174151659,-0.2878433167934418,0.13563953340053558,-0.22307389974594116,-0.025536729022860527,0.014239505864679813,0.05166146159172058,-0.09772985428571701,-0.1850651353597641,0.14201928675174713,-0.11213826388120651,0.0016424405621364713],[0.10476941615343094,-0.6616339087486267,-0.004440187010914087,-0.10169314593076706,0.03296845406293869,0.01251593604683876,-0.03903582692146301,0.03276287391781807,0.31268730759620667,0.2159172147512436,-0.03550790622830391,-0.1360689103603363,-0.08651109039783478,-0.14589646458625793,-0.044326286762952805,0.0894792377948761,-0.017759356647729874,0.17146898806095123,0.15647104382514954,0.44116586446762085,-0.17384667694568634,0.020015941932797432,-0.06577382236719131,-0.30648332834243774,0.05620863288640976,-0.10150979459285736,-0.2420421540737152,0.22612255811691284,0.052272021770477295,-0.18330378830432892,0.26059767603874207,0.03399856761097908,-0.2068939208984375,-0.04290420934557915,0.07046379148960114,-0.12055090069770813,0.2224673330783844,-0.05512774735689163,-0.011099366471171379,-0.09258946031332016,0.13552652299404144,-0.1076042503118515,0.21019108593463898,0.22710077464580536,-0.020728744566440582,0.2832750976085663,0.00534088397398591,-0.22550666332244873,-0.40347087383270264,-0.05442330986261368,-0.041210729628801346,-0.34784233570098877,0.33482682704925537,-0.10117742419242859,0.10380048304796219,-0.08548419922590256,0.14976991713047028,-0.2072117030620575,-0.19157148897647858,0.2119201123714447,0.17370755970478058,-0.03041328489780426,0.010896076448261738,-0.061536967754364014,-0.2196790874004364],[0.03260278329253197,0.30869823694229126,-0.1561272144317627,0.22259221971035004,-0.01910075917840004,0.11150029301643372,0.01498951856046915,0.04187462106347084,-0.29564106464385986,0.026852572336792946,0.27463170886039734,0.11672302335500717,-0.10863565653562546,0.06709636002779007,-0.05514928326010704,-0.37845250964164734,0.16169491410255432,-0.44142720103263855,-0.04506848379969597,0.09763120114803314,-0.1589047759771347,-0.051680635660886765,0.19308657944202423,-0.05924070253968239,0.24399031698703766,-0.021909428760409355,0.4265090227127075,-0.20860624313354492,-0.13569869101047516,0.093685083091259,0.23536242544651031,0.0718974769115448,-0.13432137668132782,0.14156736433506012,-0.3164108395576477,-0.10093311965465546,0.1699494570493698,-0.14219221472740173,-0.01021517626941204,-0.11176487803459167,-0.3590121269226074,-0.00821596197783947,0.2887360155582428,-0.3084469735622406,-0.11227722465991974,0.2937813699245453,-0.060948409140110016,0.05369594320654869,-0.1446850597858429,-0.09410937875509262,0.03088008053600788,0.12209232896566391,-0.3460526466369629,-0.2954486608505249,-0.16379468142986298,-0.03196752816438675,-0.3235912024974823,-0.07251513749361038,-0.21136046946048737,-0.05845287814736366,0.15523283183574677,0.109971784055233,-0.21944382786750793,-0.2070816457271576,-0.12031888216733932],[-0.2449047565460205,0.466056764125824,-0.19778481125831604,-0.21607042849063873,0.13867147266864777,0.10326065123081207,-0.1273476630449295,0.22926853597164154,-0.58780437707901,0.27491310238838196,0.2101389765739441,0.12293039262294769,0.21443654596805573,0.0005076666711829603,-0.1995110958814621,-0.25695058703422546,-0.1353117972612381,-0.1686314344406128,0.023251350969076157,0.07977351546287537,0.03923645615577698,0.21416985988616943,0.29445338249206543,0.14713691174983978,0.001995881786569953,-0.040447358042001724,0.042069725692272186,0.06238289922475815,-0.03822917118668556,0.02261916548013687,0.08316616714000702,-0.018526699393987656,0.14582523703575134,-0.266757607460022,0.020136170089244843,0.208175927400589,-0.26813414692878723,-0.34660595655441284,-0.23369142413139343,-0.12084133923053741,-0.437307745218277,-0.1328907161951065,0.16551195085048676,-0.12452910840511322,0.20879246294498444,-0.20054122805595398,-0.10726021975278854,-0.27461981773376465,-0.11910904198884964,-0.13799422979354858,0.10545085370540619,-0.25555065274238586,-0.017631895840168,-0.026567522436380386,0.1737033575773239,-0.19804641604423523,-0.07357267290353775,0.0635262057185173,-0.10016973316669464,-0.07693912833929062,-0.3781566023826599,-0.13715548813343048,-0.044920239597558975,0.33801135420799255,-0.05417879298329353],[0.07279327511787415,-0.6128280162811279,-0.051093634217977524,-0.5311754941940308,0.14552569389343262,0.09307409077882767,0.11844893544912338,-0.11280477046966553,0.13625633716583252,0.10529736429452896,0.26016703248023987,-0.35247471928596497,0.09811423718929291,-0.17990784347057343,0.15980954468250275,-0.1044669896364212,-0.049230821430683136,0.12430161237716675,0.21829290688037872,-0.045144740492105484,0.2336074709892273,0.0098717687651515,0.10284698009490967,-0.08285649120807648,0.06850352138280869,0.10749153047800064,0.32909393310546875,-0.026850782334804535,-0.010505413636565208,0.04745527729392052,0.12508459389209747,0.14685294032096863,0.2344599813222885,0.34177833795547485,0.011958004906773567,-0.21539948880672455,0.18061944842338562,-0.040461473166942596,-0.1360047608613968,-0.17388339340686798,-0.15062439441680908,0.09910664707422256,0.14174984395503998,0.23420271277427673,0.22043348848819733,0.08195912092924118,-0.07567872107028961,0.027392925694584846,0.3922369182109833,-0.04588523134589195,-0.006171248387545347,0.2256532907485962,-0.12719205021858215,0.17926324903964996,0.3359268307685852,0.22472530603408813,0.30466026067733765,-0.13202059268951416,-0.059948332607746124,-0.07196933776140213,-0.23970788717269897,0.0688909962773323,0.20210053026676178,-0.19381451606750488,-0.07599703222513199],[-0.19270606338977814,0.1419619470834732,0.10704550892114639,0.02733638882637024,0.08201512694358826,0.08914011716842651,-0.08286942541599274,-0.04643164575099945,-0.530910074710846,-0.0813179761171341,-0.12979814410209656,0.15958617627620697,-0.277750164270401,0.03559507429599762,0.22555792331695557,-0.012946411967277527,0.08602184802293777,-0.3616155982017517,-0.07491981983184814,0.2038877159357071,-0.11407744139432907,-0.06737814843654633,0.18601156771183014,0.17406588792800903,-0.3918980062007904,0.2352750152349472,0.24180622398853302,-0.10116098821163177,-0.057292260229587555,0.21663175523281097,0.0693252831697464,-0.2637416124343872,0.07988838851451874,-0.023332376033067703,0.0587824210524559,0.20737923681735992,0.161195307970047,0.18744227290153503,-0.07556024938821793,0.35754480957984924,0.2557043433189392,-0.30104538798332214,-0.0572897344827652,0.019053276628255844,0.14868687093257904,-0.17654776573181152,0.15354132652282715,0.05845092236995697,-0.3252492845058441,0.3267955183982849,0.01951787993311882,0.06909327954053879,-0.01578744314610958,0.11195728927850723,0.20087474584579468,-0.19149327278137207,-0.024879302829504013,-0.11747157573699951,-0.16637183725833893,-0.327688604593277,0.008327231742441654,-0.01104065217077732,-0.06752035766839981,-0.27943024039268494,0.05383941903710365],[0.32026663422584534,-0.05625638738274574,-0.22559547424316406,-0.138067826628685,0.2849290072917938,0.04427891969680786,-0.0390462800860405,-0.2024889588356018,0.40995341539382935,0.05117269232869148,-0.533947229385376,-0.07840915769338608,0.47425970435142517,0.11668191105127335,0.1005803570151329,-0.06444097310304642,0.044126756489276886,0.22595292329788208,0.08228232711553574,-0.0004582794208545238,-0.10495895892381668,-0.03797188773751259,-0.18257524073123932,-0.1879654824733734,0.21787801384925842,0.24490906298160553,-0.14801400899887085,-0.08974584192037582,0.07337302714586258,-0.01529335044324398,-0.17672987282276154,0.07825301587581635,-0.04194014146924019,-0.06700941175222397,-0.21003125607967377,0.13092508912086487,-0.026884278282523155,0.3145657181739807,0.09486941993236542,0.12745869159698486,0.6052840352058411,0.13531380891799927,0.009354566223919392,-0.06935841590166092,0.07742824405431747,0.2347147911787033,0.06481019407510757,0.052037667483091354,-0.216526597738266,0.011408617720007896,0.1262425184249878,-0.05629173666238785,-0.4403092563152313,-0.2394324094057083,0.25703397393226624,0.07710117101669312,-0.009838427416980267,-0.27243950963020325,0.22188952565193176,0.07412592321634293,-0.09628507494926453,-0.3122641146183014,0.21340729296207428,0.050737254321575165,0.03892729803919792],[-0.0706629604101181,0.25852927565574646,0.2799425423145294,0.18610812723636627,-0.15504205226898193,0.18070325255393982,-0.257839560508728,-0.12771515548229218,-0.421212762594223,0.19371896982192993,0.045931823551654816,0.3649922013282776,-0.07793288677930832,-0.10172215104103088,-0.07052384316921234,-0.18094636499881744,0.4597107768058777,0.06641671806573868,0.20437580347061157,0.28104716539382935,-0.14004361629486084,-0.24739809334278107,0.07727557420730591,-0.09568271785974503,0.28100571036338806,-0.11066243797540665,-0.016305070370435715,0.0624404139816761,-0.06516609340906143,0.1428801715373993,-0.016344333067536354,0.1334196776151657,0.053942181169986725,0.008707757107913494,0.07575085759162903,-0.3158293664455414,0.03744206205010414,-0.011541416868567467,-0.037458471953868866,-0.13591322302818298,-0.005688962992280722,0.24631336331367493,-0.08312418311834335,-0.11979089677333832,-0.025990387424826622,-0.029665445908904076,0.13795386254787445,-0.037941694259643555,0.11581795662641525,0.13129903376102448,-0.1561281979084015,-0.10303311794996262,0.1595744639635086,0.2378719002008438,-0.14077192544937134,-0.12272956967353821,-0.0023247848730534315,-0.13953712582588196,0.2546989619731903,-0.21871089935302734,-0.3423346281051636,-0.3593416213989258,-0.041235532611608505,-0.12855836749076843,0.2235482931137085],[-0.5725678205490112,0.19640156626701355,0.11440014094114304,-0.19679485261440277,-0.02538398467004299,-0.10615728795528412,-0.10859762132167816,-0.031272683292627335,-0.5299612879753113,0.04760006070137024,0.2834450304508209,0.1684311181306839,-0.13258425891399384,0.04918241128325462,0.10495146363973618,-0.03885112702846527,-0.238397017121315,-0.44014772772789,-0.17853550612926483,0.1871153712272644,0.06009969860315323,0.22226490080356598,-0.12416643649339676,0.155351459980011,0.030963219702243805,-0.5123280882835388,-0.20462889969348907,0.19981221854686737,-0.12915965914726257,-0.03500998020172119,-0.19327935576438904,-0.14321255683898926,-0.019241010770201683,-0.15098941326141357,0.07757795602083206,-0.11817003786563873,0.30827122926712036,0.05612349510192871,-0.3031802475452423,0.042838215827941895,-0.3752346634864807,-0.08633235841989517,0.015646491199731827,0.04467250406742096,-0.4202932119369507,0.15800368785858154,0.11010511219501495,-0.2794446349143982,0.18303793668746948,0.011925929225981236,0.019709253683686256,0.026559358462691307,-0.3450062572956085,-0.1925433725118637,-0.20106835663318634,0.052898723632097244,0.031932707875967026,-0.12103769928216934,0.050162460654973984,-0.2341870665550232,0.07003990560770035,-0.11953017860651016,0.13201157748699188,0.023747291415929794,0.2285982221364975],[-0.03629368171095848,0.22380873560905457,-0.10621189326047897,-0.2284655123949051,-0.15167099237442017,0.1369912475347519,-0.2841920256614685,-0.1809607893228531,-0.44493043422698975,-0.216267392039299,0.055609479546546936,0.3723064363002777,0.04401777684688568,-0.1395450085401535,0.007335845846682787,0.15669026970863342,-0.06535951793193817,-0.24146530032157898,0.11373075842857361,0.14096496999263763,0.05886591225862503,0.195701003074646,-0.17553569376468658,0.0189193245023489,0.002340206177905202,0.17517885565757751,0.03902033343911171,0.05332144349813461,0.08068383485078812,0.1979481428861618,0.09424380213022232,0.06026366725564003,0.3168545663356781,0.20902754366397858,-0.08855892717838287,-0.15719930827617645,-0.06392613053321838,0.20523296296596527,0.27153363823890686,-0.00623344024643302,-0.16029083728790283,0.06779789179563522,0.0026192974764853716,-0.05095861107110977,0.24222514033317566,0.08696529269218445,0.14983110129833221,-0.11185874044895172,-0.15098510682582855,-0.11849694699048996,-0.1752566397190094,-0.02334623783826828,-0.11928893625736237,0.0345015674829483,-0.21695229411125183,0.18260642886161804,0.3243565857410431,0.059585221111774445,-0.03438377007842064,-0.022880420088768005,0.20150695741176605,0.17252397537231445,-0.35220253467559814,0.35207024216651917,-0.08754202723503113],[-0.5774661302566528,0.351337194442749,0.03726396709680557,-0.14957161247730255,-0.1204935610294342,0.02390233241021633,0.0668618455529213,-0.009664447978138924,-0.2691452205181122,0.15107229351997375,-0.2586681842803955,0.23792031407356262,-0.38531890511512756,0.16262997686862946,0.22157086431980133,-0.00041813935968093574,0.14191004633903503,-0.07710428535938263,-0.04282982647418976,-0.015971263870596886,-0.20192383229732513,0.07170113921165466,-0.1603991836309433,0.20115363597869873,0.08812163025140762,0.11858644336462021,0.0720921978354454,0.09659025073051453,-0.665582537651062,-0.090449757874012,-0.10529415309429169,0.29728224873542786,-0.01727934181690216,0.055682092905044556,0.0349862165749073,0.007530638482421637,-0.027777548879384995,-0.3458036482334137,-0.18611669540405273,0.05598413571715355,-0.15482589602470398,-0.05552353337407112,0.05804191902279854,-0.0016480961348861456,0.33197611570358276,-0.04871007055044174,0.2648804187774658,-0.18133412301540375,0.20701268315315247,-0.19991417229175568,-0.036982908844947815,-0.21465840935707092,-0.12974005937576294,-0.10512304306030273,-0.03909114748239517,0.059892766177654266,0.07023534178733826,0.1741633415222168,-0.02947317063808441,-0.03238316997885704,0.19025804102420807,-0.1153423860669136,-0.08070221543312073,-0.14590828120708466,-0.3124631941318512],[-0.4234345853328705,0.2650271952152252,-0.2926013767719269,0.13004325330257416,-0.08458743989467621,0.14480069279670715,0.09687267988920212,0.14205646514892578,-0.03432275727391243,-0.3680964410305023,-0.11129426211118698,0.15240192413330078,0.2108929604291916,-0.009293724782764912,-0.1287802904844284,0.07494369149208069,0.2899657189846039,0.1128123477101326,0.02732362039387226,0.06299945712089539,0.08401395380496979,-0.14666660130023956,-0.01889280416071415,0.08915624767541885,0.04967948794364929,-0.020382123067975044,0.09952940791845322,0.18537352979183197,0.1105838268995285,0.18917027115821838,-0.024216674268245697,0.08435472846031189,-0.03839246183633804,0.2792997360229492,0.23116067051887512,-0.16673089563846588,0.05856388062238693,0.15098632872104645,-0.1245473101735115,0.4151827096939087,-0.33120450377464294,-0.26848894357681274,0.27025023102760315,-0.21929094195365906,-0.23196643590927124,-0.08236938714981079,-0.040547315031290054,0.009030303917825222,0.10366552323102951,0.6313154101371765,0.18328149616718292,-0.14924602210521698,0.11324221640825272,-0.22262747585773468,0.024719873443245888,0.12007671594619751,0.172429621219635,0.12998579442501068,0.1278911978006363,-0.08415120095014572,0.045538466423749924,-0.03713582456111908,0.014185993000864983,0.06432194262742996,-0.2134043574333191],[0.27059149742126465,-0.36765575408935547,-0.04333091527223587,0.10311175882816315,0.07712257653474808,-0.10152661800384521,0.2234298586845398,-0.03430426865816116,-0.08679414540529251,0.09957355260848999,-0.25889822840690613,-0.37727317214012146,-0.2727908492088318,-0.059879280626773834,-0.3506598472595215,0.058202192187309265,-0.08001236617565155,0.3045895993709564,-0.07268286496400833,0.2658810317516327,-0.02847384102642536,-0.012212864123284817,-0.0631483867764473,0.1454499512910843,-0.23900634050369263,0.08496061712503433,0.08727233111858368,0.011938315816223621,0.04631396755576134,-0.2378411889076233,0.10648427158594131,-0.14488472044467926,-0.3524177372455597,-0.018692295998334885,0.15028920769691467,-0.2098216414451599,-0.3070340156555176,0.03594373166561127,0.0742182806134224,-0.07695849239826202,-0.018936479464173317,0.1787112057209015,-0.258465975522995,-0.04946987330913544,0.055747728794813156,0.41203275322914124,0.12108282744884491,-0.12817542254924774,-0.010439043864607811,0.21833738684654236,-0.037860769778490067,0.18809263408184052,-0.369945764541626,0.05990831181406975,-0.05677792429924011,-0.0822436660528183,0.1866689920425415,0.25885528326034546,0.06741589307785034,0.005240672267973423,-0.10263018310070038,-0.15294256806373596,-0.030754469335079193,0.09697320312261581,-0.09092125296592712],[-0.01802028715610504,0.39546653628349304,0.010241478681564331,0.23397566378116608,0.16470898687839508,-0.17525729537010193,0.08212939649820328,0.15863868594169617,-0.38514605164527893,-0.32622355222702026,-0.1563299000263214,0.10088327527046204,-0.17173506319522858,-0.05646566301584244,-0.11320663243532181,0.15413448214530945,0.11512412875890732,0.03441319242119789,-0.10414964705705643,-0.04309433698654175,-0.12764069437980652,-0.03803480416536331,0.20491771399974823,0.14857600629329681,0.24199795722961426,-0.07948300987482071,0.13535837829113007,0.4180662930011749,0.01570810191333294,0.13776355981826782,0.04055967181921005,-0.049653347581624985,0.43282973766326904,0.1029009148478508,0.15803483128547668,-0.16226302087306976,-0.2658447027206421,0.21295934915542603,0.03514176607131958,0.09147538244724274,0.18936391174793243,0.02062792330980301,0.2701921761035919,0.01143653690814972,-0.07923323661088943,0.18919514119625092,0.013873840682208538,0.071319580078125,-0.20723272860050201,-0.3494788706302643,-0.2795894145965576,-0.19254331290721893,-0.012513933703303337,0.1430175006389618,0.1953021138906479,0.25263291597366333,-0.30425700545310974,0.1083606407046318,-0.07331927120685577,-0.11256973445415497,0.07984907925128937,0.13992996513843536,0.4006800353527069,-0.028180209919810295,0.1346682757139206],[-0.7325630187988281,-0.19476854801177979,0.32147732377052307,-0.017879245802760124,-0.002194793662056327,-0.19903552532196045,-0.09162407368421555,-0.12705098092556,-0.11924491822719574,-0.03997492417693138,0.033528391271829605,0.18185833096504211,0.016841141507029533,0.1678009033203125,-0.09442656487226486,0.018868429586291313,-0.45775604248046875,0.2262304127216339,-0.0965784415602684,0.046062301844358444,-0.19906200468540192,-0.20207397639751434,-0.012718481943011284,0.027990544214844704,-0.04211343824863434,-0.10063397139310837,0.13796758651733398,-0.15131141245365143,0.13336099684238434,-0.07895294576883316,0.22132401168346405,0.13344240188598633,0.021905191242694855,0.24455398321151733,-0.14443691074848175,-0.39968201518058777,-0.10134050995111465,0.05153980478644371,-0.2427712231874466,-0.009821439161896706,-0.21046599745750427,-0.1446320116519928,0.05321090295910835,-0.2608741521835327,0.18493050336837769,-0.11870893090963364,-0.11600354313850403,0.10910318046808243,-0.1681230515241623,-0.030372006818652153,-0.009345914237201214,0.07594354450702667,-0.03640240430831909,-0.09070950746536255,0.1158841997385025,-0.16919898986816406,-0.16665874421596527,0.06919391453266144,0.09501883387565613,0.12291301041841507,0.06257174909114838,-0.23693795502185822,-0.05989600345492363,0.04784614220261574,0.15126122534275055],[0.1722000688314438,-0.25164082646369934,0.3789224624633789,0.04302423447370529,0.140730619430542,-0.017062170431017876,0.024362627416849136,0.14437100291252136,0.513548731803894,0.05447915941476822,0.07618363946676254,-0.2144276350736618,-0.26859772205352783,-0.5050759315490723,0.13018283247947693,-0.09918392449617386,-0.21856990456581116,-0.17497318983078003,-0.12070557475090027,-0.01760573498904705,0.2541259527206421,0.020830020308494568,-0.04602077603340149,-0.2508108615875244,0.15994612872600555,-0.05567779019474983,0.016286779195070267,0.1439954787492752,0.02514062076807022,0.13004650175571442,0.07017331570386887,0.05390891432762146,-0.011559605598449707,0.2116246074438095,0.161507710814476,0.14230148494243622,-0.20298299193382263,-0.0033592483960092068,0.31574055552482605,0.05056465044617653,0.5732809901237488,-0.1426043063402176,-0.12309962511062622,-0.22751931846141815,0.026873042806982994,0.10722329467535019,0.05550374463200569,-0.21912279725074768,0.0647752583026886,0.07195322960615158,0.06010938808321953,-0.036335479468107224,-0.03658788278698921,-0.22913433611392975,0.034532178193330765,0.18057195842266083,0.04356958344578743,0.31000378727912903,-0.09369141608476639,0.33024948835372925,-0.29320091009140015,-0.26763153076171875,-0.03683270141482353,-0.022733286023139954,-0.0037225226406008005],[-0.4977319538593292,0.2909843921661377,0.27067437767982483,-0.2649758756160736,0.027034075930714607,0.062163639813661575,-0.10422598570585251,-0.3164351284503937,-0.12167403101921082,0.07992954552173615,-0.020038539543747902,0.06266561895608902,-0.33439815044403076,0.026900071650743484,-0.20353727042675018,0.2943893373012543,0.047910794615745544,-0.22395673394203186,0.3809342086315155,0.0438784621655941,-0.2602968215942383,0.03527688980102539,0.44589436054229736,0.14540612697601318,-0.03871079161763191,0.19991710782051086,0.10492085665464401,-0.16285015642642975,0.12956871092319489,0.09510812908411026,-0.2453501969575882,-0.03941955789923668,-0.031406816095113754,-0.0070109241642057896,0.23950351774692535,0.16834194958209991,0.049553900957107544,-0.008310500532388687,-0.03821776062250137,0.17304739356040955,-0.21304595470428467,0.24727533757686615,0.45759761333465576,-0.09553038328886032,-0.16636815667152405,0.14411146938800812,-0.1715872436761856,-0.26771873235702515,0.20119065046310425,0.03557315841317177,-0.06779148429632187,0.09422972053289413,0.03358948603272438,0.03935587778687477,-0.10524065792560577,0.004159290809184313,-0.2221563458442688,0.0382985882461071,-0.0013798289000988007,0.29570186138153076,0.09355290234088898,-0.03817753493785858,0.012444968335330486,0.016983263194561005,-0.009011195972561836],[-0.09323571622371674,0.26881200075149536,-0.36712154746055603,-0.143163800239563,0.1992085874080658,-0.2755049765110016,0.07981937378644943,-0.3176701068878174,-0.2896548807621002,-0.04591475427150726,0.07391008734703064,0.22309738397598267,-0.3719172775745392,0.02695178985595703,0.33311107754707336,-0.26854103803634644,0.19996172189712524,0.036299366503953934,0.11985273659229279,-0.2344730943441391,-0.0060703568160533905,-0.06813657283782959,-0.08651397377252579,-0.009534252807497978,-0.17169365286827087,-0.06626302003860474,0.03693937882781029,0.19186079502105713,0.0467122420668602,0.3394373953342438,0.11552503705024719,-0.016828622668981552,0.11005035042762756,-0.19215992093086243,0.051323242485523224,-0.03624074161052704,-0.06922613829374313,-0.04007091745734215,-0.04099476709961891,-0.052000220865011215,-0.5121670365333557,-0.19170857965946198,-0.110720694065094,-0.5077730417251587,-0.13432151079177856,0.0014386845286935568,-0.11625315994024277,-0.3905249536037445,-0.0945289134979248,-0.09111297875642776,-0.1305040866136551,0.08798521757125854,0.12677881121635437,0.12247123569250107,0.11018604785203934,-0.11453727632761002,0.11212842911481857,-0.08080743998289108,0.2226252257823944,0.1716897189617157,0.2048981636762619,-0.12701252102851868,-0.00123169319704175,-0.18611359596252441,0.16245830059051514],[-0.4865345358848572,0.20891734957695007,0.28093385696411133,-0.441424161195755,-0.029798928648233414,0.07209191471338272,-0.07981624454259872,0.15653099119663239,-0.4026254117488861,-0.03641532361507416,0.0012221263023093343,0.5018553137779236,-0.5375806093215942,-0.11566504836082458,-0.3180401921272278,0.015568713657557964,0.2144455462694168,-0.16259434819221497,-0.1564803272485733,0.09775280207395554,0.012037428095936775,0.022202925756573677,-0.26553261280059814,0.1673993617296219,-0.0028633775655180216,-0.08549469709396362,0.2880556583404541,-0.017062770202755928,0.022332169115543365,0.05794390290975571,-0.09752178937196732,0.1115788072347641,-0.3458744287490845,0.0019705360755324364,-0.22961699962615967,0.2069978415966034,0.16892924904823303,0.13208743929862976,0.04753461480140686,-0.03491951525211334,-0.6007429361343384,-0.17334973812103271,-0.19200986623764038,-0.17727909982204437,-0.1666136384010315,-0.1900608390569687,-0.028711719438433647,0.307979941368103,0.03743309527635574,-0.15285849571228027,-0.13007792830467224,-0.20707066357135773,-0.04690264165401459,0.10155656933784485,0.15374328196048737,0.013741821981966496,-0.10202204436063766,-0.14015547931194305,0.16131922602653503,0.13081809878349304,-0.05574578419327736,0.040758922696113586,0.14139948785305023,-0.039231784641742706,-0.15624816715717316],[-0.11961505562067032,-0.14769446849822998,-0.2196185439825058,0.13024142384529114,-0.08624541759490967,0.29797565937042236,0.22407004237174988,-0.2026371955871582,0.12050535529851913,-0.07988324016332626,-0.14752545952796936,0.10023301839828491,-0.532949686050415,-0.09890970587730408,0.06439520418643951,-0.03603721782565117,-0.23366931080818176,0.1736239194869995,0.2570953965187073,0.15894931554794312,-0.03592593967914581,-0.37482979893684387,0.01488968450576067,0.37931936979293823,0.08362996578216553,-0.06184961646795273,0.21666671335697174,0.08714362233877182,-0.1108970046043396,0.2687152028083801,-0.568823516368866,-0.44952064752578735,-0.33597537875175476,0.29317930340766907,-0.024290675297379494,-0.09070253372192383,0.147059366106987,-0.14224685728549957,-0.1802815943956375,-0.3486914038658142,-0.006074521690607071,-0.1880539059638977,-0.0986081063747406,-0.07137856632471085,-0.03471510857343674,-0.15835066139698029,-0.09068021923303604,-0.08732957392930984,-0.15632003545761108,-0.028974046930670738,-0.042663633823394775,-0.04602179676294327,-0.07693925499916077,-0.06523429602384567,-0.11446349322795868,0.14974601566791534,-0.10693738609552383,-0.15490302443504333,-0.01050313375890255,0.04904412105679512,-0.09567397087812424,0.029053544625639915,0.044754695147275925,0.18608088791370392,-0.05505284667015076],[-0.030016232281923294,-0.14488744735717773,-0.1399572342634201,0.03638821467757225,0.10379853844642639,-0.11127353459596634,-0.352378785610199,0.04410902410745621,0.39216652512550354,0.3684844672679901,0.10279408097267151,-0.2815319895744324,0.3895350694656372,-0.31015685200691223,-0.08390089869499207,-0.17105387151241302,-0.14837180078029633,0.0888800397515297,0.09822891652584076,-0.06692175567150116,0.07197537273168564,-0.1947222352027893,0.14074477553367615,0.12519313395023346,0.008742496371269226,0.2765022814273834,0.13898804783821106,0.2105950266122818,-0.24884113669395447,-0.16868698596954346,-0.10661260038614273,0.18264636397361755,-0.041467562317848206,0.16992151737213135,0.26025351881980896,-0.08376038074493408,-0.24233026802539825,0.24255819618701935,0.3158843517303467,0.04043330252170563,0.05547870323061943,-0.030551550909876823,-0.427316814661026,0.09164198487997055,-0.09199316054582596,-0.010967163369059563,-0.33488714694976807,0.05047507584095001,-0.06725499778985977,0.05830707401037216,-0.0372634194791317,-0.1636081039905548,-0.12465278804302216,0.12746866047382355,-0.2667555510997772,-0.10802891105413437,0.05002967268228531,-0.13623201847076416,-0.29313766956329346,-0.08654852211475372,0.23226378858089447,-0.007384359836578369,0.18824830651283264,-0.1520974487066269,-0.007605451624840498],[-0.2805309295654297,0.39207369089126587,0.019332364201545715,0.44054529070854187,0.1864977777004242,0.1573844999074936,-0.16439113020896912,-0.06327475607395172,-0.32906946539878845,-0.14721651375293732,0.27037766575813293,0.09109356999397278,-0.17437323927879333,-0.04025424271821976,-0.35015755891799927,0.27435600757598877,0.07347994297742844,-0.06483951956033707,0.2615909278392792,-0.2806621789932251,0.17091836035251617,0.02364063821732998,-0.034205321222543716,0.04153066501021385,-0.2900286614894867,-0.04675601050257683,-0.30994150042533875,0.1274733990430832,-0.16731558740139008,0.21848148107528687,0.0992375984787941,0.11668731272220612,-0.19050933420658112,0.21328994631767273,-0.17426973581314087,0.009030046872794628,0.26582014560699463,-0.04245057702064514,0.20112362504005432,-0.027775775641202927,-0.1406642347574234,0.04760316014289856,0.0266993697732687,0.034183353185653687,0.20331406593322754,-0.007564214523881674,-0.10154203325510025,-0.2591652274131775,-0.04025902599096298,-0.07206553220748901,0.09512459486722946,-0.14933636784553528,-0.29547151923179626,-0.1459856629371643,0.4139305651187897,-0.2142632156610489,-0.04262454807758331,-0.043108079582452774,0.24642571806907654,-0.050856929272413254,-0.018377024680376053,0.1925518959760666,-0.033059634268283844,-0.12883110344409943,0.09996967762708664]],"bias":[-0.029555823653936386,-0.032817061990499496,0.007438924163579941,0.05260435864329338,0.00434910599142313,-0.05608151853084564,0.017450623214244843,0.010674720630049706,0.02312382124364376,0.0234892126172781,-0.08753517270088196,0.0033333732280880213,0.04680807515978813,0.021763991564512253,0.04624805226922035,0.060126595199108124,0.03914274275302887,0.07928082346916199,0.022438567131757736,-0.04963865876197815,0.040525272488594055,0.02666928805410862,-0.03328981623053551,-0.09491634368896484,-0.03537943214178085,-0.0440133661031723,-0.04198474436998367,0.00842950027436018,0.04852817580103874,0.10175295919179916,-0.04005340486764908,0.017270032316446304,-0.025241807103157043,-0.006309519521892071,-0.007568234112113714,0.006184622645378113,0.06402555108070374,0.0053227865137159824,0.009060823358595371,-0.07449746131896973,0.01445301529020071,-0.013994673267006874,0.03774924576282501,-0.03918583691120148,-0.012413927353918552,-0.04131260886788368,0.025435375049710274,0.011576619930565357,-0.006904715672135353,0.009454682469367981,-0.03665485978126526,0.006265804171562195,0.013131820596754551,-0.004498947411775589,-0.055249329656362534,0.026842469349503517,0.028648054227232933,0.03292249143123627,0.025127718225121498,0.004484142176806927,-0.07354665547609329,0.0020160889253020287,0.01685393415391445,0.036294352263212204]},{"weight":[[-0.05705900490283966,-0.36076319217681885,-0.16188931465148926,-0.19226445257663727,0.14019307494163513,-0.4802398681640625,-0.4460059404373169,0.273523211479187,0.20014941692352295,-0.5277578234672546,0.09401984512805939,0.20229209959506989,0.1057933047413826,-0.2097451388835907,0.3259440064430237,-0.16806316375732422,-0.06566847860813141,0.39916715025901794,-0.21663391590118408,0.3379487097263336,0.27829089760780334,-0.21064643561840057,-0.26044762134552,0.04622380807995796,-0.12444474548101425,-0.12450417876243591,0.22812801599502563,-0.2377036064863205,-0.23115205764770508,-0.024255596101284027,0.05701921880245209,0.21089185774326324,0.11756483465433121,-0.2049182504415512,-0.006715567782521248,0.01757100224494934,0.13203030824661255,-0.2541770040988922,0.24614684283733368,-0.029908936470746994,0.1103706955909729,-0.09661014378070831,0.39306217432022095,0.35688316822052,0.03440076485276222,0.05048282817006111,0.08167839050292969,-0.09939241409301758,0.1553606539964676,-0.04921833798289299,-0.2088647186756134,-0.049518611282110214,-0.2194979339838028,-0.1979563981294632,0.37896957993507385,0.11466053873300552,-0.16106602549552917,0.21093690395355225,-0.054962918162345886,0.019080091267824173,-0.154994398355484,-0.12832018733024597,0.134487122297287,-0.1322784721851349],[0.20994295179843903,-0.35040831565856934,-0.036758195608854294,-0.17523761093616486,-0.40034160017967224,-0.08330642431974411,0.04912082105875015,0.2937733829021454,0.3141757845878601,0.045687489211559296,0.3321644067764282,-0.03520786762237549,-0.014059936627745628,-0.2919277846813202,0.45307081937789917,-0.14876526594161987,0.02653326280415058,0.2739071846008301,0.16054603457450867,0.10649240016937256,0.004591659642755985,-0.33639398217201233,-0.30729958415031433,-0.22778236865997314,-0.12775811553001404,0.47235432267189026,-0.19811736047267914,0.0892077088356018,0.3043164312839508,-0.0616065189242363,-0.015259625390172005,0.16131800413131714,-0.5761264562606812,-0.48509681224823,-0.2985837161540985,-0.021934617310762405,0.4079560935497284,-0.18819820880889893,0.08248991519212723,-0.25193530321121216,0.13512736558914185,-0.03174595162272453,-0.10973978787660599,0.11692259460687637,-0.06105373427271843,0.1911579966545105,0.3122750222682953,-0.5713576078414917,-0.20893648266792297,-0.14180931448936462,-0.11018868535757065,-0.108238086104393,0.02679395116865635,-0.5825198888778687,-0.13480345904827118,-0.29957810044288635,0.1497555524110794,0.3430541753768921,-0.015613573603332043,-0.07045245170593262,0.14147409796714783,0.08372476696968079,0.006669617258012295,-0.34017014503479004],[-0.44682177901268005,-0.6037263870239258,0.40476107597351074,0.25538209080696106,-0.32203155755996704,0.06118831783533096,0.09931042790412903,0.05873747169971466,-0.17033348977565765,-0.129952073097229,-0.515485405921936,0.23462656140327454,-0.050024863332509995,0.2337791621685028,0.17458480596542358,0.11976804584264755,0.11999993026256561,0.1820572465658188,0.21914519369602203,-0.05207971855998039,0.0457393117249012,-0.017868680879473686,-0.1825670301914215,-0.1972767412662506,-0.1683032214641571,-0.26501137018203735,-0.5432578325271606,0.5714259147644043,-0.0342462919652462,0.08946248888969421,-0.013158288784325123,-0.20139653980731964,0.09619185328483582,-0.17761076986789703,-0.1425842046737671,-0.011609637178480625,0.20935606956481934,-0.3486771285533905,0.25218313932418823,0.2685658931732178,-0.055190011858940125,0.022050075232982635,-0.2075544148683548,-0.11383052915334702,0.01037376094609499,0.07880095392465591,0.11311154067516327,0.10995806008577347,0.21088086068630219,-0.15603995323181152,-0.45401841402053833,-0.3346479535102844,-0.6273216605186462,-0.13488930463790894,-0.3900388181209564,-0.006521034985780716,-0.4989660084247589,-0.23534072935581207,-0.2234448343515396,0.06361375004053116,-0.7536262273788452,-0.004433836322277784,0.052527572959661484,-0.029240841045975685],[0.022182948887348175,0.3792913258075714,0.3152494728565216,0.29695960879325867,0.18672314286231995,0.09974507242441177,0.09381599724292755,-0.1147422045469284,-0.20598745346069336,0.25659194588661194,-0.02043607272207737,-0.007577031385153532,0.1086607426404953,0.2263668030500412,0.0562845841050148,0.16874997317790985,-0.016918500885367393,0.09840137511491776,-0.20317979156970978,-0.2363734245300293,-0.010907869786024094,0.020620247349143028,0.2074955254793167,0.07824534177780151,-0.2752203047275543,-0.051074620336294174,-0.22474975883960724,-0.2588901221752167,-0.32510843873023987,-0.3570631444454193,0.04020925983786583,-0.5467246770858765,0.1313883364200592,0.3784051537513733,0.4339120090007782,-0.1758272349834442,0.02407623827457428,0.21020275354385376,-0.15687689185142517,0.42716002464294434,-0.061199016869068146,-0.03912915289402008,-0.0523005872964859,-0.49261146783828735,-0.02168267033994198,-0.17048212885856628,-0.43598610162734985,0.11018771678209305,0.18098917603492737,0.11852917820215225,0.06510914862155914,0.3136495053768158,0.374157577753067,-0.026009848341345787,-0.21397028863430023,0.2063809484243393,-0.10812754184007645,-0.5427966713905334,0.02097415365278721,0.12596683204174042,0.35220837593078613,-0.5397778749465942,-0.24005286395549774,0.09632225334644318],[0.00428007123991847,-0.002843872644007206,-0.26902177929878235,-0.5366235971450806,0.03420129045844078,0.19845551252365112,-0.3385103642940521,0.1220056563615799,-0.16624684631824493,0.1610742211341858,0.038818635046482086,0.22005392611026764,-0.05299235135316849,-0.10628560930490494,0.15517842769622803,0.17791874706745148,0.05106057971715927,0.03318977355957031,0.072092205286026,-0.21833300590515137,0.13169780373573303,-0.23807449638843536,-0.37393561005592346,0.2619645297527313,-0.23027464747428894,-0.009806936606764793,0.1533021330833435,0.13922026753425598,0.09006110578775406,0.0757981613278389,0.24653837084770203,0.05507514253258705,-0.3209322392940521,-0.03684740141034126,-0.12863489985466003,0.1345357894897461,0.05292932316660881,-0.041080404072999954,0.2174728810787201,0.03884376212954521,0.007823166437447071,-0.07214772701263428,0.26230645179748535,0.2477470338344574,-0.18019840121269226,-0.26367437839508057,0.0217659380286932,-0.2262287139892578,0.08310210704803467,-0.2719276249408722,-0.4370737671852112,0.006202233023941517,-0.2009572833776474,0.10610143840312958,-0.006502741947770119,0.0009124113130383193,0.3236943781375885,0.0738498866558075,-0.41730737686157227,-0.07109365612268448,-0.5757744908332825,-0.14520303905010223,-0.06131040304899216,0.18001104891300201],[0.10391555726528168,0.40854108333587646,-0.12005871534347534,0.05177769064903259,0.20018023252487183,-0.029498908668756485,0.3825739622116089,-0.25775501132011414,0.11409422755241394,0.26738202571868896,0.27175891399383545,-0.36888328194618225,0.07257219403982162,0.1906825751066208,0.09688998013734818,0.05572079122066498,0.20184072852134705,-0.14804913103580475,-0.07987157255411148,-0.12633675336837769,0.1278913915157318,0.2995356619358063,-0.2612421214580536,0.17838291823863983,0.22969605028629303,-0.1603327989578247,0.10170023888349533,-0.03264664486050606,-0.15437740087509155,-0.05813109502196312,-0.021802065894007683,-0.4032522141933441,0.04697510600090027,-0.39070460200309753,0.3668096959590912,0.26519641280174255,-0.008838439360260963,-0.27682480216026306,-0.2766948938369751,0.007480243686586618,0.26492226123809814,0.15074172616004944,-0.03125905990600586,0.055932555347681046,0.23739288747310638,-0.014270366169512272,-0.10370171070098877,0.38619083166122437,-0.11188322305679321,0.1452452540397644,0.11560165137052536,0.2074151337146759,0.22813382744789124,-0.12497196346521378,-0.051140349358320236,0.07078049331903458,-0.09534299373626709,-0.16653844714164734,0.1321491152048111,0.3969969153404236,0.22982604801654816,0.23865726590156555,-0.09916050732135773,0.2554236054420471],[0.21094021201133728,0.47747281193733215,0.06557516008615494,0.5343629121780396,0.03976045176386833,0.05533982813358307,0.13278816640377045,-0.28163135051727295,-0.4770437180995941,0.016852594912052155,-0.1233157366514206,0.0828886479139328,0.045926693826913834,0.22427412867546082,-0.395155668258667,0.02614029310643673,0.04911934211850166,-0.07426158338785172,0.08456376194953918,0.10423513501882553,0.3298429548740387,-0.1831432431936264,-0.03216065093874931,0.05283988639712334,0.05076272040605545,0.13777102530002594,0.4111863970756531,0.11676812916994095,-0.20971554517745972,-0.31019914150238037,-0.024676652625203133,-0.2892419695854187,0.2977498769760132,0.5485133528709412,-0.1788971871137619,0.20432671904563904,0.09182708710432053,-0.14117614924907684,-0.28235766291618347,0.5092951655387878,-0.13038761913776398,-0.18633748590946198,-0.10203628242015839,-0.5153272151947021,0.1200869008898735,0.10627670586109161,-0.3821448087692261,-0.047294989228248596,0.03632271662354469,0.06778766214847565,0.048414792865514755,0.04774990305304527,0.2032691389322281,0.13678671419620514,-0.24031458795070648,0.22553592920303345,0.13917861878871918,-0.19745483994483948,-0.13220535218715668,0.12876500189304352,0.15325391292572021,-0.1152784526348114,0.11542988568544388,0.42181992530822754],[0.03901237994432449,-0.11010277271270752,-0.2273886650800705,0.0674847736954689,-0.013370061293244362,-0.21839912235736847,-0.10945451259613037,0.20015451312065125,0.32083550095558167,-0.10194488614797592,0.32070738077163696,-0.2945079803466797,-0.17309631407260895,-0.6920080780982971,0.18804679811000824,-0.0051092952489852905,-0.006151073146611452,-0.008932488039135933,0.11487297713756561,0.4527580142021179,-0.26936042308807373,-0.2167360484600067,-0.2132372409105301,0.1188395693898201,0.1111331656575203,-0.019328154623508453,-0.18617995083332062,0.27400878071784973,0.2399335503578186,0.04181285202503204,-0.21971319615840912,0.28050878643989563,-0.4562010169029236,-0.11077762395143509,-0.02606699801981449,-0.10018865019083023,0.24537315964698792,0.4199027717113495,0.10395675152540207,-0.10668185353279114,0.46832677721977234,0.15240779519081116,-0.17713257670402527,0.37189751863479614,-0.07083357125520706,-0.19895176589488983,0.34284400939941406,-0.0295188520103693,-0.016829777508974075,-0.5557776689529419,-0.4455582797527313,-0.30117690563201904,-0.11864206939935684,-0.07719054073095322,0.08185883611440659,-0.006670557428151369,-0.13876162469387054,0.3380947709083557,-0.06559667736291885,-0.11236351728439331,-0.32895755767822266,-0.228236123919487,0.2955319285392761,-0.2180974930524826],[-0.04599227011203766,-0.094598188996315,-0.0402192585170269,0.11892100423574448,0.1463596224784851,0.10775017738342285,0.28065022826194763,-0.5033202171325684,0.07362091541290283,0.34441375732421875,0.051159780472517014,-0.0060709696263074875,0.23732756078243256,0.21205458045005798,-0.3723636567592621,0.363141268491745,0.24403180181980133,0.27950987219810486,0.0675751268863678,-0.03222925215959549,0.34207355976104736,0.08770663291215897,0.35391825437545776,0.027891071513295174,0.16649094223976135,0.17529554665088654,0.21866826713085175,-0.004276967141777277,-0.3441099524497986,-0.01081947423517704,-0.013137727044522762,-0.10526379197835922,0.1816224753856659,0.34175196290016174,0.6380544900894165,-0.12442508339881897,-0.39680129289627075,-0.03702762350440025,-0.0846528708934784,0.17083200812339783,-0.05710405483841896,0.2216767519712448,-0.011353995651006699,-0.7338942289352417,0.08495867997407913,0.2166849672794342,-0.38298970460891724,0.41439470648765564,-0.007944094948470592,0.07519263029098511,-0.005723609589040279,-0.10173851996660233,0.004347601439803839,-0.031208407133817673,0.03977697342634201,0.2542669177055359,0.11496404558420181,-0.06864344328641891,0.12526492774486542,-0.2477349191904068,0.259335994720459,0.06411668658256531,-0.21120160818099976,0.4218326508998871],[0.19964462518692017,-0.055968623608350754,0.09400663524866104,0.00088764593238011,0.13220348954200745,-0.22601856291294098,-0.3650505244731903,0.10477009415626526,-0.22246992588043213,0.16933512687683105,-0.05997328832745552,0.2148371934890747,-0.06925806403160095,-0.3276331424713135,0.011778159998357296,-0.32792729139328003,0.0873546376824379,0.2513734698295593,0.49829503893852234,-0.3274611234664917,0.1616816520690918,-0.1911260038614273,-0.11693727970123291,0.1967260241508484,0.05448925867676735,-0.13640806078910828,0.1553487628698349,-0.32102030515670776,-0.01372713502496481,0.12154097855091095,-0.04652790725231171,0.06876735389232635,-0.028869006782770157,-0.17067857086658478,-0.026466835290193558,-0.20814990997314453,0.03198966756463051,-0.2020597904920578,-0.11990787833929062,-0.09909437596797943,0.013002127408981323,-0.028782106935977936,-0.36671966314315796,0.3231063187122345,-0.5085832476615906,-0.19743314385414124,-0.016691558063030243,-0.023255333304405212,0.3775249421596527,0.20797337591648102,-0.34052079916000366,-0.03378462418913841,-0.35560041666030884,0.035102661699056625,0.2547808587551117,-0.23313620686531067,-0.0920749381184578,0.3070971965789795,-0.028533736243844032,-0.2404191792011261,-0.15708956122398376,-0.07739824801683426,0.41741326451301575,-0.014146707020699978],[0.14956961572170258,0.28665974736213684,-0.11205822229385376,0.2629257142543793,0.01062872726470232,0.20519699156284332,0.26821765303611755,-0.2571007013320923,0.5054700374603271,-0.06342270970344543,-0.18194903433322906,-0.05032506585121155,0.21652467548847198,0.469859778881073,-0.3383442759513855,-0.3119601905345917,0.0931038036942482,-0.08398842066526413,0.005201427266001701,-0.32910677790641785,0.20150236785411835,0.20383751392364502,0.37422773241996765,0.08976781368255615,0.13994675874710083,0.4535384476184845,-0.3031008243560791,-0.07794120162725449,-0.15691204369068146,-0.2871786057949066,0.1099536120891571,