{"type":"item_activation_actor_tanh","observation_size":260,"policy_layers":[{"weight":[[-0.05531945079565048,-0.02354852855205536,0.06092891842126846,0.04655713960528374,0.047421012073755264,-0.04227321594953537,0.04597609490156174,-0.005276502575725317,-0.07222724705934525,-0.06308858841657639,-0.021981796249747276,-0.09132824838161469,0.04606907442212105,0.017890745773911476,0.05734894052147865,0.03308630362153053,-0.06625252217054367,-0.029054732993245125,0.024889839813113213,0.012309459038078785,-0.020003939047455788,-0.04083343595266342,0.03291453793644905,0.029521431773900986,-0.02169344760477543,0.04661015421152115,0.008536810986697674,-0.002356644719839096,-0.02771610952913761,0.009247583337128162,-0.06680435687303543,0.05367657169699669,0.009666572324931622,-0.03643597289919853,0.0015255807666108012,0.06046900898218155,0.07037445902824402,-0.06931449472904205,-0.05516296625137329,0.02936120517551899,0.04322715476155281,0.048553936183452606,0.03478869050741196,0.02531813457608223,0.014829464256763458,0.039178453385829926,-0.036257702857255936,-0.06013898551464081,-0.07209698110818863,-0.036890286952257156,0.03656218945980072,-0.045255884528160095,-0.03899553790688515,-0.014837071299552917,-0.09804950654506683,-0.022496504709124565,0.007992427796125412,-0.05325590819120407,-0.00581585057079792,0.04218221455812454,-0.02591167949140072,-0.05380657687783241,0.04425794631242752,-0.04297345504164696,0.03669353947043419,-0.03723910078406334,-0.025071993470191956,0.013995913788676262,0.024043962359428406,0.04164251685142517,-0.029892273247241974,0.011651849374175072,0.04170822724699974,0.03708700090646744,0.04462964087724686,0.024804774671792984,-0.021287821233272552,0.028225373476743698,-0.019501280039548874,0.02162162959575653,-0.002317319856956601,-0.01899891160428524,0.010532856918871403,-0.0013774445978924632,0.030413318425416946,0.026441067457199097,-0.052113596349954605,0.001148221199400723,0.01858130656182766,0.06212039664387703,0.046632979065179825,-0.0032346416264772415,0.013054638169705868,0.004992722067981958,-0.013160796836018562,0.04765396565198898,-0.010809640400111675,-0.017772162333130836,0.02963581122457981,0.006887685973197222,-0.03157174959778786,-0.04663825407624245,0.060113269835710526,0.04270366579294205,0.0343904010951519,0.015455907210707664,-0.009391493164002895,0.03501344099640846,0.07572074234485626,0.0006723396363668144,0.021183596923947334,-0.0422978438436985,0.054491832852363586,0.03437233716249466,-0.05178813263773918,-0.024686237797141075,0.11118227243423462,-0.042387329041957855,0.023665260523557663,-0.06496229767799377,0.058147627860307693,-0.04105466231703758,-0.03661371022462845,-0.0802004486322403,-0.037233565002679825,0.07694796472787857,0.012363377958536148,-0.028394220396876335,0.0045300135388970375,0.01559321116656065,0.035986583679914474,-0.05516131967306137,0.05396568402647972,-0.02086586505174637,-0.07545684278011322,0.060910895466804504,-0.021464569494128227,0.04742936044931412,-0.013885105960071087,-0.00949343666434288,-0.04487672075629234,0.04734881967306137,0.001145155169069767,-0.12845249474048615,-0.04340836778283119,0.025556622073054314,-0.021523967385292053,0.0428481362760067,0.10447359085083008,-0.06909939646720886,0.05516546964645386,-0.026696518063545227,0.08525001257658005,0.05397452786564827,-0.007766269147396088,-0.04191943258047104,0.03858644515275955,-0.034596964716911316,0.021377190947532654,-0.04838716611266136,0.030525289475917816,0.057508669793605804,0.050605520606040955,0.016335265710949898,-0.04055989533662796,0.056377191096544266,-0.007525581866502762,-0.04194233939051628,0.035538747906684875,0.000447162427008152,0.04779386892914772,0.02659466862678528,0.01925503835082054,-0.025631776079535484,0.08606875687837601,-0.01073075458407402,0.027619626373052597,0.03500786051154137,-0.011125551536679268,-0.02891368605196476,-0.03889194130897522,0.008137762546539307,0.014882556162774563,0.13714024424552917,-0.13308000564575195,-0.039755865931510925,-0.0006566238589584827,-0.23625439405441284,-0.03651643171906471,0.10513551533222198,-0.08188129216432571,-0.11737364530563354,-0.03380816802382469,-0.05139840766787529,0.030221885070204735,-0.02685447782278061,0.03747355192899704,0.016023054718971252,0.013593368232250214,-0.04279780015349388,-0.16465118527412415,-0.01647462509572506,-0.047301966696977615,0.015666281804442406,-0.016843046993017197,-0.07752510905265808,-0.04890479892492294,-0.18213783204555511,-0.0030038345139473677,-0.0014972735662013292,0.012409004382789135,-0.0003173756704200059,-0.14381143450737,0.027294959872961044,0.029022008180618286,0.015574726276099682,-0.1590137928724289,0.0683683231472969,0.04323482885956764,0.0658741369843483,0.09619308263063431,-0.1937965750694275,-0.03335094079375267,-0.042515601962804794,-0.08861713111400604,-0.027519136667251587,-0.005331334657967091,0.08152034133672714,-0.03163919597864151,-0.014198114164173603,-0.14892429113388062,0.05666984245181084,-0.007566090673208237,0.018214814364910126,0.1088256761431694,-0.12440264225006104,0.048393454402685165,-0.2439144402742386,0.08121677488088608,-0.0935145691037178,0.0030912563670426607,-0.11447055637836456,0.04697731137275696,0.06648139655590057,-0.0016215408686548471,0.07933297008275986,-0.03590318188071251,0.05014968290925026,0.004928939510136843,0.04024819657206535,-0.2726539373397827,0.018879663199186325,0.032104335725307465,0.05485525727272034,-0.030196387320756912,-0.20699381828308105,-0.0535738430917263,-0.007961743511259556,0.11020881682634354,-0.22035877406597137],[-0.014921770431101322,-0.009595152921974659,-0.05961150676012039,-0.05038142204284668,-0.04531192034482956,-0.0161603856831789,-0.0549667626619339,-0.04859016463160515,-0.002318218583241105,0.049757398664951324,0.06616996228694916,0.07841172069311142,-0.03266720473766327,0.022679375484585762,-0.08666763454675674,-0.02309902384877205,0.055696625262498856,-0.011823802255094051,0.037866026163101196,-0.012098569422960281,-0.032763853669166565,0.03773073852062225,-0.00161366059910506,0.0301657821983099,0.03358975797891617,0.008792155422270298,-0.030816586688160896,0.0037954971194267273,-0.017781196162104607,0.015966881066560745,-0.018763655796647072,0.01368818897753954,-0.013884147629141808,-0.037730634212493896,-0.022862369194626808,-0.05756915733218193,-0.0569918192923069,0.03694877400994301,-0.036676518619060516,-0.004108046181499958,0.019272997975349426,-0.04324380308389664,-0.04194171726703644,0.018088417127728462,-0.025029834359884262,0.026787061244249344,0.031670354306697845,0.046728573739528656,0.04445326328277588,0.036006808280944824,-0.05611051246523857,0.06848938018083572,0.04158315062522888,0.018063733354210854,0.052111804485321045,0.0008480256656184793,0.026630332693457603,0.041604116559028625,-0.05260038375854492,-0.06180955842137337,0.0029178056865930557,-0.007741080597043037,-0.030449774116277695,0.0580279678106308,0.007490732241421938,0.06857792288064957,0.042828552424907684,0.02851567044854164,0.04870939254760742,0.021812090650200844,-0.02461031638085842,-0.02006058767437935,-0.03598104044795036,-0.005098443478345871,0.01595834456384182,-0.0731879323720932,0.00533325457945466,-0.006223177071660757,0.052325647324323654,-0.030367258936166763,-0.025550244376063347,-0.051945868879556656,-0.03704952076077461,0.016710281372070312,0.039136044681072235,0.038109295070171356,0.03492377698421478,0.001662685303017497,-0.05989687517285347,0.03219952806830406,-0.05038898065686226,-0.03458475321531296,-0.04173320159316063,0.033825378865003586,0.05631924420595169,0.05286628007888794,0.030883239582180977,-0.06321290880441666,-0.037950605154037476,0.03338371962308884,-0.0036540611181408167,0.0026265555061399937,-0.07201912254095078,0.005118562839925289,0.010037722066044807,0.005028631072491407,0.004604182206094265,0.0350797213613987,-0.009538284502923489,0.0041223145090043545,-0.04027515649795532,0.05693012475967407,0.013737133704125881,-0.011561966501176357,0.044346801936626434,0.03605683892965317,0.022422319278120995,0.07904619723558426,-9.529021917842329e-05,0.024877460673451424,-0.06568224728107452,0.03704582527279854,0.07117228955030441,0.004273511935025454,-0.04099390283226967,-0.06603947281837463,0.02718226984143257,-0.05903724581003189,0.03948865085840225,-0.0002395693736616522,0.04292645305395126,-0.0034408376086503267,0.013619989156723022,0.028387179598212242,0.062394313514232635,-0.02626192569732666,-0.028591884300112724,0.022753361612558365,0.0722191333770752,-0.015519062988460064,-0.0323638916015625,-0.017904624342918396,-0.03663557022809982,0.1221010610461235,-0.023504598066210747,0.0741935670375824,-0.013360387645661831,0.08037028461694717,-0.14073994755744934,0.04944130778312683,0.0116535983979702,-0.014800595119595528,-0.09996037930250168,-0.028042655438184738,0.03618389368057251,-0.07574132084846497,-0.04029924049973488,0.008722516708076,-0.025309432297945023,0.08733227849006653,-0.026845775544643402,-0.004733886569738388,-0.056753918528556824,0.012312026694417,0.01523658912628889,-0.09009486436843872,-0.059978585690259933,-0.012393997050821781,0.04149885103106499,-0.03265715017914772,-0.014114076271653175,-0.040413714945316315,-0.043978095054626465,0.027086632326245308,-0.16688190400600433,-0.05221710726618767,0.012012624181807041,-0.0373864620923996,0.01429691817611456,0.029753539711236954,-0.05848357826471329,0.01012524962425232,0.020902588963508606,-0.15262144804000854,0.15221981704235077,0.031031278893351555,0.06871499866247177,0.1644851714372635,0.10625937581062317,-0.09083180874586105,0.09175517410039902,0.059495147317647934,0.08798644691705704,-0.03338165953755379,-0.04042201116681099,-0.028627462685108185,-0.026689257472753525,-0.04292794689536095,-0.062385089695453644,-0.004515998065471649,0.14251643419265747,0.02050272561609745,0.06784401088953018,-0.011529721319675446,0.04834335297346115,0.08739084750413895,-0.022758616134524345,0.06090835854411125,-0.10303658246994019,-0.04701651632785797,0.013454550877213478,0.015146193094551563,0.0444323904812336,0.012403587810695171,-0.005245713051408529,-0.09104062616825104,0.0596633180975914,0.006608404219150543,-0.05438181012868881,-0.046311650425195694,-0.09483388811349869,0.07942044734954834,0.004385695792734623,0.05891016125679016,-0.0006326200673356652,0.007885304279625416,-0.007994314655661583,-0.008990488946437836,-0.0217878594994545,-0.008377563208341599,0.2364499717950821,0.047773368656635284,-0.023514240980148315,-0.05825013667345047,-0.033824943006038666,0.07948987185955048,-0.028662553057074547,0.16279378533363342,-0.0873527005314827,0.15591508150100708,-0.02432706207036972,0.1489972621202469,-0.04003020003437996,-0.03633016720414162,0.0005580703145824373,-0.035857971757650375,-0.014868341386318207,-0.017996499314904213,0.027411963790655136,0.08561310172080994,0.22476939857006073,0.023188970983028412,-0.01807364821434021,0.02277342416346073,0.10627827048301697,0.06768209487199783,-0.025625254958868027,0.02464446611702442,-0.06805875152349472,0.0972842276096344],[0.03431232273578644,0.03512662276625633,-0.05951213836669922,0.011902865953743458,-0.015727275982499123,0.006843398790806532,0.057381317019462585,0.05205712094902992,-0.007936365902423859,0.032044511288404465,0.0017319221515208483,0.107988141477108,0.0012990351533517241,0.03378158435225487,-0.08963245898485184,0.07873420417308807,0.02627270482480526,0.029771531000733376,-0.003496218007057905,-0.030188534408807755,-0.04376717284321785,-0.03519996255636215,0.08439569920301437,-0.0249920804053545,-0.0155347790569067,-0.04584617540240288,0.03259049355983734,0.04626067727804184,0.052920445799827576,-0.04546411335468292,-0.04869750514626503,-0.010997580364346504,-0.0033095062244683504,0.02062297612428665,0.06087508797645569,0.04373636469244957,0.03720801696181297,0.07168491184711456,-0.0293338131159544,-0.02635628543794155,-0.031225139275193214,-0.03331932798027992,-0.0053139664232730865,-0.07222975045442581,0.018032565712928772,0.025270601734519005,-0.029152140021324158,0.029418867081403732,0.020466456189751625,0.0504588708281517,0.007681150920689106,-0.032214999198913574,-0.02644515223801136,0.07917331159114838,0.03402775898575783,0.02958865836262703,-0.055434685200452805,0.07558780908584595,-0.02963818423449993,0.05468052625656128,0.017854958772659302,-0.023025482892990112,-0.02759876474738121,-0.036942917853593826,-0.0017512044869363308,0.06935962289571762,-0.0009176842868328094,-0.023785727098584175,-0.025007490068674088,-0.03924408555030823,-0.03962065652012825,0.06816671043634415,-0.037633009254932404,0.025150666013360023,-0.0216972716152668,0.03079628385603428,0.038773272186517715,0.02727298066020012,0.04904138296842575,0.04196671396493912,-0.014472085051238537,-0.027324672788381577,0.021546626463532448,0.0045542302541434765,-0.022190386429429054,0.017890091985464096,-0.02653135545551777,0.04762490466237068,-0.019820163026452065,-0.02929062955081463,-0.04740678891539574,-0.037341389805078506,0.00630189711228013,-0.031084656715393066,0.04142787307500839,0.00108373595867306,-0.04745903238654137,-0.004286524374037981,-0.055358342826366425,0.009270183742046356,-0.03329590708017349,-0.04908895120024681,-0.03829865902662277,-0.008909225463867188,0.007824103347957134,-0.03652814030647278,0.044971417635679245,0.06630260497331619,0.015155801549553871,0.04607405513525009,-0.03974981978535652,-0.00026159125263802707,0.021568210795521736,0.013763205148279667,0.019975153729319572,-0.007595490198582411,-0.08026806265115738,-0.02661295048892498,0.02823069877922535,0.031037287786602974,-0.038014963269233704,-0.006694253068417311,0.014909781515598297,-0.011948994360864162,0.015583343803882599,-0.03389134630560875,-0.04949767142534256,0.012308156117796898,0.045152053236961365,0.019412515684962273,-0.06863003224134445,0.007034625392407179,-0.028760837391018867,-0.011598541401326656,0.07263318449258804,0.0036549868527799845,-0.019977165386080742,-0.0581856332719326,0.06250960379838943,0.07764334976673126,0.013774819672107697,-0.014196721836924553,-0.04385579749941826,0.11231420189142227,-0.02438730001449585,0.03488084301352501,-0.04356381297111511,0.05365964397788048,-0.08412002772092819,-0.0056809294037520885,-0.06444647908210754,0.0023142658174037933,-0.08076117932796478,-0.03022269532084465,-0.015127303078770638,0.03516997769474983,-0.018259389325976372,-0.010806203819811344,-0.014335623010993004,0.06161131709814072,-0.010558247566223145,0.0017794296145439148,-0.057423993945121765,-0.05877625569701195,-0.026909204199910164,-0.14704366028308868,0.012503482401371002,-0.02824745513498783,0.016631536185741425,0.04653340205550194,-0.003070254111662507,0.02642008662223816,-0.03006715327501297,0.06240382790565491,-0.19488666951656342,0.004762701690196991,0.01761922985315323,0.01960207335650921,0.033838775008916855,0.05377224087715149,0.06063466519117355,-0.012920625507831573,0.022294798865914345,-0.18985293805599213,0.09889021515846252,0.014384430833160877,-0.022250279784202576,0.22881020605564117,0.17312365770339966,-0.08090771734714508,-0.0015300322556868196,0.11976438015699387,0.058094099164009094,0.03098146617412567,0.059385113418102264,0.011507652699947357,-0.06522005051374435,-0.010300761088728905,-0.07607876509428024,0.006215425208210945,0.09818442910909653,0.039554446935653687,0.10283910483121872,-0.05395359918475151,0.00581588689237833,0.10754784196615219,0.009071586653590202,0.15978102385997772,-0.040132809430360794,-0.008826950564980507,-0.039710983633995056,0.027489814907312393,0.12468089908361435,-0.06928858160972595,0.003474579658359289,-0.08677425235509872,0.12932050228118896,-0.02277001366019249,-0.023090573027729988,-0.11399290710687637,-0.12021183967590332,0.08284290134906769,0.06864472478628159,-0.03671038895845413,0.03446733579039574,-0.02906876802444458,-0.0045930021442472935,-0.030460305511951447,0.018605053424835205,-0.0018443616572767496,0.2462911307811737,0.05025116726756096,0.05936042219400406,0.03504020720720291,-0.06895054131746292,0.01852600648999214,-0.013050056993961334,0.2449990212917328,-0.11830802261829376,0.1802741438150406,0.03769924119114876,0.11144103109836578,-0.040796756744384766,-0.010106200352311134,-0.02561078406870365,-0.0843711867928505,-0.05242563411593437,-0.13112473487854004,-0.02329559065401554,-0.013129675760865211,0.21391049027442932,-0.018790699541568756,-0.057188909500837326,0.0300358347594738,0.09228289127349854,0.15343375504016876,0.07010818272829056,0.01160723902285099,-0.09008711576461792,0.11686144024133682],[-0.008611992001533508,-0.004196979105472565,0.008786693215370178,-0.040954992175102234,-0.004604410845786333,-0.014066248200833797,0.0024238904006779194,0.0474449098110199,-0.008860266767442226,-0.018738117069005966,-0.03635798767209053,-0.10640992224216461,0.05331393703818321,-0.05447449907660484,0.03864583000540733,0.015390558168292046,0.04285531863570213,-0.006774154957383871,-0.04682770371437073,-0.010301779955625534,-0.007202036678791046,0.06039253622293472,0.00774478679522872,-0.02278376743197441,0.013692815788090229,-0.03771122172474861,0.008440358564257622,-0.05503549054265022,0.0329810231924057,-0.02921714447438717,-0.013927319087088108,0.0664171352982521,-0.044715095311403275,0.011662999168038368,0.05618864670395851,-0.02287258580327034,-0.03922281786799431,-0.023376289755105972,-0.04209355264902115,-0.0140974847599864,-0.01650848425924778,0.05240851268172264,0.04871152341365814,0.010469609871506691,0.034140683710575104,0.0023190919309854507,0.0040356931276619434,0.05997601896524429,-0.07332069426774979,-0.03150657191872597,0.05493629723787308,-0.019678886979818344,0.018101323395967484,-0.02782938815653324,-0.06576084345579147,0.019537419080734253,-0.017692450433969498,0.0031251944601535797,0.0604202039539814,0.01698680780827999,-0.05992631986737251,0.029306335374712944,-0.02742069587111473,0.04132533445954323,0.00026242731837555766,-0.04135614633560181,-0.008361246436834335,-0.004316437989473343,-0.011784568428993225,0.007858773693442345,-0.028868919238448143,-0.049858007580041885,-0.07245635241270065,-0.0639614537358284,0.034041691571474075,0.026935935020446777,0.05345425382256508,0.04215008020401001,0.019544042646884918,-0.019732831045985222,0.03654509782791138,-0.0694437250494957,0.024486936628818512,-0.05315503478050232,-0.019495908170938492,0.03926033899188042,0.05353498086333275,-0.014047478325664997,-0.007238050922751427,-0.052575353533029556,-0.01352571602910757,0.04367583245038986,0.01724768988788128,-0.04291902482509613,0.03967171162366867,-0.07105063647031784,-0.05398734658956528,-0.04572774097323418,-0.045531924813985825,-0.0081540048122406,0.020647842437028885,0.012220853939652443,-0.034163698554039,0.003741057589650154,0.026096906512975693,0.03173154219985008,-0.05277515947818756,0.022746190428733826,0.02275022491812706,0.058476775884628296,0.05330861359834671,-0.03797496482729912,-0.04443453624844551,0.013811702840030193,0.007744386326521635,-0.046294812113046646,0.019944248721003532,0.0464756116271019,0.03848111256957054,-0.06752218306064606,-0.005403031129390001,0.03389966860413551,0.0018554097041487694,-0.0254606194794178,0.044533438980579376,0.05321710556745529,-0.0015936180716380477,0.009561440907418728,0.058690145611763,0.02927117981016636,0.02253471501171589,-0.0053703817538917065,-0.03544669970870018,-0.05167967081069946,-0.10973630100488663,-0.002977170515805483,0.027600379660725594,0.04689745232462883,-0.04072897136211395,0.02292248047888279,0.056899964809417725,-0.05389154329895973,0.0475405678153038,-0.11194483935832977,0.03392259031534195,-0.022941093891859055,-0.05587080493569374,-0.029478562995791435,0.0984218642115593,-0.02107563056051731,-0.00010115615441463888,-0.0010300669819116592,0.03967912122607231,0.04865780100226402,0.05250139534473419,0.045368093997240067,0.036094628274440765,-0.10210607200860977,0.0033185945358127356,-0.036407049745321274,0.040880270302295685,0.052492134273052216,0.045112621039152145,-0.02262917160987854,-0.008776156231760979,0.06585203856229782,-0.032097041606903076,0.05851328745484352,0.05555226653814316,-0.0019044930813834071,0.07578200101852417,-0.0046638064086437225,-0.05091887712478638,0.007019856479018927,0.1618347018957138,0.02056332677602768,0.052844464778900146,0.046432964503765106,-0.0172931719571352,0.04357482120394707,0.032253801822662354,0.031958404928445816,0.013744168914854527,0.17520378530025482,-0.1422734260559082,0.009448830038309097,-0.03451648727059364,-0.20798735320568085,-0.12398752570152283,0.08791302144527435,-0.06579621136188507,-0.04699786752462387,-0.0604037381708622,-0.04498910903930664,0.05366930738091469,0.03362699970602989,0.04833297058939934,-0.052185554057359695,-0.015687422826886177,0.004048729781061411,-0.14703793823719025,-0.003094291314482689,-0.07967075705528259,0.004370805807411671,-0.026821326464414597,-0.13366807997226715,0.002672511152923107,-0.1605808138847351,0.013584579341113567,0.0047476100735366344,-0.05541916936635971,0.08345435559749603,-0.1477895826101303,0.06302741169929504,0.004848815500736237,0.09010224789381027,-0.04333152249455452,0.0782303512096405,0.045397937297821045,0.09604965895414352,0.07951056212186813,-0.14192914962768555,0.013399426825344563,0.01047245692461729,-0.11377871781587601,-0.07474350184202194,-0.01141087245196104,0.1098465844988823,0.09673841297626495,-0.004006228409707546,-0.17596840858459473,0.003099687397480011,-0.04699402302503586,-0.015154590830206871,0.0662756934762001,-0.03719603270292282,0.037140682339668274,-0.2309233397245407,0.04215613380074501,-0.11658312380313873,-0.08036252111196518,-0.05604139342904091,-0.0027586461510509253,0.047616492956876755,-0.04624713212251663,0.05754074454307556,-0.004832280334085226,0.05796477943658829,-0.024296239018440247,-0.021117156371474266,-0.2852779030799866,-0.014045067131519318,-0.04381562024354935,0.06855472177267075,-0.07210905849933624,-0.07360277324914932,-0.013425081968307495,0.07317683845758438,0.07840245217084885,-0.19957028329372406],[0.03461456298828125,0.022773083299398422,-0.0411340668797493,0.06173618510365486,0.01950684003531933,-0.04306250810623169,0.055569421499967575,0.03770287707448006,-0.036748528480529785,-0.03506231680512428,0.024664297699928284,-0.10110054165124893,-0.016658855602145195,-0.053557395935058594,0.09221494197845459,-0.026472777128219604,-0.04970644786953926,-0.010296206921339035,-0.039256684482097626,-0.04217268526554108,0.05443559214472771,-0.0034909555688500404,-0.024064432829618454,0.04484855383634567,0.037257712334394455,0.02140844240784645,0.06302918493747711,-0.05704042688012123,0.05725065618753433,-0.010368901304900646,-0.0025605233386158943,-0.001023480435833335,0.04182466119527817,-0.0003023659228347242,-0.02900879457592964,0.012125177308917046,-0.008520815521478653,0.03525635972619057,0.056834686547517776,0.0024000508710741997,0.018916314467787743,-0.004091082606464624,0.039612382650375366,-0.012733962386846542,-0.04712909460067749,-0.027271535247564316,-0.013382254168391228,-0.008070853538811207,-0.03332921862602234,0.05922485142946243,-0.036718375980854034,0.0245756134390831,0.03199952468276024,0.0029224250465631485,-0.06957059353590012,-0.03396162763237953,0.005030008498579264,-0.07757624238729477,-0.025334471836686134,0.004885998088866472,0.07206302136182785,0.025165138766169548,0.013675039634108543,-0.020956749096512794,-0.036738499999046326,-0.07904789596796036,-0.028765402734279633,0.022034354507923126,0.005467243492603302,0.017087740823626518,0.06434035301208496,0.03365188091993332,-0.017494045197963715,-0.007096817716956139,-0.02837042696774006,-0.011769663542509079,-0.01527195144444704,0.008330966345965862,-0.04002756625413895,-0.038589466363191605,-0.0027888803742825985,0.019324565306305885,-0.004845532588660717,-0.06356199830770493,0.07098744809627533,-0.057765718549489975,-0.027393702417612076,0.028694815933704376,-0.0010693047661334276,-0.03543801233172417,0.01896055042743683,0.03345026820898056,0.00569860590621829,0.04048410430550575,-0.006547476630657911,-0.006122100632637739,0.05292690172791481,0.028515998274087906,0.06767097860574722,0.05008059740066528,-0.040857475250959396,-0.032919712364673615,-0.016034305095672607,0.026027850806713104,-0.0029301755130290985,-0.02429966628551483,0.01051563024520874,0.01865890435874462,-0.014441006816923618,0.06984683871269226,0.009064608253538609,0.0733824148774147,0.04042618349194527,-0.06607615947723389,-0.012450085021555424,0.03677801787853241,0.024872146546840668,-0.08030729740858078,0.06744392961263657,-0.04664597287774086,0.010089308023452759,-0.010296044871211052,-0.07022576779127121,-0.041774872690439224,0.04855077341198921,0.10809282958507538,0.009852711111307144,-0.01988312229514122,-0.0417005755007267,-0.03262866288423538,0.0046025775372982025,-0.002437820192426443,0.03289606794714928,-0.013958090916275978,-0.07312673330307007,0.016971852630376816,-0.012953387573361397,-0.014407424256205559,-0.08525380492210388,-0.016813894733786583,0.037412721663713455,-0.014283593744039536,-0.05259083956480026,-0.03843322768807411,-0.018710047006607056,0.022872071713209152,0.03652625530958176,-0.06994196772575378,0.15597522258758545,-0.06261950731277466,0.03331795334815979,0.019814325496554375,0.11605449765920639,0.04988992214202881,0.002200135961174965,-0.03176853805780411,0.024913780391216278,-0.025040602311491966,-0.0503082275390625,-0.01776846870779991,-0.021147120743989944,0.03138215094804764,0.08138304948806763,-0.06354649364948273,-0.0202596765011549,0.15621723234653473,0.032124266028404236,0.03631671145558357,0.01327513251453638,-0.06391283869743347,-0.0066361878998577595,0.05360289663076401,0.0666906088590622,0.020195728167891502,0.11250615864992142,-0.03015398606657982,0.03865271434187889,0.04043906554579735,-0.04944085329771042,0.007157691288739443,-0.045927997678518295,0.004067601636052132,0.043614380061626434,0.16804225742816925,-0.1557728797197342,-0.03595040366053581,-0.04122098535299301,-0.24497884511947632,-0.16148318350315094,0.058702319860458374,-0.03804787993431091,-0.15886424481868744,-0.04760204255580902,-0.05995440483093262,-0.04136567562818527,-0.044300541281700134,0.03806742653250694,-0.012239898554980755,0.016533495858311653,-0.027216536924242973,-0.11679835617542267,-0.010271480306982994,-0.09348419308662415,0.11301159113645554,0.0014259949093684554,-0.0863671824336052,-0.007671153172850609,-0.11622035503387451,0.05899695307016373,0.039841290563344955,0.03867502510547638,-0.048540808260440826,-0.06579819321632385,0.014356036670506,0.007022089324891567,0.09726957231760025,-0.10679377615451813,0.015018596313893795,-0.026417462155222893,0.040287841111421585,0.10482137650251389,-0.09607512503862381,0.005820393096655607,-0.04185390844941139,-0.03944788873195648,0.04621924087405205,0.011546079069375992,0.02424948662519455,0.09197048097848892,-0.05785621330142021,-0.20607350766658783,0.054368309676647186,0.03613661602139473,0.040570180863142014,0.0738692432641983,-0.053078461438417435,0.052950624376535416,-0.2582579553127289,0.04226165637373924,-0.14778751134872437,0.008385341614484787,-0.06999455392360687,0.0002605560584925115,0.0874055027961731,-0.03361126780509949,0.06860986351966858,-0.01870119757950306,0.13308145105838776,0.05479440838098526,-0.016855629161000252,-0.20912307500839233,-0.00753488764166832,0.020186685025691986,0.09523625671863556,-0.12296751886606216,-0.11447741091251373,-0.048835739493370056,-0.01237046904861927,0.12332799285650253,-0.13203293085098267],[0.022468650713562965,0.05176536366343498,0.051296234130859375,-0.021954961121082306,-0.01616467908024788,-0.020779484882950783,-0.037347160279750824,0.027063772082328796,-0.054809313267469406,-0.0252282302826643,0.044281747192144394,0.16971810162067413,-0.05903107300400734,0.05252755433320999,-0.039736613631248474,-0.0393872894346714,0.011432146653532982,-0.037446528673172,0.01598777063190937,-0.03313574194908142,0.04249274730682373,-0.02720045857131481,-0.01377865020185709,-0.0012695637997239828,-0.010423234663903713,-0.026659809052944183,0.03752582147717476,-0.0184459388256073,0.0647687092423439,-0.007156955078244209,0.021786248311400414,-0.032245032489299774,-0.026562467217445374,-0.03711361065506935,0.030712271109223366,0.01703033782541752,-0.012276380322873592,0.06149132177233696,0.030079863965511322,-0.07551824301481247,-0.03141044080257416,0.05576356500387192,0.02307712286710739,0.04806254059076309,0.014128577895462513,-0.022718654945492744,-0.017880886793136597,0.05134165659546852,-0.004790024366229773,-0.03757474198937416,-0.0034413537941873074,-0.03838847205042839,-0.0011555587407201529,0.054673124104738235,0.10334818810224533,0.05015561729669571,-0.020766030997037888,-0.01848658360540867,0.05014808475971222,0.04178115725517273,-0.0201729703694582,0.028476575389504433,0.05267072468996048,-0.05443646386265755,0.0543258897960186,-0.010036161169409752,0.05587325245141983,0.016028571873903275,0.04545942693948746,-0.034008387476205826,0.04465494677424431,0.06504440307617188,0.003892522072419524,-0.019179856404662132,0.035622552037239075,-0.07726522535085678,0.029292242601513863,0.04836322367191315,0.04364285245537758,-0.004259222652763128,-0.010502525605261326,0.044935788959264755,-0.00551078375428915,0.03217684105038643,0.04483471438288689,0.04360146075487137,0.048786964267492294,-0.027049405500292778,0.04024197533726692,0.015448351390659809,-0.037921223789453506,0.024617768824100494,0.01974290981888771,-0.06109176203608513,-0.020378315821290016,0.05992453917860985,-0.005950398743152618,0.03183175250887871,-0.03481580689549446,0.06956113874912262,-0.04749429225921631,-0.03275667503476143,0.017576349899172783,0.03205661475658417,0.04231787845492363,0.05545930564403534,-0.012307410128414631,0.06316672265529633,0.08789625018835068,-0.03659345209598541,0.03960151597857475,-0.004794678185135126,-0.019156094640493393,-0.00597577216103673,-0.04610266163945198,0.012981520965695381,-0.04521450400352478,0.0542004331946373,0.025304121896624565,-0.046406880021095276,-0.04656396433711052,0.04132132977247238,-0.013787648640573025,-0.014485308900475502,0.04972058907151222,-0.004557904787361622,0.08107242733240128,-0.03272602707147598,-0.057916976511478424,0.024043118581175804,0.038063257932662964,0.01319099310785532,0.043216995894908905,-0.04951572045683861,0.10569532215595245,0.029439905658364296,-0.052882444113492966,0.03219809755682945,-0.0283427145332098,0.04973926022648811,0.02504860796034336,-0.005642519798129797,-0.0343647263944149,0.06353485584259033,-0.025318529456853867,0.023313576355576515,0.021352630108594894,-0.026432974264025688,-0.10669980943202972,0.03512464091181755,-0.0049626464024186134,-0.03796295076608658,-0.12191116064786911,-0.008325774222612381,-0.061745721846818924,-0.057017553597688675,-0.03020837903022766,0.04544965550303459,-0.04568171501159668,0.04901915416121483,0.044265054166316986,0.009210973978042603,-0.01959158293902874,-0.04590151831507683,-0.014389180578291416,-0.05327192321419716,-0.05036311596632004,-0.05714017152786255,-0.035586755722761154,-0.025354955345392227,-0.0668271854519844,-0.0049546584486961365,-0.06708570569753647,0.0208908524364233,-0.15948981046676636,-0.029801126569509506,-0.031143011525273323,0.018311407417058945,0.011644551530480385,-0.04272603243589401,-0.037770919501781464,0.020653819665312767,0.0066312942653894424,-0.13050411641597748,0.04431307688355446,0.027429373934864998,0.10467027872800827,0.19591712951660156,0.13162393867969513,0.009355759248137474,0.025484057143330574,0.08091146498918533,0.1596124768257141,0.019609548151493073,0.06971495598554611,-0.008077607490122318,-0.04222835227847099,0.0015138427261263132,0.02316160686314106,0.04811890795826912,0.08870156109333038,-0.01656183786690235,-0.005102604161947966,-0.10917311906814575,0.01133651752024889,0.01631266437470913,0.048591140657663345,0.12462836503982544,-0.02797740325331688,0.045329391956329346,-0.0498478040099144,0.046642132103443146,0.11942163854837418,0.013949496671557426,-0.02595481090247631,-0.10004210472106934,0.08401256054639816,-0.12970967590808868,0.012225184589624405,-0.13415184617042542,-0.027607453987002373,0.03247953951358795,0.0329214371740818,-0.005999888759106398,0.03350885957479477,0.036117855459451675,0.04260094836354256,-0.10787013173103333,-0.08121159672737122,0.08274482935667038,0.1803358942270279,-0.05883016437292099,0.04464862123131752,0.00851212628185749,-0.0763072818517685,0.003539236029610038,0.04251314699649811,0.17509688436985016,-0.031331758946180344,0.05442662909626961,-0.014616040512919426,0.04105112701654434,0.05406145378947258,-0.08403491228818893,-0.04622280225157738,-0.024191297590732574,-0.01324001606553793,-0.07558701187372208,-0.06920825690031052,0.11945071816444397,0.20161066949367523,-0.019246447831392288,-0.06192996725440025,-0.020518194884061813,0.05513184145092964,0.04607159644365311,0.02695203572511673,-0.03869372606277466,-0.10746023058891296,0.0738527923822403],[-0.04034319147467613,-0.02226487174630165,-0.057392969727516174,-0.03957277536392212,0.043140970170497894,0.04250478744506836,-0.06378332525491714,0.004902129527181387,-0.02282300777733326,0.013668214902281761,0.028726665303111076,0.08884253352880478,0.008901184424757957,0.03145115077495575,-0.012113324366509914,0.020426366478204727,0.052383001893758774,-0.05550866201519966,-0.01083335466682911,0.045458726584911346,0.024531809613108635,-0.012149600312113762,-0.025757018476724625,-0.04081989452242851,0.01816110871732235,-0.0007402322953566909,-0.0032188966870307922,-0.04854988306760788,-0.06307587027549744,0.05057907477021217,0.03636637330055237,-0.06331582367420197,-0.0579039566218853,-0.027023201808333397,0.0020860524382442236,-0.035790618509054184,0.01003168523311615,0.04202219471335411,0.04595814272761345,-0.046013880521059036,-0.07919298112392426,-0.007895389571785927,0.030552610754966736,0.013250996358692646,-0.023439906537532806,-0.0157333817332983,-0.02181788720190525,0.033227257430553436,-0.02060478739440441,0.002394814044237137,-0.03801285848021507,-0.01590539887547493,0.057867977768182755,-0.005930222105234861,0.10816014558076859,0.04593720659613609,-0.04020269960165024,-0.008117308840155602,-0.035844914615154266,0.033497557044029236,0.040488459169864655,0.055763937532901764,-0.04989926889538765,0.027659762650728226,-0.040321651846170425,0.017318598926067352,0.045322567224502563,0.05576905980706215,0.025258250534534454,-0.023098772391676903,-0.04512973129749298,-0.02581298165023327,-0.054470885545015335,-0.03052784875035286,-0.08005364239215851,-0.054992374032735825,0.016450589522719383,-0.049977999180555344,0.05215005204081535,-0.007067127153277397,-0.05992088466882706,-0.06895405799150467,-0.015571091324090958,-0.0008926892187446356,-0.01240645069628954,0.018946407362818718,-0.023203961551189423,0.018026171252131462,0.044308386743068695,-0.03079524077475071,0.026142125949263573,-0.02420923113822937,-0.036970723420381546,0.01215390395373106,0.02069343626499176,0.015548408031463623,0.01854734495282173,0.01333649456501007,-0.03514424338936806,-0.041116949170827866,-0.0350368358194828,0.0169674139469862,0.02645350620150566,-0.04831811413168907,-0.06967556476593018,-0.04860370606184006,-0.0071722641587257385,0.07463636249303818,0.006027447525411844,0.03326883167028427,0.011359652504324913,0.021831335499882698,0.05081829056143761,0.05653836950659752,-0.022097649052739143,0.005371975712478161,0.005500588100403547,-0.0395897701382637,0.010541059076786041,-0.011657136492431164,-0.06265781819820404,0.04765243083238602,-0.00866404827684164,0.00965788122266531,0.042906563729047775,-0.014920348301529884,-0.04406099393963814,0.01793563924729824,0.0036816373467445374,-0.023418981581926346,-0.01755055971443653,0.011549916118383408,0.01504987757652998,-0.05955670401453972,0.1054832935333252,-0.02941937930881977,0.01463154423981905,0.022587191313505173,0.045549411326646805,-0.007794596720486879,0.03413046523928642,0.049360208213329315,0.06442193686962128,0.10588058829307556,0.05095796659588814,0.01185346394777298,-0.06059315800666809,0.03528428450226784,-0.10407721996307373,-0.025626290589571,-0.03971118479967117,0.04439355432987213,-0.06569382548332214,-0.11558346450328827,0.0008585755713284016,-0.031181102618575096,-0.07361357659101486,0.012232634238898754,-0.027588892728090286,0.013750708661973476,-0.00864708423614502,-0.059168241918087006,-0.14160463213920593,0.011805587448179722,0.03452984243631363,-0.08496023714542389,-0.00042113661766052246,0.001948729739524424,0.0764104574918747,0.02275047078728676,-0.029106393456459045,0.01201242208480835,-0.0005106354365125299,0.09151991456747055,-0.14771835505962372,-0.04906280338764191,-0.006980470381677151,-0.007909617386758327,0.051747485995292664,-0.06259316205978394,0.03017187863588333,-0.019376633688807487,0.021513180807232857,-0.09501911699771881,0.1646367311477661,0.015170464292168617,0.07217204570770264,0.19518135488033295,0.10192173719406128,-0.04212428256869316,0.04334064573049545,0.12078636884689331,0.0890762209892273,0.05317061394453049,-0.07169245183467865,0.007728448137640953,0.04340913146734238,-0.036842603236436844,-0.041051916778087616,-0.04286392405629158,0.14972123503684998,-0.02706957794725895,0.08600800484418869,-0.0385088175535202,0.010036643594503403,0.09477659314870834,0.024914970621466637,0.14767397940158844,-0.007215114310383797,-0.03667832538485527,0.001978752203285694,-0.012370772659778595,0.05716683715581894,-0.013846875168383121,0.03787415847182274,-0.050406068563461304,0.14580443501472473,-0.04267703741788864,-0.029137657955288887,-0.060190219432115555,-0.05665404722094536,0.07471929490566254,0.03780017048120499,-0.027168387547135353,0.031102243810892105,0.030880162492394447,0.06189742684364319,-0.022358421236276627,-0.06211031228303909,-0.04012062028050423,0.2452946901321411,-0.046929311007261276,-0.001576144015416503,0.009907783009111881,-0.08370542526245117,0.13762560486793518,0.030755052343010902,0.2338680922985077,-0.14454366266727448,0.08958613872528076,-0.010161666199564934,0.08210259675979614,-0.0023131510242819786,-0.021451890468597412,0.03600221872329712,-0.04219366982579231,-0.046434879302978516,-0.01287673320621252,-0.03853309527039528,0.07830154895782471,0.2760569155216217,0.01901322416961193,0.010348223149776459,-0.04922357574105263,0.13201360404491425,0.17097292840480804,0.04652782157063484,-0.07265787571668625,-0.10078594833612442,0.15846647322177887],[0.109855517745018,-0.00808947067707777,-0.05711093544960022,-0.028948651626706123,0.0011689846869558096,-0.0013020304031670094,0.019444715231657028,0.051182158291339874,0.0023452057503163815,-0.022946994751691818,-0.015129588544368744,-0.08994761854410172,-0.021247051656246185,-0.01755247451364994,0.09654811024665833,-0.05719831958413124,-0.030634135007858276,0.018755434080958366,-0.04202853888273239,-0.0196425449103117,-0.029965229332447052,0.03689518943428993,-0.06445228308439255,-0.04561915993690491,0.0016232043271884322,0.013670342974364758,0.05489802733063698,0.017395228147506714,-0.008915053680539131,-0.05831364914774895,0.01600664295256138,-0.014808282256126404,0.027635781094431877,-0.04151871055364609,0.03457729145884514,0.05685038864612579,0.01808512955904007,-0.024576742202043533,0.047817911952733994,-0.010424275882542133,0.02046046033501625,-0.0035928331781178713,0.03251326084136963,-0.0546470507979393,-0.005023786798119545,-0.058965906500816345,-0.01769426092505455,0.014906851574778557,-0.009235462173819542,0.005341375712305307,0.061324071139097214,-0.026028485968708992,-0.017563471570611,0.02161313407123089,-0.0683525800704956,-0.005949872080236673,-0.002725644502788782,-0.040678057819604874,0.04791822284460068,0.021481333300471306,0.036533866077661514,0.0054306271485984325,0.02393215149641037,-0.06403721123933792,-0.02540409006178379,-0.06058736518025398,0.0486421212553978,-0.018204616382718086,0.01671431213617325,0.0398138128221035,-0.01743120700120926,-0.01305931806564331,-0.04801012948155403,0.05440323054790497,-0.027181221172213554,0.07526486366987228,-0.02121199294924736,0.004613684955984354,0.02756362594664097,-0.014573510736227036,-0.013950604945421219,0.005797019228339195,-0.006204469129443169,0.02625870332121849,-0.03832413628697395,-0.02138298563659191,0.013492238707840443,-0.02100212685763836,-0.013408281840384007,0.024164048954844475,-0.043915778398513794,0.03122078999876976,-0.02830025926232338,-0.03590983524918556,-0.0026622875593602657,-0.0015432583168148994,-0.030329884961247444,0.056779179722070694,0.002925026696175337,-0.018014760687947273,-0.0572926364839077,-0.0480869896709919,0.05584901571273804,-0.015742219984531403,0.039779093116521835,-0.033517349511384964,0.055596914142370224,0.04677212983369827,-0.07178249955177307,0.013036384247243404,0.003148695919662714,-0.024037647992372513,0.009440950118005276,-0.031405672430992126,-0.023355651646852493,-0.05508800223469734,-0.01200329139828682,0.0013764607720077038,0.029774878174066544,-0.024583183228969574,-0.013663772493600845,-0.016736887395381927,-0.07792666554450989,-0.019214564934372902,0.03003045730292797,0.00040041623287834227,-0.04495808854699135,0.023759279400110245,-0.0072215404361486435,-0.052387017756700516,-0.04280752316117287,-0.016406681388616562,0.008918841369450092,0.027365779504179955,-0.0714339017868042,-0.06758495420217514,0.028811296448111534,-0.006258023902773857,-0.06619953364133835,0.03032194823026657,0.04745291918516159,-0.0011786195682361722,-0.0370437391102314,-0.04281357303261757,-0.02335711196064949,-0.00883511919528246,0.001583025441505015,-0.0025421478785574436,0.11820421367883682,-0.02314683608710766,-0.03990454226732254,0.03844626992940903,0.04242074117064476,0.018742326647043228,-0.04378093034029007,-0.03323030099272728,0.0754464790225029,-0.07942178845405579,-0.04678540304303169,0.007008467800915241,0.004801079630851746,-0.008676975965499878,0.08669585734605789,0.00015271168376784772,-0.011400220915675163,0.15017342567443848,0.02327689528465271,-0.034767258912324905,0.004888314753770828,-0.021575843915343285,0.02042434737086296,-0.04215250164270401,0.0012151887640357018,0.04116598144173622,0.17673711478710175,0.0020751282572746277,0.07552442699670792,0.0026775121223181486,-0.016745595261454582,-0.005455592181533575,0.03053881973028183,0.03488526493310928,0.04798407852649689,0.08631347119808197,-0.09236900508403778,-0.0011493691708892584,-0.047338198870420456,-0.1515520066022873,-0.03423457592725754,0.0877688005566597,-0.08331576734781265,-0.053093548864126205,-0.08599823713302612,-0.020024005323648453,-0.05106429383158684,-0.04569394141435623,0.07840593159198761,-0.06377577036619186,0.06114016845822334,-0.016616906970739365,-0.09116632491350174,0.012651472352445126,0.002984358463436365,0.016466623172163963,0.016591684892773628,0.008788070641458035,-0.023021617904305458,-0.0925082340836525,0.08337947726249695,0.03613138198852539,-0.013741550035774708,-0.08208166062831879,-0.041694965213537216,-0.03509414196014404,-0.05694631487131119,0.06469394266605377,-0.04937310516834259,0.1210567057132721,0.033711548894643784,0.05649450421333313,0.02828400954604149,-0.10084753483533859,0.06027459725737572,-0.07806825637817383,-0.08417053520679474,0.06396166235208511,0.022319236770272255,0.09405574947595596,0.03910171985626221,-0.009325411170721054,-0.0970127135515213,-0.0287699606269598,0.039937179535627365,0.02637537755072117,0.0004269808705430478,0.024830475449562073,-0.04581562429666519,-0.10377039015293121,0.07854968309402466,-0.07668743282556534,-0.052093975245952606,-0.03620770201086998,0.00449243001639843,0.013236020691692829,-0.03660200908780098,0.010127951391041279,-0.045926984399557114,0.046462349593639374,0.0023635616526007652,-0.02477191761136055,-0.15123258531093597,-0.005176674108952284,-0.04163568466901779,-0.0017540454864501953,-0.07193697243928909,-0.014193619601428509,-0.02668612264096737,-0.036959804594516754,0.07694701850414276,-0.1235324963927269],[-0.023196659982204437,0.005709362216293812,-0.05317322909832001,0.01690579019486904,-0.0037478001322597265,0.0290396586060524,0.03606342896819115,-0.015172085724771023,-0.058078378438949585,-0.057372819632291794,0.005267726257443428,-0.0358596034348011,-0.04211613908410072,-0.003409112337976694,-0.014218526892364025,0.014575953595340252,-0.029847361147403717,0.0069667873904109,-0.015973946079611778,0.046352386474609375,0.05117526277899742,-0.04266952723264694,-0.07980450242757797,0.047530654817819595,-0.04560942202806473,0.014438522979617119,0.050847284495830536,0.006413795053958893,-0.0015403423458337784,0.007784364745020866,0.0025492270942777395,-0.018568003550171852,0.05831490457057953,-0.04552508518099785,0.020385410636663437,-0.015627434477210045,-0.034269243478775024,0.028558265417814255,-0.044301554560661316,0.040422286838293076,0.010796758346259594,-0.01664227806031704,0.01942581683397293,0.022674933075904846,0.011132224462926388,-0.05160073563456535,-0.03620704263448715,0.02642250247299671,-0.03803998604416847,-0.02935309149324894,-0.03428517282009125,0.05262010544538498,0.04339548200368881,-0.05269983410835266,-0.13407430052757263,-0.023385386914014816,0.01061385590583086,-0.013025879859924316,0.04916644096374512,-0.04756046086549759,0.013697673566639423,-0.014646920375525951,0.04644029587507248,-0.04615354165434837,-0.05521734058856964,-0.0691898763179779,-0.015506759285926819,-0.02979065105319023,0.035826489329338074,-0.025648996233940125,-0.03833264485001564,0.03824527561664581,0.021222645416855812,-0.016243882477283478,0.012631420977413654,-0.03346090763807297,0.026851003989577293,0.0152211869135499,0.009770849719643593,0.06149353086948395,-0.011404957622289658,0.030437134206295013,0.03516377881169319,-0.008540717884898186,0.05466395989060402,0.03886044770479202,0.06321953237056732,-0.06372296810150146,0.029964987188577652,-0.0023602251894772053,0.03425273299217224,-0.04336099326610565,-0.011952926404774189,-0.03523773327469826,0.011708656325936317,-0.062119338661432266,0.007226273883134127,0.06320880353450775,-0.044336073100566864,0.025863708928227425,-0.039788831025362015,0.018711933866143227,-0.024224670603871346,0.000844372611027211,0.03628861904144287,-0.019834283739328384,-0.05737719684839249,-0.09300008416175842,-0.000899200385902077,0.019778700545430183,-0.006578394677489996,0.016830213367938995,-0.04047955200076103,-0.012602691538631916,0.013981703668832779,-0.05804985761642456,0.06939412653446198,-0.05814110487699509,-0.005890116561204195,-0.012257621623575687,0.027956046164035797,0.02562379650771618,-0.03938014805316925,0.050276175141334534,0.012882773764431477,0.09675775468349457,-0.04011370241641998,-0.02058841846883297,0.052350785583257675,-0.0403963178396225,0.03858581557869911,0.01606515794992447,0.018670381978154182,-0.03234945982694626,-0.06887298822402954,-0.000818432483356446,-0.053265929222106934,0.010840482078492641,-0.07394037395715714,-0.0056482176296412945,-0.03525291383266449,-0.038712795823812485,-0.05272894352674484,-0.11496775597333908,0.06304952502250671,-0.07244212925434113,-0.04216698929667473,0.0016506254905834794,0.06347952783107758,-0.009760205633938313,0.05788355693221092,-0.03057071380317211,0.13112814724445343,0.0542781800031662,-0.020951757207512856,0.04971260204911232,0.06923571228981018,-0.0549919418990612,-0.031460341066122055,0.04322265461087227,0.014534741640090942,0.01653502881526947,0.13650411367416382,-0.020156757906079292,-0.05941208451986313,0.09892101585865021,0.04684848338365555,0.027838533744215965,-0.06815259903669357,-0.060842763632535934,-0.01782950758934021,0.024978771805763245,-0.04091127961874008,-0.05457300692796707,0.10378535836935043,-0.05822145193815231,-0.0008315701270475984,0.05182058364152908,-0.00790158100426197,0.0026013567112386227,-0.04780280590057373,-0.0005710619734600186,0.048865631222724915,0.17779068648815155,-0.12999428808689117,-0.09048167616128922,0.011365922167897224,-0.2000521719455719,-0.17650341987609863,-0.015392175875604153,-0.07367005944252014,-0.08462139964103699,-0.08689860999584198,-0.034148551523685455,0.0018491565715521574,0.027038846164941788,-0.018078068271279335,0.0680915117263794,0.037288062274456024,-0.0005298224277794361,-0.12996873259544373,0.03977864980697632,-0.0937289446592331,-0.012699038721621037,-0.0607638955116272,-0.08419370651245117,-0.0386338010430336,-0.055057164281606674,0.03909808397293091,-0.05197150632739067,-0.03237605467438698,-0.02814100682735443,-0.06509542465209961,-0.02609356865286827,0.052121832966804504,0.047252777963876724,-0.06889300793409348,-0.004682444967329502,0.009416204877197742,0.09061441570520401,0.0909745916724205,-0.13632090389728546,-0.03963713347911835,-0.0012816673843190074,-0.06462347507476807,-0.07735695689916611,-0.04623023420572281,-0.008925742469727993,0.02376982755959034,-0.07694754004478455,-0.2615182399749756,-0.0010495972819626331,-0.03253084793686867,0.001848932122811675,0.056883759796619415,-0.06797255575656891,-0.05242948979139328,-0.22884908318519592,0.09661919623613358,-0.08107437938451767,-0.06851216405630112,-0.10559561848640442,0.07402487099170685,0.012032526545226574,-0.010565327480435371,0.015482431277632713,0.02226782962679863,0.04539848864078522,0.03659816086292267,-0.07159670442342758,-0.26149240136146545,-0.025376541540026665,0.05500143766403198,0.07180045545101166,-0.10710139572620392,-0.11378658562898636,-0.05282514914870262,-0.012373769655823708,0.09428126364946365,-0.07798042893409729],[0.0740317851305008,0.01877002976834774,-0.002180159091949463,0.013754349201917648,0.010339226573705673,0.05588241666555405,-0.02073991484940052,0.010892592370510101,0.00994165614247322,0.04611506685614586,-0.05697721987962723,-0.12985040247440338,0.09353240579366684,0.0568503737449646,-0.006804199889302254,-0.06312093883752823,-0.026244331151247025,-0.03728633001446724,-0.019632205367088318,-0.04521762952208519,-0.022595403715968132,0.037067148834466934,-0.024745222181081772,0.022782061249017715,-0.02960159443318844,-0.008562833070755005,0.022077636793255806,-0.0056538768112659454,-0.027112890034914017,-0.005019191186875105,-0.03602103143930435,-0.005304887890815735,0.0052938987500965595,-0.0600895881652832,-0.04545728117227554,-0.04119641333818436,-0.03126196563243866,-0.01819838397204876,-0.043608177453279495,0.06970520317554474,0.03580464795231819,0.052955854684114456,-0.061790309846401215,-0.06869839876890182,0.017424514517188072,0.048157330602407455,-0.0064681763760745525,0.057232484221458435,-0.04680878669023514,-0.05367755889892578,-0.047289639711380005,-0.027137355878949165,0.02662794105708599,-0.006460144184529781,-0.12770885229110718,-0.015116534195840359,0.09438454359769821,-0.06546149402856827,0.012231260538101196,-0.016728108748793602,-0.04990624263882637,-0.011816401034593582,0.05220048502087593,-0.06089406460523605,-0.07411614805459976,0.015082735568284988,0.0008175969123840332,0.05842636525630951,0.0570128858089447,0.005827569868415594,0.014700375497341156,-0.06018616631627083,0.00985286571085453,-0.04164529964327812,-0.053488124161958694,0.0030912873335182667,-0.061208657920360565,-0.011444944888353348,0.04744413122534752,-0.0038465920370072126,0.04736485332250595,0.02096245251595974,-0.03808679059147835,-0.01933877542614937,0.051629047840833664,-0.05457058921456337,0.03753010556101799,-0.002469935454428196,0.03704211115837097,-0.04390239715576172,0.0054148961789906025,-0.04498192295432091,-0.025336526334285736,-0.01568744145333767,-0.003448209725320339,-0.03992106765508652,-0.04211113601922989,-0.03577345237135887,0.007303759455680847,-0.00925957877188921,0.056530751287937164,-0.03397633880376816,0.04376010596752167,-0.06606566905975342,-0.016736440360546112,0.012023708783090115,-0.0063383253291249275,0.020925424993038177,0.00533237773925066,0.048625364899635315,0.02851426973938942,-0.03556584194302559,-0.03645269572734833,0.034971460700035095,-0.006413389462977648,-0.009684222750365734,0.10436764359474182,-0.01828889176249504,-0.004903338849544525,-0.05097311735153198,-0.004369197878986597,-0.03014509007334709,-0.003936651162803173,0.029166169464588165,-0.05969000980257988,0.02109493501484394,-0.07084186375141144,-0.024121582508087158,-0.023950038477778435,0.02127438597381115,0.024634286761283875,0.07158032804727554,-0.013565055094659328,0.04858390614390373,-0.03188245743513107,-0.04867491126060486,-0.042336661368608475,-0.001236835028976202,-0.09856529533863068,0.010025648400187492,0.028141813352704048,-0.0255377646535635,0.03366358205676079,-0.022643188014626503,0.04091576859354973,0.04536159336566925,-0.0187397263944149,-0.021622532978653908,0.16598351299762726,0.008901260793209076,0.07761846482753754,-0.018859323114156723,0.05506857857108116,0.048571690917015076,0.06259354948997498,0.029023699462413788,0.04099452868103981,-0.049574416130781174,0.026453102007508278,-0.010837502777576447,0.015576869249343872,-0.036987025290727615,0.10382362455129623,-0.0011487393639981747,-0.016066400334239006,0.12046591192483902,-0.0560486726462841,0.009577726945281029,0.009943926706910133,-0.020872406661510468,0.03185080736875534,0.0032196491956710815,0.05572488158941269,-0.022999348118901253,0.17359952628612518,-0.043653905391693115,0.011882826685905457,-0.05184469372034073,0.014117347076535225,0.0008297032909467816,-0.021655254065990448,-0.05879591777920723,-0.05237462744116783,0.14045245945453644,-0.12937547266483307,-0.08740434050559998,-0.044422928243875504,-0.19860388338565826,-0.04195692762732506,0.014181912876665592,-0.02792746014893055,-0.036779094487428665,-0.14858457446098328,0.025687672197818756,-0.057005565613508224,-0.005218892823904753,-0.004102665930986404,0.027981052175164223,-0.03721550479531288,0.005925897974520922,-0.04207595810294151,-0.004946835804730654,-0.05011840537190437,0.11032786965370178,0.06883913278579712,-0.054285112768411636,-0.014074326492846012,-0.036364443600177765,-0.026452209800481796,-0.0005400379304774106,0.0010631917975842953,-0.022714175283908844,-0.04743099957704544,0.018869778141379356,-0.01050227228552103,0.13562896847724915,-0.09660875052213669,0.08785200864076614,0.04300045222043991,0.1307007074356079,0.030703198164701462,-0.05693260580301285,0.028672553598880768,-0.04562409594655037,-0.06517377495765686,0.03938911855220795,0.02793794311583042,0.05149437487125397,0.019962862133979797,0.019720517098903656,-0.17311862111091614,0.02280641719698906,0.04389422386884689,0.045350562781095505,0.06949342042207718,-0.0872315913438797,0.014418658800423145,-0.17266401648521423,0.04473687708377838,-0.07660719007253647,-0.007432722952216864,-0.13839052617549896,0.03161310404539108,0.05065712705254555,-0.04153868928551674,0.040426112711429596,-0.02060806006193161,0.03367118909955025,0.053371720016002655,-0.05650462582707405,-0.20321430265903473,-0.030437471345067024,0.007412642240524292,-0.01208417396992445,-0.06550128757953644,-0.15812918543815613,-0.0237022303044796,-0.020740974694490433,0.06261200457811356,-0.08302562683820724],[-0.02964124083518982,0.03596024215221405,-0.05680989474058151,0.007142516318708658,0.0028884964995086193,-0.020740626379847527,-0.03834908828139305,0.023309649899601936,0.042810652405023575,-0.015390094369649887,-0.02601480297744274,0.12716007232666016,0.044756967574357986,0.011939296498894691,-0.05742545798420906,0.04318438842892647,-0.029250578954815865,-0.04740709066390991,0.05327773094177246,0.033201418817043304,-0.00456053763628006,-0.028763066977262497,0.06586755812168121,0.008798197843134403,0.026381993666291237,-0.0588882640004158,0.04158610478043556,0.006941594183444977,0.016391756013035774,0.007500342559069395,0.05871615186333656,0.04750610142946243,-0.007495675701647997,0.006950799375772476,-0.006508078426122665,-0.04547690600156784,-0.002009096322581172,0.08068688213825226,0.07185135781764984,0.005991075187921524,0.042965564876794815,0.03029305674135685,0.03660500794649124,-0.05886721983551979,-0.025310801342129707,0.03446183353662491,-0.015766417607665062,0.05562485381960869,0.024504251778125763,0.05973539501428604,-0.011378873139619827,0.01840975508093834,0.054281700402498245,0.048295266926288605,0.11869974434375763,-0.0285795945674181,-0.06312598288059235,0.01737884432077408,-0.02098758891224861,0.05244974419474602,-0.00999088678508997,-0.02125484310090542,0.048108745366334915,-0.029860127717256546,-0.025740642100572586,0.006224693264812231,0.01916695386171341,4.133937181904912e-06,-0.04551257565617561,0.023021439090371132,-0.005641281139105558,0.020945297554135323,-0.03412054479122162,-0.008964021690189838,-0.008173422887921333,-0.010074836201965809,0.031139714643359184,-0.02649414725601673,0.0100597208365798,-0.013425846584141254,0.03875165432691574,0.05517526715993881,-0.023867635056376457,0.05791029334068298,-0.004552722442895174,-0.01687786355614662,0.0015022533480077982,-0.011007525026798248,-0.058109626173973083,0.012911168858408928,0.04552179202437401,-0.022085299715399742,-0.035048265010118484,-0.04860658198595047,0.00805638451129198,0.059605877846479416,-0.0062320115976035595,-0.01748567819595337,-0.06120526045560837,-0.02224178984761238,-0.02500023879110813,0.0035453650634735823,-0.012083042412996292,-0.014271493069827557,0.04293382167816162,-0.0075847310945391655,-0.014705314300954342,-0.020964426919817924,0.03793290629982948,0.013946639373898506,0.008486178703606129,0.025897644460201263,0.028586100786924362,0.0008657918078824878,0.05516694858670235,-0.004955070558935404,-0.05470489710569382,0.009036682546138763,-0.03432968258857727,0.04395448416471481,-0.04708251357078552,-0.01648859679698944,0.00634288415312767,0.0017081067198887467,-0.005186930298805237,-0.08775201439857483,-0.009960336610674858,0.06214812025427818,-0.008204273879528046,-0.011969484388828278,0.04549918696284294,-0.043077316135168076,0.02878941223025322,-0.05180744454264641,0.08941508829593658,0.04114117473363876,0.003516214434057474,-0.024090876802802086,0.09897210448980331,-0.015551279298961163,-0.03245757892727852,-0.029314083978533745,-0.02941245399415493,0.062271930277347565,0.0046247197315096855,-0.023990096524357796,0.0357077531516552,0.008690972812473774,-0.1726340651512146,0.07941369712352753,0.02496238239109516,-0.04756024852395058,-0.08850812166929245,-0.08778759837150574,0.011091240681707859,0.019397322088479996,-0.03191475197672844,0.07393830269575119,-0.013334797695279121,0.07573578506708145,0.03031030297279358,0.057192496955394745,-0.034056711941957474,-0.025068102404475212,-0.012567012570798397,-0.09166163951158524,-0.028260450810194016,-0.04130864888429642,-0.060515228658914566,-0.030363380908966064,0.02511458657681942,0.0035360530018806458,-0.060048989951610565,-0.047468338161706924,-0.15585394203662872,-0.018546313047409058,-0.053510863333940506,-0.001955572282895446,0.05642953887581825,-0.017407692968845367,0.005736351013183594,0.04169558361172676,-0.0041158259846270084,-0.1348305195569992,0.09872879832983017,0.06298893690109253,-0.014494515024125576,0.21717998385429382,0.10780277103185654,-0.0595003142952919,0.08969023823738098,0.14969365298748016,0.16173900663852692,0.012590035796165466,-0.03571675345301628,-0.034634411334991455,0.03674499690532684,0.0024963323958218098,0.02575509622693062,-0.04553418233990669,0.059072863310575485,-0.01852492243051529,0.11128418892621994,-0.09311652928590775,0.03989975526928902,0.15155954658985138,-0.05879136547446251,0.09432467073202133,-0.09839683026075363,0.00517266197130084,-0.023428793996572495,-0.013916379772126675,0.0886211171746254,-0.04817302152514458,-0.05036674439907074,-0.03739666938781738,0.1522635519504547,-0.11652231216430664,0.05541843920946121,-0.02146068960428238,-0.10429210960865021,0.07715599983930588,0.06655348837375641,0.06249024718999863,0.05055319517850876,0.07578752189874649,-0.02227032370865345,-0.06195908784866333,-0.0651482418179512,-0.031216276809573174,0.2665809690952301,-0.03714552894234657,-0.02578161470592022,-0.005507736001163721,-0.019266050308942795,0.09743119776248932,0.057190485298633575,0.2461221069097519,-0.12371471524238586,0.08239717781543732,-0.012629497796297073,0.04040927067399025,0.02011185698211193,0.010751720517873764,0.05382382869720459,-0.09376828372478485,-0.01671394146978855,-0.06006474047899246,-0.07717708498239517,-0.008307616226375103,0.28925982117652893,-0.022559145465493202,0.03694075345993042,-0.04803476110100746,0.07641123980283737,0.1855452060699463,-0.038346607238054276,0.013461164198815823,-0.07692928612232208,0.2007909119129181],[-0.004788552410900593,-0.09844239801168442,-0.011544957756996155,0.034619223326444626,-0.006951118819415569,0.03606332466006279,0.04038722813129425,0.018315641209483147,0.04543090984225273,0.030861541628837585,-0.03041703812777996,-0.12841679155826569,-0.015524790622293949,-0.030581708997488022,-0.005311500746756792,-0.06638073176145554,0.04426112771034241,0.03844037652015686,-0.09549685567617416,-0.038584042340517044,0.045345474034547806,0.011335011571645737,-0.07004702091217041,0.017906256020069122,0.03550935164093971,-0.02138730324804783,-0.03349979221820831,0.030919142067432404,-0.022265631705522537,-0.03424696996808052,0.024455424398183823,0.019304802641272545,-0.0549822635948658,-0.05196119099855423,-0.03505885228514671,0.002660599537193775,-0.058240149170160294,-0.03635115176439285,-0.00747292023152113,0.00045718811452388763,-0.029406951740384102,0.013561561703681946,-0.028151366859674454,0.01028390135616064,0.002706478349864483,0.02523082308471203,-0.003472382202744484,-0.03585367277264595,0.026177724823355675,-0.01899033784866333,-0.04116884618997574,0.029966630041599274,-0.006485031917691231,-0.019601305946707726,-0.05786918103694916,0.018125059083104134,0.02113443799316883,-0.006768876686692238,-0.004296322353184223,-0.014975053258240223,0.0015447874320670962,-0.06229036673903465,-0.029518354684114456,-0.052949342876672745,0.03561817854642868,0.020104700699448586,-0.029692165553569794,-0.05705863609910011,0.05308111011981964,-0.01853198930621147,0.013322369195520878,-0.09377245604991913,0.04153382033109665,-0.021929234266281128,0.017403854057192802,0.004609661642462015,-0.0114145427942276,0.02497708424925804,-0.029437251389026642,-0.04232408478856087,-0.045606426894664764,-0.06331658363342285,0.022796861827373505,0.008857516571879387,0.023913303390145302,-0.008763514459133148,-0.03209126740694046,-0.08207262307405472,0.05487946420907974,0.030038857832551003,-0.05146371200680733,0.02553083933889866,-0.034890107810497284,0.049039117991924286,-0.04697005823254585,0.011425641365349293,-0.002226305892691016,-0.03048207052052021,-0.04584561660885811,-0.023961296305060387,-0.002197323366999626,0.03628414869308472,0.017278501763939857,-0.01916278526186943,0.01976536028087139,0.03912517800927162,-0.029727572575211525,-0.05461737886071205,-0.10095274448394775,0.006638651248067617,0.03270778805017471,0.0010731187649071217,0.018456922844052315,-0.04711582511663437,0.03809864819049835,0.0478559285402298,0.06460399925708771,-0.026478005573153496,-0.06912219524383545,-0.04601709172129631,0.0654614269733429,0.021857306361198425,-0.059675514698028564,-0.06621731072664261,-0.035860393196344376,-0.002442004391923547,-0.024704309180378914,0.045078717172145844,-0.014522991143167019,-0.029270626604557037,0.0032191681675612926,-0.060412392020225525,-0.04933615028858185,0.05309854820370674,-0.05387108400464058,0.005595425609499216,-0.0421140119433403,0.06303293257951736,-0.036341674625873566,-0.060450922697782516,0.015287087298929691,-0.018356336280703545,-0.046257615089416504,-0.10190755873918533,-0.07674306631088257,0.03579607605934143,-0.03959621489048004,0.031346552073955536,0.10888135433197021,0.03447231277823448,0.053003426641225815,-0.037632495164871216,0.05460856854915619,0.027779018506407738,0.03235545754432678,0.0005996864638291299,0.08268722146749496,-0.07259787619113922,-0.0511145293712616,-0.08350865542888641,0.06129848212003708,-0.03411710262298584,0.07739079743623734,-0.03247321397066116,0.01882440224289894,0.09718789905309677,0.03945550322532654,-0.015097656287252903,0.03616027161478996,0.016568684950470924,0.012006866745650768,-0.026214394718408585,0.019067807123064995,0.015775524079799652,0.12590007483959198,0.04548318684101105,-0.05715331435203552,0.045528825372457504,-0.024609806016087532,0.03754616901278496,0.03763660043478012,-0.010928025469183922,0.037417639046907425,0.18737155199050903,-0.12638972699642181,-0.029408523812890053,0.0032646125182509422,-0.22541384398937225,-0.08835171163082123,0.09214620292186737,-0.09533939510583878,-0.09771724790334702,-0.18523183465003967,-0.0031037330627441406,-0.06663890928030014,0.016888398677110672,0.04090622812509537,-0.11207575350999832,0.05213228240609169,0.01829349249601364,-0.12424780428409576,-0.07904207706451416,-0.04137412831187248,0.05138247460126877,-0.04213152453303337,-0.11497915536165237,-0.03448306396603584,-0.1445745974779129,0.1112980991601944,0.049198735505342484,-0.01942986622452736,-0.03129999339580536,-0.07631661742925644,0.02890370786190033,-0.007713717874139547,0.05450485646724701,-0.07820694148540497,0.07742171734571457,0.000911187962628901,0.021425794810056686,0.09054549038410187,-0.03183434531092644,0.034475866705179214,0.03484216332435608,-0.013124427758157253,0.0019457973539829254,-0.03084167279303074,0.06317606568336487,0.023708265274763107,-0.05421201139688492,-0.16285395622253418,-0.05916568264365196,-0.009451999329030514,0.0356263592839241,-0.014283135533332825,-0.05770425871014595,-0.039958029985427856,-0.15244343876838684,0.1079266220331192,-0.08239471167325974,0.006624142173677683,-0.09851760417222977,-0.009244711138308048,0.06283418834209442,-0.013428679667413235,0.05979086086153984,-0.012125706300139427,0.0323612354695797,0.011739087291061878,0.022615013644099236,-0.19859948754310608,0.027067169547080994,0.023749940097332,0.012421061284840107,-0.07862547785043716,-0.03977484628558159,0.019786659628152847,0.07999250292778015,0.07958176732063293,-0.1232382208108902],[0.058512866497039795,-0.014777489937841892,-0.025163717567920685,-0.0008582164300605655,-0.024519633501768112,0.03338773176074028,0.03207574784755707,-0.019777406007051468,0.04732765629887581,0.03993957117199898,-0.005961842834949493,-0.14251938462257385,0.010031033307313919,0.010878742672502995,0.08913403004407883,0.006510347593575716,-0.0018001710996031761,-0.06026807054877281,-0.07154390960931778,0.0358700267970562,-0.053935401141643524,0.0055266693234443665,-0.017719021067023277,-0.03885827213525772,-0.03552646189928055,0.06210847198963165,-0.04923785850405693,-0.004786346107721329,-0.02579173818230629,-0.04145539551973343,0.023717746138572693,0.04645437002182007,-0.04235333576798439,-0.006346496753394604,-0.015231002122163773,0.01289686281234026,0.019413631409406662,0.025933850556612015,-0.06483232975006104,0.01279180683195591,-0.042595554143190384,-0.0652979388833046,-0.01665322110056877,-0.0530661903321743,-0.02990908734500408,-0.023378707468509674,0.012422923929989338,-0.04615996032953262,0.013362038880586624,0.037724144756793976,-0.0039854212664067745,-0.060193222016096115,0.020812349393963814,-0.023013310506939888,-0.10400065034627914,0.02543330006301403,-0.0033760517835617065,-0.047871120274066925,0.0750555768609047,-0.059770721942186356,-0.031675200909376144,-0.05288122594356537,-0.03718751296401024,0.021870926022529602,-0.034462183713912964,-0.05197051540017128,-0.059258006513118744,0.04281674325466156,-0.014178857207298279,-0.04548127204179764,0.005947425961494446,0.001666654134169221,0.019501203671097755,-0.032548438757658005,0.008370495401322842,-0.012416264973580837,-0.02635485865175724,0.04491787776350975,0.03239738196134567,0.04316217079758644,0.04506147280335426,-0.015543824061751366,-0.008145025931298733,-0.003819458419457078,-0.012086758390069008,0.012031405232846737,-0.044018831104040146,-0.07830780744552612,0.012741909362375736,-0.07380377501249313,-0.016075722873210907,-0.015791257843375206,0.026323888450860977,-0.0029838515911251307,-0.01733253337442875,-0.0040136720053851604,0.030072713270783424,-0.02167944796383381,-0.025572815909981728,-0.09601166099309921,-0.03296372666954994,-0.061884429305791855,-0.04399232193827629,0.021021759137511253,-0.0692388191819191,-0.03522605076432228,-0.029357029125094414,-0.06542854011058807,-0.06041397899389267,0.029001008719205856,0.014108768664300442,0.026137959212064743,0.04727359488606453,-0.007852913811802864,-7.865703082643449e-05,-0.03810545802116394,0.053531464189291,-0.07674362510442734,0.04980594664812088,-0.008735868148505688,-0.022607434540987015,-0.016937343403697014,-0.032225850969552994,-0.00803320575505495,0.013881140388548374,0.052487812936306,-0.04845220595598221,-0.02269843965768814,-0.0496450699865818,-0.052709098905324936,-0.025808807462453842,-0.013449344784021378,0.00021868725889362395,-0.0030247976537793875,-0.03158974647521973,-0.025543708354234695,-0.03173430263996124,0.03094911389052868,-0.06300931423902512,-0.019100207835435867,0.01671644113957882,0.05192101001739502,0.011807595379650593,-0.05496414378285408,0.007281949743628502,-0.01444597914814949,-0.01822182536125183,-0.04781578853726387,0.12970644235610962,-0.06211194023489952,-0.015164799056947231,-0.0442567802965641,0.08532467484474182,0.004739018622785807,0.04293988645076752,0.02903597429394722,0.06433475762605667,-0.0024240114726126194,0.006079214625060558,0.023753207176923752,-0.028470266610383987,-0.028233785182237625,0.0831662192940712,0.02932940237224102,-0.04550735652446747,0.05068645626306534,-0.019220247864723206,-0.0405140221118927,0.04449275881052017,-0.0015470301732420921,0.0859033390879631,0.05155172944068909,0.02600536309182644,0.006321807391941547,0.10612452775239944,0.005613222718238831,0.054831363260746,0.0207538940012455,-0.03493543714284897,0.019003184512257576,0.04067549854516983,0.026709260419011116,-0.016696741804480553,0.12520244717597961,-0.13118985295295715,-0.05166451260447502,-0.06955975294113159,-0.20732901990413666,-0.14576958119869232,-0.03365713730454445,-0.0902169719338417,-0.07004454731941223,-0.17483974993228912,-0.03100126050412655,0.04214540868997574,0.009192056953907013,0.03654945269227028,-0.06185990944504738,0.027526915073394775,-0.0010854518041014671,-0.06536610424518585,0.014363213442265987,-0.08653369545936584,0.10871444642543793,0.04259428381919861,-0.050607044249773026,-0.05243171006441116,-0.041736897081136703,-0.013842884451150894,0.04726186767220497,-0.045861344784498215,-0.06745634973049164,-0.03448323532938957,0.045608602464199066,0.026460636407136917,0.10301179438829422,-0.010610392317175865,0.08724955469369888,-0.015398643910884857,0.08521226048469543,0.12833711504936218,-0.05478882044553757,0.04176061972975731,-0.026443378999829292,-0.024315452203154564,0.04589492455124855,0.01815890148282051,0.06101830303668976,0.009186247363686562,0.026797451078891754,-0.1629839986562729,0.040434595197439194,0.02321525476872921,-0.011853964999318123,0.0627777948975563,-0.09824534505605698,-0.05756436660885811,-0.12427764385938644,0.04642727971076965,-0.15306295454502106,0.02451736107468605,-0.06490273028612137,-0.008460577577352524,0.01954357884824276,-0.04810437560081482,0.035959642380476,0.038050852715969086,0.041576679795980453,-0.007846587337553501,-0.0005778910126537085,-0.23000583052635193,-0.04158118739724159,-0.015511512756347656,0.057582516223192215,-0.0562819167971611,-0.06692877411842346,0.010201969183981419,-0.017224768176674843,0.022924883291125298,-0.10740911215543747],[-0.00858251377940178,0.006730963010340929,-0.028527863323688507,-0.06340564042329788,-0.041280776262283325,-0.012139925733208656,-0.03059082105755806,0.024380188435316086,0.04029877856373787,0.04470394179224968,-0.033186525106430054,-0.041164644062519073,-0.054712601006031036,-0.05119243264198303,-0.06838525831699371,-0.048995472490787506,-0.01689525507390499,0.03207353502511978,0.053673405200242996,0.024583570659160614,-0.0497305765748024,-0.04034138843417168,-0.039622608572244644,0.04763198643922806,0.006086296867579222,-0.03760811686515808,-0.061097677797079086,0.03725819289684296,0.036264337599277496,-0.010036934167146683,0.04474804922938347,0.024223051965236664,0.05439010635018349,-0.004464833997189999,0.014653711579740047,0.0007143657421693206,0.009299805387854576,0.023567751049995422,-0.03543047606945038,0.03923983871936798,-0.07742313295602798,0.02990652061998844,-0.042596235871315,-0.03182462975382805,-0.02290356159210205,0.03499932214617729,0.020496023818850517,0.061905473470687866,0.07604429125785828,0.024064602330327034,-0.03217972069978714,-0.037142399698495865,0.04098968580365181,0.03265780210494995,0.09563220292329788,0.040664829313755035,-0.05049726739525795,0.015757231041789055,0.027084439992904663,-0.05165551230311394,-0.014781000092625618,0.06503687798976898,-0.05989803001284599,0.021238049492239952,0.037331052124500275,0.02059720642864704,0.04037582129240036,0.06982949376106262,0.0013011693954467773,-0.010080122388899326,-0.05554747208952904,-0.0930839478969574,0.009601709432899952,-0.04574781656265259,-0.03054187074303627,0.02432149648666382,0.03159940242767334,-0.021821629256010056,0.00023865789989940822,0.009777326136827469,0.04210231080651283,-0.0777817964553833,-0.0038140134420245886,0.03691006451845169,0.050876885652542114,0.027617132291197777,0.02397896535694599,-0.029534414410591125,0.019488876685500145,-0.04905657842755318,-0.04797006770968437,-0.02329625003039837,-0.01690589264035225,-0.016263309866189957,0.016682494431734085,-0.05211717262864113,-0.01719498075544834,0.04960049316287041,0.06239427626132965,0.0069909836165606976,-0.008502917364239693,0.05271320417523384,-0.059838950634002686,0.016390789300203323,-0.01474103331565857,0.03111717291176319,0.054800938814878464,0.062385112047195435,-0.040775541216135025,-0.0638144239783287,-0.05539873614907265,0.033577606081962585,-0.07165835052728653,0.055206745862960815,0.029167668893933296,0.008646076545119286,0.01198006235063076,-0.03344722092151642,-0.01935109682381153,-0.04685370251536369,-0.04862537607550621,0.04958286136388779,0.005266623571515083,-0.011924597434699535,0.0028221963439136744,-0.017522644251585007,-0.014587031677365303,-0.004393993876874447,0.002901282161474228,0.023609058931469917,-0.03915654495358467,-0.010417838580906391,0.06333514302968979,-0.03509930521249771,0.04246998578310013,-0.05020042508840561,0.03185649216175079,-0.0352705642580986,0.0483187697827816,0.06158238276839256,0.031635582447052,0.008016867563128471,-0.006963028106838465,0.12087935954332352,0.016051288694143295,-0.0242441538721323,0.07431590557098389,-0.02184772863984108,-0.12160443514585495,0.0633038803935051,-0.05647537484765053,-0.02717222273349762,-0.09184468537569046,-0.12046481668949127,-0.006704044062644243,0.00013035585288889706,0.03538311645388603,0.024797668680548668,-0.00621989369392395,0.07442981749773026,0.06011398881673813,-0.04105464369058609,-0.09582792967557907,-0.000867567490786314,0.025472048670053482,-0.03046964854001999,-0.05291645973920822,0.03836582601070404,0.058470264077186584,0.06253228336572647,0.003979802131652832,0.009711317718029022,0.05860403552651405,0.08661819249391556,-0.05946047976613045,-0.032797373831272125,0.05595045164227486,-0.04462965950369835,-0.0363883413374424,-0.04423392936587334,-0.004573095589876175,0.014845863915979862,0.04675222933292389,-0.06535457074642181,0.0831453800201416,0.09704063832759857,-0.03336721658706665,0.1489625722169876,0.08858926594257355,-0.007079252507537603,0.046270761638879776,0.10015663504600525,-0.07675839960575104,0.010887160897254944,0.03125837445259094,0.03005148656666279,0.04125087708234787,-0.15348124504089355,-0.1018059104681015,0.007977957837283611,0.03818969801068306,0.000373379880329594,0.053158361464738846,-0.01623544842004776,-0.01407918892800808,0.09391476213932037,0.035598162561655045,0.1306864619255066,-0.04302993789315224,0.04907548427581787,0.03804336115717888,-0.09839614480733871,0.08189156651496887,-0.03196057677268982,-0.052244339138269424,0.0408775694668293,0.053277675062417984,-0.010804402641952038,-0.02778427116572857,-0.002671282971277833,-0.09529726952314377,0.03585680201649666,-0.012592128477990627,0.05176273360848427,0.006807506084442139,-0.009672721847891808,0.019619837403297424,-0.05866162106394768,0.01828286238014698,0.024595633149147034,0.1771552711725235,0.03638386353850365,-0.03610799461603165,0.033903319388628006,-0.0053062718361616135,0.009073724038898945,-0.028392773121595383,0.12538361549377441,-0.055802471935749054,0.089991994202137,0.048619914799928665,0.10757778584957123,-0.011501319706439972,0.028743870556354523,-0.01794293150305748,-0.06128178536891937,-0.035878315567970276,-0.1287543773651123,-0.023081323131918907,0.007117365952581167,0.19539915025234222,0.050056394189596176,0.03964095562696457,-0.03814929723739624,0.013368384912610054,0.09750000387430191,-0.03220599889755249,-0.0776243805885315,-0.07246217876672745,0.16739244759082794],[-0.08355461061000824,0.06187659874558449,-0.051794394850730896,-0.03959888592362404,0.03351224586367607,0.020724419504404068,0.010099697858095169,0.051543451845645905,0.027713485062122345,-0.030343076214194298,-0.023710982874035835,0.14580418169498444,-0.026215318590402603,-0.020256977528333664,0.01981908269226551,0.06875505298376083,-0.0627485066652298,0.01571493037045002,0.049856964498758316,-0.06519170850515366,0.004567079246044159,0.01313928235322237,0.014963743276894093,0.05550774186849594,-0.04716178774833679,-0.06640127301216125,-0.015841245651245117,-0.022565528750419617,-0.004526909440755844,0.005665529053658247,0.01939643733203411,-0.06604766845703125,-0.0293623935431242,0.008915048092603683,-0.06603994220495224,0.037853602319955826,-0.002214582171291113,0.04008667543530464,-0.03303780034184456,0.0014001722447574139,-0.0880146250128746,0.039047133177518845,0.0411812961101532,0.003890484105795622,-0.06121818348765373,-0.06417035311460495,-0.012397618032991886,0.007426929660141468,0.005590502172708511,0.0416853241622448,0.04539433866739273,-0.020775509998202324,0.009009919129312038,-0.02993129938840866,0.11063443869352341,-0.03828432038426399,-0.06329803168773651,-0.004758942406624556,0.004799752961844206,0.0030237887986004353,0.03225506469607353,-0.012261008843779564,-0.019301559776067734,-0.028241243213415146,-0.005914987064898014,-0.006803697440773249,0.041993096470832825,-0.0353010855615139,-0.03279818594455719,-0.0021523574832826853,0.051866061985492706,0.02232402190566063,-0.04341823235154152,0.015147571451961994,0.010998593643307686,0.0005221026367507875,-0.014228655956685543,-0.028392424806952477,-0.03980832174420357,0.021520674228668213,-0.06965064257383347,-0.0068229492753744125,0.05367640033364296,-0.0026160147972404957,-0.05623076111078262,-0.0012933292891830206,-0.000659648678265512,-0.010819662362337112,-0.00957755371928215,-0.014451432973146439,0.004412675276398659,0.05250893533229828,-0.027513772249221802,-0.06483402848243713,0.04636792838573456,0.03889976814389229,0.048177748918533325,0.05576265603303909,0.0372062511742115,0.057159990072250366,0.045670025050640106,0.022682281211018562,0.028201181441545486,0.043834131211042404,0.05102952942252159,0.04610234871506691,-0.010476632975041866,-0.049482330679893494,0.07107976078987122,0.02789316140115261,-0.00666654109954834,-0.02500082179903984,0.0031383177265524864,0.006319616921246052,-0.01300827693194151,-0.062032125890254974,-0.055902231484651566,-0.0009764714050106704,-0.05883730575442314,-0.040261443704366684,-0.07201710343360901,-0.0436256006360054,0.005091487895697355,-0.0210622139275074,0.038416191935539246,-0.02222188003361225,0.03935207054018974,0.04305697977542877,0.00440261559560895,0.008218578062951565,-0.032774604856967926,0.04520835354924202,-0.06670990586280823,0.04466019570827484,0.06212814524769783,0.006643999833613634,-0.021447153761982918,-0.051585789769887924,-0.021793784573674202,0.07067283242940903,0.027067430317401886,-0.05209054797887802,-0.021388227120041847,0.06271257996559143,0.039433013647794724,0.05827181413769722,-0.008782207034528255,-0.022015290334820747,-0.10594102740287781,0.051458727568387985,0.004341345280408859,0.033712320029735565,-0.10364381223917007,-0.06953646242618561,-0.007207515649497509,-0.044175487011671066,-0.006495514418929815,0.03371038660407066,-0.01145357359200716,0.046738822013139725,0.030540384352207184,0.05489733815193176,-0.05895576626062393,0.01865444891154766,-0.02235289290547371,-0.05313148722052574,-0.04349964112043381,-0.03574731573462486,0.048535000532865524,-0.029266009107232094,-0.01213971059769392,-0.04921488091349602,0.04606931284070015,-0.031377680599689484,-0.1665111929178238,-0.045902468264102936,0.055679112672805786,-0.015944940969347954,-0.04609832912683487,0.06505201011896133,-0.04450702667236328,0.03367391228675842,0.03890698030591011,-0.12020662426948547,0.09631787240505219,0.02799307182431221,0.05978778004646301,0.15930433571338654,0.07313557714223862,-0.07774675637483597,0.10913718491792679,0.13547971844673157,0.13813376426696777,-0.0422009639441967,-0.026260988786816597,-0.009969295002520084,-0.04573574289679527,0.09352819621562958,0.05407712608575821,0.01873631961643696,0.12976109981536865,-0.023435944691300392,0.07553424686193466,-0.02453150413930416,-0.034178681671619415,0.11899889260530472,0.07375466078519821,0.09199559688568115,-0.08373300731182098,-0.026793180033564568,0.023298155516386032,0.0037955448497086763,0.015889910981059074,-0.037588704377412796,0.034058596938848495,-0.14789262413978577,0.13226690888404846,-0.05862365663051605,-0.023566395044326782,-0.04073161259293556,0.0286357793956995,0.08644509315490723,0.04752275347709656,0.01344479713588953,0.11023671180009842,-0.023892683908343315,-0.047541771084070206,-0.07549149543046951,-0.10164457559585571,0.0010162427788600326,0.1292189508676529,-0.07141873240470886,0.01355090830475092,-0.044561974704265594,-0.037110697478055954,0.08578693866729736,0.027324119582772255,0.18041497468948364,-0.016013043001294136,0.03890768438577652,0.011533033102750778,0.07347865402698517,-0.0248212032020092,-0.06526646763086319,0.08469463884830475,-0.038178130984306335,0.033363740891218185,-0.07906738668680191,-0.06917228549718857,-0.011786244809627533,0.1713191419839859,0.03840320557355881,0.0457281693816185,-0.09267181903123856,0.08199575543403625,0.05977940559387207,-0.07146409153938293,-0.03902610391378403,-0.13492421805858612,0.17396268248558044],[-0.05156753957271576,-0.04614178091287613,-0.053256601095199585,-0.001003833836875856,0.022721009328961372,-0.02236447110772133,0.010742328129708767,0.02555626630783081,0.011939549818634987,0.059713225811719894,0.015641745179891586,0.11539525538682938,-0.0634613111615181,-0.030912721529603004,-0.06295635551214218,0.006568804383277893,-0.011902411468327045,-0.020084915682673454,-0.017149388790130615,0.03450687974691391,-0.013765396550297737,0.006246412172913551,0.07749533653259277,0.020000772550702095,-0.05470568686723709,0.017139296978712082,-0.07336939871311188,0.01816631108522415,0.02767406404018402,0.02110677771270275,-0.021927928552031517,-0.05358027294278145,0.04300491139292717,-0.06255590915679932,-0.04282674938440323,-0.006467191502451897,-0.08053247630596161,0.0252391304820776,0.012211277149617672,-0.05111238360404968,-0.019565638154745102,-0.0014128230977803469,-0.03638745844364166,0.016046002507209778,-0.01460032258182764,-0.021342065185308456,0.013089058920741081,0.036895960569381714,0.08492238074541092,-0.041248660534620285,0.05213550105690956,0.04665524512529373,-0.03646286204457283,-0.020326359197497368,0.09256917983293533,-0.012933083809912205,0.005027411039918661,0.09427330642938614,0.021486511453986168,-0.048172544687986374,-0.0424497127532959,0.02078312076628208,0.013504633679986,-0.03033662773668766,0.04071715846657753,0.03396933898329735,0.030231185257434845,-0.029272375628352165,-0.05613037943840027,0.041069790720939636,0.008150418289005756,-0.04453423619270325,0.05476097762584686,-0.05948803946375847,-0.046349842101335526,0.012171805836260319,0.016451990231871605,0.01018847431987524,0.050887975841760635,0.011626833118498325,-0.006312062032520771,-0.0781358927488327,0.0470387302339077,-0.04885920137166977,-0.005197438411414623,-0.0065852319821715355,-0.05972417816519737,-0.011798005551099777,-0.021279629319906235,-0.01599941775202751,0.028689073398709297,-0.048618968576192856,-0.06099356710910797,0.03785799443721771,0.005395125597715378,0.005480199586600065,0.06659742444753647,-0.03096051514148712,-0.04349631071090698,0.027265306562185287,-0.03289881721138954,0.03860463574528694,0.01933073066174984,0.025045549497008324,0.047926805913448334,0.007120433729141951,-0.004734742920845747,0.07227876782417297,0.006591612473130226,0.03967913240194321,0.006419588346034288,-0.0657792016863823,-0.06869599968194962,-0.013010196387767792,-0.015607420355081558,0.001366924145258963,-0.10123837739229202,-0.01072919275611639,-0.028917040675878525,0.029623456299304962,0.012608760967850685,0.02761101722717285,-0.030329855158925056,0.01692206598818302,0.003883357858285308,-0.04290209710597992,-0.033251404762268066,-0.029227830469608307,0.01753569021821022,0.02044961228966713,-0.06560412049293518,0.03387504816055298,0.0013717750553041697,-0.06597618758678436,0.12050232291221619,-0.06259307265281677,0.04910267889499664,-0.039130162447690964,0.003554488765075803,0.07644066959619522,0.032345544546842575,-0.061991430819034576,0.05256080627441406,0.013491090387105942,-0.03173891454935074,-0.04493190348148346,-0.0636657178401947,0.05018822103738785,-0.17736682295799255,-0.02867713011801243,-0.011571579612791538,-0.010252307169139385,-0.11421754956245422,-0.04096119478344917,0.04294455423951149,-0.013811899349093437,0.0036055282689630985,0.08557753264904022,0.06113792210817337,0.03936323523521423,0.026548758149147034,-0.007472194731235504,-0.09123695641756058,-0.022755060344934464,-0.01081463135778904,-0.061217449605464935,0.04045732319355011,0.0340648777782917,-0.02162611484527588,0.043072428554296494,-0.004349955357611179,0.061945296823978424,-0.02357853576540947,-0.009439432062208652,-0.17212317883968353,-0.005678858608007431,-5.9783560573123395e-06,-0.0004862923233304173,-0.0380515418946743,0.004931600298732519,0.02700234204530716,0.00614197738468647,0.03167470172047615,-0.1595982164144516,0.12904486060142517,0.016572419553995132,0.06975742429494858,0.1952989101409912,0.07498133927583694,-0.09141811728477478,0.07783271372318268,0.11393719911575317,0.10211769491434097,-0.06196258217096329,0.038411255925893784,0.03634372726082802,-0.04908858239650726,0.02528538927435875,-0.061090968549251556,-0.032984983175992966,0.05884194001555443,-0.0036207307130098343,0.07136869430541992,-0.0732417106628418,-0.034830570220947266,0.10684286803007126,-0.06000203266739845,0.11178711801767349,-0.08851314336061478,0.002403909107670188,0.04978640004992485,-0.09453538805246353,0.08651678264141083,-0.009612899273633957,0.0020082208793610334,-0.09124229103326797,0.16318301856517792,-0.041291557252407074,-0.0272834375500679,-0.09356070309877396,-0.08275812864303589,0.14868146181106567,-0.04037269949913025,0.04729803651571274,0.051173169165849686,-0.012115247547626495,-0.04345182701945305,-0.09119919687509537,-0.07820066809654236,0.017454072833061218,0.1891620010137558,0.025395411998033524,-0.03744257241487503,-0.026353349909186363,-0.07310379296541214,0.10796445608139038,0.03177141770720482,0.19842766225337982,-0.1393117904663086,0.16068962216377258,0.005918615963310003,0.10648643225431442,-0.012700159102678299,-0.028858890756964684,0.04366091266274452,-0.031097333878278732,-0.0083979656919837,-0.09882345050573349,-0.05580529570579529,0.05037660896778107,0.3133930265903473,0.04893980920314789,0.02470390498638153,-0.003737150924280286,0.10261832177639008,0.11281414330005646,0.0712754875421524,-0.07786542177200317,-0.11302121728658676,0.22774633765220642],[0.06880320608615875,-0.0046869306825101376,0.05682191252708435,-0.052946265786886215,0.05025249719619751,-0.0069885943084955215,-0.04149695113301277,-0.06352616101503372,-0.023448176681995392,-0.03782988712191582,-0.0028828612994402647,-0.08566814661026001,0.05225825309753418,-0.0034341539721935987,0.021544426679611206,-0.031103136017918587,0.029353836551308632,-0.039596982300281525,0.029386864975094795,-0.017438741400837898,-0.027527283877134323,0.0557224377989769,0.027279209345579147,-0.02596757747232914,0.009416299872100353,-0.04718831926584244,0.06463445723056793,0.019139140844345093,-0.04055754095315933,0.04720107093453407,-0.04077857360243797,-0.03158905357122421,0.05530625954270363,0.00531230540946126,-0.05716751515865326,0.001288510742597282,-0.007537681609392166,-0.005617596674710512,-0.06286657601594925,0.09416767209768295,-0.021041259169578552,0.021616283804178238,-0.0180174820125103,0.03527464717626572,-0.031783901154994965,0.02556242235004902,0.06748395413160324,-0.008177314884960651,0.009383847005665302,0.05630861967802048,0.055880364030599594,-0.018700720742344856,0.012486706487834454,0.02947489731013775,-0.015694625675678253,-0.0021045920439064503,0.010624219663441181,-0.06874401122331619,0.04702279716730118,0.02984798699617386,0.055612336844205856,0.022141652181744576,-0.034796468913555145,0.01078653335571289,-0.023073812946677208,-0.06308972835540771,0.0028076842427253723,0.03414251282811165,-0.04193408042192459,-0.029780935496091843,-0.035884905606508255,-0.008591430261731148,0.03316390886902809,-0.04035340994596481,-0.016247084364295006,0.08250974863767624,-0.031201742589473724,0.06751158088445663,0.03192811459302902,0.050393201410770416,0.019960951060056686,0.035388704389333725,-0.03282604366540909,-0.05961529538035393,0.010287828743457794,-0.02432722970843315,0.027112506330013275,-0.05196526646614075,0.05437465012073517,-0.02374636009335518,0.030855471268296242,-0.048976559191942215,0.035675376653671265,-0.0008514384971931577,-0.03822357952594757,-0.011555966921150684,-0.004358706995844841,-0.018308212980628014,-0.007410901132971048,0.007145163603127003,-0.028320638462901115,0.034780025482177734,0.011680557392537594,-0.026334231719374657,0.04662986844778061,-0.02553953230381012,-0.007363860495388508,0.010506142862141132,0.03294529393315315,-0.05253281444311142,0.01996508799493313,-0.03642074763774872,-0.0019364272011443973,-0.024634644389152527,-0.06397002935409546,0.04111505299806595,0.09175289422273636,-0.04732988029718399,0.018008889630436897,0.03939858078956604,-0.00963513646274805,-0.018349215388298035,-0.034580543637275696,0.05030496418476105,-0.01944412663578987,-5.2107483497820795e-05,-0.08896955847740173,-0.05439694598317146,0.00215423246845603,0.06013988330960274,0.046498291194438934,0.03477402403950691,0.01824198104441166,0.05263398960232735,-0.07957947254180908,-0.019512591883540154,0.02568059414625168,-0.014568546786904335,-0.05065668746829033,-0.02686036005616188,0.03781178221106529,-0.011385194025933743,0.04638904705643654,-0.0919664204120636,-0.03687990829348564,-0.008980216458439827,-0.05844895541667938,0.012582074850797653,0.10849963873624802,0.025058800354599953,-0.008188487030565739,0.03890111297369003,0.07446436583995819,0.0632295161485672,0.030778219923377037,0.05039103329181671,0.010503703728318214,0.0015884252497926354,-0.07252426445484161,-0.06668759137392044,0.05548257380723953,0.041382089257240295,0.030272582545876503,0.06286567449569702,0.046530745923519135,0.16078871488571167,0.019393794238567352,-0.06548089534044266,-0.04619788005948067,0.012736468575894833,-0.008269282057881355,0.012371405959129333,0.06783043593168259,0.029424823820590973,0.18575641512870789,0.006078705191612244,-0.028982039541006088,-0.03214876353740692,-0.0640188530087471,0.029315711930394173,0.04552684724330902,0.016728602349758148,-0.031000342220067978,0.17664912343025208,-0.1418183147907257,0.02529650367796421,-0.054536379873752594,-0.15269747376441956,-0.07927137613296509,0.017040085047483444,-0.11002399027347565,-0.07380834221839905,-0.16077271103858948,0.008935593068599701,0.008798290975391865,-0.011684983968734741,-0.02580873668193817,-0.06982537358999252,0.08414822816848755,0.03344130516052246,-0.15257148444652557,-0.03272485360503197,-0.08771639317274094,0.11441094428300858,0.007834809832274914,-0.1333649903535843,0.03902776539325714,-0.06263942271471024,0.11165910214185715,0.041380368173122406,-0.05026703327894211,-0.022619396448135376,-0.034885209053754807,0.04139861837029457,-0.00781053164973855,0.06648889183998108,-0.13531537353992462,0.017924640327692032,-0.009211207740008831,0.05441710725426674,0.09734850376844406,-0.10628142952919006,0.03947557881474495,-0.06310633569955826,-0.010782543569803238,0.004984306637197733,-0.0530189573764801,0.08820169419050217,0.0938597247004509,-0.008831682614982128,-0.2592047452926636,0.07157373428344727,0.053352031856775284,0.06431256979703903,0.019112741574645042,-0.1003144234418869,-0.06298466771841049,-0.2230452448129654,0.11928751319646835,-0.1127924770116806,0.02735248953104019,-0.057102788239717484,0.06347748637199402,0.023573987185955048,-0.022576093673706055,0.087470144033432,0.012856103479862213,0.11398124694824219,-0.009963075630366802,-0.04657944664359093,-0.2764791250228882,0.03368951752781868,-0.04084049537777901,0.076975516974926,-0.07517540454864502,-0.1434427946805954,-0.044944923371076584,0.08384678512811661,0.10718072950839996,-0.11056079715490341],[-0.017463544383645058,-0.05117877572774887,-0.014793012291193008,0.011216440238058567,0.06410522758960724,0.01095682755112648,-0.062134385108947754,-0.0286529790610075,0.003692150581628084,0.003012439701706171,-0.012986882589757442,0.01913403905928135,-0.06321707367897034,-0.012354237958788872,-0.0986902117729187,0.0305519737303257,-0.007798263803124428,-0.08048322796821594,0.04193057492375374,-0.027988439425826073,0.0037972917780280113,-0.022710783407092094,0.07656201720237732,0.023008503019809723,0.008791730739176273,0.008476633578538895,-0.019055230543017387,-0.010168906301259995,0.03193848580121994,0.04434623941779137,-0.014415199868381023,-0.00046877676504664123,-0.007512811571359634,0.03280976787209511,-0.04824138432741165,-0.040510211139917374,0.0017404229147359729,-0.007065860088914633,0.06199605017900467,-0.026754172518849373,-0.004341602325439453,-0.00842612236738205,-0.0382109209895134,-0.0395241305232048,-0.03376162797212601,0.01253376342356205,-0.002311804099008441,-0.0509362556040287,0.08456196635961533,-0.053261395543813705,0.031377337872982025,-0.033262934535741806,-0.06096329540014267,0.009767330251634121,0.007620187010616064,0.05945548042654991,-0.036284446716308594,-0.015617351047694683,-0.022912640124559402,-0.01028156653046608,-0.039479855448007584,-0.009662139229476452,-0.002452361397445202,0.06682679057121277,-0.0030594640411436558,0.07564135640859604,0.05453508347272873,-0.05187583342194557,0.02227477729320526,-0.04202532768249512,0.02968285232782364,-0.07112227380275726,-0.03187667578458786,0.05798827484250069,-0.057664547115564346,0.012983204796910286,0.00777650810778141,-0.0022579815704375505,0.05982266739010811,-0.00203330279327929,-0.04301275685429573,0.00834612175822258,0.004754344001412392,0.034076813608407974,0.003967585042119026,-0.024255795404314995,-0.07361762225627899,-0.04401131719350815,0.011249254457652569,-0.03881087154150009,-0.04563334584236145,0.02579299546778202,0.04215257987380028,0.008362336084246635,0.0005585505277849734,-0.04865841940045357,0.0707012414932251,0.026798171922564507,0.044070858508348465,0.009399506263434887,0.019414668902754784,-0.027918284758925438,-0.0051973732188344,0.03305155411362648,0.016098808497190475,0.05458877235651016,-0.002337187295779586,0.03037884272634983,-0.06623939424753189,-0.004322761204093695,0.05622124299407005,0.04229600727558136,-0.031622108072042465,0.0639965683221817,0.0530410073697567,-0.045356158167123795,-0.03505881503224373,-0.02543714828789234,-0.020960992202162743,0.042242441326379776,-0.012434017844498158,0.03555351868271828,-0.01828938163816929,-0.04215899854898453,0.05244241654872894,-0.08550133556127548,-0.08118753135204315,0.02127821370959282,-0.045292921364307404,-0.03859712928533554,-0.05461131036281586,-0.03980601206421852,0.04199853911995888,-0.06375831365585327,0.1199992448091507,0.037867072969675064,0.025070499628782272,0.0028299919795244932,-0.0037758727557957172,0.04724409803748131,0.044418659061193466,-0.005868818145245314,0.006454996298998594,0.016778334975242615,0.0162397138774395,-0.01356794685125351,0.014349989593029022,0.03804951533675194,-0.12982526421546936,-0.02177424170076847,-0.059901751577854156,-0.0003949012898374349,-0.09436295926570892,-0.046988777816295624,-0.022951684892177582,-0.05785753205418587,0.043978236615657806,0.0006487747305072844,-0.030677011236548424,0.015157241374254227,0.018869154155254364,-0.028786297887563705,-0.0915069654583931,0.04545295983552933,0.019797733053565025,-0.05177057534456253,-0.028203412890434265,-0.007874230854213238,-0.03942476958036423,0.03858364373445511,0.028507336974143982,0.021566495299339294,0.0574193112552166,0.02113202027976513,-0.10773932188749313,-0.018596690148115158,0.017995979636907578,0.025201452895998955,0.028807783499360085,-0.016956200823187828,0.028683379292488098,-0.004653092473745346,0.00027314285398460925,-0.19035136699676514,0.1762809455394745,0.11068335175514221,-0.027396833524107933,0.23485787212848663,0.15144459903240204,-0.07283031940460205,0.006229804363101721,0.09188105165958405,0.08777602761983871,-0.044292841106653214,-0.043626364320516586,-0.04998520389199257,-0.023539941757917404,-0.057864122092723846,-0.0651063472032547,-0.011034408584237099,0.177049458026886,0.0023420839570462704,0.09865320473909378,-0.017307767644524574,0.03919839859008789,0.2082795947790146,0.014575522392988205,0.15195783972740173,-0.03545670583844185,0.05887363851070404,-0.0020868568681180477,-0.11609786003828049,0.05579856410622597,-0.0062095592729747295,-0.039575785398483276,-0.04955792427062988,0.14553706347942352,-0.017476553097367287,0.03154344484210014,0.012920691631734371,-0.07301259785890579,0.17389540374279022,0.03639635071158409,0.007488213945180178,0.06312931329011917,-0.006643109954893589,-0.034369323402643204,0.018973128870129585,0.01622171513736248,-0.01490681990981102,0.1999441683292389,0.03247653320431709,-0.03215504437685013,-0.05871007591485977,-0.04613446444272995,0.1774168312549591,0.026731744408607483,0.2030957043170929,-0.12953338027000427,0.22697456181049347,0.05145535245537758,0.06849459558725357,-0.05751470848917961,-0.06860247999429703,-0.017837656661868095,-0.01609320566058159,-0.023241763934493065,-0.09194380789995193,0.05118919163942337,0.07564571499824524,0.3100728988647461,0.0306534506380558,-0.05909405276179314,-0.006499862298369408,0.11873278021812439,0.168183833360672,-0.006914480123668909,-0.014996941201388836,-0.0660514160990715,0.2326916754245758],[-0.026701465249061584,0.048415303230285645,0.055160291492938995,0.061071064323186874,-0.03714586794376373,0.003905348479747772,-0.004681276623159647,-0.015184832736849785,-0.008111290633678436,0.061398398131132126,-0.030146969482302666,0.08595030009746552,-0.02277207560837269,0.019887730479240417,-0.09815368801355362,0.05082327872514725,0.06022493168711662,-0.023416588082909584,0.07848701626062393,0.023103877902030945,-0.002987308893352747,-0.055272314697504044,0.014136829413473606,0.03107190690934658,-0.00832933746278286,-0.0025607733987271786,-0.06991724669933319,-0.010761938989162445,-0.037794701755046844,0.02937234193086624,0.02149561606347561,-0.02625107578933239,-0.03140518069267273,0.04009433463215828,0.025566846132278442,0.05769072473049164,-0.020475272089242935,-0.020732171833515167,0.014198523946106434,-0.0741644948720932,-0.04334389790892601,0.013210462406277657,0.016223907470703125,-0.04744211211800575,-0.05651263892650604,-0.00220229453407228,-0.012397181242704391,-0.05713660269975662,-0.025727493688464165,0.00961266178637743,-0.05127653479576111,0.024118775501847267,0.07427218556404114,-0.03648251295089722,0.018031947314739227,-0.04438797011971474,-0.008959002792835236,0.056008730083703995,-0.07091047614812851,-0.028038950636982918,-0.05615011975169182,-0.05530664697289467,0.07922613620758057,0.005334239453077316,-0.02982039377093315,0.014486037194728851,-0.0068202391266822815,-0.017656978219747543,0.04122268408536911,-0.03001626953482628,0.02618480660021305,0.09356551617383957,0.05014123395085335,0.07114145904779434,-0.0037768548354506493,0.010191775858402252,-0.036871593445539474,-0.03294546902179718,-0.049154624342918396,-0.019319334998726845,0.006839726585894823,-0.03364070504903793,-0.016055230051279068,0.0015745857963338494,0.025708625093102455,-0.0034213541075587273,-0.008970602415502071,-0.03857149928808212,-0.008530370891094208,0.06408204883337021,