{"type":"joint_decision_q_tanh","feature_version":"joint_decision_q_v1","observation_size":2203,"state_observation_size":2187,"action_features":16,"hidden_sizes":[64],"policy_layers":[{"weight":[[-0.004911594092845917,0.015476925298571587,0.011459334753453732,0.009957825765013695,-0.019017351791262627,-0.009219908155500889,-0.009095526300370693,0.02082964777946472,-0.02271558903157711,-0.022212868556380272,-0.012181587517261505,-0.017327360808849335,0.004957559052854776,0.014788544736802578,-0.018422409892082214,0.00011556653043953702,0.014472691342234612,-0.012312120757997036,-0.0075541902333498,-0.017789650708436966,0.00851138960570097,0.0015149131650105119,0.00945604220032692,0.007560200057923794,-0.015339765697717667,0.019314736127853394,0.016734367236495018,-0.018098903819918633,0.001489973976276815,-0.00689976941794157,0.008858595043420792,0.011249574832618237,0.0033087115734815598,0.00770177785307169,-0.0034725330770015717,0.003336705733090639,-0.005736054852604866,-0.018457138910889626,-0.02153569459915161,0.009337508119642735,-0.001299110590480268,-0.0029283419717103243,-0.001758643426001072,0.012894725427031517,-0.0032193041406571865,-0.006539345718920231,0.011427721008658409,-0.0021835691295564175,-0.017218496650457382,0.015843607485294342,0.020683925598859787,0.0012090855743736029,-0.003892711829394102,-0.0065940916538238525,-0.017380159348249435,0.010679980739951134,0.01656731590628624,0.0007348841754719615,0.008399098180234432,-0.015186559408903122,-0.01734316162765026,0.016914237290620804,-0.015594231896102428,0.00016463470819871873,0.0009047946659848094,0.0026822141371667385,0.013593999668955803,0.012902965769171715,-0.014993604272603989,-0.015146221965551376,0.000647028791718185,-0.009402352385222912,0.00047919221105985343,-0.01980145089328289,-0.013474823907017708,0.009077110327780247,0.013239920139312744,0.009891508147120476,-0.019902415573596954,0.017281150445342064,0.019335657358169556,-0.0049377186223864555,-0.006281672045588493,-0.0043890150263905525,-0.0026129616890102625,0.01748228818178177,0.02044784277677536,-0.016001421958208084,-0.014896680600941181,-0.001761203515343368,-0.008163782767951488,-0.008692222647368908,0.008377625606954098,0.0006221727817319334,-0.013070565648376942,-0.016214054077863693,0.006138437427580357,-0.022032393142580986,0.02116295136511326,-0.014348890632390976,-0.011857920326292515,0.012769503518939018,0.00444059818983078,-0.016515759751200676,-0.0016723042353987694,0.02292604371905327,-0.006070433184504509,0.011973332613706589,0.014820048585534096,-0.018685098737478256,0.008339161053299904,-0.013142546638846397,0.013957184739410877,-0.009243592619895935,0.020009983330965042,0.009537355042994022,0.018325354903936386,0.021155018359422684,-0.008060646243393421,0.02068180963397026,-0.00898674875497818,-0.006936870981007814,0.009636009112000465,-0.010669020004570484,-0.01853652112185955,-0.011853368021547794,-0.017974212765693665,0.000923729152418673,0.01584354229271412,0.005942909512668848,0.011229390278458595,0.013378707692027092,0.0030384990386664867,-0.00013151449093129486,0.007303501479327679,0.005240223370492458,0.001801075180992484,0.003971451427787542,-0.005990846082568169,-0.005480845458805561,-0.017943356186151505,-0.009828934445977211,-0.01950625143945217,-0.00787198543548584,0.014226885512471199,-0.018428349867463112,0.017364948987960815,0.0005295834271237254,0.008448364213109016,-0.0010671631898730993,0.0030288654379546642,0.013132011517882347,0.013674011453986168,0.01599433273077011,-0.010817271657288074,-0.005796870216727257,-0.00977140199393034,-0.015168742276728153,0.018740426748991013,0.013757249340415001,0.0032316907308995724,-0.019167592748999596,-0.002461328636854887,-0.01678543910384178,-0.016998037695884705,-0.014304195530712605,0.00548603106290102,-0.010209132917225361,-0.015501590445637703,-0.008848384022712708,0.009088963270187378,0.011428581550717354,-0.01626932993531227,0.003277712967246771,0.019892506301403046,0.0007725841132923961,0.014776760712265968,0.015060065314173698,-0.007095733657479286,-0.000173939362866804,-0.004112531431019306,0.01831115409731865,-0.003494346048682928,0.017388753592967987,-0.018435334786772728,-0.011344538070261478,-0.0013503523077815771,0.007991788908839226,-0.01881682686507702,0.0180729441344738,0.0014011082239449024,0.0024860925041139126,-0.012529069557785988,0.01137659139931202,0.012205797247588634,-0.01876419223845005,0.0013437039451673627,-0.008358009159564972,0.016098791733384132,0.017329927533864975,0.015267353504896164,0.019158562645316124,-0.015552251599729061,-0.006366617977619171,0.008617760613560677,0.00015904006431810558,-0.00033003644784912467,-0.007503131404519081,-0.021197689697146416,-0.0038222833536565304,-0.005720111541450024,-0.006318277679383755,-0.01633233018219471,-0.006379908882081509,-0.008766451850533485,-0.01902776025235653,-0.005054590292274952,0.01969623565673828,0.004123448394238949,0.0068545276299119,0.0011341848876327276,0.011619249358773232,-0.014353287406265736,-0.005179873667657375,0.004234927706420422,0.01929466798901558,0.02089511975646019,0.006310955621302128,-0.006080580875277519,-0.021016240119934082,-0.0009309406159445643,-0.010531994514167309,0.0067262789234519005,0.008067553862929344,-0.0010767204221338034,-0.0026592141948640347,0.0102782491594553,-0.019252222031354904,-0.0020635141991078854,0.006431114859879017,-0.018161635845899582,0.004831009544432163,0.010604629293084145,0.007097323425114155,0.019215621054172516,0.014535615220665932,-0.009361417032778263,0.008987363427877426,-0.0003392379148863256,0.009633870795369148,-0.017911016941070557,-0.0011043266858905554,0.0002636480494402349,0.01553230918943882,0.017865460366010666,-0.0014394426252692938,-0.003586373757570982,-0.020472591742873192,0.0048396652564406395,-0.012288020923733711,0.014672709628939629,-0.009425083175301552,-0.019628141075372696,0.015131337568163872,-0.018069392070174217,-0.00651682261377573,-0.00047653907677158713,0.012652581557631493,-0.01998654380440712,0.02018706500530243,-0.002116756048053503,0.012960536405444145,0.01625077798962593,-0.0026694643311202526,0.01026584766805172,0.009317044168710709,0.003996075130999088,-0.004934261552989483,0.0033447849564254284,-0.011016513220965862,0.002381130587309599,0.020932797342538834,0.01950039714574814,-0.008953839540481567,-0.0025167237035930157,0.006104051135480404,0.006935355253517628,-0.00860443152487278,-0.002348154317587614,0.012858917936682701,-0.013160829432308674,-0.018697615712881088,-0.0038719973526895046,0.005784687586128712,0.006097412668168545,0.01569787785410881,-0.005024201236665249,0.0011693944688886404,-0.017672816291451454,0.005639038048684597,0.01610337570309639,0.017261933535337448,-0.0073732249438762665,-0.01101102214306593,-0.0006549580721184611,-0.011788402684032917,-0.02117900364100933,0.01273326389491558,0.0031785829924046993,0.01603883132338524,-0.015830622985959053,0.01201530359685421,-0.019413210451602936,0.01837773621082306,0.015248468145728111,0.008454585447907448,0.014270493760704994,-0.011619108729064465,0.019269157201051712,0.01686498522758484,0.017594777047634125,-0.020059077069163322,0.007145660929381847,0.00939016044139862,-0.004146267659962177,-0.01516812015324831,0.020705413073301315,-0.009897478856146336,0.0008335559396073222,-0.0031043007038533688,-0.007380625233054161,-0.01848852075636387,0.0021472773514688015,-0.012858482077717781,-0.011166639626026154,-0.013842073269188404,0.00388804217800498,0.015547627583146095,-0.012312779203057289,0.019967705011367798,-0.004241091199219227,0.0008254944114014506,-0.017892416566610336,-0.0004409942193888128,0.019333865493535995,0.00702414195984602,0.00646775308996439,0.005000573582947254,-0.013018324971199036,-0.01232977770268917,0.018218301236629486,-0.019525909796357155,-0.0007228011963889003,-0.016028355807065964,0.009866686537861824,-0.002006863709539175,0.0013004278298467398,0.007003358565270901,0.017198894172906876,-0.009641960263252258,0.011781049892306328,-0.008164867758750916,0.011711755767464638,0.01029178686439991,0.0015520562883466482,0.0016187464352697134,0.012265173718333244,0.004051302559673786,-0.01920887641608715,-0.018999090418219566,0.009157991036772728,-0.015376407653093338,0.005213179625570774,-0.012911210767924786,0.006641539745032787,-0.012169904075562954,-0.006218569353222847,-0.01095656305551529,0.007006571628153324,0.0171351358294487,0.015494460240006447,-0.02077227272093296,-0.017186421900987625,-0.020859939977526665,0.014050317928195,-0.016315849497914314,0.014167404733598232,0.010043444111943245,-0.020228197798132896,0.015048565343022346,-0.002848024247214198,-0.01240255031734705,-0.02048155851662159,0.013744151219725609,-0.004679947160184383,-0.017348485067486763,-0.009167898446321487,-0.009551314637064934,0.018416624516248703,0.010197354480624199,0.00996330939233303,-0.00217765336856246,0.006522392388433218,0.010500377044081688,0.002378090750426054,0.006182320415973663,0.011810718104243279,-0.019957592710852623,0.018802758306264877,0.00921701267361641,-6.3238650909625e-05,-8.549726044293493e-05,-0.006662634201347828,0.008874719962477684,-0.01631675288081169,-0.005485245026648045,0.003032847074791789,-0.00316848186776042,0.016305241733789444,0.01582038402557373,0.021067917346954346,-0.020456558093428612,-0.016850562766194344,0.00748989824205637,0.0044832127168774605,-0.014820840209722519,-0.01265118457376957,0.0012114455457776785,0.008517345413565636,-0.01873909682035446,0.0034207268618047237,-0.01927495002746582,-0.016550147905945778,-0.0013194510247558355,0.011231610551476479,0.016864873468875885,0.007203203625977039,-0.01943991892039776,0.008038852363824844,-0.014332247897982597,-0.004880880005657673,-0.00690412987023592,0.01137818954885006,0.005800697486847639,-0.01348874531686306,-0.012043075636029243,0.007065746001899242,-0.021084288135170937,-0.00960809737443924,-0.010079901665449142,-0.015201863832771778,-0.004592672921717167,-0.0005697848973795772,-0.016131684184074402,0.01046435721218586,0.008460227400064468,0.01203824020922184,-0.019852809607982635,0.018558703362941742,0.0032325698994100094,0.013139290735125542,0.020516522228717804,0.002062832470983267,-0.011909650638699532,0.004958217032253742,-0.016278548166155815,-0.010470314882695675,0.011928139254450798,-0.019655484706163406,0.0035621593706309795,0.01621386781334877,0.017468959093093872,0.014604033902287483,0.015379918739199638,-0.01801866665482521,-0.012899911031126976,0.006227799691259861,-0.006516462191939354,-0.002154346089810133,-0.020580457523465157,0.01436467282474041,-0.019934307783842087,-0.019618196412920952,-0.016648104414343834,-0.012692923657596111,-0.0006202029762789607,-0.011387260630726814,-0.016429685056209564,-0.002388946246355772,-0.009283495135605335,-0.005447701551020145,-0.02051239088177681,-0.017557529732584953,-0.007368678227066994,0.0023689749650657177,-0.007840344682335854,0.019732970744371414,0.021264687180519104,-0.0016205718275159597,0.0018644628580659628,0.006946851499378681,0.01356268860399723,0.006682273931801319,-0.019757285714149475,0.009253406897187233,-0.018175696954131126,0.01973121613264084,-0.005028595216572285,0.012747632339596748,0.012156577780842781,-0.002982239704579115,0.0024959328584372997,0.016286391764879227,0.01368427462875843,0.019930891692638397,-0.005177089013159275,0.008666183799505234,-0.016875291243195534,-0.015722690150141716,-0.018598221242427826,-0.012158464640378952,0.0009437481639906764,0.006851775571703911,0.02113613486289978,0.0065208924934268,0.007513894699513912,0.008430534973740578,0.010503964498639107,-0.02028530091047287,-0.010544479824602604,0.010159279219806194,0.019447550177574158,-0.017446942627429962,-0.013253702782094479,0.0037492397241294384,0.006706400774419308,0.007762470282614231,0.002387646120041609,-0.0046637048944830894,0.014016998931765556,0.0198584645986557,-0.003923931159079075,-0.009149134159088135,0.009031498804688454,-0.006337257102131844,0.014948612079024315,0.012302925810217857,-0.01758430153131485,-0.007463948801159859,-0.009777926839888096,-0.013180883601307869,-0.01784997247159481,0.009039182215929031,-0.01713862642645836,-0.006084626540541649,-0.009436105377972126,-0.0033196578733623028,0.0009539517341181636,-0.020033828914165497,-0.012056544423103333,-0.019203754141926765,-0.02082187496125698,0.015317259356379509,-0.01618281751871109,0.017310284078121185,-0.019882695749402046,0.0006716827629134059,-0.004822262562811375,-0.014313587918877602,0.017376311123371124,-0.008905565366148949,0.010557198897004128,-0.002017596270889044,0.011356649920344353,0.01981452852487564,0.01600552722811699,-0.008322076871991158,-0.005205628462135792,0.007959319278597832,-0.011749315075576305,-0.004208576865494251,-0.002939803060144186,0.013503914698958397,-0.01598186045885086,0.014895802363753319,-0.012930544093251228,0.019625365734100342,0.01403452642261982,-0.017960960045456886,-0.013359044678509235,-0.014351032674312592,0.008854471147060394,-0.01812976598739624,0.009895769879221916,-0.016180608421564102,-0.007644467055797577,0.012486042454838753,-0.007568803615868092,-0.004377585835754871,-0.008441192097961903,-0.020766254514455795,0.0086396224796772,-0.0203138068318367,-0.018372852355241776,-0.013776588253676891,-0.016055893152952194,0.015259386971592903,0.0003368798061273992,0.015870921313762665,0.0120412427932024,0.011860141530632973,-0.0027765906415879726,0.015389377251267433,-0.009328270331025124,-0.01774122752249241,0.018791567534208298,0.017481107264757156,-0.01895345002412796,0.005128051154315472,0.018826071172952652,-0.018422963097691536,-0.004082689993083477,0.0021462994627654552,-0.0075786421075463295,0.020617682486772537,-0.007770507596433163,-0.0020507103763520718,-0.0004416982992552221,0.01314137689769268,-0.006801417097449303,-0.0204217117279768,0.006330684758722782,-0.02017529308795929,0.009738564491271973,0.012065167538821697,-0.005408634431660175,0.020874373614788055,-0.0050065843388438225,0.009892061352729797,0.01261286623775959,0.0111174825578928,-0.003043671604245901,0.013214988633990288,0.0073588090017437935,0.006232735700905323,-0.020647592842578888,-0.013513466343283653,-0.01154295913875103,-0.0028589139692485332,-0.01548130065202713,0.000586034613661468,-0.02190152369439602,-0.0030884197913110256,-0.013871381990611553,0.007228112779557705,0.0064435382373631,0.018951229751110077,-0.01684119924902916,0.016494881361722946,-0.008034302853047848,-0.008351689204573631,-0.014370842836797237,-0.01010269857943058,0.02222638763487339,-0.004088790155947208,-0.009679554961621761,0.004949298687279224,-0.00019367222557775676,-0.003117369022220373,-0.01871947944164276,-0.00802930723875761,0.01289139874279499,0.013582216575741768,0.012104460969567299,-1.4200804798747413e-05,-0.0011438278015702963,-0.011808565817773342,-0.009017177857458591,0.0033820527605712414,-0.008272373117506504,-0.008447605185210705,-0.003952347673475742,-0.010008575394749641,0.0184822715818882,0.013918308541178703,0.01723504811525345,-0.014045694842934608,0.0005340090719982982,0.008935254067182541,-0.01679101772606373,0.01272762380540371,-0.01017057802528143,-0.01821158640086651,0.018740009516477585,-0.012170999310910702,-0.005529426969587803,-0.012295635417103767,-0.00461666751652956,-0.013389469124376774,0.012566035613417625,0.019704196602106094,-0.0021109930239617825,0.006491805426776409,0.006897632963955402,-0.010883268900215626,-0.012992378324270248,0.0192759707570076,0.005206516943871975,-0.01000953558832407,-0.013058606535196304,-0.012127656489610672,-0.0009308623848482966,-0.007784418761730194,0.0001879762567114085,0.01670638471841812,0.012435639277100563,0.0016682145651429892,0.0032072807662189007,0.003948877099901438,0.010922644287347794,0.0026009338907897472,-0.018833395093679428,-0.01755533739924431,0.011986726894974709,-0.014718620106577873,0.01669159159064293,-0.012476574629545212,0.0032614837400615215,-0.011174040846526623,-0.004401029087603092,0.0005682205082848668,-0.014379633590579033,-0.006056944839656353,-0.010109164752066135,-0.00402188953012228,0.01881207525730133,0.0003748926683329046,-0.005972244776785374,0.013326635584235191,0.020456593483686447,0.01562623679637909,0.011731920763850212,0.002641894156113267,-0.01569521240890026,-0.021248294040560722,0.011768219992518425,-0.014122610911726952,0.0006605162052437663,0.0008130240021273494,-0.004426450002938509,0.01480155996978283,0.012894982472062111,-0.0010493879672139883,0.013020290061831474,0.008092585951089859,-0.010640188120305538,-0.01483392808586359,-0.020775659009814262,0.0002858396037481725,0.018091827630996704,0.002081205602735281,-0.01840764284133911,0.01143592782318592,0.020167414098978043,-0.013900823891162872,0.0161052905023098,-0.006942230276763439,0.01937919855117798,-0.012286166660487652,-0.019851014018058777,0.013385521247982979,-0.014741824008524418,0.010928766801953316,0.0016564668621867895,-0.017262008041143417,-0.01689348928630352,-0.004631505347788334,-0.009622398763895035,-0.009631801396608353,0.006039750762283802,0.0013829877134412527,0.017063193023204803,-0.006473044864833355,-0.0054415492340922356,-0.014541126787662506,-0.018906433135271072,0.011500930413603783,-0.016646571457386017,0.005611828528344631,-0.01970585808157921,-0.007059750147163868,-0.0008104330627247691,-0.00505217257887125,-0.017666423693299294,0.020159170031547546,0.0037740240804851055,0.012087730690836906,-0.011298654600977898,0.019956372678279877,0.014697657898068428,-0.015493028797209263,0.013287900015711784,0.016655758023262024,-0.013942779041826725,0.008759481832385063,-0.012432003393769264,-0.0007312929956242442,-0.0026372107677161694,0.013524683192372322,0.006409083493053913,0.001270953333005309,-0.008427289314568043,-0.021210171282291412,-0.007249088026583195,-0.01837986707687378,0.0008105876622721553,0.012780437245965004,-0.012308252975344658,-0.006244358606636524,0.0028205751441419125,-0.0027929875068366528,-0.005075410939753056,-0.012256181798875332,0.0030175666324794292,-0.0073860324919223785,-0.01190771535038948,-0.0007099247304722667,-0.004746952094137669,0.009655505418777466,0.006858370266854763,-0.01469402015209198,-0.0035701501183211803,-0.0008268653182312846,-0.008699992671608925,0.018007487058639526,-0.004775012843310833,0.015850767493247986,0.020481694489717484,-0.010127324610948563,-0.016239970922470093,0.0073814308270812035,0.004973593167960644,-0.0034113205038011074,-0.01828775554895401,-0.01217071432620287,0.01800525188446045,-0.014730412513017654,-0.014368562027812004,0.014017010107636452,-0.015700319781899452,0.003939059562981129,0.00493012648075819,-0.004788252525031567,-0.0072176456451416016,-0.01356223039329052,-0.017418473958969116,0.005760029889643192,0.012538259848952293,0.017566051334142685,0.01186843030154705,0.01460166834294796,0.002936094533652067,0.01375517062842846,-0.010469677858054638,0.01580466330051422,-0.02008160389959812,0.013933507725596428,-0.012945843860507011,-0.003863187041133642,0.016359008848667145,0.016637861728668213,-0.00022919100592844188,-0.014550245366990566,-0.013498765416443348,-0.01619807630777359,0.012539057061076164,-0.00991989579051733,-0.0022777016274631023,0.018283594399690628,-0.01986110210418701,0.018849827349185944,0.007035949267446995,-0.012055350467562675,-0.00964146014302969,-0.012155869044363499,-0.00537595059722662,0.0013007817324250937,0.0017082092817872763,0.000526321935467422,0.004029407165944576,0.008766146376729012,-0.0007745771436020732,-0.012844190001487732,-0.011580368503928185,-0.001403128495439887,-0.012629867531359196,0.009339818730950356,0.016383126378059387,0.007794502191245556,0.009191544726490974,-0.013229466043412685,-0.0028880941681563854,0.010235989466309547,-0.011956061236560345,-0.01322852075099945,-0.0061768218874931335,0.018996089696884155,0.016481373459100723,0.005534629337489605,0.011768156662583351,-0.007445594295859337,0.015392640605568886,0.0037134638987481594,-0.003757390659302473,0.020203206688165665,0.005019941367208958,0.010552680119872093,-0.007164360024034977,0.01628417894244194,-0.0074045248329639435,-0.012548417784273624,0.009990179911255836,0.009877320379018784,-0.00613049603998661,-0.015270134434103966,-0.016988910734653473,0.0201655775308609,0.0063547128811478615,0.01728944107890129,-0.00952262245118618,0.009315822273492813,0.012821512296795845,0.007166917435824871,0.010601518675684929,0.005290214903652668,-0.011934841051697731,-0.019230099394917488,-0.006988151930272579,-0.0037875822745263577,-0.019129576161503792,-0.017949823290109634,0.016346026211977005,0.020397406071424484,0.0036415918730199337,-0.007790542207658291,0.006249737925827503,-0.006976273842155933,-0.007211504504084587,-0.0002226810611318797,0.019141163676977158,0.012842288240790367,0.008148089051246643,-0.0021651568822562695,0.018643587827682495,-0.017869995906949043,0.003731121774762869,-0.006748378276824951,0.012585466727614403,-0.015474554151296616,-0.006807858124375343,-0.009945941157639027,-0.005731421522796154,-0.012507887557148933,0.00020636056433431804,0.007238871417939663,-0.012923897244036198,0.009822597727179527,0.0002995635732077062,-0.017719483003020287,-0.009607713669538498,-0.005139092914760113,0.012947296723723412,-0.011825809255242348,0.020081430673599243,-0.014057675376534462,-0.008181505836546421,0.020203471183776855,-0.013839116320014,0.013666907325387001,0.0034030559472739697,0.018144886940717697,-0.006576422601938248,0.004149121232330799,0.011982460506260395,0.012043027207255363,0.013419630005955696,0.0023236568085849285,-0.015679998323321342,-0.0009840296115726233,-0.008285203948616982,-0.014029499143362045,0.007453012280166149,0.018457040190696716,0.0009316968498751521,-0.00696345791220665,-0.008141635917127132,-0.019678296521306038,-0.010122234933078289,-0.010272153653204441,-0.007622330449521542,-0.010145395994186401,-0.011864417232573032,-0.006826142780482769,-0.020511671900749207,0.017085805535316467,-0.009218471124768257,0.0034383884631097317,-0.012613818049430847,-0.00985013134777546,0.01682749018073082,0.016999363899230957,-0.0064701661467552185,0.011231401935219765,-0.0022235396318137646,-0.017657309770584106,-0.01645606756210327,0.019152652472257614,0.000607503461651504,-0.00966749619692564,0.011406106874346733,-0.020653361454606056,0.01779085397720337,0.0014652290847152472,-0.012925454415380955,0.020939700305461884,0.019803013652563095,0.00902421586215496,-0.005287931300699711,0.00769928190857172,-0.0172513946890831,-0.009396720677614212,-0.007742402143776417,0.011231726035475731,0.006336226128041744,-0.01832151785492897,0.010942110791802406,-0.008157837204635143,0.01943425089120865,0.00018141255713999271,-0.006068267859518528,-0.015439258888363838,0.01361006684601307,0.02114572376012802,-0.011632569134235382,0.021158527582883835,0.013750629499554634,-0.021027829498052597,0.00044081168016418815,0.019885867834091187,-0.01818225160241127,0.013112952932715416,-0.01970326341688633,-0.00847435463219881,-0.006000618450343609,0.0015616004820913076,-0.0064203375950455666,0.010092807933688164,-0.008944841101765633,-0.0026512513868510723,-0.010298531502485275,0.01140684075653553,-0.020878320559859276,-0.005504926200956106,-0.0069263530895113945,0.017949312925338745,-0.009538307785987854,-0.013302173465490341,-6.189009582158178e-05,0.020050354301929474,0.010696915909647942,-0.020681530237197876,0.01621771976351738,0.012517774477601051,-0.015133891254663467,0.010224299505352974,0.014775177463889122,0.002538371365517378,-0.00041938008507713675,-0.004480886273086071,-0.014758091419935226,0.008739283308386803,0.003768220078200102,0.011093707755208015,-0.007562596350908279,-0.01727118343114853,-0.007784601300954819,0.011600075289607048,-0.009394191205501556,0.005724777467548847,-0.012179733254015446,-0.015025181695818901,-0.015072235837578773,0.0113914143294096,-0.019579779356718063,-0.007371232844889164,-0.011881209909915924,-0.0069490717723965645,0.00014424134860746562,-0.0013025084044784307,-0.0025824899785220623,0.012007096782326698,-0.011891193687915802,0.015106214210391045,0.01993688941001892,0.00839582271873951,-0.0019920947961509228,-0.005958585999906063,0.005904645659029484,0.01487160287797451,0.0014661697205156088,-0.009130331687629223,0.014095159247517586,0.008120870217680931,-0.015491908416152,0.004058058373630047,0.013630235567688942,0.014215568080544472,-0.004518016241490841,-0.019550146535038948,0.017498604953289032,-0.01287257019430399,-0.019818853586912155,0.002206049393862486,-0.017144152894616127,0.009413482621312141,0.00925210490822792,0.004349547438323498,-0.008756645023822784,-0.0038983053527772427,0.017347492277622223,-0.013126321136951447,0.016565632075071335,-0.01797517202794552,-0.003584026824682951,-0.0020077447406947613,0.001502584433183074,0.012369846925139427,0.011783620342612267,0.005762734450399876,0.0035789157263934612,-0.008064018562436104,-0.011966090649366379,0.0054900022223591805,-0.008915835991501808,0.008492844179272652,0.01308717392385006,0.00992809422314167,0.009921271353960037,-0.015335921198129654,-0.005813267081975937,0.008010432124137878,-0.018961099907755852,-0.0068892184644937515,-0.005212130956351757,-0.0066175879910588264,0.0061910199001431465,0.0036161276511847973,0.018017608672380447,0.006007594056427479,0.001843850826844573,-0.013286431320011616,-0.014521395787596703,-0.00450043473392725,0.0012481657322496176,-0.0013510154094547033,0.019595015794038773,0.007191884331405163,0.0034921630285680294,-0.017002416774630547,0.013567930087447166,-0.012532919645309448,-0.002719180192798376,-0.01605558954179287,-0.012083344161510468,0.00018662025104276836,0.020771633833646774,4.383920895634219e-05,-0.0037048435769975185,0.006623075343668461,-0.008235464803874493,0.012270087376236916,0.003900164272636175,-0.003736348357051611,0.008474135771393776,-0.011076963506639004,-0.009468335658311844,0.017231013625860214,-0.004103935323655605,-0.021266460418701172,-0.001374626299366355,-0.0211551021784544,-0.009969902224838734,0.020716890692710876,0.01049770973622799,0.01912282407283783,-0.00763626117259264,-0.01799483597278595,0.015405265614390373,0.014222031459212303,0.0032281181775033474,-0.01849442347884178,0.013103025034070015,0.005312998779118061,-0.014670135453343391,0.004697252996265888,0.009013544768095016,-0.007473737932741642,-0.019155997782945633,-0.0036521400325000286,0.01610790565609932,0.007978061214089394,-0.002984709572046995,-0.009678637608885765,0.01986672729253769,-0.008449075743556023,0.014723395928740501,0.004504871554672718,0.008335033431649208,-0.02042148821055889,0.00874035432934761,-0.011677790433168411,-0.020466476678848267,0.012938281521201134,0.001501487335190177,0.00946711003780365,0.02097778022289276,-0.018438635393977165,0.0037325392477214336,-0.0169039499014616,-0.0024328134022653103,-0.018785925582051277,-0.008604533039033413,-0.010073632933199406,-0.008423687890172005,-0.008661173284053802,0.013291651383042336,-0.018243836238980293,-0.012503577396273613,0.012178918346762657,-0.007731316611170769,-0.019961509853601456,-0.005083712749183178,-0.011654023081064224,-0.007728924043476582,-0.010516613721847534,-0.000485917495097965,0.009912097826600075,0.005758943967521191,0.015321807935833931,-0.019374795258045197,0.0023627220652997494,0.003080809023231268,-0.01146660465747118,-0.0036649941466748714,-0.01832088828086853,-0.010688772425055504,-0.003929532133042812,9.861400758381933e-05,0.0006843245355412364,-0.02111055701971054,-0.009840777143836021,-0.005789877846837044,-0.010594801977276802,0.017293259501457214,0.01505465991795063,0.012490915134549141,-0.014777155593037605,0.021235570311546326,0.0015702636446803808,0.015528740361332893,0.013225005939602852,-0.010594588704407215,-0.014090970158576965,-0.018329719081521034,-0.004190188832581043,0.0026933993212878704,0.018677111715078354,0.021025914698839188,-0.0012175773736089468,0.018955085426568985,-0.007558001205325127,0.006314272992312908,-0.007017090916633606,-0.01597866788506508,-0.01584709621965885,0.015195408836007118,-0.0014388428535312414,0.020956389605998993,0.003640351351350546,0.0001336987770628184,-0.007659015245735645,0.020392201840877533,0.0069055622443556786,0.009739857167005539,0.010906299576163292,0.01079900749027729,0.009943783283233643,0.01577514037489891,0.017472978681325912,-0.008534060791134834,-0.006905006244778633,0.011164804920554161,-0.01723460853099823,-0.018192993476986885,-0.00471212062984705,-0.011246182024478912,0.0026638354174792767,0.005507952533662319,0.012126771733164787,0.0036911885254085064,-0.009298162534832954,-0.019972244277596474,-0.012115386314690113,0.01734025403857231,0.003659795504063368,-0.012217327021062374,0.008019912987947464,0.0007728057680651546,-0.008900917135179043,0.010551879182457924,-0.017784621566534042,0.009882455691695213,0.01949349045753479,0.01986696943640709,-0.01890905201435089,-0.00638184417039156,0.019665207713842392,-0.005899369716644287,-0.004921779967844486,0.018349669873714447,-0.0009257866768166423,-0.0051008304581046104,0.008576605468988419,-0.002134765964001417,-0.003327013459056616,-0.01540314219892025,0.012880800291895866,-0.01041110884398222,-0.009889209643006325,0.003731218632310629,-0.016802797093987465,-0.0023421826772391796,0.014587489888072014,-0.02033875696361065,-0.018766043707728386,-0.020914992317557335,0.012552252039313316,0.019698824733495712,-0.016430294141173363,0.008680222555994987,0.018215123564004898,-0.01427144929766655,0.005637663416564465,0.0023962813429534435,0.010481051169335842,0.011431297287344933,0.02015209197998047,-0.003566316794604063,-0.0196538008749485,-0.011631599627435207,-0.00551170390099287,-0.01275565754622221,-0.0035806293599307537,0.0210806205868721,-0.0013380420859903097,-0.004613610915839672,0.01734156534075737,0.004450350068509579,0.003324280958622694,0.020433835685253143,0.006846623029559851,-0.011612207628786564,-0.00735902227461338,-0.016136471182107925,-0.008982615545392036,-0.016040679067373276,-0.00207796273753047,0.020947471261024475,-0.00634191557765007,-0.01746554672718048,0.01814667508006096,0.010667609050869942,0.0010998747311532497,-0.000893266755156219,0.009392856620252132,0.0039100004360079765,0.007284953258931637,-0.007221117615699768,0.020244576036930084,0.019264455884695053,0.0051852138713002205,-0.019834360107779503,0.014997432008385658,-0.020357318222522736,0.0001430250413250178,-0.018089938908815384,0.0007233860669657588,-0.007783283479511738,0.018963143229484558,0.018569689244031906,0.004319767467677593,0.013571782037615776,0.0018812620546668768,0.019295990467071533,-0.01274960022419691,-0.008399272337555885,-0.01834915392100811,0.014664285816252232,-0.008659918792545795,0.005494975484907627,-0.0018066035117954016,-0.013940718024969101,-0.003917333669960499,0.015494169667363167,-0.016732577234506607,0.016294069588184357,0.001344077056273818,0.015687882900238037,0.01811807230114937,-0.0009891015943139791,0.006656992249190807,0.012200688943266869,-0.008023970760405064,0.001620501047000289,0.018629305064678192,0.008316244930028915,-0.020016513764858246,-0.009101321920752525,-0.020847629755735397,0.011286614462733269,0.019030679017305374,0.0006887576309964061,-0.009116086177527905,0.013099094852805138,-0.008136533200740814,0.017620772123336792,-0.0009232311276718974,0.006094899959862232,0.001745167886838317,-0.013054873794317245,-0.014698492363095284,-0.010808880440890789,-0.009353622794151306,-0.010178758762776852,-0.017515866085886955,-0.015585646033287048,0.008360948413610458,-0.008439790457487106,0.013870170339941978,0.018756967037916183,-0.014659769833087921,-0.0008497721282765269,-0.012752850539982319,0.007317922078073025,0.01941785216331482,-0.016616472974419594,0.010783316567540169,0.01547251082956791,-0.0014923715498298407,-0.004738898016512394,-0.01729181595146656,0.012415459379553795,0.010901788249611855,-0.007370712235569954,-0.0013210156466811895,0.009793199598789215,0.0024193204008042812,0.019807178527116776,-0.014091886579990387,0.008471103385090828,0.015416434034705162,0.0044234199449419975,0.0032872832380235195,-0.0052263131365180016,0.0007162539986893535,-0.017430732026696205,0.0019342151936143637,-0.015648066997528076,-0.016116024926304817,-0.02026730589568615,-0.012363565154373646,0.018651768565177917,0.0051467204466462135,0.012773605063557625,-0.00011331214045640081,0.004849460907280445,-0.009984150528907776,-0.0018751656170934439,0.017321370542049408,-0.012537253089249134,-0.0013655161019414663,0.0009686889825388789,0.013889720663428307,0.005279107950627804,0.004971439950168133,-0.009019019082188606,-0.006737909279763699,0.014247005805373192,0.011232836171984673,-0.0067797088995575905,0.01800442673265934,-0.013675684109330177,-0.017796648666262627,0.007309763692319393,-0.0084180673584342,0.013192174956202507,-0.019920431077480316,-0.011201835237443447,-0.010022476315498352,0.01633692905306816,0.012884949333965778,-0.0010348332580178976,0.010797606781125069,-0.013494746759533882,0.010863127186894417,-0.02071228437125683,-0.020061718299984932,0.01366591639816761,-0.0013311372604221106,-0.018218180164694786,0.004808011464774609,-0.006776298396289349,-0.0006422268343158066,-0.006798986345529556,0.01138698123395443,-0.008361955173313618,0.016624554991722107,-0.014208231121301651,0.0219904612749815,-0.0038391905836760998,0.016558226197957993,0.016941368579864502,-0.01363598182797432,0.013331889174878597,-0.008792594075202942,-0.004783649928867817,0.0020625009201467037,0.019256573170423508,0.010593807324767113,0.019823890179395676,-0.00875386968255043,0.007315617986023426,0.007670137099921703,0.020634964108467102,0.016508040949702263,0.003984040580689907,-0.018849380314350128,0.006638594903051853,-0.003790471237152815,0.012842731550335884,-0.003961614333093166,-0.0006700761732645333,0.017699692398309708,0.0026065497659146786,-0.01815641298890114,0.006543292663991451,0.012596329674124718,0.0010536608751863241,0.00219286372885108,0.007708008401095867,0.00554248970001936,0.00123466900549829,0.01246730051934719,0.012511825188994408,-0.008954704739153385,-0.01856173574924469,0.014398333616554737,-0.0016644725110381842,0.01884295977652073,-0.003028757404536009,-0.002413394395262003,0.016593988984823227,0.013478172942996025,-0.016383027657866478,-0.010192408226430416,0.01778978481888771,0.00356157380156219,-0.012592928484082222,0.009970610961318016,0.0074601611122488976,0.0025054062716662884,-0.006296760402619839,-0.010809743776917458,-0.005366307683289051,0.015946868807077408,0.007912561297416687,0.0014281419571489096,-0.007437392603605986,0.005570289678871632,-0.010544601827859879,0.016389336436986923,0.012988539412617683,0.008000211790204048,0.010596847161650658,0.0014617496635764837,-0.019672952592372894,0.006554623134434223,-0.00827733613550663,0.018528707325458527,-0.020930692553520203,0.021048255264759064,0.012233758345246315,0.0194130539894104,0.01871028169989586,-0.017146170139312744,-0.0024421834386885166,0.0025389748625457287,-0.016685105860233307,0.020616408437490463,0.00730996485799551,-0.0012111382093280554,0.01662931591272354,0.013094181194901466,0.010111512616276741,-0.01874122954905033,0.016032367944717407,-0.01768701896071434,0.02091618999838829,-0.011205650866031647,0.014360932633280754,-0.014938370324671268,-0.015203372575342655,0.01259939931333065,-0.012351338751614094,-0.011402502655982971,-0.016843922436237335,0.007312123663723469,0.0039188312366604805,-0.002491782885044813,-0.005303927697241306,0.012137288227677345,-0.010327884927392006,-0.013578812591731548,0.012246603146195412,-0.01612056791782379,-0.0008992644725367427,-0.0007213545613922179,-0.004205803386867046,-0.020309921354055405,0.002450143452733755,-0.013222130946815014,0.0023971744813024998,-0.01328141801059246,-0.0182932261377573,0.0207098126411438,-0.013063577003777027,-0.0001335050619672984,0.008178485557436943,0.00024094429682008922,0.01615888625383377,-0.016187837347388268,-0.006012449972331524,0.016964919865131378,0.005351161118596792,-0.00249147554859519,-0.016677042469382286,-0.008421742357313633,-0.003035792615264654,0.016827642917633057,-0.016724184155464172,-0.011029199697077274,0.014524286612868309,-0.02099774032831192,0.0068762218579649925,0.006189216859638691,-0.006874086335301399,-0.014369301497936249,0.01673479564487934,0.0028800941072404385,-0.003841885831207037,0.001373853301629424,-0.0037406592164188623,0.010701419785618782,0.01709313690662384,0.008908729068934917,-0.006031602621078491,0.01831771247088909,-0.00561122689396143,-0.009519834071397781,-0.0005140746361576021,0.010328566655516624,0.0024289782159030437,0.011074544861912727,-0.008790564723312855,0.010393908247351646,0.0069056311622262,0.004421246238052845,-0.008312133140861988,-0.001881893491372466,-0.01877518929541111,0.0014674307312816381,-0.012814804911613464,-0.00672347005456686,-0.013651499524712563,0.0022965609095990658,0.0044251540675759315,0.01348909828811884,0.019391663372516632,-0.018163954839110374,-0.0044424766674637794,-0.0046333735808730125,0.015870852395892143,-0.009349120780825615,0.01934337243437767,0.013291286304593086,-0.0012721323873847723,0.010537156835198402,-0.012251509353518486,0.007656519301235676,0.01289779506623745,0.014355087652802467,0.0203506201505661,0.001758903032168746,0.02042912319302559,-0.010318106040358543,-0.020143188536167145,0.018872473388910294,0.021233104169368744,-0.00784792099148035,-0.012620817869901657,0.019714374095201492,-0.0010366549249738455,0.009621821343898773,0.013193181715905666,-0.0016731907380744815,-0.006439086981117725,-0.02025253139436245,-0.005557510070502758,0.011376557871699333,-0.006241318769752979,0.015103750862181187,0.011904021725058556,-0.010168797336518764,0.01261151023209095,-0.004626006819307804,-4.000584885943681e-05,0.019939802587032318,-0.016358837485313416,-0.012036141939461231,0.005968828685581684,-0.003341692965477705,0.016100669279694557,0.004178989212960005,-0.011153081431984901,-0.0024236871395260096,0.012173710390925407,0.015050476416945457,-0.017390353605151176,-0.016173530369997025,-0.0021082586608827114,0.00949922762811184,0.008791166357696056,-0.007945381104946136,0.011805685237050056,-0.006169050000607967,0.019424118101596832,-0.015340794809162617,-0.004101688973605633,-0.015498369932174683,-0.013291419483721256,-0.0026160082779824734,0.0203058160841465,0.013219399377703667,0.002315202262252569,-0.014303088188171387,-0.004498365335166454,-0.007738905027508736,0.02082640305161476,0.0013383531477302313,0.010423073545098305,0.010407211259007454,-0.01597607508301735,0.016419384628534317,-0.0157281756401062,-0.0006692277966067195,-0.0009353085188195109,0.00045448722084984183,0.009529894217848778,-0.008315443061292171,0.01672830805182457,-0.020486995577812195,0.01047845371067524,-0.014413056895136833,-0.009001925587654114,-0.0034827194176614285,-0.01908690668642521,-0.012148069217801094,0.013319754973053932,0.0005104074953123927,-0.01900939643383026,0.010172316804528236,0.011144043877720833,0.016551043838262558,0.0068262917920947075,-0.018843404948711395,0.01350441761314869,0.003410163801163435,0.017238955944776535,-0.019904471933841705,0.008688818663358688,0.018099665641784668,0.0008987447945401073,-0.014466337859630585,-0.007325783371925354,-0.017029844224452972,-0.006916442885994911,-0.006849437952041626,-0.006894131191074848,0.0019198933150619268,-0.012774886563420296,-0.011051448993384838,0.0141580980271101,-0.008828666992485523,0.018794704228639603,0.00812961719930172,-0.008217071183025837,-0.011713323183357716,-0.01591850444674492,0.016046777367591858,-0.0071061477065086365,-0.013561945408582687,0.017168138176202774,-0.018763652071356773,0.009482521563768387,0.004003397189080715,0.014928603544831276,0.008719997480511665,-0.008380475454032421,-0.020679280161857605,0.008477313444018364,-0.010268276557326317,0.0010890511330217123,0.007500339299440384,-0.014511886984109879,-0.017119867727160454,-0.00023250837693922222,0.02111539989709854,0.013319628313183784,0.0009007005719467998,0.003963683731853962,-0.01863521710038185,0.012222347781062126,0.011534800752997398,0.019762296229600906,0.0012515520211309195,0.018822073936462402,-0.019839495420455933,0.015096129849553108,-0.010963532142341137,0.0026062610559165478,-0.009378637187182903,-0.011150910519063473,0.011412950232625008,-0.011859835125505924,-0.012281112372875214,0.011100659146904945,0.017241448163986206,-0.0032574026845395565,0.0039199283346533775,-0.003272279631346464,-0.005692994222044945,0.0037112566642463207,0.00802675448358059,-0.015482237562537193,0.017803151160478592,0.002020405139774084,0.0016503387596458197,0.010825792327523232,-0.004178657196462154,-0.0037337965331971645,0.002731712069362402,-0.02095055766403675,0.014039197936654091,-0.0036445423029363155,-0.01616024039685726,0.005072453059256077,0.015592588111758232,-0.00708343368023634,-0.010503686033189297,-0.006115364376455545,-0.012720124796032906,-0.001050635939463973,-0.01090642623603344,0.005477887578308582,0.014113364741206169,0.01218750886619091,0.0004952084273099899,0.014557210728526115,0.011115695349872112,0.002055646385997534,-0.014004582539200783,-0.001745756482705474,0.011864321306347847,0.017606891691684723,-0.0033133714459836483,0.008754493668675423,0.013026168569922447,-0.0060994792729616165,0.004260196350514889,0.005381605587899685,0.013703571632504463,0.015383394435048103,-0.017097288742661476,-0.0014814769383519888,-0.0010773090180009604,0.01055600680410862,0.019098937511444092,0.010568471625447273,-0.004753616638481617,0.004424176178872585,-0.018266677856445312,0.006524235941469669,0.012514101341366768,-0.017473727464675903,-0.0161457397043705,-0.012154286727309227,-0.007647484540939331,-0.007098766975104809,0.011132175102829933,0.0014502776321023703,-0.010979675687849522,0.003050986211746931,0.0009184851078316569,-0.0022866479121148586,0.015194213017821312,-0.008469940163195133,-0.01656210422515869,-0.01906415820121765,0.02039126306772232,0.009185981005430222,-0.014856718480587006,0.009578205645084381,0.015434378758072853,-0.007330024614930153,0.01306706853210926,-0.009269973263144493,-0.015934491530060768,-0.010121927596628666,-0.011875243857502937,0.007846429944038391,0.006698885001242161,0.007279436103999615,0.021073151379823685,0.01280229352414608,-0.005836707539856434,0.013597944751381874,0.007941238582134247,-0.013190502300858498,0.002810779493302107,-0.0026510334573686123,0.00033458316465839744,-0.00408606743440032,0.004274706356227398,-0.020575083792209625,-0.0026445123367011547,0.01054728589951992,-0.0007096896297298372,0.012877071276307106,-0.004587686154991388,0.0038525904528796673,0.0023602149449288845,0.014080660417675972,0.016681376844644547,-0.00638952199369669,-0.0017424558755010366,0.002195767592638731,0.002260561566799879,-0.00830931682139635,0.012137727811932564,0.004079197533428669,-0.01331974845379591,-0.001206498360261321,0.017758965492248535,0.015054533258080482,-0.01729068160057068,-0.015806669369339943,-0.007473506964743137,-0.009424087591469288,0.0007402020273730159,0.019155990332365036,0.017756763845682144,0.0037851533852517605,-0.017504729330539703,-0.014259759336709976,-0.01993241347372532,0.003952140919864178,0.007372020743787289,0.009298835881054401,-0.008058471605181694,-0.014529945328831673,0.02039444074034691,-0.011199156753718853,0.004979847930371761,0.007348633371293545,-0.0076361061073839664,-0.012064732611179352,-0.013082846999168396,0.01876796782016754,-0.015869183465838432,0.009493563324213028,-0.011597347445786,-0.01908683590590954,0.002038597594946623,-0.012773700058460236,-0.010441022925078869,0.010029574856162071,-0.004352363757789135,-5.244740896159783e-05,0.017282571643590927,-0.017141643911600113,0.003956376574933529,-0.012500125914812088,0.012279970571398735,-0.015391880646348,0.006713624112308025,0.009157145395874977,-0.02120158076286316,-0.003771472256630659,-8.521600102540106e-05,0.014183824881911278,0.008496154099702835,0.0190446674823761,-0.0169233325868845,-0.015964854508638382,-0.000390395027352497,0.013708287850022316,-0.0029167491011321545,0.0080250920727849,-0.008795476518571377,-0.01581129990518093,-0.010677391663193703,0.020165573805570602,-0.005144880153238773,0.011835293844342232,-0.01853504404425621,0.014266358688473701,-0.015011359937489033,-0.00466736126691103,-0.0031828354112803936,-0.01184933539479971,0.010923190042376518,0.007120062597095966,0.015149341896176338,0.007252897135913372,-0.007855918258428574,-0.008036840707063675,0.005547917447984219,-0.0009399763075634837,-0.0037773787043988705,-0.01181064359843731,-0.01563538983464241,0.017544902861118317,0.020006213337183,-0.009327495470643044,0.008996246382594109,0.002382268663495779,0.005092264153063297,-0.013169190846383572,0.012829212471842766,0.019138172268867493,-0.012214371003210545,-0.006301844492554665,-0.00875557865947485,-0.006973840296268463,-0.012797599658370018,-0.012742312625050545,0.0025251335464417934,0.01459580846130848,-0.02063737064599991,-0.009459863416850567,0.01592623069882393,-0.0219630878418684,0.019484244287014008,-0.0075485557317733765,-0.017031751573085785,-0.008779028430581093,0.0025266404263675213,0.0072097135707736015,0.009902266785502434,-0.010380593128502369,0.017146456986665726,0.0108854491263628,-0.018938269466161728,-0.016074057668447495,-0.0073328688740730286,-0.006987360306084156,-0.013521971181035042,0.010691402480006218,-0.01300873514264822,-0.013997032307088375,-0.005891638807952404,-0.010539575479924679,-0.01884119026362896,-0.006030571646988392,0.020898081362247467,-0.006681360304355621,-0.01857950910925865,0.0016255246009677649,-0.005113714374601841,0.013085981830954552,-0.005128168500959873,0.015958283096551895,0.002108796965330839,0.013773521408438683,-0.019814839586615562,0.012374652549624443,0.018430102616548538,-0.020392615348100662,-0.0021295840851962566,0.007935341447591782,-0.015084264799952507,-0.008018678054213524,-0.014601793140172958,0.0030857152305543423,-0.018010597676038742,0.0027264351956546307,-0.014168348163366318,0.01976868510246277,0.0021567917428910732,0.000671159359626472,0.008946768939495087,-0.007254353724420071,0.004920574836432934,0.013558035716414452,0.006661669351160526,0.01269453577697277,0.010048942640423775,0.00438843946903944,0.01419464685022831,0.012214167043566704,0.012021238915622234,-0.021933959797024727,0.017928896471858025,-0.01651768945157528,0.01881151832640171,0.005138006992638111,0.01566944643855095,0.009610789828002453,-0.015203820541501045,0.009223110973834991,0.0184581708163023,0.012215054593980312,-0.014233835972845554,-0.006314249709248543,-0.0020214817486703396,-0.006910014897584915,0.020252898335456848,-0.018790459260344505,0.012448662891983986,-0.011509425938129425,-0.004523760639131069,-0.007482715882360935,-0.011792370118200779,-0.01736854948103428,0.01560831256210804,-0.018921984359622,0.018650904297828674,-0.017664529383182526,-0.006025953218340874,-0.012774696573615074,0.008024828508496284,-0.0043028900399804115,0.018985798582434654,-0.010525335557758808,-0.016148295253515244,-0.00660666823387146,0.0012346679577603936,0.013271649368107319,0.014132746495306492,0.014976408332586288,-0.008033589459955692,-0.005822028964757919,0.0008628569776192307,0.016655337065458298,-0.005496584810316563,-0.0038302685134112835,0.0021213979925960302,0.005987327080219984,0.01910495199263096,0.016489267349243164,-0.004420117475092411,0.009342295117676258,0.01842556707561016,0.01826462149620056,-0.015399572439491749,-0.015400515869259834,0.014759182929992676,-8.18544503999874e-05,-0.009646509774029255,0.01886344701051712,-0.005393321625888348,-0.020826371386647224,-0.01916602998971939,-0.021585896611213684,-0.014856057241559029,-0.011333752423524857,-0.005851242691278458,0.014738505706191063,0.015388688072562218,0.017385419458150864,-0.00146999373100698,-0.01226046122610569,-0.002601399552077055],[0.008994943462312222,0.007911115884780884,-0.009135139174759388,0.021621424704790115,0.009421862661838531,0.003268099157139659,0.006490930449217558,0.008994384668767452,0.0156987477093935,-0.007421338930726051,-0.013875867240130901,0.00984114408493042,-0.009635991416871548,-0.016671692952513695,-0.007431916426867247,-0.007360183168202639,0.02101144939661026,-0.01766127161681652,0.007337555289268494,0.01395308319479227,0.007883483543992043,0.016040369868278503,-0.021951235830783844,-0.01112294290214777,-0.014136625453829765,-0.00567100802436471,0.004853507038205862,0.0009106911020353436,-0.0003538998425938189,-0.018349695950746536,-0.01734483614563942,0.0016859326278790832,0.013736117631196976,-0.007877117954194546,0.016562657430768013,-0.01772693730890751,0.0027863848954439163,0.008405438624322414,-0.009034503251314163,0.017152070999145508,-0.0005794312455691397,-6.536138243973255e-05,-0.017037231475114822,-0.01688448339700699,-0.012004652991890907,0.021289166063070297,0.013600995764136314,0.020571447908878326,0.014004221186041832,-0.015396364033222198,-0.001300519099459052,0.0026367283426225185,-0.0018450187053531408,-0.015958385542035103,0.006085929460823536,0.016348890960216522,-0.01807548850774765,0.0008641014574095607,-0.0018652606522664428,0.007196721620857716,-0.009780769236385822,0.007882339879870415,-0.014643815346062183,0.0020664138719439507,-0.014809194952249527,5.6048847909551114e-05,-0.007669024169445038,0.0065903691574931145,0.018277861177921295,-0.011964765377342701,-0.007400405593216419,-0.018334699794650078,-0.005355808883905411,0.013724599033594131,-0.002158817835152149,-0.008567248471081257,0.008801373653113842,0.0019069721456617117,-0.003780642058700323,-0.012235263362526894,0.005117172375321388,0.0075545599684119225,0.011550634168088436,0.004653535317629576,0.009791317395865917,-0.013996420428156853,-0.014940681867301464,-0.004915681667625904,0.019112128764390945,0.004897726699709892,0.012584974989295006,0.020635759457945824,0.019644320011138916,0.009350656531751156,0.007775167468935251,0.015345175750553608,-0.01139616034924984,-0.01061610784381628,-0.016667505726218224,-0.013529632240533829,-0.004009766038507223,-0.007151439320296049,-0.004518311936408281,-0.016025502234697342,0.004866542760282755,-0.012543640099465847,-0.0008946098969317973,0.020013349130749702,0.01424386166036129,0.015711389482021332,0.015557151287794113,-0.015727777034044266,0.0027491655200719833,0.0022229074966162443,-0.012428371235728264,0.0009377915412187576,-0.011713903397321701,0.011554425582289696,0.011489663273096085,0.01432989351451397,0.012177976779639721,-0.02030975930392742,-0.019756142050027847,-0.007571403868496418,0.017421958968043327,0.005376444198191166,-0.008778815157711506,0.020315920934081078,0.005353716667741537,0.010218553245067596,-0.013374418020248413,-0.00855526328086853,-0.017725475132465363,0.01910974644124508,0.0023648454807698727,0.004753083921968937,0.018402501940727234,0.017920050770044327,0.016239959746599197,-0.010723192244768143,0.009696319699287415,0.02127264440059662,0.009735550731420517,0.013354605063796043,-0.01157619059085846,0.02035672217607498,-0.005887399427592754,0.007462657056748867,0.004855913110077381,0.0028508803807199,-0.001982548739761114,0.011371998116374016,0.0002521611168049276,-0.012835272587835789,-0.00418731477111578,-0.01498318836092949,-0.005185362882912159,0.0019044352229684591,-0.0015071460511535406,0.01809818670153618,0.02078612521290779,-0.00510838907212019,-0.0014472601469606161,-0.012460204772651196,0.01876281574368477,-0.009467926807701588,0.021225102245807648,-0.002669982146471739,-0.0011428908910602331,-0.018230268731713295,-0.00034308613976463675,-0.0005751213757321239,-0.01396530494093895,0.006447074003517628,-0.005214131437242031,0.0007734129903838038,0.01261543296277523,-0.009743522852659225,-0.00994531624019146,-0.018516933545470238,0.0031904797069728374,-0.005586716346442699,-0.017726600170135498,0.012354537844657898,-0.02015785686671734,0.017402710393071175,0.0019350254442542791,0.014044875279068947,-0.013264404609799385,0.014013055711984634,-0.0028183208778500557,-0.01355580985546112,-0.017190467566251755,0.006230025086551905,0.013578004203736782,0.01270715706050396,-0.001835707458667457,-0.02175240032374859,-0.00996171310544014,0.00306520308367908,0.016305239871144295,-0.0019360285950824618,-0.01692393608391285,0.021108176559209824,0.004877128638327122,-0.01116389874368906,-0.016703728586435318,-0.01635725423693657,0.005008830688893795,0.021000880748033524,0.0016325300093740225,-0.011982493102550507,0.006567542441189289,0.013781988993287086,0.009738484397530556,-0.012212415225803852,0.01718183606863022,-0.01370314508676529,0.009526200592517853,-0.018039267510175705,-0.009199627675116062,0.012804916128516197,0.021083366125822067,-0.004982675425708294,0.017200257629156113,0.0031239646486938,0.007338537834584713,0.02090414986014366,-0.012197849340736866,-0.016260232776403427,-0.002182799857109785,-0.018469518050551414,-0.015514863654971123,0.0015725677367299795,-0.00014856082270853221,-0.010085816495120525,-0.007697727531194687,0.006751549430191517,-0.0060173338279128075,0.021122198551893234,-0.01588364690542221,-0.01635242998600006,0.004498745314776897,0.01027636043727398,-0.017958907410502434,-0.019438361749053,0.02107972651720047,0.02122119441628456,0.0032885256223380566,0.00458489079028368,-0.010376915335655212,0.0011594609823077917,0.005774966441094875,-0.0006637199549004436,-0.016833342611789703,0.00722068827599287,-0.0030899918638169765,0.004127561114728451,-0.002860636916011572,-0.01684425212442875,0.02112480252981186,0.007710819132626057,0.016063924878835678,-0.021099213510751724,-0.008587422780692577,0.0010601652320474386,-0.0014883687254041433,-0.01367317233234644,-0.008760107681155205,0.0030989120714366436,-0.019084887579083443,-0.010163779370486736,0.017220649868249893,0.010436726734042168,-0.004809842444956303,-0.019084950909018517,-0.0023547238670289516,-0.0007411258993670344,-0.003976562060415745,0.0028158738277852535,-0.00027661205967888236,-0.008371446281671524,-0.012387098744511604,0.005548500455915928,-0.007506100460886955,0.0066327983513474464,-0.005073108710348606,0.01199597679078579,0.011831725016236305,0.015551434829831123,0.0028512398712337017,-0.020953314378857613,-0.008969527669250965,0.01800847426056862,-0.0165047999471426,-0.015630587935447693,-0.006266271695494652,-0.009615398943424225,-0.01589306630194187,-0.003749697934836149,-0.004619847051799297,0.015077697113156319,-0.013177198357880116,0.00526855792850256,-0.017222728580236435,0.008089475333690643,-0.0007079587085172534,0.011760221794247627,0.0024025975726544857,0.007760166190564632,-0.009162991307675838,-0.002551484387367964,0.0207253135740757,-0.011378026567399502,-0.009154122322797775,-0.012244711630046368,0.019022461026906967,0.019124340265989304,-0.015377001836895943,0.01055423729121685,-0.00545088667422533,-0.00337476609274745,0.00923570804297924,0.0026789228431880474,-0.01647411286830902,0.009655416011810303,0.010105973109602928,-0.00771696399897337,0.01270960085093975,0.0035514063201844692,-0.006794371642172337,0.021125774830579758,-0.0036569717340171337,-0.019606737419962883,0.003474222030490637,0.01124093309044838,0.014153910800814629,0.0021416875533759594,0.005955529399216175,0.003775342833250761,-0.007419939152896404,0.012711433693766594,0.010202532634139061,-0.0053573185577988625,-4.4431530113797635e-05,0.015199767425656319,-0.0026928349398076534,-0.003091681282967329,0.00416638795286417,0.002665096428245306,0.0027447002939879894,0.011051645502448082,-0.019489845260977745,-0.017890460789203644,0.01789088174700737,-0.0037125381641089916,-0.004094409756362438,0.0026503573171794415,-0.007432872429490089,0.014157252386212349,0.0171525739133358,-0.016438454389572144,-0.0027717738412320614,0.015078285709023476,-0.013949115760624409,0.016075044870376587,-0.010428590700030327,-0.0033467276953160763,0.007279315032064915,0.0013784689363092184,0.01303349994122982,-0.013806400820612907,-0.02032116986811161,-0.008648230694234371,0.021249182522296906,-0.007277282886207104,0.009749116376042366,0.006807624362409115,-0.0017320045735687017,-0.004928388632833958,-0.01888945885002613,0.01996273174881935,0.01456247828900814,-0.0119386687874794,-0.018203789368271828,0.01300928182899952,-0.007677389774471521,-0.00548440869897604,0.018023844808340073,0.005995237268507481,-0.01833202689886093,-0.0025085534434765577,0.01872415468096733,0.01945064589381218,0.002184032928198576,0.008727630600333214,-0.0204022154211998,0.011397203430533409,-0.0026954873465001583,-0.015182306990027428,-0.0012458988931030035,3.490410017548129e-05,0.015771329402923584,0.012480342760682106,0.014109006151556969,-0.01607467234134674,-0.015879588201642036,-0.01389126107096672,0.018226709216833115,0.00678336713463068,0.003816015552729368,0.012802401557564735,0.007807631976902485,0.0029943748377263546,0.017158985137939453,-0.0020328755490481853,0.007658650632947683,0.01905025914311409,-0.0198036041110754,0.017572376877069473,0.009744767099618912,0.011039668694138527,0.003099569585174322,-0.012077175080776215,-0.01757773384451866,-0.007056931033730507,0.008827881887555122,0.01786518469452858,-0.004578911699354649,-0.0011714098509401083,-0.017427679151296616,-0.011893794871866703,0.01169646717607975,-0.01582733541727066,-0.0017166861798614264,-0.0018281822558492422,-0.015098290517926216,0.0023307031951844692,-0.001864980673417449,0.014375368133187294,-0.017800945788621902,-0.009312761947512627,-0.016696834936738014,0.0005274421419017017,0.009419703856110573,-0.0006623509107157588,0.017454273998737335,0.010103223845362663,-0.0005873533664271235,-0.0202567707747221,0.011466240510344505,-0.004870732314884663,-0.0193535927683115,-0.0013402120675891638,0.006472165696322918,0.00562864076346159,0.012464603409171104,-0.004918240942060947,0.009490186348557472,0.007811437360942364,-0.012762770988047123,-0.012565577402710915,0.0181131474673748,-0.013378951698541641,0.0071523142978549,-0.012260031886398792,-0.00056752550881356,0.01942954584956169,0.014531197026371956,-0.004856237210333347,-0.012430890463292599,-0.007411466911435127,0.0003749615862034261,0.020221013575792313,-0.008457965217530727,-0.006998349912464619,-0.0017192510422319174,-0.01190981362015009,-0.006445126608014107,0.00010131856834050268,0.003391203936189413,-0.011041756719350815,-0.0002853795303963125,0.00963999517261982,0.004947877489030361,-0.005959281697869301,0.011819584295153618,0.019402526319026947,0.002057760488241911,0.00018414107034914196,0.0057028504088521,-0.009510811418294907,0.01348973624408245,0.01461184211075306,-0.004853592254221439,0.010851746425032616,0.011468978598713875,0.009110234677791595,0.012351388111710548,-0.003494448494166136,0.00035901920637115836,0.018026571720838547,0.014617590233683586,-0.018024522811174393,-0.013011698611080647,-0.020589161664247513,0.006244576536118984,0.012959400191903114,0.006240027956664562,0.015796490013599396,0.019144181162118912,-0.008823061361908913,-0.005149033851921558,0.01663273200392723,-0.010584812611341476,0.01422070525586605,0.008091038092970848,-0.014350343495607376,-0.0029505561105906963,-0.008570763282477856,-0.008948874659836292,0.002208293881267309,-0.00898866169154644,-0.011188439093530178,-0.001418290426954627,0.015301452949643135,-0.019467554986476898,0.004674619995057583,0.020385485142469406,0.008052531629800797,-0.007333145011216402,0.004284602589905262,-0.0009958331938832998,0.00010089015995617956,0.012849738821387291,-0.0056413644924759865,0.01972230151295662,0.016957759857177734,0.006686232052743435,0.010985249653458595,-0.006584621034562588,-0.009047665633261204,0.0031968518160283566,-0.0015332379844039679,-0.015746593475341797,-0.010894891805946827,-0.008548134006559849,0.0070517463609576225,-0.005134653300046921,0.007478456012904644,-0.0039053908549249172,-0.014567211270332336,0.004139534197747707,0.0021988204680383205,0.015536976978182793,-0.0004639494582079351,0.018359865993261337,-0.020494382828474045,0.013591988012194633,-0.011305372230708599,0.004563615657389164,0.007787738926708698,0.0047264425083994865,0.01780106872320175,-0.015830686315894127,-0.017243387177586555,-0.0033347844146192074,0.020270872861146927,0.0053761741146445274,0.0023961844854056835,0.016955971717834473,-0.017375480383634567,-0.019982412457466125,0.020317576825618744,0.006860879249870777,0.016097359359264374,0.005600619129836559,-0.020409904420375824,-0.013170955702662468,-0.003996041603386402,-0.008235659450292587,0.013428052887320518,0.016605228185653687,0.015745021402835846,0.0073339128866791725,0.01124061830341816,0.00107324100099504,0.003259859513491392,0.012864930555224419,0.019565019756555557,0.01586351916193962,0.008375009521842003,-0.0014774256851524115,-0.004398041404783726,0.009566910564899445,0.012242855504155159,-0.008713738061487675,-0.01686171069741249,-0.0032993475906550884,-0.0065201930701732635,0.016188330948352814,0.02087932825088501,0.003118836786597967,-0.012775343842804432,-0.006618776358664036,0.012081118300557137,0.006633196957409382,-0.010281436145305634,0.003165952395647764,-0.011723705567419529,0.007279003970324993,0.005918110720813274,0.007869631052017212,-0.01940683089196682,-0.019790157675743103,0.019312962889671326,0.013931820169091225,-0.0003624874516390264,0.010252656415104866,-0.01948658563196659,-0.010420102626085281,-0.0026042829267680645,0.015187183395028114,-0.010293650440871716,-0.019026532769203186,0.0007863182108849287,-0.005613452754914761,-0.0179868396371603,0.000698346528224647,0.006421537138521671,0.013844044879078865,-0.020623531192541122,-0.003094713669270277,0.020602654665708542,-0.01915953867137432,0.004067461006343365,-0.012439751997590065,0.01810857281088829,-0.008012513630092144,-0.00794962327927351,-0.014277237467467785,-0.0097773103043437,-0.019628604874014854,-0.002099172677844763,-0.0016291846986860037,0.006755799986422062,-0.018068760633468628,0.017322033643722534,-0.02029619738459587,0.0010192093905061483,0.014930551871657372,0.0023443889804184437,-0.013330873101949692,-0.011934642679989338,0.017468314617872238,0.006298536900430918,0.01896478608250618,0.0065697068348526955,0.018287543207406998,-0.01635349728167057,0.018391136080026627,0.014906147494912148,0.01319163478910923,0.015064566396176815,0.016898341476917267,0.0033231391571462154,-0.015076622366905212,0.012517796829342842,-0.01363888755440712,-0.0006773880450055003,-0.019459543749690056,-0.018269982188940048,-0.007269231602549553,-0.014529060572385788,0.007028329186141491,-0.01246415451169014,-0.010638364590704441,0.01997978985309601,0.01083092950284481,-0.0015981511678546667,-0.006634972989559174,-0.015994522720575333,0.009078849107027054,-0.0057979244738817215,-0.0006091295508667827,0.017089996486902237,0.02039676159620285,-0.011103898286819458,-0.0006019695429131389,-0.0092505794018507,0.0023885569535195827,0.01693842187523842,-0.01956232823431492,0.010150102898478508,0.005908424500375986,0.007330507971346378,-0.0077706603333354,0.020570237189531326,-0.006029728800058365,0.01642029359936714,-0.013260859996080399,0.0009076873539015651,0.020809978246688843,-0.01214632112532854,0.002553397323936224,0.0027953400276601315,0.018434256315231323,0.0038956678472459316,-0.00556899281218648,-0.017622362822294235,-0.006871912628412247,0.007391958497464657,-0.016570763662457466,0.02058100327849388,0.012359884567558765,0.015126282349228859,0.01464199461042881,-0.01891392469406128,-0.0030559313017874956,-0.0055781761184334755,0.004704372026026249,0.006312198005616665,-0.008720089681446552,0.01079532690346241,-0.014873165637254715,0.0020711026154458523,0.007684123702347279,0.005023560486733913,-0.017319876700639725,-0.004377513192594051,0.0111008295789361,-0.015013917349278927,0.009509745985269547,-0.01087106391787529,-0.010446875356137753,0.014888325706124306,-1.4938412277842872e-05,-0.0048284949734807014,-0.01740364171564579,0.0150050800293684,0.017393633723258972,-0.002260723616927862,0.016458785161376,-0.019375964999198914,-0.018209820613265038,0.009333230555057526,0.01816835254430771,0.015173112973570824,0.005960174836218357,0.013721940107643604,0.0043220603838562965,-0.0182151161134243,-0.013399077579379082,0.0028467229567468166,0.007600286044180393,0.01137758232653141,0.003943710587918758,-0.001231169095262885,0.018086973577737808,0.015232237055897713,0.010651426389813423,-0.020516412332654,-0.0015784164424985647,0.01261528767645359,-0.00559809897094965,-0.009811277501285076,0.006699771620333195,0.01198259275406599,-0.002912042196840048,-0.0003365370794199407,-0.021243102848529816,-0.02171994373202324,0.009181125089526176,-0.006093145348131657,-0.019374512135982513,-0.0022034826688468456,-0.005381020717322826,0.018140971660614014,-0.002341104205697775,-0.010708910413086414,-0.005647408775985241,0.016498200595378876,-0.009161751717329025,0.014187248423695564,0.01061985082924366,-0.008398042991757393,-0.003950164653360844,0.007112802006304264,0.010585280135273933,-0.006601626984775066,-0.0013372094836086035,-0.017148412764072418,-0.018248271197080612,0.008436458185315132,-0.009685876779258251,0.018598150461912155,-0.02092473767697811,0.0048784008249640465,-0.012345275841653347,-0.0012944878544658422,0.006621998734772205,-0.010101355612277985,-0.005445622839033604,-0.006766185164451599,0.018282201141119003,-0.00403002742677927,0.019357774406671524,-0.011560814455151558,0.007024302147328854,0.005733118392527103,0.010266831144690514,0.02032160758972168,0.019712135195732117,0.012796765193343163,0.013272883370518684,-0.00012670454452745616,-0.004457737319171429,0.019992630928754807,-0.0077424431219697,0.009059131145477295,-0.005197473801672459,0.010968541726469994,0.015131184831261635,0.01674026995897293,-0.01572459563612938,-0.01379639096558094,-0.011225301772356033,0.008506866171956062,-0.0017068216111510992,-0.004233530722558498,0.019642509520053864,0.017366990447044373,0.014375565573573112,-0.001058909809216857,-0.009761903434991837,0.01032969169318676,0.00046930828830227256,0.013013007119297981,-0.017472850158810616,-0.00024727353593334556,0.015221038833260536,-0.020634233951568604,0.018619608134031296,-0.018719052895903587,0.02122940868139267,-0.004972855560481548,-0.02127399668097496,-0.008365307934582233,0.0136954877525568,-0.011183788068592548,0.010835970751941204,-0.003655626904219389,-0.009238672442734241,0.01756211742758751,-0.004614689387381077,0.014268247410655022,-0.017409557476639748,0.011352995410561562,-0.008974709548056126,0.003953118808567524,0.01368117518723011,0.005605573765933514,0.013327447697520256,-0.007672225125133991,-0.016479946672916412,0.00873168371617794,0.00731204729527235,0.004917181096971035,-0.011994722299277782,0.008312653750181198,-0.0027894838713109493,-0.0007812323747202754,-0.01975776068866253,0.00875132903456688,0.0031814570538699627,-0.011853017844259739,-0.011201544664800167,0.016344953328371048,-0.017536340281367302,-0.008905669674277306,0.0013592240866273642,-0.015212563797831535,-0.0071318503469228745,-0.006525466218590736,-0.014835456386208534,-0.008761445991694927,0.011043844744563103,0.007131694816052914,-0.006554112769663334,-0.014372366480529308,-0.0035101952962577343,-0.020468132570385933,0.005649651400744915,0.01923695206642151,-0.011981881223618984,0.003731114324182272,0.020675789564847946,0.011081533506512642,0.01118377037346363,0.017159245908260345,-0.0005238855956122279,0.018721692264080048,0.00893464870750904,0.016592081636190414,0.007821014150977135,-0.01619543507695198,-0.011277662590146065,-0.005345460958778858,0.012076830491423607,0.014235476031899452,0.004785615019500256,0.008752327412366867,-0.009811589494347572,0.01666431874036789,-0.013102646917104721,-0.0052643390372395515,0.014017043635249138,0.017214234918355942,-0.013746212236583233,-0.00041848415276035666,0.0031843665055930614,-0.012347159907221794,-0.0023872065357863903,-0.010172589682042599,-0.008850989863276482,0.020720254629850388,-0.019058577716350555,-0.018778903409838676,0.02082187682390213,0.016673050820827484,0.003658037167042494,-0.015885746106505394,-0.014717577025294304,-0.008199536241590977,0.017490845173597336,6.413272058125585e-05,-0.01763506606221199,0.013786004856228828,0.00040261627873405814,-0.0001321825839113444,-0.017833419144153595,-0.008414163254201412,0.01122969202697277,0.009957196190953255,-0.0024013794027268887,-0.020254462957382202,0.0068027423694729805,-0.011383113451302052,-0.018649110570549965,0.014992168173193932,0.01848490908741951,-0.015442092902958393,0.004582897759974003,-0.01765873283147812,0.018929120153188705,-0.0022164969705045223,-0.006045293062925339,0.00344590051099658,-0.004752135835587978,-0.012549558654427528,0.010744860395789146,-0.01584777981042862,0.002926673274487257,0.014932679012417793,-0.0184689462184906,0.014977464452385902,-0.01762627810239792,-0.006564515642821789,-0.02118753083050251,-0.011829773895442486,-0.007397761568427086,-0.005485097877681255,-0.009732525795698166,0.005127725191414356,0.002620087470859289,-0.013658537529408932,0.019875649362802505,0.005221364088356495,-0.012996259145438671,0.003947817720472813,0.015167346224188805,-0.016100749373435974,-0.0039085568860173225,0.011786524206399918,0.017535556107759476,-0.01418022159487009,0.019164517521858215,-0.015149539336562157,0.0178661085665226,0.0025885789655148983,-0.01631108671426773,0.012158328667283058,0.008658301085233688,-0.021187476813793182,0.0036458666436374187,-0.001367788529023528,-0.0067873792722821236,-0.018115410581231117,0.001469978829845786,0.007602277211844921,0.007321043871343136,-0.01554187759757042,-0.017459746450185776,-0.0005536990938708186,0.020083297044038773,-0.01629169099032879,-0.021159078925848007,-0.015248523093760014,-0.011391298845410347,0.0066723329946398735,0.013477927073836327,0.0014151947107166052,-0.002041745465248823,-0.006751738488674164,-0.007805915549397469,-0.00912550836801529,0.0025631911121308804,-0.005343510769307613,-0.0019977535121142864,0.016559142619371414,-0.018259217962622643,-0.011477180756628513,0.013004140928387642,0.0026690526865422726,-0.012606803327798843,-0.0032055876217782497,0.0004034935845993459,0.010419303551316261,0.011763634160161018,-0.004308332689106464,0.014755414798855782,-0.004330619238317013,-0.011413464322686195,-0.0005974284140393138,0.018481530249118805,-0.0025608050636947155,0.016786139458417892,0.0023515853099524975,-0.017587516456842422,0.007890332490205765,-0.017682379111647606,0.01623363047838211,-0.006688689813017845,-0.0020626760087907314,-0.00773435365408659,-0.0030005681328475475,-0.014714876189827919,-0.021161004900932312,0.002029444556683302,0.0017631927039474249,-0.020298942923545837,0.011860484257340431,-0.015471380203962326,-0.014410720206797123,0.008901450783014297,-0.02037164196372032,0.018433697521686554,-0.0176919586956501,-0.007601275108754635,0.013896679505705833,-0.00016985085676424205,0.0015660913195461035,0.005255775526165962,0.011279063299298286,-0.014726201072335243,0.00913490355014801,-0.008117456920444965,-0.006013816222548485,-0.001954935025423765,-0.01657315157353878,-8.806584810372442e-05,-0.0065826550126075745,0.018718335777521133,0.006111619062721729,-0.003689275588840246,0.00786241888999939,-0.01200816035270691,-0.017810340970754623,-0.008013433776795864,-0.0065040597692132,-0.020395206287503242,0.01731700450181961,-0.0037024333141744137,0.003371040802448988,0.0031722444109618664,-0.00616472028195858,0.01957077905535698,0.016459666192531586,-0.019378503784537315,-0.012936792336404324,0.005600930191576481,-0.020107654854655266,-0.006983966566622257,0.007971033453941345,-0.01564052142202854,-0.006794490851461887,-0.013783451169729233,0.020083848387002945,-0.009380381554365158,0.007759501226246357,-0.01705910451710224,-0.0017507371958345175,0.012028122320771217,0.004764254204928875,0.01814587414264679,-0.011285223998129368,-0.004675715230405331,-0.0010246334131807089,-0.0113235954195261,-0.010007590055465698,0.018844231963157654,-0.01148252747952938,-0.0061482517048716545,0.0021262704394757748,-0.004135447554290295,0.02117043361067772,0.0032944376580417156,-0.007914278656244278,0.010500339791178703,-0.01168164424598217,-0.01024533249437809,0.01878940686583519,0.004223299212753773,-0.014318108558654785,0.02097468450665474,0.012795748189091682,-0.006401456892490387,-0.02090803161263466,-0.007798969745635986,0.007667084224522114,-0.01322037074714899,-0.01949436031281948,0.02035387232899666,0.01751118153333664,0.018503807485103607,-0.008837305009365082,-0.0056062499061226845,-0.008647095412015915,-0.009963964112102985,-0.005942498333752155,-0.014770504087209702,-0.00497110839933157,-0.005300729535520077,-0.0008028744487091899,-0.001870795851573348,-0.012490805238485336,0.012397525832057,0.01825903356075287,-0.003723443951457739,0.011218762025237083,-0.004108901135623455,-0.011747483164072037,-0.0024525760672986507,0.0049469610676169395,0.009695254266262054,-0.01822560839354992,0.01124466024339199,0.008201204240322113,0.01253572292625904,0.002421231474727392,0.009968085214495659,0.0005476585356518626,-0.018804747611284256,0.011986156925559044,-0.01735754683613777,0.019655104726552963,-0.007479256950318813,-0.020345481112599373,-0.00990564189851284,0.0012033001985400915,-0.012888462282717228,-0.006161120720207691,-0.01147235743701458,0.007597084157168865,0.013173753395676613,0.02125360071659088,-0.011480784974992275,-0.016196709126234055,0.010446464642882347,0.006538582034409046,0.016705717891454697,-0.009747152216732502,0.0050882501527667046,-0.02048828825354576,0.004043129272758961,-0.0073274364694952965,0.014064168557524681,0.005156920291483402,0.014791103079915047,0.002215608488768339,-0.007450872100889683,0.005411752499639988,0.009626364335417747,-0.015051006339490414,-0.005444173701107502,0.000635698321275413,-0.013201228342950344,-0.01665499247610569,0.01383700780570507,0.0016304121818393469,-0.0130161689594388,0.013238025829195976,0.015662577003240585,-0.0035148966126143932,-0.0015397367533296347,0.0027887425385415554,-0.003462941851466894,0.014245813712477684,-0.018873296678066254,-0.0004615187062881887,-0.009132427163422108,-0.019539719447493553,-0.009570276364684105,0.01821444183588028,0.007228241302073002,-0.016818534582853317,0.007944850251078606,-0.015608410350978374,0.021192550659179688,0.00013427433441393077,0.007453450001776218,-0.002041600178927183,-0.02089925855398178,-0.015283022075891495,-0.002473409753292799,0.02083803340792656,0.013521144166588783,0.017567072063684464,0.0023765130899846554,-0.0018712428864091635,0.003759633284062147,-0.0008846464334055781,-0.01954570971429348,-0.006189277395606041,-0.016284499317407608,-0.01816336065530777,0.01032654382288456,-0.011510711163282394,-0.01807241514325142,-0.0020739189349114895,-0.0020076590590178967,0.0072519248351454735,0.004066831432282925,-0.01161021925508976,0.0015593802090734243,-0.004123068414628506,-0.0005031450418755412,-0.0018491221126168966,0.0008901226101443172,0.015204107388854027,0.017642293125391006,0.010528361424803734,0.0046922070905566216,0.01742936298251152,-0.019528180360794067,-0.004373996518552303,-0.017761364579200745,0.009266296401619911,-0.0016575825866311789,0.015003519132733345,0.006938875652849674,0.014555910602211952,0.020880896598100662,0.003042565193027258,-0.00140924914740026,-0.001000746851786971,0.015790168195962906,0.015143120661377907,0.014316065236926079,-0.006890862248837948,0.011016102507710457,0.003539580386132002,0.0025921198539435863,-0.014850533567368984,-0.0026219948194921017,0.007924841716885567,0.010396642610430717,0.013588318601250648,-0.01699112169444561,-0.01206267811357975,0.007841017097234726,-0.018076244741678238,-0.0005818846402689815,0.015991389751434326,-0.011198715306818485,0.0009044631151482463,-0.005117257125675678,-0.014736099168658257,0.02023177221417427,0.01076427660882473,-0.007050138898193836,-0.0037457733415067196,0.01211281307041645,0.009434621781110764,0.021125469356775284,-0.012336577288806438,-0.016907744109630585,-0.0006704329280182719,-0.012496689334511757,0.014936825260519981,-0.0006802546558901668,0.02085040509700775,-0.0064756982028484344,0.014034902676939964,-0.012826332822442055,0.0011302453931421041,-0.00795571319758892,0.016564778983592987,0.006134026683866978,-0.006001810543239117,-0.01436362974345684,-0.019970251247286797,0.0003883893950842321,-0.006277010776102543,-0.003036653157323599,-0.014775311574339867,0.008579712361097336,0.00952463410794735,0.005505855195224285,-0.012005074881017208,0.01297997497022152,0.00390798132866621,-0.001186989014968276,0.005917773582041264,0.02106626331806183,-0.006304600276052952,-0.005014917813241482,-0.0007216463563963771,0.020525522530078888,-0.014534920454025269,0.013810595497488976,-0.004951617680490017,-0.000822722795419395,0.00828070193529129,0.006371314637362957,0.010943787172436714,0.009403083473443985,-0.020458737388253212,0.0036260816268622875,0.020769450813531876,-0.014278827235102654,-0.01619509421288967,-0.0074773142114281654,0.014009466394782066,-0.001997265499085188,0.019874874502420425,0.006167211569845676,-0.01903378963470459,0.011363068595528603,-0.013137432746589184,0.0013956555631011724,-0.007150588557124138,0.009771881625056267,0.015942901372909546,-0.01899722032248974,0.016922064125537872,0.003406486939638853,-0.01321051362901926,-0.0031846207566559315,0.011670874431729317,0.00990777462720871,0.02048351615667343,-0.009709250181913376,0.0007505136309191585,0.013368194922804832,0.012538524344563484,0.008781541138887405,0.01141645573079586,-0.014199899509549141,-0.006303500384092331,0.018119998276233673,0.0010375359561294317,0.009546054527163506,-0.007981648668646812,0.0044143302366137505,-0.016112297773361206,-0.012309319339692593,0.020110204815864563,-0.020808445289731026,-0.016042716801166534,0.01964476704597473,0.015349915251135826,-0.0023133023642003536,0.002930214162915945,-0.014958159066736698,0.02099502459168434,-0.008505873382091522,0.01023881696164608,0.0007073729066178203,0.007577770855277777,0.000986890634521842,-0.0017440689262002707,0.003985029645264149,-0.013875899836421013,0.012274408712983131,0.014166748151183128,0.017972495406866074,0.015990372747182846,0.017486069351434708,0.013341398909687996,-0.015596318989992142,0.019118107855319977,-0.01781068556010723,0.012051383033394814,0.006896431557834148,0.0015368086751550436,-0.003500112798064947,0.01937226764857769,-0.020921088755130768,-0.015782300382852554,0.021028202027082443,-0.007408777251839638,-0.01791851408779621,0.00891798734664917,0.006186549551784992,-0.0032009850256145,0.01833031326532364,0.009408179670572281,-0.01070732343941927,-0.005943974480032921,-0.00014208068023435771,-0.0052507659420371056,0.003426495473831892,-0.0008224694756790996,0.008548729121685028,0.0015780383255332708,-0.0036417837254703045,-0.009045031853020191,0.0008188000647351146,-0.00675475038588047,-0.0025988775305449963,0.010522479191422462,0.0008893198100849986,-0.00172961107455194,0.0036908346228301525,0.014985276386141777,-0.018674232065677643,-0.004968433640897274,0.010680051520466805,-0.005424997769296169,-0.008199594914913177,-0.01953084021806717,0.014137858524918556,0.00844120979309082,0.004922582767903805,-0.015341104939579964,0.005964132957160473,0.008889565244317055,0.01946217194199562,0.001871997257694602,-0.012261530384421349,-0.020956283435225487,0.014394132420420647,-0.002275207545608282,0.005516360513865948,-0.013338012620806694,-0.016662977635860443,-0.017242293804883957,0.006572597660124302,-0.004115060903131962,0.013196522369980812,-0.009796530939638615,0.013106321915984154,-0.015165445394814014,0.01386193372309208,0.005639866925776005,0.0002648680820129812,-0.015586324036121368,-0.005482125096023083,0.021100081503391266,-0.0028284466825425625,-0.005664465017616749,-0.014400472864508629,0.005953718908131123,-0.0016854868736118078,-0.0016055626329034567,-0.008362190797924995,-0.0006188115803524852,0.012936210259795189,0.013836273923516273,-0.0004337448044680059,0.0037702112458646297,0.010197533294558525,-0.008867559023201466,0.019309241324663162,-0.02079453133046627,-0.01034590695053339,-0.004496273584663868,0.006116381846368313,-0.002744365017861128,0.008548649027943611,0.016935478895902634,-0.01916719786822796,-0.018956685438752174,-0.0062341634184122086,0.009428910911083221,0.017333626747131348,0.017244264483451843,0.017868440598249435,0.017387624830007553,0.010039216838777065,-0.009545582346618176,0.02093661203980446,-0.00012098623847123235,-0.017226748168468475,0.00036040315171703696,-0.005227134563028812,-0.019080011174082756,0.008046984672546387,-0.014631006866693497,0.007839863188564777,0.018291838467121124,0.016968026757240295,0.020153015851974487,-0.01034314651042223,0.01232411153614521,-0.0104669826105237,-0.015595536679029465,-0.008651158772408962,0.0027782428078353405,-0.013822505250573158,0.007640489377081394,-0.020365890115499496,0.010141627863049507,0.015001846477389336,-0.006017595529556274,0.019489236176013947,0.0020691449753940105,0.00035922619281336665,0.011691087856888771,-0.0011753363069146872,-0.017664773389697075,0.013049876317381859,-0.019415684044361115,0.010304102674126625,-0.0011808795388787985,-0.002846547868102789,0.012814988382160664,-0.010547319427132607,-0.02008829638361931,-0.01839986816048622,-0.013845372013747692,0.0005852932808920741,0.0145042035728693,-0.009350460022687912,-0.013468848541378975,0.015252141281962395,-0.01025424711406231,0.013244902715086937,0.005309778265655041,-0.004580012988299131,0.016592364758253098,0.018829476088285446,-0.006917501799762249,0.002942004706710577,0.0005405748961493373,-0.010845819488167763,0.002987902145832777,-0.009366516955196857,0.006022612564265728,-0.002850194927304983,0.009873799979686737,-0.010718842968344688,0.007035047747194767,0.01648745872080326,-0.014066947624087334,0.01843499206006527,-0.01118950080126524,0.011271643452346325,-0.00028392666717991233,-0.01779639907181263,-0.003912416286766529,0.019512705504894257,0.011103661730885506,-0.0019666659645736217,0.004882621578872204,-0.010419614613056183,-0.004805467091500759,0.012950466945767403,-0.02060674875974655,0.012061836197972298,0.016716185957193375,0.011663844808936119,-0.01869366131722927,0.006450715474784374,-0.014569827355444431,-0.011988519690930843,0.01971367746591568,-0.011558948084712029,-0.01701732538640499,-0.0009931155946105719,0.009336819872260094,-0.018785888329148293,-0.013990822248160839,-0.0012041942682117224,0.00173743418417871,0.02076871693134308,0.013711163774132729,-0.005757246166467667,-0.010060230270028114,-0.021138885989785194,-0.007656906731426716,-0.00031971768476068974,0.020388640463352203,0.02017214521765709,0.01110453438013792,0.0021309847943484783,-0.022647114470601082,0.016907047480344772,-0.016510115936398506,-0.010132181458175182,0.015426548197865486,-0.012557134963572025,0.018594980239868164,-0.0152699314057827,0.006678675301373005,-0.005799189209938049,0.009705701842904091,0.009942358359694481,-0.01926674321293831,-0.020026180893182755,0.012864099815487862,0.01376682985574007,0.0010614634957164526,0.007483636029064655,-0.011007473804056644,-0.02112661860883236,-0.015619540587067604,0.01874377205967903,0.003931052051484585,-0.003697387408465147,0.015519591048359871,0.011409902945160866,0.0059290071949362755,-0.01100817508995533,0.02050820365548134,-0.009209033101797104,-0.014715142548084259,-0.01702211983501911,0.01230247225612402,0.0028154882602393627,-0.0020833397284150124,-0.010671215131878853,-0.017629167065024376,0.0058009447529911995,-0.019419366493821144,-0.003848941531032324,0.002669693436473608,-0.012228129431605339,-0.014343110844492912,0.011371897533535957,-0.01763274148106575,0.002549267839640379,-0.005471094511449337,-0.02003263123333454,0.0047560809180140495,-0.007886137813329697,0.007863584905862808,-0.014025811105966568,-0.011479644104838371,0.010579722002148628,0.00990237109363079,-0.003109327983111143,0.0039450014010071754,0.007760201580822468,-0.018696852028369904,-0.0053312936797738075,-0.01587330363690853,-0.014786846935749054,-0.008521346375346184,0.01802533119916916,0.011918322183191776,-0.02000594325363636,-0.014952324330806732,0.0022422131150960922,0.01385234110057354,-0.01593952067196369,-0.014230748638510704,0.005752321798354387,0.005955003667622805,-0.009131954982876778,0.014244714751839638,0.0074350303038954735,0.020812831819057465,0.018297314643859863,-0.018702778965234756,-0.011053480207920074,-0.023033617064356804,-0.002178992610424757,0.013494012877345085,-0.014575691893696785,-0.019513029605150223,0.015120921656489372,-0.017720473930239677,0.0012205762322992086,0.00014513355563394725,-0.018118932843208313,-0.0012854149099439383,0.018076151609420776,-0.015295972116291523,0.01773766428232193,-0.015233279205858707,-0.020153813064098358,0.005156832747161388,-0.00656234472990036,-0.016643565148115158,0.005494552664458752,-0.018425384536385536,0.016342829912900925,-0.0050392234697937965,0.008173186331987381,0.009158505126833916,-0.011941744014620781,0.006142181344330311,0.004990548826754093,0.014271680265665054,-0.020668799057602882,0.01763969287276268,0.017257656902074814,0.0014052612241357565,0.01760554313659668,0.020786624401807785,-0.0039129192009568214,-0.010266583412885666,0.012738622725009918,-0.01915847137570381,0.016515608876943588,0.01052975095808506,0.01895701140165329,-0.006525491364300251,0.011514986865222454,-0.010770830325782299,-0.003972227685153484,-0.008022482506930828,-0.014824144542217255,-0.005198428872972727,0.012183098122477531,0.01721634715795517,-0.015465270727872849,0.013427047058939934,0.014581507071852684,-0.01572062261402607,0.0042671216651797295,0.019348176196217537,-0.02078494429588318,-0.01871824450790882,0.011204933747649193,0.013143358752131462,0.01941048726439476,0.00893431343138218,0.0009564476786181331,0.010301309637725353,-0.005544285289943218,-0.013746026903390884,0.020716413855552673,0.0009288507280871272,-0.005881273187696934,-0.021108532324433327,0.006219794042408466,0.01198033057153225,0.018663156777620316,-0.01185318361967802,-0.005967112258076668,-0.013232622295618057,-0.016352692618966103,-0.01658158004283905,-0.010483958758413792,-0.008756518363952637,0.014913534745573997,-0.011197064071893692,-0.008890821598470211,0.00958588719367981,-0.01337767206132412,0.00021788847516290843,0.00709416251629591,0.008746877312660217,0.006938689388334751,0.015907298773527145,-0.002776527311652899,-0.007544957101345062,0.020601212978363037,-0.008256964385509491,0.0024192812852561474,-0.004580126143991947,0.011803647503256798,-0.013199543580412865,-0.012274221517145634,-0.009911369532346725,-0.0172437634319067,0.008898423984646797,-0.01765899546444416,0.006345686502754688,-0.021009178832173347,0.01715519279241562,0.013680918142199516,-0.0011589338537305593,0.0040658945217728615,-0.006548542529344559,-0.016766242682933807,-0.012441763654351234,-0.014106693677604198,0.002927245106548071,-0.009048618376255035,0.012662114575505257,-0.007391064427793026,0.0015226115938276052,-0.006613884121179581,0.018141526728868484,0.020732611417770386,-0.017589140683412552,-0.02110113948583603,0.017307553440332413,-0.016608739271759987,-0.01177422795444727,0.011692279949784279,-0.02042931690812111,-0.01414202805608511,0.00642539095133543,0.01675821840763092,0.0049527911469340324,0.010205368511378765,0.00016935539315454662,-0.012667411006987095,0.006312672980129719,-0.007363138720393181,0.018090996891260147,0.002308433409780264,-0.012846425175666809,-0.013893404975533485,0.01353876106441021,-0.012356708757579327,0.01873759925365448,0.021602539345622063,0.010747140273451805,-0.010190187953412533,0.00013400425086729228,-0.008777441456913948,-0.014710452407598495,0.01375042088329792,-0.012596544809639454,0.0023427545092999935,0.01927563175559044,0.017817463725805283,-0.012396580539643764,0.017879974097013474,-0.007622146978974342,0.01364431343972683,0.021284017711877823,-0.013270216062664986,0.008078239858150482,0.01262488029897213,-0.006837764754891396,-0.00025939749320968986,0.013904443010687828,-0.004974748007953167,0.019000541418790817,0.006783760152757168,0.012010609731078148,0.015128662809729576,-0.012874680571258068,-0.007893472909927368,0.009843645617365837,-0.011755013838410378,-0.013185237534344196,-0.01745796576142311,0.004015888087451458,-0.007941276766359806,-0.012544592842459679,-0.006491553969681263,0.021057598292827606,-0.0018571519758552313,0.0016789732035249472,0.002628705929964781,-0.0035991682671010494,-0.008911462500691414,0.007371705956757069,-0.0006355139194056392,0.0094743762165308,0.012637453153729439,-0.00724718626588583,-0.01863858662545681,-0.008282504044473171,-0.005324957892298698,-0.012313476763665676,0.013565476052463055,0.01590818539261818,0.0015173982828855515,-0.00810897909104824,0.009130730293691158,0.02000957727432251,-0.006682479754090309,0.021144390106201172,0.0045251911506056786,0.007317095063626766,0.005442953668534756,0.0038208155892789364,-0.007832118310034275,0.01272554136812687,-0.016122352331876755,0.012352904304862022,-0.010388012044131756,-0.009626122191548347,0.012912752106785774,0.018912192434072495,-0.018078690394759178,-0.01675036922097206,0.018672063946723938,0.017465554177761078,-0.01388959027826786,-0.015229692682623863,0.01928342506289482,-0.005599460564553738,0.004224051721394062,0.0025070603005588055,-0.003987421281635761,-0.009595519863069057,0.008361093699932098,-0.0022954116575419903,0.010687777772545815,-0.02062450908124447,-0.01164492592215538,-0.017407462000846863,0.020222168415784836,-0.0031966320239007473,0.006831650622189045,0.013504864647984505,0.02011604607105255,-0.012972792610526085,-0.01322162989526987,-0.002642424311488867,0.019103527069091797,-0.005677367560565472,0.005222677253186703,-0.008672843687236309,0.019416552037000656,0.0008587873307988048,0.00629024300724268,-0.01350637711584568,0.017659932374954224,-0.002187588717788458,-0.004815819673240185,-0.019229700788855553,-0.002602990251034498,-0.006913182325661182,0.004297823645174503,-0.020784830674529076,0.0017756761517375708,-0.007172337733209133,-0.019174329936504364,0.008560523390769958,0.018507622182369232,0.007941543124616146,4.211253690300509e-05,0.014591692015528679,0.0005129071651026607,-0.010260051116347313,0.01994210295379162,-0.017525283619761467,-0.006272824946790934,-0.002856991719454527,-0.008585098199546337,-0.00247312244027853,0.020394902676343918,-0.0064368899911642075,0.007731123827397823,-0.004151566885411739,-0.0056351227685809135,0.007743240334093571,-0.0009026991901919246,0.01954859495162964,0.0036446130834519863,-0.00922081246972084,0.013101695105433464,-0.011036439798772335,0.006365376524627209,-0.006427387706935406,0.010236850008368492,0.018510237336158752,0.0009050237713381648,-0.011272153817117214,0.002687412779778242,0.014158962294459343,-0.00989215075969696,-0.0016401538159698248,0.014425328001379967,0.0048624249175190926,-0.010247976519167423,-0.011279772035777569,0.012488769367337227,0.020078230649232864,0.018597912043333054,0.008171974681317806,2.1973621187498793e-05,0.018329817801713943,-0.0013078388292342424,0.01575825735926628,0.0013455727603286505,-0.003823909442871809,-0.01455081719905138,0.012726614251732826,-0.00020321828196756542,-0.0020275204442441463,0.00046627590199932456,-0.012120298109948635,0.017411008477211,0.008740972727537155,-0.009247323498129845,1.838291427702643e-05,0.0036684717051684856,-0.010531351901590824,0.01118779368698597,0.00015650314162485301,-0.0047644684091210365,0.009967988356947899,0.0032312716357409954,-0.00705812219530344,-0.012850239872932434,-0.01590116135776043,-0.0056518977507948875,-0.002604472916573286,0.007191997952759266,-0.014184895902872086,0.009844888001680374,-0.018147669732570648,0.01959139108657837,0.014333626255393028,0.0020929346792399883,0.008881148882210255,0.017701759934425354,-0.02105697989463806,0.01702570542693138,0.020299717783927917,0.0017957889940589666,0.012998228892683983,-0.0008670462993904948,-0.0017849319847300649,0.018850769847631454,0.0025256159715354443,-0.014623130671679974,0.0030051949433982372,0.00836038775742054,-0.005876836366951466,-0.014745283871889114,-0.017342552542686462,0.019032878801226616,-0.008415964432060719,-0.01289000641554594,-0.01599135436117649,0.017524082213640213,-0.007364113815128803,-0.012043318711221218,-0.011319308541715145,-0.005501377396285534,0.01821804791688919,-0.01484051626175642,-0.014138570055365562,0.006805631332099438,0.002805223222821951,-0.016623815521597862,-0.01267365925014019,0.016390513628721237,0.008664080873131752,-0.011521274223923683,-0.009417199529707432,0.014788800850510597,-0.002332951407879591,-0.005858768709003925,-0.005376563407480717,0.019876059144735336,-0.0028775720857083797,0.0004279091372154653,-0.0037556204479187727,0.007045687176287174,-0.011995499022305012,-0.020771494135260582,0.015336057171225548,0.0048688435927033424,-0.0003455913974903524,-0.01775173470377922,-0.014163743704557419,-0.009100199677050114,-0.011081703007221222,-0.017133107408881187,0.007644503377377987,0.003972985781729221,0.02003474161028862,-0.0039986176416277885,0.01697320118546486,-0.01665259152650833,-0.013564031571149826,-0.00011957249080296606,-0.0007422900525853038,-0.003902283962816,0.01580754667520523,0.018175657838582993,-0.0004918946651741862,0.01903601363301277,0.0032810992561280727,0.005423170514404774,-0.004685479216277599,0.005679621361196041,0.001932766055688262,-0.007575307972729206,0.016170818358659744,0.015732716768980026,0.0002065151638817042,-0.009220650419592857,0.009059175848960876,0.01658247783780098,0.01029161922633648,-0.007888021878898144,-0.01480882428586483,-0.013613926246762276,0.0020248382352292538,0.02005070447921753,0.0022210697643458843,-0.0010546070989221334,-0.0064994581043720245,0.0032607815228402615,-0.017938654869794846,-0.007187802344560623,0.00977405160665512,0.010537402704358101,-0.011041578836739063,0.011368254199624062,-0.013625974766910076,0.0060663977637887,0.002343518193811178,0.0002848263247869909,0.008859829977154732,0.0003635337925516069,-0.020888550207018852,0.008972433395683765,0.0016792197711765766,0.013808115385472775,0.010982836596667767,0.010067431256175041,-0.003714991733431816,-0.01999014802277088,0.016080472618341446,-0.02211921103298664,0.00216151331551373,-0.005424267612397671,-0.004912667907774448,0.02116028219461441,-0.011496813967823982,-0.0009128822712227702,-0.010293853469192982,0.008020773530006409,-0.0024289838038384914,-0.017522433772683144,-0.015204764902591705,-0.00411506462842226,-0.012232588604092598,-0.01414356380701065,0.0010386293288320303,-0.004060097970068455,0.0009655131725594401,0.017981011420488358,0.018998082727193832,-0.011220617219805717,-0.007810103707015514,-0.010559052228927612,0.00699255708605051,-0.019972480833530426,0.009535493329167366,0.018591318279504776,0.014330925419926643,0.0008790639112703502,0.012031654827296734,0.006390125956386328,0.008746400475502014,0.003211729461327195,0.00869959406554699,0.018117375671863556,-0.00931843277066946,-0.02089003659784794,-0.015216038562357426,0.016888469457626343,-0.008179109543561935,-0.0038338112644851208,0.010285100899636745,-0.012562583200633526,0.007952189072966576,-0.014258439652621746,-0.0036308125127106905,-0.011859470047056675,0.015153179876506329,-0.016327200457453728,0.019789736717939377,-0.00028558814665302634,0.005354976747184992,0.01163042988628149,0.0009397417306900024,-0.0017483436968177557,0.016730844974517822,0.007280838675796986,-0.007497172802686691,0.020961321890354156,-0.02067561447620392,-0.01644083857536316,0.004633930511772633,-0.000573171186260879],[0.004002852831035852,-0.0023239082656800747,-0.003112303325906396,-0.013465662486851215,0.017757192254066467,0.014291378669440746,-0.019055549055337906,0.0031224677804857492,-0.013160977512598038,0.010213073343038559,-0.00627848319709301,0.016243577003479004,0.01475391536951065,-0.010339997708797455,0.019078420475125313,-0.003475831588730216,0.02119087055325508,-0.016340356320142746,0.007641622796654701,0.001368741155602038,0.0008594972896389663,-0.013503503054380417,0.0013318810379132628,-0.008916565217077732,-0.018413709476590157,0.015508122742176056,-0.01096786092966795,-0.0005629633669741452,0.005895146168768406,-0.01630948856472969,-0.004689568653702736,-0.013105696067214012,0.01593243144452572,-0.004844142124056816,0.010070079937577248,-0.0029782287310808897,-0.000994389527477324,-0.010494054295122623,0.0022398268338292837,-0.010406275279819965,0.009768846444785595,0.016298210248351097,-0.011395188979804516,0.007202322594821453,-0.0008262413321062922,-0.008564460091292858,0.013327425345778465,0.005399019457399845,-0.011396394111216068,0.0017543525900691748,-0.0006057674763724208,0.010360730811953545,-0.01500028558075428,0.019053209573030472,-0.01682068035006523,0.019546885043382645,0.003986929543316364,0.012661920860409737,0.018890205770730972,0.009024782106280327,0.01671324297785759,-0.01469382457435131,0.008406764827668667,-0.015317382290959358,-0.01531793363392353,0.015823233872652054,0.018420744687318802,0.00998242013156414,0.021289821714162827,0.010026900097727776,-0.0022530793212354183,0.008190483786165714,0.014690070413053036,0.014361487701535225,0.015995288267731667,0.012795472517609596,0.013817925937473774,-0.0031862682662904263,0.0024560107849538326,-0.010419175960123539,-0.006414468865841627,0.010017039254307747,-0.008200353942811489,-0.005902458913624287,0.0041474648751318455,-0.02294241264462471,-0.0062344688922166824,-0.01948309876024723,-0.0030207892414182425,-0.01447373814880848,0.017340198159217834,-0.01297080609947443,-0.01468915119767189,-0.020348086953163147,0.01863136887550354,0.018021738156676292,-0.011208241805434227,-0.003627576632425189,-0.01510816439986229,0.01801980286836624,0.0022378775756806135,-0.005996274761855602,0.015879124402999878,0.005717352498322725,0.014488023705780506,-0.0030334615148603916,0.0065580569207668304,0.005495522171258926,0.009891968220472336,-0.003498296020552516,0.02143477462232113,0.00046788458712399006,-0.00602703308686614,0.015880070626735687,-0.014112156815826893,-0.010830088518559933,-0.0026391330175101757,-0.002113045658916235,-0.01828000135719776,0.011331627145409584,-0.014566471800208092,0.015589741989970207,-0.020128825679421425,0.015428179875016212,0.0038267099298536777,0.010494948364794254,-0.0162294153124094,0.022265370935201645,0.0012963617919012904,0.0036975035909563303,0.016469687223434448,-0.009161528199911118,0.02089669182896614,0.00967759732156992,0.004238811321556568,-0.01782650128006935,0.013053951784968376,-0.017382964491844177,-0.0022019795142114162,0.009297491982579231,-0.017882365733385086,-0.013756128028035164,0.004265843890607357,-0.015323922038078308,-0.017275404185056686,0.015386460348963737,-0.0034152879379689693,0.012208553031086922,0.017364345490932465,0.003265585284680128,0.004173782654106617,-0.006328027695417404,0.0003421157016418874,-0.0013242361601442099,0.011980211362242699,0.009685760363936424,0.002346531953662634,-0.0054404521360993385,0.020421557128429413,0.017412040382623672,-0.0006759649841114879,0.014539847150444984,-0.018766308203339577,-0.01656617596745491,-0.008867559023201466,-0.014000986702740192,-0.013797631487250328,-0.01991710625588894,0.0007614119676873088,-0.007193110883235931,-0.014083536341786385,0.020693782716989517,-0.020132141187787056,-0.012698663398623466,0.004074401222169399,0.003985184244811535,-0.020523231476545334,-0.00996527448296547,-0.006643806584179401,-0.0036666537635028362,0.015037702396512032,-0.001977305393666029,-0.014514744281768799,0.0030748010613024235,0.009021589532494545,-0.0005088293692097068,0.0003354790969751775,0.003584060352295637,0.0069052609615027905,0.0032934206537902355,-0.0043026963248848915,-0.0058038318529725075,-0.011230846866965294,0.00802620779722929,0.0031592673622071743,-0.012016648426651955,-0.007512516807764769,0.019655419513583183,-0.019536783918738365,0.015747789293527603,0.0078059653751552105,-0.02116117626428604,-0.0017636117991060019,0.01623302698135376,0.003200983162969351,0.017691366374492645,-0.0199427492916584,0.009388724341988564,-0.00021897998522035778,0.019314199686050415,-0.0001941434748005122,0.00691175926476717,-0.011631814762949944,0.019238024950027466,0.004173108376562595,0.0042711058631539345,0.014089690521359444,0.0010762640740722418,-0.005559905432164669,-0.013569016009569168,-0.009086194448173046,0.0006342286942526698,0.020531661808490753,0.008245397359132767,0.004866329021751881,-0.020865298807621002,-0.00994214415550232,0.01585656777024269,0.0035160775296390057,0.01358327828347683,0.0073887864127755165,-0.008557498455047607,0.005345568992197514,0.0071399277076125145,0.014924606308341026,-0.01860077865421772,0.008862558752298355,0.017220821231603622,-0.009651903994381428,0.01434626616537571,0.016652941703796387,-0.016306612640619278,