{"type":"sb3_ppo_actor_tanh","policy_layers":[{"weight":[[0.0201690923422575,-0.11980052292346954,-0.0361362062394619,-0.044556133449077606,-0.21037431061267853,-0.02705102600157261,-0.09530506283044815,-0.07683845609426498,-0.026324953883886337,0.002746391575783491,-0.04663660377264023,-0.1251523792743683,0.038552138954401016,0.24437323212623596,-0.25879010558128357,-0.15725280344486237,0.18585897982120514,0.09889871627092361,0.2862384617328644,-0.036952290683984756,-0.16136181354522705,-0.05899255350232124,0.4329226315021515,0.06532875448465347,0.37995192408561707,-0.1607617735862732,0.12027818709611893,-0.18821606040000916,0.13004013895988464,0.04232988506555557,0.11424671858549118,0.24889041483402252,-0.04054993763566017,-0.0979878157377243,0.07479660958051682,0.15753698348999023,0.0357995331287384,0.17830979824066162,-0.005972440354526043,0.15811729431152344,0.13163581490516663,-0.10616128146648407,0.056942787021398544,-0.2773837745189667,-0.08407101035118103,-0.2817683517932892,0.03013686276972294,0.19957849383354187,-0.15206705033779144,-0.02011621557176113,-0.15023578703403473,0.1373501718044281,-0.3093174695968628,0.17589853703975677,0.13145360350608826,-0.15339258313179016,-0.14548294246196747,-0.06367748230695724,-0.20203904807567596,0.04309612885117531,-0.14351524412631989,-0.2800655663013458,0.26202934980392456,0.4210613965988159,0.2598060667514801,0.04496035724878311,0.03973723575472832,0.16611193120479584,0.01772640459239483,0.036432478576898575,0.15520310401916504,0.10418200492858887,-0.32015690207481384],[0.09256981313228607,0.15518349409103394,0.10081502795219421,0.16129226982593536,0.1477070301771164,0.0334288589656353,-0.3863532841205597,-0.3867838680744171,0.23337364196777344,-0.019090566784143448,0.25734472274780273,-0.015189134515821934,-0.08675429224967957,-0.25867220759391785,0.34848693013191223,0.20599962770938873,0.0327887125313282,0.26290032267570496,0.11837923526763916,-0.05875272676348686,0.19150975346565247,0.18866972625255585,0.0393567830324173,-0.12050843238830566,0.1105647161602974,-0.2170000523328781,-0.012353320606052876,0.13247451186180115,-0.032952263951301575,0.21627293527126312,-0.10745633393526077,0.1558830440044403,-0.037299744784832,-0.049699924886226654,0.060251131653785706,0.3231496512889862,-0.34066540002822876,0.2752300202846527,0.20020389556884766,-0.13689635694026947,-0.018901709467172623,0.2354350984096527,-0.14126843214035034,0.111478291451931,-0.0013396590948104858,-0.05250770226120949,0.13008934259414673,-0.046003468334674835,0.15690508484840393,0.1337449699640274,-0.04856865853071213,-0.21616239845752716,0.09806513041257858,0.13738785684108734,-0.12411730736494064,-0.011176393367350101,-0.05702424421906471,-0.36932989954948425,0.019711054861545563,-0.05817124620079994,0.1701527088880539,-0.27919769287109375,0.07652534544467926,0.06430196017026901,-0.24225668609142303,-0.10511408001184464,0.08659487962722778,-0.3044882118701935,0.001207640627399087,-0.28054192662239075,-0.07255609333515167,-0.07986761629581451,0.2606779932975769],[-0.2099115401506424,0.19712746143341064,-0.1318489909172058,-0.15876470506191254,0.11240742355585098,0.13835009932518005,0.05586707219481468,0.03874558210372925,0.06007668375968933,0.11218457669019699,0.19166237115859985,-0.22658827900886536,0.14203782379627228,0.10188009589910507,-0.06414252519607544,-0.16516664624214172,-0.2938377559185028,0.16183874011039734,-0.32550421357154846,-0.2397269904613495,-0.057551100850105286,-0.05371183902025223,-0.1840362697839737,-0.06746972352266312,0.22665946185588837,0.23153334856033325,0.12037429213523865,-0.012431859038770199,0.05093714967370033,0.14503566920757294,-0.24522727727890015,0.0042648217640817165,-0.0006199735216796398,0.11828318983316422,0.26567864418029785,-0.184999018907547,-0.004375476390123367,-0.1344231814146042,0.21239210665225983,0.12690967321395874,0.26716938614845276,0.09820497781038284,-0.05437817424535751,-0.05245981365442276,0.04309403896331787,-0.09991314262151718,0.10606621950864792,0.056331533938646317,0.3343729078769684,-0.09503921866416931,-0.2430139183998108,-0.1587717980146408,0.044451817870140076,0.13507458567619324,-0.004402263090014458,0.1615934669971466,-0.041776467114686966,-0.05563661828637123,0.08477258682250977,-0.08010585606098175,0.24162249267101288,-0.008233768865466118,-0.0022433102130889893,0.09307839721441269,0.06506993621587753,0.3375667333602905,-0.26559221744537354,-0.2070036232471466,-0.05387745425105095,0.009034323506057262,-0.051392730325460434,0.011024397797882557,-0.4717487096786499],[-0.009780513122677803,0.02562600001692772,-0.04860702529549599,0.15209151804447174,0.013689937070012093,-0.5262025594711304,0.028189755976200104,0.1654651165008545,0.08957822620868683,-0.03506333380937576,-0.17598742246627808,0.06648825109004974,0.11535613983869553,0.1136699765920639,0.08368085324764252,0.33155107498168945,0.0465722382068634,-0.07844412326812744,0.08880462497472763,0.06786511093378067,0.23228272795677185,-0.05143710970878601,0.18985247611999512,-0.18658287823200226,0.19903461635112762,0.21867720782756805,0.09205050021409988,0.3499080538749695,0.1867528110742569,0.23878131806850433,-0.35278186202049255,-0.15971814095973969,-0.023572783917188644,-0.18280482292175293,-0.07446535676717758,-0.15924684703350067,-0.21614043414592743,0.09772388637065887,0.05487479269504547,0.1472257524728775,0.04425813630223274,-0.15472674369812012,0.15704379975795746,-0.04346761479973793,-0.1477973610162735,-0.09747903794050217,-0.40322157740592957,-0.15154798328876495,0.23182666301727295,-0.06992904841899872,0.10654899477958679,-0.28065815567970276,-0.13434858620166779,0.10941585898399353,-0.22266215085983276,-0.041373200714588165,0.041300464421510696,-0.2824346721172333,0.006500625517219305,-0.15301412343978882,-0.12719057500362396,-0.09314149618148804,0.030182968825101852,-0.1763375699520111,-0.010686061345040798,0.05234457924962044,0.060105692595243454,0.09694833308458328,-0.4232794940471649,0.02609003707766533,-0.40019646286964417,-0.1744803786277771,0.22878803312778473],[0.04996771737933159,-0.03398941457271576,-0.2437632530927658,0.05254695191979408,0.03313865512609482,-0.02702903002500534,-0.1399553269147873,0.2507871985435486,-0.20045490562915802,-0.11296217888593674,0.3116489052772522,-0.09672268480062485,-0.16982832551002502,-0.11225318908691406,-0.018683869391679764,-0.6644433736801147,-0.045706406235694885,0.07606108486652374,-0.0005579161224886775,-0.052648287266492844,-0.39291831851005554,-0.26719844341278076,0.34995710849761963,-0.20994341373443604,-0.12568461894989014,-0.14889822900295258,0.12131667137145996,-0.0693909078836441,0.06508643925189972,0.20210088789463043,-0.09403447061777115,0.05144096910953522,0.018475862219929695,0.22936461865901947,0.11373450607061386,0.22151385247707367,0.03266149014234543,0.1611536145210266,-0.16019582748413086,-0.16761872172355652,-0.09861326962709427,-0.07452794909477234,0.12158838659524918,0.22519312798976898,0.154043048620224,0.19152656197547913,-0.2688814699649811,0.11956734955310822,-0.14433526992797852,-0.0009997065644711256,-0.00464289216324687,-0.15821576118469238,0.0732242614030838,-0.24907806515693665,0.15325145423412323,0.2463303804397583,0.181320458650589,0.17928236722946167,0.1823868751525879,0.00512385368347168,-0.04514271765947342,-0.06577181071043015,0.24017363786697388,0.025202011689543724,0.2726190388202667,0.14185084402561188,-0.24691958725452423,0.14896205067634583,0.0831221416592598,0.04830862209200859,0.15092439949512482,-0.10749725997447968,0.13466888666152954],[0.13879503309726715,0.04928012564778328,-0.00557233951985836,-0.19212326407432556,0.07041744142770767,0.00842987559735775,0.29375192523002625,-0.008079343475401402,-0.4152870774269104,0.17037367820739746,0.16546329855918884,0.11298317462205887,-0.14796553552150726,-0.019066715613007545,0.38246288895606995,0.14160722494125366,0.09767954051494598,-0.38270103931427,-0.003474185476079583,-0.05600932613015175,0.1084214299917221,0.01993465982377529,-0.18925607204437256,-0.19755329191684723,0.03499651327729225,0.10150182992219925,0.014844056218862534,-0.01334477961063385,0.14574505388736725,-0.24071334302425385,-0.2511768937110901,0.09427465498447418,0.1893400102853775,-0.03602176159620285,0.08219274133443832,-0.11620213836431503,0.26948627829551697,0.3639741837978363,-0.0046570138074457645,-0.19432754814624786,0.12033632397651672,-0.1681232452392578,0.0695987418293953,0.03084130771458149,0.07440916448831558,-0.2510087490081787,-0.007356876507401466,-0.05030801147222519,-0.0037052854895591736,0.2043805718421936,0.011027708649635315,-0.02397671714425087,0.12684230506420135,0.4127042591571808,-0.18352793157100677,-0.2488735020160675,-0.0006475946865975857,-0.21212990581989288,0.11891702562570572,-0.18953967094421387,-0.10120677202939987,-0.0038523210678249598,-0.032153256237506866,0.2800087034702301,-0.06791994720697403,-0.09234286099672318,-0.10151225328445435,-0.18786174058914185,0.07383185625076294,-0.1311129331588745,0.11412397027015686,-0.22026178240776062,0.10656128823757172],[-0.26715391874313354,0.0687299519777298,0.13097208738327026,0.09456103295087814,-0.24434706568717957,0.05612609162926674,-0.22662009298801422,0.050142932683229446,-0.43695178627967834,0.18122544884681702,0.1356821358203888,-0.00076814997009933,-0.06769703328609467,-0.01814943179488182,0.36225947737693787,0.204923614859581,0.15707704424858093,0.05386874079704285,-0.011668835766613483,0.10624949634075165,0.21845921874046326,-0.117392897605896,-0.12453062832355499,-0.050043802708387375,-0.02454408071935177,0.19267217814922333,0.4011439085006714,-0.0006536543951369822,-0.24199938774108887,0.18296565115451813,0.0648883804678917,-0.1016460731625557,0.1608339250087738,0.27397873997688293,-0.12554654479026794,-0.00644123088568449,0.1450594961643219,-0.03375626355409622,-0.004684923682361841,0.2581835985183716,-0.23403580486774445,0.09365463256835938,0.08813004195690155,-0.1410636603832245,-0.1758534014225006,-0.004424083977937698,0.0933687686920166,-0.10200890153646469,-0.16423091292381287,-0.2502813935279846,-0.016987137496471405,0.2185184210538864,0.11314566433429718,-0.05714019015431404,-0.1345793455839157,0.12492626160383224,-0.22264263033866882,0.023711837828159332,-0.07405228912830353,-0.20544803142547607,0.1436275988817215,-0.34602591395378113,0.020829230546951294,0.19071874022483826,-0.1698206663131714,0.12788045406341553,-0.014547511003911495,-0.11621997505426407,-0.22239479422569275,-0.10778768360614777,-0.31715336441993713,-0.022125642746686935,0.2263319343328476],[0.4376862347126007,0.04062691703438759,0.0262795127928257,-0.005820499267429113,-0.016730032861232758,-0.13746467232704163,-0.14348049461841583,-0.08994733542203903,0.03873984143137932,0.1361478716135025,0.003623277647420764,-0.00873164925724268,0.21758557856082916,0.04644530266523361,-0.1297452449798584,-0.13332222402095795,-0.07590751349925995,-0.2070252001285553,0.04154486209154129,-0.09120463579893112,0.008124676533043385,-0.03826908767223358,-0.07951616495847702,-0.01522048469632864,-0.06359019130468369,0.027254141867160797,0.3206067681312561,-0.1220623105764389,-0.06674279272556305,0.08362290263175964,-0.23466110229492188,0.12937945127487183,-0.2649993300437927,-0.07153408229351044,-0.1770315319299698,0.030217034742236137,0.24334627389907837,-0.21045200526714325,-0.20050887763500214,0.15282435715198517,0.123109370470047,-0.15574008226394653,-0.08790531009435654,0.10873205959796906,-0.38417181372642517,0.39035990834236145,0.30633071064949036,0.04647916927933693,0.2506522834300995,0.05810583382844925,0.12127526104450226,0.0354132279753685,-0.03911490738391876,0.1222766786813736,0.1260235607624054,0.0880851224064827,-0.2520405352115631,0.09162920713424683,0.18649430572986603,-0.3662024140357971,0.012960580177605152,-0.15329116582870483,0.12808100879192352,-0.23166286945343018,0.35077622532844543,-0.15848740935325623,0.20218032598495483,-0.16663597524166107,0.13187061250209808,0.07828444987535477,0.1493104100227356,0.07373020052909851,-0.2827044129371643],[0.021468428894877434,-0.10424618422985077,0.0991145595908165,0.07344358414411545,-0.24907685816287994,0.11507994681596756,-0.19904153048992157,0.0422702431678772,-0.06498869508504868,-0.22949953377246857,0.078962542116642,-0.13688720762729645,-0.1515001505613327,-0.15873795747756958,-0.012085826136171818,-0.12578202784061432,-0.14968489110469818,0.14525926113128662,0.18655629456043243,-0.2526546120643616,0.23275983333587646,0.21572944521903992,0.1786421239376068,0.12007047981023788,0.1350054293870926,-0.015336057171225548,0.2804105579853058,-0.06534213572740555,0.04940108209848404,-0.17484115064144135,-0.04867870360612869,0.005817033350467682,-0.2368578165769577,-0.17832554876804352,0.13378962874412537,0.03116132691502571,0.1431102603673935,-0.31667807698249817,-0.11182297766208649,-0.008896253071725368,-0.044963762164115906,-0.09720257669687271,0.10988320410251617,-0.15902794897556305,0.3591780662536621,-0.20504476130008698,-0.15150679647922516,0.25675472617149353,0.04690810292959213,-0.2462703287601471,0.15617433190345764,-0.032043203711509705,0.015175788663327694,0.10631334036588669,-0.06357324868440628,-0.05704374238848686,0.0009541439358144999,0.18290190398693085,0.052144039422273636,-0.03532654792070389,0.0026604756712913513,0.12564240396022797,-0.331259161233902,-0.06859897077083588,-0.1123540848493576,-0.14833685755729675,0.1343596875667572,-0.3647780418395996,-0.12361384183168411,0.4471892714500427,0.19981291890144348,-0.17075268924236298,0.13473133742809296],[-0.3103231191635132,0.1630750596523285,0.19394192099571228,0.13345752656459808,-0.26066139340400696,0.0958227589726448,0.14236712455749512,-0.10671474039554596,0.16294366121292114,0.10671031475067139,-0.06674249470233917,0.4574967622756958,0.07272464781999588,-0.11251584440469742,0.38850417733192444,0.19974052906036377,-0.3106072247028351,-0.029335452243685722,0.13278290629386902,-0.001924819895066321,-0.07699090242385864,-0.007786937989294529,0.19299085438251495,-0.10778170824050903,0.2131771594285965,0.1084194928407669,0.23523904383182526,-0.007398985791951418,-0.022559532895684242,-0.22988350689411163,-0.05906081199645996,-0.12437240779399872,-0.13100016117095947,0.05165207386016846,-0.07347357273101807,-0.060514628887176514,-0.19202682375907898,0.1390720158815384,-0.335984468460083,-0.21917270123958588,-0.006827852223068476,-0.20538173615932465,0.10955560207366943,0.07336435467004776,0.05970962718129158,-0.09532703459262848,0.06165676563978195,-0.11625447869300842,-0.2058408409357071,0.056442197412252426,-0.12673300504684448,0.17984583973884583,-0.10666801035404205,0.11696352064609528,-0.21103748679161072,-0.06516429781913757,0.2418304681777954,-0.1879020482301712,-0.1483796089887619,0.019974587485194206,0.23763442039489746,-0.2613343298435211,-0.0615050233900547,-0.4796483516693115,0.03299655392765999,0.044896237552165985,-0.23726968467235565,-0.07615309953689575,0.24878454208374023,-0.07015197724103928,-0.2004859894514084,-0.04048306494951248,0.23301692306995392],[-0.2762526273727417,0.16789859533309937,-0.12308904528617859,0.24040041863918304,0.23365283012390137,0.05796150118112564,-0.13733240962028503,-0.03904791176319122,0.028897326439619064,-0.2709825932979584,-0.03581486642360687,0.12872079014778137,-0.08808264881372452,0.030365636572241783,0.2522190511226654,0.4411967992782593,0.11118629574775696,-0.23617704212665558,0.08995119482278824,-0.09100982546806335,-0.03401486948132515,-0.37342798709869385,-0.037550926208496094,0.30370020866394043,-0.041988443583250046,-0.173965722322464,-0.22910094261169434,-0.013344633392989635,-0.3016473352909088,-0.21583056449890137,0.09078995883464813,-0.10728131234645844,-0.01218973845243454,0.10166035592556,0.014744685962796211,0.03576749935746193,0.07546863704919815,0.4059900641441345,0.06723036617040634,0.13961248099803925,0.017832301557064056,-0.12863509356975555,0.25740665197372437,-0.04063364863395691,0.06359332799911499,0.3266608417034149,-0.3542351722717285,0.16537301242351532,0.017253344878554344,-0.07997368276119232,-0.08141835778951645,0.04471854120492935,-0.08578834682703018,0.4146464467048645,-0.24992972612380981,0.19183965027332306,-0.005262133665382862,-0.18264135718345642,0.17702849209308624,-0.12120693176984787,0.2269991636276245,0.10734421014785767,0.12089172005653381,-0.052496470510959625,-0.16003911197185516,0.1162913367152214,0.20743589103221893,-0.20062264800071716,0.05027790367603302,-0.041914939880371094,-0.3168243169784546,-0.06996852159500122,0.019373727962374687],[0.05971236899495125,0.10869338363409042,-0.11387304961681366,0.3499390482902527,-0.11682616174221039,0.04433642700314522,-0.2883337140083313,-0.16158649325370789,-0.25723764300346375,-0.06925201416015625,-0.10437945276498795,-0.006498472299426794,-0.1460595726966858,0.21435417234897614,-0.3603214919567108,-0.0732618197798729,-0.14805126190185547,-0.22884653508663177,-0.1783483922481537,0.22590342164039612,0.03189326822757721,0.11004014313220978,0.11531060189008713,0.012858528643846512,-0.19467726349830627,-0.11535903066396713,0.03890758380293846,0.2433515340089798,0.04529286548495293,-0.182994544506073,0.02091454528272152,-0.0965782031416893,0.05479186773300171,0.00567647023126483,-0.16729210317134857,-0.10666364431381226,0.16887985169887543,-0.2408406138420105,-0.049776989966630936,-0.1547921597957611,-0.08455481380224228,0.06509485840797424,-0.09110841155052185,0.21567916870117188,-0.013981475494801998,-0.07339534908533096,0.01631450280547142,-0.023449882864952087,-0.2597368061542511,-0.02470439113676548,-0.2931261956691742,-0.21514613926410675,-0.24513791501522064,0.14494185149669647,0.05105162411928177,-0.12068779766559601,0.11534172296524048,0.26024481654167175,0.016778403893113136,-0.12204239517450333,0.1215505450963974,0.07454150915145874,-0.14745564758777618,0.3239775598049164,0.1882483959197998,0.014305392280220985,-0.1629340648651123,0.11205973476171494,-0.10415690392255783,-0.2752324640750885,0.1632169485092163,-0.3910392224788666,0.06058656796813011],[-0.21446280181407928,0.030423691496253014,-0.15508878231048584,0.020553745329380035,-0.22878946363925934,0.03315016254782677,0.04133882746100426,-0.2001265585422516,-0.020450357347726822,0.1791180968284607,0.20394465327262878,0.16237686574459076,0.022171350196003914,0.03539738804101944,0.36123427748680115,0.7757129669189453,0.12184762209653854,0.1924692541360855,0.0615442730486393,-0.4255225956439972,-0.0739336609840393,0.13228078186511993,-0.05427009239792824,0.02544160932302475,-0.017938539385795593,0.3543660044670105,-0.06667966395616531,-0.098384328186512,0.15042927861213684,-0.18463587760925293,0.05588799715042114,-0.2510199546813965,0.1667199432849884,-0.05666225031018257,0.32219788432121277,0.16580499708652496,-0.08502290397882462,0.12509000301361084,0.0656665489077568,-0.1490282565355301,-0.06216488778591156,-0.21332454681396484,-0.2021886259317398,-0.120206318795681,-0.11407370120286942,0.22051215171813965,0.08099398761987686,-0.09648718684911728,0.05540161207318306,-0.0853884220123291,0.2710590362548828,0.04786913841962814,-0.16250824928283691,-0.05116632953286171,-0.22287307679653168,0.06791868805885315,0.03750035911798477,-0.023380571976304054,0.11137998849153519,0.03156816586852074,-0.3500487506389618,-0.03574712201952934,0.13084262609481812,-0.04944494739174843,0.0045920684933662415,0.32649093866348267,0.04462294280529022,-0.12064648419618607,-0.18643087148666382,-0.20153199136257172,0.1232227012515068,-0.015643177554011345,0.0827389657497406],[-0.10410404950380325,0.08119572699069977,-0.13584119081497192,-0.3881264925003052,0.09017138928174973,-0.07493492215871811,-0.10389725863933563,-0.1951248049736023,0.22071562707424164,-0.12926743924617767,-0.1349833607673645,-0.033447474241256714,-0.04415883123874664,0.15007342398166656,-0.34742677211761475,-0.30809831619262695,-0.006204596720635891,-0.05731174349784851,0.024790862575173378,0.2257876843214035,-0.05878855288028717,-0.04679642617702484,-0.05382160097360611,-0.021334778517484665,0.12685944139957428,0.22924555838108063,-0.17251606285572052,-0.18983037769794464,-0.103211410343647,0.08434415608644485,-0.10995227843523026,0.07425586134195328,-0.5053529143333435,-0.1753678023815155,-0.017052099108695984,0.05157078802585602,0.33072349429130554,0.05396765470504761,-0.047280989587306976,0.09378793090581894,-0.1714628040790558,-0.14585274457931519,-0.24699248373508453,-0.10266789048910141,0.16096948087215424,0.027090661227703094,0.062498267740011215,-0.18116413056850433,0.0333782397210598,-0.284138947725296,0.2615513205528259,-0.19760672748088837,0.20523415505886078,-0.052279550582170486,0.07976198196411133,-0.07932449132204056,0.02020265720784664,0.32051655650138855,0.1539241522550583,0.015534733422100544,0.42145541310310364,-0.14648835361003876,0.24866507947444916,0.2408163696527481,0.029171017929911613,0.0013345445040613413,-0.3323308229446411,0.2899092137813568,0.03149477019906044,0.06554879248142242,0.3556230962276459,0.05081459879875183,-0.030652225017547607],[-0.12399151921272278,-0.42144450545310974,-0.2899455428123474,0.19759005308151245,-0.028628051280975342,0.20665854215621948,0.2015599012374878,0.19594129920005798,-0.030552513897418976,-0.3368203938007355,0.15901237726211548,-0.23256848752498627,-0.29485228657722473,0.20046758651733398,-0.05952184274792671,-0.28261688351631165,-0.21672260761260986,0.14115485548973083,0.06756141781806946,0.0517771914601326,0.1608135998249054,0.09834889322519302,-0.14779913425445557,-0.0891481563448906,0.405681848526001,-0.05181059241294861,-0.22149395942687988,0.13446685671806335,-0.11422313749790192,0.05856957659125328,0.08557361364364624,0.12187755852937698,0.10696907341480255,-0.10106555372476578,-0.2164386659860611,-0.15040716528892517,0.26386499404907227,0.034920383244752884,-0.029754208400845528,-0.07436402142047882,-0.054152850061655045,0.06485402584075928,0.11404378712177277,0.2573406994342804,-0.13445453345775604,0.14065010845661163,0.3594624698162079,-0.16228698194026947,-0.16355940699577332,-0.18637554347515106,0.14750739932060242,-0.22746120393276215,-0.10649585723876953,0.026067044585943222,0.01429781224578619,-0.11781793087720871,-0.042385686188936234,0.1779068559408188,0.05564713478088379,-0.05416109412908554,-0.1836993247270584,-0.2028331756591797,0.14543834328651428,-0.19735099375247955,-0.05805344134569168,-0.01490416657179594,0.021745990961790085,0.08076504617929459,0.1276957392692566,0.07983656227588654,0.1071280986070633,-0.01811017096042633,-0.25442078709602356],[0.4246443212032318,0.011773224920034409,0.04260532185435295,-0.24369622766971588,-0.2868522107601166,0.06928212195634842,-0.2631879150867462,-0.048868294805288315,-0.10927682369947433,0.006098583340644836,-0.09673668444156647,-0.0929342657327652,-0.06406573951244354,0.1235441192984581,0.060155242681503296,-0.47235730290412903,-0.03175707906484604,-0.08871228992938995,0.12519799172878265,-0.15851880609989166,0.046971991658210754,-0.10935815423727036,-0.14855678379535675,0.117543525993824,0.0985594168305397,-0.19440008699893951,-0.09049802273511887,0.18477125465869904,0.49256646633148193,0.21835844218730927,0.26719656586647034,-0.16967487335205078,-0.05630204454064369,-0.0018236726755276322,-0.061237554997205734,-0.10398257523775101,0.17010493576526642,-0.04939920827746391,0.13547417521476746,-0.11864930391311646,0.04532690718770027,0.0233233030885458,0.2197933942079544,-0.01571907103061676,0.09558288753032684,0.07712201029062271,-0.054079677909612656,-0.2864919602870941,0.22558246552944183,-0.20259933173656464,-0.03128006309270859,0.003441073466092348,0.0171955693513155,0.1770642101764679,0.28930962085723877,0.11605135351419449,0.23989252746105194,0.26174989342689514,0.17933130264282227,0.1268772929906845,0.040516261011362076,-0.1848451942205429,-0.1585560292005539,-0.03491891175508499,0.004914859309792519,0.21362893283367157,0.03353358060121536,0.26922696828842163,0.11945988982915878,-0.1473616063594818,0.09955213218927383,0.37826406955718994,-0.07987072318792343],[0.34613269567489624,-0.1897948980331421,0.0014479858800768852,0.039923496544361115,-0.1257725954055786,0.2187463343143463,0.03535247966647148,0.17805355787277222,0.046792276203632355,-0.22185051441192627,-0.03605462238192558,0.004739000927656889,0.13331618905067444,0.11443457752466202,0.09543514996767044,0.4645406901836395,-0.01647133007645607,0.024881713092327118,-0.3337317407131195,-0.07953207194805145,0.07521353662014008,0.0952802523970604,-0.07614919543266296,0.015595415607094765,-0.09662564098834991,0.17693538963794708,-0.09584997594356537,0.030619937926530838,-0.0683833658695221,-0.1771375983953476,0.028142116963863373,-0.07495959103107452,0.009745660237967968,0.12519557774066925,0.10702470690011978,0.2573155462741852,0.13077424466609955,0.01665649190545082,0.26991006731987,0.07787049561738968,0.19310477375984192,-0.2730673849582672,-0.07957987487316132,-0.046226538717746735,-0.14707274734973907,-0.02337772585451603,-0.2000531107187271,0.22049087285995483,0.06565247476100922,0.05261451378464699,-0.028108898550271988,0.0003382058930583298,0.14953404664993286,-0.19054722785949707,-0.22631381452083588,-0.1467626839876175,0.15466046333312988,-0.313244491815567,0.12275077402591705,0.2471742480993271,0.07346296310424805,-0.5920971035957336,-0.16600339114665985,0.053198184818029404,0.06511734426021576,-0.18546894192695618,-0.11084721237421036,-0.07727298140525818,0.09602650254964828,-0.10016223043203354,-0.49440279603004456,-0.08870571851730347,0.05094153806567192],[0.11518673598766327,-0.2608860433101654,-0.1470133513212204,-0.13225486874580383,-0.11261951178312302,-0.07972856611013412,-0.1354658305644989,0.26213762164115906,0.36425846815109253,0.034048814326524734,0.09283173829317093,0.09936655312776566,-0.15694710612297058,-0.09213774651288986,-0.16352997720241547,0.18800519406795502,-0.32646289467811584,-0.36516278982162476,-0.0161758903414011,0.1286308318376541,-0.032570842653512955,-0.09716219455003738,0.05730457231402397,0.30432868003845215,0.0006383246509358287,0.13061009347438812,0.10445062816143036,-0.019722506403923035,0.134983628988266,0.045283347368240356,0.060809507966041565,-0.19043415784835815,-0.00986559223383665,0.07586410641670227,-0.12853743135929108,0.03366536647081375,-0.04094504565000534,0.042348384857177734,0.042563993483781815,-0.10602331906557083,0.31050634384155273,0.32797443866729736,0.1718387007713318,0.004428207408636808,0.19958773255348206,-0.28553473949432373,0.24879810214042664,-0.18963102996349335,0.17435695230960846,-0.2202727198600769,0.2056703120470047,0.18254752457141876,0.07287947833538055,-0.19144584238529205,0.11313401162624359,0.09933444857597351,-0.36090975999832153,-0.1078796535730362,0.402303546667099,-0.0382545106112957,0.03935780003666878,0.04818647727370262,0.16665896773338318,0.27860820293426514,0.276515930891037,-0.11593189835548401,-0.15206404030323029,-0.1339740753173828,0.002433506306260824,-0.032535672187805176,-0.04625016078352928,0.02454807236790657,-0.016365278512239456],[0.07026095688343048,-0.3042896091938019,0.129087433218956,-0.025855405256152153,0.017222711816430092,0.27119848132133484,-0.1306929588317871,0.2544670104980469,0.16215576231479645,0.001990734366700053,-0.3762499690055847,-0.32698342204093933,0.044251635670661926,0.046323101967573166,-0.1373484879732132,-0.5999935865402222,0.2130773514509201,-0.2911941111087799,-0.11503490060567856,-0.14703719317913055,-0.05738073214888573,0.15589551627635956,0.20332536101341248,0.14572925865650177,0.18217900395393372,0.12771546840667725,-0.019896646961569786,-0.009230821393430233,-0.07814138382673264,0.1717609465122223,-0.1130889281630516,-0.004700577352195978,-0.028003688901662827,0.07768673449754715,0.043434496968984604,0.04768005385994911,-0.07333715260028839,-0.05981004983186722,0.1374923139810562,-0.224653959274292,-0.17573565244674683,0.24238348007202148,-0.39792710542678833,0.24996733665466309,-0.2981766164302826,-0.1466660350561142,-0.1434893012046814,-0.10585387796163559,-0.10378734022378922,-0.057104527950286865,0.03348290175199509,0.1553289145231247,-0.003025275422260165,0.23534978926181793,0.08107273280620575,-0.0848776325583458,-0.09253641217947006,0.2915169596672058,0.1973249912261963,0.07674557715654373,0.14101971685886383,0.08393452316522598,0.15886542201042175,-0.03245387226343155,0.15322381258010864,0.3698877990245819,0.03967766836285591,-0.052601929754018784,0.21402567625045776,0.4106602072715759,0.4178708791732788,0.11610390245914459,-0.07678351551294327],[0.09825895726680756,-0.15203557908535004,-0.13221244513988495,-0.09803307056427002,0.12873335182666779,-0.01249066274613142,-0.006651375908404589,-0.12020420283079147,-0.29602640867233276,-0.1430261731147766,-0.23038165271282196,-0.13944774866104126,-0.16034571826457977,-0.2263568937778473,0.13432832062244415,0.21849490702152252,0.03698987141251564,-0.00014654711412731558,0.1335034966468811,0.10992474108934402,-0.010696769692003727,-0.11110667884349823,0.17267069220542908,0.11572390794754028,-0.15056778490543365,0.02955743484199047,0.2401282787322998,-0.01089476514607668,-0.11996468901634216,-0.03576530143618584,0.20410868525505066,0.043244875967502594,-0.0812910795211792,0.03399799019098282,-0.057678401470184326,-0.046640727669000626,-0.03172217682003975,0.2262236475944519,0.2967262268066406,-0.01632588356733322,0.325739324092865,-0.37699609994888306,-0.0017408229177817702,0.053355682641267776,0.04880742356181145,-0.024409621953964233,0.29146531224250793,-0.004772539716213942,0.12634392082691193,0.044215280562639236,-0.09981252253055573,0.07403787970542908,0.1398695409297943,-0.11770496517419815,-0.12315665185451508,-0.2963242828845978,0.1186973825097084,-0.1692642718553543,-0.2562061846256256,0.12949857115745544,0.07501942664384842,0.1290067881345749,0.032537925988435745,-0.38294872641563416,-0.1398155689239502,0.4466344714164734,-0.12162710726261139,-0.3652285933494568,-0.36627545952796936,-0.2111833244562149,-0.2318917214870453,-0.08902983367443085,0.1490124762058258],[0.3362776041030884,0.08547225594520569,0.17054347693920135,0.048882339149713516,-0.11951716244220734,0.13915006816387177,0.3762964904308319,0.0619318000972271,-0.22680988907814026,-0.33574628829956055,0.13222037255764008,0.06836041808128357,0.14509204030036926,-0.12957343459129333,0.1058342382311821,0.4034636616706848,0.05193319544196129,-0.0707300677895546,0.1384245604276657,-0.040635619312524796,0.13423828780651093,-0.268976628780365,-0.12284312397241592,0.0919659286737442,0.0023694487754255533,0.03341531753540039,-0.014761822298169136,-0.0007060782518237829,-0.05879120156168938,0.0963243618607521,-0.08456692844629288,0.11575108021497726,0.23018668591976166,-0.1899339109659195,0.08157061040401459,0.2489345371723175,-0.152178093791008,0.010770454071462154,-0.18545641005039215,0.09508395195007324,-0.26620110869407654,0.03157743811607361,0.19757214188575745,-0.23384761810302734,-0.1292286366224289,-0.22140657901763916,0.13741886615753174,-0.08513211458921432,0.3272778391838074,-0.12875476479530334,-0.09183776378631592,-0.09723018109798431,-0.06927279382944107,-0.13162223994731903,-0.41582950949668884,0.1360575258731842,0.12177866697311401,-0.0932050496339798,-0.17523901164531708,0.24820253252983093,0.30628159642219543,0.25959110260009766,0.20108914375305176,-0.060449350625276566,0.09425076097249985,0.07730938494205475,0.0981484204530716,-0.07960928231477737,0.11976665258407593,-0.13039498031139374,0.06354210525751114,-0.17201775312423706,0.10714488476514816],[-0.2577066719532013,-0.09802944958209991,-0.09442635625600815,0.3467939496040344,0.031924162060022354,-0.016753435134887695,0.015090168453752995,-0.05829385295510292,0.045510128140449524,-0.15622541308403015,-0.24475784599781036,0.096027672290802,0.38118696212768555,0.07487227022647858,-0.3269520103931427,-0.13954494893550873,0.41969016194343567,0.02231847681105137,0.19720691442489624,-0.07437119632959366,0.2492290735244751,-0.2394910752773285,-0.25177639722824097,-0.3049911856651306,-0.04807859659194946,0.04979841783642769,0.08591525256633759,-0.014249264262616634,0.11180953681468964,0.12970823049545288,0.16447287797927856,-0.007065402809530497,-0.3330211043357849,0.37149959802627563,-0.05202504247426987,-0.0010777793359011412,0.057148635387420654,0.0928611233830452,-0.06748989224433899,-0.19378820061683655,-0.04038393497467041,0.11538176238536835,0.14358758926391602,0.24654139578342438,-0.11741303652524948,-0.20954377949237823,0.08814342319965363,0.33423706889152527,0.3389700651168823,0.11866667121648788,0.1509462296962738,0.019161753356456757,0.14254207909107208,0.09064392000436783,0.08842673897743225,0.17575159668922424,0.0324791744351387,0.026227647438645363,0.01736663468182087,0.16358312964439392,-0.1385229378938675,-0.0017391337314620614,-0.04658656194806099,0.09772932529449463,0.2863595187664032,-0.07406575977802277,-0.32203811407089233,-0.032415181398391724,-0.07141100615262985,0.06425116211175919,0.7111021876335144,0.4063876271247864,0.2306353747844696],[0.24588973820209503,0.013873144052922726,0.0034026990178972483,-0.23846285045146942,0.09815613925457001,-0.1597626954317093,0.025842715054750443,0.12868288159370422,-0.1876087337732315,-0.14016003906726837,-0.2364339828491211,0.07688617706298828,-0.11534003913402557,0.060589227825403214,-0.21452440321445465,-0.16231940686702728,-0.34593185782432556,0.3829677999019623,-0.15821324288845062,-0.001711831078864634,0.03242975473403931,0.023331763222813606,-0.10508310794830322,0.19982989132404327,0.12769831717014313,-0.15182168781757355,-0.1106083020567894,0.1606340855360031,-0.029259389266371727,-0.07556391507387161,0.12740738689899445,0.006302436348050833,-0.25824835896492004,0.15192139148712158,0.4131260812282562,-0.01520821824669838,-0.10309077054262161,-0.3238418698310852,-0.23425933718681335,-0.19692856073379517,-0.15661223232746124,0.0920208990573883,-0.0469772145152092,0.018394261598587036,-0.10350345820188522,-0.09621213376522064,-0.16124315559864044,-0.06244955211877823,-0.008451996371150017,0.004315459635108709,-0.20231948792934418,0.0823175460100174,0.2123582512140274,0.34352797269821167,0.1827128827571869,-0.06394828110933304,-0.3094470202922821,0.30560600757598877,0.051753509789705276,-0.10885025560855865,-0.16183407604694366,-0.13797669112682343,0.5798326134681702,-0.08127793669700623,0.026873750612139702,-0.11747507005929947,-0.17799125611782074,-0.0098838796839118,-0.1226227730512619,0.005938888527452946,0.12589295208454132,0.09608200192451477,0.022921569645404816],[-0.16388873755931854,-0.09574862569570541,0.11007664352655411,0.10110052675008774,0.06984566152095795,0.2028789520263672,-0.017125016078352928,-0.11271048337221146,-0.06988552957773209,0.1487581878900528,0.032918911427259445,-0.1373133808374405,-0.07347787171602249,0.0937141701579094,0.2524063289165497,0.2761678695678711,0.022875597700476646,-0.23148009181022644,-0.2412724643945694,0.08037550002336502,-0.08929692208766937,0.013184268958866596,0.027625838294625282,-0.08113379031419754,0.15612302720546722,0.25553056597709656,0.1098581999540329,0.17430928349494934,0.12398149818181992,0.039851006120443344,0.22487296164035797,0.05779644474387169,-0.022951005026698112,0.15721933543682098,-0.2745431363582611,0.07924912124872208,0.022063039243221283,-0.3220023512840271,0.2574990391731262,0.04538111761212349,-0.012008970603346825,-0.19018340110778809,0.11013208329677582,-0.3924942910671234,0.3805508017539978,-0.10308009386062622,0.01544591411948204,0.14315709471702576,0.1370752602815628,0.3017544448375702,-0.20556335151195526,-0.0980808287858963,-0.19126413762569427,-0.1559998095035553,0.054442230612039566,-0.028728442266583443,0.030200695618987083,-0.11073382943868637,0.07179667800664902,-0.11101943999528885,-0.06286623328924179,-0.04283257946372032,0.4424443244934082,-0.3663440942764282,-0.0671757236123085,-0.14228598773479462,0.2743443548679352,-0.1437113881111145,0.22074230015277863,0.014589655213057995,0.13591255247592926,-0.05540144443511963,0.15847133100032806],[0.07201799005270004,-0.3019106388092041,0.1968177855014801,0.09251778572797775,0.08160234987735748,0.13025467097759247,-0.14057013392448425,-0.008959833532571793,0.17832985520362854,0.2767076790332794,0.06058995798230171,-0.12727726995944977,0.11086632311344147,0.008466456085443497,-0.1974082738161087,-0.4304106831550598,-0.2753802239894867,0.02095768414437771,-0.03704892843961716,-0.15135188400745392,-0.220951646566391,0.009560673497617245,-0.10822711139917374,-0.02264757826924324,-0.05223679542541504,-0.1022724136710167,-0.40252822637557983,-0.12919928133487701,-0.07344305515289307,0.35893210768699646,0.3172001838684082,0.03248948976397514,-0.13349303603172302,-0.037401240319013596,0.2586196959018707,-0.02794676087796688,0.5398266911506653,0.012704440392553806,-0.13353949785232544,0.04121004417538643,-0.10721689462661743,0.04745514318346977,0.09145545959472656,0.1816754937171936,0.17577776312828064,-0.3143913447856903,-0.04647934436798096,-0.15786093473434448,0.16655533015727997,0.05417795106768608,-0.03514986112713814,0.11917093396186829,-0.026261061429977417,-0.010367067530751228,-0.15680669248104095,-0.055939823389053345,-0.3097820281982422,0.09629461914300919,-0.14127416908740997,-0.29003971815109253,0.032443027943372726,-0.00966661423444748,-0.11326006054878235,-0.15811963379383087,0.34945201873779297,0.049606651067733765,0.09190601855516434,0.3071148097515106,-0.26851335167884827,0.20722979307174683,0.19672851264476776,-0.06510739028453827,0.004506089724600315],[0.2629958689212799,-0.09816378355026245,0.011501545086503029,-0.25828590989112854,-0.148744598031044,0.16845820844173431,0.03220366686582565,-0.006359511520713568,-0.09119676053524017,0.3118489682674408,0.19632717967033386,-0.3332782983779907,-0.33527639508247375,0.20817086100578308,-0.16744226217269897,0.1324225813150406,-0.05799213796854019,0.029519885778427124,0.1906743198633194,0.13711689412593842,0.16491439938545227,0.05336367338895798,0.03800102323293686,0.09720414131879807,-0.13711802661418915,-0.2357611060142517,-0.1531980037689209,0.18347860872745514,-0.015469441190361977,0.25230830907821655,0.10268864035606384,0.07869476079940796,-0.2554005980491638,0.14632631838321686,0.09442881494760513,-0.2353501170873642,-0.20919284224510193,-0.04494507983326912,0.016555333510041237,0.08467494696378708,-0.1662648767232895,0.00852149073034525,-0.10719011723995209,-0.010803611017763615,0.03047570213675499,0.17306503653526306,-0.026587579399347305,0.0788833349943161,-0.11977038532495499,0.1794477105140686,0.17829398810863495,-0.14849479496479034,-0.13536511361598969,0.014408513903617859,-0.013726023957133293,-0.0793229341506958,-0.008439620025455952,0.08865442872047424,0.10117479413747787,-0.23756422102451324,0.20018917322158813,0.057781536132097244,-0.07162361592054367,-0.03586519882082939,0.38690829277038574,0.0938493087887764,-0.37329378724098206,0.020993655547499657,0.22126641869544983,0.3811612129211426,0.03157618269324303,0.18230083584785461,-0.1482069045305252],[-0.16790522634983063,-0.29795682430267334,-0.19009606540203094,-0.34717652201652527,0.10606952011585236,-0.039691273123025894,-0.2222195714712143,0.016031797975301743,0.004251624923199415,0.15258893370628357,0.03194384649395943,-0.1468345820903778,0.10487998276948929,0.2594427466392517,0.054506927728652954,-0.19009613990783691,-0.05117996409535408,-0.013931358233094215,-0.41618335247039795,0.024978114292025566,-0.03488325700163841,-0.10432690382003784,-0.09551075845956802,-0.00997809786349535,-0.2195044755935669,-0.21773895621299744,0.12632538378238678,0.13030044734477997,-0.1501379758119583,0.002159354044124484,-0.00761623028665781,-0.1707848459482193,0.16714665293693542,-0.4757540225982666,-0.08689182251691818,0.12968245148658752,0.02131292223930359,0.07341160625219345,-0.20717056095600128,-0.028639573603868484,0.0034982117358595133,0.315938264131546,0.12254256010055542,-0.16721203923225403,-0.11195030808448792,-0.1104632243514061,-0.08210720121860504,0.09326987713575363,-0.026975348591804504,-0.13272280991077423,0.06848981976509094,0.09784547239542007,-0.14101055264472961,0.13877864181995392,0.09156983345746994,-0.140045166015625,0.36432209610939026,0.21029089391231537,-0.23182785511016846,0.14833100140094757,0.05199071019887924,-0.09530787914991379,0.06560700386762619,-0.294384241104126,0.08434014767408371,-0.2745496332645416,-0.06370164453983307,-0.11039254814386368,-0.09839450567960739,0.35736605525016785,0.34073734283447266,0.19579105079174042,0.04374369978904724],[0.14052781462669373,-0.03526757284998894,-0.03237495198845863,0.13908985257148743,0.20877879858016968,0.016313299536705017,0.05663151666522026,0.12332449853420258,0.10414823144674301,0.12019872665405273,-0.15529821813106537,-0.536170244216919,-0.1692616045475006,0.20334488153457642,-0.35814058780670166,-0.5580138564109802,-0.22083266079425812,0.007965341210365295,-0.06250447034835815,-0.14292483031749725,-0.01925778016448021,-0.15670686960220337,-0.1995302140712738,-0.10141640156507492,-0.14474500715732574,-0.08437728881835938,-0.05340166762471199,-0.3163679242134094,0.2509399652481079,0.06542693078517914,0.08437718451023102,-0.47620415687561035,-0.2148890197277069,0.010130600072443485,0.0219913050532341,0.05699511244893074,-0.08735409379005432,-0.01417276170104742,-0.32011890411376953,-0.16884079575538635,0.41888102889060974,-0.06700484454631805,-0.06361332535743713,-0.15967555344104767,-0.10918613523244858,0.12046261876821518,0.1913071721792221,-0.04444064572453499,-0.19364117085933685,-0.13662086427211761,0.06826990842819214,-0.2687080502510071,-0.14998646080493927,0.12487076222896576,0.10579148679971695,0.17736274003982544,-0.4053287208080292,0.099004365503788,-0.2327413558959961,0.12761205434799194,0.06832018494606018,-0.06292121857404709,-0.01578168384730816,0.11386466026306152,-0.040147989988327026,-0.008581322617828846,0.006002379581332207,0.13360071182250977,0.1726953238248825,0.23302538692951202,0.2978495657444,0.05928921699523926,0.23380620777606964],[-0.21000516414642334,-0.13051633536815643,0.11606324464082718,-0.1342838853597641,-0.33716875314712524,-0.07116185128688812,-0.025719255208969116,0.26899367570877075,0.16271615028381348,0.17233237624168396,0.3112155497074127,-0.14512445032596588,-0.019965440034866333,0.247243732213974,-0.6611704230308533,-0.41843679547309875,0.01202868577092886,-0.11254659295082092,0.043767765164375305,-0.15657469630241394,0.22818544507026672,-0.14042529463768005,-0.11112093180418015,0.3416686952114105,-0.08759034425020218,0.030858872458338737,0.037281688302755356,0.1812693178653717,-0.20401422679424286,0.1459381878376007,-0.02811736986041069,0.15983717143535614,0.16629353165626526,-0.06064449995756149,0.1310926377773285,-0.035433895885944366,-0.2035532295703888,0.031175870448350906,0.08018898963928223,-0.172523632645607,0.13684609532356262,-0.2080160528421402,-0.14197252690792084,0.2060871422290802,0.20964406430721283,0.057961273938417435,-0.006778630428016186,0.13539022207260132,0.08122970908880234,-0.093853659927845,-0.023566091433167458,-0.05798263102769852,0.13820376992225647,0.18788735568523407,0.07605636119842529,-0.02964811399579048,-0.14716333150863647,0.27152305841445923,-0.10663608461618423,-0.021203523501753807,0.10679945349693298,-0.1726650446653366,0.0016973975580185652,-0.15806950628757477,0.12880873680114746,-0.04801269993185997,0.06264452636241913,0.23006625473499298,0.18974003195762634,-0.22854705154895782,0.17115730047225952,-0.06455110758543015,-0.037316251546144485],[-0.1625891923904419,0.10714151710271835,-0.39013102650642395,-0.1011650562286377,0.05887484923005104,0.31208711862564087,-0.01890483684837818,0.25834599137306213,0.2412445843219757,-0.1130673959851265,0.04687592387199402,0.25508949160575867,-0.23078231513500214,0.03770345821976662,0.09143635630607605,-0.013407191261649132,0.06254332512617111,0.0882541686296463,-0.034840747714042664,-0.10053723305463791,0.11160748451948166,0.013553549535572529,-0.2640625238418579,-0.017521534115076065,-0.21525676548480988,0.02919662930071354,-0.10446707159280777,-0.0677902102470398,0.09287422895431519,0.0277884379029274,-0.12926818430423737,0.4805406332015991,-0.04514727741479874,0.011183188296854496,-0.35865819454193115,0.30375200510025024,-0.281348317861557,-0.10810568928718567,-0.14331604540348053,-0.0811346024274826,-0.09591653943061829,-0.13669045269489288,0.020375102758407593,-0.2681238651275635,-0.14856700599193573,-0.14992952346801758,-0.0651886910200119,-0.08172282576560974,-0.15194523334503174,0.05743402987718582,-0.13231471180915833,0.2639006972312927,-0.14557723701000214,0.03890042006969452,0.010121715255081654,-0.14559805393218994,0.2022322118282318,-0.11947416514158249,-0.038096677511930466,-0.3300056755542755,-0.13146309554576874,0.07385240495204926,-0.1639866679906845,-0.06780337542295456,0.0710243359208107,0.15894031524658203,0.12755125761032104,-0.025913340970873833,-0.30739736557006836,-0.08406636863946915,-0.030970416963100433,-0.07406012713909149,0.28405287861824036],[-0.1342359334230423,0.024894313886761665,-0.1510106325149536,0.012254915200173855,0.30129188299179077,-0.021517174318432808,0.1160074770450592,-0.04359585791826248,-0.16512030363082886,0.07177042216062546,-0.20676106214523315,0.12074856460094452,0.1583728790283203,0.16162072122097015,0.2984306216239929,0.32450780272483826,0.03367990255355835,0.004332689568400383,0.22291436791419983,-0.22968779504299164,0.22298114001750946,-0.0387464202940464,0.4083704948425293,0.060949817299842834,-0.05251380801200867,0.08381728082895279,-0.15576373040676117,0.04114571586251259,-0.2806894779205322,-0.14454762637615204,0.060462772846221924,-0.07425914704799652,-0.005823999177664518,-0.3113916516304016,-0.10761149972677231,0.06328419595956802,-0.19164930284023285,-0.07342075556516647,-0.07001712918281555,-0.13452665507793427,-0.2060004025697708,0.03859620541334152,0.05065209046006203,-0.2015535533428192,0.16805464029312134,0.10526267439126968,0.23556378483772278,-0.15379557013511658,0.06568219512701035,0.03865936025977135,-0.3862578570842743,-0.06765177100896835,0.4452561140060425,-0.09341336786746979,-0.10687370598316193,0.21818391978740692,0.08767520636320114,-0.293209433555603,0.12331883609294891,-0.037728484719991684,-0.1517925262451172,-0.29133230447769165,-0.3192398250102997,0.09794299304485321,-0.00017260781896766275,0.18300926685333252,0.1464124172925949,-0.1242818757891655,0.050434526056051254,0.0031193438917398453,-0.08053827285766602,-0.2118326872587204,0.0595063753426075],[0.07363200187683105,-0.10768258571624756,-0.03090297430753708,-0.15876466035842896,-0.24030862748622894,-0.06337738037109375,0.1183779165148735,-0.3769105076789856,-0.00859762728214264,-0.3033008277416229,-0.06832487136125565,-0.006270538084208965,-0.32148194313049316,0.2972397804260254,-0.09555605053901672,-0.3636218011379242,0.10426532477140427,0.17960046231746674,-0.19583728909492493,0.3175964057445526,-0.0416768379509449,0.20264841616153717,0.16815224289894104,0.20262037217617035,0.09469197690486908,0.4711119532585144,-0.0887657031416893,-0.17012979090213776,-0.04582344368100166,0.05879933014512062,0.023835746571421623,-0.21255195140838623,0.0727984756231308,0.0016030013794079423,0.1269405037164688,0.2260638326406479,-0.021502723917365074,0.1745925098657608,0.012687591835856438,-0.0587184838950634,0.08099207282066345,0.13547782599925995,0.2218107432126999,0.28179967403411865,-0.15295220911502838,0.028106702491641045,-0.11298449337482452,0.06677678972482681,0.04537094384431839,0.21194976568222046,-0.042011335492134094,-0.012175529263913631,0.01403652410954237,-0.023152563720941544,0.09818746149539948,0.27011269330978394,-0.09756914526224136,0.1816939413547516,-0.12495411932468414,-0.361214816570282,0.15684686601161957,0.15889930725097656,-0.1908554881811142,-0.014895499683916569,0.21453431248664856,-0.04664682596921921,0.09648119658231735,0.02372686006128788,0.002520102309063077,0.01052104402333498,0.22904859483242035,0.13312673568725586,0.092940554022789],[0.19704043865203857,-0.08752182126045227,-0.3143429160118103,-0.40989038348197937,0.04247424006462097,0.07988256216049194,-0.1334189623594284,-0.060821689665317535,-0.08933338522911072,-0.0020447466522455215,0.35640010237693787,-0.22117438912391663,0.31668901443481445,-0.04672229290008545,-0.47845205664634705,-0.5636065006256104,-0.03260219842195511,-0.09599635004997253,0.03848894685506821,0.2104162573814392,-0.20148584246635437,0.021526066586375237,0.07469332218170166,-0.09465767443180084,0.33403894305229187,0.1412227600812912,-0.1857069432735443,0.10156753659248352,-0.1463427096605301,-0.013983916491270065,0.3259950280189514,-0.25668013095855713,-0.013253702782094479,0.21631625294685364,-0.003008289262652397,-0.11204516142606735,-0.1704021692276001,-0.14694015681743622,-0.32694321870803833,0.04259074106812477,-0.2676136791706085,-0.05844544246792793,-0.1471693366765976,0.003430287353694439,-0.08068184554576874,-0.1581619530916214,0.10528372973203659,0.13481824100017548,-0.00748506048694253,-0.12302887439727783,0.17928491532802582,-0.06967048346996307,-0.07287269085645676,0.23326259851455688,0.10254058241844177,-0.08251670002937317,0.06551845371723175,-0.06647726893424988,0.1701965481042862,-0.0673319473862648,-0.041675813496112823,0.09128511697053909,-0.10290203988552094,-0.027768868952989578,0.04863687604665756,-0.07002557069063187,0.17024818062782288,-0.00648197066038847,-0.015847574919462204,0.06403212249279022,-0.07375811040401459,0.10509038716554642,0.14098359644412994],[-0.42842480540275574,0.24533265829086304,-0.03612464293837547,0.010469207540154457,-0.05911693349480629,0.011423510499298573,0.24512387812137604,0.1118350699543953,-0.21366824209690094,-0.10742238909006119,0.19130557775497437,0.21545615792274475,0.11212003231048584,-0.01881977915763855,0.27519604563713074,0.31028521060943604,-0.016046693548560143,-0.08267106860876083,-0.010534042492508888,-0.0946149006485939,-0.1888023167848587,-0.03900038078427315,0.3704010546207428,0.21295639872550964,-0.23216260969638824,0.03409893810749054,-0.06394699215888977,0.22168782353401184,0.2884864807128906,0.2448723167181015,0.16360080242156982,0.25368186831474304,-0.21903584897518158,-0.06340015679597855,0.141843780875206,-0.051700055599212646,0.11128919571638107,-0.11364573240280151,-0.016178257763385773,0.0505804605782032,0.19802610576152802,0.07370323687791824,0.01838148571550846,0.05092858523130417,-0.23758745193481445,0.11440335959196091,0.09808292984962463,-0.027675893157720566,-0.034705113619565964,0.3290695548057556,0.024110540747642517,-0.0942792296409607,0.0072168949991464615,-0.087351493537426,-0.3918799161911011,-0.2543562054634094,0.02458067238330841,-0.04952673614025116,0.22638340294361115,0.152502179145813,0.16851215064525604,-0.13209134340286255,-0.07836035639047623,0.09450843930244446,-0.27124452590942383,-0.0017363647930324078,0.3306552469730377,-0.3144545555114746,-0.02034023217856884,-0.1366591453552246,-0.260915070772171,-0.08782229572534561,0.36819031834602356],[0.013633772730827332,-0.1698887199163437,0.2716469466686249,-0.27602604031562805,-0.1599290370941162,0.020571446046233177,0.03473775088787079,0.10771697759628296,-0.09751509875059128,0.21946875751018524,0.08872973918914795,-0.2515818774700165,-0.08765064924955368,0.06213011592626572,-0.2951374650001526,-0.21298134326934814,0.12699170410633087,-0.0792803093791008,-0.04319662228226662,-0.08404292166233063,0.22214969992637634,0.037319984287023544,0.04007281735539436,0.10601428151130676,0.09808250516653061,-0.15018987655639648,0.019670812413096428,-0.22258801758289337,-0.14223076403141022,-0.17553825676441193,-0.11946046352386475,0.0332203172147274,-0.24700678884983063,-0.2323727309703827,-0.11108343303203583,0.11788172274827957,0.24383093416690826,-0.28901198506355286,0.08575081825256348,-0.07532209903001785,-0.008970235474407673,0.09464629739522934,0.10322926193475723,0.09047217667102814,-0.08225136995315552,-0.05789259821176529,-0.10833223164081573,-0.18343673646450043,-0.31676480174064636,0.1665436029434204,-0.04408630356192589,-0.15900728106498718,-0.1296798437833786,-0.03911624848842621,-0.20015659928321838,0.37020763754844666,0.08764088898897171,-0.3208247125148773,0.20353354513645172,0.07068386673927307,-0.07567929476499557,0.17612910270690918,0.10330218821763992,-0.14263632893562317,-0.14147308468818665,-0.06162681430578232,-0.27788659930229187,0.06224973872303963,-0.19133524596691132,-0.11375284940004349,-0.05376589670777321,0.23539882898330688,0.020055199041962624],[0.09339608997106552,-0.45550236105918884,-0.05308595299720764,-0.08704987913370132,-0.046955425292253494,0.03417983651161194,-0.11570239812135696,0.1008971631526947,0.17699500918388367,0.16535717248916626,-0.1563795655965805,-0.027902476489543915,-0.09827645868062973,0.3114539682865143,-0.18627449870109558,-0.30265507102012634,-0.2808254063129425,-0.03821177780628204,-0.16211190819740295,-0.018801821395754814,-0.12128064781427383,0.20576070249080658,0.07438482344150543,0.0653243288397789,0.09198664873838425,-0.30322474241256714,0.3010185658931732,-0.19022712111473083,-0.2729000151157379,0.0941416546702385,0.08806586265563965,0.1304786056280136,-0.07254724204540253,0.26004672050476074,0.2627425789833069,0.03678910806775093,0.066538505256176,-0.16502518951892853,-0.047898441553115845,-0.059539034962654114,-0.1306741088628769,-0.07263626903295517,0.03264884650707245,0.17984892427921295,0.020011654123663902,0.06607244908809662,0.335850328207016,0.014981317333877087,0.14220435917377472,0.1019619032740593,0.1487250030040741,-0.33065083622932434,-0.12726253271102905,0.35880789160728455,0.2954068183898926,0.15548180043697357,0.23272570967674255,0.28728270530700684,0.1836785525083542,0.16140036284923553,0.16209150850772858,0.2537640333175659,0.046962033957242966,0.2861539423465729,0.24366743862628937,-0.004596985410898924,0.11681488901376724,0.4961708188056946,-0.2700328826904297,0.0014123989967629313,0.06537085026502609,0.12043650448322296,-0.015981899574398994],[0.024881800636649132,0.1796356439590454,-0.14846882224082947,0.006135887000709772,-0.027380000799894333,0.06510785222053528,-0.18821528553962708,-0.16347748041152954,0.16530738770961761,-0.01904924400150776,-0.0307054091244936,0.22885413467884064,-0.24461545050144196,-0.03043210692703724,0.3212411403656006,0.12542735040187836,0.12237795442342758,-0.24323926866054535,0.07197116315364838,-0.12954294681549072,0.1791953593492508,0.1633734107017517,0.10633140057325363,0.20327532291412354,-0.05332133546471596,0.15378090739250183,-0.010847336612641811,0.08917320519685745,-0.28920361399650574,0.18025898933410645,0.305511474609375,0.21540512144565582,0.46105706691741943,-0.13750052452087402,0.04028782993555069,-0.30145689845085144,0.1771700084209442,-0.17569106817245483,-0.5303127765655518,-0.42623281478881836,0.19589108228683472,-0.24913610517978668,-0.03579030930995941,-0.03645545244216919,-0.1692560464143753,-0.02558290585875511,-0.20416457951068878,0.0982993021607399,0.03122229501605034,0.07523845136165619,-0.09894376248121262,-0.22721916437149048,-0.029394473880529404,-0.26060646772384644,-0.0699855238199234,0.0010483082151040435,0.0240994431078434,-0.25192734599113464,-0.21796458959579468,-0.05792839825153351,0.02432837150990963,-0.014582591131329536,0.1479363888502121,0.1573096215724945,-0.26203301548957825,0.06463192403316498,-0.17927831411361694,-0.1744081974029541,-0.08413022011518478,0.06532946974039078,-0.3110668957233429,0.047920700162649155,-0.07305499911308289],[0.18447549641132355,-0.06251978874206543,0.0006999382749199867,-0.042472194880247116,-0.08449448645114899,-0.0226762592792511,0.1260143220424652,-0.19474589824676514,0.24938789010047913,0.45752784609794617,-0.17714789509773254,-0.00839976966381073,-0.40084806084632874,-0.11167670786380768,-0.287632554769516,-0.335059255361557,-0.20108120143413544,-0.11303479224443436,0.045774925500154495,-0.03054262138903141,-0.0503748282790184,-0.1553366333246231,-0.018826495856046677,-0.059958942234516144,-0.08193306624889374,0.25161582231521606,-0.17384131252765656,-0.05217576399445534,0.027248108759522438,0.18115293979644775,-0.024756573140621185,0.031938668340444565,-0.17776717245578766,0.025288747623562813,0.05576339364051819,-0.24181297421455383,-0.0976920798420906,-0.009974454529583454,0.1954766809940338,0.08770022541284561,-0.11002644896507263,0.11090662330389023,0.34892284870147705,-0.008211714215576649,-0.3018740713596344,-0.1797667145729065,0.11850681900978088,0.3251200020313263,-0.27881377935409546,-0.12860040366649628,-0.0639791414141655,-0.048835981637239456,0.15192732214927673,0.0081291813403368,-0.0212605819106102,0.15525589883327484,0.21336595714092255,0.34129467606544495,0.04860636591911316,0.17309322953224182,-0.044901780784130096,-0.06783033907413483,0.13581490516662598,0.15705643594264984,0.0577559731900692,-0.08319481462240219,0.25237151980400085,0.018552931025624275,-0.05212625116109848,-0.021045390516519547,0.11000870913267136,-0.08215126395225525,-0.0976417139172554],[-0.027814030647277832,-0.3696903586387634,0.3170812129974365,0.007660986389964819,0.1645091474056244,0.18097302317619324,-0.1575474888086319,0.05199642479419708,-0.09589602053165436,-0.09091226011514664,0.009557198733091354,0.23000362515449524,0.08813153207302094,-0.008269506506621838,-0.3044193387031555,-0.4177527129650116,0.2047724574804306,0.03604348748922348,0.03727719932794571,-0.01173008605837822,-0.07246432453393936,0.24330966174602509,-0.20841942727565765,-0.16653183102607727,0.0067827170714735985,0.0052435738034546375,-0.09006521850824356,0.15469957888126373,0.13280999660491943,0.14897680282592773,-0.1694355309009552,-0.2897837460041046,0.03953421860933304,-0.17998117208480835,0.22645290195941925,0.01519099436700344,-0.1354474425315857,-0.021008344367146492,-0.10972566157579422,-0.1369524896144867,0.04383789002895355,-0.08017253875732422,0.35913488268852234,-0.13399139046669006,0.05911170691251755,0.2922991216182709,0.24181583523750305,0.23115669190883636,-0.35761064291000366,0.010982770472764969,-0.05266668274998665,-0.07827610522508621,0.16355782747268677,-0.014518272131681442,0.2388722449541092,-0.23408177495002747,-0.20050476491451263,0.016937529668211937,0.31807246804237366,0.0032456270419061184,0.3259093463420868,0.093443363904953,0.1880153864622116,0.026610782369971275,0.2467130422592163,0.11439938843250275,-0.016975032165646553,0.11753319203853607,-0.22709921002388,0.14432813227176666,0.18650516867637634,0.17206919193267822,-0.1721811294555664],[0.1490291804075241,-0.03249106928706169,-0.11630403995513916,0.07153245061635971,-0.10283257812261581,-0.11405843496322632,0.15178439021110535,0.10089633613824844,-0.2603769302368164,-0.09403186291456223,-0.053082987666130066,0.25905588269233704,0.10690456628799438,0.16764774918556213,0.3103286325931549,0.5253428220748901,0.10031755268573761,-0.10924658179283142,0.030753029510378838,-0.49324944615364075,-0.09521492570638657,0.242927685379982,0.09565945714712143,-0.22933466732501984,-0.00422732112929225,0.1114964485168457,-0.1542096883058548,-0.3084232807159424,-0.190192312002182,0.20909824967384338,-0.19528919458389282,0.16454201936721802,-0.011547735892236233,0.21146918833255768,-0.15407682955265045,-0.2908913791179657,-0.13708986341953278,0.19454093277454376,0.030137792229652405,0.10592156648635864,0.10444838553667068,0.13947097957134247,-0.1136811301112175,-0.10986452549695969,0.20472587645053864,0.03231548145413399,-0.09917128831148148,0.014145838096737862,-0.1235109195113182,-0.3307257890701294,-0.3205633759498596,-0.06726841628551483,-0.060736048966646194,-0.1311967372894287,0.03168041259050369,-0.11835874617099762,0.027982810512185097,-0.15019267797470093,-0.1106158122420311,-0.07628284394741058,0.1532568782567978,0.060426946729421616,-0.08600560575723648,-0.16142497956752777,-0.23871952295303345,-0.2781957685947418,0.07909350842237473,-0.23561352491378784,-0.008842297829687595,-0.1621517539024353,-0.12249314039945602,0.09078091382980347,0.3605703115463257],[0.03395555168390274,-0.3695865869522095,0.14894098043441772,0.24085231125354767,-0.056294769048690796,0.006794025655835867,0.22804386913776398,-0.2589004933834076,0.05330703780055046,0.1299276351928711,0.0781409814953804,0.03926316648721695,-0.13135264813899994,0.2711852788925171,0.3859294056892395,0.24237708747386932,0.12656264007091522,0.20597977936267853,-0.12825961410999298,0.03207464516162872,-0.06609397381544113,-0.29319554567337036,0.1894204169511795,-0.04350573569536209,-0.15230299532413483,-0.023142345249652863,-0.09906584769487381,0.07278628647327423,0.3503767251968384,-0.11243405193090439,-0.051199182868003845,0.0446903333067894,0.03950674459338188,-0.07993656396865845,-0.3713840842247009,-0.031711749732494354,-0.10161663591861725,-0.05864404886960983,-0.31075039505958557,-0.06284569948911667,-0.15579912066459656,-0.20680420100688934,-0.34791940450668335,0.13885757327079773,0.09560384601354599,0.1158907562494278,-0.09490833431482315,0.16100546717643738,0.11557815968990326,-0.23873497545719147,-0.16237089037895203,0.3005460500717163,-0.0026687621138989925,-0.07325589656829834,-0.2671549320220947,-0.04825414717197418,0.06632545590400696,-0.16306865215301514,0.15297625958919525,-0.14756949245929718,0.15302608907222748,0.12378311157226562,0.058405421674251556,0.14499220252037048,-0.3400014340877533,-0.04507141932845116,-0.023500213399529457,-0.23859204351902008,-0.20481492578983307,-0.411308228969574,-0.37392979860305786,-0.2660881578922272,-0.07228735834360123],[-0.08207827061414719,0.0342416986823082,-0.00042519241105765104,-0.021031159907579422,-0.40121108293533325,-0.3509691059589386,-0.0023361477069556713,0.2686398923397064,0.020458029583096504,-0.050984304398298264,0.009922214783728123,0.13310734927654266,0.23524858057498932,-0.13365355134010315,0.6788311004638672,0.195419579744339,-0.20999817550182343,-0.005242597311735153,0.16190943121910095,0.0430389828979969,0.12526167929172516,0.17139790952205658,0.0030925970058888197,-0.2847520411014557,-0.19525553286075592,0.056978821754455566,-0.12213476747274399,0.10883401334285736,-0.040542732924222946,-0.3528670072555542,0.3066728413105011,-0.019064610823988914,-0.028432253748178482,0.05836447328329086,-0.37341582775115967,0.1371307671070099,-0.14982828497886658,0.14885453879833221,0.010021384805440903,0.2005244642496109,0.23914605379104614,0.04711150377988815,-0.24550800025463104,-0.24685971438884735,-0.042530518025159836,-0.10025478899478912,-0.1103876382112503,0.21119731664657593,-0.021682487800717354,0.13269707560539246,-0.08193129301071167,-0.24168866872787476,0.22133415937423706,-0.0272549819201231,-0.38678810000419617,0.09643925726413727,-0.15685878694057465,-0.19029702246189117,0.0240910854190588,-0.02216707170009613,0.14247022569179535,0.07936753332614899,0.09706342220306396,-0.04135745018720627,-0.1670105904340744,0.15380410850048065,0.1683351993560791,-0.030073393136262894,-0.1859242171049118,-0.2391463816165924,0.07879258692264557,-0.03797978535294533,-0.21470443904399872],[0.031061891466379166,-0.037173572927713394,-0.21767599880695343,0.10106872022151947,-0.29443129897117615,0.017474563792347908,0.5239786505699158,0.0036208643577992916,0.12284377217292786,-0.09903194010257721,-0.2995360195636749,-0.017478106543421745,0.10452977567911148,-0.36631739139556885,-0.006270299199968576,-0.03082403913140297,0.0857970267534256,0.028358448296785355,0.06184777244925499,0.1330413669347763,-0.12496988475322723,-0.14113779366016388,0.07756395637989044,-0.13522323966026306,-0.11406689882278442,-0.322121798992157,0.016255516558885574,0.17591620981693268,-0.15498624742031097,0.012808703817427158,-0.2647022008895874,-0.21114957332611084,0.27631792426109314,0.03826216980814934,0.15071263909339905,-0.01689470000565052,0.013698414899408817,-0.13393723964691162,0.04906832426786423,0.1145782545208931,-0.009293925017118454,0.01971365138888359,-0.12728925049304962,-0.26800233125686646,0.16887299716472626,0.092951700091362,0.09025324136018753,0.002095801755785942,0.0621367022395134,0.17580503225326538,-0.11168403178453445,0.08297363668680191,-0.2962068021297455,-0.08082214742898941,-0.10287941992282867,0.16564999520778656,0.013227324932813644,-0.1833937019109726,0.08418427407741547,-0.2939438223838806,0.01503757480531931,-0.28453031182289124,0.020962627604603767,0.0025056074373424053,-0.25479140877723694,0.003165189642459154,-0.005637467373162508,-0.028347928076982498,-0.22021660208702087,0.20546185970306396,0.39240798354148865,0.06846056133508682,0.24623236060142517],[0.19420140981674194,0.15351155400276184,0.24410533905029297,0.039519667625427246,0.0635286420583725,0.048426661640405655,-0.09436752647161484,0.17992326617240906,0.15307509899139404,-0.05920543894171715,0.11380298435688019,-0.1371498554944992,-0.19737018644809723,0.061527740210294724,-0.2517646253108978,-0.47559958696365356,-0.25266575813293457,-0.023645775392651558,0.19599351286888123,-0.10812879353761673,0.07865298539400101,-0.24773558974266052,0.02521301619708538,-0.04411023110151291,0.25077804923057556,0.15772004425525665,0.036600299179553986,0.10523959249258041,-0.1816071718931198,-0.17730945348739624,0.07131866365671158,-0.17132346332073212,-0.1329347938299179,0.0015064568724483252,0.15411564707756042,-0.2945461571216583,0.2077665627002716,0.1377062201499939,0.06282166391611099,0.07302462309598923,-0.03801707923412323,0.30160102248191833,-0.23894695937633514,0.059357717633247375,-0.05170992761850357,0.4773155748844147,-0.0014342659851536155,0.2037327140569687,0.024728896096348763,0.11155384033918381,-0.11659756302833557,0.1831134408712387,-0.11597537994384766,-0.17287519574165344,0.186505526304245,-0.15430761873722076,0.21737027168273926,0.007104222662746906,-0.010120002552866936,0.07152348756790161,-0.09465440362691879,0.06487568467855453,0.2038542777299881,0.1833871603012085,0.33448246121406555,-0.01243232749402523,-0.01572621427476406,0.21956850588321686,-0.3183009624481201,-0.022287456318736076,0.4624408483505249,0.0696476474404335,0.22208227217197418],[0.098961241543293,0.015613967552781105,-0.0586533285677433,0.0769757404923439,-0.13050521910190582,-0.09315039217472076,0.09555382281541824,-0.3726324439048767,0.1719459593296051,-0.0680394247174263,0.007674040738493204,-0.2406492978334427,0.12008051574230194,0.42812269926071167,-0.03848833218216896,-0.5285638570785522,-0.29961347579956055,0.03401551768183708,0.08146053552627563,-0.08272552490234375,-0.015818128362298012,-0.4524417519569397,-0.14902007579803467,-0.14414936304092407,0.24323581159114838,-0.26850759983062744,-0.03500983119010925,-0.03279324248433113,-0.3417867124080658,0.09739598631858826,-0.09591997414827347,-0.02472859062254429,0.06823404878377914,-0.1448259949684143,0.11014823615550995,-0.021411269903182983,0.021579265594482422,-0.2991820275783539,0.2133820652961731,-0.04425234720110893,0.1286548674106598,-0.06372690945863724,0.024992214515805244,-0.059680450707674026,-0.037872716784477234,-0.1777753382921219,-0.06199176236987114,-0.07434947788715363,-0.2527332901954651,0.16255499422550201,0.29321861267089844,0.05214782804250717,0.2078743577003479,-0.07221806049346924,0.3676674962043762,-0.1436581164598465,-0.32934194803237915,0.24976594746112823,0.32616499066352844,0.1604195237159729,-0.013713217340409756,0.213990718126297,-0.0435754656791687,0.03957018628716469,0.309775173664093,-0.005152010824531317,-0.09393739700317383,-0.037674132734537125,-0.029221510514616966,0.02105598710477352,0.12907864153385162,0.29986077547073364,0.12607969343662262],[-0.025196628645062447,0.0633983388543129,-0.2147013247013092,0.14885228872299194,0.21148794889450073,0.08012902736663818,0.2874429523944855,0.05059221014380455,0.0519280806183815,0.14605222642421722,0.1690514236688614,-0.11022819578647614,0.12926849722862244,-0.3914281129837036,0.24251045286655426,0.46421077847480774,0.1722697764635086,-0.008536962792277336,0.10368994623422623,-0.09926600009202957,-0.01743463985621929,0.30324164032936096,0.09839040040969849,0.22960951924324036,0.17781852185726166,-0.1648959368467331,-0.09685757756233215,-0.23245561122894287,0.07564415037631989,-0.12440887838602066,-0.023261571303009987,-0.17571969330310822,0.16042093932628632,-0.253709614276886,-0.26180124282836914,-0.1548597365617752,-0.01934661902487278,-0.1729615479707718,0.001209435984492302,0.2738646864891052,0.14949607849121094,-0.028779322281479836,0.10469254851341248,0.14468905329704285,-0.021752653643488884,-0.12874329090118408,-0.16175107657909393,0.2765814960002899,0.0774703249335289,0.07114113867282867,0.10104113072156906,0.12088717520236969,0.2704719007015228,0.034796129912137985,0.10484559088945389,0.15288005769252777,0.08785073459148407,0.08537453413009644,-0.0128890136256814,-0.12388167530298233,0.2368651032447815,-0.2459125965833664,0.16446234285831451,-0.08512348681688309,0.09204315394163132,0.13918139040470123,-0.06780733913183212,-0.10286182910203934,-0.11159142106771469,-0.4025062918663025,-0.03060576692223549,-0.04905680567026138,0.1910453885793686],[-0.17146268486976624,-0.11918960511684418,0.140825092792511,0.08271912485361099,-0.012979120016098022,0.11026148498058319,-0.16431955993175507,0.08020001649856567,-0.4632875323295593,0.24790219962596893,-0.2702074646949768,0.3433884382247925,0.0351724699139595,-0.21627648174762726,0.026157772168517113,0.36904197931289673,-0.11273792386054993,0.42172613739967346,-0.24259573221206665,0.0070129744708538055,0.06505542248487473,-0.2895145118236542,0.09646452218294144,0.18045303225517273,0.24604631960391998,0.010186554864048958,-0.07050956785678864,-0.049857091158628464,0.016962584108114243,-0.010218792594969273,-0.07336141914129257,0.1126520186662674,0.08876747637987137,-0.08626016229391098,-0.24603953957557678,-0.12368208169937134,-0.059806112200021744,0.315902978181839,-0.1654118448495865,0.17196016013622284,0.2680284380912781,0.025306738913059235,-0.10398601740598679,-0.10576838254928589,-0.18524551391601562,-0.021081319078803062,-0.12292002141475677,0.0774524137377739,0.2205650508403778,0.12122589349746704,0.07131741940975189,-0.2222025841474533,0.08033529669046402,-0.22605693340301514,0.04193991795182228,-0.03481852263212204,0.022650638595223427,-0.19253234565258026,0.17278283834457397,-0.17086604237556458,-0.05978117883205414,0.14942827820777893,-0.14741072058677673,0.05589133873581886,-0.1400463581085205,0.13727830350399017,0.027140581980347633,0.04085126146674156,0.2822304368019104,-0.13207495212554932,0.030966319143772125,-0.13912594318389893,0.23528651893138885],[-0.17009907960891724,-0.26445987820625305,-0.07350730895996094,-0.10976218432188034,0.16420172154903412,-0.29649004340171814,-0.032748010009527206,-0.1845751404762268,-0.13206696510314941,0.0734826847910881,0.014334396459162235,0.12039802968502045,-0.03910364955663681,-0.09811054915189743,0.20700354874134064,0.27445751428604126,-0.06638626754283905,0.05972699448466301,0.29070624709129333,0.2082109898328781,0.16043756902217865,0.2977183163166046,-0.19161292910575867,-0.19742417335510254,-0.051796820014715195,0.05339359864592552,-0.131572425365448,0.27224498987197876,-0.12424025684595108,-0.10980174690485,-0.16428278386592865,0.15863648056983948,-0.042946796864271164,0.05614592880010605,0.1055012196302414,-0.06032568961381912,0.08687525987625122,-0.04615258425474167,-0.1296812891960144,0.24279983341693878,0.33054423332214355,-0.07873494923114777,-0.011854831129312515,0.008121916092932224,-0.023803522810339928,0.02309536375105381,-0.20589248836040497,-0.07047837972640991,0.15916413068771362,-0.08920353651046753,-0.25135278701782227,0.25730010867118835,-0.3496863543987274,-0.13114506006240845,-0.1607540100812912,0.327261358499527,-0.031749386340379715,-0.12734994292259216,0.18286438286304474,0.3952585756778717,-0.03344135731458664,-0.09794972836971283,-0.041811782866716385,0.09696505963802338,0.032702766358852386,0.21866539120674133,0.10823052376508713,-0.23098482191562653,0.27529382705688477,-0.26697805523872375,-0.13380713760852814,-0.0781061127781868,0.27802547812461853],[0.2241898775100708,0.05462872236967087,-0.044101420789957047,-0.07660028338432312,0.17231523990631104,-0.08082760125398636,0.20576739311218262,-0.30433058738708496,0.11241383105516434,0.17041893303394318,0.023441169410943985,-0.12594549357891083,0.14736591279506683,-0.12312045693397522,-0.18651054799556732,-0.25706151127815247,-0.08923541009426117,0.0850406363606453,-0.22310370206832886,-0.1661430150270462,0.058807242661714554,-0.02294599451124668,0.10265719890594482,0.3869991898536682,0.117801234126091,-0.028959620743989944,0.08978815376758575,0.4751681685447693,-0.06919381767511368,-0.039567988365888596,-0.18871043622493744,0.11488376557826996,-0.16321778297424316,0.37836530804634094,-0.10241427272558212,0.17937083542346954,0.403572142124176,0.08279287815093994,0.000824183109216392,-0.2799628973007202,-0.025385141372680664,0.08807198703289032,0.09377898275852203,-0.02741239219903946,-0.03625881299376488,-0.05048615112900734,0.04144946113228798,0.2626703977584839,-0.30120885372161865,-0.4440901279449463,0.11836887151002884,-0.16009531915187836,-0.07352063804864883,-0.06361618638038635,0.1341034322977066,-0.002626699162647128,-0.2621753215789795,-0.03382060304284096,0.043495386838912964,0.08536980301141739,0.03067691996693611,0.05192979425191879,-0.10053470730781555,-0.09400972723960876,0.203347310423851,0.15969423949718475,0.06894766539335251,0.35519540309906006,-0.08468810468912125,0.05002039298415184,0.3693406283855438,0.3140590190887451,-0.11328310519456863],[0.009559265337884426,0.1455857902765274,-0.1673269122838974,0.12864215672016144,-0.11113669723272324,0.3610416054725647,-0.002407757332548499,-0.1007811576128006,-0.3220231235027313,0.03792199864983559,0.0907815471291542,-0.025980839505791664,0.4581837058067322,-0.015352807007730007,-0.02351919747889042,-0.22482901811599731,-0.03312477096915245,0.07930780202150345,-0.07839760929346085,-0.06631126999855042,0.2779839038848877,0.15725331008434296,0.24607150256633759,-0.03693367913365364,-0.21501179039478302,-0.13000962138175964,-0.3497680723667145,-0.04007760435342789,-0.16789866983890533,-0.017730971798300743,-0.21198469400405884,-0.13677410781383514,-0.2770654261112213,-0.010854114778339863,-0.11854682117700577,-0.24817444384098053,-0.13615372776985168,0.0910896360874176,0.23473715782165527,-0.33478790521621704,0.06742440164089203,-0.003392702667042613,0.15825502574443817,-0.0587727352976799,0.04764728993177414,-0.08643947541713715,0.04764597490429878,-0.10498765856027603,0.13043175637722015,0.07133946567773819,0.30252012610435486,0.1732557862997055,-0.22287039458751678,-0.07401115447282791,0.14823269844055176,0.1499478816986084,-0.14801517128944397,0.04082918167114258,-0.15133531391620636,0.14978854358196259,0.13275966048240662,0.030910495668649673,0.2673226594924927,0.02821839600801468,0.027486532926559448,-0.17090412974357605,0.050227031111717224,0.043301500380039215,-0.2011219561100006,-0.014934980310499668,0.027273865416646004,0.02280149608850479,-0.02088177762925625],[-0.07287772744894028,0.002165094716474414,0.06940843164920807,0.07930216193199158,-0.339765340089798,-0.06378855556249619,0.0889262706041336,-0.11840394139289856,0.08722566068172455,-0.10617323219776154,0.24346815049648285,-0.01983780600130558,-0.02339917980134487,0.05696840584278107,0.2855112850666046,0.2245224416255951,0.14963124692440033,-0.12215685844421387,-0.3558494746685028,0.1791401505470276,-0.10774053633213043,0.21275220811367035,-0.1109616681933403,0.1474410593509674,0.1773441582918167,-0.3015291690826416,-0.07429265975952148,-0.07683084905147552,-0.13629713654518127,0.10729378461837769,-0.09205145388841629,-0.053781863301992416,-0.3698020577430725,0.1091664731502533,-0.13968504965305328,-0.1945037692785263,-0.10175126791000366,-0.19516073167324066,-0.20648783445358276,-0.010346428491175175,0.22991320490837097,0.09557728469371796,0.2543483376502991,-0.17810124158859253,-0.02163509465754032,0.2691676616668701,-0.06913086771965027,-0.10999282449483871,0.17873311042785645,-0.060337815433740616,-0.11452046781778336,0.11233121901750565,0.33163487911224365,0.026532968506217003,-0.19225186109542847,-0.195925772190094,0.10106421262025833,-0.36656779050827026,-0.3159722685813904,0.10386909544467926,-0.2670683264732361,0.026137998327612877,-0.00021469808416441083,0.13608530163764954,-0.032167285680770874,0.2841629683971405,0.03466306999325752,-0.07329963892698288,0.09525543451309204,-0.06916166841983795,-0.08128545433282852,-0.264501690864563,-0.012493216432631016],[-0.16517077386379242,-0.19474497437477112,-0.2133987694978714,-0.0956173688173294,0.06585773825645447,-0.07343761622905731,-0.04701252654194832,-0.14821571111679077,0.009656188078224659,0.07841326296329498,-0.1988905966281891,-0.4243873059749603,0.025837982073426247,0.15813931822776794,-0.1055651307106018,-0.7096704244613647,0.19188988208770752,0.04587435722351074,0.34236904978752136,-0.22305238246917725,0.06878407299518585,0.055658094584941864,-0.1567077338695526,0.31020572781562805,0.12758004665374756,-0.05005570128560066,0.0958404690027237,0.023496467620134354,0.19802701473236084,-0.2194705605506897,0.010033934377133846,-0.0398644357919693,-0.12122103571891785,0.281684011220932,0.2148582935333252,0.07841875404119492,-0.01152123138308525,-0.050338421016931534,-0.06768906116485596,-0.0030652640853077173,0.014510284177958965,0.3530340790748596,0.09691174328327179,-0.0369725376367569,-0.12194421142339706,0.03714404255151749,0.11591685563325882,-0.015325150452554226,0.10406742244958878,0.00016861573385540396,-0.10145995765924454,-0.08655833452939987,-0.041343577206134796,-0.19169797003269196,0.06414886564016342,-0.19910988211631775,-0.0030932186637073755,0.2770196199417114,0.08539890497922897,-0.11996856331825256,0.202584370970726,0.15660828351974487,0.05811168998479843,-0.07194440811872482,0.2813369631767273,-0.4907188415527344,-0.22710822522640228,0.4399789869785309,0.04977692291140556,0.1050679162144661,0.020655248314142227,-0.03450198099017143,-0.04355268552899361],[0.13654227554798126,0.05963270738720894,0.1875937432050705,-0.10311368107795715,0.12255366891622543,0.05379331484436989,-0.15245577692985535,0.11288134753704071,0.17268455028533936,0.14858148992061615,0.016841810196638107,-0.06967934966087341,-0.17150898277759552,0.38885805010795593,-0.25758427381515503,-0.18140682578086853,0.011680833995342255,-0.23733118176460266,0.005191555712372065,-0.10002169013023376,0.07078690081834793,0.10201454907655716,0.15689310431480408,-0.10877326130867004,0.15752197802066803,-0.2816198170185089,-0.13719485700130463,0.22101356089115143,-0.13931509852409363,-0.1006002128124237,-0.14628273248672485,-0.21305930614471436,-0.06130948290228844,0.3841031789779663,0.2254106104373932,0.2594220042228699,9.467349445912987e-05,0.06066250801086426,-0.31630709767341614,0.30604156851768494,0.1074601411819458,-0.13094975054264069,0.160233274102211,0.04776015877723694,-0.10169189423322678,-0.24418491125106812,0.07266221195459366,-0.16985882818698883,-0.00529257208108902,0.06087440252304077,0.13489171862602234,0.0012897372944280505,0.034285832196474075,-0.36654216051101685,0.11898791044950485,-0.09407380223274231,0.1514534205198288,0.4476783275604248,-0.0045915208756923676,-0.15000183880329132,-0.10318534821271896,0.03567802160978317,-0.037871770560741425,-0.058296021074056625,-0.24202944338321686,0.08651717752218246,0.020108366385102272,-0.08679185062646866,-0.017383605241775513,-0.1534491777420044,0.25928327441215515,-0.028132641687989235,-0.27680760622024536],[-0.039840251207351685,0.23561252653598785,-0.02801128849387169,-0.2640676200389862,-0.1501457691192627,0.039318833500146866,-0.039169639348983765,-0.06742970645427704,0.16914376616477966,-0.07859990745782852,-0.18682493269443512,0.14598976075649261,0.3202090561389923,-0.13925701379776,0.17644323408603668,0.2648644745349884,0.1011548787355423,0.052169106900691986,-0.23220035433769226,-0.16305601596832275,0.33009839057922363,0.09654954820871353,0.18669168651103973,-0.2159547656774521,0.2111981213092804,-0.11599137634038925,-0.15046368539333344,0.08598297089338303,0.19864116609096527,0.16937290132045746,0.17628715932369232,0.21171987056732178,0.34597787261009216,0.07891268283128738,-0.135270893573761,0.11054566502571106,0.04428061097860336,0.1336672604084015,0.1155056580901146,0.15601380169391632,0.16079586744308472,-0.18492120504379272,0.14143826067447662,0.03330156207084656,0.10519561171531677,0.32273587584495544,0.20180264115333557,0.19126227498054504,-0.15534092485904694,0.017071297392249107,-0.14379432797431946,0.227273091673851,0.017496149986982346,0.030335066840052605,-0.36537688970565796,0.1992032676935196,0.03857005760073662,0.11497262865304947,0.01612735539674759,-0.08009804785251617,-0.11082366108894348,0.18282043933868408,0.10237977653741837,0.0033313767053186893,-0.08550786972045898,-0.02016456052660942,-0.23136596381664276,-0.1251615434885025,0.01690027490258217,0.17415641248226166,-0.14761154353618622,-0.36379683017730713,0.47656020522117615],[-0.13856548070907593,-0.06061049923300743,0.09219790250062943,0.1592959463596344,0.10764093697071075,-0.2927190959453583,0.07826105505228043,-0.14467303454875946,-0.2688693106174469,0.22275006771087646,0.13281188905239105,0.40889307856559753,0.06360268592834473,-0.15651415288448334,0.15631744265556335,0.2236919403076172,-0.2852696180343628,-0.3875737488269806,0.051073215901851654,-0.032548170536756516,-0.028837304562330246,0.0183218065649271,-0.013242699205875397,0.041280344128608704,0.17464637756347656,-0.023486725986003876,-0.19804738461971283,-0.18922501802444458,0.0679580569267273,-0.2041383981704712,0.15942120552062988,0.21676114201545715,0.20112089812755585,0.03474521264433861,-0.15648743510246277,0.38061246275901794,-0.3447616994380951,-0.16617678105831146,0.3077238202095032,0.13211201131343842,-0.012841847725212574,-0.13199616968631744,0.1643618941307068,0.12986035645008087,-0.19182635843753815,0.33177894353866577,-0.20948255062103271,-0.03996606171131134,0.30881285667419434,-0.2329869270324707,-0.09603575617074966,-0.0912109762430191,-0.09992074966430664,-0.1329847276210785,-0.207523912191391,-0.23990774154663086,-0.02035251446068287,-0.1893261820077896,-0.16117502748966217,-0.040041014552116394,0.02010423131287098,-0.15460646152496338,-0.10197430104017258,0.1672675609588623,-0.25281837582588196,0.1206476017832756,-0.2629358172416687,-0.24283309280872345,-0.12296264618635178,0.09015566855669022,-0.12956802546977997,0.007944813929498196,0.14557568728923798],[0.014420379884541035,-0.06224178150296211,-0.2024957537651062,-0.11907793581485748,0.01898360066115856,-0.04248394817113876,-0.1526266634464264,0.09389104694128036,-0.1087869256734848,-0.0004358814039733261,-0.0700412392616272,-0.29218778014183044,0.14407995343208313,-0.037585482001304626,0.04563473165035248,-0.04308898374438286,-0.19036833941936493,-0.24596136808395386,-0.15962383151054382,0.12393611669540405,0.1830899566411972,-0.13807828724384308,-0.3156457841396332,0.22121034562587738,0.424780935049057,-0.17332342267036438,0.0615304633975029,-0.009559057652950287,0.17412133514881134,0.15658895671367645,-0.11806730926036835,-0.1168060377240181,-0.21832285821437836,-0.06313721835613251,0.2321922779083252,-0.031358785927295685,-0.13255152106285095,0.004076671786606312,-0.07336825877428055,-0.1360151171684265,-0.08853639662265778,-0.24569599330425262,-0.1973993182182312,0.37576159834861755,0.12940602004528046,-0.03280577063560486,0.03404659405350685,-0.034513454884290695,-0.38494181632995605,0.08449417352676392,-0.12466809898614883,0.07757240533828735,-0.013854564167559147,-0.3302454352378845,0.02516900934278965,0.14896802604198456,0.014431561343371868,0.11917617917060852,-0.17161136865615845,-0.04945709928870201,0.09052208811044693,0.04259226471185684,0.014849045313894749,0.29595667123794556,0.16916610300540924,-0.12648947536945343,0.3928593099117279,0.0814431831240654,-0.11080235242843628,0.18444709479808807,0.19078493118286133,0.2349669635295868,-0.21980230510234833],[0.3103891611099243,0.03380686417222023,-0.0608871765434742,-0.19580984115600586,0.12575386464595795,-0.014552084729075432,-0.013306796550750732,-0.015464656054973602,-0.00010208936146227643,0.1330668032169342,-0.05404817312955856,0.2826779782772064,-0.16549398005008698,0.2393590658903122,-0.38034430146217346,-0.5695117712020874,0.3617037236690521,0.10029943287372589,-0.13317175209522247,-0.09740473330020905,-0.21687360107898712,-0.1032213643193245,-0.29764047265052795,0.13764679431915283,0.3717379570007324,-0.21672669053077698,0.15748633444309235,-0.06945537030696869,-0.13356658816337585,-0.008715048432350159,0.26209932565689087,-0.0873117446899414,-0.15428656339645386,0.0417434424161911,-0.09812761098146439,-0.1760730892419815,-0.15767528116703033,-0.0280064195394516,0.08905231207609177,-0.10658493638038635,0.09422943741083145,0.19108539819717407,-0.10370586812496185,0.08300755172967911,0.1665855348110199,-0.07042097300291061,0.01284508965909481,-0.09106624126434326,-0.07092185318470001,0.046954527497291565,0.26010826230049133,-0.11525383591651917,-0.231414332985878,-0.10554227977991104,-0.2507596015930176,0.17850832641124725,-0.15667909383773804,0.2967210114002228,0.12137756496667862,0.22190743684768677,0.06886522471904755,-0.20610788464546204,-0.08284222334623337,-0.12550055980682373,0.3282140791416168,-0.14686626195907593,0.02574107050895691,-0.04775053262710571,-0.227181077003479,0.1466641128063202,0.25478631258010864,-0.12428054213523865,-0.295842707157135],[0.0489477813243866,-0.26383811235427856,-0.10887156426906586,0.02543877810239792,0.05250341072678566,0.03620193526148796,-0.25348353385925293,-0.059391606599092484,-0.07920504361391068,-0.002377079101279378,-0.12166782468557358,0.016289502382278442,-0.11748135834932327,0.21199969947338104,-0.174758180975914,-0.371774286031723,-0.27435311675071716,-0.2985587418079376,0.043963927775621414,0.046678755432367325,-0.058091867715120316,0.025514906272292137,0.02199322171509266,0.22142420709133148,0.2141646146774292,0.02143038995563984,-0.13200433552265167,0.06197601929306984,0.3379596173763275,0.08406487107276917,-0.31060075759887695,0.13830725848674774,0.15195715427398682,0.2032599300146103,0.12148833274841309,-0.0415053553879261,0.15041476488113403,-0.060487743467092514,-0.0844806507229805,0.10354280471801758,-0.21202979981899261,0.18444883823394775,-0.25576162338256836,-0.3493679165840149,0.15427324175834656,0.15148881077766418,0.0792030617594719,0.10585541278123856,-0.05056281015276909,0.26306384801864624,0.4170030355453491,0.0871758908033371,0.24999237060546875,0.11691344529390335,0.02256583422422409,0.31442660093307495,-0.20890578627586365,-0.004311684984713793,-0.3773561418056488,0.29006460309028625,0.04957682266831398,-0.021586010232567787,-0.06742200255393982,-0.2409868836402893,0.12220840901136398,-0.09693789482116699,-0.10042659193277359,-0.010791582986712456,-0.1489083468914032,-0.07241158932447433,0.11236260086297989,0.032198499888181686,-0.09713336080312729],[0.041136763989925385,0.08655958622694016,0.08730056136846542,-0.1592583954334259,0.05657992139458656,-0.0025979233905673027,-0.08080834895372391,-0.1561947911977768,-0.07645156979560852,-0.03672916442155838,-0.2880595624446869,-0.1825503557920456,0.018018359318375587,0.23679523169994354,-0.08563954383134842,-0.25732845067977905,-0.2345629185438156,0.06390389055013657,0.05358656495809555,-0.008239259012043476,0.17763124406337738,0.1457349956035614,-0.1436334252357483,0.19803182780742645,-0.22620445489883423,0.012372233904898167,0.15319781005382538,-0.32356658577919006,-0.0442502498626709,0.22314560413360596,0.022606361657381058,0.0063245571218431,0.2277139276266098,0.2102380394935608,0.03522052615880966,-0.11069519072771072,-0.1286572962999344,-0.15944232046604156,-0.16767965257167816,0.10187610983848572,-0.06113163381814957,0.030398501083254814,0.15761002898216248,0.18359628319740295,0.19469508528709412,0.009747263044118881,-0.11552054435014725,0.0798269584774971,-0.17753559350967407,-0.09225714206695557,0.408672571182251,0.08537071943283081,-0.11474774032831192,-0.032604385167360306,-0.1672590672969818,-0.2704756259918213,0.27142155170440674,-0.3400195240974426,0.2917584776878357,-0.027996910735964775,-0.020296650007367134,-0.14188481867313385,0.15535520017147064,0.06743329763412476,-0.06945895403623581,0.11803414672613144,0.17439155280590057,0.20744755864143372,0.10823330283164978,-0.1162530705332756,0.1822720319032669,-0.18339261412620544,-0.143087238073349],[-0.060581274330616,-0.10979678481817245,0.20018677413463593,-0.25840404629707336,0.20247049629688263,0.1611824780702591,0.15250980854034424,0.27086398005485535,0.052116509526968,0.030327046290040016,-0.23325712978839874,-0.008274119347333908,0.22539453208446503,-0.11598284542560577,0.47536590695381165,0.30913591384887695,-0.02563730627298355,0.11828053742647171,0.23155976831912994,0.1806582808494568,-0.07491804659366608,-0.12676285207271576,0.09504247456789017,-0.029182953760027885,0.021031396463513374,0.1991649717092514,-0.007770702708512545,0.07861467450857162,-0.1544899344444275,0.16476918756961823,-0.08615601807832718,-0.00037818902637809515,-0.0750136524438858,0.01120463665574789,-0.07420580089092255,0.07962968945503235,-0.035932645201683044,-0.18446943163871765,0.10486076772212982,-0.2518652379512787,0.13727064430713654,-0.04125333949923515,0.21712400019168854,-0.13210506737232208,0.09890402108430862,0.29469889402389526,-0.15824326872825623,0.07593320310115814,0.038218967616558075,-0.1055397018790245,0.23922988772392273,-0.11144442856311798,-0.19678090512752533,0.009787999093532562,-0.2585977017879486,-0.029369613155722618,-0.055906035006046295,0.0904088243842125,-0.2730845510959625,-0.2346276193857193,-0.15943220257759094,-0.013176058419048786,-0.18228033185005188,0.24763037264347076,-0.05495971068739891,-0.1554940640926361,-0.08163010329008102,-0.3677476644515991,0.006655535195022821,-0.6646356582641602,-0.054452668875455856,0.005685036536306143,-0.17253516614437103],[-0.14447100460529327,0.14483754336833954,0.26457181572914124,0.1633354127407074,0.1506049782037735,-0.5337849259376526,-0.001810123329050839,0.1827465444803238,-0.13294881582260132,-0.1618298590183258,-0.059078674763441086,0.16474129259586334,-0.05403735116124153,0.1767915040254593,0.19313934445381165,0.017160436138510704,-0.009042637422680855,0.10691622644662857,-0.04018716141581535,-0.1681429147720337,-0.23782671988010406,0.27024582028388977,-0.0035987203009426594,0.05609447509050369,-0.05835794284939766,-0.17601905763149261,-0.13584987819194794,0.3058474063873291,0.00829572044312954,-0.16511927545070648,0.12858866155147552,0.033574748784303665,-0.006631860509514809,-0.12584488093852997,-0.06083572283387184,-0.1962803453207016,-0.08387893438339233,0.06145161762833595,0.2861945927143097,-0.07604209333658218,-0.13941557705402374,-0.2526611089706421,-0.011157250963151455,-0.17524893581867218,-0.26424625515937805,-0.20356841385364532,0.22278934717178345,0.11743202805519104,0.10722999274730682,-0.208003431558609,0.20535996556282043,0.2267744243144989,0.03349956125020981,-0.183101087808609,-0.17018483579158783,0.3012225925922394,0.3372584879398346,-0.36917319893836975,-0.16048002243041992,-0.30954641103744507,0.128585085272789,0.10647657513618469,-0.04719642922282219,0.22584693133831024,0.033460650593042374,-0.017473120242357254,-0.08867966383695602,-0.18542268872261047,0.21962499618530273,-0.14020608365535736,-0.16174256801605225,-0.10867137461900711,0.31730589270591736],[-0.3078322112560272,0.3647838830947876,0.027496160939335823,0.017767440527677536,0.04609229415655136,0.2942546606063843,0.09969775378704071,-0.062122147530317307,-0.14705413579940796,0.05251021683216095,-0.10208363085985184,-0.02432311326265335,-0.07170970737934113,0.040288157761096954,0.2529807686805725,0.2133035510778427,-0.05214114859700203,-0.1457987278699875,-0.03892414644360542,0.28012746572494507,-0.14476744830608368,0.26945921778678894,0.1783178746700287,-0.09846320748329163,-0.1760384440422058,-0.21134363114833832,0.13719281554222107,-0.04331917315721512,0.058389876037836075,-0.11237543821334839,-0.06961457431316376,0.016265951097011566,0.19230858981609344,-0.1240520253777504,-0.03792926296591759,-0.10412115603685379,-0.1765574961900711,0.2744317054748535,0.06375981122255325,0.005563775077462196,-0.05319410189986229,-0.2189210206270218,-0.04591658338904381,-0.021476004272699356,-0.09549712389707565,0.04095184803009033,-0.09697426110506058,0.04623018205165863,0.406218945980072,-0.39348775148391724,-0.23653988540172577,-0.04280883073806763,0.261341392993927,-0.1287546157836914,-0.4647842049598694,0.007807542569935322,-0.26901954412460327,-0.13607071340084076,0.24036438763141632,0.12181157618761063,-0.3364880681037903,0.007513007149100304,-0.009388371370732784,-0.1253814995288849,0.06396500021219254,-0.210393026471138,0.06663334369659424,-0.06975192576646805,-0.13014082610607147,-0.19648431241512299,-0.13421814143657684,0.11978746950626373,0.2005292773246765],[-0.1192094162106514,0.11890020966529846,0.185475692152977,-0.09339309483766556,0.2120947539806366,-0.12014854699373245,-0.1363820880651474,0.0007179868407547474,-0.15767934918403625,-0.31290826201438904,0.21760150790214539,0.3008231222629547,-0.21629618108272552,-0.07166314125061035,0.4233003854751587,0.30130475759506226,0.03124651312828064,-0.047254644334316254,0.09590426832437515,0.04666278138756752,0.07919028401374817,-0.08394110947847366,0.14501166343688965,0.08871763944625854,-0.041455306112766266,-0.053179483860731125,-0.2279992252588272,-0.2416171133518219,-0.09471689909696579,0.202968567609787,-0.34878334403038025,-0.3346959948539734,0.08631639927625656,0.036192674189805984,-0.2921929359436035,0.048463232815265656,-0.0313136912882328,-0.25099650025367737,0.11882302165031433,-0.08603723347187042,0.11002533882856369,-0.1313488781452179,-0.19911648333072662,-0.056703437119722366,-0.06292556971311569,-0.22051969170570374,0.22767330706119537,0.43217530846595764,0.154720738530159,0.08835325390100479,-0.21304082870483398,0.09123067557811737,-0.1905350536108017,0.0038839138578623533,-0.3629285991191864,-0.09722542017698288,0.014859850518405437,0.07036268711090088,0.02565031684935093,0.043810587376356125,-0.2125544399023056,-0.09420469403266907,-0.12189772725105286,-0.09003623574972153,-0.1947287917137146,0.07145103067159653,-0.09518224745988846,0.3191136121749878,0.01953444443643093,-0.00838860310614109,-0.19497068226337433,-0.013394203968346119,0.14676785469055176],[0.24121513962745667,-0.16800233721733093,-0.10372069478034973,0.15143506228923798,-0.032950494438409805,-0.08855646103620529,-0.21707502007484436,0.09418755024671555,0.11483145505189896,0.038646992295980453,0.09670819342136383,-0.31028494238853455,0.1490715742111206,0.056473780423402786,-0.17766009271144867,-0.27523499727249146,-0.11497469246387482,-0.1368531435728073,-0.1702941656112671,0.3220660984516144,0.11494966596364975,0.08513665944337845,-0.09395090490579605,0.1503070741891861,0.16509774327278137,-0.07162954658269882,0.03155999258160591,-0.3343486189842224,-0.012622055597603321,0.05311209335923195,0.12206599116325378,0.20150190591812134,-0.16417227685451508,-0.02454456314444542,0.3484860956668854,-0.2597322463989258,-0.04118455946445465,0.1525350660085678,0.01123790256679058,-0.33338841795921326,-0.26814085245132446,-0.017809759825468063,0.13416188955307007,-0.42129069566726685,-0.22804513573646545,0.00936084520071745,-0.023801803588867188,0.09703236818313599,-0.1138322651386261,0.12942706048488617,-0.06019022688269615,0.0387376993894577,-0.20757879316806793,-0.18743588030338287,0.02654830366373062,-0.02062450908124447,-0.04768412560224533,0.311221718788147,0.41029518842697144,-0.08251380175352097,0.05433123558759689,-0.04558558762073517,-0.2749118506908417,-0.2273341417312622,-0.1365509033203125,0.07263340801000595,-0.21556712687015533,0.09745359420776367,0.038727905601263046,-0.12968549132347107,0.14798526465892792,-0.10382266342639923,-0.18195724487304688]],"bias":[-0.007705054711550474,0.0555269792675972,-0.016303734853863716,0.009827868081629276,0.005326768383383751,-0.0020068322774022818,-0.004340352490544319,0.004723463673144579,-0.027295177802443504,0.019800778478384018,0.04891423508524895,-0.0011770563432946801,0.09834839403629303,-0.021985065191984177,-0.03413427993655205,-0.017664574086666107,0.02926771342754364,-0.004709767177700996,0.0017109003383666277,0.048392266035079956,0.03292223811149597,-0.013757887296378613,-0.028202425688505173,0.0016244573052972555,-0.003767627291381359,-0.03647458180785179,-0.06483425199985504,-0.09093025326728821,0.0001875982852652669,-0.009848891757428646,-0.011186035349965096,-0.04324747994542122,-0.005894708912819624,0.013597114942967892,-0.013518205843865871,-0.04307517781853676,0.04475410282611847,0.031237952411174774,-0.01715303584933281,0.026057418435811996,-0.0302629005163908,0.022693974897265434,0.04676956310868263,-0.04213446378707886,-0.020165741443634033,0.02033456601202488,0.06401348114013672,0.02118927612900734,-0.034513622522354126,-0.046311136335134506,0.04497938230633736,0.014213448390364647,-0.027504639700055122,0.051293861120939255,0.014568903483450413,-0.012580540962517262,-0.05593043938279152,-0.010727324523031712,-0.037729278206825256,0.030126627534627914,0.02989339642226696,0.01779479719698429,0.019242027774453163,-0.06701640784740448]},{"weight":[[0.14765377342700958,-0.16018810868263245,0.22310984134674072,-0.27467530965805054,-0.026408063247799873,0.13826443254947662,-0.09044153988361359,0.2893278896808624,-0.054781146347522736,-0.1323014497756958,-0.11101590096950531,0.2802357077598572,0.1263805329799652,-0.04154053330421448,0.0672542005777359,0.19486434757709503,-0.29390183091163635,0.031638599932193756,0.603674590587616,-0.05799718573689461,-0.03973696008324623,-0.14656712114810944,-0.13828794658184052,0.017368661239743233,0.08692687004804611,-0.12490091472864151,0.2630192041397095,-0.02510218508541584,0.11856795847415924,-0.20409832894802094,-0.05142717808485031,0.028033919632434845,0.08740468323230743,0.029458466917276382,-0.017882896587252617,0.1509605199098587,-0.3344043493270874,-0.20547063648700714,0.1408063769340515,-0.5522772669792175,-0.09506136924028397,-0.20988686382770538,0.00734483590349555,0.18225662410259247,0.022396985441446304,-0.06003784388303757,-0.32367798686027527,0.09781820327043533,0.15030020475387573,0.050996772944927216,0.06328558921813965,0.006362328305840492,0.035018157213926315,-0.4891187250614166,-0.01044109370559454,0.11760959029197693,-0.14914853870868683,0.2375028282403946,-0.06142005696892738,0.29224786162376404,0.004552195314317942,0.1466130018234253,0.2523236572742462,-0.032651327550411224],[0.044562678784132004,-0.27917611598968506,0.006029804702848196,-0.02460523135960102,0.1741480976343155,-0.0888691321015358,-0.11870680749416351,0.022364173084497452,0.028691958636045456,-0.07400038838386536,-0.22578825056552887,-0.0066737039014697075,-0.2604617178440094,0.29954949021339417,0.08238822966814041,-0.0016688823234289885,0.48687928915023804,-0.03962722420692444,-0.012539382092654705,-0.15923362970352173,0.03689740598201752,-0.21399106085300446,0.015327928587794304,-0.2142450362443924,0.18540850281715393,-0.05829896032810211,-0.10247756540775299,0.5023621916770935,0.06825855374336243,0.006324727553874254,0.02713855355978012,-0.0418672151863575,0.13063563406467438,-0.19446179270744324,-0.20822790265083313,0.11222057789564133,-0.3972814083099365,0.15055032074451447,-0.05888393521308899,-0.044267356395721436,-0.14842471480369568,-0.34191685914993286,-0.1637469083070755,0.285297691822052,0.021920060738921165,-0.38544631004333496,-0.17718897759914398,-0.26102232933044434,0.10844830423593521,-0.3250167667865753,0.045902613550424576,0.04623381420969963,0.10242833942174911,-0.11807318031787872,0.009769720025360584,-0.06421878933906555,-0.032383810728788376,0.3041739761829376,-0.3719332814216614,0.06849673390388489,-0.28100255131721497,0.09868451207876205,-0.09571874886751175,0.2780139744281769],[-0.027112998068332672,0.15668341517448425,0.23835164308547974,0.20639437437057495,0.3167821764945984,0.06757555902004242,-0.058219484984874725,0.11645736545324326,0.12320180982351303,-0.1439419537782669,-0.22725671529769897,0.08184808492660522,0.02540486305952072,0.02636600099503994,0.5463231801986694,0.023556306958198547,0.11608998477458954,0.08442611992359161,0.0019449763931334019,0.1916426569223404,-0.1014392226934433,0.15515299141407013,