{"type":"replay_actor_tanh","observation_size":73,"policy_layers":[{"weight":[[-0.018698669970035553,0.05549588054418564,-0.09152820706367493,0.1109222024679184,-0.0664171352982521,-0.006715414579957724,0.015635643154382706,0.11102522164583206,0.0009378111572004855,0.06030441075563431,0.06851387768983841,0.09348293393850327,0.06884977966547012,-0.05230176821351051,-0.0942719578742981,-0.13427750766277313,0.024826351553201675,0.0793909803032875,-0.01630168780684471,0.06381803005933762,-0.07791806012392044,-0.047621261328458786,0.019450431689620018,0.14817774295806885,-0.011906995438039303,-0.049132391810417175,0.026485124602913857,0.020179979503154755,0.07966431230306625,0.08897216618061066,-0.007533090189099312,-0.07202655076980591,0.04420291632413864,0.1082000732421875,-0.039677705615758896,-0.06690726429224014,0.0024650415871292353,-0.0009479479631409049,0.02750585786998272,0.052548598498106,-0.03134571388363838,-0.03755684942007065,0.11688589304685593,0.08461841940879822,-0.01402920950204134,0.08292883634567261,-0.08879286050796509,-0.006254905369132757,-0.04494968056678772,0.07887556403875351,-0.02669190615415573,0.03830578923225403,0.08666478097438812,-0.01835068315267563,0.020798122510313988,0.0029816925525665283,0.10169659554958344,-0.009558376856148243,-0.035570014268159866,-0.011529507115483284,-0.0674159973859787,0.07043106108903885,-0.008951443247497082,0.03191698342561722,-0.04258091375231743,-0.1148608848452568,-0.021314971148967743,-0.03605271503329277,0.09994814544916153,0.04488329216837883,-0.0216673631221056,0.015875831246376038,-0.01140565425157547],[0.08107534050941467,-0.10866907984018326,-0.08088648319244385,0.07818419486284256,0.08609124273061752,-0.05414576828479767,0.05951501801609993,0.057816676795482635,-0.06191601604223251,-0.019848236814141273,-0.13414618372917175,-0.09640610963106155,0.0325528122484684,-0.053553078323602676,0.2533426582813263,0.15242092311382294,0.05186565965414047,0.019075049087405205,-0.06518577039241791,0.020904870703816414,0.11243635416030884,0.05905741825699806,0.016071505844593048,-0.009714842773973942,-0.000802662514615804,0.09873943030834198,-0.12279045581817627,0.04927089065313339,0.03033188171684742,0.056118160486221313,0.02691521681845188,-0.10494796186685562,-0.03566288203001022,-0.008370291441679,-0.13193689286708832,-0.12432081997394562,-0.07635927200317383,-0.1084546372294426,0.09034518897533417,0.07221956551074982,0.20084995031356812,-0.04255034029483795,0.09828030318021774,0.04620387405157089,-0.01817018911242485,0.010519511066377163,0.005530404392629862,0.036857105791568756,-0.031035158783197403,0.04822712019085884,0.0019399739103391767,0.02164512127637863,0.07700009644031525,0.040236830711364746,-0.01468461100012064,-0.06568946689367294,0.020868422463536263,-0.042487338185310364,-0.032821375876665115,0.03463387116789818,0.039365254342556,0.05097419396042824,-0.07471314072608948,-0.06289061158895493,-0.008504037745296955,-0.05714185908436775,0.017392702400684357,-0.15852198004722595,-0.05195865035057068,-0.09073746204376221,-0.03932749852538109,-0.12488498538732529,-0.08933937549591064],[0.019208496436476707,0.08472666889429092,-0.027091778814792633,-0.1317168027162552,-0.14382082223892212,0.013147056102752686,-0.04681060090661049,0.09970194846391678,0.06411311030387878,0.07782655954360962,-0.029097191989421844,0.009080536663532257,-0.06720580160617828,0.10868943482637405,-0.31968602538108826,-0.29555341601371765,0.01394256204366684,-0.08619457483291626,-0.009750890545547009,0.026147158816456795,-0.0412110798060894,-0.07566114515066147,0.033227961510419846,0.021821800619363785,-0.034954629838466644,0.0681886151432991,-0.05791841447353363,-0.03157304972410202,0.04054461792111397,0.02651546522974968,0.015270701609551907,-0.09957248717546463,-0.014347982592880726,0.05288977921009064,0.10437096655368805,0.06510335206985474,-0.055556539446115494,0.09703096747398376,-0.01643878035247326,0.07768852263689041,-0.16487309336662292,-0.04014905169606209,-0.024386852979660034,-0.03516290709376335,0.01205200981348753,0.05107679218053818,0.10432083159685135,0.1323910355567932,-0.101533442735672,-0.07811310887336731,-0.0333099402487278,0.11913580447435379,0.0725865438580513,0.01715392805635929,-0.007031434681266546,0.10478701442480087,0.08961861580610275,0.06989102065563202,0.08269307762384415,0.08250615745782852,0.02281203307211399,0.11979848891496658,0.08596351742744446,-0.03764459490776062,-0.01404018234461546,0.07873339205980301,0.027423448860645294,0.04158046841621399,-0.10751970112323761,-0.0017447271384298801,0.027691207826137543,0.09194453805685043,-0.01099978107959032],[-0.05525112524628639,-0.034989841282367706,-0.08490195125341415,-0.043922845274209976,-0.03864381089806557,-0.07577966898679733,-0.019557667896151543,-0.07244107127189636,0.11916529387235641,0.09074341505765915,-0.056408338248729706,-0.10885095596313477,0.03278961032629013,0.027513902634382248,-0.24032439291477203,-0.34615427255630493,-0.09553621709346771,0.1222473680973053,0.04180535301566124,0.015643728896975517,-0.08295419067144394,-0.06809992343187332,-0.0038172488566488028,0.14482395350933075,-0.0695606991648674,0.07447680085897446,-0.024231508374214172,-0.09705211222171783,-0.09987282007932663,0.15000981092453003,0.11257234215736389,0.05433071032166481,0.026796426624059677,0.02446630410850048,0.09089113771915436,0.05595342814922333,-0.09851962327957153,-0.011847623623907566,-0.15047407150268555,-0.07197200506925583,-0.14694072306156158,0.08769538998603821,-0.04025023430585861,0.10109259188175201,0.017848026007413864,-0.0650336742401123,-0.07218993455171585,-0.07701752334833145,-0.13204409182071686,0.05893521010875702,0.08026856184005737,-0.06908834725618362,-0.061334215104579926,-0.03171929344534874,0.14900556206703186,-0.046556904911994934,-0.040915597230196,0.07533641904592514,0.09121249616146088,0.11878770589828491,0.03476892039179802,0.12981745600700378,-0.0411064513027668,-0.026639480143785477,0.0012692658929154277,-0.1213376373052597,-0.10526019334793091,0.13286325335502625,0.02105002850294113,0.010598826222121716,0.1748344451189041,-0.011270830407738686,-0.03363366425037384],[-0.0438004694879055,0.014123352244496346,-0.0352930948138237,0.06912843137979507,0.0534222237765789,-0.08480589091777802,0.02909684367477894,0.06820085644721985,-0.10517053306102753,-0.01791365072131157,0.050809118896722794,-0.047454576939344406,0.1401873379945755,-0.15910595655441284,0.2638874351978302,0.33681684732437134,-0.10785482823848724,-0.08486753702163696,-0.09403222054243088,0.07089574635028839,0.022550752386450768,-0.05763326585292816,0.14878533780574799,-0.05204657092690468,-0.014281177893280983,0.10294913500547409,0.05407186970114708,0.06150954216718674,0.12135417014360428,0.07235299795866013,-0.001978479092940688,-0.1186743900179863,-0.011122879572212696,-0.17651423811912537,-0.1125015988945961,0.04946110025048256,0.0308468546718359,0.05296320840716362,0.015664180740714073,0.14924365282058716,0.246421679854393,-0.11067990213632584,-0.03236287832260132,0.024831771850585938,0.0037945369258522987,0.08425446599721909,0.0032339554745703936,0.015284331515431404,-0.048341844230890274,-0.1289941817522049,-0.0623079314827919,0.014547147788107395,-0.03435791656374931,0.00626299949362874,0.0011768271215260029,-0.023001883178949356,-0.03884190320968628,-0.06854818016290665,0.020837243646383286,-0.11702969670295715,-0.0045082648284733295,-0.02993607707321644,-0.05936355143785477,-0.06413715332746506,0.11003421992063522,-0.07756440341472626,0.05717319995164871,-0.12178144603967667,0.04322639852762222,0.0004485198005568236,-0.1635064333677292,0.03835863620042801,0.015312332659959793],[-0.11284088343381882,-0.03539648279547691,0.019175969064235687,-0.08423082530498505,-0.041496291756629944,-0.06982404738664627,-0.07548476755619049,-0.07513383030891418,0.030836904421448708,-0.04756849259138107,-0.044911038130521774,0.1071656122803688,0.20628240704536438,-0.09456627070903778,0.2208118587732315,0.2413204312324524,0.03197231516242027,0.04641154408454895,-0.06067396700382233,0.07606469839811325,-0.01265349704772234,0.04462120309472084,-0.06329311430454254,-0.0033452934585511684,0.011404654942452908,-0.10257044434547424,-0.044963594526052475,-0.03539819270372391,0.04127092286944389,-0.15789508819580078,-0.15644210577011108,0.04867095127701759,0.02178019843995571,-0.14175660908222198,-0.08334943652153015,0.03167741000652313,0.041364602744579315,-0.017755966633558273,0.04192377254366875,0.07220379263162613,0.12428051233291626,-0.10918381810188293,-0.08637692779302597,0.021100185811519623,0.01200352143496275,0.03593536093831062,0.06693385541439056,-0.06377828866243362,0.03365909680724144,0.08131525665521622,-0.04564642906188965,-0.03747319430112839,0.047592245042324066,0.007893353700637817,-0.17066586017608643,-0.0868404358625412,-0.11182472854852676,-0.08786416053771973,-0.09209012985229492,0.0892973467707634,0.053536806255578995,0.055050142109394073,0.001874273526482284,0.10809727013111115,-0.0987740308046341,0.03713760897517204,0.016274817287921906,-0.10241448134183884,-0.01020282506942749,-0.13083027303218842,-0.006270349025726318,-0.01799527183175087,0.11681491881608963],[-0.01500513032078743,-0.007009814027696848,0.028790675103664398,-0.04823734983801842,0.044578250497579575,0.04351731017231941,0.003371632657945156,-0.09558379650115967,0.016657177358865738,-0.019623693078756332,0.069173663854599,0.12385060638189316,-0.040058910846710205,0.05273837596178055,0.20054446160793304,0.12034960836172104,-0.0440337099134922,-0.08616359531879425,-0.0940992683172226,-0.08475839346647263,-0.08178683370351791,0.10693167895078659,0.06802753359079361,-0.053502343595027924,0.057597845792770386,0.0008447247091680765,0.02836107276380062,-0.007402285933494568,-0.044792138040065765,-0.07369638979434967,0.01670963317155838,0.08217548578977585,0.1405397355556488,-0.03477482125163078,-0.09367572516202927,0.11382189393043518,0.03357312083244324,-0.0798538401722908,-0.011016059666872025,0.05568849667906761,0.05369007959961891,0.006130357272922993,0.016783960163593292,-0.12058428674936295,-0.08954688906669617,0.019273392856121063,-0.07857586443424225,0.09790734201669693,0.10567183047533035,0.05550779774785042,-0.05204866826534271,0.08301138132810593,-0.01027678046375513,0.08584989607334137,-0.034666962921619415,0.08799910545349121,0.03851987048983574,-0.0648382380604744,-0.07516694068908691,-0.05102621391415596,-0.035975053906440735,0.004849005490541458,0.010216109454631805,0.03933783620595932,0.09068289399147034,0.07983352243900299,-0.0891827717423439,0.023446915671229362,-0.0987110510468483,-0.014367169700562954,-0.08927813917398453,-0.009002736769616604,0.06940977275371552],[-0.052117396146059036,-0.08517980575561523,0.09247223287820816,0.05954190716147423,-0.05223238095641136,-0.0746280774474144,-0.056729115545749664,0.002900372724980116,0.010897014290094376,-0.0370163768529892,-0.08949603140354156,-0.06826020777225494,-0.15548457205295563,0.1527799516916275,-0.21334145963191986,-0.27954182028770447,-0.011642597615718842,-0.07814096659421921,0.1201556995511055,0.10459008812904358,-0.12830090522766113,0.07644757628440857,-0.06414123624563217,-0.04840286821126938,0.16158710420131683,0.010425964370369911,0.13699452579021454,0.09380347281694412,-0.07340844720602036,0.08486850559711456,0.1672384887933731,0.0657741129398346,0.1148587316274643,0.07017157971858978,-0.013959628529846668,0.07548876851797104,0.08428527414798737,-0.06845016032457352,-0.08754276484251022,-0.09872511774301529,-0.095001220703125,0.11895275861024857,0.07432336360216141,0.11056653410196304,-0.07754658162593842,0.09737580269575119,0.10257286578416824,0.02891491912305355,0.06618864089250565,0.14240121841430664,0.12668173015117645,0.1161680743098259,0.01491483673453331,-0.006340271793305874,0.07301740348339081,-0.016692200675606728,0.015567970462143421,0.23916946351528168,-0.02532636746764183,-0.00016541429795324802,0.04782785102725029,-0.01274645421653986,-0.0020105571020394564,0.055651433765888214,-0.019946537911891937,0.05519194155931473,-0.07913177460432053,0.1163381040096283,-0.021681755781173706,0.019913488999009132,0.13449916243553162,-0.032010119408369064,-0.006584007292985916],[0.07358084619045258,0.030384082347154617,-0.07125338912010193,0.020089363679289818,0.016106626018881798,-0.10032140463590622,0.008184359408915043,-0.07714778929948807,-0.09472694247961044,0.06923839449882507,0.05827239900827408,0.04531401768326759,-0.08719713985919952,0.05257886275649071,-0.27705472707748413,-0.3345375657081604,0.08004401624202728,0.08224321156740189,-0.06880950182676315,0.044714272022247314,-0.07312708348035812,0.07832612842321396,-0.11342943459749222,0.16504673659801483,-0.06512699276208878,-0.11456293612718582,-0.10308285057544708,0.0662090852856636,-0.07752901315689087,0.03866013139486313,0.04188379645347595,0.06131613627076149,-0.0435107946395874,0.019331645220518112,-0.039195697754621506,0.0006691151647828519,-0.03577141463756561,0.03196627274155617,-0.16916045546531677,-0.12204032391309738,-0.23989500105381012,-0.08813497424125671,-0.04111494868993759,0.10285878926515579,0.09893576055765152,0.05873345956206322,-0.014558155089616776,-0.1297737956047058,-0.1371985822916031,0.08521264791488647,-0.000969469198025763,0.10265489667654037,-0.10486115515232086,0.09224061667919159,0.09455059468746185,-0.05618487298488617,-0.04544511437416077,0.12838533520698547,0.08140141516923904,0.04836592823266983,0.037817295640707016,0.008388920687139034,-0.08282329887151718,0.11184455454349518,-0.02812240459024906,-0.07867830991744995,0.039008088409900665,0.07110949605703354,0.07000791281461716,0.0654214471578598,0.1736873835325241,-0.10310892015695572,-0.029517974704504013],[0.06407982856035233,0.12466157972812653,0.024348430335521698,0.07075606286525726,-0.0854182168841362,0.08338890969753265,0.0062116654589772224,0.0062188017182052135,-0.03095283918082714,-0.019752340391278267,0.08626255393028259,0.033477626740932465,0.17968584597110748,-0.1145777702331543,0.20301903784275055,0.28048720955848694,0.06434915959835052,0.07247573137283325,-0.04427017644047737,0.009151189588010311,0.08011898398399353,0.025432856753468513,-0.01172615960240364,0.04533477872610092,-0.06236111745238304,-0.07542648911476135,-0.04543755203485489,-0.10463875532150269,0.12808404862880707,0.01819394901394844,-0.09180556982755661,-0.06445037573575974,-0.011320219375193119,0.01974187046289444,0.015600479207932949,-0.056083470582962036,0.023428773507475853,-0.10070973634719849,0.0417858250439167,0.01613355427980423,0.19777749478816986,0.0023842507507652044,0.007717110216617584,-0.17402802407741547,0.07745697349309921,0.0832955539226532,-0.0763588547706604,-0.0034969488624483347,-0.08801864832639694,-0.04025646299123764,-0.0802418515086174,-0.013581040315330029,-0.021801888942718506,0.03811873868107796,-0.10047892481088638,-0.1002252921462059,0.02779439277946949,-0.19299066066741943,-0.07090038806200027,-0.03234592825174332,0.005122420843690634,0.05945240333676338,0.0719248428940773,0.014384686015546322,0.03695870563387871,-0.02431373856961727,-0.01264653354883194,-0.029613086953759193,0.05146791785955429,-0.04112420231103897,-0.05179738998413086,-0.05239618569612503,-0.030436845496296883],[0.08752705156803131,0.06774928420782089,-0.06258802115917206,0.07610542327165604,0.005214761011302471,-0.01054083090275526,0.05522288754582405,-0.030746493488550186,-0.051457103341817856,0.07589947432279587,0.10977637767791748,-0.10245835781097412,0.04160061478614807,-0.0009264776017516851,-0.13969282805919647,-0.2599547207355499,0.08746649324893951,0.03906094655394554,0.024336395785212517,-0.1057836189866066,-0.12283279001712799,-0.0039263032376766205,-0.08919309824705124,0.01544688455760479,0.14021652936935425,0.03233681991696358,-0.00886144582182169,0.018946073949337006,-0.06325521320104599,0.10174717754125595,-0.05949520319700241,0.09143398702144623,0.01409507542848587,0.15178243815898895,0.10106360167264938,0.01123922411352396,-0.020109334960579872,-0.04049535095691681,-0.1457764208316803,-0.045116424560546875,-0.11365846544504166,0.058919757604599,1.6257166862487793e-05,-0.06462109833955765,-0.06339835375547409,0.03752242401242256,-0.042611073702573776,-0.01618911884725094,0.012888550758361816,-0.07220728695392609,0.10616667568683624,0.043946556746959686,-0.12741707265377045,0.0714770182967186,0.10498439520597458,-0.09239351004362106,-0.05777697637677193,0.034738823771476746,0.09580651670694351,-0.08851185441017151,0.06635428965091705,-0.08578606694936752,-0.003929812461137772,-0.025704944506287575,0.019896261394023895,0.043436065316200256,-0.0030535534024238586,0.11068844050168991,0.105435810983181,0.07010339200496674,0.11305087804794312,-0.0460171140730381,-0.022496702149510384],[0.06818832457065582,0.10105323046445847,-0.022610843181610107,0.02330012433230877,-0.00762287899851799,0.007580897305160761,0.023426910862326622,-0.036013394594192505,0.03150695934891701,-0.06618153303861618,0.024145031347870827,-0.09157365560531616,0.02026776410639286,-0.11162466555833817,0.3273511230945587,0.37210613489151,0.038507215678691864,0.07471725344657898,-0.10830278694629669,0.09113502502441406,-0.0573887825012207,0.015024024993181229,-0.03802357614040375,-0.15029431879520416,-0.11089809238910675,0.09780886769294739,0.03415492922067642,-0.06491383910179138,0.004924519453197718,0.06997904181480408,0.06866428256034851,0.018839193508028984,-0.044900812208652496,-0.11778459697961807,0.03859345614910126,-0.07698524743318558,-0.06247032433748245,-0.12130162864923477,0.032810743898153305,0.011233511380851269,0.10257305204868317,0.01643024943768978,-0.09983386099338531,-0.03214683756232262,0.04396336153149605,0.006805657874792814,0.04221844673156738,-0.12167368829250336,0.12383918464183807,-0.022774716839194298,0.019872670993208885,-0.09281828999519348,-0.03897996246814728,0.0545516274869442,-0.0680791512131691,0.07659473270177841,-0.10311759263277054,-0.2224208563566208,-0.08920227736234665,0.06127846613526344,0.053449325263500214,0.003328519407659769,-0.023584602400660515,-0.022403046488761902,-0.07454389333724976,0.10351892560720444,0.110804982483387,-0.013532211072742939,-0.07070690393447876,-0.07974955439567566,-0.06369921565055847,-0.06563026458024979,-0.0588955283164978],[-0.07490299642086029,0.06554120033979416,-0.07279263436794281,-0.08376568555831909,0.1441444754600525,0.03406906500458717,-0.04621201753616333,0.0038647011388093233,0.09321941435337067,-0.014368896372616291,0.03681422397494316,-0.08414889127016068,0.005660648457705975,-0.17251132428646088,0.24048972129821777,0.29363173246383667,-0.005877848248928785,0.010942873544991016,-0.07758031785488129,-0.029658330604434013,0.1494530439376831,0.08255304396152496,0.1280638426542282,-0.07882263511419296,-0.11214854568243027,-0.13110432028770447,0.11860811710357666,0.017891041934490204,0.13195957243442535,-0.000590782961808145,0.0462743379175663,0.05897566303610802,0.0540558397769928,-0.1355171948671341,-0.12011157721281052,-0.043509773910045624,0.11042030900716782,0.01867278665304184,0.005618914030492306,0.04302375763654709,0.0201704278588295,0.09434977918863297,0.05144340544939041,-0.07505844533443451,-0.06557266414165497,-0.09972038120031357,-0.02008196897804737,-0.022757643833756447,0.1395505964756012,-0.1028481274843216,-0.05871465429663658,-0.04904274642467499,-0.06899885088205338,0.08801759779453278,-0.19660674035549164,-0.12068948894739151,0.01804574951529503,-0.14201438426971436,-0.019013753160834312,0.06448610126972198,-0.055008698254823685,0.03417729213833809,-0.0977628231048584,0.08247245103120804,-0.02087172120809555,-0.037746597081422806,-5.607306957244873e-05,-0.041632167994976044,-0.03991508483886719,-0.053534287959337234,-0.0905233770608902,-0.07933039218187332,-0.08658251166343689],[0.11630101501941681,0.0933794304728508,-0.07240550220012665,-0.05883289501070976,0.06823118031024933,-0.01243603602051735,-0.07524040341377258,0.03663463145494461,0.12661047279834747,0.03714212030172348,-0.0961746945977211,-0.11016630381345749,-0.02595934085547924,-0.02196434885263443,-0.233071967959404,-0.2052777260541916,-0.09831885993480682,0.01593988575041294,0.00037320313276723027,-0.061206720769405365,0.02643720433115959,-0.08071726560592651,0.02793942391872406,0.10706792026758194,0.016724683344364166,0.10679230093955994,0.04835759848356247,-0.04810568690299988,-0.06096901744604111,0.07559924572706223,0.1452285647392273,-0.06449789553880692,0.012241670861840248,0.108730249106884,0.04491213336586952,-0.083958201110363,-0.07605492323637009,0.04738873988389969,-0.02327934466302395,-0.10394930094480515,0.010743455030024052,0.0041802446357905865,0.011803455650806427,0.022667761892080307,-0.01297520101070404,-0.08681616187095642,-0.09891138970851898,0.09855656325817108,-0.037242207676172256,-0.08555908501148224,0.013748151250183582,-0.019769299775362015,0.10662773996591568,-0.08730378746986389,0.1538313329219818,0.09630086272954941,0.013241296634078026,0.1125471442937851,-0.048791829496622086,-0.023096852004528046,-0.008170012384653091,0.14300446212291718,-0.04960520938038826,0.08238535374403,-0.00302064954303205,0.05283830314874649,-0.010248534381389618,-0.018203698098659515,-0.004910029470920563,0.013426057063043118,0.11595186591148376,0.06540417671203613,0.026620572432875633],[-0.06940998882055283,-0.1059202179312706,0.04526332765817642,-0.04413941130042076,0.06841696053743362,-0.06689950078725815,0.052599478513002396,0.06427357345819473,-0.046719200909137726,-0.02960025705397129,0.009656603448092937,-0.0706116110086441,-0.18192502856254578,0.02898808941245079,-0.09871324896812439,-0.12299969047307968,-0.10141643136739731,0.036604441702365875,-0.010719642043113708,-0.06723127514123917,-0.08828552067279816,-0.014271160587668419,-0.00923521351069212,0.10865932703018188,0.1291288435459137,0.06487220525741577,-0.009485093876719475,0.06416315585374832,-0.03308780863881111,0.023379135876893997,-0.06343239545822144,0.08843906968832016,-0.13152649998664856,0.040732357650995255,-0.04978661611676216,-0.05613895133137703,-0.12147127836942673,0.015819720923900604,0.045531127601861954,0.06642264127731323,-0.2078418731689453,-0.06248386576771736,-0.11561578512191772,-0.044674623757600784,0.015221933834254742,0.020602954551577568,0.03669543191790581,0.06869152933359146,-0.12312036752700806,-0.04807211086153984,0.12661756575107574,-0.07129813730716705,0.09909933060407639,0.06260347366333008,-0.05072760209441185,-0.047865357249975204,0.02693900093436241,0.14871618151664734,-0.016151487827301025,0.08339006453752518,0.08021824061870575,-0.022180965170264244,-0.004635478835552931,0.07183235883712769,-0.0500345379114151,0.05019132420420647,-0.0342804417014122,0.010436134412884712,-0.0881800502538681,0.04170963540673256,0.1626874953508377,0.1076502576470375,-0.03981989249587059],[-0.04432705044746399,-0.10800547897815704,0.04003017395734787,-0.035665541887283325,0.03164205700159073,-0.04262036457657814,-0.14886191487312317,0.0964401438832283,0.004481213632971048,0.039748772978782654,-0.1132647842168808,-0.12180142849683762,-0.05511021241545677,0.13633474707603455,-0.2421358823776245,-0.36997535824775696,-0.10091324895620346,0.041216325014829636,0.017643939703702927,-0.051064085215330124,-0.038031697273254395,0.10193883627653122,-0.05714461952447891,0.14596159756183624,-0.022343071177601814,-0.09301547706127167,0.016539011150598526,-0.10128098726272583,-0.014523975551128387,0.0026192753575742245,-0.07740185409784317,-0.0313640795648098,0.09397615492343903,0.023239344358444214,0.09998239576816559,0.053377967327833176,0.08234921097755432,0.12616394460201263,-0.07195695489645004,-0.024701975286006927,-0.09321078658103943,0.11585074663162231,0.08485428243875504,0.11789220571517944,-0.09188815206289291,0.004787796176970005,0.06173677742481232,-0.015475357882678509,-0.01225991826504469,0.11678757518529892,0.04160882905125618,-0.013571872375905514,0.09748667478561401,0.0006156362360343337,-0.02678864449262619,0.09116805344820023,0.05634605512022972,0.07656774669885635,-0.016163259744644165,-0.028271932154893875,-0.06966596841812134,0.07731574028730392,-0.05618736520409584,-0.04674120247364044,0.11775045096874237,-0.06349115818738937,0.03444645553827286,0.1846570074558258,0.1139872744679451,-0.0013001388870179653,0.15440620481967926,0.12382582575082779,-0.052733052521944046],[-0.01468754280358553,0.09336557239294052,0.07741906493902206,-0.10923013836145401,-0.021815454587340355,0.026812367141246796,0.11238915473222733,0.09108255803585052,0.041570037603378296,-0.07059923559427261,0.09612493216991425,0.06914015859365463,0.12687507271766663,-0.061037760227918625,-0.0172978974878788,0.04832428693771362,-0.08143211156129837,-0.10468463599681854,0.03025324083864689,-0.040270671248435974,0.037587765604257584,-0.06285317242145538,0.07048063725233078,-0.08698415756225586,0.03611407428979874,-0.0574452206492424,-0.026975376531481743,-0.04754035174846649,0.0742826908826828,-0.03573450818657875,0.034462135285139084,-0.10603557527065277,0.004940650425851345,-0.09007730334997177,-0.11559781432151794,-0.04926752299070358,0.02715781144797802,-0.004511500708758831,-0.04763902351260185,0.006032612174749374,0.03213053569197655,-0.04032009467482567,-0.07932008802890778,-0.12928155064582825,-0.09157313406467438,0.028041092678904533,-0.10631291568279266,0.06077820435166359,0.0848856270313263,-0.11443941295146942,-0.03411143273115158,-0.10933134704828262,-0.06952182203531265,-0.07659842818975449,-0.0016189987072721124,-0.08331411331892014,-0.05539821460843086,0.0049148378893733025,0.013733419589698315,-0.04398040100932121,-0.08704724162817001,-0.07174133509397507,-0.11286071687936783,0.09798585623502731,-0.0042199925519526005,-0.05075068771839142,-0.09295275807380676,-0.09986303746700287,-0.10855203866958618,0.024153294041752815,0.01260081771761179,0.019282206892967224,0.011857971549034119],[-0.0064395638182759285,0.0036589361261576414,0.05810721963644028,0.11630091816186905,-0.022365868091583252,-0.021722828969359398,-0.037147462368011475,0.016518941149115562,-0.05540536344051361,-0.02970924600958824,-0.07389456033706665,-0.05727601796388626,-0.06903456896543503,-0.03743305802345276,0.07699576765298843,-0.02086968533694744,-0.0829441025853157,-0.07903830707073212,-0.024758748710155487,0.09597720205783844,0.10153647512197495,-0.10432104021310806,0.07864174991846085,0.06992724537849426,-0.05455953627824783,0.010099954903125763,-0.05262049287557602,0.036353982985019684,0.14952655136585236,-0.05738048255443573,-0.09640946984291077,0.006137445569038391,-0.08796799927949905,-0.054827980697155,-0.07255834341049194,0.05886334925889969,0.052623532712459564,-0.043530359864234924,0.016554763540625572,0.05113786458969116,-0.06656935811042786,-0.01823769323527813,0.06649086624383926,0.1664533019065857,0.02658124640583992,-0.01544412411749363,0.008538826368749142,-0.055463626980781555,-0.0821847915649414,0.09191122651100159,0.04961900785565376,-0.008061657659709454,0.02062143012881279,-0.009168565273284912,0.0009367697639390826,-0.00825983565300703,0.03803626075387001,0.10662297159433365,0.025363566353917122,0.038092099130153656,-0.03012148290872574,0.04549533128738403,0.017337506636977196,-0.016855550929903984,0.03615779057145119,0.01174925547093153,0.011701978743076324,-0.0666135847568512,0.07754183560609818,-0.05944320186972618,0.00844320748001337,-0.056280601769685745,-0.01926363818347454],[-0.10414236783981323,0.052396781742572784,0.03217519074678421,0.03629498556256294,0.000505325326230377,0.055190399289131165,-0.06659876555204391,0.025307266041636467,-0.09140970557928085,-0.015549106523394585,0.11076800525188446,0.09100854396820068,0.12548385560512543,-0.10825655609369278,0.2356625348329544,0.3860912621021271,0.12420575320720673,-0.06348953396081924,0.008696896955370903,0.009196996688842773,0.12357579916715622,-0.07638199627399445,0.028785187751054764,0.02420373633503914,-0.04952776059508324,-0.06677744537591934,-0.07415036857128143,-0.08671851456165314,-0.048173416405916214,-0.13809892535209656,-0.12405316531658173,-0.05895484238862991,0.039424870163202286,0.004270981997251511,-0.12338270992040634,-0.06301204860210419,0.08399637788534164,-0.032161153852939606,0.023771235719323158,-0.0716128796339035,0.10637140274047852,0.013508751057088375,-0.0934075266122818,0.06371545046567917,0.036843884736299515,-0.0926441177725792,-0.11512527614831924,-0.043411917984485626,0.006063621956855059,-0.08230345696210861,0.043796997517347336,-0.06787582486867905,-0.04511285573244095,0.05571865662932396,-0.13758805394172668,0.11630498617887497,-0.09424044191837311,-0.03270496055483818,-0.008380971848964691,-0.0017951419577002525,-0.06685397773981094,-0.10562733560800552,-0.10111242532730103,0.07241321355104446,-0.11510977149009705,0.15455661714076996,0.05984755605459213,-0.2013392150402069,-0.010200634598731995,0.01721165142953396,-0.08498099446296692,-0.05179382488131523,-0.07565794140100479],[0.0826461985707283,-0.09762413054704666,-0.039175376296043396,0.07874540239572525,0.07124582678079605,0.005339751485735178,-0.11178207397460938,0.01345860492438078,0.06974531710147858,-0.11235585808753967,-0.06009809300303459,0.03670593351125717,-0.09445280581712723,0.062302589416503906,-0.21873414516448975,-0.24227206408977509,0.07092778384685516,-0.05702996253967285,0.102642722427845,-0.034671179950237274,0.035774651914834976,-0.09951774030923843,0.04813775792717934,-0.06632450968027115,0.031144509091973305,-0.0657922774553299,0.004570214543491602,-0.05346866697072983,-0.026445208117365837,0.0547160729765892,0.0716918334364891,-0.024245867505669594,0.04103822261095047,0.12172132730484009,0.015356536023318768,0.013327494263648987,-0.051448430866003036,-0.10523519665002823,-0.16590631008148193,-0.03737766668200493,-0.220473974943161,0.009820085018873215,-0.018786631524562836,-0.050722844898700714,-0.09255542606115341,-0.01922018639743328,0.09507361799478531,-0.05828411132097244,-0.13106298446655273,0.10575290024280548,0.05206388980150223,-0.04129644110798836,0.038583867251873016,-0.12047342211008072,0.15471717715263367,0.02422003075480461,0.11419394612312317,0.12826532125473022,0.07993129640817642,0.007032985333353281,-0.02738272212445736,0.06575120985507965,-0.060695942491292953,-0.03397369012236595,0.0005751017015427351,0.07090649008750916,-0.03157837688922882,0.18724451959133148,-0.04710552096366882,0.23795825242996216,0.15081289410591125,-0.036428388208150864,-0.04828095808625221],[0.03583062067627907,-0.0259401835501194,-0.05702274292707443,0.0482972115278244,-0.07890946418046951,0.06654296815395355,0.04827992990612984,0.041206274181604385,-0.01223170105367899,0.09032127261161804,0.09791455417871475,0.04169049859046936,0.08047138154506683,-0.14341895282268524,0.2256215661764145,0.3018369972705841,-0.04714522510766983,0.02712007611989975,0.04711383581161499,-0.049621302634477615,0.13938547670841217,0.009671198204159737,0.03429417312145233,0.02597571536898613,-0.10502558946609497,-0.024871373549103737,-0.07150696218013763,0.025905407965183258,-0.03712824359536171,-0.05039966106414795,-0.08996126055717468,-0.030920159071683884,0.0008054007776081562,-0.07167761027812958,0.04485856369137764,-0.09304072707891464,-0.11149265617132187,-0.002279577311128378,-0.004366213921457529,0.0007482208893634379,0.1258002072572708,0.01946830563247204,-0.04907448589801788,-0.06215687468647957,-0.06349395215511322,-0.1067870631814003,0.007252951618283987,-0.020612746477127075,0.05117527395486832,-0.10317707806825638,-0.1322643756866455,-0.11707529425621033,0.07969645410776138,0.022031690925359726,-0.1102440282702446,0.11243744939565659,-0.026756523177027702,-0.07642444968223572,0.07975409179925919,0.08150757104158401,0.07513172179460526,0.0238204263150692,-0.07594582438468933,0.04008783772587776,0.09984969347715378,-0.04721502214670181,-0.01404668390750885,-0.11955712735652924,0.10166271775960922,-0.03239285945892334,-0.16215719282627106,-0.0010067822877317667,0.05092858895659447],[0.08793923258781433,-0.0011864416301250458,-0.0021702125668525696,0.07907336950302124,-0.028694575652480125,-0.01506566908210516,-0.022904684767127037,0.03507594019174576,0.11460082232952118,0.02648877166211605,0.045940663665533066,-0.0847059115767479,-0.12641088664531708,-0.10368677973747253,-0.006799796596169472,0.004367578309029341,0.039655644446611404,-0.054670508950948715,0.050868190824985504,0.09575442224740982,-0.00104856351390481,0.08408576995134354,0.09571782499551773,-0.04824621602892876,0.07810252159833908,-0.02181478776037693,-0.11051815003156662,-0.11277821660041809,-0.016694890335202217,-0.05245974659919739,-0.0002025572903221473,0.07713013887405396,-0.05591823533177376,-0.061084963381290436,-0.06672114133834839,-0.047578420490026474,0.004333167336881161,0.04664478451013565,-0.034214477986097336,0.1131846010684967,0.050202757120132446,0.07312319427728653,-0.03294454514980316,-0.056093111634254456,-0.022590555250644684,-0.04864738509058952,-0.02142583392560482,0.02159639447927475,-0.06842611730098724,0.1408105045557022,0.014663591049611568,0.08997949212789536,-0.0680428296327591,-0.05238423869013786,-0.07048316299915314,-0.00997256487607956,-0.00810988713055849,-0.03946333006024361,-0.003974995110183954,0.03793979808688164,0.017653383314609528,-0.019605910405516624,-0.06117702275514603,-0.0948101133108139,-0.10231759399175644,0.05183972045779228,-0.06644624471664429,0.0320652537047863,0.0218559131026268,0.09093107283115387,0.07243158668279648,-0.03682667016983032,0.06823190301656723],[0.06245015189051628,-0.02880510501563549,0.05167118459939957,-0.08434246480464935,-0.0025560357607901096,-0.0649748221039772,-0.07562248408794403,0.057038549333810806,0.08695870637893677,-0.011686506681144238,0.057160329073667526,-0.033121220767498016,-0.18882201611995697,0.030457979068160057,-0.07637869566679001,-0.243499293923378,0.16341562569141388,-0.04129251092672348,-0.00042431411566212773,0.08842257410287857,-0.11108527332544327,0.121041439473629,0.035598497837781906,0.1515919268131256,-0.025853514671325684,0.06136858090758324,-0.0661160796880722,-0.058917589485645294,-0.0665668472647667,0.0035808696411550045,-0.01449989527463913,-0.09065479040145874,-0.06265024840831757,-0.05254834145307541,-0.005578181240707636,0.07738637924194336,-0.027308298274874687,0.04358145222067833,-0.0373879075050354,0.06671368330717087,-0.15182648599147797,-0.015967141836881638,-0.07199478894472122,0.021325567737221718,-0.045140139758586884,0.029561474919319153,-0.07248762249946594,0.013530279509723186,-0.07184626162052155,-0.04330568388104439,0.11294447630643845,-0.09835532307624817,-0.08183108270168304,0.041658032685518265,-0.003910582512617111,-0.03181837126612663,-0.09142626821994781,0.14489196240901947,-0.026141930371522903,0.00691633578389883,-0.007430436089634895,0.08793539553880692,0.076139897108078,-0.06119552254676819,-0.11732804030179977,0.036959875375032425,0.08375250548124313,0.09170053154230118,-0.005908437073230743,-0.0018762005493044853,0.028866183012723923,0.05421639233827591,0.09715075045824051],[-0.03446182981133461,-0.08407524228096008,-0.09299129992723465,0.09562427550554276,0.09147927910089493,0.013740253634750843,-0.03335677832365036,0.11410863697528839,-0.02606748603284359,0.08064315468072891,0.012123094871640205,-0.024986760690808296,0.18762247264385223,-0.12305856496095657,0.35922184586524963,0.39574044942855835,-0.009269804693758488,-0.0008388545829802752,-0.060531482100486755,0.10795997828245163,-0.04927968233823776,0.011998558416962624,0.1028776541352272,-0.016641506925225258,0.0522526316344738,0.03567623347043991,0.06219291314482689,-0.007759913802146912,-0.006182431243360043,-0.04843245819211006,-0.15266761183738708,-0.06602194160223007,-0.09560447931289673,-0.04582909122109413,0.071456179022789,-0.010627970099449158,0.03614319860935211,-0.148617222905159,0.04507355019450188,0.05267825722694397,0.08054515719413757,-0.12276781350374222,-0.06303076446056366,-0.029439521953463554,0.10155009478330612,0.06754031777381897,0.04878721013665199,-0.01611177809536457,0.12961341440677643,-0.06474842131137848,-0.10198243707418442,0.08875676989555359,0.018868431448936462,-0.07378590852022171,-0.18177653849124908,0.09940212965011597,0.08967515081167221,-0.1552804559469223,-0.09486730396747589,-0.04934055358171463,0.09904584288597107,-0.053232721984386444,0.10769318789243698,0.0973045825958252,-0.09912363439798355,0.10744943469762802,-0.11033178120851517,-0.1063009724020958,0.09925734251737595,-0.16614505648612976,-0.19800908863544464,-0.15637844800949097,0.132348895072937],[0.03692052513360977,-0.06345784664154053,-0.03624899685382843,-0.12487529963254929,0.07579681277275085,0.025576982647180557,-0.11108874529600143,0.048843588680028915,-0.02037007175385952,-0.019099116325378418,-0.08133448660373688,0.009171065874397755,-0.0955677330493927,0.0028074702713638544,-0.023714980110526085,-0.12476050853729248,-0.055400896817445755,-0.005063040181994438,0.015454404056072235,-0.0973113626241684,0.046519335359334946,0.04281960800290108,0.06626269966363907,0.06165074184536934,-0.07172111421823502,0.0071127405390143394,-0.055642109364271164,-0.07744201272726059,0.08815287053585052,0.05149489641189575,0.024809224531054497,-0.02658785879611969,-0.009508287534117699,0.00999356061220169,-0.02908899635076523,0.09859877824783325,0.05772244185209274,-0.04524976387619972,-0.08536515384912491,-0.005907910875976086,-0.023365531116724014,0.024768738076090813,-0.008939981460571289,0.0779760330915451,0.07441869378089905,-0.04620639607310295,-0.0944439023733139,0.0966433435678482,-0.048244498670101166,-0.04266839846968651,-0.05601276829838753,0.018280360847711563,-0.031744249165058136,0.08198985457420349,-0.06059100851416588,0.09837330132722855,-0.005187354050576687,-0.03344975411891937,0.11020248383283615,0.08479765802621841,0.09032805263996124,-0.013620981015264988,0.005594541784375906,-0.09508867561817169,0.0019437696319073439,0.012644236907362938,0.017347268760204315,0.1098494678735733,-0.07072639465332031,-0.012004540301859379,0.11075254529714584,0.10822292417287827,-0.10046707093715668],[-0.05625522881746292,0.005452390294522047,-0.07444273680448532,0.10288005322217941,0.0940852016210556,-0.03643384203314781,-0.011293686926364899,-0.04937778785824776,-0.003085158299654722,0.09019934386014938,-0.004449969157576561,0.04619208350777626,0.14937514066696167,-0.14852894842624664,0.19404998421669006,0.2450028657913208,0.04807421565055847,-0.023980023339390755,-0.07114241272211075,-0.02729458175599575,-0.05002487078309059,-0.034926339983940125,0.07146897166967392,-0.03916957229375839,0.0818600207567215,-0.0853048786520958,-0.021458717063069344,0.0827556625008583,-0.07004368305206299,-0.020919205620884895,0.08069749176502228,0.0048623597249388695,0.09598953276872635,-0.1200384795665741,0.07903140038251877,0.041611336171627045,-0.03055635280907154,0.07601302117109299,0.013328577391803265,0.058714594691991806,0.15130150318145752,-0.050213832408189774,0.0016286373138427734,-0.0902620255947113,-0.10533727705478668,-0.1367916613817215,0.0998084768652916,-0.03842055797576904,0.046980299055576324,-0.08487534523010254,-0.038338109850883484,0.0457579605281353,-0.07074835151433945,0.038036998361349106,0.04644215479493141,-0.040327105671167374,-0.06624545902013779,-0.20826935768127441,-0.07344169914722443,0.005882727913558483,-0.019077932462096214,-0.12415678799152374,-0.03974192589521408,0.06780494749546051,-0.06549038738012314,0.16518765687942505,-0.05416208505630493,-0.08861183375120163,-0.02495693415403366,0.012261886149644852,-0.1414068043231964,0.014795209281146526,0.030030619353055954],[0.03034183382987976,0.04786626249551773,0.03659427911043167,-0.07304275780916214,-0.006391559727489948,-0.09170985966920853,-0.08061738312244415,0.016020318493247032,0.13183654844760895,-0.008130551315844059,0.0064495764672756195,0.0024480922147631645,-0.09089698642492294,-0.0227395910769701,-0.3066604435443878,-0.22760218381881714,-0.014602403156459332,-0.10197394341230392,0.10690949857234955,0.04295032471418381,0.011007215827703476,-0.01781424507498741,-0.11560627073049545,0.1158982440829277,0.16914790868759155,0.011505586095154285,0.0076712314039468765,-0.07653070986270905,0.0770612508058548,0.011278083547949791,-0.0010458978358656168,-0.069910429418087,-0.020030220970511436,-0.04411441087722778,-0.031080901622772217,0.11923937499523163,0.07481566071510315,0.04724113270640373,0.039245881140232086,0.046987541019916534,-0.13458536565303802,0.035645272582769394,-0.09524983912706375,0.035576846450567245,-0.08688855171203613,0.059334736317396164,0.007374133914709091,-0.09903213381767273,-0.08808231353759766,0.09364717453718185,-0.04432680457830429,-0.04165181517601013,0.02573845535516739,0.0011057050433009863,0.10541690140962601,0.06121550500392914,0.09569650888442993,0.04679351672530174,0.008729631081223488,-0.036649011075496674,-0.09149684756994247,0.05770203098654747,0.1022564098238945,0.07433929294347763,-0.05659600347280502,0.0765744000673294,0.10976462811231613,0.16495797038078308,0.07638353854417801,0.03365293890237808,0.15794630348682404,0.009472211822867393,0.03710180148482323],[0.059671252965927124,0.052997153252363205,-0.11583845317363739,0.11347104609012604,-0.029292529448866844,0.09961697459220886,0.014438317157328129,0.03902972489595413,-0.0656503364443779,-0.0472690723836422,-0.10545117408037186,-0.12625804543495178,0.13651522994041443,0.018616635352373123,0.23468057811260223,0.23398075997829437,-0.14689213037490845,-0.11977163702249527,-0.101152203977108,0.08249028027057648,0.05372660979628563,-0.1277730017900467,-0.06985045224428177,-0.1417190134525299,-0.12264300882816315,-0.02872929535806179,0.01833983138203621,0.04656783491373062,0.04513603821396828,-0.10323868691921234,-0.10765023529529572,-0.03031778149306774,-0.06766659766435623,0.05096348375082016,-0.07029643654823303,0.03302423655986786,-0.008519192226231098,0.03407519683241844,0.14363256096839905,0.020650148391723633,0.13457635045051575,-0.08764272183179855,0.039602555334568024,-0.12811335921287537,-0.05734330788254738,0.0660926103591919,-0.0282350592315197,-0.09789670258760452,-0.05827121436595917,0.0050373198464512825,0.04005836695432663,-0.07015421241521835,-0.032369215041399,-0.10621529072523117,-0.0776013508439064,-0.04513906314969063,-0.11414943635463715,-0.04255901649594307,-0.07329441606998444,0.0033655634615570307,0.026278574019670486,0.040630143135786057,-0.0661989077925682,0.08243642747402191,-0.008044203743338585,0.05034857615828514,0.01723095029592514,-0.1042046844959259,0.09196063131093979,0.017837921157479286,-0.048782214522361755,0.02625115029513836,-0.10776524245738983],[-0.13321863114833832,-0.06942512840032578,0.10129766911268234,0.022163301706314087,0.0003002776065841317,0.01301005482673645,-0.04577972739934921,0.042788874357938766,-0.12790262699127197,0.056495748460292816,-0.06812860071659088,0.03552411496639252,0.05638507008552551,0.03390456363558769,0.17282706499099731,0.2055535465478897,0.09590354561805725,-0.06918489933013916,-0.01011557225137949,-0.03691612184047699,0.08809944987297058,-0.08007439225912094,-0.03854605183005333,-0.062102437019348145,-0.0825808197259903,-0.0732857957482338,0.05569584295153618,0.10196585208177567,-0.12155690789222717,0.05956752970814705,0.04574768245220184,-0.0665547102689743,-0.10683400183916092,-0.09742061048746109,0.06766467541456223,-0.0079197371378541,-0.028136393055319786,-0.15920762717723846,-0.07743684202432632,0.10417311638593674,0.10181634873151779,0.025553669780492783,0.10067526251077652,-0.04937753081321716,-0.03538414090871811,-0.06430681049823761,0.06754718720912933,0.0601385198533535,0.13345424830913544,-0.11400225013494492,-0.07420680671930313,0.03540608659386635,-0.016347579658031464,-0.11233142763376236,0.02970978617668152,-0.10579739511013031,0.07629629224538803,-0.09566275030374527,0.01128785964101553,-0.07817532122135162,0.03933863341808319,-0.03981116786599159,0.09803454577922821,0.03532811626791954,0.10828482359647751,0.07381625473499298,-0.029893994331359863,-0.056467778980731964,0.01563427597284317,0.04785069823265076,-0.21187247335910797,0.05657156929373741,0.12516839802265167],[-0.09861844778060913,-0.09849390387535095,-0.06763338297605515,-0.06314485520124435,0.07193095982074738,0.023859426379203796,-0.07131705433130264,0.060465987771749496,-0.10962085425853729,-0.022873833775520325,0.11116468906402588,-0.10005753487348557,0.2119315266609192,-0.10289470851421356,0.15235558152198792,0.38061097264289856,0.058075033128261566,-0.0759616568684578,0.05050857737660408,0.08215860277414322,0.04048432037234306,0.022199444472789764,-0.04607076197862625,-0.031015213578939438,-0.09809096902608871,-0.10009825229644775,0.040489740669727325,0.0339236781001091,-0.06229337677359581,0.03367689996957779,-0.023516302928328514,0.10655166208744049,-0.06786634027957916,-0.13494858145713806,0.023845138028264046,-0.0152033856138587,-0.06233137100934982,-0.12167441099882126,0.11643733829259872,-0.05846010148525238,0.1029006615281105,-0.04455049708485603,-0.060081638395786285,-0.14058929681777954,0.07596298307180405,-0.11264417320489883,0.006102739833295345,-0.08421062678098679,0.09877876937389374,-0.039176516234874725,0.016582151874899864,-0.039944592863321304,0.07590208947658539,-0.09189043939113617,-0.1861865222454071,0.05050645023584366,-0.08051998913288116,-0.23725545406341553,-0.015280927531421185,0.09587757289409637,0.006851182319223881,-0.10547671467065811,-0.05443093925714493,-0.0821726843714714,-0.01766916923224926,-0.036264050751924515,0.047387100756168365,-0.021063262596726418,-0.07443641126155853,0.008738605305552483,-0.03056427277624607,-0.07819048315286636,0.1064099669456482],[-0.10206064581871033,0.10709398984909058,0.08235336095094681,0.06733155995607376,0.008808677084743977,-0.009672082960605621,0.08159982413053513,-0.037659283727407455,0.012167631648480892,-0.023106614127755165,-0.06599585711956024,0.05130352824926376,0.07414127886295319,-0.024509726092219353,0.2814660668373108,0.40986114740371704,-0.015210488811135292,0.08220147341489792,-0.004999903030693531,0.013660924509167671,-0.04666982963681221,0.017199024558067322,0.05155476927757263,-0.05405411496758461,-0.11246787011623383,-0.09916752576828003,-0.07333880662918091,0.008949212729930878,0.03737623989582062,0.038296256214380264,-0.059442125260829926,-0.06313788890838623,-0.07707785069942474,-0.15135817229747772,-0.07829678058624268,0.09418251365423203,0.06596916168928146,0.05258013308048248,0.1252416968345642,0.11580341309309006,0.23128090798854828,-0.060257039964199066,-0.028458453714847565,-0.1330307275056839,-0.0628393366932869,0.07485868036746979,-0.004936511628329754,-0.08383525907993317,-0.0019876675214618444,-0.07182994484901428,0.07932788878679276,0.026928488165140152,-0.06536959111690521,0.0012468992499634624,-0.009370735846459866,-0.03479285538196564,-0.0354030504822731,-0.18497887253761292,-0.07682142406702042,-0.014937973581254482,-0.049656447023153305,-0.13974128663539886,0.06496410816907883,-0.011720376089215279,0.01524614542722702,0.11848746985197067,-0.08532116562128067,-0.07913840562105179,0.04843071848154068,-0.15136374533176422,-0.038210924714803696,-0.08130325376987457,-0.028609585016965866],[-0.07772889733314514,0.08343522995710373,0.06447123736143112,-0.08828863501548767,0.03701359033584595,-0.06895379722118378,-0.039563294500112534,-0.06724175065755844,-0.0990084707736969,-0.07028189301490784,-0.0827891081571579,-0.10264518857002258,0.15804658830165863,0.013588412664830685,0.21638093888759613,0.11535496264696121,-0.10927226394414902,-0.055085405707359314,0.043964095413684845,-0.022708037868142128,0.07580509036779404,0.08149205893278122,0.03939330577850342,0.046654462814331055,-0.09210163354873657,-0.10468070954084396,0.07121675461530685,0.005777895450592041,0.0251598097383976,-0.07466088235378265,0.0339425764977932,-0.012252286076545715,-0.06795775145292282,-0.09796002507209778,-0.026826364919543266,-0.0629839152097702,-0.10314677655696869,0.0028936259914189577,-0.055229201912879944,0.09971034526824951,0.02905777096748352,-0.015488742850720882,0.09129055589437485,0.022428838536143303,0.08183886855840683,-0.10038967430591583,-0.010989457368850708,0.04964166879653931,0.10474587976932526,0.0799340158700943,0.0701536163687706,0.01018237043172121,-0.08608771115541458,0.01670684665441513,-0.10470519959926605,0.07575266063213348,-0.06739600747823715,-0.08104975521564484,0.05922914668917656,0.06222200766205788,-0.08847787231206894,0.012520198710262775,-0.07494115084409714,0.0044977907091379166,-0.1038169339299202,0.09600808471441269,-0.10177354514598846,-0.17478208243846893,0.06087186187505722,0.009514523670077324,-0.11301732063293457,0.018133601173758507,0.05555402487516403],[-0.031572919338941574,0.05416007712483406,0.09807174652814865,-0.05215287208557129,0.06779207289218903,-0.09769157320261002,0.1220964565873146,-0.05717268958687782,-0.020736631006002426,-0.09061249345541,-0.00145802553743124,0.01711977832019329,0.0867127925157547,-0.14562785625457764,0.24862204492092133,0.2315986007452011,-0.05507362633943558,0.076301708817482,0.08332864940166473,-0.08690734207630157,0.1299244910478592,0.08997493237257004,-0.039249710738658905,-0.07786902040243149,0.05231001600623131,-0.06747068464756012,0.04849179461598396,0.02363770455121994,0.04807149991393089,-0.015068404376506805,-0.10068649053573608,0.08730129897594452,-0.05368705093860626,-0.15686380863189697,-0.08631236851215363,0.09711091965436935,0.12076923996210098,0.024875905364751816,0.025444461032748222,-0.03037414699792862,0.22912316024303436,-0.0022128860000520945,-0.01947784423828125,-0.14106027781963348,0.04647710174322128,-0.012360145337879658,-0.05787896737456322,0.08260785788297653,0.0015278086066246033,0.0946466475725174,0.00394823681563139,0.027939703315496445,0.06365492939949036,0.04279526695609093,-0.060353297740221024,-0.020555544644594193,0.035412948578596115,-0.07327312976121902,-0.025924885645508766,-0.09644675254821777,-0.11577506363391876,0.07222863286733627,-0.024315670132637024,-0.06540323048830032,0.12362094968557358,0.08145464956760406,0.0995398536324501,-0.08115208148956299,-0.038026757538318634,-0.14710837602615356,-0.1922418773174286,0.06228511035442352,0.042756952345371246],[-0.058343641459941864,-0.0765862911939621,0.0017025023698806763,-0.016830656677484512,-0.005738210864365101,-0.05285521596670151,0.06049672141671181,0.0069654169492423534,-0.03475301340222359,0.018125921487808228,-0.036106422543525696,-0.027905941009521484,0.053909096866846085,-0.15061518549919128,0.2377685010433197,0.22136357426643372,0.1054755300283432,-0.02950003184378147,0.023077091202139854,0.013069060631096363,0.05575033649802208,-0.05769618600606918,0.07793445885181427,-0.10871831327676773,-0.08805239945650101,0.02160612866282463,0.1224704459309578,-0.02408444881439209,-0.06640882045030594,0.038684215396642685,-0.06116444617509842,0.09418196976184845,0.06548696011304855,-0.10438640415668488,-0.09415854513645172,-0.008693531155586243,-0.040265943855047226,-0.11079809069633484,0.116035595536232,0.038980402052402496,0.08057798445224762,-0.09310301393270493,0.02650504559278488,-0.012752083130180836,0.0029645971953868866,-0.016659284010529518,0.02018420770764351,0.018548667430877686,0.01155112311244011,-0.11519161611795425,0.0481584407389164,-0.1213253065943718,0.024990277364850044,0.0171834547072649,-0.04899223893880844,-0.06898503750562668,0.07392555475234985,-0.13265830278396606,0.07529106736183167,-0.07706375420093536,-0.012927038595080376,-0.16179479658603668,-0.08353863656520844,0.007001566234976053,-0.07365935295820236,-0.03994579240679741,-0.039815329015254974,-0.10140924155712128,0.07505028694868088,-0.07710032165050507,-0.07735790312290192,-0.09170311689376831,0.0884365439414978],[0.06406546384096146,-0.10990501195192337,-0.036559537053108215,0.07368163019418716,-0.06643812358379364,0.06369399279356003,0.11182356625795364,0.11174707114696503,-0.006950186565518379,0.028768615797162056,-0.051347989588975906,-0.05087001994252205,-0.04744629189372063,-0.13996917009353638,0.11667637526988983,0.0974888950586319,0.04748974367976189,0.03349626064300537,0.01862649992108345,0.039156075567007065,-0.003166815033182502,-0.07179784029722214,0.11307341605424881,0.04771515354514122,-0.050532590597867966,0.020167216658592224,0.027025163173675537,-0.07267844676971436,-0.07650363445281982,-0.008398241363465786,-0.1328514963388443,0.0328964926302433,-0.07114777714014053,-0.05998818203806877,-0.0821959376335144,0.03629589453339577,0.07618533074855804,-0.08870643377304077,-0.011286934837698936,0.06368833035230637,0.016826830804347992,0.06476706266403198,-0.0822521448135376,-0.09399117529392242,-0.10213615745306015,0.07616738229990005,0.07931041717529297,0.0050800577737390995,0.06401770561933517,0.0047542741522192955,-0.08606167882680893,-0.02700161002576351,0.05625145882368088,0.025954701006412506,-0.04878567159175873,0.01824294589459896,-0.006704938132315874,-0.018552349880337715,0.07394363731145859,0.07663610577583313,0.07625748962163925,-0.010616757906973362,-0.09265988320112228,0.09521292895078659,0.08499938249588013,0.08070387691259384,0.05629720538854599,-0.02510903961956501,0.01639992743730545,-0.05388723686337471,-0.10676734894514084,-0.03168768435716629,0.06423333287239075],[0.05073409900069237,0.05471355468034744,-0.0021836161613464355,0.077814482152462,-0.024498621001839638,-0.018228251487016678,-0.02746867947280407,0.0334366075694561,0.06859462708234787,-0.006304149515926838,0.012824540957808495,0.003066985635086894,0.07385126501321793,0.03184356912970543,0.061912067234516144,-0.023650387302041054,0.025773681700229645,-0.10682081431150436,-0.12448202073574066,0.009992732666432858,-0.06875458359718323,-0.007204066496342421,0.07659362256526947,0.02225414104759693,0.06200217455625534,-0.07062329351902008,-0.031039351597428322,0.017353422939777374,0.10103645920753479,0.05237864702939987,0.0718950405716896,-0.09850714355707169,0.023664725944399834,0.01233892422169447,0.04716520011425018,0.09168459475040436,-0.07850198447704315,0.06550346314907074,0.027457771822810173,-0.02556355856359005,-0.026032764464616776,0.08430802822113037,-0.1140998974442482,0.053365886211395264,0.024988187476992607,-0.06896650046110153,-0.04525528475642204,-0.006342305336147547,0.003051190869882703,0.07893338054418564,-0.016539281234145164,0.07641390711069107,0.1283780336380005,-0.03044041059911251,0.10146951675415039,0.07005460560321808,0.031230218708515167,-0.012723485007882118,-0.022992847487330437,0.04099304601550102,-0.06527156382799149,-0.020231183618307114,-0.114559605717659,0.07209903001785278,0.09575158357620239,-0.09616142511367798,-0.06643335521221161,-0.07171079516410828,-0.030248619616031647,-0.08659463375806808,0.1347433477640152,0.02024749480187893,-0.09138591587543488],[-0.04710444435477257,0.1172092854976654,0.0023280680179595947,0.013421435840427876,0.0743701383471489,-0.036342501640319824,0.03423295542597771,-0.008776998147368431,-0.10079147666692734,-0.04178876802325249,0.101761594414711,-0.05095754936337471,0.184768944978714,-0.12543624639511108,0.13397088646888733,0.3656775653362274,0.03445838391780853,-0.08615411072969437,-0.09522788226604462,-0.021516228094697,-0.002996124094352126,-0.04187055677175522,0.0048141381703317165,0.025876475498080254,-0.028375837951898575,-0.016188224777579308,0.0316782221198082,0.07986529916524887,0.046937815845012665,0.06757640093564987,0.039898648858070374,0.05368547886610031,-0.003450732911005616,-0.007036250084638596,-0.0631830245256424,-0.06642267107963562,0.04994744807481766,-0.00020990430493839085,0.09670814871788025,-0.07927286624908447,0.16900429129600525,-0.017881792038679123,-0.011577010154724121,-0.06619815528392792,0.07679007202386856,0.013090831227600574,-0.11241089552640915,0.057744964957237244,-0.05229094624519348,-0.10516180843114853,0.02125379629433155,-0.09387624263763428,-0.10393650084733963,-0.10857386142015457,-0.09522009640932083,-0.06827874481678009,0.08627330511808395,-0.1695335954427719,0.011107513681054115,-0.09794238954782486,-0.08630423992872238,-0.1328868567943573,-0.09197204560041428,-0.012822285294532776,-0.1036824956536293,0.07435250282287598,-0.10827291011810303,-0.10174217820167542,-0.08981256932020187,-0.028685107827186584,-0.17061367630958557,-0.08888919651508331,0.11603022366762161],[-0.08282967656850815,0.063417449593544,0.014771409332752228,-0.03858139365911484,-0.09073559939861298,0.014531534165143967,0.07690494507551193,-0.08055742084980011,0.02607259899377823,0.06603556871414185,-0.018911784514784813,-0.08705508708953857,0.009276616387069225,0.09392591565847397,-0.08207029849290848,-0.056972358375787735,0.029609933495521545,0.022640040144324303,-0.0597694031894207,-0.046585988253355026,0.021387603133916855,-0.08821123093366623,0.06903574615716934,0.04926256462931633,-0.07304996252059937,-0.03679373487830162,-0.04025176540017128,-0.06310240924358368,-0.06460211426019669,-0.06771363317966461,0.0212904941290617,-0.046266648918390274,-0.09520382434129715,-0.08466928452253342,-0.056939925998449326,0.04897033050656319,-0.07087695598602295,-0.116554394364357,-0.04810730367898941,-0.1265026479959488,-0.12675701081752777,-9.7200449090451e-05,-0.024121172726154327,-0.013105758465826511,-0.046733930706977844,-0.028293326497077942,0.0681278258562088,0.12265600264072418,-0.10383608192205429,0.06813051551580429,-0.08603008091449738,0.09456007927656174,-0.03195368871092796,-0.03017771616578102,-0.07033969461917877,-0.035230766981840134,0.05070421099662781,0.07302286475896835,-0.08496347069740295,-0.05912822112441063,0.04042472317814827,-0.0833735391497612,0.02679893560707569,0.0046396986581385136,-0.08220130205154419,0.029735732823610306,-0.11095334589481354,-0.07117971032857895,0.05580884963274002,0.1400541216135025,-0.07551157474517822,0.049588046967983246,-0.023389771580696106],[0.040081340819597244,-0.06260409951210022,-0.08713127672672272,-0.008207516744732857,-0.11839893460273743,0.020435484126210213,-0.10298672318458557,0.07631494104862213,0.07237592339515686,-0.05859055742621422,0.10803686082363129,0.0029776564333587885,-0.16155588626861572,-0.02321772277355194,-0.1552727222442627,-0.3695584237575531,0.07785151153802872,0.017908429726958275,-0.06076192855834961,0.06883738189935684,0.04786292091012001,-0.03249421715736389,-0.08286397904157639,0.07190262526273727,-0.055729273706674576,0.052668120712041855,-0.05594915151596069,0.10493694990873337,-0.034302107989788055,-0.07592423260211945,-0.02881713956594467,0.0825689435005188,0.05965351313352585,0.07721929997205734,-0.010893725790083408,0.08343847841024399,-0.05788220465183258,0.051357585936784744,-0.07297810912132263,-0.0903778001666069,-0.17049700021743774,0.0047959028743207455,0.018696747720241547,0.08864271640777588,-0.0594797320663929,-0.006218961905688047,0.11003813147544861,0.12837761640548706,0.059191636741161346,0.11584337055683136,0.027833841741085052,-0.0673685148358345,0.04145161435008049,0.08898719400167465,0.03828980773687363,-0.07934921234846115,0.0679471418261528,0.1211371198296547,-0.07982441037893295,0.018978342413902283,0.04087675362825394,0.058820802718400955,-0.07187329232692719,0.09096576273441315,-0.07418347150087357,-0.05003615468740463,0.07052715867757797,0.07328781485557556,-0.08696529269218445,0.12094190716743469,0.2162792980670929,0.12566563487052917,-0.12140192836523056],[-0.019611768424510956,-0.08348676562309265,-0.11482493579387665,-0.039630863815546036,0.02758314460515976,0.012698957696557045,-0.028585977852344513,-0.04057439789175987,0.08077655732631683,-0.022345682606101036,0.07405763864517212,0.005474118050187826,0.0025275801308453083,-0.028600353747606277,0.05982431396842003,0.11223320662975311,-0.10155446082353592,-0.12685401737689972,0.08345374464988708,0.08845814317464828,0.005643670912832022,-0.007067571394145489,-0.0667777955532074,0.03174810856580734,0.08328927308320999,-0.004220462404191494,-0.026335308328270912,0.09870285540819168,-0.10713749378919601,0.07441277801990509,-0.14565685391426086,-0.08357878774404526,-0.12659695744514465,-0.09073930233716965,0.09194188565015793,0.027018282562494278,-0.010331777855753899,0.03506862744688988,-0.0027806765865534544,-0.020274223759770393,0.13664577901363373,0.04268253967165947,0.10462591797113419,0.002069752663373947,-0.10597255825996399,-0.010110121220350266,0.02776385471224785,0.04372885450720787,0.05185110867023468,0.03138507157564163,-0.06685703992843628,0.043589066714048386,0.08371534198522568,-0.03807102516293526,-0.0288331750780344,0.05059723183512688,0.0002446671132929623,-0.07849129289388657,0.11299078911542892,0.007549358066171408,-0.0757991299033165,-0.10910045355558395,-0.036575932055711746,0.03581179305911064,0.0753733217716217,-0.07827654480934143,-0.043406493961811066,-0.03473488241434097,0.10195200890302658,0.052976056933403015,-0.0892178937792778,-0.034229524433612823,0.004880571272224188],[-0.09124536067247391,-0.03674013912677765,0.01898106187582016,0.011988445185124874,-0.04346814751625061,-0.046431656926870346,-0.11784500628709793,0.09083490818738937,0.04768441244959831,0.06663548201322556,-0.09565892070531845,-0.06213263049721718,-0.2063789963722229,0.09613346308469772,-0.28666257858276367,-0.1672147810459137,-0.03959168493747711,-0.07267731428146362,-0.0866374671459198,-0.08689247816801071,0.06566029787063599,-0.08791586756706238,-0.10184688121080399,-0.025281919166445732,0.08262642472982407,-0.03545616194605827,-0.03286602720618248,-0.11386182904243469,-0.0056738774292171,0.03307018801569939,0.051957495510578156,0.022620923817157745,-0.07835817337036133,0.11493583023548126,0.08568304032087326,0.09616323560476303,0.08831874281167984,0.04164703190326691,-0.0694592297077179,-0.06847286969423294,-0.055431514978408813,0.004669840447604656,-0.04169994592666626,-0.019411858171224594,0.07613038271665573,-0.08670106530189514,-0.05824993923306465,0.0697435587644577,-0.0695931613445282,0.11434352397918701,-0.08337020128965378,0.018246686086058617,0.1003355011343956,0.11305346339941025,0.06500838696956635,0.07187448441982269,-0.0022196348290890455,0.22464103996753693,0.02784367837011814,-0.03362898901104927,-0.1036645695567131,0.07209976762533188,-0.07836712896823883,0.011522828601300716,-0.06709509342908859,-0.048202067613601685,0.07180800288915634,0.08242633938789368,0.05501844733953476,0.025303499773144722,0.18802744150161743,0.0755411833524704,-0.03152286261320114],[0.11323165148496628,-0.09269861876964569,0.10227832943201065,-0.04953231289982796,-0.010496830567717552,0.004243758972734213,0.029184529557824135,-0.07112818211317062,-0.03338761255145073,-0.015204916708171368,-0.009960738010704517,-0.016540788114070892,0.02101174369454384,0.014651309698820114,-0.117850661277771,-0.313923180103302,-0.03618931397795677,0.09095378965139389,0.06330405175685883,0.05812558904290199,-0.06606128066778183,-0.019133416935801506,-0.050908412784338,0.1731889396905899,-0.049985989928245544,0.11709755659103394,-0.03173375129699707,0.05609241873025894,0.003329441649839282,-0.04583917558193207,0.012156053446233273,-0.04583713412284851,0.10638018697500229,0.07741137593984604,0.05638914182782173,0.07923523336648941,0.009058786556124687,-0.03263280540704727,-0.09584470838308334,-0.08018501102924347,-0.009643171913921833,-0.04971840977668762,0.07510939985513687,0.11904526501893997,-0.05419204756617546,0.09382440894842148,0.023258142173290253,0.1284886747598648,-0.038051538169384,0.07493319362401962,-0.08714382350444794,-0.04547302797436714,0.1012176126241684,0.004994981922209263,0.09377970546483994,0.055476006120443344,0.08714953064918518,0.08240912854671478,0.0225781612098217,-0.07641840726137161,0.09495162963867188,0.07790414988994598,-0.0342613086104393,-0.08493418991565704,0.050008974969387054,-0.0989416316151619,0.003618285059928894,-0.018832366913557053,-0.09258175641298294,-0.03175541013479233,0.17757418751716614,-0.024913156405091286,-0.10683877021074295],[-0.021473035216331482,0.0035090195015072823,-0.0038085952401161194,0.09665033221244812,-0.07626257836818695,-0.03989294543862343,0.021490195766091347,-0.07802768796682358,-0.00876493938267231,0.07710050791501999,-0.08831659704446793,0.115134097635746,0.13238324224948883,-0.15231409668922424,0.26669153571128845,0.251019686460495,-0.037608079612255096,-0.11160718649625778,0.03140418976545334,-0.04497871920466423,0.10874470323324203,0.028730249032378197,-0.03583825007081032,-0.1049475222826004,-0.057101599872112274,-0.03364475071430206,-0.07085870951414108,-0.05479026213288307,-0.012918340973556042,0.0688837394118309,-0.07863827794790268,0.006403272971510887,0.1047491803765297,-0.11413581669330597,0.059206537902355194,-0.041013624519109726,0.11145426332950592,0.004178560804575682,0.08272521197795868,0.02288907952606678,0.05246531218290329,-0.0002691134577617049,-0.05216820538043976,0.0415092334151268,-0.07403698563575745,-0.08382318913936615,0.008392659947276115,-0.07310380041599274,0.13767050206661224,-0.05111730098724365,-0.13686519861221313,-0.056272152811288834,0.06177769973874092,-0.02986661158502102,-0.00788149144500494,0.06534447520971298,0.06232175603508949,-0.1738731861114502,-0.018743444234132767,-0.024215057492256165,0.01954272761940956,-0.019140025600790977,0.026350174099206924,-0.08501636236906052,0.042981378734111786,0.11214364320039749,-0.0284404456615448,-0.10716833174228668,-0.03310833126306534,-0.03575566038489342,-0.21638177335262299,0.07197126001119614,0.12028729915618896],[0.1172172799706459,-0.029664093628525734,-0.077257439494133,-0.0741339847445488,0.016185197979211807,-0.006193895358592272,0.010353200137615204,-0.05798138305544853,0.04259098693728447,0.059593565762043,0.0342816486954689,0.09300898760557175,-0.00041648338083177805,-0.09463062137365341,0.2850945293903351,0.24839429557323456,0.07200527936220169,-0.014179203659296036,0.08132647722959518,-0.08175873011350632,0.03685249015688896,0.11174585670232773,-0.009479858912527561,-0.08713145554065704,-0.10569509863853455,-0.011439924128353596,0.10558199137449265,-0.06245652958750725,0.08933499455451965,0.07433673739433289,0.04163279011845589,0.012529503554105759,-0.02268145978450775,-0.12809650599956512,-0.10540986806154251,0.08324269950389862,-0.00930541381239891,-0.07551409304141998,0.15132974088191986,0.09614749997854233,0.1775328814983368,-0.01193928625434637,0.06273447722196579,-0.11430560052394867,0.02619468793272972,-0.03910981863737106,0.00011229988012928516,-0.06225528568029404,0.0032249249052256346,-0.0007759915315546095,0.048149269074201584,0.05129392445087433,-0.06382139772176743,-0.04399427771568298,-0.1520191729068756,-0.040999725461006165,-0.08634956181049347,-0.2236233502626419,-0.10849346965551376,0.03551860526204109,0.09631682187318802,-0.12084218859672546,-0.027167242020368576,-0.0025175418704748154,0.07905780524015427,0.11737679690122604,0.014842994511127472,0.013778679072856903,0.07731875032186508,-0.15913616120815277,-0.23848845064640045,-0.09947311878204346,-0.037816137075424194],[0.010113299824297428,0.05579007416963577,0.058489955961704254,0.0968354344367981,-0.09226289391517639,-0.0019973209127783775,0.08265615999698639,0.05305270105600357,-0.10743433982133865,-0.10662499070167542,0.0853644385933876,-0.055497366935014725,0.04847690090537071,0.03209539130330086,-0.05922707915306091,-0.09542223066091537,0.04699260741472244,0.03420175239443779,-0.01659035123884678,-0.07240001857280731,-0.008218195289373398,-0.08604653924703598,-0.032195352017879486,-0.1273140162229538,0.03973843902349472,-0.03510056063532829,0.0010595452040433884,0.01734047383069992,-0.13893702626228333,-0.0775105208158493,0.10778102278709412,0.035619575530290604,0.07841531187295914,-0.07508306950330734,0.02513326145708561,0.04465661197900772,0.04316972568631172,-0.0003442965098656714,-0.1455402970314026,0.02397903800010681,-0.006544972769916058,-0.10387668758630753,-0.06920988857746124,-0.14078836143016815,-0.09970888495445251,-0.05676371604204178,0.066221684217453,-0.10150054842233658,0.04422512277960777,0.026577113196253777,0.03606735169887543,-0.05259375274181366,-0.015425696969032288,-0.02570384182035923,0.07259589433670044,0.0603879950940609,0.04904663935303688,-0.09323635697364807,-0.13069882988929749,-0.03348219394683838,-0.09606259316205978,-0.00842338427901268,0.0030809040181338787,-0.04053540155291557,0.010416187345981598,0.03500243276357651,-0.07822830975055695,0.0006578356260433793,0.07028884440660477,0.059251751750707626,0.040376927703619,-0.15637129545211792,0.03482121601700783],[0.11181075125932693,0.08956514298915863,0.10449167340993881,-0.03032156266272068,0.07016659528017044,0.0867316946387291,-0.09144176542758942,-0.020759129896759987,-0.03131084144115448,0.031200554221868515,-0.07839943468570709,0.05846955627202988,-0.09425432235002518,0.15609461069107056,-0.32351887226104736,-0.34974631667137146,-0.04270949214696884,-0.10039190202951431,-0.0027786288410425186,0.016718268394470215,-0.039423421025276184,0.09862936288118362,-0.06293250620365143,-0.017154084518551826,-0.02937677688896656,0.07265562564134598,0.012298036366701126,-0.036789849400520325,0.016971556469798088,0.004114517942070961,-0.061911385506391525,-0.009477301500737667,0.009053132496774197,0.10243677347898483,-0.05760263279080391,-0.009755888022482395,-0.12495721876621246,0.10980486124753952,-0.026352696120738983,0.013162506744265556,-0.07862203568220139,0.022827155888080597,0.10279268771409988,0.1563122272491455,-0.028574207797646523,-0.04363739490509033,-0.002747177379205823,-0.023218486458063126,0.031416356563568115,0.13518178462982178,-0.08223962783813477,0.10844893753528595,0.08564473688602448,0.1017833724617958,0.14690159261226654,0.048122625797986984,-0.04800146445631981,0.1340300589799881,-0.06158280745148659,0.09898679703474045,0.009549207054078579,0.055515699088573456,-0.0434337854385376,0.09526639431715012,-0.0910738855600357,0.01298495102673769,-0.02638985961675644,0.03250150755047798,0.015282921493053436,0.1270221620798111,0.09107110649347305,0.04493909701704979,-0.001159347710199654],[-0.10172305256128311,-0.01612774096429348,0.014209158718585968,-0.04326567053794861,0.08432143926620483,-0.06143265590071678,0.008820625953376293,-0.07678741216659546,-0.046533700078725815,0.002467954996973276,0.030074467882514,-0.09684539586305618,0.012854915112257004,-0.011952044442296028,0.2470567524433136,0.26065781712532043,0.030405446887016296,-0.054275888949632645,-0.03156012296676636,0.03733683377504349,0.09357419610023499,-0.12441329658031464,0.08703111112117767,0.025201240554451942,0.04134177044034004,0.002153512556105852,-0.03928674757480621,-0.02822500467300415,-0.09909094125032425,-0.014392385259270668,-0.14765945076942444,-0.020500140264630318,-0.037317972630262375,-0.16343021392822266,0.05129019916057587,0.05559857562184334,0.018278202041983604,-0.15217499434947968,-0.048832811415195465,0.10930789262056351,0.10524805635213852,-0.13074035942554474,0.02490364760160446,-0.0995219424366951,-0.005176239181309938,0.05697336047887802,-0.01455000601708889,0.09824962168931961,0.06019582226872444,-0.1312258094549179,0.05584561452269554,0.019674886018037796,0.08215166628360748,-0.05032570660114288,-0.05630749091506004,0.10568951815366745,0.03549095243215561,-0.1753065437078476,-0.11615588515996933,0.009835242293775082,0.014240016229450703,-0.13150231540203094,-0.10841775685548782,-0.05255383625626564,0.002620571991428733,-0.020059870555996895,-0.025870926678180695,-0.058577798306941986,-0.04613574594259262,-0.04383239522576332,-0.2143874317407608,-0.07911788672208786,-0.06226017326116562],[-0.021311702206730843,0.03020007722079754,-0.07134663313627243,-0.09567060321569443,0.02337530255317688,-0.049974553287029266,0.14754371345043182,0.1330297440290451,-0.09416117519140244,0.03960778936743736,-0.08194075524806976,-0.07525959610939026,0.043109625577926636,0.012188495136797428,0.29032373428344727,0.34538862109184265,0.027394654229283333,-0.04904436692595482,0.019831113517284393,-0.0970865860581398,-0.06272514909505844,0.03574720770120621,0.12095772475004196,-0.13325124979019165,-0.01904849149286747,0.0668458640575409,0.09456197917461395,0.0280059352517128,0.07490390539169312,-0.08371724933385849,-0.11190562695264816,0.07176321744918823,-0.060051046311855316,0.03717510402202606,0.06756582111120224,0.01954805664718151,-0.07012877613306046,0.030695268884301186,0.09688544273376465,0.0795467421412468,0.22624877095222473,-0.0038395861629396677,0.005431942641735077,-0.15505214035511017,-0.059890419244766235,-0.08580944687128067,0.00572635792195797,0.0854320153594017,0.029466204345226288,-0.04082634299993515,-0.1108919009566307,-0.011044385842978954,-0.03953488543629646,0.010053738951683044,-0.04461051523685455,-0.03537210077047348,-0.06539548933506012,-0.05026344209909439,-0.027075445279479027,-0.09311172366142273,-0.038502249866724014,-0.015975311398506165,0.0673995167016983,0.0762987807393074,-0.04454109072685242,0.017552493140101433,-0.09873778373003006,-0.17150236666202545,-0.07717975974082947,0.041697148233652115,-0.18401043117046356,-0.12048018723726273,0.0815666988492012],[-0.028149502351880074,-0.01448510680347681,0.05361466854810715,0.02779548615217209,0.09686515480279922,-0.06771981716156006,0.030558796599507332,0.05830487981438637,-0.09238038212060928,-0.09188295155763626,0.062147412449121475,-0.029614202678203583,0.15193751454353333,-0.0490531362593174,0.2197578102350235,0.2329104095697403,0.02252795174717903,0.08993441611528397,-0.04857223108410835,0.006758121773600578,-0.03552261367440224,0.05125804990530014,0.030337663367390633,-0.10395348817110062,0.058609116822481155,-0.07219519466161728,0.07224041223526001,0.11464611440896988,0.12031484395265579,-0.0394161231815815,-0.1157500296831131,0.10957298427820206,-0.08144279569387436,-0.08903909474611282,0.038408707827329636,0.03991689905524254,-0.010451295413076878,-0.005855557043105364,0.051833439618349075,-0.030078601092100143,0.2269299030303955,-0.06757479161024094,0.055011309683322906,-0.08851227909326553,0.03829295560717583,0.010185453109443188,0.0024041153956204653,0.057872481644153595,0.04642266407608986,0.057823386043310165,0.04471951350569725,-0.10827668756246567,0.0672195702791214,0.047164976596832275,-0.1321391463279724,0.08472342789173126,0.023729288950562477,-0.06044795736670494,0.00981224700808525,-0.04667680338025093,0.07221820950508118,0.0471901036798954,-0.06701632589101791,0.07910990715026855,-0.008300342597067356,0.10501618683338165,-0.08481945097446442,-0.17202015221118927,0.048982925713062286,-0.07128030806779861,-0.15116533637046814,-0.10122791677713394,-0.04293990135192871],[0.03299037367105484,-0.0708920881152153,-0.09744446724653244,0.0479375496506691,-0.017842981964349747,-0.03230086714029312,0.02151011861860752,-0.01539069414138794,-0.08323326706886292,0.07284381985664368,-0.058477580547332764,-0.02549561858177185,-0.02407834678888321,-0.0051869857124984264,-0.24292045831680298,-0.2429838478565216,-0.09463696926832199,-0.030875900760293007,0.03129061311483383,-0.049875617027282715,-0.013330505229532719,-0.11131419986486435,-0.14597950875759125,0.13183696568012238,0.08367092907428741,0.10791933536529541,-0.08176549524068832,-0.10636726021766663,-0.09074907004833221,0.010419380851089954,0.11539176851511002,-0.04408382624387741,0.049042247235774994,0.03225065767765045,-0.04374435171484947,-0.023257672786712646,0.022456569597125053,0.0861729308962822,0.041043270379304886,0.012524443678557873,-0.12644866108894348,0.10526541620492935,-0.045862168073654175,0.07394494116306305,-0.03185168653726578,0.09273374825716019,-0.008400458842515945,-0.03788745403289795,0.0025221770629286766,0.08510144799947739,-0.08327552676200867,0.04093177989125252,0.09079678356647491,-0.04796764627099037,0.10970336943864822,-0.04138200730085373,0.014671294949948788,0.03664960712194443,0.04150810465216637,-0.0015783410053700209,-0.09053114801645279,0.12158968299627304,-0.02289448492228985,-0.010682113468647003,0.024911563843488693,-0.08278152346611023,0.04648802429437637,-0.007432336453348398,-0.1170317754149437,0.1650741547346115,0.07037001103162766,0.13378219306468964,0.04432462900876999],[0.09080953896045685,-0.0726902112364769,0.04609725624322891,-0.08541998267173767,-0.012769445776939392,-0.08277531713247299,-0.10516291856765747,-0.013413996435701847,0.1360854208469391,0.07175572216510773,0.06982803344726562,-0.03744882345199585,-0.17458575963974,0.1235034167766571,-0.1806001216173172,-0.1982661634683609,0.060767970979213715,0.06847810000181198,-0.0895792543888092,-0.11075278371572495,0.07827604562044144,-0.07502882927656174,-0.05023039132356644,-0.022224735468626022,0.09889277815818787,0.11612748354673386,0.11135435849428177,-0.013395465910434723,-0.06764184683561325,-0.029228346422314644,-0.02174900658428669,0.039375271648168564,-0.07037229835987091,-0.04353070631623268,-0.02266211435198784,0.052036430686712265,0.0051856026984751225,0.042923737317323685,0.03550594672560692,0.04952673241496086,-0.22780750691890717,0.05019419267773628,-0.05536143109202385,0.07573433965444565,-0.10276170074939728,0.05365557223558426,-0.07558687776327133,0.09237363934516907,-0.12682364881038666,0.06573605537414551,0.08622205257415771,-0.08791941404342651,-0.10845424234867096,0.05571405962109566,-0.03226586431264877,0.04028302803635597,-0.005942625924944878,0.20947140455245972,0.06533999741077423,-0.037785355001688004,-0.0908675342798233,0.013863731175661087,-0.03941408544778824,-0.07862357795238495,0.07713035494089127,-0.09996549040079117,0.0532364621758461,0.02582375891506672,-0.01397848129272461,-0.007129428442567587,0.10484065860509872,0.0945572778582573,0.10047408938407898],[-0.10414988547563553,0.009080545976758003,-0.004663519561290741,-0.07273309677839279,0.04455387219786644,0.04909920319914818,0.045934490859508514,0.03100545145571232,0.06925833970308304,-0.005304235965013504,0.00732083385810256,-0.06814932823181152,-0.024162668734788895,0.08016699552536011,-0.1803283989429474,-0.37762650847435,0.076353520154953,0.03359992802143097,-0.07883921265602112,0.05163182318210602,-0.07956443727016449,0.016137881204485893,0.02472880855202675,-0.0061026341281831264,0.011351950466632843,-0.04860252887010574,0.0385308563709259,0.012572042644023895,0.025863824412226677,0.07664905488491058,0.07801919430494308,0.11819598823785782,0.07433997094631195,0.060442350804805756,-0.09409096837043762,-0.07009216398000717,0.08765992522239685,-0.09801547974348068,-0.16221514344215393,-0.10264457017183304,-0.20710884034633636,0.014824632555246353,0.048967279493808746,0.10287715494632721,0.08871844410896301,0.022792061790823936,-0.020893188193440437,0.027962470427155495,0.033773232251405716,-0.07275732606649399,-0.06483929604291916,0.04996379092335701,-0.04241641238331795,0.04711032658815384,0.19217753410339355,0.07808911800384521,-0.0025139939971268177,0.19788944721221924,0.13871000707149506,0.08481437712907791,0.11360787600278854,0.029741209000349045,-0.030632127076387405,-0.09855315834283829,-0.08070246130228043,0.02034829556941986,-0.05548067018389702,0.007606680039316416,-0.11038725078105927,0.019985629245638847,0.16205404698848724,-0.059173643589019775,-0.017578618600964546],[0.11089850217103958,-0.0343516543507576,-0.05344131588935852,-0.024782845750451088,0.06649596244096756,0.002650642767548561,0.06475678831338882,0.04089619964361191,0.11945009976625443,-0.0316372849047184,0.08040548115968704,0.06111280247569084,0.028842395171523094,-0.07097002863883972,0.18240457773208618,0.15241695940494537,-0.18001902103424072,0.057938769459724426,-0.04503985121846199,-0.05629750341176987,0.11510077863931656,-0.09195470064878464,-0.07994870841503143,-0.10252566635608673,-0.0980433002114296,0.01918618194758892,-0.11358687281608582,0.06700696796178818,0.12582989037036896,0.004087533336132765,0.03348516672849655,-0.026070373132824898,0.015244672074913979,-0.029875654727220535,0.06650277972221375,0.08216597139835358,-0.09145613759756088,-0.1129656732082367,-0.014466394670307636,-0.06091459095478058,0.1497517079114914,-0.03537861257791519,-0.07085748761892319,0.020435160025954247,0.017951613292098045,-0.060287028551101685,-0.001998731167986989,0.047075413167476654,-0.05313252657651901,-0.037999227643013,-0.059850387275218964,-0.09584789723157883,-0.05171798914670944,-0.05035325884819031,-0.05452941358089447,-0.040507812052965164,-0.04954415187239647,-0.036062322556972504,-0.0725574940443039,0.058957476168870926,-0.06323027610778809,-0.06956351548433304,-0.09407814592123032,0.0390443429350853,0.1167319044470787,-0.02693658322095871,-0.049665577709674835,-0.025578651577234268,0.08267416805028915,-0.10384800285100937,-0.034619979560375214,-0.01455615647137165,-0.0964139923453331],[0.050192467868328094,-0.02565639838576317,0.09465248137712479,-0.02021288499236107,0.07762520760297775,0.061248671263456345,-0.1005282998085022,-0.041669465601444244,-0.04680263623595238,0.004814201034605503,-0.10227625072002411,-0.06339824199676514,-0.11278857290744781,0.15022455155849457,-0.32211384177207947,-0.20329396426677704,-0.04219726100564003,0.0987888053059578,0.03019024431705475,-0.02025112509727478,0.025379803031682968,-0.07782912254333496,-0.10811245441436768,0.06632180511951447,-0.009166501462459564,0.09679265320301056,-0.02158130146563053,0.005334377288818359,-0.07958009839057922,-0.06956692039966583,0.06820884346961975,0.025447597727179527,-0.017038682475686073,0.1559237390756607,-0.028469564393162727,0.09123347699642181,-0.0477411188185215,-0.07732977718114853,-0.023591790348291397,-0.015736207365989685,-0.08874773234128952,-0.06834116578102112,-0.0729621946811676,0.010571231134235859,0.09238892793655396,0.041670914739370346,0.051819320768117905,-0.047740086913108826,-0.04437015578150749,0.06776432693004608,-0.04840860888361931,-0.011260082013905048,-0.060691531747579575,-0.03503549098968506,0.20845390856266022,0.08753439784049988,0.09738847613334656,0.07848352938890457,0.059153273701667786,0.076877161860466,0.002687677275389433,0.08631154894828796,-0.0031579395290464163,-0.02488439716398716,-0.11352294683456421,-0.09608505666255951,0.06938288360834122,0.19176387786865234,-0.0014074742794036865,0.16553910076618195,0.0650612935423851,0.01689470373094082,-0.029638830572366714],[0.0895378515124321,-0.038364894688129425,0.03521374613046646,0.12774790823459625,-0.07582588493824005,0.07113093137741089,-0.06702550500631332,-0.06880921870470047,0.07420770078897476,-0.023122714832425117,-0.04718529433012009,0.079099141061306,0.03157612681388855,-0.11382628977298737,0.200789213180542,0.13975080847740173,0.07581264525651932,-0.019810477271676064,0.01813334785401821,0.04544930160045624,0.13884806632995605,0.004136878531426191,0.12227094918489456,0.033744219690561295,-0.1191297098994255,0.08725785464048386,0.07049980759620667,0.09127720445394516,0.0762118473649025,-0.037181124091148376,0.04761862754821777,-0.004369353409856558,0.007831810042262077,-0.09656810760498047,-0.009422131814062595,-0.06436777859926224,0.027041621506214142,-0.10713716596364975,0.01601588726043701,-0.07435429841279984,0.06430502980947495,0.04313510283827782,0.034280382096767426,-0.17348134517669678,0.040442176163196564,0.0008352076401934028,0.016863681375980377,-0.02779320999979973,-0.017140598967671394,-0.06786658614873886,0.05157320573925972,0.07045836746692657,-0.061474401503801346,0.07643209397792816,-0.13858917355537415,-0.020828764885663986,0.05016947537660599,-0.05145440250635147,-0.0898485779762268,0.07045616209506989,0.083330899477005,-0.0876593366265297,0.0670456662774086,0.03873082250356674,0.05944807827472687,0.05910399183630943,-0.04903530329465866,0.02530180849134922,-0.03489585220813751,-0.07682520896196365,-0.18670207262039185,-0.0399184376001358,0.11643623560667038],[0.11159671097993851,0.08724601566791534,-0.044736266136169434,0.07108810544013977,-0.06175742298364639,-0.006677580997347832,-0.0799347534775734,-0.05449974909424782,-0.04675028473138809,0.0522589236497879,0.054267581552267075,0.10735135525465012,0.026125257834792137,-0.023442886769771576,-0.12383051961660385,0.049487512558698654,-0.018837714567780495,-0.031429264694452286,0.04396862909197807,-0.04199381545186043,0.04544646665453911,0.08367596566677094,-0.037811439484357834,0.16329722106456757,0.05435633286833763,0.06686114519834518,-0.10122543573379517,0.03756309300661087,0.0018337450455874205,-0.048355598002672195,0.01717652566730976,-0.06863071769475937,-0.004372405353933573,0.002365928143262863,0.10869965702295303,-0.041482143104076385,0.1193414106965065,0.10438111424446106,-0.01773550733923912,0.036251001060009,-0.033085063099861145,-0.07227826863527298,-0.08182049542665482,-0.03519021347165108,-0.013040372170507908,-0.007047795224934816,0.01262630708515644,0.012160993181169033,-0.11204598098993301,-0.027780933305621147,-0.06221101060509682,0.07915137708187103,-0.02196105383336544,0.011886940337717533,-0.024962108582258224,0.06573634594678879,0.051028233021497726,0.07351677119731903,0.01667136512696743,-0.05673965439200401,-0.08916708827018738,-0.09493353217840195,-0.07194001972675323,0.036113787442445755,0.06578709930181503,0.0034490409307181835,-0.05498651787638664,0.00722973607480526,0.08040518313646317,0.04458601400256157,0.011612631380558014,-0.013761910609900951,-0.031976111233234406],[0.0689484253525734,-0.05287870764732361,-0.0005629211664199829,-0.06076071038842201,0.1029975488781929,-0.051151763647794724,0.09184028953313828,-0.12315017729997635,0.04388558119535446,0.060913801193237305,0.03743303567171097,0.09427377581596375,0.13352516293525696,0.0036360002122819424,0.12375562638044357,0.3094950020313263,-0.06567809730768204,-0.09535981714725494,-0.028926745057106018,0.07791464775800705,0.10156502574682236,0.029677938669919968,-0.04277728125452995,-0.07873562723398209,-0.10825887322425842,-0.037208959460258484,0.0965651422739029,-0.05330416560173035,-0.07849671691656113,0.03718727454543114,0.0038646592292934656,0.03299141675233841,-0.03871434926986694,0.026441404595971107,-0.1601276844739914,-0.1255379021167755,-0.012751687318086624,-0.03974330425262451,0.08037328720092773,0.07985556870698929,0.09456833451986313,-0.10469666868448257,0.099533312022686,-0.13831722736358643,0.029141370207071304,-0.13000808656215668,-0.0274221021682024,-0.014455590397119522,-0.055708810687065125,-0.026428241282701492,-0.09692519903182983,-0.10788261145353317,-0.10325462371110916,-0.09904401749372482,-0.07739768922328949,-0.021259743720293045,0.09779420495033264,-0.04117569327354431,0.10237374901771545,-0.10252083092927933,0.027048414573073387,0.0559108629822731,-0.07641294598579407,0.025127658620476723,-0.093569315969944,-0.004596371669322252,-0.002762138843536377,-0.021523568779230118,-0.07495518028736115,-0.06383305042982101,-0.1325390487909317,0.02020450308918953,0.10262139141559601],[-0.09215141087770462,-0.08835059404373169,-0.05300481617450714,-0.10453960299491882,-0.07226396352052689,-0.07141271233558655,0.0629706084728241,0.09136272966861725,0.04083188995718956,-0.0950995683670044,0.05087639391422272,0.06877563893795013,-0.07695301622152328,0.012457657605409622,-0.15402983129024506,-0.2509068548679352,-0.01268041878938675,0.05111966282129288,0.09354208409786224,0.08645482361316681,-0.1131574735045433,0.04003627970814705,-0.14191757142543793,-0.04090290889143944,-0.02493283897638321,-0.01177605614066124,-0.08386062830686569,-0.09085199236869812,0.07902432978153229,0.10039474815130234,0.046538930386304855,-0.04226094111800194,-0.06625358760356903,0.05176085978746414,-0.011170661076903343,0.06948873400688171,0.010140528902411461,-0.05575866624712944,0.022645732387900352,0.03707778453826904,-0.07116667926311493,-0.062018416821956635,-0.011098332703113556,0.023456808179616928,-0.11418358236551285,0.0028084940277040005,0.07032819837331772,0.10117454081773758,0.06845570355653763,-0.019741710275411606,-0.06934069842100143,-0.05101707950234413,0.022259118035435677,-0.03424825146794319,-0.03706910088658333,0.0061088125221431255,0.005430657882243395,0.20477089285850525,-0.0714988186955452,0.07816147059202194,0.0658658817410469,0.15058866143226624,0.008835353888571262,0.030548201873898506,-0.06734073162078857,-0.02874499373137951,-0.027889885008335114,0.17191646993160248,0.025274105370044708,-0.044084176421165466,0.14011535048484802,0.06693091243505478,-0.0018067609053105116],[0.00519487215206027,-0.006528094876557589,-0.11356823146343231,-0.053742412477731705,0.12649138271808624,-0.01903569884598255,0.10332589596509933,0.015187964774668217,-0.05889897793531418,0.03433842584490776,0.047908928245306015,-0.07697763293981552,0.034947410225868225,-0.09147413074970245,0.03110050968825817,0.06735564023256302,-0.00860640313476324,-0.005014588125050068,0.023057736456394196,-0.027528977021574974,-0.044234685599803925,0.025245172902941704,0.03609069436788559,0.03588329255580902,0.11286669969558716,0.052452169358730316,0.12410379201173782,-0.026036351919174194,0.029093638062477112,0.08561642467975616,-0.006030005402863026,0.0718723013997078,-0.04723869636654854,-0.11454545706510544,-0.06504825502634048,-0.024354038760066032,0.01239381730556488,-0.06662844121456146,-0.02347640134394169,0.004838128574192524,0.13251785933971405,-0.013202867470681667,0.09171286970376968,-0.06443073600530624,0.05415559932589531,0.08933425694704056,-0.028708336874842644,-0.0953337624669075,0.05842786282300949,0.07325352728366852,0.01813671551644802,0.042153019458055496,-0.09626490622758865,0.03727377578616142,-0.0676545575261116,0.0652075782418251,0.055749230086803436,0.001674692495726049,0.054832618683576584,0.00895555131137371,-0.028316043317317963,0.06124125421047211,-0.036329276859760284,0.03077763132750988,0.03443768620491028,0.12583093345165253,-0.10103874653577805,-0.13459958136081696,-0.07839266955852509,-0.04882053658366203,0.08898705989122391,0.046216998249292374,-0.08119175583124161],[-0.0011048918822780252,-0.02849448472261429,-0.017501436173915863,0.12792140245437622,-0.04323691874742508,0.0436319075524807,-0.048986054956912994,0.1109888106584549,-0.06853079795837402,0.05704552307724953,-0.02428826317191124,-0.07377688586711884,0.10014475882053375,-0.14632822573184967,0.2652183175086975,0.3835386633872986,0.04932014271616936,-0.057852957397699356,-0.016356194391846657,-0.01590615138411522,0.12794983386993408,-0.04004596546292305,0.12162476032972336,-0.03746754303574562,-0.06040182709693909,-0.04799490049481392,-0.05116967111825943,0.10921885818243027,0.05969877913594246,0.0684647262096405,-0.10663547366857529,-0.03462870419025421,0.06299243867397308,-0.1558353751897812,-0.1304144263267517,0.09644113481044769,-0.068486288189888,-0.09819399565458298,0.06329947710037231,-0.013351653702557087,0.24271099269390106,0.10697800666093826,-0.002833716571331024,0.050325363874435425,-0.09048633277416229,0.0838361456990242,-0.07319196313619614,-0.02669448032975197,-0.028687966987490654,-0.04721895977854729,-0.0815219059586525,0.008192887529730797,0.01671118102967739,0.021112412214279175,-0.048315148800611496,-0.08809177577495575,0.09749630093574524,-0.24688009917736053,-0.10677661746740341,-0.08892317116260529,0.11494706571102142,0.0413658432662487,-0.09410807490348816,-0.02080673538148403,-0.07008722424507141,0.1515817493200302,0.03879588097333908,-0.2007957547903061,0.05242345482110977,-0.030230173841118813,-0.05913512781262398,-0.043270695954561234,-0.09349191933870316],[-0.11188863962888718,0.1189160868525505,-0.03514803946018219,-0.016221920028328896,-0.07042185962200165,0.07025421410799026,-0.012615279294550419,0.018674153834581375,0.09979621320962906,0.05841672047972679,-0.08313793689012527,-0.02436462789773941,-0.012872658669948578,0.007159976754337549,0.24787284433841705,0.14739161729812622,0.14180466532707214,0.019575634971261024,-0.044443730264902115,-0.07230959832668304,-0.04170827567577362,0.060135938227176666,0.15918947756290436,0.07103518396615982,0.027735549956560135,0.05029062554240227,0.06661026179790497,-0.047928519546985626,0.0911308079957962,-0.09674539417028427,0.058313969522714615,-0.030675159767270088,0.08835753053426743,0.011232836171984673,-0.0973602831363678,0.050205834209918976,-0.05459289252758026,0.07329613715410233,0.07343534380197525,-0.09218911826610565,0.030946405604481697,0.05918598175048828,-0.06492763757705688,-0.029204070568084717,-0.01787574402987957,-0.05368250235915184,0.11166085302829742,-0.09877220541238785,0.012164977379143238,-0.10239116102457047,-0.1232074648141861,0.01464047096669674,-0.08674143254756927,-0.010415775701403618,0.03792215511202812,-0.047680579125881195,0.08483178168535233,-0.16085673868656158,0.07002062350511551,0.015679864212870598,0.10713331401348114,0.019169799983501434,0.09283418208360672,-0.08054174482822418,0.0059743598103523254,0.07034973055124283,0.07941494137048721,0.056043077260255814,-0.027955874800682068,0.021714195609092712,-0.04841000214219093,-0.04659126698970795,0.11400303989648819],[-0.08665993809700012,-0.09830202162265778,-0.06702658534049988,0.019526463001966476,0.05748733878135681,-0.0011143542360514402,0.04663145914673805,-0.019561875611543655,-0.02787468582391739,-0.03503592684864998,0.00393154751509428,-0.01924140565097332,-0.01787811890244484,-0.15637150406837463,0.12978646159172058,0.21580617129802704,-0.07739822566509247,0.08221181482076645,0.09618433564901352,-0.005372422281652689,0.08611920475959778,0.034139543771743774,0.0880441814661026,-0.02024701237678528,0.05875939503312111,0.011675834655761719,-0.07021277397871017,0.07992260903120041,0.043118916451931,0.04774805158376694,-0.10323671251535416,0.019546514376997948,-0.024311428889632225,-0.12874604761600494,-0.04644256457686424,-0.03185119107365608,0.08411551266908646,-0.12155993282794952,0.04479922726750374,0.07769101113080978,0.2379818707704544,0.059895411133766174,0.06140049546957016,0.018925439566373825,-0.08060351759195328,0.06743958592414856,-0.0024195462465286255,0.040347326546907425,-0.04604670777916908,-0.0016050782287493348,-0.11265086382627487,-0.1049049124121666,-0.08236430585384369,0.11109526455402374,-0.09438756853342056,-0.0964704304933548,-0.05747148022055626,-0.13146597146987915,-0.038887348026037216,-0.08858786523342133,-0.1041085347533226,0.05490501970052719,0.01095009595155716,-0.09190606325864792,-0.10526143014431,0.05330580845475197,-0.08739899843931198,-0.0769558697938919,-0.10344060510396957,-0.029069652780890465,-0.13928580284118652,-0.05314753204584122,-0.01603742502629757],[-0.06999418884515762,0.06333859264850616,0.01163693517446518,0.013770473189651966,0.14107470214366913,-0.06495790928602219,0.08732380717992783,-0.09545581787824631,0.06513863801956177,-0.11949329823255539,0.033687956631183624,0.03173205628991127,0.10679618269205093,-0.010394573211669922,0.2066120058298111,0.32708489894866943,-0.057499710470438004,-0.11289527267217636,0.09452547878026962,0.07556871324777603,-0.028064139187335968,0.03732488304376602,-0.05035366117954254,-0.10591436177492142,-0.014030120335519314,0.00589383952319622,-0.08536648005247116,0.04103837162256241,0.028615595772862434,-0.07397659868001938,-0.0008865413838066161,0.0876479223370552,0.03553027659654617,-0.08492495119571686,0.04541659355163574,0.08240161836147308,-0.0010635409271344543,0.0003976574807893485,-0.004432333633303642,0.03789687529206276,0.20577342808246613,-0.004753881134092808,0.002656608819961548,-0.09247882664203644,0.07742122560739517,0.002721949014812708,-0.08033131062984467,0.0841929167509079,-0.0676739439368248,0.03961076959967613,0.06592607498168945,-0.0449802465736866,-0.10263235121965408,-0.09264174848794937,-0.18821333348751068,0.046739060431718826,-0.0894637256860733,-0.23233239352703094,-0.06001485511660576,-0.09782355278730392,-0.024607215076684952,-0.11602693796157837,-0.02260754443705082,-0.06038703769445419,0.05520845204591751,0.027851101011037827,0.013211451470851898,-0.13834519684314728,0.09764289110898972,-0.08656799793243408,-0.08842075616121292,-0.10791255533695221,0.06438449025154114],[0.043263029307127,-0.08731207996606827,-0.003357402980327606,-0.03742317855358124,-0.04122259095311165,0.09231548011302948,0.04570496454834938,-0.06235111877322197,0.043274711817502975,-0.024056917056441307,-0.10179831832647324,-0.01905064284801483,-0.08695171028375626,0.06306172907352448,-0.23628968000411987,-0.26135700941085815,-0.0017093118513002992,0.07341738045215607,-0.10665787756443024,-0.11149420589208603,0.020473353564739227,-0.02382597140967846,-0.13026605546474457,-0.04769853502511978,0.07594597339630127,0.005542944651097059,0.06647644191980362,-0.06989730894565582,0.09795715659856796,0.04688539728522301,0.14785578846931458,-0.07177595049142838,-0.09500045329332352,0.0738411471247673,-0.01815282367169857,0.05824948474764824,0.07340426743030548,-0.007900997996330261,-0.11931801587343216,-0.0824027881026268,-0.07254188507795334,-0.03891116753220558,0.07297057658433914,0.15894784033298492,0.007788181304931641,-0.020477499812841415,0.09451554715633392,0.040183600038290024,0.031184624880552292,-0.05928930640220642,0.020865485072135925,-0.06214483827352524,-0.09608425199985504,0.07138080149888992,0.013669641688466072,0.0463031642138958,-0.030038349330425262,0.15788781642913818,0.054911017417907715,0.03256988152861595,0.10524123907089233,-0.045313335955142975,-0.09417568892240524,0.10077368468046188,0.047293417155742645,0.06627790629863739,0.11688413470983505,0.0056291669607162476,0.11674883216619492,0.04412928968667984,0.19305352866649628,-0.0913996696472168,0.07199075073003769]],"bias":[-0.09899161010980606,0.10235973447561264,-0.015835177153348923,-0.005162424873560667,-0.02609308622777462,0.011797104962170124,0.03442410007119179,-0.0704793781042099,0.035632967948913574,-0.08620515465736389,0.0020054683554917574,0.08656932413578033,0.031137170270085335,-0.03195328637957573,0.058917250484228134,-0.013564256019890308,0.06764565408229828,-0.020040806382894516,0.10543975979089737,-0.029656223952770233,0.08659210801124573,-0.04567698389291763,0.028159135952591896,-0.052369579672813416,0.08270308375358582,-0.08003499358892441,-0.07416177541017532,0.026194125413894653,0.03024609386920929,0.09097748249769211,0.020966608077287674,0.07754760980606079,-0.061046745628118515,0.049444735050201416,0.01665346883237362,-0.010260048322379589,0.09486599266529083,0.040764451026916504,0.018059343099594116,0.0765412449836731,0.019186347723007202,-0.09458491206169128,-0.0328911691904068,0.0072812410071492195,0.06958794593811035,-0.113064706325531,-0.01282469555735588,-0.05654162913560867,-0.050188567489385605,0.07736188173294067,0.0005169964861124754,-0.10674239695072174,-0.06798383593559265,-0.07325892895460129,0.04949887841939926,0.009288123808801174,-0.024706466123461723,0.08514529466629028,-0.05862187594175339,-0.018111025914549828,-0.02353093773126602,0.05432206019759178,-0.0972876027226448,0.043282922357320786]},{"weight":[[-0.08853288739919662,-0.011896149255335331,0.03939717635512352,-0.013432676903903484,-0.1790839582681656,-0.05459076166152954,0.07323555648326874,0.006537667941302061,-0.022217031568288803,-0.04335698112845421,0.01675935834646225,-0.13432829082012177,-0.10685991495847702,-0.004765594378113747,-0.026527164503932,-0.046984702348709106,0.1311323195695877,-0.06932921707630157,-0.07569441944360733,-0.012721603736281395,-0.07251425832509995,0.07038429379463196,0.022684236988425255,0.018368568271398544,0.06045358255505562,0.07708507031202316,0.033658865839242935,0.06505916267633438,-0.0037195030599832535,-0.06640753895044327,-0.03197812661528587,0.061575617641210556,-0.013239056803286076,0.0023420071229338646,0.052573226392269135,0.07282606512308121,0.05494208261370659,-0.068435437977314,0.1507028490304947,0.061889033764600754,-0.031131140887737274,-0.09993619471788406,-0.08431532233953476,0.015047278255224228,-0.05991987884044647,0.17928816378116608,0.019370371475815773,-0.04878826439380646,-0.04131786525249481,0.08707770705223083,-0.04092254489660263,0.1190134584903717,-0.027937544509768486,0.01472384575754404,-0.05120090767741203,-0.019819319248199463,-0.10917271673679352,0.061626579612493515,-0.012406154535710812,0.04814964905381203,-0.06592860072851181,-0.11111791431903839,0.028800465166568756,-0.02754630707204342],[0.10110211372375488,0.0945538580417633,0.1411871314048767,-0.0786927342414856,-0.15320897102355957,-0.09030288457870483,0.026046467944979668,0.016717063263058662,0.021048029884696007,-0.11408810317516327,0.04250341281294823,-0.09321274608373642,-0.07301823049783707,-0.027204353362321854,-0.05009560286998749,0.0555778332054615,0.040237221866846085,-0.07913869619369507,-0.09939603507518768,0.09348557144403458,