{"type":"sb3_ppo_actor_tanh","policy_layers":[{"weight":[[0.13931035995483398,-0.006792264059185982,-0.058197472244501114,-0.09311763942241669,0.030662283301353455,0.029168521985411644,-0.1116739809513092,-0.017786255106329918,0.1863376349210739,0.12044001370668411,0.05208456143736839,0.0874452218413353,0.03932404890656471,0.014527009800076485,-0.26965436339378357,-0.5624088644981384,0.09359584748744965,0.10411697626113892,-0.1314631849527359,-0.011083870194852352,-0.09979164600372314,-0.17866727709770203,-0.013718564063310623,0.05711193010210991,0.06786376982927322,0.18801960349082947,0.0646914467215538,0.0075598168186843395,-0.04806944727897644,0.062158454209566116,0.0727931410074234,-0.053802717477083206,-0.03348710015416145,-0.0869535580277443,0.026094768196344376,0.10042659938335419,0.12474951148033142,0.051121555268764496,0.04673396050930023,-0.030929530039429665,-0.1349274069070816,-0.1525779813528061,0.12168624252080917,-0.16867248713970184,0.05218750610947609,0.016596730798482895,0.0649639219045639,0.047528140246868134,0.11030202358961105,-0.07151376456022263,0.024500684812664986,0.11361720412969589,0.28343167901039124,-0.02352261357009411,0.16447634994983673,-0.07963605225086212,0.018000474199652672,0.3025970160961151,0.023183198645710945,-0.043600283563137054,0.04715980589389801,-0.0056193056516349316,0.01989670842885971,0.20837250351905823,0.1085667610168457,0.0719805434346199,-0.10922612994909286,0.25945937633514404,0.11217404901981354,0.10554566979408264,0.16780565679073334,0.014968439936637878,0.07447340339422226],[-0.040657661855220795,-0.0031705228611826897,-0.033012520521879196,0.0957987830042839,0.01257654931396246,0.029814966022968292,-0.018829435110092163,-0.07268203049898148,0.12897151708602905,0.08919265866279602,0.037543002516031265,0.055641964077949524,-0.03013690374791622,-0.10040884464979172,-0.10141552239656448,-0.23159480094909668,-0.025753187015652657,-0.14855635166168213,-0.13415378332138062,0.03107604570686817,-0.0026743728667497635,0.030681142583489418,0.16417165100574493,-0.13110685348510742,0.1253444403409958,0.04052586480975151,0.062237124890089035,0.0365285649895668,0.026555873453617096,0.017310218885540962,-0.10010787099599838,-0.0037410473451018333,0.2221614569425583,0.05705476924777031,0.08251642435789108,-0.0019960934296250343,-0.02527516335248947,-0.09901734441518784,-0.038628995418548584,-0.013414005748927593,-0.04173850640654564,-0.09408091753721237,0.10018546879291534,0.16116906702518463,0.027134690433740616,-0.004318727180361748,-0.12057970464229584,0.0728897675871849,0.19997990131378174,0.026815662160515785,0.08322832733392715,0.029041029512882233,-0.053726810961961746,-0.14118321239948273,0.058820564299821854,0.055206965655088425,0.01924274116754532,0.07873576879501343,0.03685280680656433,-0.027535196393728256,0.07781034708023071,0.14610795676708221,-0.04397090896964073,-0.1364448070526123,0.08411401510238647,0.12772470712661743,-0.0008047459996305406,-0.10756751149892807,0.20476695895195007,0.22903691232204437,0.6369706392288208,0.13466422259807587,0.08693143725395203],[0.041087035089731216,0.03637486696243286,0.10488782823085785,-0.1989860087633133,0.09983988851308823,0.010704240761697292,0.03660983219742775,-0.0037535312585532665,0.032906580716371536,0.08663374930620193,0.1462794691324234,0.004088286776095629,-0.1324934959411621,0.14206568896770477,-0.13514548540115356,-0.39306092262268066,-0.1339651495218277,-0.012003251351416111,-0.02115517295897007,-0.21777111291885376,0.03384387493133545,-0.0766548439860344,-0.06738270819187164,-0.10046452283859253,0.10011936724185944,0.028262745589017868,0.05652584880590439,-0.09736496210098267,-0.05414118617773056,0.07099122554063797,-0.19173607230186462,-0.11092362552881241,-0.1306261569261551,0.14537528157234192,-0.0339246429502964,0.1223161593079567,-0.045922983437776566,-0.08805467188358307,0.025107214227318764,-0.17748327553272247,-0.028974082320928574,-0.053573764860630035,0.0038891416043043137,0.011629078537225723,-0.05068614333868027,-0.10580459982156754,0.008949358016252518,0.05413050204515457,0.03571987524628639,0.00029789182008244097,0.08715653419494629,-0.06277510523796082,-0.04277152195572853,0.11591992527246475,-0.062465913593769073,0.1815558522939682,0.017409704625606537,0.06290479004383087,-0.14529989659786224,-0.04406586289405823,-0.09463945031166077,0.11028985679149628,-0.015821032226085663,0.0032070395536720753,-0.028634756803512573,0.02774862013757229,-0.010315915569663048,0.2818089425563812,-0.024172671139240265,-0.04781102389097214,0.03774961829185486,0.035516638308763504,-0.2655259668827057],[-0.23917371034622192,-0.0319504588842392,-0.001555937109515071,-0.036679960787296295,-0.06080479919910431,0.006399576552212238,0.0010659258114174008,-0.03766799718141556,-0.26238778233528137,0.04963277652859688,0.07726382464170456,0.18396343290805817,0.157936692237854,0.22785060107707977,0.2173570990562439,0.23481762409210205,0.15478193759918213,0.0016519837081432343,-0.0401822030544281,-0.11317059397697449,0.07856343686580658,-0.036199092864990234,-0.15433591604232788,0.07973572611808777,-0.05468450114130974,-0.021175386384129524,0.12099534273147583,-0.019378414377570152,0.1291305124759674,0.00235310522839427,-0.14026767015457153,-0.17445726692676544,-0.10732293874025345,-0.08625137060880661,0.09115000814199448,-0.08584287017583847,0.04738490283489227,0.1823127716779709,-0.03385387733578682,0.01204697135835886,0.12910109758377075,0.07111606746912003,0.005304771941155195,-0.1262074112892151,-0.006414071656763554,0.00586614478379488,-0.07887564599514008,-0.12494013458490372,-0.1660699099302292,-0.09665852785110474,0.1572681963443756,-0.010356894694268703,-0.06366544216871262,0.10425713658332825,-0.10967874526977539,0.041397824883461,0.04650139436125755,-0.08418067544698715,-0.036209192126989365,-0.044442616403102875,-0.07494062185287476,-0.03563777729868889,0.0134687265381217,-0.08411795645952225,0.0002517969987820834,-0.1013425961136818,-0.07098449021577835,-0.18357114493846893,0.11375463008880615,-0.14618252217769623,-0.3114580810070038,-0.15582114458084106,0.17000031471252441],[-0.02421269565820694,0.011676771566271782,0.11223714053630829,0.06470736861228943,-0.07919695228338242,-0.00954932440072298,0.10207846760749817,0.07201097905635834,-0.030163155868649483,0.03387393429875374,-0.03835023567080498,-0.06082829460501671,0.1567348688840866,-0.013415714725852013,0.1642606556415558,1.2043884992599487,0.10368543118238449,-0.03484303131699562,0.06225785240530968,0.019656825810670853,-0.05051792785525322,-0.02759747952222824,0.08693470060825348,-0.07670151442289352,-0.10742610692977905,-0.07411465048789978,0.0163413118571043,-0.0015580062754452229,0.013000184670090675,0.06721790134906769,0.00556847034022212,0.022414151579141617,0.06020331755280495,-0.14405719935894012,-0.07976691424846649,0.02650143764913082,-0.046814337372779846,-0.01085651945322752,-0.11693331599235535,0.00233133090659976,0.025317011401057243,0.007964588701725006,-0.09430541843175888,0.11847363412380219,0.2594025731086731,-0.08209101110696793,0.03944522887468338,-0.11156734824180603,0.02423904649913311,-0.05313807725906372,-0.03146319463849068,-0.009067404083907604,0.016291072592139244,0.07938642054796219,-0.09486231207847595,-0.011673668399453163,-0.038766611367464066,-0.10973506420850754,-0.007932391948997974,0.006559423170983791,0.035702601075172424,-0.07911176979541779,0.07032228261232376,0.04950733110308647,-0.09709835797548294,-0.06239696592092514,0.1507297158241272,-0.05362405255436897,-0.08323850482702255,-0.009140572510659695,-0.045315660536289215,0.028289398178458214,0.19204303622245789],[0.1219453439116478,-0.047960661351680756,-0.025356600061058998,0.0019642331171780825,-0.00587649317458272,0.02236981876194477,-0.006966315675526857,0.06069829687476158,0.03664770349860191,-0.005921702831983566,0.07292376458644867,0.12704777717590332,-0.23420566320419312,0.1910305768251419,-0.09183920919895172,-0.7162598967552185,-0.16247189044952393,-0.025245968252420425,-0.002540663816034794,-0.10221380740404129,0.005877213552594185,-0.08521481603384018,0.011425330303609371,0.08587316423654556,0.09840855002403259,0.056830041110515594,-0.10061565786600113,-0.20868021249771118,0.0986095741391182,-0.16483734548091888,0.13552245497703552,-0.2135017067193985,0.029267244040966034,0.021500928327441216,0.0499851331114769,0.09582844376564026,0.0930207297205925,0.08039867877960205,0.0474059134721756,0.03507302701473236,-0.02789902314543724,-0.0459873303771019,0.03565564379096031,-0.10703006386756897,0.04317175969481468,-0.00417605135589838,0.06370404362678528,0.0247364342212677,0.1005203053355217,0.0681908056139946,-0.004918789956718683,0.10443270206451416,-0.06678403168916702,-0.0020654958207160234,0.08042667806148529,0.05169496685266495,0.09194408357143402,0.057997073978185654,-0.06680407375097275,0.05246717855334282,-0.017886610701680183,0.08051177114248276,0.06963536888360977,-0.01994512230157852,0.01937824860215187,-0.24181684851646423,0.021386869251728058,0.14731861650943756,-0.04863164573907852,0.02763652801513672,0.045953936874866486,-0.01941625587642193,-0.16776522994041443],[-0.18538419902324677,-0.12728197872638702,-0.10863228142261505,-0.07124880701303482,0.04214257746934891,0.02104034461081028,0.06737972050905228,-0.17574605345726013,0.03417571261525154,0.08542776107788086,-0.01296632457524538,-0.02133367210626602,-0.2588161528110504,0.10196667909622192,0.27611222863197327,0.5681816339492798,-0.07202350348234177,-0.020566193386912346,0.003266110084950924,0.13896265625953674,0.019321059808135033,-0.07233855873346329,-0.1210634708404541,0.13345691561698914,0.050247885286808014,-0.01626996509730816,0.030085671693086624,-0.08094506710767746,0.018015719950199127,-0.0699038878083229,0.14430581033229828,-0.04455438628792763,-0.14754439890384674,0.1580112725496292,0.04919416084885597,0.06476007401943207,0.057635657489299774,0.2668248414993286,-0.18527038395404816,-0.00572991045191884,-0.07828526943922043,0.018175048753619194,-0.04405539482831955,-0.10183975100517273,-0.011797325685620308,-0.06869883835315704,0.018813256174325943,-0.10807931423187256,-0.0773186907172203,-0.16118863224983215,-0.057506609708070755,0.05878585949540138,-0.1290997713804245,0.07152212411165237,-0.2358637899160385,-0.10145694017410278,0.13839882612228394,-0.022498728707432747,0.07262199372053146,-0.13833685219287872,-0.03932599350810051,-0.0978902280330658,-0.16932213306427002,-0.10507138073444366,-0.13517948985099792,0.03213340416550636,0.13777194917201996,0.09587326645851135,0.0007768006762489676,-0.34565025568008423,-0.5330228805541992,-0.13945536315441132,-0.059403520077466965],[0.028881840407848358,-0.23308101296424866,0.23172986507415771,-0.09053844213485718,-0.019619973376393318,0.03695468604564667,0.037824880331754684,0.00709258858114481,-0.11123954504728317,0.0021806261502206326,0.11237755417823792,0.16693629324436188,0.09489639103412628,0.09283863753080368,-0.02246127650141716,-0.6909230947494507,0.07716026157140732,0.03894662484526634,0.09390948712825775,0.044064927846193314,-0.10613669455051422,0.19473639130592346,0.09554001688957214,-0.0009396936511620879,0.06337352097034454,0.059727851301431656,-0.02182561345398426,0.13515202701091766,-0.049985844641923904,0.017167890444397926,0.20921620726585388,0.2344883233308792,0.19606460630893707,-0.04627557471394539,0.08351452648639679,0.07383079081773758,0.1963827908039093,0.1063290610909462,0.10256587713956833,-0.17121601104736328,-0.1338152438402176,0.06504262983798981,-0.06912997364997864,-0.162522092461586,0.023603439331054688,0.02581404522061348,0.08312273770570755,-0.13055653870105743,-0.004615615122020245,-0.11804847419261932,-0.1359470635652542,0.07083597034215927,0.03611919283866882,-0.013641716912388802,0.061826132237911224,0.1460253745317459,0.03753304481506348,-0.1491837203502655,-0.06550859659910202,0.04641956835985184,-0.08656718581914902,-0.026367785409092903,0.02831018716096878,-0.017235655337572098,0.02524530701339245,-0.002385928761214018,0.030042478814721107,-0.04439946264028549,-0.03524109348654747,0.11738302558660507,-0.03760475665330887,-0.22035476565361023,0.31792736053466797],[0.14562441408634186,-0.20647872984409332,-0.017715424299240112,0.13052380084991455,0.06428775936365128,-0.02402300015091896,-0.08227632939815521,-0.09720668196678162,-0.054269224405288696,-0.04149549826979637,-0.11536750942468643,0.0988580584526062,-0.27015167474746704,0.11781257390975952,0.08645737916231155,-1.2359917163848877,0.022204553708434105,-0.012469545938074589,-0.08183039724826813,-0.0046267337165772915,0.17194154858589172,-0.013472964987158775,-0.09504498541355133,0.15806441009044647,-0.05953289195895195,0.041928499937057495,-0.1377713978290558,-0.10874158889055252,0.039970871061086655,0.221061572432518,-0.1136060580611229,0.1367783099412918,-0.16563035547733307,0.14380775392055511,0.017380353063344955,0.006338834762573242,0.04647793248295784,0.04977082461118698,0.16669002175331116,0.2606557011604309,-0.04689600691199303,0.041804440319538116,0.09905703365802765,-0.05685040354728699,0.024903221055865288,-0.015306496061384678,-0.07068181782960892,0.017307886853814125,-0.07938898354768753,0.03989090025424957,-0.012511130422353745,-0.0036995275877416134,-0.1378762423992157,-0.023386023938655853,0.07910284399986267,0.1105177104473114,0.07197420299053192,-0.01828126795589924,0.040237296372652054,-0.023218300193548203,-0.12879149615764618,-0.050048474222421646,-0.15176601707935333,-0.0026355974841862917,-0.04618547111749649,-0.17454245686531067,-0.03757074475288391,0.22407521307468414,0.02745981141924858,-0.0950113907456398,-0.2237568348646164,-0.06585864722728729,-0.095863476395607],[0.07111398130655289,-0.10570935159921646,-0.0025495903100818396,0.00994113925844431,-0.08629247546195984,-0.004491856787353754,-0.15960881114006042,0.208360493183136,-0.028437796980142593,0.15278908610343933,0.1523600071668625,-0.01105444598942995,0.059168729931116104,-0.18830536305904388,-0.2439279705286026,-0.7382438778877258,-0.011056629940867424,0.035539861768484116,0.3177216649055481,0.0050229900516569614,-0.08730924129486084,0.011250643990933895,0.009604922495782375,0.0567433163523674,0.09707863628864288,0.020319165661931038,0.013710664585232735,-0.045415088534355164,-0.03878346085548401,0.02651594765484333,-0.012228041887283325,0.10746236890554428,-0.028324419632554054,0.09379573911428452,-0.08261960744857788,0.04586579650640488,0.04308444261550903,0.14729103446006775,-0.00796621572226286,0.06505055725574493,0.1301659196615219,-0.0945337787270546,-0.06384838372468948,0.18094253540039062,0.07069825381040573,-0.08948684483766556,-0.04925820603966713,0.07310183346271515,-0.017492812126874924,0.04878615960478783,0.09378089010715485,0.002279658569023013,0.014378727413713932,-0.04864368960261345,0.20459745824337006,0.06442926824092865,0.055811960250139236,0.046310409903526306,0.11162809282541275,-0.03472507745027542,-0.057665057480335236,-0.049298908561468124,0.023033009842038155,-0.03432147577404976,-0.08334861695766449,-0.11757268011569977,0.0987296998500824,-0.028841128572821617,-0.16482116281986237,0.1416437029838562,0.20380111038684845,0.01629282720386982,0.18842215836048126],[-0.1502857357263565,-0.13064999878406525,0.019258832558989525,0.10585715621709824,0.13670344650745392,-0.10081828385591507,-0.14804942905902863,-0.06361472606658936,-0.037270598113536835,0.07708438485860825,-0.11734262108802795,-0.05465316399931908,0.07269524782896042,-0.05004745349287987,0.05588248372077942,1.0207664966583252,-0.009879759512841702,0.1344168335199356,0.1356036216020584,-0.07109334319829941,0.07176271080970764,-0.2095002830028534,0.0517788790166378,-0.17138902842998505,-0.10001367330551147,0.024481341242790222,-0.015229175798594952,-0.02284860610961914,-0.012448310852050781,-0.07403554022312164,-0.05081004649400711,-0.10629483312368393,0.014080661348998547,-0.31854382157325745,0.0722178965806961,0.06741879135370255,0.06948063522577286,0.07738744467496872,-0.23755419254302979,0.10624311119318008,0.08411381393671036,0.10624413937330246,-0.01809491589665413,-0.005460881162434816,-0.05162634700536728,0.01346556842327118,-0.04889877140522003,-0.02892293967306614,-0.08838053792715073,0.03818981721997261,-0.07257694751024246,0.0038382126949727535,0.07477781176567078,0.08322122693061829,-0.00786913838237524,-0.09926635026931763,-0.02808963507413864,-0.0070198411121964455,0.05507492274045944,0.04085954651236534,0.07249294221401215,0.19532983005046844,0.07636784017086029,0.005484041757881641,0.08311604708433151,0.0077861216850578785,-0.01768505945801735,-0.025033121928572655,-0.08586668223142624,-0.14855758845806122,0.04841059446334839,0.07645858079195023,-0.04702204838395119],[-0.009981668554246426,0.12613578140735626,-0.12062059342861176,0.03986845538020134,-0.0052797915413975716,0.002861545654013753,-0.09946800023317337,0.07958465069532394,-0.021563591435551643,0.020297052338719368,0.12035775929689407,0.168941929936409,0.020314402878284454,0.10091456770896912,0.12549971044063568,-0.7843883037567139,-0.11251901835203171,-0.06946537643671036,-0.03399987146258354,0.03202749788761139,-0.08793224394321442,0.043076977133750916,0.004349087364971638,-0.0536629818379879,0.08989609777927399,0.034291479736566544,0.11031482368707657,0.04280268773436546,0.07826901227235794,0.03728780895471573,0.1872348040342331,0.10245151817798615,-0.14044693112373352,0.0595422238111496,0.1410495936870575,-0.02578924037516117,0.1076798066496849,0.09690624475479126,0.18865984678268433,-0.04655105620622635,0.22538132965564728,-0.17949436604976654,0.087892085313797,-0.030010515823960304,-0.0004425004590302706,-0.03658267855644226,0.032083660364151,0.09417077153921127,0.020756542682647705,-0.0030787838622927666,0.009024088270962238,0.16227410733699799,-0.10566949099302292,0.0022759675048291683,0.05924174562096596,0.07170110195875168,0.10039325803518295,-0.18543347716331482,-0.0008607670897617936,0.05676375702023506,-0.060088276863098145,0.014597035013139248,0.026808010414242744,0.014982892200350761,-0.05769748240709305,0.04454388841986656,0.018791090697050095,-0.13763964176177979,-0.10023726522922516,-0.01651340164244175,-0.5550429821014404,-0.19228121638298035,0.12606275081634521],[0.012778259813785553,-0.033240508288145065,-0.09695941209793091,0.04440157115459442,-0.0042421212419867516,0.0019990827422589064,0.07496156543493271,0.005802875384688377,0.08021095395088196,-0.024172475561499596,-0.06752908229827881,0.08117765933275223,0.35651347041130066,-0.003496929770335555,-0.06107838824391365,-0.7944103479385376,-0.13494275510311127,-0.22896872460842133,-0.0321233831346035,0.07325679063796997,-0.02221730537712574,0.13728711009025574,0.05025891587138176,-0.0774521604180336,-0.005786331370472908,0.06086892634630203,-0.021899903193116188,0.10355852544307709,0.015122774057090282,0.02356124483048916,-0.2551317512989044,-0.04835546389222145,0.11001481860876083,-0.024658504873514175,-0.10313574969768524,-0.16703709959983826,0.0643346756696701,-0.24482157826423645,-0.18445491790771484,-0.16485850512981415,-0.0939650610089302,-0.08659586310386658,0.19725050032138824,-0.01800977811217308,-0.0564701110124588,-0.047219958156347275,-0.19924594461917877,0.06003236770629883,0.24481739103794098,-0.07260509580373764,-0.07315114140510559,-0.011176954954862595,0.04110768809914589,-0.029977897182106972,0.06842231750488281,-0.05208505690097809,-0.30134105682373047,0.10722355544567108,-0.007877936586737633,0.09183833748102188,0.016101650893688202,0.07891099154949188,0.011071977205574512,0.05359097197651863,-0.13643904030323029,-0.0330815352499485,0.014852643013000488,-0.062066737562417984,-0.048228997737169266,0.45880556106567383,0.548802375793457,0.12162688374519348,0.1997300386428833],[-0.015258334577083588,0.09028317779302597,0.04006174951791763,0.12642785906791687,0.037784334272146225,-0.0259340051561594,-0.01630258932709694,-0.07424814254045486,-0.09973985701799393,-0.09925495088100433,-0.17719833552837372,0.03108648583292961,0.19426089525222778,-0.1906977742910385,0.2146875411272049,0.43811148405075073,0.183249831199646,-0.03216208890080452,0.0368557833135128,-0.019720785319805145,0.007564045954495668,0.08567468822002411,0.1736362725496292,-0.08761725574731827,-0.1086723804473877,-0.06499995291233063,-0.15806184709072113,0.0903320461511612,-0.002999883610755205,-0.016667621210217476,0.055883485823869705,0.0954999178647995,0.1603466421365738,-0.1147531121969223,0.1142493262887001,0.03253214806318283,0.04868925362825394,-0.13598890602588654,-0.22122448682785034,-0.0890331044793129,-0.06356464326381683,-0.012528880499303341,0.12100306153297424,0.07804973423480988,0.0020371153950691223,0.004010728094726801,-0.15185151994228363,-0.03609875962138176,0.08076168596744537,-0.04474774748086929,-0.017511824145913124,-0.11066249758005142,0.13037770986557007,-0.11563583463430405,-0.23231035470962524,0.017006980255246162,-0.04418093338608742,0.013275675475597382,0.037442874163389206,0.05594202131032944,0.10411516577005386,-0.05447598174214363,-0.0029366181697696447,0.0470028854906559,-0.12866340577602386,0.08045457303524017,-0.00209156540222466,-0.14908826351165771,0.0012349989265203476,0.21839837729930878,0.20593398809432983,0.09201299399137497,-0.01078798808157444],[-0.007318266201764345,0.04843326285481453,0.037847064435482025,0.07379861176013947,0.005215357523411512,-0.05651397630572319,0.13571037352085114,0.11311634629964828,0.00445695873349905,-0.0024435673840343952,-0.08723019808530807,-0.043478041887283325,-0.07439309358596802,0.03664972260594368,-0.22865937650203705,-0.5337193012237549,0.008137083612382412,-0.020828360691666603,-0.0905076339840889,-0.002592402510344982,-0.04602726548910141,-0.044512417167425156,-0.027464743703603745,0.0038990601897239685,-0.05795101076364517,0.06006310507655144,0.04513990879058838,-0.03333382308483124,-0.14262592792510986,0.06280075758695602,0.07045605778694153,0.04398971050977707,-0.03823946416378021,0.2130194902420044,0.06242142990231514,-0.014564508572220802,-0.12154680490493774,0.07389404624700546,0.047296009957790375,-0.07512923330068588,-0.3286968469619751,0.0845133513212204,0.036638908088207245,-0.09036777168512344,-0.006663787178695202,-0.02029436081647873,0.06960397958755493,0.07912803441286087,0.08733982592821121,-0.00023128440079744905,-0.08300095051527023,0.05700387805700302,-0.011013875715434551,-0.028782548382878304,0.1571599394083023,-0.04374171793460846,-0.07210033386945724,0.02073080837726593,0.030341120436787605,0.01496707834303379,-0.05249018594622612,0.07403605431318283,-0.06775011867284775,0.10148701071739197,-0.15542501211166382,-0.016935216262936592,-0.00943062175065279,0.30157381296157837,-0.03969155251979828,0.1695539653301239,0.15808989107608795,0.07512322068214417,-0.18282321095466614],[-0.008750003762543201,-0.22812092304229736,-0.046925198286771774,-0.020751798525452614,-0.003036310663446784,0.04302142933011055,0.0866706371307373,0.06467708200216293,0.09374392032623291,-0.13003604114055634,0.21733099222183228,-0.05531267076730728,-0.003933632280677557,-0.02045181579887867,-0.20904821157455444,-0.9765461683273315,-0.13310736417770386,0.03971272334456444,-0.11121760308742523,0.05460929498076439,-0.0014379322528839111,-0.14346164464950562,-0.1531466692686081,-0.06447087973356247,0.07031313329935074,0.017639009281992912,-0.04155803099274635,-0.1394994556903839,0.035890694707632065,0.0759546160697937,0.020939914509654045,0.10116764903068542,0.03688473254442215,-0.011434158310294151,0.03997698798775673,-0.06545808911323547,-0.18459069728851318,-0.03315383568406105,0.07361634075641632,-0.1363002061843872,-0.12409280985593796,-0.16806359589099884,0.16412563621997833,0.04867612197995186,-0.04378397390246391,-0.10952799022197723,-0.0035555530339479446,0.05269547551870346,-0.04162845388054848,0.14941905438899994,-0.11765816807746887,-0.09492070972919464,0.08953486382961273,-0.1375623643398285,-0.06354983896017075,0.0004262325819581747,-0.14623503386974335,0.16181331872940063,0.012822004966437817,-0.024273375049233437,0.0927656888961792,0.16318871080875397,-0.01113904919475317,0.006722112186253071,0.11052581667900085,0.011473017744719982,-0.10603257268667221,0.16611802577972412,-0.00332611333578825,0.19923390448093414,0.18625257909297943,0.10596787929534912,0.06910716742277145],[0.1320936679840088,0.06541504710912704,-0.08029597997665405,0.01294756680727005,-0.07144952565431595,-0.011430475860834122,-0.058267418295145035,0.07614295184612274,0.05514465644955635,0.12230701744556427,-0.04022904857993126,0.017976773902773857,-0.01971595175564289,-0.03539358824491501,-0.07105830311775208,-0.36806201934814453,-0.0019137319177389145,0.05615539848804474,0.021350469440221786,-0.04832898825407028,-0.12439820170402527,0.06420563906431198,0.14753158390522003,-0.15344780683517456,0.04808982089161873,0.005053821485489607,0.08494051545858383,-0.07220950722694397,-0.01767546497285366,0.09824801981449127,0.12775178253650665,0.12696923315525055,0.19276665151119232,-0.32460299134254456,0.05266059562563896,0.015930458903312683,0.009365882724523544,0.1401084065437317,0.05468229204416275,-0.03042566403746605,0.15266557037830353,0.009100011549890041,0.11325472593307495,0.12338611483573914,0.12166062742471695,-0.08990510553121567,-0.21470357477664948,0.04836893826723099,-0.12035372108221054,-0.029163021594285965,-0.10168614238500595,0.09445348381996155,-0.016023674979805946,0.05337477847933769,0.020611034706234932,-0.026823516935110092,-0.1651136726140976,0.009982333518564701,0.23173652589321136,0.11614567786455154,-0.00189496751409024,-0.14234872162342072,0.005793290212750435,-0.13044705986976624,-0.08884075284004211,-0.12471181899309158,-0.018870573490858078,0.08093007653951645,-0.02136373147368431,0.124904103577137,-0.07917487621307373,-0.06023833155632019,0.26464542746543884],[-0.018852688372135162,-0.016657032072544098,0.1946597546339035,0.05016137659549713,-0.027268923819065094,0.10256054997444153,0.09513042122125626,-0.0998065397143364,0.25933346152305603,0.08870173990726471,-0.053797923028469086,0.13729220628738403,0.12764182686805725,-0.011462346650660038,-0.2508269250392914,-1.0146106481552124,0.04629736766219139,0.009172950871288776,-0.007529900409281254,0.002597188577055931,-0.0952809602022171,0.07648928463459015,-0.0748947411775589,0.13458968698978424,-0.03011881373822689,0.13405868411064148,0.20301057398319244,-0.0643046647310257,-0.029424000531435013,0.10763031244277954,-0.11206108331680298,-0.05754808336496353,0.10371415317058563,0.08324450999498367,-0.02253648452460766,0.17884553968906403,0.07013005018234253,0.17326824367046356,-0.055507395416498184,-0.08977194875478745,0.177796870470047,0.13780859112739563,-0.08537443727254868,-0.20651595294475555,0.14231130480766296,0.0376228466629982,-0.010162715800106525,0.06136152893304825,0.065189890563488,-0.16266369819641113,-0.10460466146469116,0.05275117605924606,-0.010768677107989788,-0.052935369312763214,0.14062361419200897,-0.03573627769947052,-0.07717717438936234,0.1361730992794037,0.16393347084522247,0.05094178766012192,-0.07599792629480362,0.17219537496566772,-0.0003284596314188093,0.05838558077812195,0.11209852248430252,0.012524654157459736,-0.058273252099752426,-0.03199610486626625,0.0314788818359375,0.22757264971733093,-0.02274974063038826,0.0572868175804615,0.12943559885025024],[0.12148056924343109,-0.16467206180095673,0.008790579624474049,0.18773366510868073,-0.23311026394367218,-0.02283058874309063,-0.020707368850708008,0.10598937422037125,-0.09347206354141235,0.10457208752632141,0.08402054011821747,-0.15025703608989716,-0.17715616524219513,-0.05981740355491638,-0.1351623833179474,-0.3660917580127716,-0.1317906528711319,-0.11248520016670227,-0.0236072838306427,0.21623094379901886,-0.04376320168375969,-0.060095660388469696,-0.1504347026348114,0.09332843869924545,-0.10455489158630371,0.07602391391992569,-0.08484768122434616,0.0647537112236023,0.14225193858146667,-0.023933185264468193,-0.08496427536010742,-0.3093406856060028,-0.20390795171260834,0.038999952375888824,0.01258258055895567,-0.10339891910552979,0.11714157462120056,-0.004541609901934862,0.06257179379463196,-0.20525726675987244,-0.16939006745815277,-0.04117703065276146,-0.1696913093328476,0.04504820331931114,0.0020598629489541054,0.07429565489292145,-0.07187941670417786,-0.13813279569149017,0.09643863886594772,0.012839284725487232,-0.03519737720489502,0.057347025722265244,0.037142880260944366,-0.04417264088988304,0.09562092274427414,0.13323523104190826,0.11050315946340561,-0.047895416617393494,0.021740101277828217,-0.16629621386528015,0.13837240636348724,0.07975301891565323,0.04785654693841934,0.1603495329618454,0.06918884068727493,-0.027099788188934326,-0.040676772594451904,0.2564682066440582,-0.08955573290586472,-0.18770919740200043,0.15441596508026123,0.09879446774721146,-0.23256123065948486],[-0.025550061836838722,-0.0895807221531868,0.13775956630706787,-0.2313528060913086,-0.2005089968442917,-0.00489704729989171,-0.1784733682870865,0.028621938079595566,0.04956955835223198,0.06281670182943344,0.008324231021106243,-0.055247873067855835,-0.17007412016391754,0.08495138585567474,-0.282335102558136,-0.6554461121559143,0.26564961671829224,-0.041560232639312744,-0.023194104433059692,0.07059995085000992,0.19277267158031464,-0.011973115615546703,-0.03768892213702202,0.04221980273723602,0.014807861298322678,-0.025657156482338905,0.004655642434954643,-0.10446928441524506,-0.10745269805192947,-0.022835705429315567,0.07683823257684708,0.009369022212922573,-0.007327031809836626,0.132893905043602,0.023798534646630287,0.05015689879655838,-0.04469052329659462,0.027325499802827835,0.3094957172870636,-0.2362934798002243,-0.09099066257476807,0.08917033672332764,-0.03204376623034477,-0.0642092376947403,-0.15238751471042633,0.04003840684890747,-0.07806051522493362,0.09540411084890366,0.004217738751322031,0.047021690756082535,-0.08559378236532211,-0.06778568029403687,-0.017332833260297775,0.043318986892700195,-0.09148057550191879,0.13189184665679932,0.044840969145298004,0.20536954700946808,0.005475509911775589,-0.03782874718308449,0.04026574268937111,0.19622527062892914,-0.0547485314309597,0.04701190069317818,0.20093519985675812,0.135658398270607,0.05365978181362152,0.059804171323776245,0.13160553574562073,0.23287507891654968,0.1803026795387268,0.05560259521007538,0.16878074407577515],[0.20265598595142365,0.09019370377063751,-0.05663605034351349,0.09785236418247223,-0.07874491065740585,0.010773437097668648,0.15839281678199768,0.0421333946287632,0.03143758326768875,-0.07714124768972397,0.0006952660041861236,0.030225612223148346,0.010338802821934223,-0.07604078948497772,-0.2758961617946625,-0.3769935667514801,-0.03687221556901932,0.09829262644052505,-0.05233779922127724,-0.03707857057452202,-0.047132447361946106,-0.05864543095231056,0.01269274577498436,0.010372976772487164,0.11373826116323471,0.045927368104457855,-0.02091308683156967,0.04519212618470192,-0.30480509996414185,0.06831619888544083,-0.08981537818908691,-0.07381966710090637,-0.028957484290003777,0.119117371737957,-0.025457192212343216,0.03320123627781868,0.11333885043859482,-0.054463304579257965,0.1460915356874466,-0.22844953835010529,-0.1833581179380417,0.05985930189490318,-0.040011242032051086,0.02712475322186947,0.05696266144514084,-0.0011928926687687635,-0.050832659006118774,0.14263692498207092,0.059205032885074615,-0.01893988624215126,0.1089831218123436,-0.06582850217819214,0.024383049458265305,-0.06746934354305267,-0.055726952850818634,0.17830033600330353,-0.05747131258249283,-0.06964479386806488,-0.07937418669462204,-0.14649076759815216,-0.09483843296766281,0.1526484191417694,0.05489475652575493,0.06460311263799667,0.08112470805644989,-0.08014693111181259,0.2249709814786911,0.22982072830200195,0.01029180083423853,0.13345827162265778,0.44377070665359497,0.1242104321718216,-0.15824440121650696],[0.03973875567317009,0.10539655387401581,-0.02273235097527504,-0.0732068195939064,0.026115883141756058,-0.005666032433509827,-0.06570766121149063,0.013967364095151424,-0.031344566494226456,-0.11316985636949539,-0.05939485877752304,0.24658651649951935,0.16818884015083313,0.004605191294103861,0.29802021384239197,0.8214226365089417,0.1294306367635727,0.07360665500164032,0.0445217601954937,-0.01048305258154869,-0.010969859547913074,-0.06697597354650497,-0.09564466029405594,0.09577535092830658,-0.08566224575042725,0.011771047487854958,0.02919384278357029,-0.024396589025855064,-0.08033263683319092,0.13212789595127106,-0.05558441951870918,0.1871335804462433,0.21265976130962372,-0.1883070468902588,0.0668867826461792,-0.102899931371212,0.019881438463926315,-0.035186897963285446,-0.04101008549332619,0.10030846297740936,0.22902700304985046,-0.11477895081043243,-0.2583412528038025,0.05468721687793732,0.07730519026517868,-0.026985596865415573,0.021233180537819862,-0.08630532026290894,-0.1860896646976471,-0.07639437168836594,0.1726033240556717,-0.037616029381752014,-0.07466721534729004,-0.10027535259723663,0.0274946428835392,0.007591044530272484,-0.052776359021663666,-0.056992385536432266,-0.0025282788556069136,-0.10891132801771164,0.0973663330078125,-0.08652223646640778,0.042039185762405396,-0.06716874241828918,-0.2698936462402344,-0.09791363775730133,-0.16191032528877258,-0.1375189572572708,0.0833655446767807,0.0137056028470397,-0.17525121569633484,-0.16343742609024048,0.21036428213119507],[-0.1434808224439621,0.24258476495742798,-0.10069945454597473,-0.08235488086938858,0.06148160248994827,-0.09678713977336884,0.1374690979719162,0.1317598670721054,0.00343311601318419,-0.03601009398698807,0.04116377234458923,0.14467468857765198,0.1100851371884346,-0.15063847601413727,0.19486375153064728,0.5274986028671265,0.04270241782069206,0.03954508528113365,-0.08180365711450577,-0.0948995053768158,0.11412172019481659,-0.04507327079772949,0.07278827577829361,0.023165788501501083,0.004667277447879314,0.08173605054616928,-0.003426176495850086,-0.03640248626470566,0.025821395218372345,-0.08803041279315948,0.03143031895160675,-0.09773935377597809,0.08161662518978119,-0.049417488276958466,0.01893579214811325,-0.07828278839588165,-0.03781891614198685,0.1364336460828781,-0.04112197086215019,0.2060920000076294,0.035796165466308594,0.07450032979249954,-0.1474822759628296,0.10644236952066422,-0.0629267618060112,0.07984714210033417,0.03253357112407684,-0.04231082648038864,-0.03698895126581192,0.034091316163539886,0.03421159088611603,-0.11571729928255081,-0.030008066445589066,0.0024882019497454166,-0.09006310999393463,0.007970215752720833,-0.15207010507583618,-0.14638927578926086,0.04882187768816948,-0.12988224625587463,0.11905396729707718,-0.06733722239732742,-0.007817973382771015,-0.06448052823543549,-0.022717580199241638,-0.1206824779510498,-0.026836473494768143,-0.45849812030792236,-0.08630508184432983,0.01936938241124153,-0.21619202196598053,-0.10998403280973434,0.023022543638944626],[-0.16692639887332916,-0.001735811005346477,-0.026674212887883186,0.11846688389778137,0.12567436695098877,-0.012421883642673492,0.013841751031577587,-0.03979989513754845,0.07793674618005753,-0.028747092932462692,-0.1434887945652008,-0.1331021934747696,0.1801636517047882,-0.12654054164886475,0.22352302074432373,0.7063968777656555,0.06574666500091553,-0.00528961094096303,0.059306107461452484,0.014758487232029438,-0.130141943693161,0.02667979523539543,0.03800657019019127,0.009667926467955112,-0.09353066235780716,-0.03350318223237991,-0.10007898509502411,0.08147656917572021,0.058585844933986664,0.153268963098526,0.03445897251367569,-0.00717570586130023,0.014785587787628174,-0.0773085206747055,0.014727463014423847,-0.0037200087681412697,-0.05981625244021416,-0.006394163705408573,0.051564253866672516,0.1379951387643814,0.28171053528785706,0.08043516427278519,-0.09824438393115997,-0.060614846646785736,-0.05084570497274399,0.06992214173078537,0.12236728519201279,0.0009492816752754152,-0.04161732643842697,0.08551102131605148,0.03136347606778145,0.017625659704208374,0.1015196219086647,-0.06836599856615067,-0.031426843255758286,-0.0310059767216444,0.012419669888913631,-0.09010373800992966,0.011509380303323269,0.08867792785167694,-0.09076005965471268,-0.004965210799127817,-0.0020277888979762793,-0.054904911667108536,-0.04888860881328583,0.07819078117609024,-0.14518772065639496,-0.45246419310569763,-0.13872970640659332,-0.15437984466552734,-0.2140428125858307,-0.08913470804691315,0.29935407638549805],[0.24331903457641602,-0.016379814594984055,-0.12411036342382431,-0.03253374993801117,0.03211437538266182,0.025423502549529076,0.012071957811713219,-0.05883890390396118,-0.05444513261318207,0.0271702129393816,-0.05188414826989174,0.03748321160674095,0.1630323976278305,0.11962834000587463,0.3381139934062958,0.7433906197547913,0.1462315320968628,0.0871274322271347,0.1772627979516983,-0.12216058373451233,-0.04289090633392334,0.1463024765253067,-0.03462303429841995,0.03912687301635742,-0.05440957844257355,-0.027846381068229675,-0.03898804262280464,0.10642097890377045,-0.09918797761201859,0.06496060639619827,-0.051211800426244736,0.006751094479113817,0.10020563751459122,0.0019456302979961038,-0.024785473942756653,-0.14214202761650085,-0.0486876405775547,-0.09430883079767227,0.003096627537161112,0.14555330574512482,0.05354342609643936,0.041112013161182404,-0.03229990601539612,-0.09312521666288376,-0.04686079919338226,-0.07749693095684052,0.034979935735464096,0.03344292566180229,-0.016513295471668243,0.14004452526569366,-0.06080246716737747,-0.055759042501449585,0.015481840819120407,0.12261271476745605,0.06684404611587524,-0.04705881327390671,-0.0697411373257637,-0.037138234823942184,0.1449875831604004,-0.07470938563346863,-0.03993024304509163,-0.008260894566774368,0.08997879177331924,0.024547938257455826,-0.08728497475385666,-0.07353433221578598,-0.04268642142415047,-0.19418452680110931,0.01777503825724125,-0.038571007549762726,-0.2454853057861328,-0.0689748004078865,0.12629301846027374],[0.03696611896157265,-0.06373924016952515,-0.06511180847883224,0.09927631914615631,-0.08499419689178467,-0.07203179597854614,0.016818461939692497,0.06621110439300537,0.218949556350708,-0.013989304192364216,0.1793195605278015,-0.03549901768565178,-0.020556170493364334,0.1699773371219635,-0.2909969091415405,-0.6171231865882874,-0.06946804374456406,-0.08546487987041473,0.03573009371757507,-0.05602473020553589,-0.022540049627423286,0.0685729831457138,-0.08511858433485031,-0.013712111860513687,0.08673996478319168,0.12181878089904785,0.07928890734910965,0.035090986639261246,0.155981183052063,-0.11077713221311569,-0.04440348595380783,-0.015061129815876484,0.010875771753489971,-0.069705069065094,-3.3702352084219456e-05,0.12901899218559265,-0.013206936419010162,-0.03479202464222908,0.036214519292116165,-0.01183744054287672,-0.20336772501468658,-0.02473161369562149,0.15108884871006012,-0.16361893713474274,0.05995941162109375,-0.08608527481555939,-0.07655590027570724,0.13198083639144897,0.19638347625732422,0.0699087381362915,-0.06442125886678696,-0.04296422377228737,-0.09519912302494049,-0.0677136480808258,0.05421994626522064,-0.18996497988700867,0.0247369185090065,0.1252264678478241,-0.04447717219591141,-0.14614787697792053,-0.07937498390674591,0.04577992483973503,-0.13983725011348724,0.08117729425430298,0.08023257553577423,0.059915103018283844,0.040936220437288284,0.09746572375297546,-0.021487614139914513,0.06686118245124817,0.22095854580402374,0.13844268023967743,0.08444445580244064],[-0.06329529732465744,-0.2413458526134491,-0.10780258476734161,0.08510648459196091,-0.014182999730110168,0.012427646666765213,0.0017423003446310759,0.08714111149311066,0.18498636782169342,0.0015145865036174655,-0.0020536212250590324,0.05543546378612518,0.09897559881210327,0.07381101697683334,-0.18544116616249084,-0.5310618281364441,0.16962909698486328,0.046207401901483536,0.13673917949199677,-0.14774538576602936,-0.022989846765995026,-0.0841573029756546,-0.1234387755393982,-0.21699859201908112,0.09824245423078537,0.030214356258511543,0.10887797176837921,-0.05854418873786926,-0.02864907868206501,-0.028861647471785545,0.08825097233057022,-0.016019107773900032,-0.086409792304039,0.08209843188524246,-0.06874589622020721,-0.026309574022889137,0.03494719788432121,-0.1462729275226593,-0.0894489735364914,-0.006028484553098679,-0.10221879929304123,-0.1298167109489441,-0.1340787708759308,0.051197249442338943,0.07910613715648651,-0.05091754347085953,0.10676323622465134,0.09816936403512955,0.10391885042190552,0.03615650534629822,0.11416889727115631,0.04017337039113045,0.0009263668325729668,-0.0669887512922287,-0.07763181626796722,0.12920144200325012,0.061258528381586075,0.08429184556007385,0.005338635295629501,0.06615052372217178,0.14772352576255798,0.060967426747083664,-0.0796777680516243,0.29523491859436035,-0.012854369357228279,0.0347752720117569,0.0773877426981926,0.2776566743850708,0.09405789524316788,0.2870042324066162,0.562928318977356,0.15698987245559692,0.018855568021535873],[0.004862288944423199,0.10452508926391602,0.12378668040037155,-0.1679464876651764,0.011723813600838184,-0.004453356843441725,-0.0647432953119278,0.0674603059887886,0.06459857523441315,0.01530007179826498,0.06478507071733475,0.0426064059138298,0.197662353515625,-0.17032696306705475,0.2824133038520813,-0.2473083734512329,0.06491349637508392,0.004923433996737003,-0.12796811759471893,0.12191746383905411,-0.0693541169166565,0.26415276527404785,0.21457809209823608,-0.10977217555046082,-0.06596145033836365,0.030014818534255028,0.05314245447516441,-0.009850561618804932,-0.13031437993049622,0.04725043475627899,0.020443009212613106,0.10724084079265594,0.09589305520057678,-0.04936758801341057,-0.05250516161322594,-0.10045728832483292,0.04419213905930519,-0.08620799332857132,-0.1458946168422699,0.0436687134206295,0.11273382604122162,-0.07281100004911423,-0.05039731413125992,0.059623390436172485,0.03208622336387634,-0.03433264046907425,0.07558796554803848,0.12903957068920135,0.021602625027298927,0.11782342940568924,-0.1320308893918991,-0.03030170127749443,-0.04763689637184143,0.02102475054562092,0.03346133604645729,-0.03943891078233719,0.11211840063333511,-0.03335246071219444,0.09003946185112,0.02022145316004753,-0.03615517541766167,-0.24611736834049225,0.033519815653562546,-0.05760503187775612,-0.13075251877307892,-0.007676088251173496,0.11813151091337204,-0.16628721356391907,-0.09194447845220566,0.026791423559188843,0.14679408073425293,-0.0874020904302597,0.306427001953125],[0.09059478342533112,0.05165068805217743,0.054419465363025665,0.18581904470920563,-0.07959000766277313,0.006695668213069439,-0.10332061350345612,0.09243510663509369,0.024977639317512512,-0.028174571692943573,-0.09731483459472656,-0.0645766630768776,0.46045103669166565,-0.1791752576828003,-0.1260480284690857,0.4991685152053833,0.20225262641906738,-0.0411502905189991,0.025697011500597,-0.003297113813459873,-0.03507642820477486,-0.06198896840214729,0.2772928774356842,-0.12973186373710632,-0.05854031816124916,-0.11143485456705093,-0.06373468041419983,0.038605209439992905,0.05450350046157837,-0.1942003220319748,-0.043146081268787384,0.019269289448857307,0.012069693766534328,-0.09909312427043915,-0.18833324313163757,-0.09509649127721786,-0.058053240180015564,-0.23517318069934845,-0.29484403133392334,-0.07697878777980804,-0.15715155005455017,0.027352750301361084,0.06510096043348312,0.12053282558917999,-0.005858887452632189,0.1189478412270546,-0.12935787439346313,0.09009281545877457,-0.06584381312131882,0.11800003051757812,0.013628491200506687,0.0703214555978775,-0.06726399064064026,-0.051297422498464584,0.19999156892299652,0.04060331732034683,-0.06435482949018478,0.10790509730577469,0.03040548413991928,0.043520934879779816,0.13331714272499084,0.14453305304050446,0.06218721717596054,-0.014510356821119785,0.004388533066958189,0.07160818576812744,-0.060512199997901917,-0.13689012825489044,-0.01124216616153717,0.2669662833213806,0.5388484597206116,0.052144285291433334,0.03589630872011185],[-0.10473807901144028,-0.12932562828063965,-0.03992360085248947,-0.03293763846158981,-0.05630211532115936,0.01900065876543522,-0.051929306238889694,0.032101329416036606,0.08640383929014206,0.07368635386228561,0.11757352948188782,0.18631812930107117,0.1807917207479477,0.03721917048096657,0.14050033688545227,-0.5307756662368774,-0.009378105401992798,-0.2565852701663971,0.1562465876340866,0.0867377519607544,-0.06916709989309311,0.15599454939365387,0.3626675307750702,-0.03961106017231941,0.1323581039905548,0.06864961236715317,0.12581580877304077,-0.0465378500521183,0.09702067077159882,0.09952182322740555,0.2351311296224594,0.1931065171957016,0.27344614267349243,-0.01204860769212246,-0.02218291163444519,0.07496178895235062,0.11443377286195755,0.014150320552289486,0.16442017257213593,-0.02831706590950489,-0.025706782937049866,-0.04690103977918625,-0.018480367958545685,0.032931335270404816,-0.004289678763598204,0.14174452424049377,-0.04342135787010193,0.06552302837371826,-0.08354713022708893,0.050939660519361496,-0.04739387333393097,0.16267019510269165,-0.05231073871254921,-0.01522433664649725,0.0744776502251625,0.06852243095636368,-0.08048250526189804,-0.19566810131072998,0.003753098426386714,-0.2214270383119583,-0.14087054133415222,-0.02442581206560135,-0.037907037883996964,-0.03626403212547302,-0.13691933453083038,0.039347413927316666,0.028779437765479088,-0.07063478976488113,0.2888779938220978,0.27192553877830505,-0.12313615530729294,-0.11995082348585129,0.6102846264839172],[-0.04786970466375351,-0.01606166735291481,-0.06894956529140472,-0.05299244821071625,0.04982650279998779,-0.0019977991469204426,-0.010873513296246529,0.02834729664027691,0.11332785338163376,-0.06321629881858826,0.00073041528230533,-0.11813315004110336,0.05177009478211403,0.09841855615377426,-0.1743001490831375,-0.7248222827911377,0.00626543490216136,-0.1588267832994461,0.046290941536426544,-0.004818277899175882,-0.06175806000828743,-0.1024090126156807,-0.06993155181407928,0.29757946729660034,0.05069585144519806,0.05413779243826866,0.1439979374408722,0.037548359483480453,0.057486746460199356,0.0116172069683671,0.02154439687728882,0.032697223126888275,-0.04279065132141113,0.04574123024940491,0.2371809482574463,-0.04021686688065529,-0.13346631824970245,-0.1408030092716217,0.02171456813812256,-0.09744405001401901,-0.20256918668746948,-0.03029489889740944,-0.08473503589630127,-0.0807870626449585,0.033796414732933044,0.030603989958763123,0.03759545087814331,0.119303397834301,-0.17308637499809265,0.08081202208995819,-0.032481394708156586,0.09182978421449661,-0.014020047150552273,-0.034095026552677155,0.05903579667210579,-0.05058523267507553,0.03141186013817787,0.1270153522491455,-0.018496062606573105,-0.044209953397512436,0.04726861044764519,0.017834438011050224,-0.019403545185923576,0.16589346528053284,0.19417735934257507,-0.17073386907577515,0.14120545983314514,0.40624353289604187,0.0237655621021986,0.05740593373775482,0.2186654508113861,0.11047253757715225,-0.23373527824878693],[-0.07286971062421799,0.08047472685575485,0.07286558300256729,0.11174041032791138,-0.012866439297795296,-0.004404905717819929,0.17886601388454437,-0.03014950640499592,-0.14825297892093658,0.10664159804582596,-0.08639147132635117,0.11008110642433167,0.16323883831501007,-0.08264802396297455,0.22468958795070648,0.6446692943572998,-0.029414808377623558,0.10969454050064087,0.03712204843759537,0.08904573321342468,0.036861564964056015,-0.07110897451639175,0.1121322363615036,-0.0972895696759224,-0.11472097784280777,-0.19970136880874634,0.09209385514259338,0.029818594455718994,0.048722293227910995,0.05340004712343216,0.05780452862381935,-0.0008240292663685977,-0.04746054857969284,-0.08462629467248917,0.05984681099653244,-0.035929691046476364,-0.13252344727516174,0.04730428755283356,-0.18713560700416565,0.07576441019773483,-0.06346316635608673,-0.06596014648675919,0.022549498826265335,-0.03543679416179657,0.12886236608028412,0.007116364315152168,0.01986880414187908,0.13182353973388672,0.06929025053977966,-0.21034453809261322,-0.026821477338671684,-0.037858013063669205,-0.07513951510190964,0.06703667342662811,-0.050329405814409256,-0.0008779619820415974,-0.04740083962678909,0.0064015197567641735,-0.028455283492803574,-0.022781023755669594,-0.056693051010370255,-0.031043605878949165,0.018347861245274544,0.003983435686677694,-0.13943929970264435,-0.007707065436989069,-0.0018517639255151153,-0.19626154005527496,0.07333482801914215,-0.2106207013130188,-0.0795765072107315,-0.28649309277534485,0.1883847415447235],[0.1025252640247345,-0.046350039541721344,-0.0004924877430312335,0.09857480227947235,-0.1008322611451149,0.024429399520158768,0.1339636892080307,-0.0793275386095047,0.05900197848677635,-0.046081580221652985,-0.0022608761209994555,-0.023991920053958893,0.11671455949544907,-0.04034794121980667,-0.25947415828704834,-0.402048259973526,-0.003044371260330081,-0.038029517978429794,-0.1586841642856598,0.08339346200227737,-0.013731320388615131,-0.12640368938446045,0.029546091333031654,-0.036717016249895096,0.009884209372103214,-0.023204727098345757,-0.05575045570731163,-0.08546088635921478,-0.034729935228824615,-0.0609760545194149,-0.01273256354033947,0.01544149313122034,-0.007114489562809467,0.03636233136057854,0.023318223655223846,0.05833616107702255,0.1946115791797638,-0.13253270089626312,-0.00036378169897943735,-0.057776521891355515,0.10472534596920013,-0.047286104410886765,-0.10961614549160004,0.13269123435020447,-0.03656849265098572,0.3021763265132904,-0.06306840479373932,-0.05047283321619034,0.15031298995018005,0.07391820102930069,0.005014352034777403,0.04008770361542702,0.06289185583591461,0.1476985365152359,0.010384664870798588,0.06769552081823349,-0.09780813753604889,0.2669333219528198,0.08890051394701004,-0.12163243442773819,0.02455735392868519,-0.12021699547767639,0.1025286316871643,-0.02129645086824894,0.16942037642002106,-0.13090114295482635,0.13463865220546722,0.265077143907547,0.009270613081753254,0.026506252586841583,0.6141206622123718,0.3854983448982239,0.036376792937517166],[-0.022710900753736496,0.11371710896492004,0.05849819630384445,0.08325430750846863,0.024697910994291306,0.04671748727560043,-0.04509053751826286,0.10337590426206589,-0.13372592628002167,-0.08609586209058762,-0.16769292950630188,-0.10552866011857986,-0.033478543162345886,0.09104494005441666,0.2248908132314682,0.7204139232635498,-0.023508235812187195,-0.03456350415945053,-0.05277165398001671,-0.130357563495636,-0.053943730890750885,0.14362193644046783,0.06566714495420456,0.0601290687918663,-0.04429894685745239,-0.06774371862411499,-0.0011483537964522839,-0.0998181626200676,-0.08024106919765472,-0.051186203956604004,0.13609273731708527,0.10376716405153275,-0.07206249237060547,-0.01049197930842638,-0.0581190399825573,-0.027692418545484543,0.04587380960583687,0.19216607511043549,-0.056680649518966675,0.1351165622472763,0.1192113384604454,0.020166557282209396,-0.1909458339214325,0.10549767315387726,-0.15274572372436523,-0.14336571097373962,-0.08422406762838364,-0.1456747204065323,-0.04668541997671127,0.036670882254838943,0.0725218653678894,0.09568054229021072,0.09703584015369415,-0.05064437538385391,-0.10343080759048462,-0.041903190314769745,-0.019693586975336075,-0.17200465500354767,0.2339991182088852,0.11768124997615814,-0.23199960589408875,-0.06772733479738235,-0.1201949194073677,0.03899257630109787,0.025989921763539314,0.0585390143096447,-0.018104154616594315,-0.1211925521492958,0.029144946485757828,-0.17236867547035217,-0.39508384466171265,-0.15225271880626678,-0.2001858353614807],[-0.08954540640115738,0.09038718044757843,0.02487875148653984,-0.02151031419634819,-0.033022455871105194,-0.011352014727890491,-0.006266712211072445,0.006252137944102287,-0.15867601335048676,0.19189831614494324,-0.04142230376601219,0.00648042606189847,-0.02003297209739685,-0.06411132961511612,0.238888218998909,0.9696847796440125,-0.1586659699678421,-0.042745333164930344,-0.03936765342950821,0.0505116805434227,-0.010202489793300629,0.12308867275714874,-0.18768759071826935,-0.12531264126300812,0.05558522418141365,0.016462203115224838,-0.09795090556144714,-0.17643381655216217,0.07044938206672668,-0.01951073296368122,-0.013087146915495396,0.020412076264619827,-0.04668804258108139,-0.061911847442388535,0.10314004123210907,-0.16469374299049377,0.18949134647846222,0.1556614190340042,0.027326006442308426,0.07723838835954666,0.06678573042154312,0.1743621677160263,-0.09931190311908722,-0.1043439581990242,0.07748177647590637,-0.3029686510562897,-0.02873038686811924,-0.15526214241981506,-0.032196056097745895,0.10074084252119064,-0.02063322812318802,-0.046258293092250824,0.17851810157299042,0.0746193453669548,-0.10497834533452988,-0.12835517525672913,0.09369022399187088,-0.04602273181080818,-0.14848290383815765,-0.12109190225601196,0.028656739741563797,-0.2093847692012787,0.0585055947303772,-0.11452379077672958,0.007671848870813847,0.05717863142490387,0.060309361666440964,-0.10736970603466034,0.07968771457672119,-0.279251366853714,-0.3491087853908539,-0.44284459948539734,-0.15916746854782104],[-0.2255667895078659,0.10863087326288223,-0.10883260518312454,-0.057514190673828125,0.06635241955518723,0.014848138205707073,0.04916861280798912,-0.014374250546097755,0.028568534180521965,0.20236213505268097,0.063017338514328,0.05650361254811287,-0.026916146278381348,0.09783568233251572,0.09840083867311478,-0.33524471521377563,0.2654726207256317,0.06505253165960312,-0.020413460209965706,-0.13341929018497467,-0.060264285653829575,-0.08196733891963959,0.20397168397903442,-0.19002436101436615,0.12711577117443085,0.19141048192977905,0.005046810023486614,-0.025631334632635117,0.035304322838783264,-0.07168454676866531,-0.021528402343392372,-0.12787172198295593,-0.1194455474615097,0.10298854857683182,-0.0454370342195034,0.06939951330423355,0.05683848261833191,-0.09531237185001373,-0.13225597143173218,0.0196391511708498,-0.05132052302360535,-0.11528429388999939,0.08808960020542145,-0.06662464886903763,0.03929559141397476,-0.000977745046839118,-0.07709131389856339,0.021292472258210182,-0.04778425022959709,-0.0565306656062603,0.04344431310892105,0.12950722873210907,0.01562637649476528,0.19151505827903748,-0.0406559482216835,-0.05196110159158707,-0.0895598754286766,-0.06752543896436691,0.02470218949019909,-0.04627523198723793,-0.024553591385483742,-0.03479467332363129,-0.07078675180673599,-0.006198426242917776,-0.0543682798743248,-0.03040912188589573,0.09881668537855148,-0.07516876608133316,-0.177038311958313,-0.00045583597966469824,0.08316259831190109,0.0069356560707092285,0.24319979548454285],[0.08386760950088501,-0.060733601450920105,0.14738976955413818,-0.08219772577285767,-0.11145968735218048,-0.0038968706503510475,0.008728232234716415,0.046226780861616135,0.2012745887041092,0.06114962697029114,0.0015765774296596646,-0.06216364726424217,-0.011539588682353497,-0.008067269809544086,0.11083899438381195,-0.9924027919769287,-0.26316478848457336,0.1428196132183075,0.016291938722133636,0.01423896849155426,0.03184657171368599,0.14419355988502502,0.08665883541107178,0.07952567934989929,-0.045134037733078,0.2703266143798828,-0.045874059200286865,-0.22447818517684937,-0.0563717857003212,0.02979985624551773,0.23946382105350494,0.09738378971815109,0.08486305922269821,0.00915451068431139,-0.05577050521969795,-0.09680138528347015,0.03170197084546089,-0.10177444666624069,0.09071064740419388,-0.05870748683810234,0.24828371405601501,-0.02948717586696148,-0.08728794753551483,0.0028124009259045124,0.005141063593327999,0.009797223843634129,-0.11351680755615234,0.16323238611221313,-0.08875393122434616,0.04779456928372383,-0.1472296565771103,0.07754955440759659,0.1307743936777115,-0.038634512573480606,0.049836717545986176,0.017068620771169662,-0.03413626179099083,-0.004866864066570997,0.0010193113703280687,0.03417234495282173,-0.02742156572639942,-0.019026027992367744,-0.0037706869188696146,0.1340324580669403,-0.051521774381399155,0.13790841400623322,-0.11122594028711319,-0.13166432082653046,0.07517920434474945,-0.10733266174793243,-0.12484892457723618,-0.12301841378211975,0.03927526995539665],[0.17339478433132172,0.05586704611778259,-0.06562622636556625,-0.09016651660203934,0.03195862099528313,-0.003503647167235613,-0.09593990445137024,0.09017917513847351,-0.08286746591329575,-0.08654508739709854,-0.05777577683329582,0.01882505975663662,-0.23076657950878143,0.14966872334480286,-0.055935248732566833,0.5119823813438416,-0.05881724879145622,0.07774417847394943,0.12611399590969086,0.1313123106956482,-0.1436559408903122,-0.41155806183815,-0.11410519480705261,0.050307273864746094,-0.026257673278450966,0.11108779162168503,0.06066646799445152,0.08501872420310974,0.22031664848327637,0.04928036779165268,-0.09577523916959763,-0.21402429044246674,-0.3149475157260895,0.11789240688085556,0.04844430088996887,0.018180007115006447,0.08300986140966415,0.11603318899869919,0.059056296944618225,0.14578750729560852,0.03905243054032326,0.08224768191576004,0.0024587258230894804,-0.17343252897262573,0.11696964502334595,0.12037092447280884,0.01031944714486599,-0.11678925156593323,0.07340183109045029,-0.0727536752820015,0.0130552276968956,0.020124204456806183,0.19345229864120483,-0.04968412220478058,-0.07225792109966278,-0.054613105952739716,0.09694638103246689,0.005180109292268753,-0.02318010851740837,-0.07748367637395859,0.056586407124996185,0.11746248602867126,-0.002918562153354287,-0.06869109719991684,0.1662575751543045,0.009581392630934715,-0.02641095034778118,0.12152516096830368,-0.15522970259189606,-0.32821574807167053,-0.11367159336805344,0.015928583219647408,-0.47215333580970764],[-0.11000000685453415,0.10670270770788193,-0.030122514814138412,-0.11821458488702774,-0.09211967140436172,-0.026340242475271225,0.024129055440425873,0.011699838563799858,-0.057711292058229446,-0.06440187245607376,0.09112893790006638,0.0851726159453392,0.24814312160015106,-0.10385746508836746,0.16382737457752228,0.38207849860191345,-0.02237493358552456,0.13535380363464355,-0.12695607542991638,-0.0346774198114872,0.08933817595243454,0.19489242136478424,0.12471892684698105,0.032278914004564285,0.04815087839961052,0.18211622536182404,-0.07816997915506363,0.02289501763880253,0.09588067978620529,0.14874103665351868,-0.06485918909311295,0.05487130954861641,-0.056010931730270386,-0.10553096234798431,0.0006566495285369456,0.011555171571671963,0.004647111054509878,-0.08032440394163132,-0.06812813878059387,-0.04331015795469284,0.2564292252063751,0.11547178030014038,-0.11241958290338516,0.0698348730802536,-0.09222245961427689,-0.17411570250988007,-0.036860376596450806,-0.054508909583091736,0.12034986913204193,-0.05348440259695053,0.12666209042072296,-0.10367052257061005,-0.06811458617448807,-0.028548259288072586,-0.053704097867012024,-0.09469611942768097,-0.07253239303827286,-0.08693123608827591,0.09643237292766571,-0.10331603139638901,-0.17903763055801392,-0.10031436383724213,0.01849214918911457,-0.05880821496248245,-0.006428340449929237,-0.09288348257541656,0.1190745085477829,-0.3074154555797577,0.0062837000004947186,0.0012739109806716442,-0.15144893527030945,-0.12660305202007294,0.20722922682762146],[-0.034124430269002914,-0.15741778910160065,-0.2245471030473709,0.042545463889837265,-0.07547007501125336,0.03197242692112923,-0.0714307576417923,-0.03512808308005333,0.1278296560049057,-0.05441196635365486,0.05258733034133911,0.09879963099956512,0.1363939493894577,-0.0005357895861379802,-0.15092596411705017,-0.15701407194137573,0.010257053188979626,0.06910044699907303,-0.010754750110208988,0.05658664181828499,-0.010231826454401016,-0.1255912184715271,0.2734731435775757,-0.02808249555528164,-0.0647163912653923,-0.24106600880622864,-0.045180514454841614,0.05532391369342804,-0.1026310846209526,-0.15484219789505005,-0.016170866787433624,-0.01861686073243618,0.09016277641057968,-0.013749895617365837,-0.14127306640148163,0.10096516460180283,-0.023226836696267128,-0.12074971944093704,-0.18027006089687347,-0.10053889453411102,-0.1782568395137787,-0.01016030553728342,0.13924357295036316,0.07489898055791855,-0.037896446883678436,0.01973561942577362,-0.05104804039001465,0.027288509532809258,0.10996954888105392,0.09739918261766434,-0.029159393161535263,0.004694090224802494,0.11816159635782242,-0.06699495762586594,0.025786351412534714,0.13697732985019684,-0.05256140977144241,0.12089694291353226,-0.003207259578630328,0.09278690814971924,0.05690043792128563,0.14681436121463776,0.07113567739725113,0.14934863150119781,0.20815329253673553,0.056569185107946396,0.05802736431360245,-0.050754982978105545,-0.07156062871217728,0.222940593957901,0.3082241117954254,0.12761810421943665,0.1113051027059555],[0.051923539489507675,0.029060667380690575,0.04541397839784622,0.1824730485677719,-0.1907750368118286,0.0017433696193620563,0.22269964218139648,-0.06416589766740799,0.2591550052165985,-0.14965151250362396,-0.06813230365514755,-0.21204696595668793,0.14870710670948029,-0.18668125569820404,0.01984485238790512,1.1469701528549194,0.2010362595319748,-0.03454441949725151,0.08261602371931076,0.005466582719236612,0.14971116185188293,-0.020181739702820778,-0.08240055292844772,-0.10423484444618225,-0.1351737231016159,-0.16746863722801208,-0.08720382302999496,0.09930379688739777,0.02207821235060692,0.023910336196422577,-0.06631423532962799,-0.20907503366470337,0.042598992586135864,-0.04792039096355438,-0.07892320305109024,-0.12430553138256073,-0.23389439284801483,-0.12592804431915283,-0.2529830038547516,-0.075020432472229,-0.048141490668058395,0.03122233971953392,0.06015906110405922,0.13415685296058655,-0.020392758771777153,0.02970029041171074,-0.09260429441928864,0.040886711329221725,-0.05295244976878166,-0.04528385028243065,-0.04966278374195099,-0.011555549688637257,0.01689862087368965,-0.13104549050331116,-0.0938241109251976,0.016916269436478615,-0.11467306315898895,0.02697897143661976,-0.026454487815499306,0.02416228875517845,0.03791400045156479,-0.10028140246868134,0.0764152854681015,-0.03957105055451393,0.08586955815553665,0.09909792244434357,0.029478928074240685,-0.09805087000131607,0.06823313236236572,0.05965474992990494,0.2915019392967224,0.08886981010437012,-0.07905804365873337],[-0.11650770902633667,-0.08312179148197174,0.05044792219996452,-0.09172619134187698,0.03028266318142414,0.0029118377715349197,0.004436599090695381,0.16336442530155182,0.03096385858952999,-0.05004202947020531,-0.0856337919831276,-0.11799925565719604,0.2819788455963135,-0.26876845955848694,0.07835763692855835,0.5575685501098633,0.21639476716518402,-0.011058286763727665,-0.013007324188947678,0.08622856438159943,0.04712608456611633,-0.042402125895023346,0.19948679208755493,-0.2158079296350479,-0.12484970688819885,-0.04627794027328491,-0.12459295243024826,-0.015126445330679417,0.11155152320861816,-0.00012980644532945007,-0.14213232696056366,0.05676146596670151,0.1617518663406372,-0.19125500321388245,-0.05829198285937309,0.009096085093915462,-0.13981397449970245,-0.10243000835180283,-0.2095576971769333,0.08636432141065598,0.010775167495012283,0.010702267289161682,-0.0504814088344574,0.02654845267534256,-0.206492617726326,0.0743945986032486,-0.15554691851139069,-0.03176652640104294,0.07926352322101593,-0.08677028864622116,-0.028273871168494225,-0.08304977416992188,0.03042464330792427,0.16224002838134766,-0.05605607479810715,-0.057843584567308426,-0.08537960052490234,-0.051001641899347305,-0.08596586436033249,-0.09654556959867477,0.0030938764102756977,0.02837364748120308,0.12446042150259018,0.055549390614032745,-0.09746549278497696,-0.11804977804422379,0.016396764665842056,0.0005069922772236168,0.03961682692170143,0.1838364601135254,0.4026053249835968,0.06198786571621895,0.12229300290346146],[-0.03202522546052933,-0.11865825206041336,-0.002650671638548374,0.08436036109924316,-0.14699973165988922,-0.004070634488016367,-0.08876439929008484,0.15077437460422516,-0.046072617173194885,0.017692312598228455,-0.018960095942020416,0.043283358216285706,-0.064972423017025,0.033256031572818756,-0.1985376477241516,-0.9161639213562012,-0.0973694920539856,-0.0546678751707077,0.03488513082265854,0.12492502480745316,-0.04885431379079819,0.16502569615840912,-0.20865336060523987,0.02554413676261902,0.060991957783699036,-0.026490142568945885,0.06700285524129868,-0.006570963654667139,-0.1286683827638626,-0.03673148527741432,-0.06278582662343979,0.21121029555797577,0.004904908128082752,0.21484582126140594,-0.038258716464042664,0.10300029814243317,-0.1403799206018448,-0.05865693837404251,-0.062888003885746,0.0004612740594893694,0.032124388962984085,-0.02119699865579605,-0.009918058291077614,-0.006793477572500706,-0.029286304488778114,0.022335153073072433,-0.1103845089673996,0.05083594471216202,0.12359549850225449,0.07909978926181793,-0.07032205164432526,-0.08305750787258148,0.13954569399356842,0.014445783570408821,-0.050685781985521317,-0.047157663851976395,0.0061989231035113335,0.1354520618915558,-0.05842914432287216,-9.792616765480489e-05,0.032831743359565735,0.13436417281627655,-0.020988618955016136,0.09037340432405472,0.07335416972637177,-0.07385845482349396,0.14102675020694733,-0.06614891439676285,0.08989246189594269,0.0818127915263176,-0.00778195122256875,0.0534239336848259,-0.08467244356870651],[0.018117912113666534,-0.07674846053123474,-0.012138704769313335,0.010760114528238773,0.007544086780399084,0.019319042563438416,-0.07063464820384979,-0.09981118142604828,0.04062529280781746,0.0825682282447815,0.03768812119960785,0.019617028534412384,-0.07765136659145355,0.07347769290208817,-0.2539689242839813,-0.8852216601371765,-0.0794098749756813,0.06853163242340088,0.08391337096691132,0.03442678600549698,0.04101371020078659,-0.14673805236816406,0.05456244945526123,0.04229516163468361,0.010366342030465603,0.2939767837524414,-0.020084243267774582,-0.05990217253565788,-0.0921224057674408,-0.2086571455001831,0.1687290221452713,-0.05169220641255379,-0.07623293250799179,0.21535146236419678,-0.12940379977226257,0.11307070404291153,-0.0806783139705658,0.011785757727921009,0.11384905129671097,-0.06722745299339294,-0.16460341215133667,-0.014072617515921593,-0.003437499515712261,-0.0021639324259012938,-0.04672178626060486,0.002959966193884611,0.05450446158647537,-0.000841646280605346,0.11556654423475266,-0.03522774204611778,-0.20580735802650452,0.04153988137841225,0.145120769739151,-0.040388889610767365,-0.05769478157162666,0.09751935303211212,0.02063463255763054,0.1911771595478058,-0.1367063820362091,0.10450620949268341,0.07293502986431122,0.09899700433015823,0.07368246465921402,-0.14031751453876495,-0.045264892280101776,-0.09802495688199997,0.006499866023659706,0.3010101914405823,0.055804766714572906,0.09010609239339828,0.2589549720287323,0.008763032034039497,-0.10617558658123016],[-0.036997176706790924,-0.09600092470645905,-0.09538137912750244,0.023508096113801003,-0.06699950993061066,0.005148105788975954,0.05607962980866432,-0.06203233078122139,0.04358256235718727,0.09936867654323578,-0.032851412892341614,-0.05935736000537872,-0.123943991959095,0.11841527372598648,-0.0890304297208786,-1.0233955383300781,-0.2225121408700943,0.08510535955429077,-0.04427299275994301,-0.08827236294746399,0.10840471088886261,-0.009695187211036682,-0.1966329663991928,0.06729546189308167,0.018703049048781395,-0.12785950303077698,0.1410989910364151,0.03552720695734024,0.02934258058667183,-0.10463015735149384,0.027151817455887794,-0.15396668016910553,-0.10466069728136063,0.1674497127532959,0.16892768442630768,0.09745277464389801,-0.18908779323101044,-0.06738848239183426,0.09798480570316315,0.064415343105793,-0.2284855842590332,-0.07366961240768433,-0.06730633974075317,-0.171490877866745,0.10617303848266602,0.02478780783712864,-0.029596922919154167,0.024339977651834488,0.012680967338383198,0.07164151221513748,0.057029057294130325,-0.12259449809789658,0.1403355896472931,0.005917862523347139,0.0956401601433754,0.024796178564429283,0.134969100356102,0.03318590670824051,0.05156352370977402,-0.06701003015041351,0.06831028312444687,0.0038357737939804792,0.07176383584737778,-0.053154993802309036,-0.03353637456893921,0.036551333963871,-0.0832892507314682,0.2069338709115982,0.02171889692544937,-0.09263911098241806,-0.06558485329151154,0.1367354840040207,-0.03894812613725662],[0.11669673025608063,-0.12886172533035278,0.2326117753982544,0.0981052964925766,0.15390397608280182,0.0028838259167969227,-0.07154064625501633,-0.06000145152211189,-0.062243275344371796,-0.004090470261871815,0.056101035326719284,0.03966369107365608,-0.19560594856739044,0.12378251552581787,-0.12560676038265228,-0.46635136008262634,-0.014633096754550934,-0.00584139209240675,-0.18992117047309875,-0.07358656823635101,0.007337608374655247,0.06135035306215286,-0.041193559765815735,-0.16195081174373627,-0.0568404383957386,0.00943125318735838,-0.043917007744312286,-0.07501562684774399,0.042941320687532425,-0.047574806958436966,0.16078317165374756,0.08814264088869095,-0.17177511751651764,0.07199932634830475,-0.09860401600599289,0.11678479611873627,-0.07049305737018585,0.07244955003261566,0.0806308165192604,-0.12016546726226807,0.011263235472142696,-0.16147276759147644,0.1238727867603302,-0.08617483079433441,0.03380603715777397,0.06253062933683395,-0.06940537691116333,0.015336435288190842,0.015673305839300156,-0.04969960078597069,-0.04258008673787117,0.010657332837581635,0.020693805068731308,-0.025560390204191208,0.03214428573846817,0.10616555064916611,-0.11112752556800842,0.037478018552064896,0.1771724671125412,-0.12541607022285461,-0.06485836952924728,-0.08099669963121414,0.009524770081043243,0.10719764232635498,0.08927696943283081,-0.11989089846611023,-0.013587504625320435,0.13943693041801453,-0.10655925422906876,-0.0442904569208622,0.14249645173549652,0.06184229999780655,-0.09593963623046875],[0.1682261824607849,-0.08861351013183594,0.08298604190349579,-0.06937234848737717,-0.006403204519301653,0.05261671915650368,0.16395743191242218,0.10048243403434753,0.03398009017109871,-0.01018163189291954,-0.08457918465137482,0.01610679179430008,-0.1206928938627243,0.08456135541200638,-0.13751335442066193,-0.9894668459892273,-0.2379220426082611,0.05780718848109245,-0.22544434666633606,0.22452238202095032,-0.1574670970439911,-0.12743361294269562,-0.18713217973709106,0.013097035698592663,-0.12138791382312775,-0.0007758658030070364,-0.08315173536539078,0.05291522666811943,-0.03127429261803627,-0.09851222485303879,0.07136420160531998,-0.036875706166028976,0.07120854407548904,-0.018757041543722153,-0.044557880610227585,0.15082082152366638,0.05919084697961807,-0.0203260388225317,0.18000544607639313,-0.22361811995506287,-0.0998697355389595,-0.0324900783598423,-0.017248278483748436,-0.11973842233419418,0.09983780980110168,-0.05407707020640373,0.0038830270059406757,0.021794233471155167,-0.15262775123119354,0.06402069330215454,-0.005144811701029539,-0.19790266454219818,-0.04892145097255707,0.1380832940340042,0.03281531482934952,0.061589617282152176,0.11295159161090851,0.15553951263427734,-0.014164827764034271,0.042509905993938446,-0.15494047105312347,-0.05103832110762596,0.029808970168232918,-0.007539831101894379,-0.009236924350261688,0.09172235429286957,0.0304582342505455,0.15592515468597412,0.050816453993320465,0.07151579111814499,-0.10734181851148605,0.07154873758554459,-0.1338464915752411],[-0.10656936466693878,0.13176904618740082,0.02240612916648388,-0.01711072213947773,-0.10577588528394699,-0.04438449442386627,0.03273499757051468,-0.06190013140439987,-0.029662903398275375,-0.03645820915699005,0.016451401636004448,0.0439193956553936,-0.14317350089550018,0.023000920191407204,-0.10206244885921478,-0.4102241098880768,-0.012939861044287682,0.2701655626296997,0.16933253407478333,-0.06493978947401047,0.18001282215118408,-0.033540818840265274,0.0006501582101918757,0.11196143180131912,0.0465119369328022,-0.0825616791844368,-0.1572568565607071,-0.03321440890431404,0.04342576488852501,0.06259439885616302,-0.01337652187794447,-0.0002471015613991767,0.013830368407070637,0.033983953297138214,-0.008834783919155598,0.061568647623062134,-0.07680203765630722,0.010196950286626816,-0.042158327996730804,-0.14745892584323883,0.014441058970987797,0.007268172688782215,0.17206479609012604,0.08285249024629593,0.042839329689741135,-0.054668985307216644,0.03520394116640091,-0.05513830855488777,0.09377796202898026,-0.032879557460546494,0.1807519942522049,0.09864821285009384,0.11034296452999115,-0.06022263690829277,0.04433955252170563,-0.08286184817552567,-0.009196543134748936,0.111329585313797,0.03951959311962128,0.0060395728796720505,0.05586107820272446,0.009266567416489124,0.043727807700634,0.10400313884019852,0.10413171350955963,-0.2186785787343979,0.008560633286833763,0.21542680263519287,0.04453570395708084,-0.13337403535842896,0.1750830113887787,0.07799068093299866,-0.3262978792190552],[-0.11995749175548553,0.07911908626556396,-0.15598538517951965,-0.16209208965301514,-0.0766192302107811,-0.08489485830068588,0.06719597429037094,0.17727293074131012,0.027207931503653526,-0.13722991943359375,0.03530454635620117,0.04786718264222145,-0.006938265170902014,-0.024019118398427963,0.25162607431411743,0.4575614929199219,-0.16066065430641174,-0.06369567662477493,0.009001147001981735,0.01428816094994545,-0.07991841435432434,0.10626745969057083,0.12276282161474228,-0.11270157247781754,-0.2241961807012558,-0.007829790934920311,-0.029952004551887512,-0.01251544151455164,-0.19368429481983185,-0.035841815173625946,-0.1464085876941681,0.15248659253120422,-0.025211656466126442,0.012950406409800053,-0.14650923013687134,-0.14570683240890503,-0.0818524956703186,0.11738604307174683,-0.07192683964967728,0.05460945889353752,0.06929304450750351,0.11655346304178238,0.029983799904584885,-0.12962855398654938,-0.012280731461942196,0.05824167653918266,-0.129738450050354,0.057036131620407104,0.011176733300089836,0.0600847490131855,-0.1251232773065567,-0.06928137689828873,-0.13800808787345886,-0.029606614261865616,-0.19009236991405487,-0.041073087602853775,-0.031638599932193756,-0.20491380989551544,-0.004661493469029665,-0.05694158747792244,0.006350740324705839,0.0699506551027298,-0.008795764297246933,0.04459458589553833,-0.10026317834854126,0.09466537088155746,-0.07317490875720978,-0.2849220037460327,0.040027063339948654,0.01992565393447876,-0.2759585976600647,-0.05530617758631706,0.08236704766750336],[0.14635391533374786,-0.055662602186203,-0.17030879855155945,0.09150035679340363,0.09165041148662567,-0.009314656257629395,-0.1983870267868042,-0.0088947843760252,0.06869436800479889,0.09680205583572388,0.027545636519789696,0.08389712870121002,0.09513451159000397,0.11595594137907028,-0.1587640345096588,-0.7163528800010681,-0.059646107256412506,-0.07724937796592712,-0.09111270308494568,0.125071719288826,-0.030863413587212563,-0.09365610778331757,-0.16460731625556946,-0.1737184077501297,0.05504544824361801,0.1174958199262619,0.0575382262468338,-0.0038800572510808706,-0.0463411882519722,-0.007114817388355732,-0.0380379743874073,-0.1572958528995514,-0.06220800057053566,0.05250193178653717,0.05516165867447853,-0.05560726672410965,-0.02303687483072281,-0.2834990620613098,-0.21312087774276733,-0.06429190933704376,-0.06580015271902084,-0.0805124044418335,-0.030777493491768837,-0.021502261981368065,0.03266167640686035,-0.03084544464945793,-0.15070858597755432,-0.0016171569004654884,0.1286957561969757,-0.14576953649520874,-0.00714549794793129,-0.08267747610807419,0.11986672878265381,-0.020755115896463394,0.09984882175922394,0.16874457895755768,0.07614967972040176,0.11435221880674362,0.11625206470489502,0.025634337216615677,-0.07954442501068115,0.12821577489376068,0.003146891947835684,0.12219274044036865,0.09060333669185638,-0.094637930393219,-0.04154807701706886,0.16074347496032715,0.07942226529121399,0.04060138761997223,0.25461822748184204,0.2052898406982422,-0.06140477955341339],[0.08596989512443542,0.23863562941551208,-0.045531608164310455,-0.17840498685836792,0.08134272694587708,0.009856210090219975,-0.1316245049238205,-0.11958619952201843,-0.18992526829242706,0.06331753730773926,0.07324826717376709,0.018580252304673195,-0.08353233337402344,-0.08194082230329514,0.2967485189437866,0.06980182230472565,-0.06271976977586746,0.06463273614645004,0.1328495442867279,0.14462214708328247,0.10193301737308502,-0.09597708284854889,-0.15487049520015717,-0.0912456214427948,-0.009091897867619991,-0.05572451651096344,0.07600582391023636,-0.10080500692129135,0.03769703954458237,0.16628031432628632,0.0265056099742651,0.021975507959723473,-0.22766833007335663,0.07413181662559509,-0.16702567040920258,0.016308492049574852,0.004573591519147158,0.1651841551065445,-0.04566997289657593,0.09194031357765198,-0.031350720673799515,0.06889951974153519,-0.026423580944538116,-0.14614194631576538,0.05458866432309151,0.021022308617830276,0.1652691662311554,0.005368394311517477,-0.16753235459327698,-0.20161910355091095,0.09742565453052521,0.01247410662472248,-0.05832881107926369,0.055817656219005585,-0.026489103212952614,0.003510652109980583,-0.03271172568202019,-0.016479289159178734,-0.12720920145511627,0.020430568605661392,-0.05125577002763748,-0.18415655195713043,0.09803576022386551,-0.12186957150697708,0.05673300847411156,-0.004060801584273577,0.08383751660585403,-0.11277990788221359,-0.05137880519032478,-0.1646074652671814,-0.5936047434806824,-0.2847171723842621,0.08291032165288925],[-0.1077033206820488,0.13155017793178558,0.07769043743610382,-0.11069384962320328,0.02275443822145462,0.004659456666558981,-0.0950978621840477,0.08631638437509537,0.05368959903717041,-0.06389405578374863,-0.09332572668790817,-0.031537607312202454,0.11777698993682861,0.13103839755058289,0.13663379848003387,0.2832287549972534,0.012312929145991802,-0.002812239807099104,-0.021372955292463303,0.0502178780734539,-0.005234245210886002,0.09876436740159988,-0.021749330684542656,-0.09251618385314941,0.10265789180994034,0.02335713990032673,0.09187375754117966,-0.07392305880784988,-0.12287618964910507,-0.009289545938372612,0.08189335465431213,0.0151313291862607,0.006841555703431368,0.24826781451702118,0.062688909471035,0.10710248351097107,0.04102667048573494,0.17052896320819855,0.1227056086063385,0.1973768174648285,0.04860614985227585,0.014508173801004887,0.06786253303289413,-0.1623266637325287,0.04550602659583092,-0.0791993960738182,-0.11544568836688995,-0.03340731933712959,-0.005775153636932373,0.10595238953828812,0.10340497642755508,0.05606948956847191,-0.01621128059923649,-0.04301200434565544,-0.05493423715233803,0.0499914176762104,-0.15063348412513733,-0.09586238116025925,0.09665791690349579,0.03998487442731857,-0.040787938982248306,-0.10952416062355042,-0.09944776445627213,-0.06255035102367401,-0.0630047544836998,-0.1274992972612381,-0.022273562848567963,-0.12676775455474854,0.01243289839476347,-0.0331856943666935,-0.4319681227207184,-0.2711465358734131,0.2560858130455017],[-0.01346246711909771,0.05044114589691162,0.17100881040096283,0.08565967530012131,-0.08042929321527481,-0.007283773738890886,0.03218942508101463,0.07546662539243698,-0.1161581501364708,-0.06281919032335281,0.04320084676146507,-0.00264885276556015,0.1874256730079651,0.1311325579881668,0.17422744631767273,0.39167436957359314,0.11469964683055878,0.05140470340847969,0.05541669577360153,0.005403220187872648,0.06050307676196098,0.173711359500885,0.1038753017783165,-0.06544160842895508,-0.14259974658489227,-0.04855940118432045,0.023263055831193924,0.09593617171049118,-0.04937898740172386,0.04336061328649521,-0.03111599199473858,0.062337081879377365,-0.006773488130420446,-0.08861269801855087,0.01616406813263893,-0.08689135313034058,-0.09415494650602341,-0.01574702374637127,-0.06909006834030151,0.16691046953201294,-0.030665380880236626,-0.0639825090765953,0.01736736111342907,0.046313680708408356,-0.10187239944934845,0.027743592858314514,-0.04386265203356743,-0.07362011820077896,-0.12100926786661148,-0.046004608273506165,5.688549572369084e-05,0.12203112989664078,0.09324843436479568,0.18474441766738892,0.0754653811454773,0.019366834312677383,-0.03911904990673065,-0.13499870896339417,0.011017157696187496,0.0018824313301593065,-0.004721372853964567,0.0003146108065266162,0.02340395748615265,-0.07989149540662766,-0.0356590561568737,-0.019372552633285522,0.18380670249462128,-0.2375754415988922,0.10844507068395615,-0.006768167018890381,-0.12554694712162018,-0.1377027928829193,0.3161120116710663],[0.07065286487340927,-0.03503717854619026,-0.0111925033852458,0.01241694949567318,-0.07969452440738678,-0.019031940028071404,-0.00620149914175272,0.014338754117488861,-0.047367315739393234,0.048554677516222,-0.02076679654419422,0.08994312584400177,-0.26805007457733154,0.16851180791854858,0.20909367501735687,-0.11902571469545364,-0.04717672988772392,-0.05064732953906059,0.05241113901138306,0.048066895455121994,-0.07193765044212341,-0.030611345544457436,-0.1698131114244461,0.05269036814570427,0.038644999265670776,0.056460972875356674,0.04451136663556099,0.1544600874185562,0.03567904606461525,0.09803778678178787,0.07899969816207886,0.017486795783042908,-0.23130522668361664,0.13587790727615356,0.03175822272896767,-0.024444982409477234,0.05669092759490013,0.12552031874656677,0.14148256182670593,0.00477182399481535,0.14859625697135925,0.18979141116142273,-0.014751764014363289,-0.15403138101100922,-0.033669620752334595,-0.0009704763651825488,0.05721843242645264,-0.11251969635486603,0.12293394654989243,-0.09249472618103027,-0.1969546526670456,0.017521554604172707,-0.08217551559209824,0.09575649350881577,-0.1037173867225647,-0.005839975085109472,-0.006480164360255003,-0.08850798010826111,0.0033892267383635044,0.018322719261050224,-0.07269870489835739,-0.04644310474395752,-0.08872191607952118,-0.13269363343715668,-0.07672500610351562,-0.14353109896183014,-0.06317145377397537,0.05100179836153984,0.004633522592484951,-0.3856590986251831,-0.4221069812774658,-0.1477486491203308,-0.1044783815741539],[-0.18985435366630554,0.12605774402618408,-0.04056593403220177,0.23524175584316254,0.01595374196767807,-0.007333988789469004,0.01390716154128313,-0.16181309521198273,0.017584625631570816,-0.15931637585163116,0.13594159483909607,0.033289290964603424,0.03849837929010391,0.055347997695207596,0.34104084968566895,0.45432808995246887,0.020573241636157036,0.13325321674346924,-0.04092060774564743,0.08662255853414536,0.008451669476926327,0.03487025946378708,0.07773934304714203,0.06668423861265182,0.06514444202184677,0.07183928042650223,0.07799799740314484,-0.11585117876529694,0.05343402922153473,-0.07718940824270248,-0.17457179725170135,0.10080195963382721,0.01445219200104475,-0.11604772508144379,-0.0733383297920227,0.005529029294848442,0.1291731894016266,0.23857273161411285,0.04271002858877182,0.05234384909272194,0.13344672322273254,-0.08603935688734055,-0.021906685084104538,-0.11706235259771347,0.035034313797950745,-0.04421784356236458,0.11222526431083679,0.011183708906173706,-0.051218751817941666,-0.16223211586475372,0.04710344597697258,0.11371095478534698,-0.1298520267009735,-0.02018212154507637,-0.05154400318861008,0.06061680242419243,0.024897614493966103,-0.07758193463087082,-0.09635623544454575,-0.006011400371789932,-0.02525612898170948,-0.06383655220270157,0.04447228088974953,-0.1298358291387558,0.1286722719669342,0.1382346898317337,-0.03054898977279663,-0.02172636054456234,-0.08244605362415314,-0.03241310641169548,-0.059627994894981384,-0.19357816874980927,0.015414789319038391],[0.021598029881715775,-0.16958747804164886,-0.039496131241321564,-0.17780885100364685,0.033894240856170654,-7.619761618116172e-06,-0.00504866149276495,0.07169117033481598,0.10377737134695053,-0.03194380924105644,-0.038755450397729874,-0.16438616812229156,-0.025002632290124893,0.12612216174602509,-0.40932777523994446,-0.9720890522003174,-0.12892942130565643,0.10159651190042496,-0.09123441576957703,-0.022232674062252045,-0.0976809561252594,-0.01371252816170454,-0.02909732237458229,0.16275158524513245,0.025003334507346153,-0.07061997801065445,0.11747999489307404,-0.058318983763456345,0.12682992219924927,-0.06290147453546524,0.1863037794828415,-0.11320970207452774,-0.07876624912023544,0.06061135604977608,0.012257571332156658,0.05994591861963272,-0.062328189611434937,-0.0685773640871048,0.01266094483435154,-0.09999076277017593,-0.07697824388742447,0.05615397170186043,0.03521660715341568,-0.016345461830496788,-0.0036203055642545223,-0.10206077992916107,-0.12084702402353287,-0.08504367619752884,0.11020994186401367,0.17294302582740784,0.04825831204652786,0.045935314148664474,-0.13138242065906525,0.03764085844159126,0.0020730977412313223,0.19314362108707428,-0.035216424614191055,0.1130470260977745,0.036559827625751495,-0.00828323233872652,0.11645273119211197,0.17551632225513458,0.0081801638007164,0.15843048691749573,-0.04859285429120064,-0.012770556844770908,-0.0184793621301651,0.29602503776550293,0.07005235552787781,0.09551512449979782,0.00011553327203728259,-0.12590958178043365,0.08828762173652649],[0.05136238783597946,-0.06303434073925018,-0.09633879363536835,0.04935542866587639,0.05401201546192169,-0.0767451599240303,0.04699347913265228,0.11908051371574402,-0.014920521527528763,-0.08312231302261353,0.01919005624949932,0.15689466893672943,0.035943932831287384,0.06455497443675995,0.021523497998714447,0.0026892416644841433,0.1675117462873459,0.0022410242818295956,0.019103804603219032,0.07480358332395554,-0.07846521586179733,-0.06936100870370865,0.04016116261482239,-0.10518267750740051,0.05702613294124603,-0.06841002404689789,-0.09604112058877945,-0.11118613183498383,0.10212220996618271,0.11580867320299149,-0.13897573947906494,-0.08956718444824219,0.12443046271800995,0.0016981912776827812,-0.05535774677991867,-0.04213617369532585,-0.029628705233335495,-0.02954135648906231,-0.05822289362549782,-0.019846132025122643,-0.20767666399478912,0.02995767630636692,-0.11774319410324097,0.22826053202152252,-0.018748881295323372,-0.06478359550237656,0.014214206486940384,0.15080566704273224,-0.009478777647018433,0.07637598365545273,0.08349868655204773,-0.009700519032776356,0.045093975961208344,-0.05552808940410614,-0.011241832748055458,-0.037575654685497284,-0.015670211985707283,0.19538001716136932,-0.01709662936627865,0.09958857297897339,0.08116254210472107,0.07917541265487671,0.1456552892923355,0.12651656568050385,-0.11287536472082138,-0.05646293982863426,0.03151707723736763,0.07760868221521378,0.002523615024983883,0.32940584421157837,0.507454514503479,0.007337733171880245,0.06152111291885376],[0.12464787811040878,-0.12065348029136658,-0.01746842823922634,-0.06825456023216248,-0.057363346219062805,-0.07632254809141159,-0.014526469632983208,0.04373045265674591,0.17804501950740814,-0.04925811290740967,-0.04072226956486702,-0.0024633246939629316,-0.17342790961265564,0.13062717020511627,-0.15555836260318756,-0.4417131245136261,-0.07625675201416016,-0.18638759851455688,0.0389370359480381,-0.12650789320468903,0.005462458357214928,-0.023134227842092514,0.05272318422794342,0.07142722606658936,0.020364217460155487,-0.04484790936112404,-0.0479961633682251,0.0019116271287202835,0.08784297853708267,-0.00020545079314615577,-0.04784591123461723,0.08658599108457565,0.10520057380199432,0.04354986175894737,-0.06643756479024887,0.09161730855703354,-0.1262524425983429,0.03552578389644623,0.01805030182003975,-0.17340518534183502,-0.06739486008882523,0.0011408196296542883,0.046340204775333405,0.007821730338037014,0.020240429788827896,-0.10104350000619888,-0.018896562978625298,0.06515130400657654,-0.008840443566441536,-0.07617027312517166,-0.07354974001646042,-0.1389683187007904,-0.04057914763689041,-0.008572832681238651,0.1625286191701889,0.141910582780838,-0.022631794214248657,0.11963509023189545,-0.018737131729722023,-0.11181055754423141,-0.012426554225385189,-0.06679479032754898,0.10500799864530563,0.04659117013216019,0.11409912258386612,0.03030741959810257,0.052939463406801224,0.2191537320613861,0.015225511975586414,0.098609559237957,0.18734797835350037,0.14819864928722382,-0.059527602046728134],[-0.19233165681362152,-0.0939180925488472,-0.03639477118849754,-0.012490343302488327,-0.07179059833288193,-0.020383724942803383,-0.12028902024030685,-0.12004334479570389,0.14874166250228882,-0.13680922985076904,0.005191935691982508,0.08864991366863251,0.12310843169689178,0.07389821112155914,-0.02505086548626423,-0.3070605397224426,0.011241256259381771,0.0596785806119442,-0.06526733934879303,0.07207252085208893,0.002108627464622259,0.2659853994846344,0.11522999405860901,-0.07007066905498505,-0.055146194994449615,-0.09191294759511948,-0.02381180413067341,0.06254372000694275,-0.10023386776447296,0.03627218306064606,0.0588967502117157,0.021152032539248466,0.15246589481830597,0.01514243334531784,-0.16393515467643738,-0.02289939671754837,0.03237413614988327,0.08791161328554153,-0.16048488020896912,-0.03864424675703049,-0.02705072984099388,-0.03485549986362457,-0.12064985930919647,0.04175332561135292,0.09287533909082413,-0.04183660075068474,-0.10815933346748352,0.015461612492799759,-0.03500709310173988,-0.039794404059648514,-0.02053406648337841,0.11094433069229126,0.011873990297317505,0.05409037321805954,0.14886222779750824,0.06849861145019531,-0.08495691418647766,0.05363868176937103,0.044298358261585236,-0.08411648124456406,0.073553666472435,-0.20661839842796326,0.021913375705480576,0.12625406682491302,-0.08283399045467377,0.013345046900212765,-0.10221303999423981,-0.05422723665833473,-0.033309780061244965,0.13556943833827972,0.1286708265542984,0.20805774629116058,0.047774024307727814],[-0.0172895360738039,-0.009880374185740948,0.022406887263059616,0.07692543417215347,0.010545703582465649,0.01091653760522604,0.049876175820827484,0.01609727367758751,0.12522053718566895,0.03064815141260624,-0.04778001829981804,-0.1331302523612976,0.4279797375202179,-0.13886632025241852,-0.30432477593421936,0.07476166635751724,0.2826085090637207,-0.22551485896110535,-0.021768255159258842,-0.05970251187682152,0.018384158611297607,-0.07354810833930969,0.11599855124950409,-0.09045437723398209,-0.11900798976421356,-0.09320517629384995,-0.09664696455001831,-0.00030182834598235786,-0.018096745014190674,-0.05618287995457649,-0.2941976487636566,-0.05114266648888588,0.061953213065862656,-0.04131840169429779,-0.07399354130029678,0.0058381506241858006,-0.19486553966999054,-0.03137453645467758,-0.15640205144882202,0.05170304700732231,-0.09941130131483078,0.06259025633335114,0.1324692815542221,0.04715576767921448,-0.049909237772226334,-0.00415101507678628,-0.05061239004135132,-0.0007787703070789576,0.11360934376716614,-0.07489050179719925,0.03315875306725502,-0.006337233353406191,0.0769418403506279,-0.11184226721525192,0.044806499034166336,0.1219114288687706,0.14248259365558624,0.04770256206393242,0.003561596851795912,0.03871294856071472,0.0616903118789196,0.02561066299676895,0.07932930439710617,0.1883816123008728,-0.07066556811332703,0.10274398326873779,-0.021681465208530426,-0.15046405792236328,-0.06365951895713806,0.27321428060531616,0.7106131315231323,0.17650079727172852,0.04702858254313469],[0.04164525866508484,0.0018327723955735564,-0.04050740599632263,0.030283162370324135,0.05889914557337761,0.0006286745774559677,0.017789404839277267,-0.05587069317698479,0.2362728863954544,0.09861259162425995,0.09159277379512787,-0.01624540239572525,0.06291978061199188,-0.27458804845809937,-0.31209567189216614,0.14178021252155304,0.12236511707305908,0.04140617325901985,-0.03914232924580574,-0.002791773993521929,-0.0006113456911407411,0.11204291880130768,0.027728959918022156,-0.11755305528640747,0.024108363315463066,0.010832961648702621,-0.12508679926395416,0.052446167916059494,0.1400183141231537,0.020048020407557487,-0.15820099413394928,-0.11260469257831573,0.16708947718143463,-0.14373986423015594,-0.10067067295312881,-0.10055335611104965,-0.07450807839632034,-0.22211328148841858,-0.15662820637226105,-0.04309792071580887,-0.028177138417959213,-0.1485537588596344,-0.020984752103686333,0.1427491009235382,0.03654646500945091,-0.0388069711625576,-0.036747872829437256,0.10835675150156021,-0.022292863577604294,0.06793121993541718,-0.0010841304901987314,0.033202048391103745,0.05881417542695999,0.00026560528203845024,-0.0344831682741642,0.0740399956703186,-0.04241102933883667,0.13881158828735352,0.04477299749851227,0.03945058956742287,0.06729520857334137,0.04487382248044014,0.0416698157787323,0.15060772001743317,0.09735209494829178,0.09945303946733475,0.005078029818832874,-0.012393287383019924,0.011273643933236599,0.10450642555952072,0.532829225063324,0.2843385636806488,-0.05136125162243843],[0.1345667839050293,0.056266773492097855,0.08038950711488724,0.11662060767412186,0.05409906059503555,0.018973160535097122,0.020143628120422363,-0.08056926727294922,-0.014436978846788406,0.156500905752182,0.11912409961223602,0.019199879840016365,-0.08781653642654419,0.007220875937491655,-0.12629719078540802,-0.04050503671169281,-0.10168392211198807,0.03831414133310318,-0.02138998731970787,-0.19780434668064117,0.08948614448308945,-0.18583126366138458,-0.20913690328598022,0.12836408615112305,-0.02615518495440483,-0.1061842143535614,-0.0004940642975270748,0.16324816644191742,0.08803083002567291,0.052064429968595505,-0.09978073835372925,-0.12791027128696442,-0.17048673331737518,0.19187594950199127,-0.024541279301047325,0.0125297075137496,0.11094069480895996,-0.06176817789673805,0.16808423399925232,-0.03644736856222153,-0.04401513561606407,0.13302049040794373,-0.01136169582605362,-0.04108565300703049,-0.07653728127479553,0.033280421048402786,0.22167357802391052,0.05602448433637619,-0.02512080781161785,-0.014104927890002728,-0.08078364282846451,-0.08995705097913742,0.07270186394453049,-0.04638824239373207,-0.04908602684736252,-0.0015138002345338464,0.1790618747472763,0.15857911109924316,0.03182297199964523,0.036273617297410965,0.11240556091070175,-0.03310886025428772,0.02882041037082672,0.12630052864551544,0.14334332942962646,-0.20367591083049774,-0.006787984166294336,0.22146542370319366,-0.04764361307024956,-0.08977257460355759,0.14342454075813293,0.06208034232258797,-0.15800195932388306],[0.0533449687063694,-0.06937845051288605,-0.0037586702965199947,0.04682289808988571,0.10883322358131409,0.044777773320674896,0.14564728736877441,-0.08147640526294708,0.02033681981265545,0.13604281842708588,0.17102234065532684,-0.020738011226058006,-0.2857249081134796,0.10297037661075592,0.030246635898947716,0.4455319344997406,0.0050427778623998165,0.0655328631401062,-0.06718698889017105,0.015832483768463135,-0.13675867021083832,-0.022569606080651283,-0.13843736052513123,0.036154717206954956,0.03757113590836525,0.09421893954277039,0.16536003351211548,0.04818850755691528,0.034915030002593994,0.0013917683390900493,0.24897931516170502,0.01169935055077076,-0.01625934988260269,0.2564951777458191,0.18937404453754425,0.14952094852924347,0.0036063138395547867,0.08760911971330643,0.21263758838176727,0.054924871772527695,0.11041415482759476,-0.02842116914689541,-0.2404768466949463,-0.08914122730493546,0.026335058733820915,-0.013161764480173588,0.043066371232271194,0.09539323300123215,-0.020786749199032784,-0.03169441595673561,0.18997825682163239,0.05334702506661415,0.0708671286702156,-0.001882376498542726,-0.05134175345301628,-0.09231735020875931,0.0651368573307991,-0.016909869387745857,-0.03356071934103966,-0.0791885256767273,0.07662442326545715,-0.08133714646100998,-0.025498127564787865,-0.11563477665185928,0.06284437328577042,-0.045906394720077515,0.08260666579008102,0.035379212349653244,0.011919605545699596,-0.24089643359184265,-0.42693284153938293,-0.2658308446407318,-0.26390907168388367],[0.028253600001335144,0.028962109237909317,0.10896515101194382,0.045541632920503616,-0.029920361936092377,0.0006681068334728479,0.07788514345884323,0.22382405400276184,0.18569771945476532,-0.08822096884250641,0.001360908499918878,0.03478756174445152,0.099246084690094,0.03748844563961029,-0.13079816102981567,-1.6391273736953735,0.004794263746589422,0.029928239062428474,0.04280572384595871,-0.031164107844233513,-0.04804117605090141,-0.05256909877061844,-0.05005388706922531,0.24225077033042908,0.02405918389558792,0.3286852240562439,-0.1778571605682373,-0.020180843770503998,0.12724719941616058,0.061299342662096024,-0.1365438550710678,-0.03350470960140228,-0.021005703136324883,0.26841938495635986,-0.049094922840595245,0.2969030439853668,-0.01238304004073143,0.01719454675912857,0.14789025485515594,0.09416188299655914,-0.16443613171577454,-0.004643472842872143,-0.10053636133670807,-0.016808196902275085,-0.045941922813653946,-0.01803470589220524,-0.10097604990005493,0.07938871532678604,0.16229945421218872,0.11330229789018631,-0.03370491415262222,-0.026158690452575684,0.04190276935696602,-0.06992748379707336,0.23069211840629578,0.1670682430267334,0.11978122591972351,0.13766148686408997,0.09103161841630936,0.1297759860754013,0.033660244196653366,0.12189413607120514,-0.011016112752258778,0.008017574436962605,0.022373873740434647,0.1130208969116211,-0.050356920808553696,0.1964496225118637,0.10086501389741898,-0.08133991807699203,-0.26861345767974854,0.1258344203233719,0.2504115700721741],[-0.21794390678405762,0.07825928181409836,0.10354674607515335,-0.06166229397058487,0.03506547212600708,0.0016639105742797256,0.09742157906293869,-0.04393722489476204,-0.04159056395292282,0.1236381009221077,0.06330059468746185,-0.01033069659024477,-0.1566738784313202,0.04198133572936058,-0.2225969284772873,-0.2959217429161072,0.02882211282849312,-0.12025447934865952,-0.0708475112915039,-0.04046439006924629,-0.013243122957646847,-0.2563778758049011,-0.1920880526304245,0.13708439469337463,0.19380627572536469,0.02756466157734394,-0.09024758636951447,-0.08692622929811478,-0.021008450537919998,0.11576435714960098,0.16059264540672302,0.024929378181695938,-0.20842762291431427,0.046084579080343246,0.09187336266040802,-0.021533755585551262,0.20642635226249695,0.15339666604995728,0.19109581410884857,-0.08645343035459518,-0.15488696098327637,0.08647974580526352,-0.04807422310113907,0.04431161656975746,0.16336524486541748,-0.08129343390464783,-0.06316414475440979,0.02972296066582203,-0.04442348703742027,-0.043385256081819534,-0.07361988723278046,-0.05279458686709404,-0.10850057750940323,0.12208309024572372,0.05839458853006363,0.13260826468467712,0.11996007710695267,0.06592012941837311,-0.04029788076877594,0.03186195716261864,0.06777263432741165,0.14480608701705933,0.16280657052993774,0.0016142416279762983,0.03376888111233711,-0.04047495126724243,-0.05325155332684517,0.1450587809085846,-0.08657189458608627,0.12423042953014374,-0.12866921722888947,0.1691594123840332,-0.23887716233730316],[0.09578210860490799,-0.09150213748216629,0.05325247347354889,0.14131195843219757,-0.08728321641683578,-0.11344952136278152,-0.0054437266662716866,-0.022432800382375717,0.035170458257198334,-0.10545851290225983,0.06935279816389084,0.02406376786530018,-0.07007697224617004,0.19003647565841675,-0.23247036337852478,-0.4121010899543762,-0.0023248104844242334,-0.009789661504328251,0.09740537405014038,-0.07456596195697784,-0.046169720590114594,-0.026553140953183174,0.018041463568806648,-0.10200273245573044,-0.016718650236725807,0.11181002110242844,-0.02377954125404358,-0.020678924396634102,0.07479546219110489,0.12058692425489426,0.04650482162833214,-0.0538083091378212,-0.05670978128910065,0.025453710928559303,0.047979094088077545,0.015933340415358543,0.0227193646132946,-0.050781648606061935,0.005676289554685354,-0.13914784789085388,-0.23442842066287994,0.17867369949817657,0.05184125900268555,-0.0215043593198061,0.008333644829690456,-0.08882886171340942,0.11138295382261276,-0.06706324964761734,0.029796581715345383,0.04746608808636665,0.10234209895133972,0.13319943845272064,0.13783089816570282,0.07845184952020645,0.03737097606062889,-0.10631110519170761,0.05244461074471474,0.0906221941113472,0.03727349638938904,0.042078737169504166,-0.038470618426799774,-0.016822636127471924,0.03419917821884155,-0.07312300056219101,0.012552020139992237,-0.03752109035849571,-0.06641901284456253,0.18815411627292633,0.04623378440737724,0.13041843473911285,-0.019343489781022072,0.0034540032502263784,-0.07430794090032578],[0.06678693741559982,0.08077866584062576,-0.06742548942565918,0.022636471316218376,0.06132163852453232,-0.005834298674017191,-0.005574928596615791,0.0004709709610324353,-0.006431363057345152,-0.11520350724458694,-0.11541745066642761,-0.06526359915733337,0.01420974638313055,-0.13320393860340118,0.05639677122235298,0.8937279582023621,0.00879446417093277,0.09741447120904922,0.16555532813072205,0.14319276809692383,-0.07547122240066528,-0.051922354847192764,-0.06450474262237549,-0.09257757663726807,0.006030343472957611,0.2154499888420105,