{"type":"scry_window_q_tanh","observation_size":34,"hidden_sizes":[128,128],"policy_layers":[{"weight":[[0.1608780324459076,0.16829527914524078,0.0036950474604964256,0.02264605090022087,0.005842104554176331,0.13447345793247223,0.15571950376033783,-0.1486377865076065,0.0076985955238342285,0.16129080951213837,-0.02436956577003002,-0.06779579818248749,-0.13310746848583221,-0.0475279837846756,-0.06752827763557434,0.1620589643716812,0.027661200612783432,0.08109626173973083,0.04077679291367531,-0.12556906044483185,0.07954505831003189,0.027989286929368973,-0.0049543967470526695,0.08306094259023666,1.4989975170465186e-05,-0.10766639560461044,-0.012162834405899048,0.16170625388622284,-0.11186298727989197,0.08400986343622208,0.13847936689853668,0.12020541727542877,-0.1358693242073059,0.05556975305080414],[0.036918580532073975,-0.1778467446565628,-0.043807897716760635,-0.17708036303520203,-0.16157172620296478,-0.06559695303440094,-0.06855219602584839,0.03571974113583565,0.1431495100259781,0.03702297806739807,0.017051609233021736,0.07402001321315765,0.0238481592386961,-0.028686288744211197,-0.14641545712947845,-0.08069547265768051,0.04081267490983009,-0.03138433396816254,-0.09611541777849197,0.1099071204662323,-0.046280089765787125,0.0273002739995718,-0.0978512242436409,-0.13205178081989288,-0.055701181292533875,0.032006219029426575,0.08143691718578339,0.1488599330186844,-0.06585117429494858,0.14300046861171722,0.08664630353450775,-0.0048708319664001465,-0.06455723941326141,0.11730976402759552],[-0.047331180423498154,-0.034340184181928635,0.09186249226331711,0.10473211109638214,-0.0015594065189361572,0.180179625749588,-0.1014634370803833,-0.10517475754022598,0.03809522092342377,0.11444462835788727,-0.1342964917421341,-0.02736010029911995,-0.1052970290184021,0.0667872503399849,-0.16480720043182373,0.13845479488372803,-0.10575882345438004,-0.12081626802682877,0.09929504990577698,-0.023268522694706917,-0.08760040998458862,0.02606341429054737,-0.14010865986347198,0.13375699520111084,0.022234104573726654,0.14152680337429047,0.02428683638572693,-0.061456359922885895,-0.10612275451421738,-0.017302781343460083,0.14508582651615143,-0.014156237244606018,0.03740549087524414,0.14734305441379547],[0.07862938195466995,-0.16277514398097992,-0.013367678038775921,-0.05776950344443321,0.06937193870544434,0.010754945687949657,-0.11817184090614319,0.08803373575210571,0.11410455405712128,-0.0811031386256218,-0.030929120257496834,-0.12051179260015488,0.09829951822757721,0.14107145369052887,0.11528448015451431,-0.10553758591413498,-0.023432157933712006,-0.11008556932210922,-0.1283373236656189,-0.08582504093647003,-0.031301867216825485,-0.09081195294857025,0.11033029854297638,0.013287612237036228,-0.11033876240253448,-0.09215318411588669,0.0504896342754364,-0.006992757320404053,-0.0968100056052208,0.06225079298019409,-0.0036975443363189697,0.07014381885528564,0.13734109699726105,0.03397314250469208],[0.15404437482357025,-0.02241089567542076,-0.12729540467262268,-0.01965041272342205,0.055363669991493225,0.07747263461351395,-0.030323797836899757,0.14017997682094574,-0.15626996755599976,0.03004738688468933,-0.0397224985063076,-0.0009446763433516026,0.10497580468654633,-0.03289355710148811,-0.05248885601758957,0.09013999998569489,0.03505675494670868,0.009682823903858662,0.01053041871637106,0.05236036330461502,0.04466269537806511,0.0347156785428524,-0.1377958506345749,-0.07486972212791443,-0.13477806746959686,0.14143157005310059,0.04712530970573425,-0.06025814265012741,0.10940144956111908,-0.030306294560432434,0.07839851081371307,-0.12579932808876038,-0.08982323110103607,0.07342366874217987],[-0.04002181440591812,-0.12191499024629593,0.03681391850113869,0.1715320199728012,0.01923239231109619,0.17633475363254547,-0.08012134581804276,-0.1573556810617447,-0.0456005334854126,0.05259773135185242,0.05422002822160721,-0.009773792698979378,-0.027670912444591522,0.15331684052944183,0.06283985823392868,0.13466371595859528,0.05977877601981163,0.009247282519936562,-0.015386526472866535,-0.008044826798141003,-0.14049579203128815,-0.08460961282253265,0.013456204906105995,-0.08654612302780151,-0.07183650881052017,-0.025107476860284805,-0.029630646109580994,-0.015215784311294556,0.022189706563949585,-0.03232990950345993,-0.10569530725479126,0.031020179390907288,0.07364523410797119,0.0892966240644455],[0.1371271163225174,-0.08648793399333954,0.06551087647676468,-0.19815458357334137,-0.021107196807861328,0.0337529256939888,0.11035797744989395,0.09822352230548859,-0.11053024232387543,-0.09435871988534927,-0.020853843539953232,0.06679631769657135,-0.05559865012764931,-0.07986738532781601,0.13241098821163177,-0.11067857593297958,-0.01976407691836357,-0.14802737534046173,-0.07287707179784775,-0.08286913484334946,0.10389790683984756,0.021264465525746346,-0.11302557587623596,-0.15010447800159454,0.11402276158332825,-0.14306840300559998,-0.09563959389925003,0.13722868263721466,-0.041346147656440735,-0.06707526743412018,-0.028945401310920715,-0.1702275276184082,0.11208252608776093,0.07880859076976776],[-0.018906334415078163,0.10980620980262756,0.03550206497311592,0.18320968747138977,0.061095744371414185,-0.08932510018348694,0.13564841449260712,-0.08116399496793747,-0.1667151004076004,0.069332554936409,0.06486807763576508,-0.16639064252376556,-0.10154765099287033,-0.02585000917315483,0.10201336443424225,-0.08459290117025375,0.017558002844452858,0.05951077491044998,-0.1408037543296814,-0.08081064373254776,-0.17541074752807617,0.15168499946594238,0.08546918630599976,-0.09080658107995987,-0.0514240488409996,-0.0882997065782547,-0.1357244849205017,-0.09022365510463715,0.07264940440654755,-0.010669035837054253,0.03991764783859253,-0.0845099613070488,-0.14411714673042297,0.13099081814289093],[-0.08856622129678726,0.1346985101699829,0.07807464897632599,-0.12521736323833466,0.04490859806537628,-0.03298214077949524,0.15868501365184784,-0.05396648496389389,-0.002923816442489624,-0.15003785490989685,0.08065969496965408,0.14393647015094757,-0.13510116934776306,0.011012470349669456,-0.044879816472530365,0.17119139432907104,-0.008836086839437485,-0.1432400345802307,0.015444809570908546,-0.03352653607726097,0.07062817364931107,0.12868383526802063,-0.0663505420088768,-0.09630650281906128,-0.14106397330760956,-0.04882865026593208,-0.08244483172893524,0.16216440498828888,-0.018289804458618164,-0.12248135358095169,-0.14611899852752686,-0.16129480302333832,0.04571130871772766,-0.08477727323770523],[0.06762346625328064,-0.025505002588033676,0.015748273581266403,0.1152406707406044,0.1273358315229416,-0.07874281704425812,-0.13059698045253754,-0.017172571271657944,-0.07304510474205017,0.1218157559633255,-0.1416308879852295,0.13542470335960388,0.025484515354037285,-0.11771311610937119,0.11161898076534271,-0.06789444386959076,-0.12825386226177216,-0.08066647499799728,-0.11935412138700485,0.12064049392938614,0.045207712799310684,-0.026143841445446014,0.06269481033086777,0.04244096204638481,-0.016462214291095734,0.05472343787550926,0.09847699105739594,-0.07696676254272461,0.1151285320520401,0.023042477667331696,0.15221025049686432,0.1543302685022354,0.16829849779605865,0.16119582951068878],[0.11296654492616653,-0.016848908737301826,-0.11279207468032837,-0.0686674416065216,-0.0025832056999206543,-0.06821790337562561,-0.11962900310754776,0.1297343224287033,-0.03723640739917755,0.016431570053100586,-0.12865135073661804,-0.008129598572850227,0.1769116073846817,-0.009349571540951729,0.07586080580949783,0.0827939435839653,0.005238683428615332,-0.011952757835388184,0.1362854689359665,0.11458874493837357,-0.11429192125797272,0.09147835522890091,-0.04971561208367348,-0.024075178429484367,0.10470212996006012,-0.007128299679607153,0.10391469299793243,-0.1487301141023636,0.08215384185314178,-0.1137733981013298,0.019913464784622192,-0.13850662112236023,0.006249025464057922,0.11815719306468964],[0.15608403086662292,0.13089671730995178,0.0753224566578865,0.12313063442707062,-0.008136376738548279,0.12395201623439789,0.03785112872719765,-0.13332250714302063,0.08038388192653656,0.11104728281497955,-0.07399103045463562,0.11932717263698578,-0.1366048902273178,0.09880141168832779,0.09399165213108063,-0.12329728156328201,0.07335634529590607,-0.026005955412983894,-0.04349147528409958,-0.044453080743551254,0.14814960956573486,-0.08115324378013611,-0.05968437343835831,-0.031209174543619156,0.026838967576622963,0.10471370816230774,0.04421345889568329,0.09323336184024811,0.1633537858724594,0.06167861074209213,-0.11781243979930878,-0.1626598834991455,-0.1056131049990654,-0.026149839162826538],[0.0555926114320755,-0.08820183575153351,-0.021337207406759262,-0.14109903573989868,0.0957854837179184,-0.1202339306473732,-0.14874482154846191,-0.09403108805418015,-0.045721590518951416,-0.08942046016454697,0.08926630020141602,-0.013648799620568752,-0.18746736645698547,-0.051932405680418015,-0.015373429283499718,0.17990106344223022,-0.14581745862960815,-0.012365738861262798,-0.08621574938297272,-0.022286148741841316,-0.06952644139528275,-0.1447286158800125,0.1502699851989746,-0.0951027199625969,-0.0710608959197998,-0.07032904028892517,0.16497616469860077,-0.024702653288841248,0.17111940681934357,0.02713051438331604,0.04314142465591431,0.00360696017742157,0.1647263914346695,-0.0034307241439819336],[-0.15420836210250854,0.15515246987342834,0.07480443269014359,0.10288813710212708,-0.11310799419879913,-0.0071842242032289505,0.06502231955528259,0.01577424630522728,0.10848920047283173,-0.14087587594985962,0.13546395301818848,-0.10372546315193176,-0.13113906979560852,-0.1282198578119278,0.13343152403831482,0.01748330146074295,0.0192389078438282,0.11755960434675217,0.15039798617362976,-0.0761285126209259,-0.17710688710212708,0.08481506258249283,-0.03217460587620735,0.1679358333349228,0.06504479050636292,0.005465625785291195,0.08782903850078583,-0.12527096271514893,-0.11868268251419067,-0.08233502507209778,0.1263294368982315,-0.08304930478334427,-0.13367506861686707,0.06892363727092743],[-0.18020136654376984,-0.08471716195344925,-0.089426688849926,-0.1162983849644661,-0.11717772483825684,0.009513592347502708,-0.03372201323509216,-0.1040509045124054,0.016785547137260437,0.03501145541667938,0.0472833514213562,-0.025632785633206367,-0.08988509327173233,0.10244403034448624,-0.05293935164809227,0.09028557687997818,0.012704169377684593,0.04496829956769943,0.06763596832752228,0.06438037008047104,-0.07030491530895233,0.09519504010677338,0.17443141341209412,0.022202221676707268,0.1796562224626541,0.10556783527135849,-0.04421110451221466,-0.004099249839782715,-0.11360202729701996,0.1260596662759781,-0.03159993886947632,0.10473062098026276,0.012762591242790222,0.04913313686847687],[0.025880446657538414,-0.1906488686800003,0.04749027639627457,-0.03640874847769737,-0.16747841238975525,0.14026442170143127,0.0015592890558764338,-0.1228732317686081,-0.03748762607574463,-0.07084792852401733,-0.14257830381393433,0.08863918483257294,0.10193882137537003,0.10180971771478653,-0.07808905839920044,-0.17050853371620178,-0.16079960763454437,-0.015219520777463913,0.10021757334470749,-0.0022975329775363207,-0.07768704742193222,0.12743790447711945,-0.1442258208990097,-0.04556727409362793,0.017129547894001007,-0.06653377413749695,0.029825419187545776,0.12898759543895721,0.024660348892211914,-0.05634293705224991,0.033207327127456665,0.05481445789337158,0.15581725537776947,-0.12301283329725266],[0.006293049547821283,-0.09197329729795456,0.1641666442155838,-0.1751086413860321,0.1312052458524704,-0.014861677773296833,-0.08145499974489212,-0.06480848044157028,-0.004317745566368103,-0.048494622111320496,-0.06754478812217712,-0.12101245671510696,0.015878325328230858,0.04762675240635872,0.0001518476492492482,-0.16057494282722473,0.037363458424806595,-0.05352567881345749,0.1462181806564331,-0.04472343251109123,0.12780781090259552,-0.16351446509361267,-0.04133803769946098,0.06926178187131882,-0.10005154460668564,-0.13326998054981232,0.00928129255771637,0.010187581181526184,0.03107282519340515,-0.13749007880687714,-0.1619390845298767,0.1581338793039322,-0.12293393909931183,0.09992493689060211],[-0.01991315744817257,0.16594748198986053,-0.16086918115615845,0.003389462362974882,-0.03606574237346649,-0.1409643590450287,0.0947892814874649,-0.02745211124420166,0.09865336120128632,-0.1388716846704483,0.04753395542502403,0.15486671030521393,0.09189196676015854,0.11813731491565704,0.17967715859413147,0.04767434298992157,-0.12359596788883209,-0.04261728376150131,-0.12843364477157593,-0.12033030390739441,-0.13506093621253967,0.07306379079818726,-0.09637004882097244,-0.16287536919116974,-0.15437650680541992,0.10960347205400467,-0.14128652215003967,-0.021290823817253113,-0.10592246800661087,-0.16657008230686188,0.10060997307300568,0.15625835955142975,0.14194752275943756,-0.014657527208328247],[-0.043263450264930725,0.006171249784529209,0.023947585374116898,0.008346344344317913,-0.15341198444366455,-0.006746252998709679,0.10297517478466034,-0.13451986014842987,0.10010199248790741,-0.0002117753028869629,-0.11544786393642426,-0.00546165369451046,-0.1340554803609848,-0.029631296172738075,-0.12717615067958832,-0.15434250235557556,-0.11326061934232712,0.01060394011437893,-0.15812794864177704,-0.17122186720371246,-0.13551318645477295,0.11160251498222351,-0.1011335700750351,0.117398701608181,0.04978027194738388,0.1499807983636856,0.1667010635137558,-0.06967436522245407,-0.12440431118011475,-0.0459335632622242,0.06260524690151215,0.04425297677516937,0.008860260248184204,0.14393191039562225],[-0.08185926079750061,0.1257724165916443,0.004551256075501442,-0.08648396283388138,-0.14583463966846466,-0.14830096065998077,0.16904397308826447,-0.03158344700932503,0.14268697798252106,0.14756296575069427,-0.03267009183764458,-0.15708014369010925,-0.030672457069158554,0.010558896698057652,0.06871048361063004,0.04001634195446968,0.0711221918463707,-0.1656566560268402,-0.09035925567150116,0.15614460408687592,-0.04838437959551811,0.13971729576587677,-0.115842305123806,-0.06642866134643555,0.11241751164197922,0.10774458944797516,0.0005839914083480835,-0.03446757793426514,-0.09141094982624054,-0.11216678470373154,-0.04413895308971405,-0.0017970949411392212,0.05399957299232483,-0.14572055637836456],[-0.12075185030698776,0.0959322452545166,-0.062002312391996384,0.030292239040136337,0.05119921267032623,-0.04921853914856911,-0.06319304555654526,0.048014793545007706,0.06038099527359009,-0.13129231333732605,-0.0075243255123496056,0.14633966982364655,0.08527915924787521,0.04417404532432556,0.1866912692785263,0.019817624241113663,0.04177933931350708,-0.05892955884337425,-0.10431987047195435,-0.0663343220949173,0.05271917209029198,0.08950501680374146,-0.1510470062494278,0.14734472334384918,-0.0761607438325882,-0.07749547809362411,-0.11447732895612717,-0.06799280643463135,-0.06433243304491043,0.0699334666132927,-0.08478585630655289,-0.042092740535736084,0.009557202458381653,0.0942828506231308],[0.15953975915908813,0.011960601434111595,0.09132686257362366,-2.932718962256331e-05,0.08968515694141388,0.12943135201931,-0.0589214488863945,0.14355073869228363,0.050222232937812805,0.09070955216884613,-0.0930684506893158,0.12788930535316467,0.01963675208389759,0.04288049414753914,-0.16989798843860626,0.08607318252325058,-0.11450538784265518,0.13792361319065094,0.003972802776843309,0.09782735258340836,0.10820967704057693,-0.0649835541844368,-0.17747144401073456,0.19741520285606384,0.18291394412517548,0.026904601603746414,-0.1194247156381607,-0.0827745571732521,-0.04962068796157837,-0.050983965396881104,-0.09734433144330978,-0.11543095111846924,-0.1425062119960785,0.06371092796325684],[0.064606674015522,-0.0570809468626976,-0.01732947863638401,-0.07741440832614899,-0.08605995774269104,-0.11532145738601685,0.11125187575817108,-0.14128179848194122,-0.14702844619750977,-0.055570751428604126,0.1024906113743782,0.07791250944137573,0.051190998405218124,0.09387677907943726,-0.09392064809799194,0.0956718921661377,0.16542790830135345,-0.08225984871387482,-0.05053645744919777,0.03861171007156372,-0.029945887625217438,-0.10077673196792603,-0.04970206692814827,0.16074568033218384,0.09272176027297974,0.1423245072364807,-0.16446399688720703,-0.12743747234344482,-0.042339831590652466,0.1020604744553566,-0.021424755454063416,-0.07739410549402237,0.12523464858531952,-0.03381103277206421],[-0.1590661257505417,0.002512203296646476,0.09158694744110107,0.16002947092056274,-0.050012849271297455,0.05071109160780907,-0.025257155299186707,-0.09661723673343658,0.03855666518211365,-0.09158764779567719,-0.08560476452112198,0.051199786365032196,-0.08938251435756683,0.09974320977926254,-0.1654072105884552,-0.09226398169994354,-0.014975993894040585,-0.04803299903869629,-0.04119296371936798,-0.17203639447689056,-0.03696068376302719,0.05423316732048988,0.16264238953590393,0.03782903775572777,0.10054901987314224,0.10944537073373795,-0.11806872487068176,0.0669751912355423,-0.15031848847866058,-0.12581302225589752,-0.1667625904083252,0.12828440964221954,0.02498161792755127,0.12969382107257843],[-0.18026310205459595,0.012555708177387714,0.017498726025223732,-0.0366189107298851,0.14690564572811127,-0.17564542591571808,0.06333938986063004,-0.14760859310626984,-0.05436691641807556,0.05987487733364105,-0.0601772703230381,0.15130309760570526,-0.15742507576942444,-0.02390976995229721,0.021914245560765266,0.05162660405039787,0.14855146408081055,-0.027178561314940453,-0.13073821365833282,-0.006163615733385086,-0.008481137454509735,0.08709517866373062,0.12059645354747772,-0.12958680093288422,-0.1565219908952713,0.08118334412574768,0.13196469843387604,0.12296397984027863,-0.13339559733867645,0.0620550699532032,0.12688763439655304,0.15613912045955658,0.09551222622394562,-0.09348195046186447],[0.0165568757802248,0.15858349204063416,0.014548898674547672,-0.12743079662322998,0.1698664277791977,0.030497165396809578,-0.11594687402248383,0.14991658926010132,-0.1358022391796112,-0.038242727518081665,-0.0955560952425003,-0.05469464883208275,-0.15558019280433655,0.14545276761054993,0.10171569883823395,0.07205100357532501,-0.0369330532848835,0.13302384316921234,-0.07171553373336792,0.04368939250707626,-0.13659437000751495,0.11008260399103165,-0.08987083286046982,-0.19656676054000854,-0.16790056228637695,0.008132606744766235,0.010477319359779358,0.10299934446811676,-0.04743298888206482,-0.017935065552592278,-0.03568632900714874,-0.0895635262131691,0.0075735002756118774,0.03327447175979614],[-0.008112231269478798,0.1352352797985077,-0.016597701236605644,0.0055543421767652035,-0.15301081538200378,-0.021179761737585068,-0.15911851823329926,0.16877809166908264,-0.029603883624076843,0.14347951114177704,-0.13001275062561035,-0.15118654072284698,0.18146176636219025,-0.14799004793167114,-0.043673817068338394,-0.022932089865207672,0.14806999266147614,0.17344576120376587,-0.1365080624818802,0.08621975779533386,-0.0055897291749715805,0.0798632800579071,-0.15955998003482819,0.07358120381832123,0.008986808359622955,-0.09782233089208603,0.003306448459625244,-0.10902029275894165,-0.015652954578399658,-0.0736885741353035,-0.13236355781555176,-0.05136367678642273,-0.06100131571292877,0.05466271936893463],[0.06786083430051804,0.08772017061710358,0.010937893763184547,0.1229562759399414,-0.1626998335123062,-0.11021490395069122,-0.16454654932022095,0.09884225577116013,0.06856010854244232,-0.12375365197658539,-0.036091241985559464,-0.1454974114894867,-0.13764868676662445,0.012778265401721,-0.021737856790423393,-0.03555002436041832,0.04761494696140289,0.15486085414886475,0.000903407868463546,0.12821389734745026,0.039197638630867004,0.04551312327384949,0.018020670861005783,-0.13224974274635315,0.1263159215450287,0.14477212727069855,0.17089231312274933,-0.09729593992233276,0.10693128407001495,0.05649084970355034,0.1008223444223404,-0.05913475155830383,-0.11313925683498383,-0.10339758545160294],[-0.132995143532753,-0.033339787274599075,-0.02856098674237728,-0.17158910632133484,-0.15796858072280884,0.06423384696245193,-0.07687323540449142,-0.1445089727640152,-0.041018471121788025,0.09494607150554657,-0.03544039651751518,-0.0381205789744854,0.11109378933906555,0.07570596784353256,0.1650463491678238,-0.14441722631454468,-0.18355870246887207,-0.146284818649292,-0.09620603919029236,0.11621414870023727,-0.02428295835852623,-0.036487482488155365,-0.09827686846256256,-0.10264500230550766,-0.07592794299125671,-0.08820509910583496,-0.11316987872123718,-0.14363567531108856,-0.060051269829273224,-0.1468973010778427,-0.07044652104377747,0.00554811954498291,-0.015180915594100952,0.04454909265041351],[0.16509999334812164,-0.10740683972835541,-0.07725699245929718,-0.14087232947349548,0.012673601508140564,0.05850079655647278,0.09218189120292664,-0.1259436160326004,0.0014013946056365967,-0.00948701798915863,0.10084228217601776,0.0813373550772667,0.10133965313434601,0.10756330192089081,0.01121921930462122,-0.06617064028978348,0.1491694450378418,-0.10239872336387634,0.030591942369937897,0.027170151472091675,-0.002201321069151163,-0.09150238335132599,-0.12055941671133041,-0.15522508323192596,-0.0747041180729866,0.15237422287464142,-0.1290886104106903,0.09958408772945404,0.06729675829410553,-0.09964986145496368,-0.121375173330307,0.01864895224571228,0.1358698159456253,0.1273103803396225],[-0.026158727705478668,-0.19864332675933838,-0.12485874444246292,-0.13805560767650604,0.16635407507419586,0.08023707568645477,0.00857273954898119,0.014771834015846252,-0.14387579262256622,0.048439279198646545,0.04485437646508217,0.04904904216527939,-0.006707263644784689,-0.10265929996967316,-0.0676378384232521,0.01279097143560648,-0.07261098921298981,0.04831342771649361,0.13274624943733215,-0.12683893740177155,0.1666213572025299,0.06796287000179291,0.15682369470596313,-0.18412338197231293,-0.1601865142583847,0.08665813505649567,-0.003273606300354004,-0.02905113995075226,-0.05556480586528778,-0.06917472928762436,0.09645731747150421,-0.07461080700159073,0.07603491842746735,0.14124394953250885],[-0.06926926225423813,0.13287365436553955,-0.05845709145069122,-0.0649113729596138,0.16133750975131989,0.13387030363082886,-0.0034167214762419462,-0.055980417877435684,0.08249272406101227,-0.08298783004283905,0.11765971034765244,0.10256951302289963,0.08316300064325333,0.14325736463069916,-0.00747170252725482,-0.11360837519168854,0.014003349468111992,-0.12816327810287476,0.150997593998909,0.12999862432479858,-0.10534149408340454,0.07813553512096405,0.17761936783790588,-0.06759851425886154,0.18866844475269318,-0.08317115902900696,0.10258765518665314,0.09462065994739532,0.15941636264324188,0.0599970743060112,-0.04727958142757416,0.1480371505022049,-0.06194542348384857,-0.09600169956684113],[-0.10281781852245331,-0.13752739131450653,0.10633876174688339,-0.13662070035934448,0.09226937592029572,-0.16176173090934753,-0.09516499936580658,-0.006899550091475248,-0.03810490667819977,-0.08611313998699188,-0.09918598085641861,0.07860885560512543,-0.026693833991885185,0.07545127719640732,0.13451752066612244,0.05244769528508186,0.07712722569704056,-0.07783887535333633,-0.021462194621562958,0.09572695940732956,0.017142120748758316,0.13255561888217926,-0.04146427661180496,-0.14586172997951508,-0.08422144502401352,-0.14280478656291962,0.0931238979101181,-0.0775802880525589,-0.04236431419849396,0.06320859491825104,-0.018589571118354797,-0.033859267830848694,0.09598545730113983,0.09415663778781891],[-0.04506625607609749,0.02134418487548828,0.12034118175506592,-0.18069468438625336,-0.008396834135055542,-0.06377164274454117,-0.16825591027736664,0.03279881924390793,0.11594869196414948,0.11877097189426422,0.1683684140443802,-0.033650774508714676,0.009926964528858662,-0.11953577399253845,-0.08346875011920929,0.09367302805185318,0.10101049393415451,0.14352992177009583,0.044118862599134445,0.13148869574069977,0.08264512568712234,0.08904839307069778,-0.10555913299322128,0.16984400153160095,0.03743641451001167,-0.06287332624197006,-0.14036047458648682,0.07410736382007599,-0.050549961626529694,0.0838940218091011,-0.004469230771064758,-0.15520110726356506,-0.16797086596488953,0.02309991419315338],[-0.05516783520579338,0.14372369647026062,0.13703620433807373,0.014847185462713242,-0.10860509425401688,-0.15007250010967255,0.14018037915229797,-0.05303889885544777,0.06548027694225311,-0.09628845006227493,-0.06673292815685272,0.03372376039624214,-0.08716247230768204,-0.07252542674541473,0.03368193283677101,0.08645625412464142,-0.029992317780852318,-0.14406882226467133,-0.151170551776886,-0.16655702888965607,-0.025242386385798454,0.11721505224704742,0.1345943957567215,0.02916552871465683,-0.13391132652759552,0.05703452602028847,-0.0094374418258667,0.15849150717258453,-0.04060204327106476,-0.16076922416687012,0.12607823312282562,0.07783623039722443,0.14899270236492157,0.13498444855213165],[0.03829052299261093,0.13075190782546997,0.15914210677146912,-0.13640110194683075,-0.13232266902923584,-0.09565354883670807,-0.08209359645843506,-0.10980421304702759,-0.13708527386188507,-0.09690877050161362,0.03935129940509796,0.15664859116077423,0.07239913940429688,-0.03394866734743118,0.014186987653374672,0.02517791837453842,0.1010427251458168,-0.03996289148926735,-0.10612677037715912,0.0036512999795377254,0.0783514752984047,0.09093763679265976,-0.037390708923339844,0.10146106779575348,-0.1266966611146927,-0.1319829374551773,-0.09445836395025253,0.008462339639663696,-0.1023339107632637,-0.06502826511859894,0.08138372004032135,0.10511524975299835,-0.008925840258598328,0.0313950777053833],[0.1477717161178589,-0.047566354274749756,0.06468235701322556,-0.13385576009750366,0.07821397483348846,0.05483556166291237,-0.13350288569927216,0.053427938371896744,-0.15976616740226746,0.171229287981987,-0.10617245733737946,-0.13960137963294983,0.1715882271528244,0.15934665501117706,0.013317781500518322,0.08731807768344879,0.008333049714565277,-0.11214971542358398,0.02731553092598915,-0.07871998101472855,0.10907125473022461,-0.029188452288508415,-0.036596283316612244,-0.018524201586842537,-0.07429774850606918,-0.15231965482234955,-0.16915780305862427,-0.14004908502101898,-0.07639621943235397,0.08365356177091599,0.059005990624427795,0.011693060398101807,0.06996798515319824,0.014487683773040771],[-0.0820719450712204,0.013593582436442375,0.07917264103889465,0.1876830905675888,-0.1071682944893837,0.11429368704557419,0.0402718149125576,-0.10910755395889282,-0.135099396109581,-0.06485608965158463,-0.09077683091163635,0.11512172222137451,-0.03670608997344971,-0.016798755154013634,-0.02749900333583355,0.020627133548259735,-0.15740662813186646,0.05035960301756859,0.06565091013908386,0.1633705198764801,-0.0756499320268631,-0.15247786045074463,0.08175265043973923,-0.07541193068027496,0.02170165628194809,0.10925721377134323,0.16339649260044098,0.030852138996124268,-0.05157528072595596,0.06533549726009369,0.06716273725032806,-0.08989515155553818,-0.16295011341571808,0.029890164732933044],[-0.012888729572296143,-0.023734429851174355,0.03132351115345955,-0.045076947659254074,0.07148608565330505,-0.016469042748212814,0.04465305805206299,0.12699376046657562,0.0905398279428482,-0.11449159681797028,-0.07666897773742676,0.04107145592570305,0.10374856740236282,0.053067903965711594,0.18376776576042175,0.00011569452908588573,-0.15549017488956451,-0.007994645275175571,-0.04313644394278526,0.09430867433547974,0.028011446818709373,0.044705066829919815,0.05228651314973831,-0.08098586648702621,0.10900641232728958,-0.05912618711590767,0.094530388712883,0.16729621589183807,-0.11771661043167114,0.08554810285568237,-0.14311541616916656,-0.1035226434469223,-0.05859529227018356,0.07144826650619507],[-0.10780907422304153,-0.014850622043013573,-0.12804140150547028,0.009821266867220402,-0.016407713294029236,-0.02806526981294155,-0.02324792556464672,0.15629568696022034,-0.08593249320983887,-0.12784810364246368,-0.03200582414865494,0.10629899799823761,-0.04838085174560547,0.13844801485538483,0.01931821182370186,0.029237939044833183,-0.04813509061932564,0.05403949320316315,0.02907068468630314,0.06247011572122574,0.043342456221580505,-0.09815771132707596,0.11677944660186768,-0.058503031730651855,-0.1422204077243805,-0.09917594492435455,0.013725101947784424,0.1114712804555893,0.1638711541891098,0.13718509674072266,0.1656486839056015,-0.10347359627485275,-0.16533823311328888,-0.15531858801841736],[-0.07551833987236023,0.12002560496330261,-0.10540325939655304,0.03863624483346939,0.004677698016166687,-0.049304306507110596,0.08200298994779587,0.06445574015378952,0.04929499328136444,-0.011594802141189575,0.02147083543241024,-0.12084290385246277,-0.08532695472240448,-0.0002237734734080732,0.13961921632289886,0.10849019885063171,0.02280716598033905,0.024260038509964943,0.09521767497062683,0.006687308195978403,-0.14412519335746765,0.03830995410680771,-0.022418459877371788,-0.11309342086315155,-0.15490271151065826,-0.01296923402696848,-0.04411420226097107,-0.018272310495376587,0.09434203803539276,0.12222829461097717,-0.1428866982460022,-0.16348811984062195,-0.1587056964635849,0.16407759487628937],[-0.1094837412238121,-0.10804937034845352,-0.04375750571489334,-0.010369374416768551,0.15034358203411102,0.1646476835012436,0.022159568965435028,0.15646614134311676,0.15504004061222076,-0.09001372754573822,0.049952100962400436,-0.12909261882305145,-0.009046202525496483,0.04632234573364258,-0.1639135628938675,0.036025386303663254,0.02318764105439186,0.11936402320861816,0.02926727943122387,-0.02156515046954155,-0.017414243891835213,-0.044517286121845245,-0.026409728452563286,-0.14697077870368958,0.050925079733133316,0.09287293255329132,0.10327158868312836,-0.10139889270067215,-0.05869673937559128,0.04876027628779411,0.1250583976507187,0.1684327870607376,-0.16936837136745453,0.031780749559402466],[0.0036175206769257784,-0.019118627533316612,0.06641506403684616,-0.0640033483505249,-0.07185539603233337,-0.04159478843212128,-0.13890303671360016,-0.07919016480445862,-0.03895343840122223,0.08894620835781097,0.07085925340652466,0.001866562757641077,0.13551469147205353,0.05003280192613602,-0.11363818496465683,0.10144710540771484,0.14292587339878082,-0.002143953461199999,-0.1074381172657013,0.0753328949213028,0.02187630720436573,0.02769286558032036,0.03047173283994198,0.1535729467868805,0.12621593475341797,0.01907937414944172,-0.05954480171203613,-0.041421324014663696,0.15124817192554474,-0.042310744524002075,-0.044204771518707275,0.0015574395656585693,-0.15638726949691772,0.09783007204532623],[-0.13120339810848236,-0.16305942833423615,-0.11225878447294235,-0.11429205536842346,0.04392075538635254,-0.039845045655965805,-0.10816331952810287,-0.07964033633470535,0.12735186517238617,-0.13707053661346436,-0.13601206243038177,-0.024829478934407234,0.09457053244113922,-0.06447726488113403,-0.10929261893033981,-0.06270232051610947,-0.016458896920084953,-0.10252434015274048,0.1247580498456955,-0.024424202740192413,-0.08060116320848465,-0.10174506902694702,-0.14485566318035126,0.0873202458024025,-0.047026127576828,-0.1386832892894745,0.09720082581043243,0.011280402541160583,0.1188565343618393,0.0028035680297762156,-0.04538232088088989,0.12626583874225616,-0.08767875283956528,-0.021052077412605286],[0.029435232281684875,-0.026732956990599632,0.02371353469789028,0.13159723579883575,-0.1139344722032547,0.034740231931209564,-0.1586645394563675,0.11523184925317764,0.03298486769199371,0.12465883791446686,-0.09607847779989243,-0.008471691980957985,0.1665394902229309,-0.07215499877929688,0.111937515437603,0.14818879961967468,-0.04517868533730507,0.06459410488605499,-0.12284819781780243,-0.050640493631362915,0.12018206715583801,-0.05641163885593414,-0.10393163561820984,0.11274658888578415,0.05690590292215347,-0.058058805763721466,-0.004242151975631714,-0.008975297212600708,-0.14738760888576508,-0.08238919079303741,0.1447550505399704,0.005834922194480896,0.13963554799556732,-0.12473484873771667],[-0.012279787100851536,0.03164339438080788,-0.12994956970214844,-0.04524214565753937,0.14719732105731964,0.14316606521606445,0.07347995787858963,-0.03453455865383148,-0.14461536705493927,0.029185190796852112,-0.11004135012626648,-0.10498994588851929,0.15529054403305054,0.16152586042881012,-0.05157746747136116,-0.14531603455543518,0.015371192246675491,-0.049949996173381805,0.11776360869407654,-0.008810012601315975,0.15090155601501465,-0.036510828882455826,-0.13525061309337616,-0.08903700113296509,0.07103557139635086,-0.14973410964012146,-0.15817147493362427,-0.08770660310983658,-0.08959759026765823,0.11124345660209656,0.10772792994976044,-0.015770599246025085,-0.0028700977563858032,0.021101847290992737],[0.1096983328461647,-0.028697021305561066,-0.012997949495911598,-0.19093364477157593,-0.13900040090084076,-0.14333611726760864,0.13567690551280975,0.045725759118795395,0.04595264792442322,-0.1160193383693695,-0.032824937254190445,-0.11311750113964081,-0.038697145879268646,0.17669633030891418,-0.08031828701496124,0.06786329299211502,0.13374148309230804,0.1574496626853943,-0.12381292879581451,-0.026098811998963356,0.027362216264009476,0.0077853212133049965,-0.04428720474243164,-0.10861639678478241,-0.03665342181921005,-0.06411454826593399,-0.07406126707792282,-0.08974415063858032,-0.10101436078548431,0.018957048654556274,0.09860683977603912,0.07939957082271576,-0.040372952818870544,0.09684358537197113],[0.1339634656906128,-0.15179874002933502,-0.1747971624135971,0.04193710908293724,0.010659337043762207,0.11438347399234772,0.0518510639667511,0.014085776172578335,-0.1626468449831009,0.09565351903438568,0.07598608732223511,0.15209244191646576,-0.08408259600400925,-0.13264989852905273,-0.11375142633914948,0.01562574692070484,-0.15383446216583252,0.08155591785907745,-0.12300252169370651,-0.1486687958240509,0.16907133162021637,-0.0939723327755928,-0.1478814333677292,-0.08587228506803513,-0.11429852992296219,-0.09449726343154907,0.064898282289505,0.015381157398223877,-0.08029364794492722,-0.10699041187763214,0.1647787243127823,-0.1642230898141861,-0.029092594981193542,0.03386479616165161],[-0.00685293460264802,0.019202688708901405,0.015738461166620255,-0.05899129807949066,0.14725284278392792,0.12028291076421738,0.07712788134813309,-0.04353836551308632,-0.1637582927942276,-0.06892762333154678,0.11174309998750687,-0.05680486559867859,-0.01414431445300579,-0.030873503535985947,0.023524872958660126,0.12083318829536438,-0.1397688388824463,-0.04198034852743149,0.04321789741516113,-0.025689251720905304,-0.06674687564373016,0.147626593708992,0.09027811884880066,0.15890011191368103,0.0009150323458015919,0.1427784413099289,0.10634510219097137,0.0033947229385375977,-0.0968804582953453,-0.038642674684524536,0.09519003331661224,-0.0339159220457077,-0.011906936764717102,-0.056726403534412384],[-0.07761804014444351,0.11044088751077652,0.07586198300123215,0.01376818586140871,0.1262003630399704,-0.1310187578201294,0.08876679092645645,0.08060626685619354,-0.09219197928905487,0.16377030313014984,0.1147463247179985,-0.1221495196223259,-0.11909892410039902,-0.05080101266503334,-0.1673598289489746,-0.14410413801670074,0.03174129128456116,-0.103977732360363,0.08174451440572739,-0.12462633848190308,0.003193282289430499,-0.06432587653398514,-0.022275878116488457,0.06988999992609024,-0.1249549388885498,0.11418397724628448,0.11032803356647491,-0.029399707913398743,0.01681007444858551,0.09091901034116745,0.10278414189815521,0.1648503988981247,-0.013213470578193665,0.051910147070884705],[-0.014879535883665085,-0.043043892830610275,-0.1668832004070282,-0.13669949769973755,0.15013264119625092,0.044690340757369995,-0.08843707293272018,-0.05140472948551178,-0.15536434948444366,-0.11118650436401367,0.04302774369716644,-0.10700841248035431,-0.06918374449014664,-0.07294072210788727,0.18418832123279572,-0.1343064159154892,-0.06442385166883469,-0.08959925919771194,0.15711568295955658,-0.07786010950803757,-0.05135805159807205,0.009021126665174961,-0.08850846439599991,-0.02553687058389187,0.009108385071158409,-0.10282113403081894,-0.037306830286979675,-0.11417774111032486,-0.004190266132354736,0.08819633722305298,-0.06539858132600784,-0.04857919365167618,-0.02464599907398224,-0.05929642915725708],[0.016944754868745804,0.06753263622522354,-0.03262794762849808,-0.03147931024432182,0.051557719707489014,-0.006410112138837576,0.07852550595998764,-0.058491192758083344,0.017160221934318542,0.13199104368686676,-0.10773865133523941,0.09496644139289856,-0.0059847296215593815,-0.007773819379508495,0.04813861474394798,0.04408060759305954,0.058124758303165436,0.06214883551001549,-0.15253880620002747,0.025607436895370483,0.00758629385381937,-0.010965600609779358,0.04097117856144905,0.08109177649021149,-0.14136792719364166,0.03268137201666832,0.13514937460422516,0.020649448037147522,0.0729706883430481,0.051003001630306244,-0.1273968368768692,-0.09726832062005997,-0.00023028254508972168,-0.05889572203159332],[-0.11351627111434937,0.141519695520401,0.1186392679810524,-0.05460451915860176,0.16982580721378326,0.1331712156534195,-0.02029300667345524,-0.015332100912928581,-0.1479300707578659,0.11937756836414337,-0.04888176545500755,0.023735539987683296,0.17029164731502533,0.047318700700998306,0.16844721138477325,-0.0861697643995285,-0.06222415715456009,-0.1424359828233719,0.05961690470576286,0.09818226099014282,-0.1217394769191742,-0.08336044102907181,-0.02010803297162056,-0.11576690524816513,-0.0003140736080240458,0.09602653235197067,0.1338859647512436,0.05747012794017792,0.1401837021112442,0.15835939347743988,-0.011153370141983032,0.10766740143299103,0.0833137184381485,0.12396706640720367],[0.16342855989933014,-0.05447873845696449,-0.04381468519568443,-0.11247219145298004,-0.01271703839302063,-0.10441221296787262,0.1254332810640335,-0.11094137281179428,0.10831449925899506,-0.16635972261428833,0.014985774643719196,-0.11647962033748627,0.16787976026535034,0.0227051991969347,-0.08116812258958817,0.09401065111160278,0.13677485287189484,0.051599614322185516,-0.050602518022060394,-0.08481231331825256,-0.018606966361403465,-0.05365975201129913,0.020244523882865906,-0.1587003916501999,0.015852566808462143,0.0640190988779068,-0.0953819528222084,0.10063867270946503,-0.0743558257818222,-0.017633160576224327,-0.05960865318775177,-0.011595696210861206,-0.036601126194000244,0.1519315391778946],[0.11036832630634308,0.17511078715324402,0.13056042790412903,0.11859118193387985,0.004827722907066345,0.18340274691581726,-0.00381290796212852,-0.1621537059545517,-0.050230249762535095,-0.1434573531150818,-0.08025824278593063,0.03220442309975624,-0.09073630720376968,0.1194455549120903,-0.13527151942253113,0.022581832483410835,0.05902189016342163,-0.14695467054843903,0.00478257006034255,0.15106627345085144,-0.12502646446228027,-0.06346843391656876,0.018821440637111664,0.01619946025311947,0.048944178968667984,0.10205300152301788,-0.025326669216156006,-0.07055541127920151,0.060537755489349365,0.13335689902305603,-0.14849388599395752,-0.1437770128250122,0.06105034053325653,-0.13073629140853882],[0.1542302966117859,0.11509590595960617,0.11520077288150787,0.0872931107878685,-0.0890749916434288,-0.12465711683034897,0.08277762681245804,0.09041173756122589,0.1430189460515976,0.026068106293678284,0.15713495016098022,0.012006225064396858,-0.035036176443099976,-0.07259884476661682,-0.09752584248781204,0.10374662280082703,-0.08920998126268387,-0.13917219638824463,-0.12892001867294312,0.00883128959685564,-0.004093538038432598,-0.10629258304834366,-0.03329238295555115,0.04474516585469246,-0.07076805084943771,-0.15621846914291382,-0.1316378265619278,-0.13193835318088531,-0.08667725324630737,0.04064735770225525,-0.09340915083885193,-0.09431701898574829,0.06615249812602997,0.11277662217617035],[0.04526003822684288,-0.032036516815423965,0.11734866350889206,0.10865594446659088,-0.031882256269454956,-0.09832411259412766,0.10894961655139923,0.1382877677679062,-0.16425392031669617,-0.10528063774108887,-0.08550123125314713,0.03382505476474762,-0.12243259698152542,0.1582375317811966,0.03461272269487381,0.021880989894270897,-0.09330804646015167,0.0825655534863472,-0.13664323091506958,0.08797988295555115,0.15398554503917694,-0.012179028242826462,-0.11219029873609543,0.1531640738248825,0.013184227980673313,-0.12007434666156769,-0.11488787084817886,-0.16789288818836212,0.09008128941059113,-0.052449967712163925,0.023188352584838867,0.024212539196014404,0.10544998943805695,0.09116049110889435],[-0.06125055253505707,-0.13501055538654327,0.12477968633174896,0.12677401304244995,0.09805648028850555,-0.018338289111852646,-0.10977283865213394,0.041594553738832474,0.05841583013534546,0.007168829441070557,0.013252406381070614,0.04085458070039749,-0.11532764136791229,0.044552795588970184,-0.007144556380808353,0.10545481741428375,-0.11279196292161942,0.06896338611841202,-0.16034892201423645,0.0853370875120163,0.09968478232622147,0.11475389450788498,0.09485591948032379,-0.17845967411994934,-0.07517915219068527,-0.050507474690675735,-0.1651385873556137,0.13957621157169342,-0.0686698779463768,0.009174691513180733,0.022214025259017944,-0.12938880920410156,-0.14414803683757782,0.15061481297016144],[-0.07790738344192505,-0.1054564118385315,0.007478702813386917,-0.007748286239802837,0.055959269404411316,-0.13922636210918427,-0.08233499526977539,0.06568482518196106,0.005090534687042236,0.03446716070175171,0.05560758337378502,0.011940483935177326,-0.14942359924316406,-0.06847826391458511,0.01151522621512413,-0.043046750128269196,-0.02547844871878624,0.09570886939764023,0.05710121616721153,0.008062444627285004,-0.12906421720981598,0.035780102014541626,-0.0014260297175496817,-0.1570814996957779,0.03413056582212448,0.12430055439472198,-0.10025953501462936,0.012140706181526184,-0.1039227545261383,-0.0999859943985939,0.13390333950519562,-0.05512460321187973,0.16722284257411957,0.058559492230415344],[0.11799418926239014,0.03184781223535538,-0.1872294843196869,0.03567394241690636,-0.058288224041461945,-0.0730869248509407,0.10434030741453171,0.020039303228259087,-0.04714464396238327,0.0006812065839767456,0.13481152057647705,-0.1455138772726059,-0.12952370941638947,-0.011619254015386105,0.10005991905927658,-0.10262704640626907,0.1549043506383896,-0.11879342794418335,-0.112822525203228,-0.09063036739826202,0.12184398621320724,0.13462063670158386,-0.0820600837469101,0.04955516383051872,0.1573401689529419,-0.1292741745710373,0.13926328718662262,-0.15002626180648804,-0.1030554324388504,-0.10237022489309311,0.07257328927516937,0.12914787232875824,0.07677973806858063,0.05481576919555664],[-0.040057629346847534,-0.1719004064798355,0.14664891362190247,-0.11401236057281494,7.931888103485107e-05,-0.05498012155294418,0.15157760679721832,0.16955167055130005,-0.009871959686279297,-0.022953838109970093,-0.06940310448408127,-0.030320951715111732,0.0024575362913310528,0.09541577845811844,0.007989930920302868,0.10409492999315262,0.14264896512031555,0.1235368400812149,-0.061232276260852814,-0.05339736118912697,0.012844382785260677,-0.11886566877365112,-0.01796979270875454,0.05239966884255409,0.0735730230808258,0.04317986220121384,-0.013436704874038696,0.13074783980846405,0.00768674910068512,0.12684954702854156,0.11919622123241425,0.10537894070148468,0.16567467153072357,0.13020534813404083],[0.10604461282491684,-0.10256107896566391,0.0062585435807704926,0.1615278571844101,0.1409168392419815,0.11483252793550491,0.05698912590742111,0.04891519248485565,-0.09997788071632385,0.13610981404781342,0.007612927816808224,0.04219808429479599,-0.0766909271478653,-0.11358606815338135,0.005849530920386314,0.09517892450094223,-0.027458293363451958,0.13456353545188904,0.05528409034013748,-0.074189692735672,-0.14864318072795868,-0.12462346255779266,-0.10658238083124161,-0.03071802854537964,0.0722559317946434,-0.0795515850186348,0.06879790127277374,0.13591696321964264,-0.05337553471326828,0.1616126000881195,0.16737039387226105,-0.01455099880695343,0.10074867308139801,-0.1459411084651947],[-0.14923126995563507,-0.19560867547988892,-0.12521784007549286,0.03975239396095276,0.16458187997341156,-0.08735782653093338,0.07580169290304184,0.10646530240774155,-0.028207778930664062,0.037616148591041565,0.05425052344799042,-0.07107213884592056,0.03607525676488876,-0.15375074744224548,-0.021615982055664062,-2.470836443535518e-05,0.16223879158496857,0.11861652135848999,-0.11341243982315063,-0.12453611940145493,-0.14211101830005646,0.14731907844543457,-0.16805018484592438,0.10007072985172272,0.013330260291695595,-0.02330569550395012,0.11015264689922333,-0.10714014619588852,0.13184426724910736,-0.04142363369464874,0.11445502936840057,-0.15241825580596924,0.005616471171379089,-0.14339953660964966],[0.0888337790966034,-0.1405203640460968,-0.16024631261825562,-0.04330414906144142,-0.13120225071907043,-0.12761659920215607,0.05879201740026474,0.1066514104604721,-0.029166460037231445,0.168060764670372,-0.05281222611665726,-0.005250801797956228,0.12392184883356094,0.0023220470175147057,0.11818347126245499,0.1265769898891449,-0.1421285718679428,-0.06699352711439133,0.09407448023557663,0.11346171796321869,-0.019831417128443718,0.009979908354580402,0.09163544327020645,-0.06852774322032928,-0.021954214200377464,-0.1161959320306778,-0.16389712691307068,0.13207851350307465,-0.021018624305725098,0.09966947883367538,-0.12831902503967285,-0.045333415269851685,-0.047396235167980194,-0.01648794114589691],[-0.11677995324134827,0.08144627511501312,-0.07353229075670242,-0.07395660132169724,0.06708128750324249,0.05465659871697426,0.06348521262407303,0.14598986506462097,-0.004546016454696655,-0.13983631134033203,-0.16803887486457825,0.03505561873316765,-0.09398941695690155,0.01183976698666811,-0.016167718917131424,0.05531393364071846,-0.07430810481309891,-0.15935470163822174,-0.01311604492366314,-0.04193838685750961,0.13139411807060242,-0.06593091785907745,0.16378642618656158,-0.10511337965726852,-0.09300537407398224,0.10271678864955902,0.07503104209899902,-0.09162954241037369,-0.012029260396957397,-0.04058527573943138,0.11727909743785858,-0.1069752424955368,-0.12800993025302887,-0.032139867544174194],[0.09581194072961807,0.027869151905179024,0.1099143996834755,-0.1283925324678421,0.010504603385925293,0.06926118582487106,-0.13475927710533142,0.00140291394200176,0.03069475293159485,0.1050400584936142,-0.08375519514083862,0.0686734989285469,-0.11277312785387039,-0.17143571376800537,-0.06095816567540169,-0.12261512130498886,-0.045817118138074875,-0.12965816259384155,0.17374350130558014,-0.10110936313867569,0.0880664810538292,0.07459193468093872,0.1479758620262146,-0.08646571636199951,0.15742643177509308,0.038496941328048706,0.09901748597621918,0.11877287924289703,0.011539727449417114,-0.15594075620174408,0.0506504625082016,-0.08856916427612305,0.12066216766834259,0.15352623164653778],[0.05022590979933739,-0.0752008855342865,-0.13585972785949707,0.07984435558319092,0.12437520921230316,0.06595367938280106,-0.0030417272355407476,-0.15588130056858063,-0.11149292439222336,0.05612480640411377,-0.05022039636969566,0.0966910719871521,0.0779600590467453,-0.0618368536233902,-0.03888627141714096,-0.11271949112415314,0.1105695515871048,-0.15552492439746857,-0.11000711470842361,-0.09659872949123383,-0.16497235000133514,-0.03143548592925072,-0.07515265792608261,0.12936417758464813,-0.05812026932835579,0.08365648984909058,-0.15799038112163544,-0.12301336228847504,-0.08594140410423279,-0.13541434705257416,0.1284763365983963,-0.16322964429855347,0.030218929052352905,-0.1278846114873886],[0.048147931694984436,0.06807886809110641,-0.012847308069467545,0.16199623048305511,0.038690775632858276,0.04043411836028099,-0.10739327222108841,-0.16734100878238678,0.05100713670253754,0.0016597211360931396,0.08933074027299881,0.09281677007675171,-0.18826055526733398,0.022880427539348602,0.08109794557094574,0.042282771319150925,-0.007483579684048891,0.06730201840400696,-0.07785554230213165,0.020756468176841736,-0.09566660225391388,-0.08545137941837311,0.060521285980939865,0.19650857150554657,0.129827082157135,0.07154669612646103,0.16629581153392792,-0.03895656764507294,-0.101777583360672,-0.1517757922410965,0.08385176956653595,-0.03319719433784485,-0.15320512652397156,-0.01926960051059723],[0.03426343575119972,-0.1008949801325798,0.07598017901182175,-0.18975427746772766,-0.11287178099155426,0.07209914177656174,-0.1149183139204979,0.13607516884803772,-0.1255761981010437,-0.03752435743808746,0.06833132356405258,0.10820967704057693,0.13223879039287567,-0.15067651867866516,-0.05813515558838844,0.10354472696781158,0.04865029454231262,0.050610754638910294,-0.11124957352876663,0.1088661178946495,-0.04885919392108917,-0.025255832821130753,-0.13367219269275665,0.06876545399427414,-0.11563900858163834,-0.05056946724653244,0.15436144173145294,0.02436383068561554,-0.09580930322408676,0.13654561340808868,-0.1323835551738739,0.14826606214046478,-0.07361392676830292,-0.014726921916007996],[-0.08878244459629059,-0.08105116337537766,-0.18772105872631073,-0.1753988265991211,-0.11609436571598053,-0.03039449267089367,-0.08390137553215027,0.06384460628032684,0.05333806574344635,-0.03107006847858429,-0.08139903098344803,-0.11833332479000092,-0.02930237352848053,0.13883329927921295,-0.011794074438512325,0.0565599650144577,-0.12918584048748016,-0.006864508613944054,-0.03133273497223854,-0.020734529942274094,-0.04166380316019058,0.05273978412151337,-0.11828869581222534,-0.16720987856388092,0.11028755456209183,0.18129487335681915,0.0611284077167511,-0.12698733806610107,-0.16464537382125854,0.14924880862236023,-0.04515548050403595,-0.12642081081867218,-0.05017434060573578,-0.0686224102973938],[0.062029868364334106,0.1710369884967804,0.0671645775437355,0.19419586658477783,-0.15746988356113434,-0.024602286517620087,0.03274816647171974,-0.11202219873666763,-0.12677323818206787,0.019564330577850342,-0.09168267995119095,0.07051853090524673,-0.06653779000043869,-0.06971626728773117,-0.04072590172290802,0.12202515453100204,0.003565586870536208,0.12103873491287231,-0.10748610645532608,0.030227091163396835,-0.16832467913627625,-0.0360737182199955,0.13160715997219086,0.11200162023305893,0.17797331511974335,0.0031959363259375095,-0.09218730032444,-0.12753337621688843,0.15531332790851593,-0.10027854144573212,0.16263560950756073,-0.04980705678462982,-0.10142586380243301,-0.14114448428153992],[0.11109563708305359,-0.055830687284469604,-0.15725009143352509,-0.18259042501449585,-0.11298884451389313,0.09726770967245102,-0.0034613399766385555,0.13962067663669586,-0.12675264477729797,0.10625849664211273,0.09787870198488235,0.10058510303497314,-0.1741960197687149,0.03077552653849125,-0.14958475530147552,-0.15697090327739716,0.1479877233505249,-0.07383669912815094,-0.1321636587381363,-0.1634264886379242,0.031878337264060974,0.08133544772863388,-0.14596767723560333,-0.0962071344256401,-0.1435568928718567,0.16142039000988007,0.04742829501628876,0.10307134687900543,-0.0629805400967598,0.02909988723695278,0.09192870557308197,0.13730333745479584,0.11913742125034332,0.14775361120700836],[0.1580459028482437,0.04124285280704498,-0.06090296059846878,0.029908735305070877,0.03005288541316986,-0.08290813118219376,0.0048627667129039764,0.012599729001522064,-0.15356791019439697,0.12614302337169647,-0.11104117333889008,0.0710127130150795,0.19197875261306763,-0.048302456736564636,-0.12840087711811066,0.04780071973800659,-0.0452260859310627,-0.05089299753308296,-0.10510803759098053,0.00033191018155775964,0.08754881471395493,0.04261605814099312,0.08877073228359222,-0.182625412940979,-0.14830845594406128,0.03719320893287659,-0.10654041171073914,0.03321215510368347,-0.12669649720191956,-0.017169512808322906,0.026150673627853394,0.12278042733669281,0.07955171167850494,-0.16163520514965057],[0.0021289086434990168,-0.007877224124968052,-0.07471970468759537,0.12221834063529968,-0.1559293270111084,-0.12416871637105942,0.00917454157024622,0.1673491895198822,0.02214178442955017,0.11232547461986542,-0.15405015647411346,0.1412981152534485,-0.07046989351511002,-0.08499399572610855,-6.03873522777576e-05,0.15455374121665955,-0.026798291131854057,-0.006555793806910515,0.12177148461341858,-0.01665664277970791,-0.07798125594854355,-0.13030460476875305,0.09048476815223694,-0.1965964436531067,-0.04780666157603264,0.14549006521701813,0.16067646443843842,-0.030121803283691406,0.1157570630311966,0.14170895516872406,-0.13643783330917358,0.03562970459461212,-0.02587433159351349,-0.09458006918430328],[-0.192575603723526,0.11248049139976501,-0.05011385306715965,-0.12277202308177948,-0.05233144760131836,0.12939028441905975,0.08701899647712708,-0.07505816966295242,-0.10418231785297394,0.050485700368881226,-0.16358023881912231,0.18303370475769043,0.10243213921785355,-0.07224074006080627,-0.006470204330980778,0.046381060034036636,-0.09930930286645889,-0.10476332902908325,0.15740913152694702,-0.004340409301221371,0.14935263991355896,0.030167115852236748,0.10408119112253189,0.044578369706869125,0.07571959495544434,-0.14643000066280365,-0.035191893577575684,-0.16074314713478088,0.07655704021453857,-0.1509503275156021,0.02686941623687744,-0.1129290908575058,0.04039125144481659,0.04676109552383423],[0.0446682944893837,-0.03428901731967926,-0.17719416320323944,0.028574248775839806,0.07393033802509308,-0.1470874845981598,-0.13324134051799774,-0.001172344316728413,-0.07784784585237503,-0.0189933180809021,-0.15523910522460938,-0.030571630224585533,-0.12620140612125397,-0.12489768862724304,-0.1388854831457138,-0.02152113988995552,0.13059793412685394,-0.036450132727622986,0.11550930142402649,0.1454610973596573,0.024416116997599602,0.025920527055859566,0.015279705636203289,-0.10761547833681107,-0.1200813427567482,0.11605513095855713,0.15774445235729218,0.07324239611625671,0.15194614231586456,0.06527690589427948,0.12825213372707367,0.046196743845939636,-0.1008259654045105,0.11800886690616608],[0.025944305583834648,-0.16050589084625244,-0.019170844927430153,0.006802307441830635,-0.03329029679298401,0.05252408608794212,-0.10195642709732056,-0.07835667580366135,0.12012036144733429,-0.07926005125045776,0.12870189547538757,0.034884460270404816,0.1576966643333435,0.13229425251483917,-0.12707991898059845,0.05694841966032982,0.11744186282157898,-0.06457264721393585,0.16991782188415527,0.0005785742541775107,-0.1550154983997345,-0.019941505044698715,-0.06809250265359879,0.10483388602733612,-0.02996578998863697,0.16837243735790253,0.03271646797657013,-0.08549030125141144,-0.11737090349197388,0.0066792662255465984,-0.14257873594760895,0.0807676762342453,0.12689612805843353,0.0493321567773819],[-0.039124615490436554,0.0357067734003067,0.054549846798181534,0.11851080507040024,0.15272046625614166,0.080025814473629,0.02982606738805771,-0.11177905648946762,-0.02828386425971985,-0.06133412569761276,0.035482604056596756,0.03791797533631325,0.13800467550754547,-0.11963165551424026,-0.15774032473564148,0.10846638679504395,0.1086890920996666,-0.08572597056627274,0.06500092893838882,0.12631823122501373,-0.11113579571247101,0.11871571838855743,-0.0358685739338398,0.16541537642478943,-0.04563374072313309,0.11691314727067947,-0.006930038332939148,-0.1373104602098465,0.16634415090084076,-0.03000311739742756,-0.1420619785785675,-0.09084685146808624,0.04800182580947876,0.04586026072502136],[0.15521523356437683,-0.12256517261266708,-0.12284862995147705,0.1690334677696228,-0.09363671392202377,0.08459260314702988,-0.10349652916193008,0.06850647926330566,0.04654374718666077,0.10996516048908234,0.11414181441068649,-0.044644545763731,-0.016510125249624252,-0.1136065274477005,0.06176731735467911,-0.053135763853788376,-0.06898652017116547,0.15545953810214996,-0.017466988414525986,-0.06656379252672195,-0.015565571375191212,0.14742597937583923,-0.009661196731030941,-0.03494276478886604,0.12736479938030243,-0.05892602726817131,0.06477396190166473,0.10157863795757294,0.05605405569076538,-0.010415526106953621,-0.06269562989473343,0.07798582315444946,-0.15412595868110657,-0.00755348801612854],[-0.07140140980482101,0.17560620605945587,0.12357906997203827,-0.03945481404662132,-0.12405790388584137,0.18820057809352875,-0.13230331242084503,-0.014459934085607529,-0.1041429191827774,-0.0965237244963646,0.0008725866791792214,0.11195343732833862,0.023665986955165863,-0.0010030476842075586,0.07909545302391052,0.10505156219005585,0.03605524078011513,0.062366634607315063,-0.16003742814064026,-6.781202682759613e-05,0.023729993030428886,0.15353089570999146,0.0465378612279892,-0.02054355852305889,-0.11269892752170563,0.009637226350605488,0.04574814438819885,0.11812253296375275,0.08194048702716827,0.013367061503231525,0.09668006002902985,0.04212573170661926,0.07579134404659271,0.07654711604118347],[-0.13523879647254944,0.16457363963127136,6.773918721592054e-05,0.1403120756149292,-0.11384732276201248,0.03383742645382881,-0.1639130860567093,-0.10403921455144882,-0.13554751873016357,-0.15263646841049194,0.1145351231098175,-0.11414604634046555,0.12797966599464417,-0.10624735057353973,-0.17239288985729218,0.07247205078601837,-0.019923390820622444,0.11529097706079483,-0.05776128172874451,0.15693703293800354,-0.1483822762966156,0.13716799020767212,0.11401869356632233,-0.07557389885187149,-0.09411501884460449,0.06845445930957794,-0.103763148188591,0.16865961253643036,0.12086568772792816,-0.06363378465175629,-0.07044167816638947,0.051930636167526245,-0.003523498773574829,-0.12592491507530212],[-0.12244267016649246,-0.024868333712220192,-0.12900379300117493,0.06241406872868538,0.005286082625389099,0.030480211600661278,0.16459250450134277,-0.13724900782108307,-0.04061688482761383,0.16070587933063507,0.022134119644761086,0.009391814470291138,-0.1294998675584793,-0.15876781940460205,-0.12301766872406006,-0.0999845489859581,-0.04070581868290901,0.0026909178122878075,0.0737273246049881,-0.03966470807790756,0.0752451941370964,0.09559456259012222,-0.1417638659477234,0.11710339039564133,0.07998594641685486,-0.0032378751784563065,0.08108730614185333,0.14597918093204498,0.02192305028438568,-0.04331441968679428,0.14263449609279633,0.1446905881166458,-0.06095451861619949,0.07298366725444794],[-0.06649882346391678,0.07081565260887146,0.06505405157804489,-0.03533526882529259,0.15649618208408356,-0.05875679478049278,-0.08855661004781723,0.10647673904895782,0.049049556255340576,-0.06663060933351517,0.004670873750001192,0.11538532376289368,0.08241061866283417,0.17063941061496735,-0.08612094819545746,-0.1106519028544426,-0.007529581431299448,-0.06839936226606369,0.07098319381475449,-0.020168360322713852,-0.07760728150606155,-0.017207635566592216,-0.15599071979522705,-0.0002036734513239935,-0.03569164127111435,0.009910915978252888,0.16227184236049652,0.13078872859477997,-0.047397829592227936,-0.12548743188381195,0.11155952513217926,-0.1404082179069519,0.028674393892288208,-0.07241155952215195],[0.037208836525678635,0.03162521868944168,0.07464881986379623,-0.1509811282157898,0.12928219139575958,0.006571511272341013,0.034041933715343475,-0.049817271530628204,-0.024610653519630432,0.004962235689163208,-0.10984297096729279,-0.14052008092403412,0.13913187384605408,0.1456758677959442,-0.10824872553348541,-0.15226727724075317,0.02770279534161091,-0.06232818216085434,0.11613158881664276,-0.09141504764556885,0.0979808121919632,-0.14603590965270996,-0.11879368126392365,0.03316395357251167,-0.14807379245758057,0.10105936229228973,-0.07885868847370148,-0.07622160762548447,0.07120619714260101,-0.054750584065914154,0.11305104196071625,0.1337767392396927,0.06084226071834564,-0.11663818359375],[0.0987231656908989,-0.1458367109298706,0.11261110007762909,0.11553992331027985,0.05293785035610199,-0.0711730346083641,-0.14176949858665466,0.0687188059091568,-0.07855456322431564,0.17075182497501373,-0.16021522879600525,0.0896313264966011,0.09003743529319763,0.13543446362018585,0.0822179913520813,0.13568107783794403,0.1541227400302887,-0.13864120841026306,0.07141441106796265,0.03066377528011799,0.08401136100292206,-0.05856817215681076,0.0427054837346077,0.011613219976425171,-0.050455886870622635,0.10973437875509262,0.06343309581279755,0.15318341553211212,-0.11469205468893051,0.016524214297533035,0.047733232378959656,0.12928713858127594,-0.05757763981819153,-0.08971086889505386],[-0.04156964644789696,-0.06320945918560028,0.1275424063205719,0.04160883650183678,-0.04439125955104828,-0.03232825547456741,-0.03287968412041664,0.12375332415103912,-0.15163873136043549,0.06278938055038452,0.023470714688301086,-0.021348673850297928,-0.053842268884181976,-0.07416792958974838,-0.16126351058483124,-0.12082991003990173,-0.11153990775346756,0.13776922225952148,0.14228060841560364,0.04208480194211006,0.049043234437704086,0.04980649799108505,0.14571337401866913,0.040371913462877274,0.030985089018940926,-0.13909804821014404,-0.02780604362487793,0.11788310110569,0.03160092234611511,0.062126997858285904,-0.07636681944131851,0.08908204734325409,-0.1320599764585495,0.061715900897979736],[-0.14195571839809418,-0.058362655341625214,0.17682267725467682,0.13812048733234406,0.07141697406768799,0.15626771748065948,0.1203533262014389,-0.03582163155078888,0.11249883472919464,-0.11331477016210556,0.07959693670272827,0.00394798070192337,0.028871336951851845,-0.0803564116358757,-0.02086995169520378,-0.1505201756954193,-0.03156360983848572,0.15886367857456207,0.016358764842152596,0.12604384124279022,0.08494149148464203,-0.036447055637836456,-0.14376293122768402,-0.05497261881828308,0.08958610147237778,0.06694113463163376,-0.0014518052339553833,-0.10746539384126663,-0.1224675253033638,0.10009831190109253,-0.1342899352312088,0.037213653326034546,0.10509143769741058,-0.04660093039274216],[-0.05528968945145607,0.1012667790055275,-0.06070238724350929,-0.1699012964963913,-0.11988610029220581,0.009138579480350018,-0.10462547093629837,0.046110253781080246,-0.1643422394990921,0.13966847956180573,-0.16663001477718353,0.019465887919068336,0.14422062039375305,-0.09912924468517303,-0.13324154913425446,0.086031474173069,-0.13269537687301636,0.07529082149267197,-0.11432565748691559,-0.015549578703939915,-0.04283982142806053,-0.1372617781162262,-0.06240588054060936,-0.0647750049829483,-0.03935966268181801,-0.0053303176537156105,0.15097497403621674,-0.15887291729450226,-0.1032230332493782,0.03828910365700722,0.0747913122177124,-0.03730455040931702,-0.09793709218502045,0.08257399499416351],[-0.13188301026821136,-0.03722463920712471,-0.11568272113800049,-0.0746036022901535,-0.11941379308700562,-0.08977273851633072,-0.1373937726020813,-0.0867030993103981,-0.13739943504333496,0.03651437163352966,0.08737224340438843,0.12523314356803894,-0.1285053789615631,0.12621070444583893,-0.09668019413948059,0.09005249291658401,0.12119962275028229,0.020239170640707016,0.049823153764009476,0.13489043712615967,0.10829399526119232,-0.02478400617837906,0.04567475616931915,0.15115022659301758,-0.0579979233443737,-0.03363394737243652,-0.12066994607448578,-0.033661797642707825,0.01978929340839386,-0.14441032707691193,0.07382014393806458,0.12508822977542877,0.07336106896400452,0.0072625428438186646],[0.0011395671172067523,0.1539759486913681,0.15166877210140228,0.027017539367079735,0.16439925134181976,-0.046046603471040726,0.09250669926404953,-0.10365930944681168,-0.01679787039756775,-0.16109195351600647,0.0685790404677391,0.009735841304063797,0.11449869722127914,-0.033610135316848755,0.15015386044979095,0.010522001422941685,0.09000235050916672,0.07619187235832214,0.0599665530025959,0.12306713312864304,0.14065521955490112,-0.030670884996652603,-0.17508351802825928,0.12072969973087311,0.12521052360534668,-0.1788906306028366,0.16683800518512726,0.15703673660755157,0.12019117176532745,-0.1655387133359909,-0.08098600804805756,-0.00734710693359375,-0.15436965227127075,-0.11438944190740585],[-0.02024957165122032,-0.030753372237086296,0.10670559853315353,-0.15876583755016327,-0.06651230156421661,-0.17745377123355865,-0.01878545433282852,-0.09196534007787704,0.14087142050266266,-0.1473810076713562,0.035671431571245193,0.043629758059978485,-0.04523249715566635,-0.11878124624490738,-0.15798871219158173,-0.0015475837280973792,-0.16615331172943115,0.00884306151419878,0.012410858646035194,-0.1409028321504593,-0.13396990299224854,0.1453365981578827,0.06988334655761719,-0.05398096889257431,-0.17138662934303284,0.0024598294403403997,0.16716407239437103,0.0842706710100174,0.12513945996761322,0.02775801159441471,-0.03736022114753723,-0.09532861411571503,0.12184678018093109,-0.06061007082462311],[-0.15451733767986298,0.19379572570323944,0.04244188964366913,0.10013846307992935,0.14047084748744965,-0.06319354474544525,0.11640451103448868,-0.1722390204668045,0.00770200788974762,0.121580109000206,-0.06352778524160385,0.18286281824111938,0.05892335623502731,-0.03068336471915245,-0.13036471605300903,0.17598649859428406,0.066754549741745,-0.01990053616464138,0.06308294087648392,0.07300851494073868,-0.16858594119548798,-0.034760210663080215,0.030899252742528915,0.10365673899650574,0.09066220372915268,0.03993069753050804,-0.1081913486123085,0.10206238925457001,-0.10632840543985367,-0.11340367794036865,0.00984877347946167,0.16939406096935272,-0.15135149657726288,0.08474363386631012],[-0.1681593507528305,0.15114247798919678,-0.1424373984336853,-0.05259064584970474,0.05878399312496185,-0.15764452517032623,-0.04781016707420349,-0.05511373654007912,0.011486038565635681,-0.13697102665901184,0.011211669072508812,-0.022148670628666878,0.10050822794437408,0.036723822355270386,-0.1623249500989914,-0.06272588670253754,0.019408993422985077,-0.061158593744039536,-0.023403553292155266,-0.12603959441184998,0.045574311167001724,0.09357244521379471,-0.06303291767835617,0.14424821734428406,0.08325612545013428,-0.14246819913387299,0.13664604723453522,0.022489994764328003,0.00588129460811615,-0.10145776718854904,-0.08239694684743881,0.1095556765794754,-0.0024077296257019043,0.1710023730993271],[-0.14046545326709747,0.09893972426652908,0.08221325278282166,0.0033920423593372107,0.05356287956237793,0.03635093942284584,0.12889090180397034,0.08418592065572739,0.1584126204252243,-0.07800203561782837,0.04585767164826393,0.006812145002186298,-0.1518125832080841,0.015219424851238728,0.07829240709543228,0.031057855114340782,-0.14131863415241241,0.1675519198179245,-0.02659468539059162,-0.18229937553405762,0.07970882952213287,-0.13430282473564148,-0.03354702889919281,-0.14712569117546082,0.009992340579628944,-0.04232356324791908,0.01166844367980957,-0.07108579576015472,-0.12230624258518219,0.03602154925465584,0.10876502096652985,-0.165743887424469,-0.16378448903560638,0.14718197286128998],[-0.010195421054959297,-0.18519683182239532,-0.07294255495071411,0.10675773024559021,0.0780898779630661,-0.05354134738445282,0.027270840480923653,-0.020041897892951965,-0.12867417931556702,-0.15451501309871674,0.1317003071308136,0.1451934427022934,0.1538679301738739,-0.16771680116653442,0.1623857468366623,-0.06982062011957169,-0.15667352080345154,0.14371612668037415,0.08900721371173859,0.0801246389746666,0.08809031546115875,-0.0751924067735672,0.03945969045162201,0.0982336699962616,0.10451728850603104,-0.09758718311786652,0.036382585763931274,0.13451726734638214,0.1236819475889206,-0.08882368355989456,-0.11592245101928711,-0.14648330211639404,-0.09514469653367996,0.14609776437282562],[0.05543392524123192,0.0055330125615000725,0.0018765623681247234,0.0006927450885996222,-0.15179559588432312,0.11642514914274216,-0.0527801476418972,0.016277961432933807,-0.023874431848526,0.0023799091577529907,-0.14671334624290466,-0.08513804525136948,-0.15350806713104248,-0.0806775689125061,-0.051667872816324234,-0.14824162423610687,-0.15292030572891235,-0.11629334092140198,0.020199157297611237,0.05326010286808014,0.12931284308433533,-0.1339486837387085,-0.10714951157569885,-0.05504389479756355,-0.043593116104602814,-0.06429170817136765,-0.10708774626255035,-0.01567135751247406,0.08509786427021027,0.1172899678349495,0.15369443595409393,0.1654524952173233,0.12776844203472137,-0.00575333833694458],[-0.1416700780391693,-0.13951270282268524,0.12940187752246857,0.13938120007514954,0.053181231021881104,0.013972654938697815,-0.06459087133407593,-0.1600208729505539,0.04892018437385559,-0.16281364858150482,-0.10102801024913788,0.051692038774490356,0.005491739138960838,-0.08768193423748016,0.06395449489355087,-0.08399113267660141,-0.03662138059735298,-0.14237242937088013,0.0832231342792511,0.026564989238977432,0.024939222261309624,0.025061020627617836,0.08939228951931,0.04963090270757675,0.16443809866905212,0.09452243894338608,0.08683045208454132,-0.15970571339130402,0.024018093943595886,0.10970568656921387,-0.15099243819713593,0.0672333836555481,-0.043401241302490234,-0.050662972033023834],[-0.15377077460289001,0.021626600995659828,-0.09069516509771347,-0.13495862483978271,0.019409537315368652,0.03318113461136818,-0.05899370461702347,0.0407467745244503,-0.09303980320692062,-0.04709343612194061,-0.12941138446331024,-0.12174293398857117,-0.02423827350139618,0.037088681012392044,0.046117015182971954,-0.033397573977708817,0.13381575047969818,-0.10256699472665787,-0.09209559112787247,-0.15614785254001617,-0.11494546383619308,0.009287930093705654,-0.040837258100509644,-0.17029568552970886,0.008652742020785809,-0.10638048499822617,-0.023392915725708008,0.12246467173099518,-0.15289081633090973,-0.045552320778369904,0.05555403232574463,0.058396488428115845,0.16236431896686554,0.16323785483837128],[-0.1465880274772644,0.18306493759155273,-0.07114018499851227,0.17941850423812866,0.06771668791770935,0.1694556325674057,0.03410971537232399,-0.0335538424551487,0.0422501415014267,0.05305077135562897,-0.008435916155576706,0.1340995728969574,-0.007364737801253796,-0.14686298370361328,-0.1042616218328476,0.110441654920578,-0.10643401741981506,0.13877104222774506,0.10870937258005142,-0.10272817313671112,0.0570497028529644,-0.09975923597812653,0.052912790328264236,0.19414502382278442,0.12322574108839035,-0.03281044960021973,0.07049031555652618,-0.00014485418796539307,-0.08560996502637863,0.16918571293354034,-0.12196891009807587,0.1444009393453598,0.0796319991350174,-0.14013904333114624],[0.06465684622526169,-0.016584858298301697,-0.1518784463405609,0.12707768380641937,0.12022902071475983,-0.18450866639614105,0.15286244451999664,-0.07256398350000381,0.10858167707920074,-0.041643112897872925,-0.12359965592622757,-0.03395400568842888,0.126733660697937,0.021246759220957756,0.013798880390822887,0.03547096252441406,0.01839635893702507,0.1580847203731537,-0.11704406887292862,0.0027196130249649286,0.15176594257354736,0.09204919636249542,-0.07762081176042557,0.04024568572640419,-0.05623229965567589,0.06627868115901947,-0.03391680121421814,-0.06155727058649063,-0.04646521806716919,-0.09143046289682388,0.013476580381393433,-0.11741997301578522,-0.1604105681180954,0.09272421896457672],[0.16944511234760284,-0.14408740401268005,-0.16509702801704407,-0.17366722226142883,-0.07109906524419785,-0.10760702192783356,0.08108808100223541,-0.14537107944488525,-0.13869619369506836,0.0592929869890213,-0.06671534478664398,-0.006852008868008852,0.07860780507326126,-0.0886930301785469,0.05587929114699364,0.03963460028171539,0.024880582466721535,0.0479254387319088,-0.09979183226823807,-0.12934575974941254,-0.1084623858332634,0.17634087800979614,0.08720275014638901,0.1230180636048317,0.0512315072119236,0.12318826466798782,-0.143893301486969,-0.012148424983024597,0.16459934413433075,-0.054882898926734924,-0.012175962328910828,0.1679869145154953,0.09156771004199982,0.025416910648345947],[-0.0669918805360794,-0.03154507279396057,-0.04877375438809395,-0.11888960748910904,0.020323216915130615,0.06810151040554047,0.12186580151319504,-0.04943764582276344,0.028693586587905884,0.1154659241437912,0.05579877644777298,-0.14543470740318298,0.03092350624501705,0.13643012940883636,0.07215016335248947,-0.07428503036499023,0.016760434955358505,0.012541001662611961,-0.16479553282260895,0.10937969386577606,0.13489311933517456,0.08572256565093994,0.1442342847585678,-0.10789087414741516,0.016463853418827057,-0.04562022536993027,-0.16166380047798157,-0.13120029866695404,0.07487431168556213,-0.0023752690758556128,0.01189422607421875,-0.1208285540342331,0.12207429111003876,0.16697721183300018],[0.06659897416830063,0.005326478276401758,-0.1740788221359253,-0.07053807377815247,0.06253783404827118,-0.08297578245401382,-0.008672529831528664,0.08666139841079712,0.06587880849838257,0.13576440513134003,0.06525202095508575,-0.02316015586256981,0.046498414129018784,-0.16177205741405487,0.014440628699958324,0.009353847242891788,0.05864592641592026,0.07609889656305313,0.037822604179382324,-0.07453431934118271,0.12306889146566391,-0.05895578861236572,-0.15747098624706268,-0.04667394980788231,-0.0036570264492183924,-0.0312626026570797,-0.10212801396846771,0.02042187750339508,-0.04186435043811798,-0.14926262199878693,0.17103485763072968,0.02473476529121399,-0.1525566279888153,-0.15385840833187103],[-0.03889421746134758,0.15238119661808014,-0.003830818459391594,0.16369642317295074,-0.16751980781555176,0.16788917779922485,-0.1400061547756195,0.0697205662727356,0.07374109327793121,0.037137746810913086,0.1201963722705841,0.15350131690502167,0.04730881750583649,0.06038098782300949,-0.11469303071498871,-0.1154714971780777,0.05601078271865845,-0.06877478212118149,0.08101858198642731,0.14973695576190948,-0.0008161630248650908,-0.09858204424381256,-0.14072588086128235,-0.000824567920062691,-0.03325100988149643,-0.04307068884372711,-0.09106926620006561,0.11805252730846405,-0.0627238005399704,0.16538889706134796,-0.09446053206920624,0.12403054535388947,-0.03817299008369446,0.01728634536266327],[-0.10876482725143433,-0.035853780806064606,0.01110757514834404,-0.16197443008422852,0.09776239097118378,0.07611794769763947,0.05374642461538315,0.09814093261957169,0.13882948458194733,-0.10704697668552399,0.027692576870322227,0.06594965606927872,0.0942860096693039,0.12530183792114258,-0.047497719526290894,-0.055164631456136703,0.12204179167747498,-0.06757589429616928,-0.1326330304145813,0.1492774784564972,0.09023872762918472,0.13812382519245148,-0.08586622774600983,0.11449837684631348,0.0003860958677250892,0.0980207547545433,-0.09702691435813904,-0.05896451324224472,-0.12634223699569702,0.1342228204011917,0.14464209973812103,0.12923069298267365,0.10151533782482147,-0.16949212551116943],[0.027878830209374428,-0.19593796133995056,0.11951065808534622,0.04792948439717293,0.07996521890163422,-0.13887643814086914,0.02662939392030239,-0.08555445820093155,0.04328864812850952,0.07262839376926422,-0.15735776722431183,-0.019232982769608498,-0.04711112752556801,0.09676916897296906,0.10989858210086823,-0.060440924018621445,0.04530896246433258,0.14676408469676971,-0.05476361885666847,-0.09245619177818298,0.17706887423992157,0.14815957844257355,0.0813523679971695,-0.1876341700553894,0.03532740846276283,-0.04555536434054375,-0.061785779893398285,-0.06609214842319489,0.0226680189371109,-0.08446647226810455,0.12765343487262726,0.04777093231678009,0.09895284473896027,-0.1602579802274704],[0.015637418255209923,0.10961823165416718,-0.034826505929231644,0.061937253922224045,-0.15764406323432922,-0.09986559301614761,0.11088389903306961,0.028048161417245865,0.05159607529640198,-0.14572301506996155,0.151047945022583,0.17119812965393066,0.07959811389446259,-0.03203582018613815,-0.058681122958660126,0.10930388420820236,-0.011937286704778671,0.07164761424064636,0.05323467031121254,-0.15852400660514832,-0.12883447110652924,-0.04207822307944298,-0.15905669331550598,0.024973319843411446,-0.11619096249341965,-0.15372426807880402,-0.11322195827960968,-0.09552563726902008,-0.05921412259340286,0.12224049121141434,-0.10653961449861526,0.010139480233192444,-0.1065433993935585,0.11088468134403229],[-0.18132366240024567,0.12842853367328644,-0.11370183527469635,0.13595375418663025,0.05233222246170044,-0.09909159690141678,0.05277728661894798,-0.12638317048549652,0.002521917223930359,0.14847205579280853,0.007710259407758713,0.17466165125370026,0.09281869977712631,-0.17060565948486328,-0.10638842731714249,-0.03204909339547157,0.09526417404413223,0.12840132415294647,-0.15401515364646912,0.1358313113451004,0.08749149739742279,-0.0826900377869606,-0.03319522365927696,0.1759868860244751,-0.14731723070144653,0.1255863755941391,0.10233543813228607,-0.16400374472141266,0.025865405797958374,0.04782437905669212,-0.11667228490114212,0.12181361019611359,0.017583727836608887,-0.1429816037416458],[-0.04778095334768295,0.038141679018735886,-0.0163565743714571,0.028919517993927002,-0.059596285223960876,0.050355441868305206,0.01282405573874712,-0.13607211410999298,-0.060285910964012146,0.07743827998638153,0.08419331908226013,-0.12433073669672012,-0.05246196687221527,0.01868668757379055,-0.14170463383197784,0.10139203816652298,0.16737225651741028,0.09524837881326675,0.07958851754665375,-0.1306583434343338,-0.017189567908644676,0.05172448232769966,0.022012509405612946,0.10976804792881012,-0.04760974273085594,-0.14241068065166473,0.01605638861656189,-0.11985501646995544,-0.10865471512079239,-0.1405414342880249,0.07244358956813812,0.010045111179351807,0.023993417620658875,0.0630200207233429],[-0.04811294749379158,-0.08999721705913544,0.024920297786593437,-0.16881510615348816,-0.015848949551582336,0.07490133494138718,0.017315076664090157,0.17722751200199127,0.017334267497062683,0.10504104197025299,0.1381341964006424,0.1473681777715683,0.18416331708431244,-0.04741676524281502,0.06059770658612251,-0.04808352142572403,-0.1783677339553833,-0.08374303579330444,-0.07273989915847778,0.07579535990953445,-0.14891453087329865,-0.01220185961574316,0.028534147888422012,0.11362337321043015,-0.05892130360007286,0.03070203587412834,-0.008794963359832764,0.1411600559949875,-0.12056752294301987,0.14179544150829315,-0.04133407771587372,0.08271776139736176,-0.12829406559467316,-0.08945135027170181],[0.11886221915483475,-0.07893027365207672,-0.10888928920030594,0.04248562082648277,0.0002967268228530884,0.1369570791721344,0.13531044125556946,-0.09422212094068527,-0.08495738357305527,-0.14456744492053986,-0.020475061610341072,-0.018316062167286873,-0.14396889507770538,-0.0505264475941658,0.09779838472604752,-0.05274064093828201,0.16493059694766998,-0.1682223230600357,0.0006633403827436268,-0.07049345970153809,-0.05725672096014023,-0.05031193047761917,-0.057553358376026154,-0.024808386340737343,0.1526859998703003,-0.01061319187283516,0.15030257403850555,-0.05352490395307541,-0.011637717485427856,0.02319471351802349,-0.10035710036754608,-0.042075708508491516,0.09545879065990448,-0.06469359993934631],[-0.094831682741642,-0.14211438596248627,-0.1892097294330597,-0.03137841448187828,0.11267824470996857,0.09258448332548141,0.09294778108596802,0.1522148996591568,-0.08435951173305511,-0.0543515607714653,0.09035653620958328,0.07080159336328506,0.12504708766937256,-0.1245456114411354,0.011399942450225353,-0.06017594039440155,0.10645001381635666,-0.13462533056735992,-0.004670768044888973,0.14744845032691956,0.08716335147619247,0.02464841865003109,-0.045324135571718216,-0.18555495142936707,0.038387030363082886,0.03929072618484497,-0.055084772408008575,0.1523338407278061,-0.08675592392683029,0.08986828476190567,-0.04212522506713867,0.149749293923378,-0.16209180653095245,3.2261013984680176e-05],[0.06879603862762451,-0.06052573397755623,0.06702127307653427,-0.03576147183775902,0.05728916823863983,0.01853577233850956,-0.0756675973534584,0.0002443345729261637,0.06421159207820892,0.1626545637845993,0.1132785826921463,-0.053761616349220276,0.08694197982549667,-0.017788376659154892,-0.06197482720017433,-0.08467335253953934,0.1573854386806488,0.1070772185921669,0.1367029994726181,-0.030779948458075523,-0.10170184820890427,-0.0559409037232399,-0.11563846468925476,0.035952817648649216,0.010377674363553524,0.1725396364927292,0.16388340294361115,-0.1542007029056549,0.09749956429004669,0.06938692927360535,0.029619157314300537,0.08294053375720978,0.004447847604751587,-0.15094110369682312],[-0.05128360912203789,0.05654380843043327,-0.16310656070709229,-0.14609357714653015,-0.1595364809036255,0.1289488673210144,-0.07028444111347198,0.021523473784327507,-0.03828425705432892,-0.07688666135072708,-0.06759810447692871,-0.06763752549886703,-0.12926359474658966,0.0171574205160141,0.17811056971549988,-0.14572033286094666,-0.0927119106054306,-0.01676647737622261,-0.16070008277893066,0.1512528508901596,-0.13609272241592407,0.1569603681564331,-0.03570384532213211,0.03694092109799385,-0.1446029096841812,0.11864989995956421,-0.13895924389362335,0.11698193848133087,-0.10289163142442703,0.08628027141094208,-0.07113015651702881,0.09696395695209503,-0.09635964035987854,0.05963575839996338],[0.03190727159380913,-0.1117551326751709,0.028678899630904198,-0.11450204253196716,-0.13660916686058044,0.09353183209896088,0.00554955517873168,0.17786908149719238,-0.07796779274940491,0.05843372642993927,-0.09405757486820221,0.10525815188884735,-0.06232045590877533,-0.14072327315807343,0.029025409370660782,-0.17040595412254333,0.06693210452795029,-0.12023433297872543,-0.05854169651865959,-0.020239772275090218,-0.09568395465612411,-0.11854839324951172,-0.15662093460559845,0.1431214064359665,0.016387326642870903,0.10644744336605072,-0.07062769681215286,-0.1670282930135727,-0.023990049958229065,-0.06455060839653015,0.07186055183410645,0.055242761969566345,-0.11800256371498108,0.12304802238941193],[-0.13726338744163513,-0.019312996417284012,0.1278487741947174,-0.1367834210395813,-0.16816921532154083,-0.04023870453238487,-0.07603919506072998,0.11953570693731308,0.1270086020231247,0.03549666702747345,-0.03380998596549034,0.023248443379998207,0.029163312166929245,-0.08965597301721573,-0.08849482983350754,-0.07286012917757034,-0.12263376265764236,0.08930343389511108,0.16460813581943512,0.0259564071893692,0.007274589501321316,-0.14642365276813507,-0.15459375083446503,-0.0920700803399086,-0.14146217703819275,0.10114618390798569,-0.15527983009815216,-0.07240213453769684,0.04856029152870178,0.15943168103694916,0.07390889525413513,0.050573527812957764,0.1543223112821579,-0.12350772321224213],[-0.1532217115163803,0.15560519695281982,0.10100365430116653,0.16436132788658142,-0.0608694851398468,0.12051510810852051,0.16789180040359497,-0.15656539797782898,-0.10369697213172913,-0.006393924355506897,0.0018679992062970996,0.08212361484766006,0.005411038640886545,-0.08796509355306625,0.005169193260371685,0.0702529326081276,0.08790940791368484,0.047503385692834854,-0.12379977852106094,0.017444390803575516,-0.18135589361190796,-0.02595498226583004,-0.035463377833366394,0.12173604965209961,0.022009875625371933,-0.15667690336704254,-0.06996499747037888,0.007288217544555664,0.051650404930114746,0.12480904161930084,-0.085309699177742,-0.13591988384723663,0.04444059729576111,0.018661201000213623],[-0.02468615211546421,0.038445644080638885,-0.08779379725456238,-0.12699228525161743,0.15551231801509857,-0.17751161754131317,0.0991104319691658,0.13417696952819824,0.1626073569059372,0.10305552184581757,-0.12164698541164398,0.03187122568488121,0.04027093946933746,0.017513273283839226,0.12106065452098846,-0.14950591325759888,-0.15133105218410492,0.03352272883057594,-0.06578933447599411,0.003912107553333044,-0.14041052758693695,-0.03352240473031998,0.14261285960674286,-0.05309377610683441,-0.17674864828586578,0.13295982778072357,-0.0856722965836525,-0.018406912684440613,-0.008823364973068237,0.16582618653774261,-0.06394070386886597,0.02008908987045288,0.13447530567646027,0.16595230996608734],[-0.04492034390568733,0.0553457997739315,0.09719641506671906,-0.1825912892818451,-0.1514941304922104,-0.1908307671546936,-0.14126816391944885,-0.08840413391590118,0.10051624476909637,0.05762958526611328,0.1144786924123764,-0.04013634845614433,-0.04756017029285431,-0.033653054386377335,0.04952703043818474,0.09977425634860992,-0.012717044912278652,-0.07167350500822067,0.014627702534198761,-0.029346732422709465,0.10287904739379883,-0.1233232244849205,-0.15284547209739685,-0.152016282081604,-0.11744892597198486,-0.15382465720176697,0.04640135169029236,-0.04137301445007324,-0.12463177740573883,0.027413031086325645,-0.001980617642402649,0.11634217202663422,0.10505320131778717,-0.1363244652748108],[-0.06499999016523361,-0.019780060276389122,0.011685454286634922,-0.04573966935276985,-0.12706997990608215,0.19211073219776154,-0.13915900886058807,-0.016377367079257965,-0.006356030702590942,0.07177531719207764,0.07461114227771759,-0.09913527965545654,-0.13508504629135132,-0.03601532056927681,-0.086861751973629,-0.03268361836671829,0.023282404989004135,-0.1667235940694809,0.02603975497186184,-0.08496203273534775,0.07354176789522171,-0.1419934779405594,0.09349561482667923,0.1929735690355301,-0.0383581705391407,-0.12481735646724701,0.12425367534160614,0.001462012529373169,-0.06312321871519089,0.11227349936962128,0.07496404647827148,0.10709656774997711,-0.14239978790283203,0.09027455747127533],[-0.0813269391655922,0.05165736749768257,-0.10437965393066406,-0.0014726773370057344,0.09971998631954193,-0.058920327574014664,-0.0846661701798439,0.05221141129732132,0.1432899385690689,0.15336431562900543,-0.05317836254835129,0.10296672582626343,-0.061950959265232086,-0.15457746386528015,0.14910665154457092,-0.12724849581718445,-0.0904972180724144,-0.07948683947324753,-0.06913896650075912,-0.15068213641643524,0.16430379450321198,-0.14417429268360138,-0.0836307555437088,-0.15291543304920197,-0.01563701033592224,0.01669044978916645,0.09385083615779877,0.08682458102703094,-0.03189072012901306,0.03512350469827652,-0.019360050559043884,0.02647741138935089,0.05235107243061066,-0.14355960488319397],[0.14507369697093964,0.06102776527404785,0.06560315191745758,-0.06281566619873047,0.12513060867786407,0.03960452228784561,-0.0979154035449028,0.13609158992767334,-0.06434529274702072,-0.1414879709482193,-0.0687897652387619,0.03771777078509331,-0.09746875613927841,0.05006524175405502,-0.010195867158472538,-0.08518239855766296,0.07343687862157822,0.08740255236625671,0.014417896047234535,0.14117135107517242,0.07477825880050659,0.1629633903503418,-0.08002287894487381,-0.09154236316680908,-0.11842184513807297,-0.00738983228802681,-0.15557000041007996,0.09885998070240021,0.08527205884456635,0.03155454620718956,0.13233442604541779,0.08791585266590118,-0.07103405147790909,-0.0022915303707122803],[0.08705858886241913,-0.14419186115264893,-0.1579112410545349,0.14320968091487885,0.02312806248664856,0.14618854224681854,0.13791973888874054,0.11753664165735245,0.011404365301132202,-0.16358281672000885,-0.1401931643486023,-0.1188705638051033,0.02907731384038925,0.17100682854652405,0.1326625943183899,-0.1496880203485489,0.07712527364492416,0.030124790966510773,-0.009681588038802147,-0.10941890627145767,0.16847354173660278,-0.024292126297950745,-0.14728346467018127,-0.07930194586515427,0.049938373267650604,0.14542751014232635,-0.04277023673057556,0.059690892696380615,0.05909562110900879,-0.1079421266913414,-0.09661047160625458,-0.14223536849021912,0.16200272738933563,0.07778507471084595],[-0.14067701995372772,0.009752325713634491,0.1611163467168808,-0.018402598798274994,0.15601135790348053,-0.11375602334737778,-0.006023915950208902,0.00830879993736744,-0.01608288288116455,0.040701016783714294,0.04973141476511955,0.15150688588619232,0.05132734403014183,-0.05994176119565964,0.014625681564211845,0.17699196934700012,0.18785926699638367,-0.17375725507736206,0.09681062400341034,0.10126422345638275,-0.1102948859333992,-0.12152914702892303,0.0935424417257309,0.14926068484783173,-0.07827826589345932,0.12214560061693192,0.10143940150737762,-0.1638241410255432,0.03695642948150635,-0.014317495748400688,-0.05009603500366211,-0.10075925290584564,-0.02734285593032837,-0.12231861054897308],[0.009715406224131584,0.15473516285419464,0.013409356586635113,-0.04712207242846489,-0.05697118490934372,-0.002533219987526536,0.06647367030382156,0.08062609285116196,-0.11159510910511017,0.009537965059280396,0.16293589770793915,-0.08113253116607666,-0.044461898505687714,-0.03145239129662514,-0.04519252851605415,-0.02299095131456852,-0.029308626428246498,-0.005333541426807642,-0.14940783381462097,-0.1208433285355568,-0.06930610537528992,-0.02778601460158825,-0.03225847706198692,-0.08197446912527084,0.12040697783231735,0.027594082057476044,0.06123104691505432,0.09038831293582916,0.11370585858821869,0.04321255907416344,0.15149624645709991,0.07178954780101776,-0.16233304142951965,0.043632447719573975],[-0.0022090382408350706,0.07789871096611023,0.16715703904628754,0.095682293176651,-0.11840815842151642,-0.01689201034605503,-0.08032023161649704,-0.08517549932003021,0.1240708976984024,0.051542893052101135,0.03936640918254852,0.1338978111743927,-0.1473853588104248,0.0823671817779541,-0.18340744078159332,0.12436699122190475,-0.07951130717992783,0.11582919210195541,0.12456298619508743,-0.1559055894613266,0.053261369466781616,0.03341345116496086,0.004871925339102745,-0.10994306206703186,-0.02454381249845028,0.09134455025196075,-0.10816756635904312,0.019233539700508118,-0.08769004046916962,0.11387551575899124,-0.09395552426576614,0.15186430513858795,-0.17049147188663483,0.09609918296337128],[-0.08394723385572433,-0.047430843114852905,0.047093868255615234,-0.0884503498673439,-0.15548378229141235,0.14235033094882965,0.09539591521024704,0.026126423850655556,-0.048295944929122925,0.13015230000019073,0.12508562207221985,-0.18452389538288116,0.1748427450656891,0.13099835813045502,0.08378586173057556,-0.0923270583152771,-0.14168275892734528,-0.006965189706534147,-0.12387780100107193,-0.15451909601688385,-0.12401483207941055,-0.16341441869735718,0.11815322935581207,0.10201966762542725,-0.15267439186573029,-0.159580796957016,0.13949306309223175,-0.14910373091697693,0.15591470897197723,-0.1498507857322693,0.030683577060699463,-0.1590030938386917,-0.14633019268512726,-0.16382978856563568],[-0.07147204130887985,0.09193497896194458,0.16079528629779816,-0.07619175314903259,-0.04001815617084503,0.05755426362156868,0.049798186868429184,-0.05815412476658821,0.0808676928281784,-0.12914112210273743,0.12591329216957092,0.12630122900009155,-0.018423710018396378,-0.1274743378162384,-0.12184416502714157,-0.1068415492773056,0.1459742933511734,0.11829468607902527,0.121634341776371,-0.018878014758229256,-0.15711598098278046,-0.17493760585784912,-0.028700152412056923,0.16839255392551422,0.02069166675209999,-0.14758770167827606,-0.09552328288555145,0.08026726543903351,-0.04481574892997742,0.008453229442238808,-0.12610135972499847,0.006105333566665649,0.17081017792224884,0.0876116007566452]],"bias":[-0.1452290266752243,0.1197020560503006,0.1685945838689804,0.10854314267635345,0.003640043782070279,0.05688021332025528,0.07563649863004684,0.14611133933067322,0.12382093816995621,-0.06457005441188812,-0.0742698535323143,0.005666229408234358,-0.0746416300535202,-0.10351142287254333,-0.02983175963163376,-0.13686613738536835,0.08708523213863373,-0.07509493082761765,0.014116124249994755,0.044798847287893295,0.06337790936231613,-0.07463157922029495,0.08154071122407913,-0.025206848978996277,-0.15461653470993042,-0.11028147488832474,-0.05045786872506142,0.06038443371653557,-0.0468110628426075,-0.06731850653886795,-0.15449537336826324,0.04526350274682045,0.041009560227394104,-0.057675689458847046,-0.1309342235326767,-0.15149851143360138,-0.01507923100143671,0.1202106922864914,0.015320737846195698,0.13039880990982056,0.032953064888715744,0.10531198978424072,-0.06569044291973114,0.12369849532842636,0.015249785035848618,0.1440017968416214,-0.06250195950269699,0.0707346647977829,-0.002597728744149208,-0.0017714318819344044,-0.04148325324058533,-0.15080483257770538,0.08272230625152588,-0.04693702608346939,-0.04300695285201073,-0.08567647635936737,0.10701020061969757,0.11655228585004807,0.104020856320858,-0.10575147718191147,0.000672432710416615,0.1503375768661499,0.07529415935277939,0.10251571983098984,-0.09008520841598511,0.0931476354598999,0.11440730839967728,-0.06862930953502655,0.04460971802473068,-0.11794482171535492,-0.034199610352516174,0.08681271970272064,-0.10252856463193893,-0.07330672442913055,0.14961576461791992,0.09628093242645264,0.1508735716342926,0.13363882899284363,0.028201255947351456,0.15088528394699097,0.050390247255563736,-0.1157749816775322,0.027606327086687088,0.02490720897912979,0.07216164469718933,-0.043568726629018784,0.07115349173545837,0.026078350841999054,0.055175069719552994,0.07290630787611008,0.044044364243745804,0.1573745757341385,-0.06174134463071823,-0.14337870478630066,0.11931165307760239,-0.06502920389175415,-0.10652012377977371,-0.037346262484788895,-0.12362530082464218,0.06082908436655998,0.03850067779421806,0.009255476295948029,-0.10659682750701904,-0.12020993232727051,-0.12771809101104736,0.020340412855148315,0.07283874601125717,0.14646939933300018,0.05809679254889488,-0.09241306781768799,-0.12355254590511322,0.0568050779402256,0.06267707049846649,0.11723854392766953,-0.008146685548126698,0.16091112792491913,0.010494934394955635,-0.06260242313146591,0.1443800926208496,0.04916547238826752,0.0858210027217865,0.15288829803466797,0.1133347749710083,0.14952589571475983,0.026244061067700386,-0.13893288373947144,-0.09310282766819,-0.032757293432950974]},{"weight":[[0.03772479668259621,0.06283413618803024,-0.06882289797067642,0.03420955315232277,-0.02870418317615986,-0.07246951013803482,0.012001434341073036,-0.08175402134656906,0.023041434586048126,-0.0013799434527754784,-0.06101801618933678,-0.07716791331768036,0.04717763140797615,0.06132207438349724,-0.04139786213636398,0.053623102605342865,-0.0039067440666258335,0.052259135991334915,0.07928886264562607,-0.027451924979686737,-0.05348782613873482,-0.05891791731119156,0.06816555559635162,0.019391702488064766,-0.025292078033089638,0.0796593576669693,-0.06479016691446304,-0.05740472301840782,0.013751603662967682,-0.01813414692878723,0.052018750458955765,0.026829229667782784,0.06851644068956375,-0.0754232332110405,0.03420208767056465,0.052004680037498474,0.005695650354027748,0.007626157253980637,-0.01337604969739914,0.07130166888237,-0.010073110461235046,-0.043098822236061096,0.038635965436697006,-0.00608490128070116,-0.0785263180732727,0.02319495752453804,-0.04232003167271614,0.05730731040239334,0.05519753322005272,-0.03189719468355179,0.006512798834592104,0.012416787445545197,6.318739906419069e-05,0.05240042135119438,-0.06603924185037613,-0.010428091511130333,-0.0661008432507515,0.04666661098599434,-0.038867756724357605,-0.07526004314422607,0.030500685796141624,0.011789940297603607,-0.004227099008858204,0.04335549846291542,-0.02495669387280941,-0.05204470828175545,0.06011907383799553,0.005122832488268614,0.07927528023719788,-0.07224999368190765,0.030771462246775627,-0.06319735199213028,-0.05716652050614357,0.10151998698711395,-0.03753296658396721,0.05856379494071007,-0.025148311629891396,-0.0005953097133897245,-0.01589873619377613,-0.002165936166420579,0.008768611587584019,-0.07386469841003418,0.0013258253457024693,-0.05471576005220413,-0.08771251887083054,-0.04310530424118042,0.03074958361685276,0.018574291840195656,0.020047267898917198,-0.0779082402586937,-0.07115868479013443,0.01589282415807247,-0.045848146080970764,0.09769988805055618,-0.06684968620538712,-0.005479404237121344,-0.0038937844801694155,-0.05706581100821495,0.06126819923520088,-0.027528362348675728,-0.07897347956895828,0.007129787001758814,0.06317848712205887,0.047891393303871155,0.0317709818482399,0.0813155323266983,-0.055175941437482834,-0.010780828073620796,0.04989239200949669,0.0642818957567215,-0.0012507829815149307,0.07529912143945694,-0.09509863704442978,0.03791474550962448,-0.04405052587389946,-0.008673414587974548,-0.03247581049799919,-0.028400521725416183,0.07713638991117477,-0.009589270688593388,0.02821926958858967,-0.04492248222231865,0.025181250646710396,-0.08717545866966248,0.06520412862300873,0.08640383183956146,0.027261221781373024,0.039994657039642334],[0.04728136211633682,0.024376725777983665,0.0075259520672261715,0.07065436989068985,-0.1030941903591156,0.08556707948446274,0.040789298713207245,-0.04173608496785164,-0.0935133770108223,0.06255679577589035,-0.06673385947942734,0.06188563257455826,-0.061165571212768555,0.019208908081054688,0.05824887007474899,0.054020654410123825,-0.08298804610967636,0.0672575980424881,0.015847263857722282,-0.07438523322343826,-0.015318355523049831,0.07196125388145447,0.06737106293439865,0.06913261860609055,0.052698343992233276,-0.03331487998366356,-0.06555674225091934,0.016664568334817886,-0.03785290569067001,0.03495882824063301,-0.08437840640544891,-0.034578289836645126,0.00020495877834036946,-0.015351972542703152,-0.016002142801880836,0.005063727498054504,-0.028208347037434578,0.024012727662920952,0.0753658190369606,0.07194577902555466,-0.07206962257623672,-0.0801507979631424,-0.0013208762975409627,-0.005222209729254246,0.05105722323060036,0.07173441350460052,0.01881290040910244,0.0724560022354126,-0.02745182253420353,0.0269929189234972,0.04153171181678772,0.013498802669346333,0.016361549496650696,-0.025922629982233047,0.006400953978300095,-0.01562531478703022,0.07575102150440216,0.04706285148859024,-0.06576096266508102,0.009805279783904552,-0.002519262256100774,-0.03591441363096237,-0.053562410175800323,0.008204399608075619,0.06156153604388237,0.015446014702320099,0.0725950226187706,0.00047645301674492657,-0.08888695389032364,-0.048796024173498154,0.0249092485755682,-0.09653069078922272,0.029986046254634857,-0.09739602357149124,-0.006836842745542526,0.030001776292920113,0.01226761657744646,0.09711073338985443,0.09590735286474228,0.0064844293519854546,-0.06397269666194916,0.05908573046326637,0.004171155858784914,-0.03579012304544449,-0.05068986490368843,0.0214244332164526,0.05241066962480545,-0.05049063637852669,-0.08799752593040466,0.04421481490135193,-0.08266548067331314,0.022620785981416702,0.0016103081870824099,-0.010697223246097565,0.08306300640106201,0.06978411972522736,-0.02970810793340206,-0.08313839137554169,0.02779313176870346,-0.024270877242088318,0.07220722734928131,-0.021054182201623917,0.05522160977125168,-0.0008864345145411789,0.09150499850511551,0.06383400410413742,-0.028931429609656334,-0.031027013435959816,-0.06737931072711945,0.03232831507921219,0.060731951147317886,-0.029279639944434166,-0.02010573446750641,0.06626295298337936,0.005707176402211189,-0.0704093649983406,-0.030905283987522125,-0.060837022960186005,-0.017086323350667953,0.08812166750431061,0.03763962537050247,-0.020919272676110268,0.08748923242092133,-0.0015526276547461748,0.02962282858788967,0.0453050434589386,-0.04149816557765007,-0.03633212298154831],[-0.09485688805580139,0.06050620973110199,0.043303441256284714,-0.037016671150922775,-0.030583778396248817,0.0384410060942173,-0.024470509961247444,-0.02935824729502201,-0.06772480905056,-0.037731483578681946,0.06326120346784592,-0.09940613061189651,-0.06001243740320206,0.05808621272444725,-0.04566028341650963,-0.0007493997109122574,-0.07459328323602676,-0.04708382859826088,0.04367169365286827,0.04110384359955788,0.02075108513236046,-0.06579671800136566,-0.08683642745018005,-0.0008492402266710997,0.011113899759948254,0.08168049156665802,-0.034725554287433624,0.07807982712984085,-0.019295312464237213,0.1040295958518982,0.007892207242548466,0.03230942413210869,0.027568163350224495,0.021609902381896973,0.08009829372167587,0.03494476154446602,0.07914254814386368,0.043691236525774,-0.0704089105129242,0.028609002009034157,-0.005424370989203453,-0.021207628771662712,0.007925712503492832,0.04677414894104004,-0.0017946939915418625,-0.030385704711079597,0.040453486144542694,0.09328874200582504,0.0008094386430457234,0.08114612102508545,0.09187173843383789,0.06092255562543869,-0.029552096500992775,-0.039889294654130936,-0.025150395929813385,0.047046683728694916,0.047900374978780746,0.06608708202838898,0.04931773990392685,0.02745342068374157,-0.041486650705337524,-0.013111255131661892,0.06303361058235168,0.021957311779260635,-0.05476725101470947,0.02102339267730713,-0.02291235700249672,0.013595730997622013,-0.02524576149880886,-0.06560537219047546,0.05527745559811592,0.021064357832074165,-0.009573743678629398,-0.04733669385313988,-0.004956434480845928,0.0355602465569973,-0.04403059929609299,-0.06810291856527328,0.09263347834348679,-0.0321088582277298,0.040729787200689316,-0.006549539044499397,0.03607693314552307,0.09557953476905823,0.09396706521511078,-0.042936332523822784,0.024216024205088615,0.06005961447954178,-0.05264340713620186,0.059644754976034164,0.03327434882521629,0.04652266204357147,0.05389919877052307,0.07714804261922836,0.07386825233697891,0.038729604333639145,0.06349049508571625,0.07160527259111404,-0.016598151996731758,0.10225700587034225,0.06727968901395798,-0.005704640410840511,-0.003077394561842084,-0.10058943182229996,0.03453532233834267,