{"type":"scry_window_q_tanh","observation_size":34,"hidden_sizes":[128,128],"policy_layers":[{"weight":[[0.11987613886594772,-0.1542375534772873,0.040940530598163605,-0.03766331076622009,-0.1402841955423355,0.09827087074518204,0.16629387438297272,-0.08303830027580261,-0.0027351677417755127,-0.15027791261672974,-0.06844502687454224,0.08747583627700806,0.1460682451725006,0.03423067554831505,-0.14723548293113708,0.14112278819084167,0.06920279562473297,0.09510806947946548,-0.04951800778508186,-0.09202860295772552,-0.08587978035211563,-0.05724966153502464,0.1870269775390625,-0.18586435914039612,-0.09844747185707092,-0.1528831273317337,-0.06261910498142242,0.12273181974887848,0.08972178399562836,0.0719728171825409,-0.022067174315452576,0.0021990686655044556,-0.03606554865837097,-0.151640847325325],[-0.1941201537847519,0.13247808814048767,0.18037989735603333,-0.0621689073741436,0.1686604768037796,-0.20718921720981598,0.14342257380485535,0.07941616326570511,-0.05613100528717041,0.04575970768928528,0.13861322402954102,-0.1500614434480667,0.08736047148704529,0.15725311636924744,-0.14251969754695892,-0.18680307269096375,-0.11733632534742355,-0.15733078122138977,0.09144476801156998,0.14680452644824982,-0.03339068964123726,-0.22220952808856964,0.0726664662361145,0.056052062660455704,0.03187930956482887,-0.06520006060600281,-0.13342240452766418,0.013475999236106873,-0.0946040078997612,-0.005227172281593084,0.1489361673593521,4.552304744720459e-05,-0.0679645910859108,-0.13108830153942108],[-0.024928651750087738,0.08332289010286331,-0.11215115338563919,0.0914551243185997,-0.0680132731795311,0.20077279210090637,0.13886874914169312,-0.054338131099939346,0.062227919697761536,0.09496374428272247,0.10177083313465118,0.09253092855215073,-0.12700118124485016,-0.0009347728919237852,0.07144680619239807,0.13355745375156403,-0.03646232187747955,0.05542422831058502,-0.07277434319257736,0.20589572191238403,-0.18258608877658844,-5.536449316423386e-05,0.01981225609779358,-0.07641066610813141,-0.05662356689572334,-0.16993683576583862,0.003977492451667786,-0.16778944432735443,-0.09851116687059402,0.014262443408370018,-0.014814808964729309,0.10665123164653778,-0.06980928033590317,-0.004615113139152527],[-0.1731717437505722,0.12000594288110733,0.014276208356022835,0.028779350221157074,0.08602161705493927,-0.17457981407642365,-0.05768809840083122,0.11323992162942886,-0.027116358280181885,0.04662391543388367,-0.111189104616642,0.14329931139945984,-0.14859110116958618,0.14770150184631348,0.041695769876241684,-0.0918152704834938,0.08064819127321243,-0.08177784830331802,-0.05946192145347595,0.0010766629129648209,0.012615992687642574,-0.15765605866909027,0.08363062888383865,0.08715111762285233,-0.0682215765118599,-0.054167650640010834,-0.029661893844604492,-0.005797058343887329,0.08940057456493378,-0.12948648631572723,0.15490467846393585,-0.15743842720985413,0.0345776230096817,0.04867270588874817],[-0.025957467034459114,-0.10210080444812775,0.13988040387630463,0.04273362085223198,-0.1386915147304535,-0.18606917560100555,-0.09749963134527206,-0.13658840954303741,0.03849412500858307,-0.1684311032295227,-0.12120900303125381,0.1371825933456421,-0.03129107132554054,-0.006954357493668795,-0.11787338554859161,0.14755280315876007,-0.12010766565799713,0.02893548272550106,-0.03666839748620987,-0.05484570562839508,0.16792748868465424,-0.12567107379436493,-0.024287831038236618,-0.022317640483379364,-0.08122111856937408,-0.01537817157804966,0.09974206984043121,0.10086031258106232,0.08629937469959259,-0.005991017911583185,0.10811226069927216,0.04555140435695648,-0.0658159852027893,0.08607687056064606],[-0.014005299657583237,0.19149398803710938,0.12336208671331406,0.1814001202583313,-0.08086293935775757,-0.16729426383972168,0.07513783127069473,-0.15159350633621216,0.15096162259578705,0.09976626932621002,0.08708696812391281,0.16060268878936768,-0.16708992421627045,-0.05828557536005974,0.04977191612124443,-0.08933422714471817,-0.04853178188204765,-0.07646346092224121,-0.06552677601575851,0.12727952003479004,0.1530301719903946,0.035912711173295975,0.02642248198390007,0.0576055534183979,-0.014725709334015846,-0.16579799354076385,-0.09073314070701599,-0.08236689865589142,0.0067794471979141235,0.13077253103256226,0.09513090550899506,0.04454541206359863,-0.00383622944355011,0.14430467784404755],[0.08244938403367996,0.02951759286224842,-0.06273356080055237,0.1089540421962738,-0.1032307967543602,0.12603391706943512,0.012917977757751942,-0.143982395529747,-0.06226648390293121,-0.06920114159584045,-0.027073893696069717,-0.17441672086715698,0.006930741481482983,-0.13597460091114044,-0.0008155829273164272,-0.06125684082508087,0.11843911558389664,0.16619263589382172,0.1424647718667984,-0.06402057409286499,-0.028897278010845184,-0.02340555749833584,0.021152425557374954,0.0865868330001831,-0.15263724327087402,-0.1211954727768898,-0.07204464823007584,-0.14085325598716736,-0.046147167682647705,0.1350962370634079,-0.06491339951753616,-0.14357846975326538,-0.1613898128271103,-0.1353335827589035],[0.14511233568191528,-0.09498701244592667,-0.047518759965896606,0.1274179220199585,0.008860155940055847,-0.14496244490146637,-0.17093650996685028,0.08203493803739548,-0.08974406868219376,0.08730839192867279,-0.14770853519439697,-0.04925277829170227,0.023851603269577026,-0.10979979485273361,0.17567484080791473,-0.10870546847581863,0.09232501685619354,-0.14893470704555511,0.07515556365251541,-0.18438571691513062,-0.015934405848383904,0.15682481229305267,-0.039711643010377884,0.023106712847948074,-0.05554879456758499,-0.03823433816432953,0.022294431924819946,0.14434035122394562,0.14689423143863678,0.052734192460775375,-0.07864215970039368,0.025319904088974,0.1176590770483017,0.148466095328331],[-0.09767232835292816,-0.060061417520046234,0.12990012764930725,-0.03336505591869354,-0.012451127171516418,0.010763091966509819,0.021780647337436676,-0.10065332800149918,0.08603183925151825,0.11841903626918793,-0.04164794459939003,0.04496511444449425,-0.09208036959171295,-0.16991670429706573,-0.06351817399263382,0.15780417621135712,0.12002211064100266,-0.02502337098121643,0.1627422720193863,0.03421672433614731,0.01966528221964836,-0.1025833785533905,0.062170129269361496,-0.054921843111515045,0.11284275352954865,0.06157931312918663,-0.09916352480649948,-0.09117431193590164,0.10896007716655731,0.15048743784427643,-0.07350283116102219,0.08888639509677887,0.14670594036579132,-0.04799757897853851],[0.18504995107650757,0.09573086351156235,-0.07438895851373672,-0.006582076661288738,0.04437956213951111,0.05726899579167366,0.04349222034215927,0.1358807384967804,0.07455730438232422,0.06865929067134857,0.0766434296965599,-0.012029281817376614,-0.07256165891885757,0.009240543469786644,0.11499020457267761,-0.20758888125419617,0.10176264494657516,-0.06410887092351913,0.1342630684375763,-0.043681565672159195,-0.05540803447365761,0.0596604198217392,-0.07383101433515549,-0.06609677523374557,0.18840020895004272,-0.07662889361381531,0.09631933271884918,-0.06480434536933899,-0.11008858680725098,-0.12148340046405792,0.14528243243694305,-0.03403836488723755,-0.1599343717098236,0.08883993327617645],[-0.11437907814979553,0.04390202462673187,0.08417724072933197,-0.05248456448316574,-0.02855190634727478,-0.008324963040649891,-0.01643785461783409,-0.1500510275363922,-0.1264059841632843,-0.13360603153705597,0.16010843217372894,-0.1034952849149704,0.042348314076662064,-0.051312752068042755,-0.026472173631191254,-0.003502460429444909,0.10872696340084076,0.11041472852230072,-0.12392335385084152,0.10518165677785873,-0.046925321221351624,0.05689790099859238,-0.054266899824142456,0.11011303961277008,0.12102988362312317,0.10137651860713959,-0.05047701299190521,-0.12494172155857086,0.06969587504863739,0.056362949311733246,0.00780823826789856,0.04094007611274719,0.15352363884449005,-0.07495136559009552],[-0.10495096445083618,0.11219470202922821,0.0604313425719738,0.21640770137310028,0.11192722618579865,0.1430368721485138,0.05651550367474556,-0.17537719011306763,-0.10539434850215912,0.0599636435508728,-0.06923450529575348,0.06995940208435059,-0.18215949833393097,0.13645091652870178,0.08412432670593262,-0.07945727556943893,-0.08516590297222137,0.07482194900512695,0.00028172667953185737,0.14682336151599884,-0.0787811204791069,0.024468978866934776,-0.04327413812279701,0.06625286489725113,-0.06317825615406036,0.10087268054485321,0.1707947999238968,-0.06329549849033356,0.05554467439651489,0.13561999797821045,0.053141891956329346,-0.05710591375827789,0.06846964359283447,-0.03673234581947327],[-0.057953208684921265,-0.06910057365894318,-0.047157734632492065,0.2182462513446808,0.060635775327682495,0.0012203719234094024,0.17987197637557983,0.07931846380233765,-0.016643717885017395,-0.1493387371301651,-0.10419353097677231,0.16147130727767944,0.08331652730703354,0.08341781049966812,0.1681906282901764,-0.1678902506828308,0.13465508818626404,-0.09547177702188492,-0.16796714067459106,-0.13082003593444824,-0.06303595006465912,-0.14345426857471466,-0.13887086510658264,0.1519305258989334,0.10010387748479843,0.08035784959793091,0.12231101095676422,0.037154778838157654,0.028831854462623596,0.060433756560087204,0.05789859592914581,0.08793483674526215,0.16441087424755096,-0.050945721566677094],[0.03329893946647644,0.01736949384212494,0.020892586559057236,0.06422899663448334,-0.03714451193809509,-0.04072136431932449,0.111453577876091,0.0771995559334755,-0.04230424761772156,0.05994071066379547,0.0998087003827095,-0.05619974806904793,-0.15233345329761505,-0.1760709136724472,-0.13234932720661163,0.05015123263001442,-0.09135321527719498,-0.17899322509765625,0.04739208519458771,0.09090299904346466,-0.1251468062400818,-0.12994545698165894,0.0759325698018074,-0.06752349436283112,-0.04016788676381111,0.045937083661556244,-0.1303146332502365,0.03931456804275513,-0.14360657334327698,-0.0529346689581871,-0.11230204999446869,0.11655040085315704,0.09763328731060028,0.009742528200149536],[0.2067563235759735,-0.040544793009757996,0.002247530035674572,0.16832442581653595,0.03734849393367767,0.14929766952991486,-0.19357332587242126,0.1461685746908188,-0.16611795127391815,-0.05575554817914963,0.13058099150657654,-0.09979528933763504,-0.052040472626686096,-0.14373129606246948,-0.06317199766635895,0.036690521985292435,-0.030383361503481865,0.025250129401683807,0.09855858981609344,-0.11127243936061859,0.1609911024570465,-0.11812783032655716,-0.1788472831249237,0.10585799068212509,-0.09126687049865723,-0.14371457695960999,-0.13156098127365112,-0.16369712352752686,0.08109067380428314,0.15305107831954956,0.0705489069223404,-0.1699536144733429,0.1327776461839676,-0.04391075670719147],[-0.1623099148273468,-0.21276026964187622,-0.16215543448925018,-0.044118113815784454,-0.0013557374477386475,0.029835835099220276,0.016253450885415077,0.19359742105007172,-0.0012835115194320679,0.04432074725627899,0.061005279421806335,0.0228482224047184,-0.08172360807657242,-0.046027231961488724,-0.0009086081408895552,-0.10321886092424393,-0.020604625344276428,-0.07965254783630371,-0.11997219175100327,0.035568717867136,0.11259376257658005,-0.12817656993865967,0.06661701947450638,-0.10886074602603912,-0.049344029277563095,0.05424248427152634,-0.00036744773387908936,-0.11321967840194702,0.09915648400783539,0.039163026958703995,0.10347543656826019,-0.13026979565620422,-0.09582865983247757,-0.0020945072174072266],[0.07671546190977097,-0.004662260413169861,-0.03131023049354553,-0.014052716083824635,-0.022242024540901184,0.0679168626666069,-0.1606876403093338,0.13065868616104126,-0.07605329155921936,0.003931358456611633,-0.14503662288188934,-0.029917161911725998,-0.029569553211331367,0.14040222764015198,-0.11587975174188614,-0.10310941189527512,-0.025630032643675804,0.12997137010097504,0.07958566397428513,0.026758436113595963,0.019122352823615074,0.17180779576301575,-0.14682899415493011,-0.007306655403226614,0.0550670363008976,0.060173992067575455,-0.14411771297454834,-0.0854153111577034,0.07365569472312927,-0.055823374539613724,0.1506570726633072,-0.02196231484413147,-0.06367247551679611,0.1619868129491806],[-0.01513688638806343,-0.034523382782936096,0.010570761747658253,-0.04875888675451279,-0.09127426147460938,0.033788252621889114,-0.03132233768701553,0.014171158894896507,0.03693249821662903,-0.02402856945991516,-0.1381119191646576,-0.1616087108850479,-0.016962144523859024,0.11687822639942169,0.06370627135038376,-0.04052092880010605,0.03954344242811203,0.08043642342090607,0.16523891687393188,-0.09554161131381989,-0.17009323835372925,-0.15891526639461517,0.043983664363622665,-0.03793594241142273,0.012769605964422226,-0.15941736102104187,0.07592646777629852,-0.04208603501319885,0.06695538759231567,-0.09252770990133286,-0.044257983565330505,-0.15361779928207397,0.03312350809574127,-0.04556316137313843],[-0.2156096249818802,-0.016182970255613327,0.05061469227075577,-0.2064407616853714,-0.055271267890930176,-0.04715834558010101,0.11502178013324738,0.05855021998286247,0.035091206431388855,0.04413609206676483,-0.06872180104255676,0.1622224599123001,0.06087956205010414,0.04137386009097099,-0.10592052340507507,0.07295800745487213,0.07354176789522171,0.11643864214420319,0.14935684204101562,0.13901205360889435,-0.06341110914945602,0.10527470707893372,0.02446192502975464,-0.145423024892807,0.03454192727804184,-0.13879503309726715,-0.08984079211950302,-0.0631258562207222,-0.021033942699432373,-0.12034948170185089,0.16454346477985382,0.15055270493030548,-0.14148609340190887,0.055014267563819885],[0.07797258347272873,0.04649097099900246,-0.16146472096443176,-0.032434072345495224,0.005695521831512451,-0.12720809876918793,0.08127310872077942,-0.020372290164232254,-0.0442146360874176,-0.16369737684726715,-0.011285814456641674,-0.16476444900035858,-0.04479340463876724,0.1569812148809433,0.15649642050266266,0.014707447029650211,0.09714701771736145,0.06661974638700485,0.12994037568569183,-0.16220077872276306,-0.00861789658665657,-0.108669213950634,-0.09845858812332153,-0.05011802539229393,0.14677608013153076,0.17398710548877716,0.145973339676857,-0.06742141395807266,-0.10944749414920807,0.12680885195732117,-0.0649288147687912,-0.11677570641040802,-0.1644316017627716,-0.038519129157066345],[-0.14147213101387024,-0.016534222289919853,-0.043102946132421494,-0.13669084012508392,0.15109573304653168,-0.07544875890016556,0.0663321390748024,-0.16788558661937714,-0.034042224287986755,0.035639479756355286,0.00036234373692423105,-0.08728630840778351,0.06031610071659088,-0.058566298335790634,0.09824100881814957,-0.06902872025966644,-0.02334403060376644,0.11695179343223572,0.00826744083315134,0.14262273907661438,0.10210509598255157,-0.12203594297170639,0.12590432167053223,0.1352657526731491,0.16719314455986023,0.10279076546430588,-0.08583877235651016,0.0038549602031707764,-0.037545979022979736,-0.028278835117816925,-0.13273124396800995,-0.03640030324459076,-0.10008145123720169,-0.05706816911697388],[0.00814248900860548,0.06470955163240433,0.05821916460990906,-0.12870648503303528,-0.02427735924720764,-0.09495627880096436,-0.10424024611711502,0.03474283218383789,0.07136137783527374,-0.043427497148513794,0.07516859471797943,0.06636553257703781,-0.13518817722797394,0.08373557031154633,0.09948383271694183,0.02535419538617134,-0.10609804093837738,-0.0988391563296318,0.1330854892730713,0.06208563223481178,0.0405457578599453,0.06785924732685089,0.022259164601564407,0.12234816700220108,0.08412700146436691,-0.09781811386346817,-0.15305131673812866,0.03781670331954956,0.16736386716365814,0.07253535091876984,-0.010125026106834412,0.12432800233364105,0.025810793042182922,0.1377834528684616],[0.04995720461010933,0.14286063611507416,-0.029507793486118317,-0.10327224433422089,0.09485484659671783,0.051209721714258194,0.026038026437163353,0.08843968063592911,-0.027587637305259705,-0.10410859435796738,-0.016542788594961166,-0.05246732383966446,-0.08225970715284348,-0.04526018723845482,-0.06676076352596283,-0.12070862948894501,0.058937784284353256,0.08372782915830612,0.0002988630731124431,-0.05353131145238876,0.07562689483165741,-0.14663109183311462,-0.1673421412706375,0.20505885779857635,-0.10723402351140976,0.09323780983686447,0.11495672166347504,-0.06866718083620071,-0.1679060161113739,0.15168039500713348,-0.05455663800239563,0.0039693862199783325,-0.10634386539459229,-0.016700372099876404],[0.09480009973049164,-0.20135654509067535,0.10182271152734756,0.021512849256396294,0.15085674822330475,0.0921960100531578,0.0019266643794253469,0.11429999023675919,-0.08700620383024216,0.12397827208042145,0.08628934621810913,-0.156655952334404,0.1480901688337326,0.024450644850730896,0.029499035328626633,0.04205579310655594,-0.04668774455785751,-0.1410175859928131,0.07154399156570435,-0.13744454085826874,-0.048960547894239426,-0.03937235847115517,0.05166780203580856,0.028776807710528374,0.12635578215122223,-0.0800296813249588,-0.10215339064598083,0.008180484175682068,0.09481923282146454,-0.002980917925015092,0.033482715487480164,0.16774965822696686,0.026996329426765442,0.06021173298358917],[0.12149110436439514,-0.09181661158800125,0.08034416288137436,0.06200821325182915,0.06664173305034637,-0.1415175497531891,-0.09045009315013885,0.03753501549363136,-0.058833181858062744,-0.07901214063167572,-0.13945740461349487,0.15448397397994995,0.036406487226486206,-0.0496627502143383,-0.013692503795027733,-0.1204313412308693,-0.11712060123682022,0.0211735088378191,-0.08421806991100311,0.1729210615158081,0.15797659754753113,0.043414000421762466,0.001870366744697094,0.11057602614164352,0.08267863839864731,-0.14677368104457855,-0.053770311176776886,0.006622940301895142,0.09073562920093536,0.06324207037687302,0.1552097648382187,-0.03369402885437012,-0.05318990349769592,-0.100275419652462],[0.014658267609775066,-0.11976028233766556,-0.13400790095329285,-0.11995557695627213,-0.16357499361038208,0.12572379410266876,0.07990896701812744,-0.08174805343151093,0.12302576005458832,0.09451590478420258,-0.0420050173997879,0.06408632546663284,-0.08108249306678772,0.1403678059577942,0.11805004626512527,-0.12747183442115784,-0.011553043499588966,0.12218555063009262,0.00496378168463707,-0.17746511101722717,0.06815644353628159,-0.019975613802671432,0.17278985679149628,-0.005993551108986139,-0.13643348217010498,-0.14300930500030518,-0.16254034638404846,-0.09143055975437164,0.012399762868881226,0.1197272315621376,0.058799147605895996,-0.05338802933692932,-0.0632026419043541,0.08094145357608795],[0.07392144203186035,0.08875983208417892,0.2023780345916748,-0.16697295010089874,0.14618460834026337,0.0006739773671142757,-0.08177807927131653,0.053224969655275345,-0.10403072088956833,0.10969521105289459,-0.029091499745845795,0.1696329116821289,0.08668319135904312,0.11956602334976196,0.1326724737882614,-0.09351207315921783,0.04737020656466484,-0.15178929269313812,-0.1302439570426941,-0.16583102941513062,0.09599797427654266,0.10436386615037918,0.18601927161216736,-0.008488934487104416,0.05232570692896843,-0.1869836449623108,0.09873677790164948,0.10519243776798248,0.12779636681079865,0.003933358937501907,0.041100144386291504,-0.09104878455400467,-0.0973510816693306,0.13760767877101898],[0.01066798809915781,0.10202935338020325,-0.05835658311843872,0.16840103268623352,-0.03527083992958069,-0.10235246270895004,-0.04598609730601311,-0.1174711063504219,0.15514706075191498,0.10501192510128021,0.053387999534606934,-0.13631825149059296,0.016432642936706543,0.01078523974865675,-0.16022570431232452,0.08670762181282043,0.05459544435143471,-0.0833963081240654,0.05972848832607269,0.13307444751262665,-0.04503503814339638,0.021546006202697754,-0.1724177747964859,-0.03978884220123291,-0.13905705511569977,-0.12807175517082214,0.13807617127895355,0.08118931949138641,0.004794597625732422,0.0804210677742958,-0.10518500208854675,-0.13507239520549774,0.03392064571380615,-0.16726049780845642],[0.18608778715133667,-0.11719611287117004,-0.13049595057964325,-0.12707650661468506,-0.15205928683280945,0.0946643203496933,-0.0029510613530874252,0.05896058306097984,0.1401842087507248,0.04319863021373749,-0.0990314930677414,-0.1723448783159256,-0.026669204235076904,0.010640539228916168,0.033488281071186066,-0.12427879869937897,-0.04212304949760437,-0.07000455260276794,-0.05597969517111778,-0.060650721192359924,0.08238180726766586,0.10868228226900101,0.18369093537330627,-0.061941396445035934,-0.10777910053730011,-0.08198519796133041,-0.10584549605846405,-0.11620470881462097,-0.0198371559381485,-0.06113823875784874,0.09078900516033173,0.04998309910297394,0.12241701781749725,0.061175063252449036],[-0.037952374666929245,0.13492712378501892,0.13869573175907135,-0.09163445979356766,0.08003033697605133,0.09278089553117752,-0.02866373583674431,0.10848478972911835,0.15312515199184418,-0.07313898950815201,0.17026099562644958,-0.1150180920958519,0.16412903368473053,-0.10111906379461288,0.008524924516677856,-0.03037743829190731,0.01828702725470066,0.1702595204114914,0.1660434603691101,-0.12920458614826202,-0.17086035013198853,0.08984436094760895,0.11855591833591461,-0.05435752496123314,0.17078518867492676,0.12156305462121964,-0.002970784902572632,-0.15044154226779938,0.0579996258020401,-0.06918652355670929,0.02255535125732422,-0.16941556334495544,-0.15131303668022156,0.09710724651813507],[-0.09901893883943558,-0.1760350465774536,-0.06631405651569366,-0.17814160883426666,0.09888000786304474,-0.05537870153784752,0.14399318397045135,0.12726207077503204,0.16992275416851044,0.1388191431760788,0.026651760563254356,0.1241651177406311,0.16892296075820923,0.14470328390598297,-0.01683519035577774,0.08054178953170776,-0.06945279985666275,0.11483526229858398,-0.1654042750597,-0.008304664865136147,-0.06848049908876419,-0.024563994258642197,0.10913341492414474,-0.03325268626213074,-0.12201099842786789,0.11233320832252502,-0.15588337182998657,0.15880466997623444,0.08521173894405365,-0.175950825214386,-0.11751434206962585,0.13343210518360138,-0.15899281203746796,0.06981612741947174],[-0.2135598063468933,-0.11413893103599548,-0.0760650560259819,0.03175819292664528,-0.15216213464736938,0.16855107247829437,0.16190169751644135,-0.08386171609163284,-0.07809486985206604,-0.1394621729850769,0.07885868102312088,0.10337945073843002,-0.0429455041885376,0.08285120874643326,-0.15689854323863983,0.13790453970432281,0.12075347453355789,0.022902928292751312,-0.00257122702896595,0.11698685586452484,0.04815121367573738,0.04324866086244583,0.11417310684919357,0.0393361821770668,0.19787684082984924,-0.19510363042354584,-0.14992587268352509,0.04575672745704651,-0.10554125905036926,-0.03212103992700577,-0.12671563029289246,-0.016367807984352112,-0.14043676853179932,0.13690011203289032],[0.10382940620183945,-0.01048682164400816,-0.02582157775759697,-0.0123903788626194,0.03860612213611603,0.10389462113380432,-0.060687355697155,0.0767315998673439,-0.05729677528142929,0.07493546605110168,-0.10255347192287445,-0.003407549113035202,0.1551595777273178,-0.03896571323275566,-0.008911840617656708,-0.16007409989833832,-0.05588233098387718,0.1123407706618309,0.09468298405408859,-0.008570581674575806,0.0830259844660759,0.032473813742399216,0.05482233315706253,-0.03981119766831398,0.09174074977636337,0.13622942566871643,-0.1637013554573059,-0.005568206310272217,0.0824161022901535,0.14790451526641846,0.0957304984331131,0.09516914188861847,-0.06138940155506134,-0.06754430383443832],[-0.14712408185005188,0.12357540428638458,0.19725386798381805,0.04621567204594612,0.03033609688282013,0.04777977615594864,0.13291242718696594,-0.1140926331281662,-0.022052407264709473,-0.14930327236652374,-0.102090984582901,0.1352805495262146,0.06204922869801521,-0.0964127779006958,0.1399046778678894,0.15332815051078796,-0.13063845038414001,0.1284683793783188,-0.14186495542526245,0.0634981095790863,-0.1583838164806366,-0.20908117294311523,0.05767856910824776,-0.03932642564177513,0.0846942886710167,0.04664263874292374,0.10545529425144196,-0.09159576892852783,0.17136715352535248,-0.10471994429826736,0.005587875843048096,-0.01809297502040863,-0.14184944331645966,0.07247292995452881],[-0.0032578071113675833,0.04786400496959686,0.0588846281170845,-0.027377638965845108,0.14426173269748688,0.114832803606987,0.10370667278766632,-0.1536119431257248,-0.06072235107421875,0.1315755993127823,-0.08789194375276566,-0.15756855905056,-0.015198196284472942,0.05205121263861656,-0.06373482197523117,-0.048108186572790146,0.033017467707395554,0.09813890606164932,-0.03343444690108299,0.11828836798667908,-0.00442618178203702,-0.010372491553425789,-0.11549104005098343,-0.12251440435647964,-0.03709876909852028,0.03573543578386307,-0.08435884118080139,0.14085398614406586,-0.07110857218503952,-0.10834326595067978,-0.13488447666168213,-0.0340254008769989,-0.138710618019104,-0.02958725392818451],[0.20676374435424805,0.18674881756305695,-0.20975372195243835,0.05094043165445328,-0.04120318591594696,-0.0890558660030365,0.05244499444961548,-0.04841393232345581,-0.10358967632055283,0.011206895112991333,0.18176166713237762,-0.1274813711643219,0.114322729408741,0.10641585290431976,-0.06963298469781876,-0.20403647422790527,-0.025979725643992424,-0.042300596833229065,-0.07049697637557983,0.07703325897455215,0.21092106401920319,0.13456226885318756,-0.19439131021499634,0.10899282991886139,-0.08555218577384949,-0.06678435206413269,-0.10993826389312744,0.10365556180477142,0.009252384305000305,-0.1435880959033966,-0.15371611714363098,0.08230946958065033,-0.17070211470127106,0.10135446488857269],[0.19595180451869965,0.14628957211971283,-0.17686769366264343,-0.05800671875476837,-0.013235166668891907,0.059497274458408356,0.03738435357809067,-0.17699360847473145,-0.017259567975997925,-0.15000241994857788,0.05854874849319458,-0.16633917391300201,-0.09214188158512115,0.13682153820991516,0.07183368504047394,-0.1161092221736908,-0.06921979039907455,-0.1371820718050003,-0.06205112859606743,-0.16787977516651154,0.06269992142915726,-0.0845506340265274,-0.1677584946155548,0.07293229550123215,0.12766119837760925,-0.1059274896979332,0.08172599971294403,-0.11166845262050629,-0.06801778823137283,0.06201082095503807,0.036648064851760864,0.04313056170940399,0.05198657512664795,0.03624969720840454],[-0.12837494909763336,-0.003029135288670659,-0.10555030405521393,-0.08712659031152725,-0.09120754897594452,0.01988414116203785,-0.012521829456090927,0.06461223214864731,-0.11792527139186859,0.07646723091602325,0.08533663302659988,0.06437480449676514,0.19423367083072662,0.17596475780010223,0.15571710467338562,0.07043657451868057,0.06898589432239532,-0.04110227897763252,-0.11373133957386017,0.21383699774742126,0.1819029301404953,-0.06557280570268631,-0.0679144412279129,0.1318873018026352,-0.12371934205293655,-0.0206740852445364,-0.03075927495956421,0.01716311275959015,-0.16049683094024658,-0.09712065011262894,0.05914062261581421,-0.07803556323051453,-0.020299479365348816,0.07026694715023041],[-0.012217532843351364,-0.03868090733885765,0.11349392682313919,0.006271469406783581,0.10001559555530548,0.02453949861228466,0.06834722310304642,0.07163210958242416,-0.0007874369621276855,0.10904456675052643,-0.10491304099559784,0.19573058187961578,0.03990647569298744,-0.0075383796356618404,-0.03277795761823654,-0.009768211282789707,0.0010368633083999157,-0.08711948245763779,-0.12933535873889923,0.028510577976703644,0.0782705694437027,0.11864117532968521,0.04265601933002472,0.037810854613780975,0.08823618292808533,0.025143541395664215,-0.15259288251399994,0.08766095340251923,0.10673917829990387,-0.11212676763534546,-0.1670236885547638,0.058421745896339417,-0.016501888632774353,0.08272252976894379],[-0.038151953369379044,0.0031458318699151278,-0.017258688807487488,-0.035432782024145126,0.16805033385753632,-0.0678829774260521,0.11074002832174301,-0.0015769025776535273,-0.10952992737293243,-0.10278896242380142,-0.09047587960958481,0.10746756196022034,-0.08960165083408356,0.13583806157112122,-0.0908975675702095,0.032519541680812836,0.0037336009554564953,-0.07534727454185486,-0.02924470044672489,0.09963719546794891,0.15784861147403717,0.12677490711212158,0.0918443351984024,0.1553870439529419,0.13146014511585236,-0.03209549933671951,0.1608431488275528,-0.10797159373760223,0.14326287806034088,0.03783980756998062,0.06481452286243439,-0.1604520082473755,0.1238052099943161,-0.10392095893621445],[0.1464204341173172,0.19388502836227417,0.010485055856406689,0.13635261356830597,-0.1459779143333435,-0.14053161442279816,0.02542162500321865,0.10477111488580704,0.16317437589168549,0.05471108853816986,0.15769663453102112,0.03555981069803238,-0.036633774638175964,-0.15384246408939362,0.019484780728816986,-0.17515544593334198,0.13196100294589996,-0.07880888879299164,0.02019793912768364,0.0420549102127552,-2.2684789655613713e-05,-0.13435612618923187,-0.14691536128520966,0.05558875948190689,0.10829879343509674,-0.1672918200492859,-0.1402062475681305,0.03747206926345825,-0.1546194851398468,-0.13286642730236053,0.09217925369739532,-0.09527357667684555,0.15509574115276337,-0.08529175072908401],[0.10699331760406494,-0.13693861663341522,0.12556016445159912,0.120908722281456,0.09645800292491913,-0.06428494304418564,0.10199186950922012,-0.03452143445611,-0.1465476155281067,-0.11798050999641418,0.1333349049091339,-0.10138071328401566,0.05936657264828682,-0.1314145177602768,0.08236146718263626,0.13497096300125122,0.12355697900056839,-0.11635977774858475,0.15050330758094788,-0.059512704610824585,0.15309658646583557,-0.04448330029845238,-0.003548289416357875,0.003970470745116472,-0.12814851105213165,0.12254906445741653,0.12820689380168915,0.0546908974647522,-0.15688644349575043,0.17076095938682556,0.1397111862897873,0.03723974525928497,0.04034915566444397,-0.15019311010837555],[-0.12019572407007217,-0.13833275437355042,0.07974695414304733,0.034909192472696304,0.09527836740016937,-0.02813366800546646,0.12529680132865906,0.09148571640253067,-0.15234211087226868,0.08951680362224579,-0.13181665539741516,0.03258537873625755,-0.08839450031518936,0.028288763016462326,0.15390364825725555,0.17738142609596252,0.005551159381866455,-0.022497864440083504,-0.07378531992435455,-0.06470179557800293,0.15418244898319244,0.08917898684740067,0.015852976590394974,0.007210945710539818,-0.1468767672777176,0.13389502465724945,-0.06482460349798203,-0.09894593805074692,-0.14499306678771973,-0.1663239449262619,-0.1306142508983612,0.04557421803474426,0.15021102130413055,0.11971773207187653],[0.12494823336601257,-0.20655882358551025,-0.016452312469482422,-0.08982829749584198,0.05171583592891693,0.09065592288970947,0.03265536203980446,0.10256712883710861,-0.10313647240400314,-0.036665841937065125,0.1687767505645752,-0.12237714976072311,0.06395065039396286,-0.13209445774555206,0.07458601146936417,0.06691475212574005,0.09518426656723022,0.09933178126811981,-0.023501023650169373,0.013243325054645538,0.04705139249563217,0.059425897896289825,0.004349119495600462,-0.23033715784549713,-0.11299493908882141,0.1223791316151619,0.007011637091636658,-0.15649689733982086,-0.04079620540142059,-0.04981749877333641,0.08312724530696869,-0.005157828330993652,0.03394494950771332,-0.13356813788414001],[0.004816803615540266,0.10229471325874329,0.17098243534564972,-0.04357009381055832,-0.11721111088991165,-0.11437840759754181,0.047809235751628876,-0.1494588851928711,0.044787243008613586,-0.07400394231081009,0.0058179497718811035,-0.01388620212674141,0.028008343651890755,0.07417293637990952,-0.06304078549146652,0.05810774117708206,-0.09601713716983795,0.06410065293312073,-0.0668126568198204,0.10646321624517441,0.004709912464022636,-0.08281558752059937,0.02782476134598255,-0.14551839232444763,-0.0882883220911026,0.10898839682340622,0.07319030165672302,-0.011341825127601624,0.11359013617038727,0.07946519553661346,-0.10823145508766174,-0.0656614899635315,-0.05901830643415451,-0.09981227666139603],[0.06833097338676453,0.12650670111179352,0.013100641779601574,-0.04683799296617508,0.077951580286026,0.06871937215328217,0.1817045956850052,-0.058100875467061996,0.02683989703655243,0.11793316900730133,0.10378411412239075,0.11257472634315491,-0.06607448309659958,-0.023124966770410538,-0.05773644149303436,0.08665629476308823,-0.18105411529541016,0.011069409549236298,-0.1612992137670517,0.14645224809646606,0.05665937066078186,0.09824062138795853,-0.07253928482532501,0.034744080156087875,-0.11116080731153488,0.13569244742393494,-0.14335888624191284,-0.028509587049484253,-0.08399160206317902,0.02206074632704258,0.15609152615070343,-0.09672275185585022,-0.11207521706819534,0.14438779652118683],[0.06940071284770966,0.07340551167726517,0.10217535495758057,0.021606672555208206,-0.1515892595052719,-0.011558005586266518,-0.033314939588308334,-0.18789426982402802,0.00018042325973510742,-0.06214793026447296,0.12190282344818115,0.10952366888523102,-0.10645055770874023,0.041896477341651917,0.06813842058181763,0.08408933877944946,0.03155231848359108,0.06961426883935928,0.12073380500078201,0.17561252415180206,-0.14620421826839447,0.07700491696596146,-0.015014803037047386,0.05702091380953789,0.06938494741916656,0.02644183114171028,0.15121392905712128,-0.10238929092884064,-0.15484541654586792,0.12163113802671432,0.04648338258266449,0.012915685772895813,-0.08189230412244797,-0.12560686469078064],[0.07212258130311966,0.16078059375286102,-0.09044994413852692,-0.04958292469382286,0.10971944034099579,-0.16239893436431885,0.17780731618404388,-0.1771095097064972,0.09299258887767792,-0.06249218434095383,0.1737714558839798,-0.07108405232429504,0.008558458648622036,0.10419464856386185,0.06273877620697021,0.025685332715511322,-0.19776612520217896,-0.041584428399801254,-0.05978112667798996,-0.02318601869046688,0.05395837128162384,-0.09788761287927628,0.062149159610271454,0.13875548541545868,0.04020730033516884,0.014049305580556393,-0.14669668674468994,0.08570604026317596,-0.08481482416391373,-0.1521533876657486,0.038704439997673035,-0.0042426735162734985,0.09934733808040619,0.1619790643453598],[-0.15270182490348816,0.0339575856924057,-0.035050179809331894,-0.06524135172367096,-0.026744872331619263,-0.06578506529331207,0.15104913711547852,-0.024691756814718246,0.16500280797481537,-0.01701924204826355,-0.16268326342105865,-0.0021507255733013153,0.054473988711833954,-0.014302674680948257,0.09836101531982422,-0.13143888115882874,0.0898619219660759,0.004615481477230787,-0.11856576055288315,0.09349409490823746,-0.016155751422047615,0.1179409995675087,0.19621242582798004,-0.021625855937600136,-0.12157371640205383,0.022864818572998047,-0.039849162101745605,0.16846643388271332,-0.08404567092657089,-0.006772598717361689,-0.016368284821510315,-0.14069755375385284,0.04276634752750397,0.16995568573474884],[-0.051938142627477646,-0.21949534118175507,-0.07949133217334747,0.008114696480333805,0.1630314439535141,0.05664616823196411,0.05991706624627113,0.12322743237018585,-0.11494538187980652,0.1397378295660019,-0.1091018095612526,0.011505301110446453,0.11578039079904556,0.024518469348549843,0.03713424876332283,0.13901592791080475,-0.1483265608549118,0.1153528019785881,0.01288702990859747,-0.0973537489771843,-0.0697319284081459,0.020259834825992584,-0.07777892798185349,-0.012425240129232407,-0.10978711396455765,0.07242096960544586,-0.010173007845878601,0.05688914656639099,0.042715489864349365,-0.14518222212791443,-0.1536448895931244,0.14033471047878265,0.0987420529127121,0.029214859008789062],[0.014288322068750858,-0.06430544704198837,0.007100922055542469,0.19947078824043274,-0.131878063082695,0.0934593603014946,0.003928375896066427,0.04733709618449211,0.007965907454490662,0.030947715044021606,0.03018249198794365,-0.0359378382563591,-0.054313622415065765,-0.12167505919933319,0.10035440325737,0.10642607510089874,-0.09797270596027374,-0.091151662170887,0.1392240673303604,0.07126522064208984,-0.15867426991462708,0.06976046413183212,-0.11145959794521332,0.025027615949511528,0.1563267558813095,0.18550707399845123,0.027573958039283752,0.1246563047170639,-0.13867603242397308,0.10104427486658096,0.1205623596906662,-0.15755899250507355,0.09837572276592255,-0.027198076248168945],[-0.12050195783376694,0.0008009267039597034,0.20477323234081268,-0.0557730458676815,-0.0988226979970932,0.12146853655576706,0.11463480442762375,-0.153461754322052,0.131173774600029,-0.13881200551986694,0.0978483110666275,0.002786843804642558,-0.05314800888299942,0.155152827501297,-0.011094065383076668,-0.16715821623802185,-0.10822531580924988,0.0731247067451477,0.040181152522563934,0.07685059309005737,-0.029977794736623764,-0.008997400291264057,0.14382342994213104,0.07826490700244904,0.09921908378601074,0.13389557600021362,0.14694614708423615,-0.05647160857915878,-0.06033717840909958,-0.006215832661837339,0.1702238768339157,0.16483156383037567,0.1196727305650711,0.10977928340435028],[-0.1750299632549286,-0.03377500921487808,-0.10243314504623413,-0.15123866498470306,-0.06270163506269455,-0.0492122620344162,0.0666537880897522,0.03406740725040436,-0.030592456459999084,0.07087211310863495,0.0681304782629013,0.09342924505472183,0.0656907707452774,-0.16686806082725525,-0.0725281611084938,0.12184937298297882,0.07737071812152863,-0.08460573852062225,0.07435855269432068,0.14315852522850037,0.06852366030216217,0.030721519142389297,-0.09675902128219604,0.013041133061051369,-0.07737250626087189,0.07113511860370636,-0.025263711810112,-0.031695544719696045,-0.11630694568157196,-0.03978056088089943,-0.10977695882320404,-0.16161350905895233,0.025446102023124695,0.15973590314388275],[-0.10437982529401779,0.10360487550497055,-0.1038452610373497,-0.1521667242050171,0.14776872098445892,-0.10519919544458389,-0.037883076816797256,0.006714832037687302,-0.07537973672151566,-0.0371975302696228,-0.12771928310394287,0.15629249811172485,-0.08181334286928177,-0.07185221463441849,0.14282216131687164,0.0026934498455375433,-0.07014134526252747,-0.03034267947077751,-0.09494174271821976,-0.0779925286769867,-0.10393112897872925,0.1206873431801796,-0.02520783618092537,-0.11816257238388062,-0.13417673110961914,0.09813559055328369,-0.07724113762378693,-0.09140653163194656,-0.11331887543201447,0.11997681111097336,0.08222715556621552,0.10425852239131927,0.06358464062213898,-0.1416192203760147],[-0.0661628320813179,0.12555891275405884,0.11363684386014938,0.03830284997820854,-0.1665896773338318,-0.06607302278280258,-0.1133861169219017,0.004054059274494648,0.006913691759109497,0.14692561328411102,-0.024607613682746887,0.15878775715827942,-0.19507740437984467,-0.1658993810415268,0.07541035115718842,0.05107025429606438,0.025296203792095184,0.044320106506347656,0.16029278934001923,-0.15670739114284515,-0.12179123610258102,0.10334762185811996,-0.1481011062860489,-0.008141735568642616,0.014230558648705482,-0.09075839072465897,0.02135889232158661,0.0634496659040451,-0.12679818272590637,0.07777543365955353,-0.13509218394756317,-0.051989518105983734,-0.15678434073925018,-0.16851510107517242],[-0.11820070445537567,-0.16405417025089264,-0.0005982310976833105,-0.04212626814842224,0.10246552526950836,-0.027303077280521393,0.025045327842235565,-0.0697602778673172,-0.020010992884635925,0.05355161428451538,-0.09823844581842422,0.07836362719535828,0.010535814799368382,0.04797971248626709,-0.17936988174915314,-0.0973738431930542,0.14643357694149017,-0.0017834615428000689,-0.03190939873456955,-0.12173742055892944,-0.09771819412708282,0.15355010330677032,-0.1583489328622818,-0.041099075227975845,-0.08079462498426437,0.1844574213027954,-0.03441247344017029,-0.10342980176210403,-0.14698526263237,0.13920152187347412,0.12284223735332489,-0.04324971139431,0.051712945103645325,0.16328011453151703],[0.05988753214478493,-0.21355393528938293,0.03252704069018364,-0.17940665781497955,0.08738331496715546,-0.20820735394954681,0.021809620782732964,0.0032975992653518915,0.16934837400913239,-0.025882914662361145,-0.08757872134447098,0.013163075782358646,0.15970182418823242,0.02462555468082428,0.0939507782459259,-0.09371115267276764,0.11517925560474396,-0.00880762655287981,0.06817351281642914,-0.061070866882801056,-0.011654548346996307,-0.06444170325994492,0.10830184072256088,0.03532155975699425,-0.06510166823863983,-0.15747307240962982,0.15367348492145538,-0.008176073431968689,0.003784865140914917,-0.04097795858979225,-0.15908335149288177,0.1277192384004593,-0.13976851105690002,-0.09070339798927307],[-0.09991933405399323,0.07099100202322006,-0.021156566217541695,-0.0736733004450798,-0.0019249320030212402,0.20898842811584473,-0.09680566936731339,-0.13676589727401733,0.09970943629741669,0.12045051157474518,-0.03637870401144028,0.12693116068840027,0.007317205425351858,-0.14321158826351166,-0.07558418065309525,0.18269947171211243,0.17017732560634613,-0.05818890780210495,0.15979191660881042,-0.16487862169742584,-0.006438185460865498,0.009015118703246117,0.019245004281401634,-0.003887822385877371,0.12786269187927246,0.15250897407531738,0.02695712447166443,-0.031902849674224854,0.013659343123435974,-0.040608517825603485,-0.03253968060016632,-0.039989739656448364,-0.09142201393842697,0.058732643723487854],[0.10086443275213242,0.07408639788627625,0.10147837549448013,0.11207576841115952,0.08726029098033905,0.004064536653459072,0.05235502868890762,0.042583633214235306,-0.09697772562503815,0.04501742124557495,0.08279208093881607,-0.031647488474845886,0.012724345549941063,-0.05527518689632416,-0.08499643206596375,0.05343172699213028,-0.1627989113330841,-0.06606977432966232,-0.10463648289442062,-0.03894975781440735,0.015778135508298874,0.006531417835503817,-0.01553141325712204,-0.10528405755758286,0.11283767223358154,-0.030793482437729836,-0.10057441890239716,-0.09194836765527725,-0.030224665999412537,-0.13359901309013367,-0.014905452728271484,-0.06694990396499634,-0.11696624755859375,0.08338449895381927],[-0.07160373032093048,-0.13258802890777588,0.07204540073871613,-0.10139762610197067,-0.10509641468524933,0.03021903522312641,-0.06801638007164001,-0.04677975922822952,-0.10711949318647385,0.10872404277324677,0.05719641596078873,-0.01591537334024906,-0.11069197952747345,0.043606776744127274,-0.07896038144826889,0.07451601326465607,0.010149037465453148,-0.12564979493618011,-0.1057966947555542,0.007547623943537474,0.04927574843168259,0.0016749704955145717,0.145152747631073,-0.09619208425283432,0.014567538164556026,-0.006768586114048958,0.1450059562921524,0.05248551070690155,-0.0573267936706543,0.016110984608530998,-0.11716161668300629,-0.09195542335510254,0.0642349123954773,-0.13804548978805542],[-0.12438242882490158,-0.03224837779998779,-0.004178580362349749,-0.11224889755249023,0.007668152451515198,0.04116945341229439,-0.04956753924489021,0.0379580520093441,0.11852942407131195,0.0230904221534729,0.14768004417419434,-0.19841758906841278,0.09773499518632889,-0.16145332157611847,0.028757980093359947,-0.18161283433437347,-0.09615740180015564,-0.09257163852453232,-0.09566453844308853,-0.20332545042037964,0.14503715932369232,0.04233894497156143,-0.10116982460021973,-0.08537741005420685,-0.10621236264705658,0.06491763144731522,0.0942063182592392,-0.12789201736450195,-0.026241883635520935,0.08518069237470627,0.07239031791687012,-0.01808924973011017,-0.14475898444652557,0.11904697120189667],[0.08749751001596451,-0.16143780946731567,0.07106586545705795,0.024064982309937477,0.024369150400161743,-0.07343512773513794,-0.13302361965179443,0.18292246758937836,-0.09524475038051605,-0.06298992037773132,-0.01616719551384449,-0.1350095123052597,0.19706284999847412,0.05676310881972313,-0.12617996335029602,-0.024075305089354515,-0.13240168988704681,-0.017006507143378258,0.13706783950328827,-0.06359703093767166,-0.14565712213516235,-0.058539703488349915,0.08305637538433075,-0.14432533085346222,-0.19897012412548065,0.010692683979868889,-0.12940357625484467,-0.08400510996580124,0.05072323977947235,0.15322093665599823,-0.15665555000305176,-0.10893471539020538,-0.08949457108974457,-0.009637117385864258],[0.07312531769275665,-0.10072115808725357,0.07010922580957413,0.03187573701143265,-0.09811902791261673,0.19771967828273773,0.010895750485360622,-0.14146587252616882,0.13976363837718964,0.06455889344215393,-0.13051293790340424,-0.06005644425749779,-0.05493743717670441,-0.1886206716299057,-0.1361187845468521,-0.02235017903149128,0.12472714483737946,-0.006740514654666185,0.16629433631896973,-0.08994711190462112,-0.03163830563426018,-0.06353068351745605,-0.04294612631201744,0.018732763826847076,0.13835136592388153,-0.09172098338603973,-0.00982697308063507,-0.12068711966276169,0.1538601964712143,0.16958215832710266,0.03956452012062073,0.02099403738975525,-0.032824158668518066,-0.01959247887134552],[-0.08876455575227737,0.18868395686149597,-0.11951155215501785,-0.02410684898495674,0.08467356860637665,0.09548195451498032,0.09610698372125626,0.1104058250784874,0.16690875589847565,0.10478706657886505,0.14085176587104797,0.1751927137374878,0.10097114741802216,-0.0487615242600441,-0.09778157621622086,0.12398845702409744,-0.01780402846634388,0.04020695760846138,-0.04750810191035271,0.06920664012432098,0.14315830171108246,-0.14376004040241241,0.0773015022277832,-0.10005498677492142,0.12013114243745804,0.11145995557308197,-0.13565483689308167,0.07546044886112213,0.14814291894435883,0.10478294640779495,-0.1459215134382248,-0.11753280460834503,-0.03765156865119934,0.13682641088962555],[-0.008379517123103142,-0.012619370594620705,-0.023572441190481186,-0.07698719948530197,0.16094551980495453,0.05607584863901138,0.03755990415811539,0.012504562735557556,-0.13756099343299866,0.14046014845371246,-0.16716784238815308,-0.16758905351161957,0.1452682912349701,-0.15712828934192657,0.07912919670343399,0.11902885884046555,0.14726506173610687,0.10951606929302216,-0.14983847737312317,-0.15534891188144684,-0.11459541320800781,-0.08065188676118851,0.006693454924970865,-0.058644939213991165,-0.1307787299156189,0.15575914084911346,-0.10895322263240814,0.036378294229507446,-0.013134613633155823,0.13288769125938416,0.1108500212430954,0.14213837683200836,0.11285267770290375,-0.09651292860507965],[-0.03622248023748398,0.15331600606441498,-0.0044089448638260365,0.059237319976091385,0.15628857910633087,-0.15405243635177612,0.144800066947937,0.08562175929546356,0.08849747478961945,-0.045862942934036255,-0.1204833984375,-0.14248135685920715,0.12095985561609268,0.12272266298532486,-0.05801146849989891,-0.15109099447727203,-0.11790148168802261,0.13209153711795807,0.002158061834052205,-0.04131435975432396,0.18212410807609558,-0.022014284506440163,0.011282731778919697,0.006405569612979889,0.1873306930065155,-0.046563830226659775,-0.06327009201049805,0.04836001992225647,0.04619304835796356,0.10538119077682495,0.0016973167657852173,-0.003798246383666992,0.1533459573984146,-0.07976782321929932],[-0.04027056694030762,-0.10640613734722137,0.00030037766555324197,0.030621647834777832,-0.129361093044281,0.017524106428027153,-0.15585707128047943,-0.11392691731452942,-0.06635888665914536,-0.12807172536849976,-0.019833935424685478,-0.12415457516908646,0.006514324806630611,0.014488054439425468,-0.13558070361614227,-0.1321166306734085,-0.16482189297676086,-0.053689125925302505,0.04475446417927742,0.09375834465026855,-0.11397779732942581,-0.11988247185945511,0.07312460988759995,-0.018772389739751816,-0.03267963230609894,-0.08360827714204788,-0.05768667161464691,0.16256530582904816,-0.16661429405212402,0.04109852388501167,-0.0789831355214119,0.12948362529277802,0.002586275339126587,-0.11520732939243317],[0.10207390785217285,0.1994543820619583,0.0028270992916077375,0.04276101663708687,0.16898255050182343,-0.11670594662427902,-0.0967257171869278,-0.15592417120933533,0.015362635254859924,0.07095615565776825,0.041677698493003845,0.041345056146383286,-0.1493162363767624,-0.0063627795316278934,-0.12795889377593994,0.04499584063887596,0.150488018989563,0.14326731860637665,0.1518505960702896,-0.11470259726047516,0.15263032913208008,0.03869792819023132,-0.022307846695184708,0.1531786471605301,0.05465111508965492,0.1714753657579422,-0.021059736609458923,-0.05188075453042984,0.12480251491069794,0.08349204808473587,-0.1396709680557251,-0.05656272917985916,0.03592906892299652,-0.05833315849304199],[-0.11793141812086105,-0.14185550808906555,-0.10609512031078339,-0.15243367850780487,-0.07690870016813278,-0.06351640820503235,-0.14821664988994598,-0.11850183457136154,0.11560888588428497,-0.041122764348983765,0.09776036441326141,-0.06305811554193497,-0.06676125526428223,0.04430165886878967,0.058699119836091995,-0.0772714614868164,-0.13054004311561584,0.021536413580179214,0.0328301377594471,-0.04844321310520172,0.09081043303012848,-0.1670217216014862,0.00897245667874813,0.027301015332341194,-0.14322412014007568,-0.011488335207104683,0.11436669528484344,0.03303524851799011,-0.1291830688714981,0.06771323084831238,0.03619462251663208,0.14548100531101227,-0.07041001319885254,-0.1597563773393631],[-0.07765311002731323,0.014590597711503506,-0.17534223198890686,-0.10483074188232422,0.16562844812870026,-0.028680995106697083,-0.09105663746595383,-0.002835954073816538,0.02208840847015381,0.12604404985904694,0.12219205498695374,-0.10163716971874237,-0.07524651288986206,-0.08156908303499222,0.17885997891426086,-0.13172949850559235,0.14928002655506134,-0.0145499799400568,-0.07427234947681427,-0.15732994675636292,0.16881604492664337,-0.10502266883850098,0.11890697479248047,-0.019912321120500565,0.0747414231300354,-0.08403507620096207,0.16072626411914825,0.0751378983259201,-0.1464468240737915,0.06819181889295578,0.14294694364070892,-0.06604029983282089,-0.002767413854598999,0.03380601108074188],[0.13068650662899017,0.055615995079278946,0.025994092226028442,0.10899175703525543,-0.1232028603553772,0.09692490845918655,-0.0282712671905756,0.0610262006521225,-0.16602352261543274,0.12534411251544952,-0.0034839350264519453,-0.1312166303396225,-0.035950757563114166,-0.004008069634437561,-0.06017591431736946,-0.04606105759739876,-0.15143877267837524,-0.036626048386096954,0.05213252827525139,-0.15241609513759613,0.16213779151439667,-0.06114570051431656,0.049183860421180725,0.017632076516747475,0.024468401446938515,0.11881944537162781,0.15428586304187775,0.016470015048980713,0.16177500784397125,0.07070205360651016,0.14431025087833405,-0.04312615096569061,0.018478021025657654,-0.02373480796813965],[0.06384410709142685,-0.1659027636051178,-0.050326380878686905,-0.04620068520307541,-0.05582716315984726,-0.15401926636695862,0.0799148678779602,-0.0650348961353302,0.11195595562458038,0.12235097587108612,-0.14595673978328705,0.12111391127109528,0.10403396934270859,0.1494198739528656,-0.08273579925298691,-0.12416887283325195,-0.17553851008415222,0.12470059841871262,-0.06308401376008987,0.08655143529176712,0.13176648318767548,0.018899673596024513,0.14409808814525604,0.03675130382180214,-0.16066741943359375,-0.16591103374958038,0.13502494990825653,-0.08759935200214386,-0.13081075251102448,-0.05615459010004997,-0.1650165170431137,0.03784680366516113,-0.14075376093387604,-0.1205124706029892],[0.016422590240836143,-0.0907251313328743,0.08463986963033676,0.13572287559509277,-0.015321806073188782,-0.09663562476634979,-0.011680221185088158,-0.11114656925201416,-0.007870927453041077,0.15611271560192108,-0.11161208152770996,-0.04639064893126488,-0.07094663381576538,-0.16151219606399536,-0.05151202529668808,-0.04420015960931778,0.14928634464740753,-0.031918637454509735,-0.06579567492008209,0.11647679656744003,0.16820694506168365,-0.06761274486780167,-0.04577750712633133,-0.00825093686580658,0.02349763736128807,-0.06558339297771454,0.09038268029689789,-0.16890694200992584,0.1506727784872055,0.02358441986143589,-0.04107968509197235,-0.16836605966091156,0.04345974326133728,-0.11351428925991058],[-0.1421554684638977,-0.1824749857187271,0.17287416756153107,-0.20480643212795258,-0.05325626581907272,-0.18844842910766602,0.06941862404346466,-0.10722939670085907,-0.10721419006586075,0.04554706811904907,-0.1679762750864029,-0.028406066820025444,0.10070309042930603,0.09117946773767471,-0.003029175568372011,-0.02946656011044979,-0.14041167497634888,0.1649368554353714,0.14003324508666992,0.02239338308572769,-0.15297658741474152,0.0984528437256813,-0.0026317662559449673,0.06215181574225426,-0.18372559547424316,-0.02885652706027031,0.08980588614940643,-0.03734973073005676,-0.1174931600689888,-0.13703714311122894,0.10262949764728546,-0.09471220523118973,0.13834019005298615,0.10811226069927216],[-0.030884167179465294,0.0900922566652298,-0.1180979460477829,0.0620550774037838,-0.011484161019325256,0.041304245591163635,0.09655115008354187,-0.05622829124331474,0.06886950135231018,-0.0911610797047615,-0.06461972743272781,0.03266112133860588,0.06907759606838226,0.144292950630188,0.13399434089660645,0.08087597787380219,-0.03870116174221039,-0.006292378064244986,0.10376738011837006,-0.13671919703483582,-0.05574098974466324,0.02088802121579647,-0.11581215262413025,-0.16622602939605713,-0.1497393399477005,-0.04817100614309311,-0.10679341107606888,0.08005695044994354,0.012203633785247803,-0.08564485609531403,-0.03310944139957428,0.0025445669889450073,0.13335557281970978,-0.03827117383480072],[-0.07095381617546082,-0.04265941306948662,0.12356681376695633,-0.16052107512950897,0.12794576585292816,-0.12753231823444366,-0.061037514358758926,0.1799568086862564,0.12087349593639374,-0.05570104718208313,-0.0210940632969141,-0.04760097339749336,0.014253070577979088,0.16300208866596222,-0.0714099109172821,-0.15729264914989471,0.17416785657405853,-0.03146839886903763,0.08969300985336304,-0.11837904155254364,-0.05907420441508293,-0.04522344842553139,0.09400080889463425,0.022909490391612053,0.004426075145602226,0.1216006949543953,-0.11943572759628296,-0.033141523599624634,0.007043138146400452,0.006623710040003061,-0.05184902250766754,0.01559227705001831,0.15574117004871368,0.14534248411655426],[0.06990465521812439,-0.2025037407875061,0.13329625129699707,-0.1514672487974167,0.10377703607082367,0.005051003769040108,0.11653422564268112,0.12858594954013824,0.17054931819438934,0.16515685617923737,0.05334162712097168,-0.10172036290168762,-0.0688965916633606,-0.07374458760023117,-0.041141610592603683,-0.08648725599050522,-0.1789952665567398,0.14343902468681335,-0.12481885403394699,-0.024521231651306152,0.133688822388649,0.0005850723828189075,0.04116668179631233,-0.01612994633615017,-0.03682616353034973,-0.1906217634677887,0.14027027785778046,0.018868684768676758,-0.11000818014144897,-0.13464830815792084,-0.01687130331993103,-0.15234993398189545,-0.061560362577438354,-0.07611991465091705],[-0.0205843523144722,0.09327170252799988,-0.08732235431671143,-0.059716153889894485,0.029883399605751038,0.020630784332752228,-0.17087212204933167,-0.10356761515140533,-0.005905464291572571,0.09785450994968414,-0.0288951825350523,-0.12113340198993683,-0.1243608146905899,-0.0536094568669796,-0.07595617324113846,-0.16177166998386383,0.15485496819019318,-0.07878033816814423,-0.04805700480937958,-0.08315188437700272,-0.07333929091691971,-0.051252786070108414,-0.07222699373960495,0.1890854388475418,-0.08379177749156952,0.14634542167186737,0.14375562965869904,-0.09218128770589828,0.0173044353723526,0.1314357966184616,-0.13231265544891357,-0.0040436238050460815,-0.12119581550359726,-0.017625540494918823],[0.06163305044174194,-0.1596187949180603,0.13448844850063324,-0.09169968962669373,-0.15973295271396637,0.05127645656466484,-0.11327942460775375,0.11704283207654953,0.04600803554058075,-0.14395762979984283,0.06886323541402817,0.09873704612255096,0.15984047949314117,0.1795651912689209,-0.046105653047561646,-0.04196557402610779,-0.0913769006729126,-0.15518596768379211,-0.06239201873540878,0.10083451122045517,-0.1562754362821579,-0.17726624011993408,0.06355372816324234,-0.1720266193151474,-0.19456540048122406,-0.06417988985776901,0.0740596354007721,0.10841812193393707,0.11805732548236847,0.16621609032154083,0.10734371840953827,-0.026033058762550354,0.1326531618833542,0.03010961413383484],[0.14610056579113007,-0.04459470137953758,-0.11426468938589096,0.1638001650571823,0.10567168891429901,-0.045529354363679886,-0.014690043404698372,-0.1333545297384262,-0.13940244913101196,0.16975010931491852,0.11762890219688416,-0.13032594323158264,-0.19812485575675964,-0.060734767466783524,0.11882651597261429,0.08174709975719452,0.015379969030618668,0.10583791881799698,0.03596307709813118,-0.055040597915649414,0.15591460466384888,0.028353251516819,-0.008362158201634884,0.15503700077533722,0.03289967402815819,0.10489491373300552,-0.0673738345503807,0.09299157559871674,-0.06603243201971054,-0.15254713594913483,-0.061015643179416656,-0.08464914560317993,0.13118131458759308,0.012971445918083191],[0.021813681349158287,-0.06342444568872452,-0.12012001872062683,-0.07591396570205688,0.1581951528787613,0.0637475773692131,0.057121455669403076,0.1042536199092865,-0.10933814197778702,0.1638018935918808,0.11991681903600693,-0.11514779180288315,0.01098649576306343,-0.012689106166362762,0.11993266642093658,0.07377862185239792,0.139547660946846,0.11226379871368408,0.052828386425971985,0.10211929678916931,0.03529570251703262,-0.0876716822385788,0.018214551731944084,0.12614701688289642,0.13867929577827454,-0.13336293399333954,0.08331356942653656,0.07120424509048462,0.13442550599575043,0.004947620443999767,-0.15542852878570557,0.06195974349975586,-0.0011698156595230103,0.09466789662837982],[-0.11204024404287338,0.13909576833248138,-0.004107380751520395,-0.03921821713447571,-0.14321935176849365,-0.0545775406062603,-0.0008157442207448184,0.05733761936426163,0.023119941353797913,-0.08266977965831757,-0.010476644150912762,0.04306058585643768,-0.18392150104045868,-0.10450674593448639,-0.04334680363535881,0.033148281276226044,0.022477947175502777,-0.004540005698800087,0.12422788888216019,0.05966109409928322,0.07973238825798035,-0.0034348650369793177,-0.18500342965126038,-0.06178859621286392,0.04658759757876396,0.060404956340789795,-0.02842693030834198,-0.08673880994319916,-0.05705811083316803,0.04415459930896759,-0.10546600818634033,0.10377101600170135,-0.013876408338546753,0.009218111634254456],[-0.18962399661540985,-0.04476124048233032,0.15490545332431793,0.15664687752723694,0.08481793105602264,0.022888509556651115,-0.07269066572189331,-0.013014988973736763,0.07169705629348755,-0.12298059463500977,0.01650179550051689,0.06083684787154198,-0.09197565913200378,0.04900786653161049,-0.16206766664981842,0.1253429353237152,-0.07941872626543045,0.06549999862909317,0.1131317988038063,0.07305127382278442,-0.1408047080039978,0.17470744252204895,0.11923515051603317,0.09503002464771271,-0.09456253051757812,0.060574404895305634,-0.13363592326641083,-0.025916412472724915,-0.07835205644369125,0.1252923160791397,-0.030070066452026367,0.12530691921710968,0.08537755906581879,0.0502934455871582],[0.19656430184841156,0.0951935350894928,-0.09894532710313797,-0.12077891081571579,0.04663628339767456,-0.029412535950541496,-0.13607998192310333,-0.1558956503868103,-0.14530068635940552,-0.012031078338623047,0.00967747438699007,-0.14801643788814545,-0.06647984683513641,0.08776852488517761,0.14345088601112366,-0.036614954471588135,0.14506806433200836,-0.08320777863264084,0.095085509121418,-0.0047509633004665375,0.10837522149085999,-0.1280212104320526,0.12544459104537964,-0.028574254363775253,0.09778281301259995,0.13853316009044647,0.06365180015563965,-0.032247141003608704,0.03866015374660492,-0.03989293798804283,0.16690562665462494,-0.021690845489501953,-0.16879859566688538,-0.10166414082050323],[-0.14729009568691254,0.04471348971128464,0.13886062800884247,-0.08700243383646011,-0.05456859618425369,-0.06928614526987076,-0.0730375424027443,-0.06108873337507248,-0.09062059968709946,0.03976193070411682,-0.07105034589767456,0.04704885184764862,-0.13862763345241547,0.03949443995952606,0.04011610522866249,-0.020874621346592903,0.01861850544810295,0.10075824707746506,-0.15943308174610138,0.03990504890680313,-0.11076917499303818,0.033505138009786606,-0.06131694093346596,-0.1467071920633316,0.13943466544151306,-0.02700965292751789,-0.13373403251171112,-0.07856427133083344,0.05872057378292084,-0.11438044905662537,0.044468626379966736,0.04651373624801636,-0.15984377264976501,-0.12324634939432144],[-0.10815398395061493,-0.060261692851781845,0.08260901272296906,0.06382361799478531,-0.0981934443116188,-0.047014445066452026,0.08891311287879944,0.10190445184707642,-0.077251136302948,-0.05789890140295029,-0.11622465401887894,-0.15975405275821686,0.01582605578005314,0.12168949842453003,0.015078761614859104,-0.1890428513288498,0.14833351969718933,-0.05448179692029953,-0.13841462135314941,-0.0954432263970375,0.1577586680650711,0.13871243596076965,-0.15668627619743347,0.05886528640985489,0.130797877907753,0.12640662491321564,0.06556035578250885,-0.14948657155036926,0.026284918189048767,0.15822167694568634,-0.14307726919651031,-0.05956892669200897,-0.04214991629123688,0.041888266801834106],[0.08123140037059784,0.04354061558842659,-0.09750672429800034,-0.058064743876457214,0.08742962777614594,-0.05796818435192108,0.08667880296707153,0.12546589970588684,-0.08998651802539825,0.03313814103603363,0.08763502538204193,-0.08445797860622406,0.1124190241098404,-0.08775706589221954,-0.11603985726833344,0.15713012218475342,0.07759349793195724,0.007646523881703615,-0.03228139132261276,0.1382238119840622,0.05520663782954216,0.033954016864299774,0.1840132474899292,-0.05572344735264778,0.13340140879154205,-0.17453037202358246,0.08660958707332611,-0.15464957058429718,-0.05549582839012146,-0.04905072599649429,0.15180771052837372,0.029092460870742798,-0.13898220658302307,-0.07448940724134445],[0.17875419557094574,0.12097153067588806,0.13383297622203827,-0.07624411582946777,-0.056125715374946594,-0.02406833879649639,0.031470201909542084,-0.17580920457839966,0.08981312811374664,-0.15414781868457794,0.09821422398090363,-0.15175001323223114,-0.0727405995130539,-0.13521376252174377,0.16953477263450623,-0.10914259403944016,0.0830669179558754,-0.05666980892419815,-0.025725828483700752,0.01764059066772461,0.03557681292295456,0.037379518151283264,-0.19915032386779785,0.13699156045913696,-0.06821152567863464,0.016944045200943947,0.15707145631313324,-0.011121004819869995,-0.04678456485271454,0.12224624305963516,-0.1649523228406906,0.15543867647647858,0.09816209971904755,0.017306998372077942],[0.12537766993045807,-0.09225389361381531,0.11494457721710205,0.08779933303594589,0.03763517737388611,0.09168631583452225,0.15705570578575134,0.04154963791370392,-0.06779734045267105,0.11895017325878143,-0.05845515802502632,0.11800644546747208,0.11755580455064774,-0.14022308588027954,0.1391012966632843,-0.06469414383172989,-0.02914699912071228,-0.1003534123301506,0.11105260252952576,0.06855493038892746,0.03912074863910675,-0.13382413983345032,-0.11938343942165375,0.06317029893398285,-0.039659757167100906,-0.13486677408218384,-0.08268831670284271,-0.15662416815757751,0.04438655078411102,-0.08667833358049393,0.07049013674259186,-0.1368577480316162,0.11783172190189362,-0.11782537400722504],[-0.08926679939031601,0.15203675627708435,0.1592753529548645,0.02180590108036995,-0.018837839365005493,-0.13075172901153564,-0.1598341166973114,0.1059686541557312,0.021552130579948425,-0.03022123873233795,-0.039174649864435196,0.16995282471179962,0.07531559467315674,0.09317506849765778,-0.14435327053070068,0.1105152890086174,-0.0689627006649971,-0.13385255634784698,0.1350429654121399,0.1143537238240242,0.01689152605831623,-0.06932239234447479,0.06980735063552856,0.10926846414804459,-0.05385035648941994,0.028041230514645576,0.13013030588626862,0.018421083688735962,-0.008948981761932373,0.16078627109527588,-0.06766044348478317,0.09430499374866486,-0.03783269226551056,-0.13360802829265594],[-0.0826537162065506,-0.023309091106057167,-0.1517922729253769,0.03673212602734566,0.03531128168106079,-0.03101225197315216,0.1405828893184662,-0.025005271658301353,-0.10083223879337311,-0.09275998175144196,0.06574303656816483,-0.08433964103460312,0.14846915006637573,0.01812230423092842,-0.050899527966976166,-0.21504798531532288,-0.15024876594543457,-0.03520200401544571,0.014262175187468529,0.025284839794039726,-0.03602279722690582,0.024059131741523743,0.1345708817243576,-0.05964496359229088,0.04295549914240837,0.17651624977588654,0.06266805529594421,-0.0053291916847229,0.08697591722011566,-0.0693996325135231,-0.14775753021240234,-0.025052353739738464,0.1172281950712204,0.06536519527435303],[0.09356798976659775,0.1301206797361374,-0.1381170004606247,0.20574960112571716,0.05734030902385712,-0.06218007951974869,0.05530298873782158,0.09168165922164917,0.1680290549993515,-0.1350725293159485,0.024477098137140274,0.0802253782749176,0.06166950240731239,-0.08384231477975845,-0.11741044372320175,-0.07828395813703537,0.05120211839675903,-0.09993575513362885,0.10522709786891937,-0.08366082608699799,0.029135510325431824,0.004427195526659489,-0.12275571376085281,-0.03980766981840134,-0.129704087972641,-0.13148048520088196,-0.08897680044174194,0.1019887775182724,0.07234898209571838,0.17106342315673828,0.042168065905570984,0.013616591691970825,-0.12386356294155121,-0.15792840719223022],[-0.1042979434132576,-0.20235297083854675,-0.02229289524257183,-0.003198730293661356,-0.06447523832321167,-0.06957076489925385,0.11670096963644028,0.14871768653392792,-0.1361149251461029,-0.14086315035820007,0.04272639378905296,-0.13198137283325195,0.20219232141971588,0.052998654544353485,-0.10086178034543991,0.04015590250492096,-0.11362624913454056,0.1560339778661728,0.09114013612270355,-0.08838912099599838,0.11005070060491562,0.01038095448166132,-0.08235707879066467,0.02785383351147175,-0.0741690993309021,0.16395196318626404,-0.05762157589197159,-0.1640419363975525,0.018810972571372986,-0.1266031712293625,-0.009642288088798523,-0.14790453016757965,0.0033442527055740356,0.03816010057926178],[-0.16717036068439484,-0.05522919073700905,0.09838464111089706,0.05629606917500496,0.027997180819511414,-0.13203100860118866,-0.1377023458480835,-0.16895461082458496,0.01490570604801178,0.1154061108827591,-0.08454141765832901,0.18793661892414093,0.09579736739397049,0.033686231821775436,0.16014596819877625,0.08128257095813751,-0.03959813341498375,0.13551321625709534,0.05737787112593651,-0.06877199560403824,-0.017069436609745026,-0.06973660737276077,0.1550765037536621,0.0550149567425251,0.06393523514270782,0.09073840826749802,-0.11932992935180664,0.0741652250289917,0.11151330173015594,-0.07493428885936737,0.13165165483951569,0.011079028248786926,0.13461770117282867,0.1690506488084793],[-0.13466037809848785,0.06999306380748749,0.10670595616102219,-0.019805748015642166,-0.16604416072368622,0.10564140230417252,0.05287986993789673,0.0007067904225550592,-0.04248508810997009,0.13213787972927094,-0.1384706348180771,0.11582144349813461,0.060880932956933975,0.15674088895320892,-0.08610324561595917,0.12170226126909256,0.1427890658378601,-0.006202166434377432,0.16289310157299042,0.08180927485227585,-0.10752015560865402,0.11819245666265488,-0.0028581966180354357,0.0590396374464035,0.022921593859791756,-0.02772841416299343,0.17091034352779388,-0.12006925046443939,0.08743472397327423,-0.08269450813531876,0.1058121770620346,-0.028395459055900574,0.009660303592681885,0.006501197814941406],[0.14900273084640503,0.15280143916606903,0.0016883304342627525,0.20935022830963135,-0.10123082250356674,-0.10629993677139282,0.10510017722845078,-0.10899809002876282,-0.08040040731430054,0.07378271222114563,-0.05025211349129677,-0.05335040017962456,-0.08997873216867447,0.12090618908405304,0.0459754541516304,0.0352083221077919,0.15517917275428772,-0.04573724418878555,-0.07419886440038681,-0.1155545711517334,-0.15365780889987946,0.14557549357414246,0.13122975826263428,0.19616472721099854,0.1000354140996933,-0.0225224532186985,-0.0573858767747879,0.15973709523677826,-0.04585181176662445,0.07987762987613678,-0.058271825313568115,-0.08266574889421463,0.09023897349834442,0.0822804719209671],[-0.01673159934580326,0.05526047572493553,0.07581062614917755,0.12514610588550568,-0.11962953954935074,-0.120099738240242,-0.13952933251857758,0.005810648202896118,0.11282537877559662,-0.10291510075330734,0.12517130374908447,-0.045612357556819916,-0.11098543554544449,0.13311073184013367,-0.15511494874954224,0.1919097751379013,0.005866175517439842,-0.055458810180425644,-0.16321253776550293,0.05761130526661873,-0.1394553780555725,0.020759612321853638,-0.19245514273643494,0.1566123068332672,0.031317658722400665,-0.12023003399372101,-0.04629528522491455,-0.07191038876771927,0.08497925102710724,0.07997431606054306,0.11195637285709381,-0.010855048894882202,0.03292994201183319,0.015892133116722107],[-0.07080078125,0.0007142535177990794,-0.0716511607170105,0.020423512905836105,-0.029694825410842896,-0.018670184537768364,0.03829170763492584,0.11627820134162903,-0.10042575001716614,-0.13846774399280548,0.10968644917011261,-0.07985468953847885,-0.025641528889536858,0.08116579800844193,-0.0596146434545517,-0.08699823170900345,0.0503636971116066,-0.08812365680932999,-0.05886772647500038,-0.021668173372745514,-0.059954769909381866,0.10347859561443329,-0.10096371173858643,-0.18329700827598572,-0.08136644214391708,-0.1578827053308487,-0.1572333723306656,-0.03748364746570587,-0.006726622581481934,-0.1147613376379013,0.08353962004184723,-0.16190610826015472,-0.13029472529888153,0.10641072690486908],[-0.08283062279224396,0.16966061294078827,-0.03420769423246384,-0.0177163016051054,-0.15832741558551788,-0.15943743288516998,0.1586025059223175,-0.10370860248804092,0.07260236144065857,-0.16299167275428772,-0.01780017837882042,0.10444079339504242,-0.1556818038225174,0.11123333126306534,-0.14155010879039764,-0.08821216225624084,-0.15274418890476227,-0.15205278992652893,-0.07759391516447067,0.019282469525933266,-0.11451636254787445,0.15512889623641968,-0.023554077371954918,0.07116594910621643,0.11253508925437927,0.09210313856601715,0.10910265147686005,-0.155279278755188,0.06415829062461853,0.14076361060142517,-0.08730994164943695,-0.1703048050403595,0.09056933224201202,0.03722907602787018],[0.11400803923606873,-0.0959371030330658,0.15822015702724457,0.002483607269823551,-0.16553889214992523,0.013048426248133183,0.15364684164524078,0.03831695020198822,0.12899662554264069,0.038715943694114685,-0.03338691592216492,0.014314191415905952,-0.04256867244839668,0.0805942639708519,-0.1810370236635208,-0.10771797597408295,0.13680687546730042,0.14042654633522034,-0.042031362652778625,0.14335517585277557,0.11259583383798599,-0.014019105583429337,0.11588641256093979,-0.15120159089565277,0.01728624850511551,0.058539699763059616,0.014672324061393738,0.0913776308298111,-0.018367290496826172,-0.1478671133518219,0.053978338837623596,0.018041357398033142,-0.034923821687698364,0.02329404652118683],[0.023725148290395737,0.16824886202812195,0.11619880795478821,0.08583851158618927,-0.07051216810941696,-0.0039556981064379215,0.12646402418613434,0.04269431158900261,-0.08094868063926697,0.008604079484939575,0.15823645889759064,-0.060014400631189346,-0.09319087862968445,0.05648086965084076,-0.09823682904243469,0.08658891916275024,-0.16553518176078796,-0.12333948165178299,-0.04103701934218407,0.18151336908340454,0.014272399246692657,0.05374421924352646,-0.0298976581543684,0.0847925916314125,0.0970333144068718,-0.1827123910188675,-0.16936565935611725,-0.17070116102695465,0.049412429332733154,-0.08575165271759033,0.11409257352352142,-0.0020220130681991577,0.11097158491611481,0.08306942880153656],[0.11634014546871185,-0.0020938985981047153,-0.19634027779102325,0.1911602020263672,-0.06942792981863022,-0.07375385612249374,-0.1953733116388321,0.11006035655736923,-0.1024622768163681,0.05864699184894562,0.0026273438706994057,-0.19606705009937286,0.0823688879609108,-0.138261616230011,0.16096282005310059,-0.09088512510061264,0.15229977667331696,0.08094562590122223,-0.07903590053319931,-0.10181392729282379,0.15662235021591187,-0.15185488760471344,-0.06290201097726822,0.0032539672683924437,-0.0968504250049591,-0.017712906002998352,-0.13917383551597595,0.11489613354206085,0.1443847268819809,0.14249183237552643,-0.1711745262145996,-0.10832122713327408,-0.0404595285654068,0.12675713002681732],[0.02459022030234337,0.11438654363155365,-0.08979799598455429,-0.0016554031753912568,-0.12190721184015274,-0.1686444729566574,-0.09479308128356934,0.0579204298555851,-0.13652685284614563,-0.0768963098526001,-0.056510407477617264,-0.0857425257563591,0.16089875996112823,-0.10860954225063324,-0.0823388546705246,-0.12409905344247818,0.006100505590438843,-0.008785218931734562,-0.03733420372009277,-0.05295204743742943,0.044352926313877106,-0.12402855604887009,-0.015892406925559044,0.0933745801448822,-0.14762955904006958,-0.048425450921058655,0.09740345180034637,-0.03940415382385254,-0.029461920261383057,0.06911442428827286,0.11744286119937897,-0.10771104693412781,-0.07829632610082626,0.06817863881587982],[-0.17121346294879913,0.1088811382651329,-0.0101749487221241,-0.19133567810058594,-0.06855522841215134,0.1086897999048233,-0.00035030211438424885,-0.08730951696634293,-0.013865277171134949,0.08148761093616486,-0.071849025785923,-0.10051533579826355,-0.08475415408611298,-0.035479217767715454,0.06494592130184174,0.16570287942886353,0.1337440013885498,0.09994618594646454,-0.03299412503838539,0.042162828147411346,-0.09075137227773666,-0.043672747910022736,0.18838456273078918,-0.0622907355427742,-0.15515466034412384,0.07849179953336716,-0.12240098416805267,0.03151041269302368,-0.008045539259910583,-0.030240612104535103,0.16551630198955536,0.12728850543498993,-0.06030048429965973,-0.05936839431524277],[-0.08608216792345047,0.18183082342147827,0.16064976155757904,0.0257710050791502,-0.041250765323638916,-0.04421563073992729,0.03714624047279358,0.06223151087760925,-0.03671884536743164,0.12364529073238373,-0.030532309785485268,-0.04112624749541283,0.12621715664863586,-0.14894379675388336,-0.10812165588140488,0.19343434274196625,0.1492902934551239,0.038773804903030396,0.14236761629581451,0.04420660063624382,-0.139811173081398,0.15610940754413605,-0.0974624827504158,0.0804348960518837,0.11791130900382996,-0.10892648249864578,-0.04550859332084656,0.13987185060977936,-0.12047145515680313,0.13563741743564606,-0.03553156554698944,-0.06584438681602478,-0.07237663865089417,-0.07488073408603668],[-0.1453271210193634,0.09527313709259033,0.07520902156829834,0.0755123645067215,0.14521171152591705,0.03416208550333977,0.1374063640832901,-0.013266703113913536,-0.13413813710212708,0.14716900885105133,0.011097357608377934,-0.1262982189655304,-0.14681966602802277,0.09675233066082001,0.18061336874961853,-0.16741029918193817,-0.008945217356085777,-0.0010332450037822127,-0.01194311585277319,0.20656874775886536,0.13943544030189514,0.08387857675552368,0.11118660122156143,-0.09671616554260254,0.027501661330461502,0.07270634174346924,-0.006665393710136414,-0.12719538807868958,0.12042798101902008,0.11505104601383209,-0.1704919934272766,0.024978667497634888,0.12494294345378876,-0.032597556710243225],[-0.12245942652225494,-0.01461908221244812,0.12614846229553223,0.09213036298751831,-0.167513906955719,-0.11157111078500748,-0.03525075688958168,0.10821449011564255,0.019229933619499207,0.07646998763084412,-0.11111357063055038,0.12371727079153061,-0.005173955578356981,0.12521320581436157,-0.05376753583550453,-0.09167349338531494,0.005708209704607725,0.04346975311636925,0.15904200077056885,-0.05739589408040047,0.044900547713041306,-0.02999955601990223,-0.14769570529460907,0.16645082831382751,0.17866963148117065,0.11274822801351547,0.04998210072517395,-0.009475022554397583,-0.096335269510746,-0.01565052568912506,-0.10170676559209824,-0.05681241303682327,0.16744570434093475,0.11686332523822784],[-0.0932154506444931,-0.018517641350626945,0.05909128487110138,-0.025085652247071266,0.1514894813299179,-0.009496471844613552,-0.10328202694654465,0.016031479462981224,-0.06186086684465408,-0.15580661594867706,0.13650712370872498,0.09814956039190292,-0.13414764404296875,-0.04096111282706261,-0.04304741322994232,0.17642471194267273,0.1545800417661667,-0.14081542193889618,0.08925575762987137,0.005773815326392651,-0.09541928768157959,-0.007409857586026192,-0.0068605258129537106,-0.0016732889926061034,0.10196056216955185,-0.11260701715946198,-0.158600315451622,0.030761972069740295,0.13021732866764069,0.1609654724597931,0.06688053905963898,-0.11618071794509888,0.1420247107744217,0.03477799892425537],[0.09925048798322678,0.08973032236099243,0.016974397003650665,0.11566738039255142,-3.758072853088379e-05,-0.18094399571418762,-0.16558918356895447,0.1377367526292801,-0.07652608305215836,-0.002480238676071167,0.05834342539310455,0.06362507492303848,0.008569708094000816,-0.1700495332479477,0.1600186675786972,-0.13766886293888092,-0.12710343301296234,0.11211676150560379,-0.028740061447024345,0.12380300462245941,-0.13957864046096802,-0.04913382604718208,0.09262995421886444,-0.18001499772071838,-0.13109831511974335,0.10273560136556625,-0.0750369280576706,-0.025845304131507874,-0.06926043331623077,-0.10744093358516693,0.12851394712924957,-0.13460037112236023,-0.05735856294631958,-0.08845062553882599],[0.05935375392436981,0.18991614878177643,0.09154056012630463,0.01637410931289196,-0.11228695511817932,0.08568818122148514,0.026716791093349457,0.08727101981639862,0.07714681327342987,0.1621955782175064,0.12898753583431244,-0.05240973085165024,0.04018593207001686,-0.15927258133888245,0.11908017843961716,-0.010914753191173077,-0.02403201162815094,0.011268405243754387,-0.09175758808851242,-0.02217000536620617,0.12485725432634354,-0.10581570118665695,-0.10421115159988403,0.13494081795215607,0.11682623624801636,-0.10546006262302399,-0.15841194987297058,0.028142228722572327,0.012806013226509094,0.12629477679729462,-0.06959428638219833,-0.036055102944374084,0.008327886462211609,0.11669869720935822],[-0.060513366013765335,0.10162824392318726,0.01611010730266571,0.059410277754068375,0.06319738924503326,-0.06186589598655701,0.09635372459888458,0.02433505840599537,0.018016964197158813,0.14627180993556976,0.14782878756523132,-0.10114987194538116,0.05693969503045082,-0.11495447158813477,-0.1769653856754303,-0.14694611728191376,0.17759129405021667,-0.013617719523608685,-0.002358604921028018,-0.1467173546552658,-0.05639953911304474,-0.14321362972259521,-0.0964907705783844,-0.07851578295230865,-0.13321734964847565,-0.04615945369005203,0.1582510620355606,-0.051156990230083466,-0.14652258157730103,0.13356080651283264,-0.048244260251522064,0.00439375638961792,0.03337515890598297,0.14616428315639496],[0.00482711149379611,0.11521094292402267,-0.1071823239326477,-0.08214782178401947,-0.12240423262119293,-0.02068638615310192,-0.11207336187362671,0.07855723053216934,-0.11624428629875183,0.0845891684293747,-0.08131907135248184,-0.12143798917531967,0.14286431670188904,0.12544895708560944,-0.03079027123749256,0.10917963087558746,0.17921054363250732,0.16079705953598022,-0.07232923060655594,0.07030519098043442,0.08008066564798355,0.015774432569742203,0.0469302274286747,0.13491173088550568,0.03822482377290726,-0.06952124834060669,-0.1571471244096756,-0.01857222616672516,0.0205010324716568,-0.1273219734430313,-0.05932672321796417,0.03846511244773865,-0.11750763654708862,0.09713016450405121],[0.1338261216878891,-0.0034250749740749598,-0.00842856615781784,0.029646480455994606,-0.09498703479766846,-0.03920061141252518,0.08825502544641495,0.032848719507455826,0.046701014041900635,0.0008020848035812378,-0.1219390332698822,-0.16245591640472412,0.12669958174228668,0.13316981494426727,0.16527456045150757,-0.13732530176639557,-0.17575469613075256,-0.0075885457918047905,-0.013523615896701813,-0.11886338889598846,-0.10570497810840607,-0.15152952075004578,-0.06684144586324692,-0.005287605337798595,-0.10292521119117737,-0.0014108982868492603,0.03489610552787781,0.1572006791830063,0.12886260449886322,-0.056405842304229736,0.10879991948604584,0.1168399304151535,-0.06516630947589874,0.16089196503162384],[-0.03747307136654854,-0.18346001207828522,0.15146097540855408,0.01557494979351759,0.08586360514163971,0.023708881810307503,-0.03268507495522499,-0.013179919682443142,-0.04865962266921997,0.11322061717510223,0.05043485760688782,0.19488388299942017,-0.13276979327201843,-0.06786500662565231,0.05666323006153107,0.17760641872882843,-0.13431987166404724,-0.09829673171043396,-0.11803972721099854,0.08486507833003998,0.006348372437059879,0.055800631642341614,0.0689995065331459,-0.09082603454589844,-0.014739647507667542,-0.10197346657514572,-0.13079014420509338,-0.09477666020393372,-0.11434978246688843,0.09099039435386658,0.06258365511894226,-0.12028418481349945,0.11731524765491486,-0.07348015904426575],[0.09497295320034027,-0.1542835384607315,-0.1466388702392578,0.06029163673520088,0.045426204800605774,-0.015567012131214142,-0.0633486732840538,-0.11520186066627502,-0.003551781177520752,-0.0346360057592392,-0.10267561674118042,-0.06162136048078537,0.16492731869220734,-0.09081363677978516,0.1785297840833664,-0.17334502935409546,0.03809851408004761,-0.1586804836988449,0.023680532351136208,-0.10323119908571243,0.1725980043411255,0.05952514335513115,0.16852453351020813,0.057086605578660965,0.0071914829313755035,0.08423630148172379,0.12062810361385345,-0.15280038118362427,0.0018623322248458862,-0.14610983431339264,-0.12923979759216309,-0.14773248136043549,-0.041843026876449585,-0.039768874645233154],[0.08532162755727768,-0.1233384907245636,0.06497649103403091,0.015504814684391022,0.0049886554479599,0.105878084897995,0.021144147962331772,-0.03984088450670242,-0.01226961612701416,0.050913065671920776,0.12118881195783615,0.05118394270539284,0.0368838831782341,0.08408496528863907,0.14500077068805695,-0.09631045907735825,0.05117082968354225,-0.03128454089164734,0.0772678479552269,0.04521510750055313,0.1469394713640213,0.04666317626833916,0.10324665158987045,0.13127489387989044,-0.14855645596981049,-0.014074274338781834,0.026317507028579712,-0.05461394041776657,0.17031170427799225,-0.07957815378904343,0.15438143908977509,0.14997847378253937,-0.16748552024364471,-0.16877612471580505],[-0.17067009210586548,-0.1651352196931839,-0.09109015762805939,-0.09035282582044601,-0.16651403903961182,-0.17164616286754608,0.0371210090816021,0.10697833448648453,0.06892174482345581,-0.15231916308403015,-0.11207588762044907,-0.027460861951112747,0.07462577521800995,0.1030244529247284,-0.0777411237359047,0.18391357362270355,0.1571194976568222,-0.061726998537778854,0.12212633341550827,-0.00011939931573579088,0.07572370767593384,-0.1274503469467163,0.0652494952082634,-0.15605588257312775,-0.17646290361881256,-0.1138695627450943,-0.008261293172836304,0.06293123960494995,-0.017421633005142212,-0.11835043132305145,-0.12081456929445267,0.04308037459850311,0.053805574774742126,0.08059258759021759],[0.17674927413463593,-0.09360624104738235,-0.07845089584589005,0.015306636691093445,0.14942778646945953,0.07884728163480759,0.10410144925117493,0.03463558107614517,-0.12447778880596161,-0.12377579510211945,0.1529797613620758,-0.08697106689214706,-0.04490138217806816,-0.11787739396095276,0.00815344788134098,-0.15377812087535858,0.14926184713840485,0.16859395802021027,0.1280006468296051,-0.14209425449371338,0.16047124564647675,0.023484643548727036,0.05717569962143898,-0.10920011252164841,0.03340563923120499,0.06689246743917465,-0.04292532801628113,-0.006679132580757141,-0.036778852343559265,0.09184692800045013,-0.11891321837902069,0.08219371736049652,-0.04193072021007538,0.06026916205883026],[0.12409543246030807,-0.19774453341960907,0.04283631965517998,0.051985643804073334,-0.07470644265413284,0.026018841192126274,0.030906524509191513,-0.0631805807352066,0.1451178938150406,-0.03979124128818512,0.05711747333407402,-0.02805578149855137,0.11275489628314972,0.008530947379767895,0.085245281457901,-0.02385292574763298,-0.08727268874645233,-0.002655051415786147,0.0028262825217097998,-0.19540177285671234,0.12068340927362442,-0.011466235853731632,0.1079704612493515,0.11207807064056396,0.09732519090175629,-0.11425194144248962,0.05310618877410889,0.0378088504076004,-0.034308433532714844,-0.01028405874967575,0.10683019459247589,-0.1466144621372223,-0.14821672439575195,-0.1036779135465622],[-0.15634749829769135,0.08928978443145752,-0.0714615136384964,-0.05951981246471405,0.008450165390968323,0.0072287037037312984,-0.14938943088054657,-0.020347274839878082,-0.15072940289974213,0.10075940191745758,0.10987082123756409,0.12752416729927063,0.060885291546583176,0.019940359517931938,-0.14913971722126007,0.19828590750694275,0.11773893982172012,-0.05172860622406006,-0.08487751334905624,-0.0322091206908226,0.046457115560770035,-0.0009086517966352403,0.06617981940507889,-0.173573836684227,-0.00014512673078570515,-0.10042310506105423,-0.09172985702753067,-0.0074077993631362915,0.00507742166519165,-0.05093946307897568,0.1554831713438034,-0.077785424888134,-0.1288376748561859,-0.1465456336736679],[0.12562595307826996,-0.04031746834516525,-0.09313816577196121,-0.0704411044716835,0.003078773617744446,0.05291227251291275,0.036861587315797806,0.10457602888345718,-0.09507410228252411,-0.1466686874628067,0.13558226823806763,0.04324823245406151,-0.07890662550926208,-0.15893009305000305,-0.09220859408378601,-0.008768401108682156,-0.06727074831724167,0.13604693114757538,-0.034244053065776825,0.008180392906069756,-0.02172696962952614,0.018051467835903168,-0.10305749624967575,0.07570308446884155,0.0442894771695137,0.07480485737323761,0.1490849107503891,0.06048007309436798,-0.11915893852710724,0.044849149882793427,-0.12190486490726471,0.01842445135116577,-0.10191347450017929,-0.013607457280158997],[0.09612192958593369,0.07873658835887909,-0.0939970389008522,0.05108753964304924,-0.006873607635498047,0.1663036346435547,0.1778872162103653,0.11139678955078125,0.03379754722118378,0.07848130166530609,0.11393523961305618,0.1353706568479538,-0.15426531434059143,0.14174595475196838,-0.17878668010234833,0.016811467707157135,-0.08450126647949219,-0.17116375267505646,0.09461293369531631,0.08003740757703781,-0.09624671190977097,-0.17159582674503326,0.07786129415035248,0.002302450593560934,-0.09437854588031769,0.04010462388396263,-0.02424962818622589,0.11305935680866241,0.08819366991519928,-0.14936624467372894,0.1204974502325058,-0.04093010723590851,-0.11831491440534592,0.026951253414154053],[0.004602998029440641,-0.12064085900783539,-0.07278260588645935,-0.004461183678358793,0.027780994772911072,-0.11317860335111618,-0.14185790717601776,0.08468325436115265,-0.07239393889904022,0.16215850412845612,-0.10954223573207855,0.12541992962360382,0.09971849620342255,-0.12419755011796951,0.11632545292377472,-0.04898255318403244,-0.18268242478370667,-0.12285275012254715,0.1397279053926468,0.0549449548125267,0.13741694390773773,-0.06145990639925003,-0.14035339653491974,-0.11037486046552658,-0.0377814806997776,-0.1852387934923172,0.06476403772830963,0.03416961431503296,0.10332439839839935,0.16281472146511078,0.02810072898864746,-0.1668066531419754,-0.006888553500175476,-0.037237197160720825],[-0.0811237245798111,-0.04463212192058563,-0.08949768543243408,0.055267177522182465,0.08742605149745941,-0.09825897216796875,-0.12135791033506393,-0.05740244314074516,0.10774369537830353,0.0938260406255722,-0.023655733093619347,-0.007243528496474028,0.08457990735769272,0.032665736973285675,-0.021919138729572296,-0.06216349080204964,0.10362914949655533,-0.0668138638138771,-0.07658051699399948,0.19956521689891815,0.12276701629161835,0.1833251565694809,-0.15675339102745056,0.2189895510673523,0.2124282270669937,-0.10334382206201553,0.02576044201850891,-0.1455697864294052,0.05816835165023804,0.13798712193965912,-0.018982142210006714,-0.032708242535591125,0.13183791935443878,0.09317095577716827],[-0.11106732487678528,-0.005837683100253344,-0.11987505108118057,0.010859550908207893,0.12081827223300934,0.11933285742998123,0.06376726180315018,-0.09995704889297485,0.10148929059505463,0.042233049869537354,-0.12870551645755768,-0.008808826096355915,-0.09444087743759155,-0.016494594514369965,0.108363576233387,0.1347484439611435,0.05986635759472847,-0.0783202052116394,-0.04684452712535858,-0.15246260166168213,-0.17584684491157532,0.11844583600759506,0.022259501740336418,0.17699652910232544,0.19764892756938934,0.14121492207050323,0.03725142776966095,-0.024955809116363525,-0.1170901209115982,0.04373100399971008,0.11253328621387482,0.03992345929145813,-0.0847393050789833,-0.09543012082576752],[-0.008117842487990856,-0.21800421178340912,-0.21629171073436737,-0.16011245548725128,-0.15055996179580688,-0.08902862668037415,-0.08323018252849579,0.019470036029815674,-0.07480224967002869,-0.09357096254825592,-0.07456710934638977,-0.12203297764062881,-0.01945594511926174,-0.0035845632664859295,0.11464537680149078,-0.15208430588245392,-0.14108280837535858,-0.10800767689943314,0.00023276719730347395,-0.13456545770168304,0.01416099350899458,0.10782968997955322,0.1393764615058899,-0.17429281771183014,0.028700638562440872,-0.004595919046550989,-0.1606123000383377,-0.0014135390520095825,-0.04145368933677673,-0.12174937129020691,0.011487483978271484,-0.08537454903125763,0.09733150899410248,-0.07148629426956177],[0.07993105798959732,0.007156994193792343,-0.18394772708415985,0.22061951458454132,-0.04695766419172287,-0.01663227379322052,0.03304875269532204,-0.00910418201237917,0.12620054185390472,0.01299983263015747,-0.11248809099197388,-0.1663706749677658,0.16594155132770538,0.08077845722436905,0.13146205246448517,-0.17691047489643097,0.144795224070549,-0.07215435057878494,0.07101564109325409,-0.09277958422899246,0.008203238248825073,-0.04089781641960144,-0.009742438793182373,0.10911636799573898,-0.032406263053417206,0.0852263793349266,-0.05322882533073425,-0.15825212001800537,0.07370372116565704,0.03036773018538952,-0.08063241094350815,-0.02853408455848694,0.06431853771209717,0.1379205733537674],[0.05335940420627594,-0.18176788091659546,0.12251880764961243,0.07953011244535446,-0.037213489413261414,0.04519852250814438,0.10643819719552994,0.11656633764505386,0.13267283141613007,0.1320810765028,0.04433371126651764,-0.06944902241230011,0.04287107288837433,0.14208664000034332,0.17028842866420746,0.008882526308298111,-0.016823872923851013,-0.04650037735700607,-0.09377984702587128,0.18397000432014465,0.0492180660367012,-0.19224558770656586,0.00949148740619421,0.06861626356840134,-0.08633960783481598,-0.04544360563158989,-0.17144350707530975,0.007578372955322266,-0.16412612795829773,-0.03673762083053589,0.14414651691913605,0.09825460612773895,-0.0731949433684349,-0.023973390460014343]],"bias":[-0.13279148936271667,-0.09610643237829208,0.14594289660453796,-0.0023797147441655397,-0.16454845666885376,0.0384225957095623,-0.128382608294487,-0.052944086492061615,0.026428140699863434,-0.053484514355659485,-0.1652958244085312,-0.04713892191648483,0.09251759946346283,-0.11164117604494095,-0.042981117963790894,0.03473854437470436,-0.031304795295000076,0.15467587113380432,0.00705892127007246,0.08128916472196579,-0.03386327624320984,-0.10044272989034653,-0.005488902796059847,-0.12175890803337097,0.0013943498488515615,0.08725032955408096,-0.14009049534797668,0.017994418740272522,0.09792036563158035,0.019157487899065018,0.14199338853359222,-0.1045713946223259,0.15186336636543274,-0.05043072625994682,-0.11167847365140915,-0.013409989885985851,0.14650337398052216,0.07655990868806839,-0.16278117895126343,-0.09690941125154495,0.14491194486618042,0.06129100173711777,-0.13431017100811005,-0.1593926101922989,0.10437925159931183,-0.00815717875957489,-0.12783457338809967,0.015015169978141785,0.04764346778392792,-0.13656283915042877,0.09538192301988602,0.14331229031085968,0.13085201382637024,0.10665877163410187,-0.04242409020662308,-0.15227539837360382,0.011360104195773602,-0.1257464587688446,-0.09423529356718063,-0.017511988058686256,-0.15846702456474304,-0.14369890093803406,0.05888603627681732,0.08242527395486832,-0.13410991430282593,-0.07653790712356567,-0.14467427134513855,0.12637056410312653,-0.09072521328926086,-0.1465727686882019,-0.027590977028012276,-0.16783204674720764,0.029046500101685524,0.08490079641342163,0.06841259449720383,0.07406090199947357,0.07232844829559326,-0.03364746645092964,-0.10476341098546982,-0.03658459708094597,-0.025182735174894333,-0.01394747942686081,0.13116763532161713,0.11533976346254349,-0.11634998023509979,-0.11497022211551666,-0.1368187516927719,0.013161903247237206,0.005729087628424168,0.09896919131278992,-0.15288624167442322,0.06382807344198227,-0.027266692370176315,0.1629023551940918,-0.14367055892944336,0.08124881982803345,0.1458406299352646,0.13166357576847076,0.010628098621964455,-0.1273123323917389,-0.06844203919172287,0.044265877455472946,-0.105682373046875,-0.14753364026546478,0.11723492294549942,0.07770750671625137,-0.06428670883178711,-0.10075757652521133,0.07534710317850113,-0.13926702737808228,-0.10771059989929199,-0.14777112007141113,-0.15078628063201904,0.144609734416008,-0.06925885379314423,0.05239197611808777,0.014478315599262714,-0.1210700273513794,-0.09420917183160782,-0.031129008159041405,0.004425476770848036,-0.09525009989738464,0.15800927579402924,0.1318461149930954,-0.012190495617687702,0.0319976806640625,-0.029722927138209343,0.028040168806910515]},{"weight":[[-0.029712241142988205,0.026148781180381775,0.07754645496606827,0.02663959376513958,0.0596415176987648,0.00836260337382555,-0.07294336706399918,-0.03852705657482147,0.06939835846424103,0.03831333667039871,-0.03381863981485367,0.052976690232753754,0.008937867358326912,0.007055256050080061,-0.05390379950404167,0.044337935745716095,-0.043494388461112976,-0.08501957356929779,-0.0027218302711844444,0.013309258036315441,-0.028088917955756187,0.06191574037075043,0.025741733610630035,0.01953568123281002,0.05085085332393646,0.07346155494451523,-0.03718870133161545,-0.06870251893997192,0.05998614430427551,-0.010806773789227009,0.008319695480167866,0.09253112971782684,0.051053039729595184,-0.02326061576604843,0.03415971249341965,0.05411401763558388,-0.01040439773350954,-0.0549112968146801,0.062246423214673996,-0.061424579471349716,0.004240849986672401,-0.057348717004060745,0.043792080134153366,0.10464295744895935,-0.03384948521852493,-0.07278759777545929,0.0521373450756073,0.01038594264537096,-0.024258015677332878,0.020986903458833694,0.07313935458660126,0.053769830614328384,0.02174214832484722,0.07264136523008347,0.02738061733543873,-0.06886956095695496,-0.050090059638023376,-0.022455789148807526,-0.0016286731697618961,0.038151830434799194,0.03599722683429718,0.02731875516474247,0.05444257706403732,-0.06074357405304909,-0.0750558003783226,-0.06976109743118286,-0.08528397232294083,0.01098843477666378,0.05419154092669487,-0.00382590270601213,-0.018018044531345367,-0.04095332324504852,-0.08523385226726532,0.05498156324028969,0.04752727970480919,0.027894241735339165,-0.03875702619552612,0.06274871528148651,0.07579685002565384,0.06850534677505493,-0.0028722896240651608,0.0930534079670906,-0.011164180003106594,-0.08117884397506714,-0.07060233503580093,-0.09147344529628754,-0.032204680144786835,0.010785529389977455,-0.03580562397837639,-0.009792257100343704,-0.042326074093580246,0.045851197093725204,-0.008769291453063488,-0.03679322078824043,0.041759952902793884,-0.048592016100883484,0.09824884682893753,0.08213628828525543,-0.03430549427866936,0.023194292560219765,-0.04479966685175896,0.023728331550955772,0.03969242796301842,0.0015465806936845183,0.05706757679581642,-0.06101500988006592,0.020105862990021706,-0.030929548665881157,0.07149796932935715,-0.05353140830993652,0.01382187195122242,-0.011269289068877697,-0.006284627597779036,0.002637779340147972,-0.10704853385686874,0.0037308908067643642,0.11742561310529709,0.1102876365184784,-0.06930085271596909,-0.02360960841178894,0.08345183730125427,-0.010288398712873459,-0.07870809733867645,0.024950150400400162,0.09187869727611542,-0.03939185291528702,0.018915260210633278,0.03991366922855377],[-0.07938473671674728,0.04213101789355278,-0.02953297831118107,-0.04263375326991081,-0.06556878983974457,-0.029692143201828003,0.09803101420402527,0.021559257060289383,-0.030418382957577705,0.09536024183034897,0.031230514869093895,-0.018613725900650024,-0.04327145218849182,-0.1035846620798111,-0.07707792520523071,-0.056692078709602356,-0.02016185037791729,-0.039343059062957764,-0.09955016523599625,0.07242241501808167,0.07601398974657059,-0.08957412838935852,0.04517757520079613,0.022622307762503624,0.0030959041323512793,-0.05861138924956322,-0.06572635471820831,-0.0724242553114891,-0.05092692747712135,-0.03174690529704094,-0.06589240580797195,-0.03993585705757141,0.05396026745438576,-0.07914889603853226,-0.042745329439640045,0.02165660820901394,0.003659089794382453,0.016273651272058487,0.04291332885622978,0.06257519125938416,-0.021623089909553528,-0.06393612176179886,-0.02210477739572525,-0.0302421972155571,-0.04578051716089249,0.029377100989222527,-0.011160716414451599,0.005273003596812487,0.10928644984960556,0.03844621032476425,-0.08454886078834534,-0.07565315812826157,-0.08983039855957031,0.034398339688777924,-0.10615363717079163,0.03985762223601341,-0.04483257234096527,-0.028674552217125893,-0.030201274901628494,-0.028953630477190018,0.05876833200454712,0.09055555611848831,-0.00036873703356832266,0.035138003528118134,-0.023445453494787216,0.0810084119439125,0.04355108365416527,-0.026087842881679535,-0.029548296704888344,-0.03624754771590233,0.06540359556674957,0.09042581915855408,-0.03692595660686493,0.08467048406600952,0.042693041265010834,0.04592042788863182,0.10059566050767899,-0.03614507243037224,0.07555120438337326,0.014201163314282894,-0.0729832872748375,0.007641349919140339,-0.059006813913583755,0.04802020266652107,0.03783123567700386,-0.01718604937195778,0.008180304430425167,0.07412268221378326,0.047916680574417114,-0.0021343156695365906,0.017559777945280075,-0.02483283542096615,0.056273702532052994,-0.06247514858841896,0.0022074957378208637,0.00620062742382288,0.03927382826805115,-0.029617097228765488,0.053223930299282074,0.010896818712353706,-0.07810863852500916,0.05874723568558693,0.03600374609231949,-0.0362434983253479,-0.03348688781261444,0.09673360735177994,0.04783071577548981,-0.02057000622153282,0.04555215314030647,0.08877206593751907,-0.037615854293107986,0.049347441643476486,0.004851525649428368,-0.037702880799770355,0.0864984318614006,-0.033332619816064835,-0.013543364591896534,0.06399215757846832,0.05399124324321747,-0.06157137081027031,0.044794484972953796,-0.027698686346411705,-0.036871302872896194,0.03378809988498688,-0.01759905368089676,-0.021962447091937065,0.1068737581372261,-0.013424267061054707],[-0.03766412287950516,0.02383386716246605,-0.005088296718895435,0.09808886051177979,0.09180228412151337,-0.001821261364966631,0.031547416001558304,0.057293105870485306,-0.06837303191423416,0.019508181139826775,-0.08800753951072693,-0.08667834103107452,0.0063645606860518456,0.051400382071733475,-0.05648883059620857,0.04916895180940628,-0.06121242791414261,0.0644826889038086,0.006273628678172827,-0.0469006672501564,0.06825991719961166,0.020999208092689514,0.020214194431900978,-0.09978940337896347,-0.048568468540906906,-0.046166904270648956,-0.05121229588985443,0.004752383567392826,0.07790567725896835,-0.002916144672781229,-0.031371086835861206,0.09926916658878326,-0.08322238177061081,0.09154729545116425,0.004493969492614269,0.03238043189048767,-0.03599996864795685,0.04245941340923309,0.09493020176887512,-0.03440733999013901,-0.04151756688952446,0.04118659719824791,0.03665021061897278,-0.021051419898867607,-0.015654655173420906,0.0017298582242801785,-0.0421534962952137,0.05333999916911125,-0.035460393875837326,-0.013355760835111141,-0.04726673662662506,-0.05911431461572647,-0.046472448855638504,-0.038490671664476395,-0.07216768711805344,0.052783139050006866,0.06552337110042572,-0.0015298619400709867,-0.024265309795737267,-0.055031415075063705,0.060414087027311325,0.044707972556352615,0.058715905994176865,0.04146511107683182,-0.09788098931312561,-0.03613676503300667,-0.02513817325234413,-0.08013062179088593,-0.06592199206352234,0.017722900956869125,0.029200615361332893,0.006721378769725561,0.052509061992168427,-0.015761787071824074,-0.060781329870224,-0.007172176614403725,0.06481598317623138,-0.08338963985443115,-0.03749946132302284,-0.10968343913555145,-0.04619688168168068,-0.1140858605504036,-0.03916885703802109,0.038551244884729385,0.04616149142384529,-0.0738145038485527,0.06877121329307556,-0.034951452165842056,0.0014883215771988034,0.025856340304017067,-0.01979866623878479,0.04177860543131828,0.018924744799733162,0.08618826419115067,0.08524210751056671,0.055578749626874924,0.0038602794520556927,0.02430068328976631,0.07889315485954285,0.05234275013208389,0.006401059217751026,-0.02712384983897209,0.04932635277509689,-0.06191373988986015,-0.07456475496292114,